// Neural Network File Format by Kyle Julian, Stanford 2016
3,29,6,256,
29,256,256,6,
0,
0,0,0,0,0,0,0,0,0,0,0,0,0,0,0,0,0,0,0,0,0,0,0,0,0,0,0,-3,0,
40,40,40,40,40,40,40,40,40,40,40,40,40,40,40,40,40,40,40,40,40,40,40,40,40,24,40,3,1,
0,0,0,0,0,0,0,0,0,0,0,0,0,0,0,0,0,0,0,0,0,0,0,0,0,0,0,0,0,0,
1,1,1,1,1,1,1,1,1,1,1,1,1,1,1,1,1,1,1,1,1,1,1,1,1,1,1,1,1,1,
0.31799987,0.15737860,-0.44739988,0.05165306,-0.91309786,0.25430480,-0.62651449,0.14276852,0.19396947,0.10484225,-0.30728522,0.23913416,0.10200766,0.12982912,-0.35810736,-0.71219230,-0.72859216,0.65496004,0.06700890,-0.51465541,-0.20873491,0.21641169,-0.41268668,-0.39890397,-0.09469253,-0.73523998,0.09653934,1.10264897,-0.03090692,
-0.17651178,-0.20336947,-0.19944784,-0.21588920,-0.23053634,-0.21277733,-0.21550509,-0.17216715,-0.19723400,-0.18032302,-0.22679822,-0.16915959,-0.20574810,-0.19111423,-0.26668453,-0.14362253,-0.18296652,-0.26690567,-0.19963099,-0.20922954,-0.19959450,-0.14260828,-0.17356768,-0.19168290,-0.18605867,-5.11999178,-0.15081391,-5.86598444,-0.05936423,
0.43194303,0.35935637,0.39907101,0.44022408,0.46480280,0.39060584,0.45733768,0.32416677,0.42466837,0.42166144,0.40979478,0.41846910,0.40327767,0.39224508,0.42466238,0.45138460,0.40339172,0.42635122,0.52522850,0.44824624,0.44872701,0.39572522,0.12026244,0.34064174,0.80247134,-0.73027527,0.32343718,0.81605881,0.09313090,
0.44017613,0.45517656,0.36613539,0.24015066,0.34460905,0.31011108,0.38021132,0.41628930,0.36969081,0.41677389,0.41044852,0.34851754,0.25341642,0.26481646,0.12561701,0.28137746,0.44975948,0.38322544,0.37228370,0.44634062,0.46684659,0.45885006,0.43832013,0.41722572,0.40870550,-0.65102792,0.42422149,-0.67539644,0.00644341,
-0.54993296,-0.39022416,-0.50590712,-0.40076908,-0.24821946,-0.57317567,-0.29731727,-0.43043643,-0.37379539,-0.33557564,-0.39615399,-0.29849705,-0.39660051,-0.24165171,-0.39840785,-0.53352737,-0.66325182,-0.30427301,-0.37725043,-0.45460770,-0.34469292,-0.51296252,-0.55501413,-0.74223453,-0.29925129,0.99689716,-1.04169536,0.61902612,0.03950161,
-0.22115253,-0.19670796,-0.22532713,-0.26030341,-0.23869154,-0.16468194,-0.22620404,-0.15299505,-0.18382142,-0.20900419,-0.24681394,-0.21295618,-0.18705960,-0.25250772,-0.23131354,-0.20990270,-0.16873427,-0.22113089,-0.22906311,-0.14274199,-0.18632624,-0.13506393,-0.12955809,-0.20612083,-0.18809505,-5.00942802,-0.15005828,-6.09351206,0.11113466,
0.36988717,0.39039174,0.41837546,0.34380114,0.37573990,0.34576911,0.38109106,0.47515827,0.40155062,0.42813465,0.39585206,0.41478288,0.38929072,0.43081620,0.44923264,0.41049081,0.44482204,0.40248096,0.36822382,0.39857763,0.34821415,0.37406516,0.45113668,0.43983904,0.48491207,-0.60163629,0.45015037,-1.31998742,0.07061486,
0.43067998,0.45755717,0.39918301,0.39908028,0.34445050,0.40923262,0.47173509,0.42375052,0.35648909,0.43492326,0.39758545,0.43793547,0.40159234,0.41404557,0.48066685,0.38040191,0.39795965,0.45297092,0.41016752,0.45768079,0.48106748,0.39626217,0.49607709,0.43281430,0.42928788,-0.62143731,0.50350386,-1.01384830,0.08862738,
-0.66242611,-0.50872880,-0.45549113,-0.42360067,-0.48169759,-0.32883373,-0.27333841,-0.51431161,-0.49770465,-0.43443730,-0.34641799,-0.54816967,-0.37138054,-0.34225297,-0.38566139,-0.66288126,-0.43710408,-0.45623657,-0.46735927,-0.27469888,-0.43671191,-0.36348310,-0.34145227,-0.34583378,-0.49230245,-4.14777613,-0.32228628,-4.57893991,0.00674647,
-0.46414396,-0.26025975,-0.19914392,-0.10459714,-0.01519584,-0.13369128,-0.44961920,-0.01937816,-0.02899534,-0.24771589,-0.07118871,-0.22758947,-0.10964084,-0.04143086,-0.49931708,-0.04065707,-0.02242510,-0.25921488,-0.13993067,-0.24140604,-0.19599311,-0.06242547,-0.38799050,-0.11811431,-0.00537594,-0.24870940,-0.33467090,-0.55506533,0.11351340,
0.35292339,0.42569804,0.42145190,0.38691658,0.38480508,0.45782170,0.41309848,0.42576474,0.40557536,0.44927469,0.35342258,0.41281986,0.45121747,0.40886104,0.44307634,0.43166742,0.39292356,0.39632577,0.40538776,0.41191921,0.43024325,0.40366489,0.46389416,0.43710792,0.46662852,-0.66608799,0.44507343,-0.66868979,-0.07202139,
-0.20338139,-0.18579473,-0.21632357,-0.21077278,-0.20956030,-0.21700652,-0.16749151,-0.20981807,-0.23630290,-0.17328668,-0.19276792,-0.15719818,-0.17165080,-0.22243576,-0.27933633,-0.14804010,-0.15678301,-0.20618939,-0.18793313,-0.27223495,-0.21294804,-0.23290320,-0.20902011,-0.18436833,-0.12257653,-4.59892225,-0.16392815,-5.92258406,-0.05522496,
-0.30633590,-0.16751498,-0.02191895,-0.01412914,-0.01345275,-0.29587615,-0.03125264,-0.36577225,-0.34958005,0.01535174,-0.00729119,-0.13521063,-0.36504775,0.02488072,-0.12219632,-0.03623023,-0.01972258,-0.08951890,-0.21429935,-0.02037029,-0.13276671,0.01575872,-0.06328414,-0.10175028,-0.47215086,-0.37492090,-0.29414356,-0.52428460,0.04538372,
0.50097060,0.43528610,0.44070810,0.40766546,0.33732283,0.30836317,0.50096285,0.46767685,0.38962427,0.46686408,0.31358603,0.42476451,0.41419259,0.34199232,0.43822631,0.31308085,0.36783403,0.40461114,0.36614397,0.42262551,0.45241386,0.39804953,0.43324792,0.44176257,0.40108573,-0.72381222,0.41156957,0.35430437,0.16105036,
-0.14369354,-0.08185927,-0.09610489,-0.23356363,-0.21124284,-0.15907791,-0.17102583,-0.10351673,-0.15277332,-0.27143678,-0.07990193,-0.37029538,-0.23616108,-0.07363002,-0.07938264,-0.07798099,-0.05613137,-0.08471775,-0.31429297,-0.13940850,-0.40115702,-0.31136340,-0.19742818,-0.09015758,-0.12387326,-1.49351418,-0.05825657,-1.06931877,0.01797435,
-0.10987028,-0.20024231,-0.34587535,0.07726888,-0.49597585,-0.48611099,0.08107870,-0.84688205,0.09841393,-0.01728401,-0.96908349,-0.11101722,0.30996540,0.14482459,0.19840886,-0.79990029,-0.00997307,-0.20977035,-0.21328086,-0.02664310,-0.15842043,-0.28468436,-0.19629446,-0.04623973,0.25542825,-0.29553565,-0.35203144,-1.03243721,0.07107927,
-0.30118555,-0.23072840,-0.19170293,-0.22026607,-0.26090109,-0.17036225,-0.25928569,-0.27047804,-0.28776589,-0.17033581,-0.18167247,-0.19143033,-0.20639141,-0.24121152,-0.26913616,-0.17795080,-0.19368404,-0.45184484,-0.15168549,-0.37225053,-0.25786018,-0.17456050,-0.18413919,-0.36259794,-0.14630508,-2.49686551,-0.32941565,-1.97627282,-0.05985600,
-0.23362353,-0.04432659,0.05339063,-0.12288450,-0.22714232,-0.27731696,-0.59233892,-0.08149599,-0.17565574,-0.13865624,-0.35591885,-0.11012826,-0.10177624,-0.37315902,-0.21687022,-0.03205266,-0.04908245,-0.07119518,-0.44206715,-0.21588005,-0.02425942,-0.10072232,0.03146572,-0.15714924,0.01090422,-0.59224373,-0.66997308,0.07748373,-0.11017578,
-0.29627785,-0.24276236,-0.26640049,-0.31401852,-0.22653812,-0.37966016,-0.42912301,-0.43261290,-0.44289616,-0.51773298,-0.41603032,-0.45771122,-0.02975060,-0.12252805,-0.09166330,-0.05267490,-0.05801566,-0.13933785,-0.22088738,-0.12096246,-0.21844436,-0.21736588,-0.30288085,-0.15998217,-0.09304671,0.93108827,-0.24116440,1.27331305,-0.13441652,
0.41521585,0.45698762,0.43685415,0.42379090,0.41284329,0.47793645,0.47783330,0.40530175,0.51480055,0.47127736,0.42720741,0.43726453,0.36780974,0.39581460,0.44672981,0.49542427,0.42772195,0.44044548,0.48067221,0.46960863,0.45871899,0.41155711,0.43793052,0.45331630,0.42342228,-0.65168041,0.51335496,-2.12769055,0.10599233,
0.44919834,0.40850145,0.22573909,0.38897941,0.39861232,0.36314365,0.30234498,0.23044911,0.43757266,0.35038313,0.46984223,0.14595746,0.39401072,0.33730218,0.41175395,0.35406739,0.26035196,0.30547059,0.43972883,0.37290680,0.16739069,0.43906826,0.34359890,0.43247709,0.46982345,-0.66790169,0.40655893,-0.74036777,0.04325020,
-0.23543321,-0.20525892,-0.21551093,-0.13343491,-0.11513939,-0.09563646,-0.16912784,-0.16016608,-0.23460077,-0.11414021,-0.15132740,-0.10056774,-0.15803817,-0.16241872,-0.13991812,-0.18666738,-0.17561118,-0.22143249,-0.16469161,-0.15457788,-0.19799900,-0.15793055,-0.34823537,-0.25344047,-0.18552125,-5.24411964,-0.15048198,-5.94925976,-0.09345029,
-0.16089115,-0.10563777,-0.29414958,-0.15919177,-0.17264427,-0.09801934,-0.13949886,-0.30259874,-0.07962491,-0.11647291,-0.21884862,-0.12885936,-0.10604606,-0.17686623,-0.13310494,-0.21566035,-0.10335979,-0.07605371,-0.13491465,-0.31101951,-0.23471050,-0.10816053,-0.28687057,-0.12271611,-0.03543476,-1.83176601,-0.38146642,-1.06588590,0.08564903,
-0.08381004,-0.06926632,-0.21872421,-0.04669873,-0.29717857,-0.24007453,-0.09345232,-0.24909768,-0.15445422,-0.09107030,-0.05416592,-0.11846604,-0.08403988,-0.17597114,-0.26597697,-0.14825365,-0.19602226,-0.05377483,-0.09872453,-0.41957596,-0.12808959,-0.10869472,-0.05874517,-0.11873596,-0.26582369,-1.02869177,-0.23459151,-0.83905864,0.03427266,
0.01406538,0.01294686,-0.02504472,-0.28978944,-0.20830534,-0.09703657,-0.13701430,-0.13960224,-0.33462855,0.01011575,-0.23556952,-0.34777287,-0.11098405,-0.25548637,-0.04064115,-0.32556060,-0.11684556,-0.35543054,-0.04767740,0.00477148,-0.26586267,0.01299982,-0.04969360,-0.01091428,-0.33660823,-0.42899573,-0.29436320,-0.03134459,-0.01410489,
0.23407105,0.29374290,0.46609581,0.22309610,0.34126496,0.49279299,0.47894984,0.42000642,0.65377647,0.49947020,0.53530180,-0.10839609,0.34004757,0.14575633,0.09806255,-0.02975963,0.07652546,0.30214220,0.12628281,0.14055197,0.20674506,0.12265317,0.06770283,0.19446574,0.36268556,-0.81620640,0.19286227,2.91780114,0.17048366,
-0.13773143,0.16141705,0.20315911,0.01192093,0.04321432,-0.00838443,-0.00521138,0.02049099,0.14240803,0.17952205,0.21149662,0.15462488,0.34505183,0.37498009,0.36804563,0.40467164,0.48830330,0.48506084,0.62817246,0.15849654,0.36029431,0.28871870,0.06755830,0.07118560,0.05538957,-0.60704195,0.21130541,0.24870269,0.14451267,
0.53639799,0.52836102,0.46179760,0.53640354,0.45430180,0.46899217,0.50212133,0.48947430,0.52099210,0.45522949,0.46057975,0.46174631,0.41615590,0.51491684,0.47482336,0.48898619,0.45728543,0.45313781,0.46812677,0.47341049,0.50730813,0.46385846,0.49524745,0.44351128,0.45525998,-0.70626646,0.49173316,-1.18010175,-0.14956960,
-0.12325002,-0.15620910,-0.24614486,-0.18398014,-0.19760203,-0.22180729,-0.17842510,-0.15299946,-0.11624082,-0.15416665,-0.09856044,-0.11316669,-0.21971944,-0.20599648,-0.15539861,-0.24155904,-0.12999554,-0.14660276,-0.10963747,-0.17800508,-0.11292168,-0.13108644,-0.38086081,-0.10333183,-0.30164874,-2.40825224,-0.09350590,-1.70160460,-0.02969161,
-0.51116413,-0.46473110,-0.49495092,-0.51997983,-0.66556138,-0.42192906,-0.54479641,-0.42415869,-0.65438741,-0.62797946,-0.57258976,-0.53921264,-0.48774794,-0.40001577,-0.50724280,-0.61300141,-0.52151686,-0.55620760,-0.83043629,-0.61825407,-0.57516539,-0.45702833,-0.75385380,-0.35343659,-0.31383792,0.74436522,-0.37023419,0.54822654,0.06408913,
0.31343299,0.42553249,0.50871056,0.39170179,0.44398114,0.23609957,0.43078902,0.51719052,0.47410843,0.41296953,0.52960378,0.43118465,0.53107578,0.47632378,0.41839057,0.47654855,0.48519087,0.48680851,0.45873728,0.50743717,0.45977968,0.50823015,0.59636420,0.46789062,0.58965850,-0.66945988,0.53074950,-2.48034883,-0.02618249,
0.21787070,-0.22351387,-0.44929069,0.38742122,0.06137814,-0.30990085,0.04816843,-0.61378354,-0.15519823,0.15692657,0.15103649,0.04922560,-0.15306745,-0.40282714,-0.17871976,0.05141965,-0.18150239,0.14504217,-0.07011451,0.30532512,-0.09068902,-0.09098624,0.26230583,-0.54573387,0.27113158,-0.48348039,-0.38235605,0.23598041,0.12207787,
-0.30689016,-0.06474879,-0.21093616,-0.07944193,-0.05546938,-0.20414428,-0.01259939,-0.06832772,-0.10578662,-0.19601649,-0.30464083,-0.14304979,-0.19833277,-0.00731548,-0.02661468,-0.00737607,-0.01862409,-0.24353831,-0.05299766,-0.07531903,-0.35355303,-0.17093296,-0.06765176,-0.12746920,-0.01309046,-0.61738962,-0.10878532,-0.38788539,0.11331572,
-0.05669067,-0.11391617,-0.31046769,-0.48524046,-0.00379700,-0.36803010,-0.28481942,-0.31381658,-0.32485706,0.11590725,-0.08520816,0.00347230,-0.09176398,0.10613960,0.04659914,0.16130653,0.00923906,0.29023561,0.19746660,0.28306168,0.27957520,0.38757178,0.25897416,0.12654209,-0.60744655,-0.53482783,0.31385642,-0.97091305,-0.14717171,
0.34553015,0.44000039,0.42759857,0.46789226,0.30019113,0.35174721,0.37909421,0.47552380,0.41658106,0.33427808,0.41998708,0.33472958,0.37998769,0.34140578,0.33971852,0.43548086,0.54511684,0.49743080,0.45281708,0.47275817,0.53774071,0.47100514,0.44925284,0.43655679,0.39658904,-0.64853221,0.39648339,-1.10640168,-0.08474565,
0.53152519,0.12781148,-0.15273471,-0.00273082,0.08378853,0.04988552,0.03731133,0.15207681,0.15726347,-0.22657825,-0.29477042,0.14122692,-0.39634290,0.14500952,0.10142333,-0.27282262,0.44585633,0.19811846,0.00293499,0.30073848,0.21739316,0.09480483,0.12689573,-0.14254168,-0.77255672,-5.84307528,0.44049084,1.31657779,0.13097818,
-0.45241678,-0.35025078,-0.82521254,-0.73206824,-0.56371391,-0.44146305,-0.24178828,-0.15256260,-0.78180873,-0.06184644,-0.00349702,-0.05518326,-0.10663842,-0.19796272,0.00307064,-0.04034228,-0.46789417,-0.42004585,-0.22843000,-0.02439109,-0.43307602,-0.07570901,-0.13430104,-0.12254962,0.03542771,-0.25664881,-0.05257219,-0.12679249,0.17099790,
0.40007702,-0.00954434,-0.05651197,-0.02609363,-0.03349718,-0.12701288,-0.03397363,0.25892547,0.14319949,0.26041710,0.26494366,0.26808786,0.35007042,0.37443051,0.37221774,0.32486254,0.19378120,0.25334963,0.21251483,0.33788079,0.32678959,0.18921866,0.06813174,0.25911117,-0.11000457,-2.00413895,-0.36223948,1.49517393,0.09798290,
-0.27537489,-0.31637707,-0.27999794,-0.23441125,-0.25841182,-0.27506012,-0.33349204,-0.53360009,-0.34237391,-0.29497465,-0.26592973,-0.39946643,-0.43159735,-0.41728762,-0.26134330,-0.33767354,-0.29159263,-0.24111904,-0.32602784,-0.45233965,-0.42742997,-0.28993785,-0.42117015,-0.38998100,-0.15380934,-3.12783837,-0.28104651,-3.18955827,-0.02459623,
0.09774803,0.30526936,0.05195000,-0.20958401,0.22696044,-0.13034639,-0.18192044,-0.00995472,-0.24623705,0.09915927,0.10966261,0.07956067,0.26009813,-0.08724448,0.48274019,-0.39683208,-0.00091980,-0.01307577,0.06366054,-0.26612398,-0.02368992,-0.15684393,0.31364349,0.07927168,0.25571898,-0.59187406,0.23066512,2.37788105,0.00408114,
-0.44207510,-0.51455295,-0.38015261,-0.41534773,-0.35450754,-0.41653100,-0.38869703,-0.40021628,-0.41520631,-0.48088691,-0.41642836,-0.36863849,-0.38101310,-0.42470524,-0.46870199,-0.50744480,-0.54693198,-0.54204208,-0.39344171,-0.29575768,-0.27812061,-0.28625891,-0.32919958,-0.36983064,-0.20173201,0.88335180,-0.35345644,1.34399951,-0.01375206,
-0.10009841,-0.41389501,-0.25125402,-0.20183907,-0.24327785,-0.06703915,-0.05766112,-0.22882827,-0.22540028,-0.17677234,-0.24336746,-0.14086679,-0.04142312,-0.27722189,-0.47311023,-0.02457443,-0.36335722,-0.04874691,-0.06754896,-0.13814335,-0.24415506,-0.17935006,-0.04037254,-0.29814443,-0.01947296,-0.88601279,-0.11170055,-0.77065033,-0.13323775,
-0.32989994,-0.07438582,-0.02838082,-0.12922005,-0.08750368,-0.05152782,-0.11872943,-0.11762055,-0.28013086,-0.40501535,-0.21840857,-0.18834662,-0.23659088,-0.18505278,-0.09774324,-0.09596296,-0.10894448,-0.09623007,-0.22028212,-0.21398406,-0.28709295,-0.16267133,-0.15930255,-0.28107530,-0.08574349,-6.99087381,-0.10142957,-5.80041313,-0.08967119,
0.01333385,-0.05729766,-0.08183996,0.12813327,-0.24063177,-0.31266078,-0.12620987,-0.13341013,-0.08741347,-0.16655119,-0.38415575,-0.23445077,-0.07152868,-0.22029266,-0.14651939,-0.31768456,-0.12349765,-0.20112342,-0.12269863,-0.51063323,-0.16177019,-0.21648675,-0.34480739,0.01593066,0.01864137,-1.66600621,-0.32665840,-1.06850612,0.11559962,
-0.53777528,-0.20366557,-0.06459736,-0.05672363,-0.13615695,0.03472289,0.23661482,0.23442185,0.27197170,0.43317232,0.38958043,0.17801805,0.31835750,0.30790615,0.05463314,0.06906115,0.07868454,0.12502554,-0.04191752,-0.10394541,0.33193111,-0.00933381,0.23430833,0.22284926,0.12384968,-0.97519422,0.17037989,1.88593888,-0.14505498,
-0.61026806,-0.46955243,-0.15129921,-0.84053159,-0.00855412,-0.49342972,-0.36759949,-0.00653132,-0.11344889,-0.23967284,-0.01765001,-0.09951106,-0.50483513,-0.24759555,-0.48361984,-0.86588043,-0.01171347,-0.02157152,-0.45330840,-0.19416745,-0.10886945,-0.04566335,-0.06953365,-0.18254428,-0.00590939,-0.03028277,-0.18125947,-0.20513505,0.06425904,
-0.04417988,-0.09174075,0.19413723,0.04337673,-0.24413453,0.11224170,-0.01558388,0.11399408,0.24312034,0.18944672,0.07279664,0.31978217,-0.11286604,0.08261322,0.09941680,0.20974594,0.03611926,-0.00265258,-0.01551536,0.13938887,0.04958575,0.20036373,0.17695373,-0.01596898,-0.00473235,0.13125670,-1.04758024,-1.82021952,0.09969659,
-0.22203454,-0.28989840,-0.30652294,-0.01436633,-0.14182603,-0.31230640,-0.04930955,-0.26808208,-0.51366913,-0.48524302,-0.15139215,-0.28803006,-0.15085234,-0.13465643,-0.10004152,-0.12406843,-0.29337007,-0.46507877,-0.05962880,-0.23782167,-0.06743716,-0.01588404,-0.14176615,-0.09163018,0.00064805,-0.14749907,-0.10773444,-0.31778586,0.04726857,
0.18387751,0.42054266,0.32656893,0.08261631,0.05235876,0.30575809,0.30193266,0.30513972,0.19402847,0.28658986,0.21834610,0.18198444,-0.15265392,0.32780018,0.24498071,0.28629550,0.23792662,0.21818206,0.40183258,0.33909220,0.31091610,0.11384467,0.17769784,0.02919315,0.33994356,-0.35398179,-0.34202456,1.93909514,0.17115419,
0.21108736,0.04115763,-0.23062415,0.02729603,-0.77103829,0.15592819,-1.00476217,-0.15523687,-0.78787309,-0.25278220,-0.65426624,-0.11996783,-0.60474038,-0.00718059,-0.12385017,-0.86628431,-0.67429495,-0.69114310,-0.24260759,-0.42617467,-0.16436696,-0.23611577,-0.16862184,-0.11060181,-0.34996465,-2.91732621,0.08341065,0.16029951,-0.16635746,
-0.00439982,-0.04446925,-1.35520196,-0.30644438,0.01963927,-0.29018211,-0.26192352,-0.57412124,-0.57752365,0.00293907,-0.52067447,-0.25041464,-0.17358702,-0.83871156,-0.53850847,-0.48271668,-0.36311248,-0.06922901,-0.01823802,0.01321387,-0.28983283,-0.18410188,-0.08275811,-0.31911227,0.03067071,-0.14487837,-0.17621374,-0.11340281,-0.10552216,
0.37764275,0.30965739,0.05546933,0.21449865,-0.10260534,0.16555689,-0.05167139,-0.05645360,0.01752624,-0.06676780,-0.33539575,0.16141835,0.23010913,0.04142505,0.29891905,0.30102342,0.30280587,0.20322803,-0.02743503,0.33061415,-0.18072726,0.19502890,0.18002522,0.01805028,0.25192517,-0.29678214,0.36461154,-1.47878182,-0.01881501,
-0.33298337,0.03031872,0.16683875,-0.05924323,0.12282003,-0.09878050,-0.07303730,0.16522048,-0.33214617,-0.45712963,0.07362001,0.23359448,-0.06375036,0.09414326,0.11618120,0.02174553,0.10945860,-0.00857626,-0.53697729,0.16566168,-0.04794194,-0.04395416,-0.11036111,-0.26011711,-0.05368492,-4.44556618,-0.29734227,0.19554466,-0.11921403,
-0.18293986,-0.37342617,-0.41466722,-0.23622763,-0.23050658,-0.17460504,-0.77140725,-0.56934422,-0.20025207,-0.18605843,-0.19304964,-0.31835148,-0.05046326,-0.45709851,-0.06060427,-0.16546294,-0.06763692,-0.36863247,-0.04594706,-0.11996983,-0.13333847,-0.08073145,-0.62695974,-0.35830230,-0.09187793,-0.31700981,-0.47037074,-0.99485153,0.15918888,
0.56317294,0.49954915,0.49669254,0.46343225,0.37695694,0.57132268,0.55491298,0.41840738,0.40076810,0.44816184,0.19272259,0.32851100,0.26303342,0.34299263,0.33437937,0.32849345,0.35959491,0.36082822,0.38025582,0.54711998,0.60215479,0.56668472,0.30928323,0.60082966,0.38526940,-0.79979324,0.38786960,1.08719838,-0.10181966,
-0.24533203,-0.17892703,-0.41968375,-0.49781665,0.03355501,-0.26394626,-0.14436513,-0.17906511,-0.42740411,-0.06484594,-0.19125262,-0.06726383,-0.07301372,-0.48652023,-0.11721400,-0.13279711,-0.23793082,-0.06997263,-0.25877440,-0.09317516,-0.18367444,-0.08748951,0.20772995,0.16908717,0.42108473,0.20091917,0.39605984,0.23879123,-0.12635359,
-0.20613647,-0.15826537,-0.23858221,-0.16510557,-0.40086669,-0.18931761,-0.20135799,-0.23876186,-0.34746560,-0.30706948,-0.14125019,-0.27903566,-0.33025956,-0.21035151,-0.26647973,-0.38828605,-0.18018603,-0.37538084,-0.29409584,-0.20523863,-0.47801125,-0.21297525,-0.40582785,-0.40246743,-0.45306700,0.25011623,-0.24654587,0.12363548,-0.16841684,
-0.07332063,-0.10972459,-0.07042889,-0.15314481,-0.13042833,-0.06759533,-0.16626886,-0.23708996,-0.14639209,-0.10503685,-0.14699626,-0.08475883,-0.29154581,-0.09482861,-0.12808032,-0.07061790,-0.09099317,-0.11332329,-0.15885553,-0.07116371,-0.08353080,-0.11628685,-0.09336181,-0.26342750,-0.32061070,-1.19981456,-0.11366911,-1.20109773,0.06447537,
-0.01769116,-0.09569010,-0.05755473,-0.23745327,-0.40791947,-0.04308976,-0.05790221,-0.26125878,-0.03241554,-0.49061951,-0.25940892,-0.29134670,-0.40723160,-0.24670766,-0.25391051,-0.06258238,-0.06669058,-0.04361315,-0.44401389,-0.08108625,-0.48441657,-0.56470871,-0.57519710,-0.29954639,0.24794920,-0.26161775,-0.54112023,-1.00539422,-0.01121946,
0.11534404,0.13221547,0.25848341,0.21631485,0.05321411,0.16746105,0.30568045,0.25622821,0.27734521,0.24059923,0.20848067,0.24540119,0.15465082,0.05014410,0.28163576,0.27588806,0.44489947,0.41682515,0.60130841,0.57568449,0.23782116,0.57838017,0.43212119,0.32803956,0.51384127,-0.25280023,0.20782779,-1.54728925,0.12168558,
0.47735906,0.51101637,0.46055636,0.47873485,0.40530971,0.45066592,0.51295978,0.46034431,0.44528946,0.45035881,0.42200330,0.43632013,0.41632742,0.45259190,0.44748485,0.46391547,0.45383194,0.45964035,0.43757251,0.46042505,0.46362567,0.44841412,0.47913951,0.42713270,0.43366829,-0.66944706,0.46451944,-1.32776260,-0.03796032,
0.08472399,0.24955003,-0.03066083,0.23253302,0.30799448,0.21822275,0.03784172,0.33000609,0.05300145,0.09566208,0.16036640,0.15840495,0.20093778,0.22023576,0.34887165,0.23285447,0.29908669,0.18714675,0.13046339,0.22021653,0.14362359,0.32760641,0.51751935,0.62173259,-0.12966418,-0.72272331,0.49318609,-1.23865378,0.01185276,
-0.49838766,-0.31734934,-0.39193979,-0.31485346,-0.42038000,-0.37382841,-0.32985216,-0.35831708,-0.51258063,-0.31805924,-0.36943135,-0.35911068,-0.36987635,-0.38184053,-0.39222956,-0.48260143,-0.40939790,-0.38690802,-0.51323038,-0.40496942,-0.38515589,-0.36215153,-0.31375656,-0.40911254,-0.30028614,-3.84947538,-0.37283328,-4.07717800,0.02777304,
-0.31138742,-0.21357454,-0.35687998,-0.19789706,-0.20318168,-0.29806992,-0.27779508,-0.19653247,-0.19228795,-0.26019123,-0.35771865,-0.22246933,-0.20920321,-0.34285590,-0.31546378,-0.26525500,-0.19032483,-0.37615684,-0.19245695,-0.25829101,-0.34975141,-0.27409700,-0.27846417,-0.19335638,-0.52612150,0.34796870,-0.30934927,-0.26336017,-0.03493974,
-0.16732097,-0.18629156,-0.21041213,-0.20803751,-0.22156075,-0.18838327,-0.22513255,-0.19039306,-0.18991722,-0.18512735,-0.22248927,-0.15110567,-0.20604965,-0.22351697,-0.23602471,-0.14875060,-0.17640485,-0.27334234,-0.18848568,-0.21840766,-0.15887220,-0.14748688,-0.16932054,-0.17665070,-0.24483381,-5.19227123,-0.15025373,-5.96571970,0.07614915,
-0.47420058,-0.09281480,-0.07918207,-0.10182921,-0.26135957,-0.03153338,-0.28794450,-0.09418290,-0.19491392,-0.01795345,-0.11078019,-0.15448955,-0.02353485,-0.11010484,-0.15444414,-0.19215608,-0.16333468,-0.26500413,-0.18572316,-0.52299064,-0.13226660,-0.05753630,-0.11629013,-0.32518962,0.01469849,-0.78136778,-0.03022445,-0.41846246,-0.07748924,
0.48959726,0.44703186,0.47574079,0.45063990,0.44904029,0.47599816,0.47001946,0.46901634,0.47333908,0.47488877,0.42862853,0.48445815,0.38003302,0.47914246,0.49578410,0.46226624,0.46488059,0.45853457,0.42725056,0.41445512,0.37911084,0.43935359,0.39123270,0.37781483,0.38819495,-0.72688949,0.43857113,-1.51407635,-0.02816007,
-0.23944435,-0.17026263,-0.11788078,-0.18307269,-0.37153533,-0.16103762,-0.07359474,-0.16618834,-0.22754784,-0.17289340,-0.35818690,-0.09870661,-0.30122635,-0.34723914,-0.08589318,-0.23855722,-0.12364319,-0.45966190,-0.31923652,-0.31658676,-0.25505054,-0.15674224,-0.17931588,-0.35012013,-0.03914545,-2.42708945,-0.10937008,-1.27450120,0.07573737,
-0.94063699,-0.26016951,-0.31292602,-0.21949881,-0.88786614,-0.13972516,-0.44905671,-0.11251368,-0.75355756,-0.42168394,-0.85872275,-0.93196309,-0.28482550,-0.36413509,-0.29579479,-0.17533545,-0.47890273,-0.09176749,-0.36686552,-0.23095982,-0.30742064,-0.51315176,-0.86050111,-0.88527471,-0.31398037,0.11818843,-0.09089155,0.51605344,-0.06917239,
-0.38737109,-0.37091476,-0.36628225,-0.26155263,-0.66982859,-0.46792704,-0.71316463,-0.84217191,-0.47542796,-0.28929994,-0.44648001,-0.57965046,-0.64086121,-0.25463253,-0.43109724,-0.45120320,-0.24543364,-0.79140884,-0.35441509,-0.41854239,-0.45396879,-0.31707984,-0.37558901,-0.36435181,-0.60467583,0.41161218,-0.60012656,0.24299133,0.16414182,
-0.07462436,-0.13514933,-0.33756730,-0.07571618,-0.02786645,-0.21134244,-0.00133029,-0.41351646,-0.43656844,-0.00706432,-0.19316778,-0.14136067,-0.20319250,-0.10565373,-0.24484575,-0.38597003,-0.15816490,-0.34617642,-0.09238034,-0.14814816,-0.00785882,-0.04089322,-0.02083863,-0.11202051,-0.29178718,-0.59125859,-0.08729544,-0.12861975,0.02047864,
-0.00493594,0.16041104,-0.06749858,-0.27480394,0.15458100,-0.29159260,0.17156784,-0.05659636,-0.62183106,0.18871541,-0.04014169,-0.06145977,0.09220558,0.23345575,0.32069761,0.27232718,0.16189130,0.06514877,0.02202965,0.06949033,-0.27074105,0.10333946,-0.04316824,-0.20136572,0.24832785,-2.13337970,0.14381829,0.57231593,-0.00557688,
-0.08289790,-0.50376087,-0.09725242,-0.51826531,-0.12804374,-0.82172585,-0.25711450,-0.09801088,-0.11988574,-0.41797608,-0.32207698,-0.27550992,-0.20445253,-0.19258161,-0.49030390,-0.17343803,-0.49112743,-0.37218413,-0.40536845,-0.27283141,-0.66847152,-0.21635582,-0.14701083,-0.09409773,-0.22372676,0.15782951,-0.30464220,-0.07720821,-0.15727818,
0.36880419,0.14496002,0.26514220,0.19370732,0.46209782,0.45365450,0.36381981,0.49930564,-0.39919454,0.09220936,0.03642908,-0.11152953,0.12512623,0.09407187,0.11165620,0.17375135,0.21199624,0.20646530,0.26335633,0.27966708,0.31514725,0.32299656,0.22215140,0.47935194,-0.47173896,-0.71853387,0.18901008,0.70214909,0.04733938,
-0.33376774,-0.30169314,-0.40136427,-0.17768112,-0.40208992,-0.34732750,-0.39337888,-0.39199382,-0.31582767,-0.25828806,-0.38296306,-0.26551870,-0.26876622,-0.33513123,-0.27335823,-0.27282813,-0.39347288,-0.34144410,-0.46613187,-0.33520266,-0.39874431,-0.20548525,-0.31073374,-0.42613712,-0.22736473,0.33570430,-0.28216314,-0.11032600,0.13787375,
-0.39238018,-0.19123723,-0.28030589,-0.21928650,-0.20443086,-0.69685012,-0.22515942,-0.44723275,-0.18196955,-0.22946693,-0.70830232,-0.27817225,-0.19652665,-0.21223438,-0.27216217,-0.24061111,-0.44326878,-0.29116058,-0.22904144,-0.91503328,-0.17178465,-0.59017879,-0.21867895,-0.28112662,-0.09263515,0.16698918,-0.52335393,0.39680421,-0.07341385,
-0.66667098,-0.58418447,-0.44334814,-0.48310098,-0.51514196,-0.65290910,-0.35130176,-0.61610913,-0.45828336,-0.39998177,-0.48652899,-0.40410951,-0.41437712,-0.36017153,-0.48376217,-0.46396065,-0.57188737,-0.47021520,-0.36446306,-0.37599584,-0.44617796,-0.42705560,-0.46826887,-0.38018921,-0.50482041,-4.52632093,-0.34589213,-4.83211613,-0.05861823,
-0.61212170,0.18496463,0.15367314,0.00705059,0.37016776,0.02186975,0.15646765,0.21425647,0.27675164,0.09405980,-0.01520076,0.11734191,0.04807748,0.03461188,0.21212944,0.05738857,0.18801592,0.08821009,0.19907406,0.15852916,-0.10730981,0.00585610,0.19837229,-0.28509173,-0.52237749,-4.80049133,0.19296677,1.31854486,0.16694207,
-0.27537364,-0.40512180,-0.37365046,-0.39985457,-0.29599690,-0.35779417,-0.35335374,-0.31829694,-0.25550804,-0.29704028,-0.37324715,-0.31702840,-0.19013648,-0.23889808,-0.23456262,-0.29883853,-0.35086945,-0.43194053,-0.41525123,-0.41898444,-0.61808252,-0.51772726,-0.35904181,-0.34536797,-0.52384251,0.89610827,-0.32754588,1.02613509,0.13729195,
-0.10427829,-0.16351953,-0.12766340,-0.13315678,-0.22764866,-0.16342539,-0.11019959,-0.08596546,-0.35454509,-0.13884471,-0.08908823,-0.20735601,-0.09569349,-0.12728120,-0.28095952,-0.16060914,-0.08496932,-0.17967895,-0.13902134,-0.46865681,-0.10019930,-0.45159218,-0.35348481,-0.17638499,-0.11062481,-2.08452129,-0.13766475,-1.30856276,0.11683030,
-0.07295971,-0.49940318,-0.02053565,-0.55767858,-0.16025195,-0.72487807,-0.10506820,-0.58621103,-0.61471242,-0.12818527,-0.16654083,-0.26659232,-0.08407805,-0.06527729,-0.12170354,-0.09637891,-0.03253370,-0.13310401,-0.22028191,-0.20671114,-0.09394898,-0.24162993,-0.36010337,-0.26899415,-0.26776481,-0.37556818,-0.06038447,-0.62442112,-0.09095045,
-0.53039962,0.05023495,0.01588540,-0.57706785,-0.02042492,0.03939721,-0.37029511,0.06644133,0.00396110,-0.34414464,-0.73233491,-0.23416868,0.08286390,-0.53713107,-0.71052629,-0.13216636,0.00096627,0.04917144,-0.11286785,-0.22215523,0.18509997,-0.00596414,-0.58812326,-0.33329862,0.03263336,-0.04926663,-0.48276198,-0.62699556,0.18326803,
-0.53736365,-0.28494716,-0.14650181,-0.31112048,-0.09160440,-0.15796106,0.23555703,-0.09055548,0.16352975,0.12420640,0.00840554,0.15466107,0.39946374,-0.21101810,-0.19506487,-0.09180345,0.02445977,-0.14936544,-0.28445950,-0.09862763,-0.02049703,-0.01323747,0.06459968,-0.38114020,0.27771398,-1.16686451,0.21383883,-0.05844960,-0.08025514,
-0.25277856,-0.11837781,-0.11913461,-0.12064975,-0.48203972,-0.10714824,-0.14021228,-0.22299555,-0.15470298,-0.72751123,-0.12096365,-0.22144933,-0.20586087,-0.12025405,-0.12344069,-0.09382976,-0.11518745,-0.08074783,-0.18604146,-0.17530987,-0.11709204,-0.10486522,-0.09263290,-0.31645185,-0.35714352,-2.36800289,-0.40872735,-1.43071949,0.16124533,
-0.39928049,-0.44608268,-0.44551793,-0.52389020,-0.39889598,-0.46803516,-0.45302153,-0.42851332,-0.38803050,-0.39520928,-0.49493495,-0.48642030,-0.32792723,-0.49295858,-0.46309027,-0.44009572,-0.54299235,-0.47759765,-0.54772395,-0.67868656,-0.53202951,-0.39639086,-0.37182835,-0.36204019,-0.27902281,0.75341153,-0.36893824,0.84632844,0.09202276,
-0.54480499,-0.62303007,-0.33277309,-0.29793262,0.17406875,-0.27343690,-0.31356648,-0.61001265,-0.15923008,-0.75187272,-0.31951532,0.27173606,-0.36157948,-0.06665815,-0.46513444,0.10120521,0.44604915,-0.10723487,0.08524763,-0.04607026,0.14732711,0.03354545,-0.63059139,-0.65462172,-0.23725922,-0.42888054,-0.79596364,1.47547162,0.06623866,
0.49895334,0.46077076,0.43013284,0.48355812,0.45422688,0.43386909,0.45313525,0.41239995,0.45829010,0.43253735,0.36168218,0.43074393,0.32703122,0.36901429,0.43058297,0.35135627,0.35740736,0.33311680,0.25103471,0.37935609,0.35550651,0.37065041,0.36822683,0.45883983,0.45273927,-0.73445207,0.44250542,-0.13497370,0.16674168,
-0.32861030,-0.05542779,-0.40983593,-0.28936300,0.15141533,0.23125556,-0.05241416,0.00004143,-0.09980345,-0.01047332,0.19776995,0.21797122,0.07231840,0.12849437,0.45512277,0.44946587,0.12182890,-0.17926456,0.00220976,-0.07658416,-0.44974780,0.19165745,0.09512236,-0.15117900,0.48576897,-0.44999585,-0.06961659,-0.45077217,0.06662183,
-0.23758578,-0.19639874,-0.21593919,-0.21338102,-0.18917577,-0.27003661,-0.21308845,-0.16365932,-0.17371517,-0.31682375,-0.26447377,-0.28123602,-0.47263527,-0.27597404,-0.16501024,-0.16328649,-0.29875055,-0.14757551,-0.23954569,-0.20603758,-0.19835794,-0.36654800,-0.19289912,-0.34603179,-0.15623406,-2.47219253,-0.22683626,-2.21706390,-0.03148745,
-0.35412171,-0.25333679,-0.19364287,-0.11069839,-0.27012986,-0.13331188,-0.04039538,-0.05221402,-0.17726447,-0.04572218,-0.11405618,-0.92091298,-0.36893681,-0.23141143,-0.19585148,-0.70713526,-0.38403690,-0.08858640,-0.17249408,-0.12759613,-0.08083523,-0.05545456,-0.11978871,-0.43590444,-0.09069581,-0.28788787,-0.00356879,-0.68613356,0.10293947,
0.44444156,0.42461771,0.38553920,0.39071557,0.34902951,0.31530127,0.41593015,0.39336091,0.44489607,0.50309366,0.34407535,0.40224773,0.40298909,0.51081103,0.50505430,0.45025331,0.44062284,0.42158136,0.39190689,0.40195915,0.17823298,0.40728515,0.43229488,0.46970654,0.07674737,-0.73922688,0.40659684,1.31196904,0.00191426,
0.11105681,0.33268246,0.17638949,0.28016421,0.31038710,0.37198466,0.30054253,0.26594189,0.31570703,0.33721617,0.26911747,0.27780426,0.29736364,0.33554268,0.27625328,0.34788999,0.22086391,0.29061088,0.28564048,0.30289340,0.44989353,0.45307675,0.26796043,0.51463586,0.38392535,-0.61701483,0.48720947,-1.19720197,0.03554451,
0.42038569,0.40943736,0.46593082,0.23603146,0.23310749,0.36096850,0.35586676,0.42490903,0.03806212,0.38468212,0.44317296,0.45198828,0.43899834,0.25111741,0.38429663,0.48082510,0.48202011,0.41657498,0.24382958,0.53197891,0.37687469,0.46951786,0.50615591,0.28732538,0.30193096,-0.67064679,-0.50404978,-2.00302505,0.00506455,
0.47729781,0.42534849,0.43920392,0.37223899,0.48059347,0.44373146,0.37141362,0.40206379,0.43964985,0.41466907,0.31728917,0.31525630,0.38941777,0.26935381,0.39626434,0.45865187,0.23428193,0.34737256,0.21783565,0.41673419,0.39392295,0.36510548,0.51766783,0.29716131,0.53781843,-0.62330186,0.26281491,-0.69890189,-0.15395755,
0.41229439,0.42632934,0.40578997,0.43154311,0.39804927,0.42477942,0.43078554,0.42963225,0.39500839,0.33866870,0.44844988,0.33928555,0.38822848,0.27871537,0.40913060,0.41052979,0.40558237,0.42285308,0.47276244,0.46338814,0.42628545,0.39472821,0.37858623,0.51228011,0.44040433,-0.63372904,0.40926483,-1.40123034,-0.10843423,
-0.35117635,-0.09324863,-0.89778233,-0.09876367,-0.17633349,-0.32485211,-0.38979590,-0.75849116,-0.24235925,-0.46739632,-0.30868128,-0.35061830,-0.02083722,-0.30489334,-0.78704703,-0.13785258,-0.43696532,-0.45421410,-0.12223907,-0.07396366,-0.21325919,-0.12260221,-0.12449185,-0.02432155,-0.69104183,-0.01659833,-0.39558595,-0.39159179,0.02965996,
-0.93530405,-0.27184221,-0.33398926,-0.15619411,-0.30928761,-0.26518899,-0.44697416,-0.33548355,-0.28737763,-0.19583368,-0.12405391,-1.02938616,-0.64940792,-0.76300305,-0.16255882,-0.04962441,-0.11115479,-0.21122591,-0.32312524,-0.61477828,-0.06244762,-0.06610265,-0.11831941,-0.06957781,-0.00807799,0.03172297,-0.13242556,-0.35719368,-0.08475545,
-0.24916272,0.07216659,0.26144364,0.24156234,0.19047385,0.10682084,0.15025206,0.22592708,0.12416041,-0.50392401,0.09892440,0.14368322,-0.31220037,0.25951922,0.06182218,-0.22803289,0.27619413,0.35798734,-0.09604222,0.20437263,0.24529426,0.24840151,0.05180553,0.03711058,0.04762902,-0.25007564,-2.06838417,-0.40812796,0.18412744,
0.40569109,0.49128065,0.47374952,0.43937576,0.44532815,0.48040560,0.42875296,0.45574221,0.38508943,0.43976575,0.43295562,0.46927577,0.45870766,0.43863073,0.46596745,0.45765936,0.43000180,0.43677023,0.46019256,0.42698687,0.48077026,0.47341144,0.48758763,0.50547528,0.50617057,-0.64438659,0.46190721,-1.49770713,-0.15151495,
-0.03611309,-0.20770483,-0.07157898,-0.35485831,-0.18499041,-0.14676522,-0.06619409,-0.27029875,-0.37358937,-0.28673601,-0.01077973,0.01068503,-0.28440058,-0.23721190,-0.16780527,-0.14470071,-0.21001686,-0.21052535,-0.41747245,-0.28690153,-0.29969186,-0.20337832,-0.57011062,-0.50696856,0.28061387,-0.08271942,-0.24691150,-1.68062139,0.16591774,
-0.39936534,-0.40313113,-0.32134786,-0.79095626,-0.64122576,-0.74366701,-0.58317661,-0.26623765,-0.48191682,-0.25208178,-0.42833251,-0.18109496,-0.31488356,-0.14923315,-0.25855523,-0.26671591,-0.18232255,-0.16168796,-0.13891584,-0.33138815,-0.23568706,-0.14601545,-0.09312217,0.07998453,0.34942383,0.15410937,0.24428569,-0.00316487,-0.03329071,
-1.04136491,-0.41637525,-0.58984286,-0.90996754,-0.24749587,-0.31549850,-0.69759631,-0.57407701,-0.67095381,-0.63862151,0.05551829,-0.19092259,-0.08137999,-0.50441545,-0.63967532,-0.23970619,-0.62839365,-0.16394964,-0.21102583,-0.21280237,-0.14109778,-0.02013466,-0.15118235,-0.07299609,0.21964256,0.12541154,0.10232873,0.17317751,-0.14947326,
0.48721969,0.48163456,0.45943621,0.44739199,0.41770142,0.47575915,0.49113217,0.43028599,0.46865022,0.44814852,0.44102454,0.46903324,0.40654090,0.47357982,0.50305253,0.45829418,0.49263859,0.48566040,0.44757101,0.42728555,0.47660339,0.43638250,0.46604976,0.47483537,0.47766858,-0.70219088,0.49505007,-0.90700406,0.14498617,
-0.45865712,-0.23924914,0.02247187,-0.19070467,-0.03819219,-0.25551653,-0.16524729,-0.13930406,-0.24835140,-0.09316072,0.01790318,-0.18526058,-0.09874715,-0.18212636,-0.12315209,-0.48631707,-0.11899088,-0.28923094,-0.02687061,-0.29792741,-0.41125014,-0.40213415,-0.03923574,-0.02146677,-0.12541592,-0.84509754,-0.70014578,-0.82960182,-0.00382628,
0.48658922,0.34623650,0.37553629,0.35215083,0.29833579,0.34998214,0.30764410,0.36613059,0.28503805,0.39232475,0.32034835,0.35363099,0.34078598,0.30783179,0.36258921,0.30337262,0.32402465,0.33640814,0.26541799,0.35544923,0.31009760,0.38291770,0.37676194,0.40186051,0.35849568,-0.65716726,0.36314929,0.45720050,-0.01642451,
-0.18644305,-0.58074886,-0.28079352,-0.48925316,-0.18455650,-0.43842769,-0.53027606,-0.00299372,-0.06243111,-0.67027789,-0.45732570,-0.12813112,-0.19117253,-0.83379149,-0.00173838,-0.26531354,-0.22637458,-0.38926244,-0.60217988,-0.22563933,-0.18721142,-0.35770935,-0.09305634,0.02311181,0.09386586,-0.18519177,-0.09234891,-0.57031065,-0.13112006,
-0.14809752,-0.08473709,0.04296717,-0.15596157,-0.26394135,-0.02134917,0.04675018,0.06625451,-0.00121001,-0.29035255,0.13588776,0.04450338,-0.28000340,0.00776847,-0.18794915,0.03063973,0.08783925,-0.04795989,-0.26621544,-0.04254691,0.05692806,-0.03939500,-0.16501705,-0.11006486,-0.06674296,-2.40295267,0.30660510,-0.02602425,0.15721996,
-0.21845441,-0.03500609,-0.39324659,-0.49668810,-0.17245834,-0.04717640,-0.27031058,-0.46004874,-0.14280844,-0.07750276,-0.10784650,-0.15667367,-0.37975562,-0.40972537,-0.11108349,-0.17565389,-0.06926064,-0.18112750,-0.12738162,-0.42395881,-0.12839399,-0.13510230,-0.43855980,-0.30960000,0.04089886,-1.35434794,-0.23161680,-0.40322524,-0.00023684,
-1.10730243,-0.88335818,-0.54262418,-0.59235710,-0.40629295,-0.04421138,-0.76391888,-0.24203248,-0.76706970,-0.59990942,-0.38403416,-1.28419197,-0.42536995,-0.90012485,-0.36993194,-0.93337309,-0.15933353,-0.25970325,-0.34831744,-0.11227740,-0.93324006,-0.68864387,-0.67904139,-1.08229756,0.43811515,-0.27525190,-0.01001092,-0.12651084,0.10603167,
-0.58464068,-0.47518638,-0.59925818,-0.50790584,-0.52772033,-0.47815090,-0.49594092,-0.56515479,-0.46638995,-0.79501617,-0.59978330,-0.76935309,-0.46922708,-0.76847172,-0.49956110,-0.36429834,-0.44451764,-0.53266382,-0.53977430,-0.57257938,-1.06381869,-0.50815791,-0.58174890,-0.47575641,-0.45296845,0.77007216,-0.46957782,0.65054810,0.02507629,
0.45729616,0.48079515,0.47066191,0.43078017,0.40711907,0.42146710,0.45496213,0.40666223,0.45613968,0.44844997,0.40559247,0.40953293,0.34922263,0.40003362,0.42336610,0.41068819,0.43243083,0.41892490,0.37789217,0.41596079,0.41777068,0.43565392,0.45402095,0.43963298,0.43112937,-0.68267965,0.41294155,-0.69431907,-0.12035061,
0.43018377,0.40056860,0.45385814,0.39628154,0.34018347,0.40064535,0.29477173,0.37505230,0.33246061,0.42006946,0.31187186,0.34497002,0.36492616,0.41090134,0.41177779,0.29319933,0.34138444,0.34618738,0.36067751,0.36208951,0.35329124,0.32594004,0.31215432,0.27207893,0.40553159,-0.58717412,0.34647748,0.34332460,-0.05531727,
-0.26382333,-0.45646781,-0.06116794,-0.09611824,-0.04236905,-0.04564078,-0.45888942,-0.04028751,-0.04762949,-0.08913231,-0.27104533,-0.04913777,-0.40750194,-0.13055584,-0.14554405,-0.15878329,-0.18460733,-0.40985334,-0.20366499,-0.06210839,-0.19603324,-0.08491459,-0.10843563,-0.09367199,-0.14494903,-1.92562830,-0.08622639,-0.69479537,-0.08418876,
0.01819949,0.12058147,0.26136559,0.10708162,-0.33992213,-0.05570928,0.18030794,0.27156213,0.29750600,0.36748144,0.40032420,0.42824504,0.10204224,0.29956138,0.28711483,0.25313294,0.13316117,0.27746096,0.24864507,0.31762597,0.25137913,0.20958170,0.14558117,0.16464797,0.10921152,-1.48261404,0.27844831,-0.59863430,-0.06606434,
-0.60694301,-0.55305833,-0.30953833,-0.11588743,-0.10881130,-0.14328022,-0.52385175,-0.19188131,-0.95612615,-0.32643321,-0.03766979,-0.38648364,-0.13801698,-0.68031728,-0.15493239,-0.52731133,-0.16850820,-0.14800787,-0.38449773,-0.10462567,-0.53157890,-1.00545824,-0.09529942,-0.38046619,0.01120596,0.29406020,-0.34476432,0.07014209,-0.16343361,
0.02960810,0.32202420,-0.50340515,-0.83721280,0.11985439,-0.13071506,-0.22797397,-0.07899176,0.04696897,-0.17448494,-0.21818157,-0.27404818,-0.09990676,-0.10381432,0.03475046,-0.48756567,-0.31408671,-0.61136913,-0.18570109,0.29838899,-0.13444787,-0.40342948,0.04806956,-0.53870457,0.03696093,-0.59207177,-1.44780064,0.35350534,0.08682419,
-0.19510497,-0.34894490,-0.34380814,-0.19052435,-0.38046151,-0.28732947,-0.27439201,-0.38386363,-0.35096821,-0.28394750,-0.31796017,-0.27610791,-0.43617383,-0.31611565,-0.19340830,-0.27865371,-0.38817662,-0.22793607,-0.32891464,-0.33599353,-0.22025113,-0.46684983,-0.39559901,-0.35242018,-0.54626513,-2.95011306,-0.36647463,-2.75333166,-0.12633765,
-0.13585214,-0.17203236,-0.19849046,-0.19325864,-0.19115141,-0.20663433,-0.12039861,-0.15562634,-0.20322326,-0.21377565,-0.17003602,-0.17590560,-0.17916927,-0.20881863,-0.16785303,-0.19732673,-0.16190852,-0.19081645,-0.15928656,-0.15713169,-0.18307751,-0.12721331,-0.09977456,-0.16247095,-0.15612803,-5.98262548,-0.15848750,-6.10207796,-0.16127197,
0.10125389,0.31496403,0.25236076,0.26566955,0.28587669,0.27583155,0.20248657,0.28568840,0.21592443,0.30037770,0.10023236,0.31862646,0.29194549,0.30106598,0.07760060,0.30887967,0.26841095,0.07998320,0.17961790,0.24541686,0.37313458,0.29316464,0.36195534,0.30634812,0.39722812,-0.38866735,0.46747565,-0.27150354,-0.17834395,
0.42135981,0.43242419,0.37578866,0.44330972,0.37369660,0.44152552,0.34908381,0.38250977,0.39857185,0.42556649,0.37979779,0.35197157,0.31458765,0.33680362,0.37606287,0.37912804,0.34803465,0.31797522,0.14762123,0.35844511,0.31285706,0.29695293,0.29114902,0.37258059,0.37294242,-0.67026228,0.38180855,0.64605141,-0.15124816,
0.53087342,0.42744336,0.22501658,0.43155456,0.38083678,0.34192419,0.42458230,0.42230326,0.53116381,0.47057593,0.38338843,0.39365843,0.41444674,0.51514041,0.47456601,0.48021555,0.49159491,0.43646696,0.48389682,0.44058758,0.48527935,0.47770697,0.46203113,0.50148827,0.26465994,-0.75971895,0.43968379,1.03841591,0.05138573,
-0.31142759,-0.31865701,0.19858558,0.05198590,-0.24767256,0.26553634,0.25255400,0.06012316,-0.24686119,-0.04491984,0.13576956,-0.13670602,0.00300148,0.34029123,0.07985802,0.33964673,0.39223149,0.38343465,0.33226427,0.54840398,-0.02359639,-0.00378940,-0.04487437,0.08997310,0.31205937,-0.71259367,0.33244088,1.38587832,0.15903424,
0.47594789,0.52304310,0.46082449,0.51828480,0.44253215,0.53573543,0.53819907,0.44952253,0.47848549,0.49872246,0.44840595,0.46397853,0.38575575,0.48920310,0.46133423,0.44857949,0.43599573,0.49597448,0.49911904,0.47248852,0.42639190,0.46532115,0.43873623,0.42746785,0.37625647,-0.62606448,0.46148118,-1.52596152,0.00408907,
0.37642738,0.43560320,0.33726317,0.31820437,0.28361690,0.03200341,0.27933231,0.32309094,0.40916881,0.13735004,0.17111963,0.14758596,0.26343167,0.23049103,0.21406564,0.26912487,0.35673472,0.42362666,0.49503386,0.48054400,0.51758480,0.09583957,0.41999343,0.48431310,0.29601482,-0.59320289,0.21688139,-1.58225167,0.16964109,
-0.13283823,-0.16452827,-0.25090745,-0.84795034,-0.38412839,-0.56144279,-0.04749311,-0.30592480,0.00430122,-0.06189949,-0.34442079,-0.75845915,-0.27480182,-0.29034272,-0.30152962,-0.05725830,-0.03112302,-0.65375799,-0.48141006,-0.46559054,-0.49862462,-0.25384843,-0.85332930,-0.18019879,0.03746607,-0.09747953,-0.40589520,0.38636628,0.01054046,
-0.12558556,-0.07039757,-0.20978820,0.01033550,-0.01112503,-0.09060656,-0.10043133,-0.06694869,-0.18581291,-0.26878303,-0.32925496,-0.12982196,0.01653759,-0.03935712,-0.06868732,-0.32056448,-0.29157054,-0.64140910,-0.36582249,-0.14609182,-0.18928927,0.01187318,-0.11583360,-0.16887487,-0.27612522,-0.12232028,-0.44420591,0.25587615,-0.03350189,
-0.22768880,-0.29834092,-0.48111260,-0.31966797,-0.30251062,-0.32402194,-0.34363529,-0.42291981,-0.42483261,-0.25129178,-0.30073071,-0.33463997,-0.34086272,-0.27110806,-0.29939398,-0.43653077,-0.30628040,-0.21944457,-0.38038364,-0.28842375,-0.31235528,-0.31706294,-0.31279638,-0.29251358,-0.27138895,-3.20885754,-0.32184580,-2.94168019,-0.10940618,
-0.32668456,-0.30276611,-0.15411235,-0.25001654,-0.65172487,-0.27576271,-0.15949711,-0.31185505,-0.14098585,-0.24377632,-0.18404084,-0.35923454,-0.23355097,-0.26210517,-0.17427516,-0.36006245,-0.27029824,-0.24184124,-0.24098983,-0.33544517,-0.05532395,-0.28028324,-0.21280688,-0.11451387,-0.02141904,-2.32322836,-0.14692633,-1.81747830,0.12268130,
-0.01133730,-0.48511186,-0.49657387,-0.29415929,0.00819900,-0.15266168,-0.37836286,-0.63935369,-0.15449116,-0.32640293,-0.24088907,-0.29126078,-0.06456584,-0.37380391,-0.07701713,-0.08907145,-0.52247465,-0.23714554,-0.19421136,0.03882986,0.13571279,-0.04842800,-0.31950739,-0.07048304,0.30570960,-0.23003592,-0.89988703,-1.61934328,0.08672594,
0.36982539,0.35075101,0.33759853,0.30635646,0.29410985,0.34476775,0.39109439,0.35435879,0.33102325,0.32111007,0.32690251,0.31355786,0.40033296,0.37722790,0.45249087,0.33795387,0.31417868,0.37644920,0.37574115,0.40071762,0.43713224,0.37989205,0.31858096,0.36655572,0.46771348,-0.53760272,0.37253514,0.04507571,0.09235783,
-0.20331997,-0.26073256,-0.27510613,-0.58135670,-0.27198595,-0.55872989,-0.12794229,-0.15250553,-0.15737647,-0.11591262,-0.17631693,-0.12160373,-0.21943639,-0.86796939,-0.18721233,-0.37834093,-0.12680528,-0.12055595,-0.26891595,-0.19195162,-0.54619789,-0.10032620,-0.17916937,-0.20358460,-0.22876097,0.14180847,-0.11515703,0.47813094,0.18382101,
-0.40737033,-0.20512748,-0.00728595,-0.41148844,0.12769820,-0.23573278,-0.20121132,-0.01359973,-0.22261503,-0.05796520,0.06668958,0.00889990,0.05857662,0.30614877,0.06417307,0.12653066,0.23906571,-0.12109373,0.11556136,-0.18506554,0.19596122,-0.26396376,-0.11288407,0.11750719,0.35587168,-0.30851516,0.16783276,-1.37644279,0.13822173,
-0.10893713,-0.28356314,-0.46793997,-0.39638147,-0.14138830,-0.20047937,-0.87693930,-0.21418969,-0.16629849,-0.17278349,-0.49122676,-0.17186426,-0.23276529,-0.43832669,-0.32624504,-0.35211635,-0.12745541,-0.21501561,-0.62942910,-0.08358306,-0.15751554,-0.08555575,-0.52171749,-0.12382820,-0.32855064,0.14515196,-0.44101143,-0.27052379,-0.11918620,
-0.22448997,-0.56950241,-0.28559020,-0.26620659,-0.19008662,-0.33072659,-0.15652505,-0.65576017,-0.40563211,-0.20962910,-0.05098904,-0.21062432,-0.98804277,-0.48868200,-0.17170167,-0.16285034,-0.36984220,-0.48722017,0.03477125,-0.70332611,-0.45139021,-0.01081450,-0.40077010,-0.12310323,0.29473904,-0.32548970,-0.02360610,-0.91769624,-0.07830735,
-0.32929647,-0.36184034,-0.16866641,-0.49990144,-0.38675272,-0.19173771,-0.70579499,-0.43875939,-0.16254956,-0.25333494,-0.17632623,-0.74568701,-0.38990182,-0.45739084,-0.33956575,-0.21508196,-0.24828282,-0.86909974,-0.26465353,-0.50676137,-0.19811505,-0.39033052,-0.26659861,-0.29930434,-0.33981773,0.26100895,-0.16958010,0.21629649,-0.00614488,
0.21769559,0.13721025,0.09021012,0.06451803,-0.03873201,0.15569861,0.10211469,-0.20635742,-0.26337293,0.03061995,0.02005450,0.06330816,-0.12275479,0.06066980,-0.04459745,0.05392936,-0.04928175,0.00291036,-0.05416007,-0.01473794,0.16328043,0.14946568,0.00759205,0.08394861,0.39077294,-1.04215479,0.34597659,-1.42440319,-0.13991289,
-0.20865461,-0.21356152,-0.21331610,-0.31597257,-0.34369323,-0.35394353,-0.36209461,-0.24112138,-0.30714160,-0.23240387,-0.38269806,-0.27774629,-0.27265704,-0.31573290,-0.22149752,-0.24114242,-0.28445846,-0.22962934,-0.19893873,-0.22905111,-0.21193530,-0.23141038,-0.23832640,-0.33097973,-0.26568669,-3.02527928,-0.20802113,-2.86768222,0.01149541,
0.40688854,0.42703849,0.38224992,0.34696469,0.38358387,0.32578304,0.35817662,0.35330337,-0.05547040,0.32086971,0.30843234,0.31525409,0.34816873,0.34503546,0.31838307,0.34414130,0.32970148,0.21794160,0.39561930,0.32593042,0.35735741,0.38679990,0.43930879,0.20055231,0.40327409,-0.42278197,0.24760927,-1.53952730,0.11653115,
-0.16380848,-0.05465273,-0.03135773,0.05862520,-0.02526716,0.28865251,0.09904612,0.32991132,0.16662607,0.20150970,0.06321266,-0.01922452,0.09379921,0.06891152,0.09740160,-0.12326019,0.09272625,-0.15719381,-0.00035469,0.14120659,-0.08097458,-0.08219128,-0.04665795,0.01476850,0.18043844,-2.55155110,0.09713950,-5.11948156,0.03958371,
-0.11974376,-0.03536492,0.05264420,-0.01904254,0.10221032,0.12897646,0.12908675,0.11764569,0.15513398,0.11849357,0.16299008,0.12277891,-0.32412791,-0.07796694,0.14342286,-0.06986729,-0.43121707,0.05654319,-0.43015897,-0.11078601,-0.09646893,0.10490873,0.04866721,0.12324154,0.67064697,-0.53659952,0.33538288,0.35243270,-0.02576178,
-0.27292708,-0.16816866,-0.19809961,-0.17303321,-0.27936283,-0.16609356,-0.16129360,-0.05923570,-0.14016283,-0.23166329,-0.12948482,-0.10994042,-0.13167100,-0.18232358,-0.14665785,-0.13596062,-0.16995239,-0.26032576,-0.16530459,-0.20648287,-0.18590856,-0.16917765,-0.15408455,-0.15875646,-0.14703906,-5.77974844,-0.09879047,-5.83163023,0.04906361,
0.12984398,-0.22377542,0.02301312,-0.76393378,-0.27648035,-0.19980620,0.05119014,-0.04960515,0.07163709,-0.35577136,-0.99326825,-0.47563511,0.02804800,0.14145343,-0.39582929,-0.00014726,0.01634839,0.04411195,-0.48678878,0.09954427,0.07229818,-0.38617921,-0.88493615,-0.84494340,0.02943686,-2.06426787,-0.82366437,-1.07539368,0.08179475,
-0.48632762,-0.63337976,-0.51646572,-0.26791438,-0.36035374,0.00993239,-0.39713013,0.37427542,0.06196505,0.22872794,0.27723941,0.28145924,0.25169855,0.24220307,0.31953165,-0.10608654,-0.60796845,0.30526340,0.12276475,0.26699087,-0.14169398,0.05709985,-0.30300391,-0.04523562,0.44920447,-4.95048952,-1.49467993,0.51438439,-0.00950289,
-0.36713356,0.01791366,-0.95245862,0.00102858,0.02527309,-0.37782314,-0.46345949,-1.29674327,-0.39805669,-0.46865851,-0.00105656,-0.00240498,-0.59216207,-0.00638790,-0.19119377,-0.37907010,-0.25291845,-0.29124460,-0.43637887,-0.92434376,-0.02867510,-0.21640669,-0.78715158,-0.25191721,-0.00008686,-0.09921890,-0.65006703,-0.02990141,-0.00499515,
0.38125569,0.31743097,0.42931107,0.39842904,0.42861986,0.49458078,0.43735877,0.42713505,0.43688476,0.38582659,0.45761088,0.38683155,0.40863502,0.42073521,0.45213458,0.43335310,0.36611411,0.39701647,0.36343205,0.38957801,0.45122784,0.37362537,0.42113724,0.44394407,0.46106154,-0.59237313,0.46524274,-1.92336428,-0.02579473,
0.35258391,0.45441356,0.39834711,0.36154190,0.45608145,0.42346773,0.25812167,0.38693193,0.40415680,0.28773114,0.29253003,0.34971371,0.42330277,0.35885069,0.32137707,0.46822050,0.44001958,0.37950948,0.41463777,0.43469468,0.47934276,0.41367152,0.50685668,0.45517212,0.43594745,-0.59809572,0.49046937,-2.27995610,0.08627604,
-0.31440541,-0.37224233,-0.32206813,-0.01713933,-0.12750454,-0.22324243,-0.08295505,-0.12078642,0.15386663,-0.20080097,-0.19526210,-0.09584522,-0.20675650,0.01827571,-0.53610718,-0.17028089,0.02761142,0.06991555,-0.45708171,0.06570462,-0.16875724,-0.32383874,-0.46319455,-0.74040169,0.33844277,-0.48277900,-0.91584098,-0.41745085,-0.04189366,
0.50830680,0.50098521,0.42662644,0.45226565,0.43154350,0.41928983,0.50657564,0.44032106,0.46500841,0.46341652,0.43978554,0.45069930,0.39127246,0.50192779,0.47295785,0.45320258,0.47404337,0.49027959,0.48826292,0.41659155,0.46962425,0.48596543,0.48153093,0.44710538,0.46628132,-0.75432372,0.47554266,-0.71441728,-0.07047420,
-0.20939781,-0.39169922,-0.36876401,-0.23960650,-0.28623810,-0.24425869,-0.00343970,-0.33188096,-0.30463901,-0.10859376,-0.11909932,-0.31282008,-0.02664703,-0.40221375,-0.81728435,-0.52587295,-0.30418682,-0.51276636,-0.78741270,-0.04626877,-0.11720134,-0.32858539,-0.61149234,-0.54321259,-0.10804477,-0.21535444,-0.32041380,-0.02077648,-0.03551589,
-0.17813328,-0.15533039,-0.12758355,-0.24384557,-0.14959276,-0.30533901,-0.08535187,-0.21911156,-0.25875863,-0.10962681,-0.09295040,-0.22125694,-0.20785837,-0.18320823,-0.10895944,-0.08838265,-0.08859597,-0.07355280,-0.16119450,-0.15474562,-0.14820252,-0.11681948,-0.25586081,-0.18757419,-0.10615616,-1.57755458,-0.48769715,-1.22770703,0.10634233,
-0.46709394,-0.40920264,-0.99026734,-0.50374210,-0.41691351,0.06422260,-0.29141435,-0.60789484,-0.85956746,-0.50702822,-0.33208594,-1.60598874,-0.75834107,-0.59133655,-0.48255914,0.00270268,-0.36443463,-0.22404112,-0.02209678,-0.11040191,-0.39841288,-0.07136510,0.03236475,-0.49350011,0.48191079,-0.58464116,-0.18938981,-1.28580952,-0.08338181,
-0.77104348,-0.29451075,-0.17531285,-0.17444037,-0.58483744,-0.02365577,-0.11962211,-0.39255679,-0.06353682,-0.07732936,-0.01633800,-0.10485551,-0.14030640,-0.18867278,-0.10551617,-0.48975930,-0.08554697,-0.12066085,-0.14292414,-0.07865015,-0.27522147,-0.12350576,-0.06696989,-0.11722466,-0.13333476,-0.10151950,-1.05409062,0.46058100,-0.03694148,
0.36889315,0.35473216,0.44751373,0.42202997,0.35800627,0.34016177,0.48547181,0.35383117,0.33577597,0.43455809,0.29898360,0.42916563,0.41194358,0.44154209,0.43115309,0.43697348,0.44001216,0.41050631,0.38830802,0.20836398,0.30161062,0.42767003,0.39456844,0.42048684,0.40669832,-0.70492733,0.37368086,1.24490738,-0.02240787,
-0.29658371,-0.36613518,-0.80702025,-0.37761965,-0.01913619,-0.10994013,-0.23650523,-0.39462364,-0.00645225,-0.21428114,-0.00562725,-0.58918518,-0.21234760,-0.11816886,-0.11522967,-0.06825651,-0.10625848,-0.27449024,-0.27429059,-0.01819650,-0.10824122,-0.17997712,-0.09350467,-0.00030462,-0.23856382,-0.15608466,-0.06986848,-0.22727764,0.11684601,
0.08613935,0.11384162,0.02784511,-0.03854127,0.14683577,0.12464657,-0.00429102,0.14192288,0.05898204,0.16754749,0.00261603,0.02365194,0.05807651,-0.05859889,0.14434695,0.22598474,0.01628506,0.18346228,-0.21363954,0.12381902,0.04004233,-0.22404511,-0.84501332,-0.70620066,0.22057383,0.25459126,-0.04767449,0.44434008,-0.00692765,
-0.40815932,-0.25121412,-0.64723605,-0.55308127,-0.51236790,-0.33343205,-0.31495127,-0.24962981,-0.34274817,-0.35002041,-0.36482143,-0.22358224,-0.30095768,-0.58277798,-0.28977951,-0.53907597,-0.38056642,-0.26778391,-0.70911855,-0.30313712,-0.82647789,-0.35742491,-0.27749509,-0.29872805,-0.29933673,0.39200947,-0.21227601,0.24014133,-0.01293558,
-0.40261137,-0.13805428,-0.14758559,-0.16031407,-0.17593125,-0.24294491,-0.33735535,-0.01782092,-0.02687712,-0.08497173,-0.02473148,-0.07037701,-0.02854314,-0.17357625,-0.06557323,-0.14820367,-0.04702336,-0.14500935,-0.12967971,-0.06183521,-0.08294892,-0.11703088,-0.10585527,-0.11060304,-0.12689841,0.95623386,-0.03245390,0.63903475,0.13461681,
-0.20259689,-0.18669125,-0.56261259,-0.47901633,-0.35979393,-0.37201166,-0.30064097,-0.24676389,-0.64182848,-0.37985215,-0.17845957,-0.19323596,-0.34245339,-0.24432959,-0.53004265,-0.30778885,-0.23435138,-0.49172860,-0.41503444,-0.24159108,-0.46756092,-0.32420409,-0.63027138,-0.26836658,-0.24054158,0.31888494,-0.33978927,-0.03242616,0.10477455,
-0.55327284,-0.42471206,-0.45850620,-0.45680627,-0.38494921,-0.37362528,-0.40293193,-0.37610829,-0.36970249,-0.40871730,-0.42814580,-0.44555694,-0.38592121,-0.53211337,-0.39158475,-0.43733341,-0.42124957,-0.61487430,-0.48439696,-0.49442330,-0.47757384,-0.31442177,-0.33719331,-0.29882437,-0.22431628,0.82713902,-0.42600676,0.87786102,0.01951526,
0.38582638,0.29024032,0.40813249,0.33016744,0.36731416,0.36117980,0.37329158,0.33837280,0.31657803,0.36446846,0.29764187,0.19542088,0.31873122,0.35603774,0.30793869,0.26429099,0.22624847,0.20021653,0.19586512,0.24186540,0.32535356,0.33670485,0.34545204,0.44888631,0.46370745,-0.63984102,0.30086032,0.31555921,0.04736577,
-0.23208486,-0.16847660,-0.21758930,-0.20413660,-0.21632412,-0.29225069,-0.16575280,-0.18776530,-0.17550527,-0.16775626,-0.17064638,-0.15391769,-0.17863344,-0.19985934,-0.21512201,-0.14949898,-0.18474329,-0.24351451,-0.20181391,-0.20280400,-0.20896320,-0.15033092,-0.26315254,-0.17052816,-0.16219115,-5.66467571,-0.16194181,-6.09591579,-0.13634814,
0.36554873,0.35677004,0.36898711,0.35224876,0.32711700,0.36460155,0.40639490,0.34329185,0.33379349,0.41509974,0.37014097,0.41271323,0.40201592,0.38968360,0.42397600,0.40552503,0.35054067,0.41407168,0.36789706,0.37380093,0.41650689,0.37257111,0.39681095,0.38301289,0.55912250,-0.61576629,0.42459512,-0.51500881,-0.08015876,
-0.07225643,-0.04970983,-0.10554948,-0.21730232,-0.14894249,-0.26319703,-0.06007631,-0.03029268,-0.04791604,-0.09772030,-0.06407448,-0.65118104,-0.18081921,-0.05126355,-0.40572870,-0.24414358,-0.10856295,-0.03371466,-0.02627312,-0.19411646,-0.27511090,-0.03897140,-0.24783926,-0.17313722,-0.09467884,-0.53127736,-0.10147256,-0.55695468,0.13833417,
-0.20448257,-0.20752016,-0.39301261,-0.25773543,-0.27854741,-0.22616063,-0.31369185,-0.38933820,-0.37295204,-0.23015618,-0.16194171,-0.19894704,-0.22349730,-0.21885844,-0.17115805,-0.26049453,-0.17356393,-0.18485875,-0.21000205,-0.30365402,-0.36534005,-0.21443272,-0.26593921,-0.27000898,-0.19527799,-2.85470104,-0.19087614,-2.45788908,0.07626031,
0.46563205,0.53423709,0.48515135,0.51045960,0.49214619,0.53556764,0.46689668,0.50567472,0.55107820,0.44227305,0.51153147,0.38876036,0.45334411,0.35394222,0.42523956,0.44466755,0.42726937,0.45802131,0.48601276,0.45919994,0.34926748,0.47665444,0.46663275,0.50174630,0.48167774,-0.73718637,0.48868194,-1.59187520,0.09277667,
0.37262356,0.40235731,0.41963735,0.33926940,0.41681194,0.42947999,0.43767482,0.41476610,0.39910963,0.46990475,0.39086241,0.42517650,0.42342746,0.43482578,0.47135055,0.41861549,0.38561913,0.45887724,0.44248781,0.43423957,0.47931436,0.40339381,0.47000915,0.45621362,0.53653204,-0.61101258,0.43727124,-1.84537566,-0.12304470,
0.37442306,0.48072314,0.53730047,0.40893021,0.36857700,0.42230719,0.47514805,0.44005308,0.45682415,0.45744592,0.47701377,0.41993442,0.40129104,0.49628767,0.48240951,0.44350857,0.44631979,0.46974766,0.44423476,0.44900212,0.53891957,0.49199778,0.52074218,0.47936425,0.46140626,-0.69121569,0.42821890,-1.31398761,0.00601391,
-0.25845864,-0.52920580,-0.46673021,-0.28108284,-0.04668336,-0.44001013,-0.21420586,-0.17777315,-0.68440843,-0.48003700,-0.15914801,-0.16547063,-0.57081199,-0.21332996,-0.42076588,-0.06206875,-0.29422751,-0.65942436,-0.22439530,-0.42301157,-0.23911034,-0.25559822,-0.15464021,-0.41229475,0.41000971,-0.59868783,-0.04937609,0.77246970,-0.13375597,
0.06199176,0.12101676,-0.13081975,-0.37402943,-0.34269482,0.09801418,-0.25975400,-0.23757312,0.15210110,0.03471547,-0.40909973,-0.13934070,-0.38716298,0.17908090,-0.15232000,0.03156841,0.00310810,-0.23028077,-0.48774713,-0.30024800,0.40946394,-0.39019656,0.03426305,0.02699967,0.31776112,-0.51881856,-0.73077083,0.81064856,-0.03443287,
-0.46497616,-0.41976821,-0.50437117,-0.52241045,-0.49310368,-0.42610458,-0.49023604,-0.54004055,-0.44033420,-0.46620795,-0.37287408,-0.53511584,-0.48753494,-0.71725088,-0.58363271,-0.66806227,-0.60057241,-0.70218992,-0.58947253,-0.68048596,-0.20304547,-0.22572263,-0.38717532,-0.35734510,-0.19994313,0.83577317,-0.35630652,0.79668295,0.04528512,
-0.12681872,-0.19116047,-0.15926211,-0.08804982,-0.06537703,-0.05810406,-0.12350019,-0.08073974,-0.17968149,-0.05507964,-0.32886186,-0.12695518,-0.10857278,-0.03835053,-0.17480332,-0.18801427,-0.14179452,-0.40357357,-0.04157594,-0.55186754,-0.09823738,-0.26943052,-0.18751523,-0.18736139,-0.03615028,-2.32034993,-0.32293758,-0.66064095,0.18344991,
-0.14560562,-0.03928684,-0.20841897,-0.16718663,-0.69481975,-0.50880247,-0.02514151,0.03584756,-0.11346136,-0.43400392,-0.18785019,0.03767776,-0.45356029,-0.20798932,0.01265043,-0.01839730,-0.03963639,-0.17642193,-0.43187734,-0.13292456,0.19412640,0.12366255,0.03269986,0.17576288,0.03280529,-0.15494604,-0.23285726,-1.48469675,0.02078743,
0.00032208,-0.15318246,-0.71210551,-0.20253834,0.00298826,-0.07207385,0.01352479,-0.19371238,-0.26743662,0.00395231,-0.06595867,-0.01185747,-0.57128572,-0.20896779,-0.03842936,0.00810297,-0.45535451,-0.00265929,-0.21426126,0.01090058,0.01009648,-0.15624960,-0.07595556,-0.19511521,0.00962480,-0.26062575,0.00124788,-0.04614476,-0.09256228,
-0.13733260,-0.40309972,-0.00430977,-0.03443403,-0.55752802,-0.27937427,-0.09736718,-0.11833027,-0.01952712,-0.13398789,-0.13187356,-0.10191305,-0.22280906,-0.29759726,-0.12761848,-0.06026231,-0.00452835,-0.10944917,0.00154819,-0.20881537,-0.10033625,-0.46108174,-0.02855724,-0.07744516,0.01453813,-0.86260599,-0.04560250,-0.15407494,-0.12042209,
-1.13145769,0.07570801,0.03055914,-0.40527076,-0.02172263,-0.52043438,-0.21981113,0.06431726,-0.37600359,-0.20190921,-0.06440516,0.03400020,0.08941343,0.07750762,0.06848656,0.20798481,-0.15431267,0.28008077,0.09855030,-0.39656511,0.18183252,-0.01814406,0.01104322,-0.57683522,-0.87519437,-0.21691321,-0.63282567,-0.81836921,0.16785760,
-0.07355598,-0.21144357,-0.39246160,-0.14284816,-0.00671048,-0.09285672,-0.30106160,-0.17688033,-0.18072778,-0.06456153,-0.35909337,-0.02013173,-0.04041156,-0.03694411,-0.29547918,-0.29773837,-0.06299811,-0.01648014,-0.11544910,-0.02986625,-0.20310280,-0.13355935,-0.13471296,-0.02140629,-0.35699680,-1.85358584,-0.04184718,-0.32145044,0.11413528,
-0.11601243,-0.07987081,-0.03090380,-0.03144487,0.14708003,0.33973664,0.34173584,0.31614199,0.40532541,0.30021185,0.31694418,0.23466012,-0.06573789,0.11820989,0.15326503,0.00269176,0.07422755,0.17275633,0.32451522,0.26243669,-0.16192846,0.29885989,-0.04852583,-0.15370645,0.44960886,-1.82630002,0.30551466,1.15000689,-0.02351348,
0.49768642,0.47590274,0.49601814,0.47909987,0.43737057,0.49580297,0.47712624,0.45438448,0.49466732,0.45998096,0.47605449,0.46029583,0.41873240,0.43349636,0.45267943,0.46565479,0.42723939,0.44027200,0.49730983,0.42409012,0.43220568,0.49493259,0.45022073,0.43658119,0.40713418,-0.64917809,0.42028037,-1.52834237,0.04056571,
-0.23432346,-0.20016907,-0.27050105,-0.25509319,-0.19044735,-0.22526497,-0.20442922,-0.23887809,-0.17008244,-0.24660094,-0.16290343,-0.25460279,-0.31120405,-0.94315159,-0.34063512,-0.21917897,-0.26541311,-0.22309028,-0.21570128,-0.57108384,-0.30122083,-0.32674664,-0.21390574,-0.30538049,-0.18798417,-2.54263330,-0.22520052,-2.33224344,-0.15226582,
-0.31291103,-0.29517746,-0.34932080,-0.54538679,-0.38745540,-0.28594479,-0.34846038,-0.28996110,-0.26090676,-0.29111195,-0.41611752,-0.27368417,-0.66551042,-0.37915254,-0.23452057,-0.43257943,-0.25226468,-0.58789676,-0.51138526,-0.37057704,-0.31831139,-0.59251225,-0.41194186,-0.21879756,-0.13046384,-5.02950287,-0.27104285,-4.29384089,-0.15325007,
0.44757429,0.52512860,0.47173887,0.48241481,0.43608981,0.44778383,0.49985835,0.48683217,0.47661304,0.49373999,0.48800784,0.42320156,0.38910612,0.50592041,0.46388149,0.43689847,0.47163728,0.48518631,0.47275725,0.46190453,0.50968134,0.49234462,0.52514470,0.43014589,0.46130893,-0.71816796,0.46785474,-1.30943298,-0.05945170,
0.44745937,0.51947051,0.38296595,0.45160306,0.39535385,0.51517516,0.40704796,0.45307747,0.49465299,0.41976196,0.38687333,0.39300799,0.35915178,0.34878793,0.43750396,0.41920817,0.41504979,0.37176153,0.35374212,0.38386026,0.29692617,0.44519606,0.39089325,0.40439743,0.45809364,-0.66321713,0.44612831,-1.82231712,0.17720543,
-0.09384759,-0.20612998,-0.26793736,-0.24441233,-0.13336921,-0.14497559,-0.07822827,-0.25332558,-0.14927362,-0.11797953,-0.20206101,-0.92717320,-0.02293786,-0.23162733,-0.20776151,-0.83578300,-0.30404210,-0.08044171,-0.37268430,-0.15121657,-0.02167961,-0.37830797,-0.04848940,-0.06519565,-0.44715613,0.05765932,-0.62861544,-0.03460767,-0.08446708,
0.05169051,-0.02334115,0.12235402,0.11640178,-0.33390450,-0.28732646,-0.33548361,-0.19083789,-0.37728399,-0.14325660,-0.08118285,0.05451614,0.14705648,-0.34339964,-0.04170432,-0.20174146,0.01307793,-0.18348354,-0.93488187,0.01764964,-0.96992195,-0.36673743,-0.04919313,-0.04249759,-0.09524007,-0.81315649,0.19192643,-0.12603503,-0.17257228,
0.20640877,0.05457970,0.16174509,0.06449936,-0.05848248,-0.27910852,0.07527017,0.09245364,0.06086193,-0.01725962,0.16790810,-0.02530126,0.10872215,0.07490672,0.15171435,-0.02157172,0.02007455,0.12428827,0.18113236,-0.33326912,0.10201012,0.07977080,0.04667947,0.12441285,0.08696733,-7.72516537,0.32410583,-1.96590447,0.10359176,
0.37806424,0.43926457,0.44390345,0.46506879,0.44243661,0.40661246,0.39804113,0.44287071,0.47479492,0.45494905,0.47085363,0.35223955,0.36427090,0.44614974,0.45690814,0.48437753,0.49697563,0.52815390,0.56833220,0.47565931,0.47153613,0.46046302,0.47751874,0.54587996,0.48085192,-0.73409086,0.46147522,-1.61022198,0.06089190,
-0.10381836,-0.02365061,-0.07633038,-0.09772187,-0.11506422,-0.02769169,-0.12038522,-0.13476203,-0.02338336,-0.52933562,-0.06068078,-0.18521367,-0.77671689,-1.07910824,-0.03651537,-0.12825148,-0.27640346,-0.17315741,-0.25653410,-0.10019188,-0.08327626,-0.15088981,-0.08830892,-0.10473243,-0.32354847,0.06033736,-0.02884258,-0.10580659,-0.12466362,
-0.04348549,-0.30959779,-0.47240266,-0.13889687,-0.07415923,-0.08914815,-0.04585467,-0.06376155,-0.15305330,-0.07061024,-0.07268149,-0.07327992,-0.07099913,-0.05285815,-0.18234625,-0.14876454,-0.06088329,-0.17631271,-0.51249444,-0.06641417,-0.27995506,-0.08593249,-0.31225666,-0.39893445,-0.22777730,-0.75030524,-0.06070235,-0.85255671,0.02389999,
0.03467387,-0.05278340,-0.19266027,-0.16478090,-0.24692523,-0.49653772,-0.21452941,-0.43014517,-0.31082743,-0.81835163,-0.39042094,-0.13248838,-0.61181319,-0.17550378,0.06993622,-0.18577136,-0.25934723,-0.45401946,-0.33555290,-0.25174507,-0.32675532,-0.07961394,-0.49969593,-0.28079963,0.24221161,-1.83506441,-0.22185308,-0.22130242,0.00723998,
-0.29919478,-0.39735159,-0.67152429,-0.56728870,-0.30400890,-0.10077947,-0.13784716,-0.02117974,-0.77465737,-0.91043061,-0.07281719,-0.58977288,-0.32953614,-0.32247600,-0.97095931,-0.01755567,-0.22827861,-0.28946051,-0.49868846,-0.46462002,-0.86582303,-0.01980096,-0.15719008,-0.14386216,-0.07781284,0.01036188,-0.61573815,-0.26654562,-0.00429513,
-0.38018563,-0.61236459,-0.35675105,-0.42665234,-0.41308025,-0.47950438,-0.44778702,-0.37395936,-0.42438808,-0.38504943,-0.46379077,-0.14305718,-0.17590778,-0.29960120,-0.34146297,-0.21589211,-0.26994753,-0.47178638,-0.66024196,-0.40135533,-0.19708492,-0.46865642,-0.38147044,-0.42560706,-0.36502543,0.75647455,-0.40388390,0.75272417,-0.12010875,
0.20721500,0.12157642,0.10113668,0.02282304,0.17179705,0.23732449,0.11523426,0.14366606,0.20980719,0.34112167,0.21930812,0.16138300,0.08423233,0.17729339,0.17542882,0.21761449,0.14637047,0.21273889,0.02980807,-0.00578649,-0.03237662,0.20645721,0.20841856,0.28669751,-0.01989526,-0.38086551,0.64439791,0.97183299,-0.01766172,
-1.10629022,-0.20458406,-0.24308746,-0.20952411,-0.23053698,-0.20040973,-0.28504103,-0.29992867,-0.37541935,-0.16695154,-0.08696412,-0.19696139,-0.47705600,-0.12746277,-0.06482539,-0.19132122,-0.14937206,-0.31275031,0.10391761,-0.02580598,0.03985171,0.12088480,0.22721650,-0.17788762,0.29170424,0.01174936,0.33427894,-0.68083704,-0.17948207,
0.41340840,0.45142081,0.42503062,0.41479391,0.39891812,0.46431276,0.46237820,0.43358567,0.41466150,0.44542938,0.46925935,0.44733480,0.44658905,0.48090515,0.45130241,0.42351258,0.46185479,0.44348246,0.42508742,0.41172671,0.49909085,0.47277039,0.44677702,0.43886515,0.49228469,-0.65710360,0.47707814,-1.21336377,0.12630783,
-0.25544545,-0.35029563,-0.07690938,-0.07869737,0.37649733,-0.26984692,0.04599926,0.13300328,0.00899837,0.11949102,-0.24339226,-0.54881638,-0.34107468,0.00277055,0.01888776,-0.32889870,-0.33926168,-0.72425514,-1.43725920,-0.19103423,-0.78291792,-0.70517826,-1.57004535,0.49929073,0.28226289,-0.45359018,-0.86070484,0.60337818,0.15722366,
-0.37140378,-0.27456030,-0.49544203,-0.32215732,-0.23214170,-0.22916014,-0.18607445,-0.18334572,-0.33904603,-0.28996587,-0.15301272,-0.20219404,-0.29680976,-0.29865345,-0.25811303,-0.27870506,-0.13979045,-0.28855163,-0.30222774,-0.33493817,-0.28286335,-0.27812383,-0.38079780,-0.17967166,-0.12126412,-2.81654000,-0.26460984,-2.09416056,0.16612901,
-0.20307204,-0.06189058,-0.44340146,-0.64295155,-0.34242034,-0.40829581,-0.20757520,-0.57763600,-0.15666337,-0.03876375,-0.67108876,-0.26098374,-0.57963222,-0.39874387,-0.62707078,-0.49929041,-0.04698977,-0.08172198,0.01112238,-0.42248973,-0.05854505,-0.04867980,-0.74102515,-0.37105787,-0.28646803,-0.06946244,-0.26668331,-0.24423049,0.00577904,
-0.22921279,-0.27462906,-0.25412217,-0.16884592,-0.21533357,-0.37899622,-0.20027162,-0.16908878,-0.28629324,-0.17599657,-0.20664932,-0.23716658,-0.49498650,-0.26110119,-0.20533943,-0.29950672,-0.39398646,-0.24911971,-0.30139616,-0.30636808,-0.21995609,-0.20039079,-0.25151730,-0.24030498,-0.10328102,-3.42192554,-0.23912552,-2.22963881,-0.02483103,
-0.10675516,-0.43860912,-0.12432110,-0.13979031,-0.17578085,-0.06087947,-0.11757600,-0.26031306,-0.18036523,-0.04930589,-0.17815305,-0.05116032,-0.16801295,-0.16867568,-0.05121106,-0.31891960,-0.05373297,-0.04794909,-0.07754838,-0.13167258,-0.17586961,-0.10068373,-0.29779074,-0.14361678,-0.02779852,-1.66337097,-0.22830038,-0.89954627,0.14603515,
-0.19581990,-0.26028553,-0.06018284,-0.22256705,-0.48665982,-0.24160060,-0.27659965,-0.23567282,-0.03981373,-0.33305845,-0.12818082,-0.48802429,-0.34958285,-0.79187787,-0.73513567,-0.06484190,-0.35754007,-0.21239537,-0.21595328,-0.29333493,-0.26872045,-0.21631551,-0.34621453,-0.69770664,0.24545105,-0.36081991,-0.30573335,-0.82769132,0.02358875,
0.23879278,0.32259217,0.48157564,0.14245291,0.33792564,0.39567059,0.13272367,0.38066760,0.27192420,0.42119855,0.28496462,0.33864805,-0.39372051,0.26461270,0.37043598,0.37493047,0.37863699,0.36810961,-0.15138403,0.17575416,-0.20679858,-0.17438646,-0.15702254,-0.26721919,0.48510835,-0.52615315,-0.42830485,0.02997913,0.02918163,
0.40651470,0.37733272,0.45177400,0.44462141,0.42464963,0.47911322,0.47934061,0.41404644,0.44906914,0.46062097,0.50066131,0.46499169,0.46872136,0.50638467,0.51826978,0.48368308,0.42280638,0.45286828,0.46401578,0.51272780,0.55347848,0.44163737,0.45718592,0.47608808,0.52723151,-0.62931246,0.49923584,-2.14078569,0.04194921,
-0.16917734,-0.54988486,-0.58097702,-0.44270262,-0.55679470,-0.27548450,-0.24233483,-0.25430831,-0.94037873,-0.37871087,-0.22154111,-0.29405260,-0.35635263,-0.33977988,-0.31839433,-0.67309248,-0.47216392,-0.32498252,-0.45312828,-0.22699155,-0.37104982,-0.16441606,-0.19231367,-0.25856099,-0.85104889,0.25380689,-0.32593256,0.25151047,-0.16750030,
-0.29108110,-0.22354144,-0.24976406,-0.12400701,-0.51210803,-0.08976476,-0.05916115,-0.09204926,-0.06511320,-0.21847323,-0.06119206,-0.10131205,-0.05861194,-0.06553966,-0.25755358,-0.09386689,-0.26105756,-0.12457220,-0.24195272,-0.15438232,-0.22286719,-0.03429934,-0.04897602,-0.14246128,-0.04022400,0.00356225,-0.15280679,0.54142118,-0.15643102,
0.48531148,0.43763953,0.44326147,0.42798761,0.45767310,0.39731973,0.43530363,0.46876898,0.43866047,0.39735278,0.35118616,0.31535232,0.37924942,0.28263491,0.40833101,0.42974728,0.33209702,0.26292029,0.32814518,0.34316906,0.36909926,0.38008052,0.43298161,0.61527139,0.39488721,-0.55420083,0.54648101,-3.45213461,-0.05801076,
0.48207778,0.39542738,0.38750735,0.39716431,0.39201301,0.41372353,0.46207950,0.36706832,0.43525112,0.54936975,0.36212102,0.42446956,0.34180596,0.49058849,0.34636569,0.34631261,0.28530490,0.36500901,0.36581025,0.36773610,0.09496932,0.14533630,0.19779147,-0.06913316,-0.76727408,-0.68913740,0.33345702,-0.26269087,-0.11193434,
0.32360110,0.19604769,0.44213566,0.37545499,0.18814673,0.15618631,0.25353602,0.24487399,0.34547305,0.28633571,0.28624988,0.30105898,0.39929357,0.48836237,0.32343155,0.34649611,0.38626081,0.32580143,0.52831894,0.34265786,0.51270741,0.48368961,0.50987631,0.46405488,0.52480364,-0.65426403,-0.09119141,-0.68708479,0.13316523,
-0.00217481,-0.04761763,-0.10488665,-0.09390871,-0.64828074,-0.19859235,-0.11416894,-0.24061227,-0.14181289,0.06056865,-0.48331353,-0.05292814,-0.58584666,-0.17699675,-0.03900194,-0.67285138,-0.68859011,-0.09352665,-0.22792174,-0.26896104,0.04207467,0.20556761,-0.15343536,0.00796690,-0.71204579,-0.32337695,-0.61330193,-0.93287390,-0.11297958,
-0.27374923,-0.51439953,-0.14462218,-0.42088294,-0.05423918,-0.37526947,-0.03014858,-0.22302040,-0.46175471,-0.01892210,-0.23014106,-0.01382441,-0.21256895,-0.13297065,-0.14260982,-0.27378169,-0.27965054,-0.17485099,-0.21594562,-0.12997527,-0.27875742,-0.20003304,-0.33239564,-0.29319593,0.02296190,-1.31675243,-0.34565234,0.14242893,0.02897273,
-0.29928732,-0.38879275,-0.38362893,-0.38901281,-0.54178727,-0.34450623,-0.41908187,-0.38777936,-0.40635872,-0.32098457,-0.36688632,-0.35627684,-0.39220119,-0.43224227,-0.62786210,-0.35709783,-0.42655957,-0.30955276,-0.33019638,-0.50623041,-0.33816066,-0.31331345,-0.42272690,-0.43605846,-0.43700400,-4.29179430,-0.29586944,-3.99603009,0.07461168,
-0.01814273,0.26474655,0.31968606,0.37313268,-0.04659352,0.12365813,0.17936441,0.13143681,0.44850814,0.20792365,-0.03124255,-0.06877628,0.21031095,-0.01267468,0.06478260,0.16938704,0.14178404,0.11374154,0.47710413,0.17472295,-0.14563006,0.25423634,0.24886569,-0.08644094,0.41827679,-0.52685982,-0.33490703,2.50155044,0.10608603,
0.28292391,0.14401180,0.18091677,-0.19848286,0.33041918,0.29696062,0.23051469,0.30246356,0.31271735,0.36176932,0.38501716,0.23831782,0.35615078,0.34187165,0.46679220,0.36762533,0.37675181,0.26606721,0.34010908,0.22155644,0.40105405,0.16464239,0.21311128,0.22759530,0.40610924,-0.47640142,0.36795264,-0.23524697,0.17141305,
-0.22259666,-0.36843079,-0.44267884,-0.25525180,-0.39562237,-0.38690546,-0.34398451,-0.31039894,-0.30646580,-0.32163066,-0.22472903,-0.44284493,-0.40530303,-0.26479530,-0.27049786,-0.36685455,-0.43976629,-0.33814675,-0.30535680,-0.36682022,-0.25192997,-0.26851624,-0.42626646,-0.52096903,-0.20838255,0.39733925,-0.66503215,0.36535543,0.12057017,
0.41838038,0.38616398,0.36226159,0.36726490,0.45313814,0.38321894,0.39394054,0.34742966,0.41016096,0.48467380,0.44485906,0.42539215,0.43938205,0.24310389,0.43215641,0.39128062,0.51637429,0.49248564,0.46259528,0.45817080,0.48267543,0.51088071,0.41037688,0.35693488,0.60004497,-0.64165002,0.31744331,-0.29074094,0.07440154,
0.44025263,0.29860875,0.26561382,0.24569465,0.32609224,0.40008432,0.40506122,0.45988441,0.24251285,0.43092725,0.43571147,0.50562036,0.16823038,-0.18985669,0.04863044,0.21964383,0.09877647,0.07861456,0.09769101,0.23797160,0.44623896,0.35347304,0.11139360,0.35049579,0.59414697,-0.70108378,0.29157120,2.29661560,-0.13956860,
0.36855823,0.28981444,0.23894776,0.38054377,0.35779569,0.43326190,0.36349156,0.06500936,0.32214966,0.27279282,0.32722288,0.30619499,0.34822923,0.37347296,-0.07478836,-0.10157995,0.36333400,0.34659719,0.40578786,0.12911120,0.35561454,0.32231945,0.28786504,0.42343080,0.44848669,-0.58987111,0.34600231,-0.34378943,0.12123941,
-0.01544595,-0.14466973,-0.16054349,-0.31684181,-0.03898675,-0.14457732,-0.32666776,-0.09893931,-0.24637400,-0.14756577,-0.47456080,-0.30309102,-0.39718053,-0.53038162,-0.19040550,-0.06731632,-0.13710530,-0.12899022,-0.20886138,-0.11064409,-0.03291918,-0.09521972,-0.27890956,-0.15019703,-0.15621887,-0.19477972,-0.26983595,-0.54307097,0.17362331,
-0.14880873,-0.21063256,-0.20533495,-0.25891680,-0.27207854,-0.15556216,-0.23401763,-0.19460788,-0.18319796,-0.20174804,-0.23316424,-0.18833846,-0.19576214,-0.26759946,-0.21123403,-0.14774966,-0.21933985,-0.30332428,-0.21200666,-0.22292444,-0.22063833,-0.12735415,-0.16363166,-0.21613385,-0.16353053,-4.98132658,-0.15283179,-5.71818399,-0.03336684,
-0.49165761,-0.37373847,-0.08753509,-0.48684981,-0.14351560,-0.00367867,-0.37935200,-0.58629876,-0.21392606,-0.20840798,0.00736697,-0.49385110,-0.58738124,-0.21521746,-0.24838243,-0.14147811,-0.17152575,-0.11539337,-0.15424395,-0.02159412,-0.59754413,-0.48105589,-0.14990175,-0.33946520,-0.08563011,-0.28414166,-0.61188591,-0.06054888,0.17118888,
-0.16881886,-0.12216460,-0.35525957,-0.56546974,-0.24886426,-0.24835533,-0.14894192,-0.24313274,-0.24214152,-0.12246667,0.00985687,-0.22369362,-0.29906759,-0.08198852,-0.08324995,-0.08102661,-0.03934066,-0.08172712,-0.13144234,-0.39739400,-0.23144327,-0.14022648,-0.14523472,-0.22242425,0.05050371,-1.08699691,-0.39069426,-0.06336068,-0.08022434,
-0.01791919,-0.10342296,-0.22458932,-0.02620126,-0.33362260,-0.02068760,-0.37793428,-0.27806452,-0.20541732,-0.21549515,-0.23115303,-0.09162688,-0.05271124,-0.12427443,-0.24457030,-0.39290443,-0.15237057,-0.21369836,-0.23841760,-0.09066765,-0.36884511,-0.30253339,-0.02110261,-0.39103669,-0.03782236,-0.40615013,-0.08945251,-0.47164831,0.06222862,
-0.26732025,-0.17207497,-0.23638636,-0.43538517,-0.15241146,-0.28279328,-0.22077724,-0.31209895,-0.23792513,-0.21254534,-0.30433267,-0.11244235,-0.35576677,-0.20058185,-0.14400640,-0.36148942,-0.08044966,-0.14771532,-0.18333633,-0.38184911,-0.52472550,-0.08586963,-0.22807889,-0.49402434,-0.01083077,-1.66473043,-0.17820647,-1.13001084,-0.17350504,
-0.82444763,-0.55605572,-0.87912709,0.03841286,-0.55947047,-0.20298749,-0.42779472,0.00607680,-0.15996608,-0.06537987,-0.66925329,-0.99738210,-0.22199188,-0.60652167,-0.26505545,-0.52118957,-0.94572204,-0.41847810,-0.30735096,-0.31025955,0.02644736,-0.26812738,-0.54247701,-0.82644558,0.21250024,-0.16042155,-0.59128952,-0.62722975,-0.08594875,
0.06442991,0.10266402,-0.62617457,0.28059632,-0.03361806,-0.40566564,-0.04673650,-0.28265217,-0.29807660,-0.17067541,0.08906733,-0.31183198,-0.07448588,0.12394135,0.02177980,0.08989468,-0.02178023,0.07840447,0.36658433,0.34907854,0.05735943,0.17239211,-0.02733251,0.21257213,0.25009048,-0.47735953,0.15905754,-0.07497594,0.14859445,
-0.21344395,-0.27429587,-0.13121927,-0.10988786,-0.22451994,-0.17625129,-0.20075443,-0.25831580,-0.16777974,-0.20032385,-0.31378129,-0.21636875,-0.20088796,-0.29910749,-0.12900035,-0.19541132,-0.29096740,-0.11546309,-0.12553895,-0.34716028,-0.14315802,-0.18914276,-0.11749152,-0.26958302,-0.08846226,-1.29336917,-0.13316607,-1.74058867,-0.08187734,
-0.21721874,-0.34198621,-0.15850396,-0.27947661,-0.04923654,-0.34733835,-0.03422419,-0.13163909,-0.16710904,-0.16269810,-0.13354215,-0.20959935,-0.20482855,-0.21406274,-0.43596390,-0.19352056,-0.44123518,-0.13847029,-0.33676177,-0.39520410,-0.10800543,-0.05866319,-0.36902294,-0.53177029,0.15912053,-0.94915992,-0.37612292,-1.03652132,-0.03238855,
-0.35431981,-0.34746319,-0.25392511,-0.40046465,-0.29932341,-0.30531773,-0.41182148,-0.39865392,-0.40648198,-0.42636243,-0.36983413,-0.40230650,-0.58785111,-0.62244642,-0.53233904,-0.00063720,-0.09576271,-0.14773640,-0.22819726,-0.18591459,-0.23313211,-0.23777036,-0.29625279,-0.32360733,-0.18216214,0.86496359,-0.29447380,1.00374436,-0.16005769,
-0.70033795,-0.51791948,-0.14135168,-0.17531699,0.11543409,0.10555939,0.09880433,0.06997330,0.03570190,0.08663799,0.08439922,0.08161251,0.07094869,0.16891631,0.11001702,-0.17624854,0.00600902,0.15856746,0.21629815,0.26794207,0.02518032,-0.13511948,-0.12268944,-0.29302466,0.10671944,-0.16443677,-0.69910210,-1.10441291,0.13594191,
-0.20767108,-0.27487728,-0.19761300,-0.17855754,-0.16336516,-0.19306178,-0.14030181,-0.18537156,-0.15301782,-0.18924457,-0.26202124,-0.45508397,-0.22469983,-0.19454812,-0.23288631,-0.25078580,-0.16833714,-0.34442937,-0.15520546,-0.21542414,-0.32318166,-0.36537787,-0.40138996,-0.30019721,-0.23879884,-2.94471979,-0.17449154,-2.17358327,-0.13329382,
0.38411525,0.41685581,0.40777141,0.38641635,0.35781470,0.38408983,0.41919279,0.43224156,0.36698604,0.38923380,0.35171279,0.40524369,0.46224877,0.40895280,0.40053001,0.43341458,0.44277754,0.47074586,0.41155988,0.44992727,0.42463589,0.41960949,0.49798915,0.47618628,0.52692020,-0.71245408,0.47056070,-0.12395111,0.11303042,
0.05376197,-0.06475051,-0.79760098,0.10511121,0.11578450,0.02085374,-0.29555911,-0.20417467,0.20813662,-0.21230452,-0.11560028,0.01931445,-0.13826773,0.01066645,0.07880257,0.02693661,-0.26483777,0.14851014,-0.26573130,-0.02056155,-0.22857805,0.01136823,-1.08956814,-0.59304726,0.57882905,-0.80159998,-0.76531821,-0.14083849,0.09331851,
-0.49138495,0.17672256,0.20611046,0.35039815,0.47370958,0.17355558,-0.11303029,-0.00378223,-0.11263371,0.04020888,0.00713243,0.15432161,-0.23208337,0.11194507,0.23663969,0.08745104,0.06804739,-0.05231288,-0.12042776,-0.23620351,0.05515868,-0.02142338,0.19557421,0.08766500,-0.09141681,-2.71569657,0.20822278,1.40622473,0.07849903,
-0.13395342,-0.13409813,-0.15466185,-0.17155029,-0.15313415,-0.14957596,-0.11800153,-0.13796401,-0.14112042,-0.12181640,-0.11705133,-0.14081326,-0.11784781,-0.16164376,-0.07043128,-0.18783133,-0.14540318,-0.25248143,-0.13917160,-0.18977062,-0.18318598,-0.22528395,-0.19694707,-0.35976356,-0.23377129,-4.31202698,-0.15050790,-5.17989492,-0.05704699,
-0.19329904,-0.01003767,-0.00344537,-0.34744990,-0.04338930,-0.19388291,-0.16319716,-0.13624199,-0.04031550,-0.11471728,-0.33962443,-0.09394725,-0.27664191,-0.19296952,-0.23870696,-0.12744421,-0.00489536,-0.09174332,-0.07754837,-0.24002036,-0.24059878,-0.32658637,-0.12335062,-0.25352007,0.04674587,-0.67255598,-0.03140296,-0.15371208,0.08956732,
0.05186598,0.08234885,0.09690274,0.15129724,0.25109908,-0.05018198,0.08473779,0.18265468,-0.04814421,0.11253650,0.04965860,0.00235315,0.29548675,0.37462047,0.08533254,0.39259911,-0.01869986,0.27007601,0.10102142,0.03870089,0.12636247,0.24878113,0.20369461,0.22468340,0.08222721,-0.69446009,-0.63599735,0.75036103,0.06641267,
-0.59805202,-0.55615449,-0.49153700,-0.53256959,-0.49078882,-0.48152506,-0.70386404,-0.49529108,-0.56577700,-0.45812282,-0.40991879,-0.75977081,-0.36471960,-0.84279686,-0.44145668,-0.62521720,-0.72432619,-0.53842151,-1.11197567,-0.48701644,-0.42332578,-0.55294126,-0.40646094,-0.45879275,-0.40226161,0.94263542,-0.75438285,0.70684737,-0.01526818,
-0.18816480,-0.17974822,-0.20011961,-0.20075646,-0.22362238,-0.26096651,-0.12689196,-0.15415064,-0.14464577,-0.14191784,-0.17504090,-0.14561826,-0.15581346,-0.17093918,-0.14321989,-0.19616604,-0.18812737,-0.23406009,-0.18311827,-0.20505832,-0.19138521,-0.12946749,-0.16021378,-0.14045851,-0.15620881,-5.78661108,-0.16756733,-6.13872433,-0.01407565,
-0.05137136,-0.10247361,0.07017671,-0.16931747,-0.59411752,-0.04589767,-0.21555467,-0.19836070,-0.30547270,-0.08842844,0.02372315,0.01001602,-0.06603178,-0.08000128,-0.21211229,-0.06258876,-0.05404086,-0.36796123,-0.07182726,-0.03636085,0.06693662,-0.02248008,-0.31472564,-0.11503744,0.28110650,-0.44951558,-0.80816561,-0.58192176,-0.11367233,
-0.23555078,-0.00018536,-0.00468069,-0.05294328,-0.11856316,-0.00469928,0.00402115,-0.01434655,0.06125961,0.08572031,0.07339907,0.01598058,0.03963300,0.03131313,0.17018200,0.09897482,0.08024964,-0.04728649,-0.09198204,-0.00334898,0.11644592,0.07678636,0.08806610,0.31248510,0.41238645,-0.31541851,0.31989166,0.79445684,-0.11482155,
-0.23046649,-0.22854009,-0.27673605,-0.21641473,-0.24179314,-0.34154791,-0.47134465,-0.25107804,-0.35871756,-0.49933422,-0.21298264,-0.22813250,-0.35093936,-0.24729903,-0.28468072,-0.73254645,-0.48728594,-0.25736770,-0.36051744,-0.36757514,-0.32495192,-0.26282957,-0.31149673,-0.27367330,-0.21817999,-3.07292938,-0.21525089,-2.94507909,0.13499944,
0.37765971,0.36840880,0.36293733,0.36431971,0.33902562,0.34465969,0.35793796,0.34831581,0.35355300,0.41562271,0.31901887,0.40335992,0.41685757,0.34508583,0.38304138,0.39807653,0.31965870,0.40022454,0.37165922,0.38702711,0.40416211,0.32557255,0.38682160,0.37338215,0.51095235,-0.62102443,0.50168407,0.38865301,-0.04120296,
0.09203184,-0.23347668,-0.81100631,-0.18026540,-0.53814793,-0.03250492,-0.19272675,-0.24272025,-0.61640555,-0.34762049,-0.53277284,-0.19550037,0.10998059,-0.15444259,-0.03503352,-0.58072984,-0.36636716,-0.63144416,-0.29254040,-0.43958691,-0.27725759,0.00711984,-0.41784382,-0.42134902,0.24269059,-0.23626094,-0.20386121,-0.55659109,-0.11225264,
0.52219963,0.49570417,0.47360605,0.49081755,0.42631820,0.47877318,0.50608909,0.48550245,0.47897595,0.46523908,0.47642329,0.45262149,0.41715485,0.47722721,0.43884566,0.47833204,0.42884624,0.45995325,0.46040639,0.43232870,0.46909043,0.46252093,0.44928750,0.45784855,0.45982710,-0.68744743,0.49948218,-1.12017775,0.18551581,
0.40036109,0.39380115,0.22064856,0.36222711,0.35293859,0.09275208,0.28753364,0.21709673,0.28117028,0.20573805,0.20095727,0.51809311,0.24532254,0.19281971,0.02232492,0.44564369,0.18337290,-0.01526916,0.14047447,0.26541781,0.39320675,0.19542028,0.29660919,0.03000679,0.14172831,-0.52257711,0.02313156,2.24028850,-0.17861554,
-0.26014149,-0.29749706,-0.32523555,-0.34057674,-0.31928426,-0.34284064,-0.31021330,-0.23918423,-0.31543288,-0.23434694,-0.37197581,-0.30358958,-0.41767213,-0.40201578,-0.40385097,-0.36747816,-0.19631143,-0.23533806,-0.16824938,-0.45242199,-0.29912734,-0.30705631,-0.21097896,-0.46574259,-0.06071493,-3.24762678,-0.24521600,-2.87899947,0.07820795,
0.39228934,0.43547916,0.38248986,0.40198570,0.41692644,0.39761153,0.43085691,0.39979795,0.42981398,0.33182997,0.43282023,0.34664464,0.44961998,0.25246713,0.42556053,0.38777366,0.39731494,0.38660392,0.41369319,0.39582613,0.41998610,0.46176031,0.44422060,0.40194303,0.43957120,-0.58977914,0.38914669,-1.48746920,0.00164145,
0.42511606,0.38814422,0.38403949,0.29369810,0.34527659,0.38389349,0.44733390,0.38407034,0.35050929,0.42654291,0.41040051,0.45424038,0.47069213,0.42344889,0.54450661,0.43849438,0.38761163,0.42085817,0.42656583,0.31671569,0.44928926,0.37394288,0.34430379,0.39427778,0.53188962,-0.63127196,0.49684319,0.78489119,-0.08210030,
-0.31084922,-0.30252168,-0.26356921,-0.23130453,-0.38762933,-0.47472247,-0.32846999,-0.11596269,-0.15167874,-0.33786929,-0.27702186,-0.24642107,-0.34885067,-0.12009154,-0.26022774,-0.09958942,-0.21714312,-0.68121612,-0.45852324,-0.30859181,-0.21437839,-0.29428604,-0.09396397,-0.35505602,-0.36367413,0.16514923,-0.39845335,0.28825623,-0.13827020,
-0.34094888,-0.30948502,-0.36579621,-0.47057992,-0.40844801,-0.32967314,-0.27797994,-0.37461731,-0.41599458,-0.30698666,-0.42273349,-0.40345261,-0.35744703,-0.37314323,-0.32203704,-0.32313168,-0.36253962,-0.28929818,-0.27712277,-0.41108495,-0.32734662,-0.29059136,-0.27775037,-0.57589263,-0.18903750,-3.35567641,-0.26154470,-3.53516960,-0.12223650,
0.37278244,0.46873456,0.42435363,0.58260727,0.52568030,0.51625222,0.49610144,0.39851466,0.50842828,0.41985458,0.44842997,0.41619870,0.47894481,0.35070044,0.52892059,0.51130503,0.45956701,0.39476240,0.43347365,0.31725922,0.36287031,0.42504787,0.41077214,0.46504104,0.51435775,-0.50047368,0.25505573,-1.19071388,-0.01582810,
-0.50782782,0.25109458,-0.11671962,-0.04072865,-0.30893520,-0.09931771,-0.30247620,-0.18451555,-0.51462823,-0.35403985,-0.38005945,-0.30458325,-0.40702116,-0.16653951,0.10793585,-0.20988022,0.03148794,-0.62173742,-0.26188421,-0.21435051,-0.81759566,-0.61985517,-0.46127152,-0.60223603,0.07891450,-0.37493500,-0.79690373,-0.18327329,-0.11832987,
-0.19270970,0.05458685,0.25751847,-0.11777208,-0.22294131,0.16565077,-0.19447131,0.03460516,-0.44468418,-0.28074560,-0.21832940,-0.20068811,-0.21814387,-0.24495085,-0.12349676,-0.11659720,-0.15649289,0.18105498,-0.00520436,0.12105872,0.19549172,-0.12929368,0.25633919,0.11395399,-0.58479077,-0.32862717,0.41063511,-0.93586773,0.09352742,
0.42027515,0.41947371,0.42263523,0.41431329,0.39160568,0.31081855,0.44604623,0.41646260,0.44986138,0.47022200,0.33959150,0.41774875,0.39460617,0.40868947,0.48764074,0.44524294,0.47234622,0.08909199,0.41306734,0.44814965,0.51590675,0.39834532,0.44974887,0.46095237,0.47292599,-0.75292134,0.43310753,1.61147523,0.12841807,
0.48674878,0.46071595,0.44719565,0.40683439,0.42011830,0.44076788,0.46827593,0.43755850,0.40726086,0.45239657,0.41791454,0.42190003,0.38358080,0.45380694,0.43533924,0.43854979,0.44057348,0.43646094,0.44733319,0.43956277,0.46742943,0.43285576,0.44161531,0.47639892,0.41825280,-0.66146064,0.46391833,-1.16326392,-0.15210004,
-0.27618963,-0.31485945,-0.16594765,-0.19611992,-0.19369851,-0.38489029,-0.24071503,-0.31799379,-0.20891650,-0.45201883,-0.24078885,-0.16156760,-0.30851653,-0.23476610,-0.18973531,-0.19172360,-0.26621333,-0.27277857,-0.17598248,-0.31278309,-0.25085208,-0.30662686,-0.22460967,-0.18043850,-0.22265503,-3.10980439,-0.16208792,-2.31235003,0.15909047,
-0.23113653,-0.22248685,-0.16881232,-0.13413753,-0.09211471,-0.47626463,-0.51509309,-0.09810466,-0.16688186,-0.13602196,-0.37693772,-0.14358909,-0.09397462,-0.23462105,-0.08236679,-0.10803901,-0.14965820,-0.31941974,-0.28344032,-0.21931984,-0.55057555,-0.20633852,-0.27616513,-0.17087726,-0.07823181,-2.00923800,-0.08247028,-1.38183355,-0.18503651,
-2.59834719,
5.69434786,
0.55861235,
0.54156649,
-0.74434495,
5.37826967,
0.58095235,
0.30087852,
4.48398304,
-0.99052238,
0.35313922,
5.68244076,
-1.98278093,
0.39435664,
0.09265184,
-1.52196586,
1.49411118,
-2.21415830,
-0.87007374,
0.44873068,
0.25540873,
5.31098413,
-0.12446292,
-0.17895204,
-0.73076731,
-1.44306433,
-2.28580546,
0.53830647,
0.51828331,
-0.96727949,
-1.83454418,
-1.53973746,
-0.60446465,
-1.29773057,
0.16159464,
-1.55503643,
-0.76642585,
-2.55752087,
2.22500014,
-2.08640599,
-1.07144618,
-0.71185529,
4.88460588,
-1.17288613,
-1.80259132,
-0.63701719,
-2.63683844,
-1.01231587,
-2.47016740,
-1.17819452,
-1.26615691,
-1.75117457,
-1.39178109,
-0.69233036,
-1.84357154,
-0.69073772,
-0.88298649,
-0.00242300,
-0.17169325,
-1.95118022,
0.67935121,
0.35285991,
3.68573618,
-1.29865241,
5.54851389,
-0.56694567,
0.72363323,
0.26377538,
-0.84273088,
-0.90546840,
-0.51305854,
-1.61346686,
-0.71733296,
-2.51812506,
-1.09979880,
-0.83304381,
4.62544155,
-1.70327342,
-0.94502401,
0.45345262,
-0.62936372,
-0.73181695,
-0.89456534,
0.40675020,
-0.75457245,
-2.13256550,
0.34920004,
-2.35643530,
1.21000624,
-0.75680703,
0.38509774,
0.55377865,
-0.10866350,
0.42674103,
0.37360293,
-0.89882886,
-0.85800797,
-1.76708937,
0.04739651,
0.39812636,
-0.40187240,
-0.57816833,
0.51240414,
-0.95293897,
0.58812445,
-0.96038127,
-2.84005499,
-0.29402041,
-1.00651920,
-0.77520812,
0.80551207,
0.62102652,
0.02551321,
0.05834066,
-0.76777822,
-1.92245495,
2.01911807,
5.43774986,
0.45826948,
0.35660905,
0.55188227,
-1.20396793,
0.78678489,
-1.76635122,
-1.07408202,
-0.95761108,
1.58749509,
0.89774275,
-0.38928643,
0.25616482,
-0.88881946,
-2.21011448,
-0.77939278,
-2.60889387,
-0.80048805,
-2.24076724,
1.53360009,
0.22711986,
2.78592682,
-2.30707598,
5.34023285,
-0.94533813,
-1.65688038,
-1.16766739,
0.18303977,
0.53597289,
-0.92537379,
0.73885167,
-0.52681869,
0.26093078,
-1.46061289,
-0.84835833,
0.77884763,
-0.53522414,
-1.76071978,
-1.18700230,
-0.71743643,
-0.84863275,
-1.12601519,
0.60885388,
5.84063482,
0.82389295,
-0.32636297,
1.05416822,
0.20222859,
0.22133341,
0.37046406,
-0.54606789,
-1.43117201,
-0.80699664,
0.10979402,
-0.05206830,
-0.69373846,
-0.98712814,
-2.59388971,
-0.45737076,
-2.34158278,
0.82221484,
1.27288473,
3.74189162,
0.43171594,
-0.03731173,
-0.71908379,
-0.86555803,
2.04519558,
0.43201333,
-0.72502452,
-0.36510232,
-1.42609346,
-0.43221214,
-1.05850983,
-2.32708263,
-1.70683229,
0.25412521,
-1.53202105,
0.94178289,
-0.94439065,
1.41429389,
-0.09711371,
-0.61718082,
0.33914429,
-0.12965831,
-0.71393943,
-0.74554491,
0.37862390,
0.59315592,
0.34254640,
-2.60577631,
-0.27837360,
3.82787704,
-2.08429003,
0.44924340,
-1.22109592,
0.46832255,
-2.99243999,
0.71047884,
-0.53773010,
5.45704269,
-0.58471024,
-0.55623949,
-0.46950379,
-0.35094377,
-1.38118136,
-2.68841386,
0.40148023,
0.17313568,
-0.84613836,
-2.36261582,
1.43209958,
0.71292716,
-2.44012809,
-2.99706984,
3.78696704,
-0.75486922,
-1.47355783,
-0.52477801,
5.41530800,
-0.60588342,
-1.38861465,
1.87871182,
0.43958169,
-1.01858282,
0.42729065,
-1.68948185,
1.66225731,
0.12541050,
0.19391508,
-0.89842784,
2.76620936,
0.35531875,
-1.03825152,
-2.33923316,
0.14887996,
0.47806242,
1.55875742,
0.35353500,
0.02178155,1.06410372,0.00632785,0.11581576,-0.12268268,1.04600382,-0.12810820,0.04256682,0.84068990,0.04146098,-0.06921675,0.98611492,0.00153288,0.00536564,0.29812005,-0.24000220,0.43385652,0.04939745,-0.04176464,-0.25565231,-0.03520234,1.06772614,0.29057693,0.28712416,0.06094755,-0.18938179,-0.04371944,0.01515985,0.47839239,-0.05793025,-0.30380881,-0.02628699,0.05284882,0.02156438,0.12273784,-0.01396021,0.01645241,-0.13292134,0.58155602,0.02043635,0.43936938,0.10624935,1.09537804,-0.05595027,-0.22663155,-0.11227375,-0.16335151,0.01430187,-0.01736506,-0.01972997,-0.17684057,-0.14756630,-0.01528102,0.13275748,-0.22628450,0.01895018,-0.22389802,0.31103662,0.05810561,-0.34676170,0.25125316,-0.03397812,0.76736921,-0.50307012,1.04902184,0.09835967,-0.19365104,0.39395529,-0.17134611,-0.18414134,0.13397990,-0.05056186,-0.05916929,-0.01918728,-0.01317858,0.08674409,0.83903003,-0.08227705,0.18506837,0.43276843,0.10629781,0.07484270,-0.04353902,0.38097382,0.02516517,-0.02992554,0.17430048,-0.03936784,0.57943350,0.01935697,-0.24800296,-0.06198398,0.02856338,-0.12174077,0.13615209,-0.09323746,-0.17913675,-0.08020253,0.11882788,0.13673569,-0.09122684,-0.25543952,-0.00399392,-0.00497754,-0.02198536,0.03125279,0.10675827,-0.00975944,-0.09912715,-0.18666282,0.23073849,0.09579776,0.19821915,-0.09040874,-0.35749117,-0.05254525,0.61724830,1.19522333,-0.00734247,0.05814760,-0.09420007,0.06861941,-0.31969467,-0.11772642,-0.07153154,-0.27685726,0.75777596,0.41043594,0.02855148,0.06876026,0.02683256,-0.11230142,-0.12631921,0.06130679,-0.30891809,0.05683975,0.65547681,0.00068449,0.66151702,0.05855887,1.21282542,0.11486313,0.04498528,-0.10443142,-0.08561642,0.31103021,-0.05337979,-0.03508404,-0.10914623,0.41053569,-0.18402040,0.03849520,-0.16779637,0.02104162,-0.20118318,-0.28804359,-0.80404687,-0.03419858,0.07178328,-0.01171902,1.20756721,-0.01837667,0.16228652,0.58932877,0.05471761,0.19047490,0.03131879,0.00784708,0.00939040,0.01531055,0.17479327,-0.10070715,0.03479458,0.13371418,-0.15090874,0.10352197,-0.12732254,-0.10589658,0.56251138,0.87128186,0.06571439,0.07576619,-0.10214512,0.11457527,0.48753756,-0.15402336,-0.22153813,0.24101165,0.10742047,-0.00891835,-0.07426732,-0.06783231,-0.10590357,0.00796090,-0.01369356,0.51031065,0.05710611,0.54600722,0.26569939,0.08964118,0.08647594,0.00635933,-0.19140014,-0.15433590,0.14514107,-0.03639793,0.09919479,0.07919081,0.09612960,0.75917387,0.01314472,0.04626498,-0.27332947,-0.12307995,-0.08907221,-0.05140259,0.08654381,0.99478835,0.07620019,-0.03715113,0.15994170,0.31476554,-0.25784552,-0.02420081,0.29920834,0.08682542,-0.08901399,-0.05242125,0.60241240,-0.16980790,-0.19348043,-0.10417562,0.84892452,0.05985138,-0.00722627,-0.03528452,1.34036636,-0.01209682,-0.06428996,0.59350294,0.07972471,0.02246659,0.15168495,-0.06302132,0.73218203,0.00885827,0.03825634,-0.13729578,0.66025692,-0.05788991,-0.05729991,-0.01071048,0.03033499,0.05818902,0.53478301,0.40809309,
-0.05023877,0.04353092,-0.31485710,-0.17841072,0.28872868,-0.07422128,-0.04523610,-0.30107275,-0.08811644,0.12347981,-0.06354320,-0.04627628,0.23240034,-0.49030462,0.02030677,0.06876882,-0.54714853,-0.01078168,-0.46501979,0.09759853,-0.13247779,-0.08540505,-0.06041578,0.08224636,-0.17106557,-0.82045245,-0.24809352,-0.18485434,0.13683480,-0.20062001,0.76821166,-0.09753477,0.03264198,-0.12672739,-0.08744685,0.24607153,-0.18138671,0.01522705,-0.28127888,-0.13993034,-1.39769959,-0.35644501,-0.05856049,0.21486247,-0.33140421,-0.01155789,-0.05758219,0.10359448,-0.15827477,0.20033045,-0.03902368,0.20451719,-0.13391699,0.24278827,-0.77967292,-0.17317624,0.18327597,0.09470437,0.11115610,0.18596958,-0.26088944,-0.11625563,0.18933813,0.04857403,-0.05790466,0.04962539,-0.14592598,-0.15500374,-0.07131328,0.03502451,-0.04710729,-0.26223239,0.22993062,0.13576630,0.26281697,0.01934046,-0.10583302,-0.16303430,-0.45923367,0.17442785,-0.07569446,-0.05537292,-0.16631429,-0.23785293,-0.31678683,0.01751230,-0.50052845,-0.04796801,0.15867262,-0.15820082,0.03850161,-0.01103703,0.00709824,-0.06072931,-0.42051056,0.09717128,0.20088777,0.09774949,0.04156112,-0.83862984,-0.50979578,0.23648041,-0.29056314,-0.29220715,-0.46056589,-0.14684759,-0.15245281,0.00175507,0.13397199,-0.06220774,-0.24892345,-0.68762642,-0.19396429,-0.85935438,0.22936115,-0.60538894,0.17673041,0.06916097,-0.04959132,-0.36482215,-0.26669472,-0.33572125,-0.05805666,0.04203612,-0.17366298,0.09697111,-0.06705970,0.12145422,-0.71284431,-0.43158853,0.27699995,0.37238780,0.27123278,0.33282503,0.36184880,0.00224576,0.23495014,0.08994269,0.35136849,-0.70990872,0.13644651,-0.14711565,-0.04813399,0.59140754,0.00940861,-0.33181372,0.07796254,-0.26053470,0.09668147,0.02019469,-0.13339369,-0.12270388,-0.23291337,0.01955881,0.27629411,0.08942139,0.00368418,0.32900184,-0.31964087,-0.39171761,-0.03346387,-0.22190148,-0.12225489,0.27027833,-0.03394423,-0.05747604,0.04013080,-0.10410908,-0.13060090,-0.30127686,-0.19214101,-0.34746438,-0.02045207,-0.50236940,0.38557330,-0.07512517,-0.19198555,-0.18799078,-0.14900342,0.16374373,-0.20414525,-0.10232823,0.03804681,0.13481893,-0.20538752,-0.06455348,0.33708999,0.09153486,-0.57807976,0.15235440,0.00185092,0.34827676,0.21662857,-0.26994821,-0.08671947,-0.15784848,-0.27561566,0.24474080,-0.05093303,0.01830846,-0.11326111,-0.03693737,0.40433761,0.19012521,-1.10235667,-0.31004208,-0.42553112,0.60692328,-0.22017042,-0.07813927,-0.17856872,-0.33106616,-0.25874209,-0.05938751,0.11255965,-0.18136871,0.11578684,-0.01457153,-0.01966880,-0.18520425,0.10460375,0.16290455,-0.21639143,-0.14326328,-0.32236338,-0.18965675,-0.10698888,0.38979894,-0.09264550,-0.00801341,0.06710797,0.12240594,0.26576272,-0.10044625,0.01091718,0.16107072,0.03279634,0.06472599,-0.10066590,-0.08616534,-0.62272316,0.36734012,-0.41431805,-0.28566399,-0.05935695,-0.00888830,-0.07778873,0.28454542,-0.09604489,-0.06859104,-0.24783775,-0.13769153,-0.09572382,-0.29108086,-0.13004029,-0.18145604,
-0.01009729,0.16928419,-0.15645850,-0.04166098,-0.09842571,0.16937754,-0.11401891,-0.15088671,0.15696301,-0.11641888,-0.10770548,0.22376549,-0.01712795,-0.06949449,0.08134842,-0.05219284,0.18935762,-0.03745386,0.03238497,-0.11825831,-0.07400374,0.19475543,0.10142129,0.03812829,-0.12957516,-0.12925754,-0.08517571,0.01854100,0.07530634,0.09367222,-0.06072797,-0.10030269,-0.10494985,-0.05214985,-0.07113322,-0.13661565,0.00100252,-0.07854522,0.06786656,-0.07839037,0.01040207,-0.14180519,0.13524121,-0.07322447,-0.11603803,-0.09523004,-0.13717075,-0.19327502,-0.12536520,0.03040747,-0.21217929,-0.05062218,-0.07855564,-0.20103848,-0.06309704,-0.15784517,-0.03312120,0.05077732,-0.14908408,-0.08921313,0.08686843,-0.03293504,0.04517274,-0.01345054,0.10892789,-0.14481343,-0.02960294,0.15285581,-0.03882027,-0.04809375,0.03236029,-0.06558620,0.07188382,-0.11438588,0.06511779,-0.03656602,0.08759243,-0.12150487,-0.05028772,0.00638180,-0.01057165,-0.06358150,-0.06374577,0.16695459,-0.00893966,-0.06094434,-0.04394262,-0.11860332,0.07337149,-0.08784562,-0.21995097,-0.06042640,-0.04622653,-0.08385783,-0.05244729,-0.10011052,0.01590365,-0.18364315,-0.10033529,-0.05940337,0.13907874,-0.13452171,-0.09460879,-0.09219047,-0.09434228,-0.16494934,-0.10823360,-0.05694672,-0.08979219,-0.06379192,-0.04234376,-0.04382951,0.11522098,0.00327218,-0.03009223,-0.01095600,0.07244334,0.26287502,-0.01624033,-0.05273551,-0.03405155,-0.00229599,-0.03709187,0.03322449,-0.01819718,-0.09093661,0.06057223,0.04179779,-0.06478936,-0.07968364,-0.02207875,-0.08608694,0.04280832,-0.06800219,0.01806663,-0.02663154,0.08269694,-0.08621649,0.04692309,-0.62401873,0.26824811,-0.05542649,-0.05422937,-0.10715583,-0.11870544,0.03087422,-0.11742750,0.03066723,-0.06875017,0.03767747,-0.10180300,-0.12444513,-0.14704755,0.09427974,-0.03460426,-0.11062411,-0.04427296,-0.02345982,-0.03068356,-0.05735729,0.19939205,-0.14584608,0.00998297,0.06393401,-0.03308014,-0.05644792,-0.10485382,-0.07957634,-0.09344243,0.01174017,0.09808563,-0.07429917,-0.08027330,-0.04237377,0.01451566,0.04173915,-0.00760532,-0.03632839,0.17894179,0.10824745,-0.04227033,-0.05214754,-0.11756627,-0.12699264,-0.09304198,-0.09654406,-0.07539488,-0.00155637,-0.02118095,0.01313722,-0.12762943,-0.00997285,-0.10936097,-0.01746232,-0.12949711,0.01871178,-0.12894294,0.02173146,0.12337635,-0.02604350,-0.14715040,-0.04713078,-0.00657964,-0.15492859,0.04198837,0.02463707,-0.05830707,-0.06246842,-0.01367013,0.13425691,-0.02811167,-0.08323934,-0.06261397,-0.05586574,0.00448096,-0.09903722,-0.00976175,0.06408299,-0.01275012,-0.02947031,-0.07843821,0.08310924,-0.11901628,-0.00308685,0.06670983,-0.05242274,-0.01596484,-0.03193450,0.15350069,-0.07482284,0.02820817,-0.06803280,0.09004848,-0.09451109,-0.08286817,-0.01997529,0.32931405,-0.07845673,-0.16781683,0.04352510,-0.07070588,-0.14506663,-0.05254586,-0.05451747,0.07922690,-0.12276353,-0.08863959,-0.11986296,0.13266118,-0.09888105,-0.03715572,0.03330738,-0.15762034,-0.01293892,0.12414119,0.08596395,
