// Neural Network File Format by Kyle Julian, Stanford 2016
3,27,15,64,
27,64,64,15,
0,
0,0,0,0,-1,-1,-1,-1,-1,-1,-1,-1,0,0,0,-1,-1,-1,-1,-1,-1,0,-1,-1,-1,0,0,
9,9,9,9,3,3,3,3,3,3,3,3,10,10,10,3,3,3,3,3,3,1,3,3,3,4,1,
0,0,0,0,0,0,0,0,0,0,0,0,0,0,0,0,0,0,0,0,0,0,0,0,0,0,0,0,
1,1,1,1,1,1,1,1,1,1,1,1,1,1,1,1,1,1,1,1,1,1,1,1,1,1,1,1,
0.15342115,0.45873302,-0.63631475,0.33296409,-0.34556535,-0.27155396,0.45776850,-0.36668459,-0.06272375,-0.51764119,0.44387606,0.12197995,0.09076056,0.07892754,0.16027136,0.19819647,0.20748934,-0.08686663,0.71182394,-0.21318343,-0.01868839,-1.03042424,-1.01487124,-0.48526174,0.24345931,1.99301171,1.68446660,
-0.06414348,-0.00902052,-0.10766830,-0.01202084,0.06946032,0.07301073,0.02371007,0.14798073,0.09081206,-0.04169711,-0.02166506,-0.11708824,-0.07340441,-0.01467562,-0.16496147,-0.13176981,-0.07989789,0.03733445,0.09210370,-0.02395110,0.13380504,-0.06480044,0.13424966,-0.18559332,0.01072731,0.08310876,0.14222600,
-0.01448515,-0.11325216,0.02008482,-0.11214989,-0.02003576,-0.01916689,0.00869694,0.03689681,0.10819308,0.04625815,0.16397980,0.19160412,-0.05218747,-0.13708040,-0.00046957,0.13035725,-0.16855194,0.01296030,-0.02456006,0.06459469,0.00212880,-0.11938825,0.12895872,0.12733620,-0.08833326,0.10194246,-0.11364030,
0.44411674,0.19631928,0.28075093,-0.22752824,-0.00951891,0.18360075,-0.11429261,-0.10140015,-0.01924705,0.02953262,-0.09216855,-0.02735653,-0.11653847,0.16073753,-0.24374944,-0.07883526,-0.21747054,0.30061769,0.05813850,-0.23511142,0.20235962,0.90504843,0.41936511,0.21603896,-1.06812584,0.05810769,1.74461055,
0.11232447,-0.05750909,0.00455644,0.02937303,-0.00571865,-0.08230624,-0.03936260,-0.04887218,-0.15342340,0.08540959,0.09954120,0.02786388,0.12976171,-0.14242411,-0.19356915,0.14914949,-0.18476558,-0.08231225,0.07262234,0.08711354,-0.06674862,-0.12909138,0.01971948,-0.02540707,-0.09927564,-0.10005664,-0.19078244,
0.38971472,0.39760903,-0.15076123,0.18218578,-0.05424681,0.65405917,-0.14774942,0.44041121,0.24009456,0.21048056,0.42936757,0.35826057,-0.28639629,-0.03749730,0.06276320,-0.64798188,-0.11522605,-0.04753241,0.17118862,0.04090540,-0.01825969,0.29724830,-0.34690768,-0.09743585,0.45892873,-1.55130422,-0.45406044,
-0.21352948,0.00222337,-0.39472339,-0.37315953,0.01378944,-0.02135648,-0.01180414,-0.11647817,0.13403386,-0.09584150,-0.09579751,-0.09933913,0.31146199,0.13306305,0.20345448,0.24903670,-0.06706124,-0.28413728,0.20154439,-0.32780552,-0.13853468,0.10941047,0.10168418,0.19252212,-0.22425403,1.42285264,0.61337382,
-0.20752202,-0.03406147,-0.30736023,0.24047196,-0.03631310,-0.10970848,-0.11365318,-0.57998049,-0.11769825,-0.21189357,-0.04096024,-0.29357499,0.19976297,0.20779525,0.17567673,-0.17102966,-0.17914338,-0.05207082,0.14008576,-0.21938665,-0.07259234,0.50344247,0.28649902,0.23019600,-0.49265990,1.93560565,4.14825726,
0.08185650,-0.04686224,0.00673802,0.02212075,-0.12418816,0.04009173,-0.14794132,0.17015257,-0.06837664,0.03231096,-0.12720153,-0.07407782,-0.17930901,0.07191706,-0.15712391,-0.13985746,-0.11837381,0.10483652,-0.10560289,0.03461887,-0.10244866,-0.18203567,-0.18945162,0.10676960,-0.15928507,0.05959998,0.15032339,
0.46009469,0.23713064,0.07478498,-0.05946211,0.08266173,0.05116822,-0.40912727,-0.36331388,-0.14501780,-0.22439097,-0.86528307,-0.10642337,-0.10743482,-0.01834205,-0.17119309,0.47377026,-0.19890031,0.11475256,0.35705298,-0.21905006,0.23557055,0.84251380,-0.41117427,0.01021334,-1.15921664,-0.39782801,1.93699563,
-0.13346386,-0.32744169,-0.18444332,0.01175684,0.01523952,-0.27502200,-0.56500357,0.05326641,-0.04814050,0.06233270,0.05095259,-0.55467325,0.18657163,0.15093233,0.12868549,0.00533188,0.35332167,-0.27498764,0.88065755,0.20351239,-0.00501972,-1.15677798,-1.22710824,0.28945249,1.07546139,0.52410644,-0.59869933,
-0.14265412,-0.03397617,-0.17190179,-0.16816856,-0.02096515,0.14244324,-0.17192994,0.02124733,-0.08487198,-0.05337703,-0.13571717,-0.13172777,-0.08940758,-0.04371845,0.06410645,0.02778546,-0.07043167,0.15967074,0.13530344,0.16961581,-0.15568736,0.12803307,-0.07943907,-0.06420545,-0.18501496,-0.12271544,0.11563033,
0.35920644,0.17683342,0.37903014,0.18021998,-0.32734579,0.09520201,-0.18388791,0.07767445,0.07675896,0.16306213,-0.01600504,-0.24830757,-0.01362515,-0.00325922,-0.05596894,-0.45946646,-0.47380576,-0.13303162,0.55078232,-0.10445984,-0.14708452,0.41522971,-2.08804560,0.15845628,0.07798166,-2.03908563,-1.07400453,
-0.14394170,0.13752577,0.29720494,-0.26677769,-0.26118469,-0.42329249,-0.47901988,0.06442776,-0.22459693,-0.00206160,-1.16703212,0.00794908,0.24642731,0.11157069,0.16380289,0.00084747,0.14096418,-0.06543645,-0.23086151,-0.13424537,-0.27789992,0.21257128,0.28915095,-0.57985055,0.83019418,0.10257454,-1.24551237,
-0.03786832,-0.35958314,-0.03626291,-0.21714018,-0.10598279,0.14512147,0.02441296,0.15220213,-0.17115673,0.31998903,0.21024279,-0.03990663,0.28892276,0.25992295,0.08863526,-0.02037582,-0.38363045,-0.06968641,-0.12074865,0.04553562,-0.13549821,-0.56975728,0.23323949,0.42819661,0.15185063,2.66782427,3.42731571,
-0.42275071,-0.12432754,-0.02352595,-0.10011092,0.04997169,-0.18980655,0.16352971,0.13512750,0.19911417,0.01005590,0.28661647,0.08933127,0.32589397,-0.08884347,0.21778734,0.17341641,0.41088569,-0.16030771,1.07709360,0.26057664,-0.26811245,-0.84984374,-1.14467573,-0.58333123,1.38060057,-0.40839130,-1.91065800,
0.16041496,-0.01045308,0.08597222,-0.19186434,0.13117538,-0.10792997,0.04809346,-0.17758808,-0.10343874,0.12178512,-0.04141873,0.02193316,-0.11241914,-0.16506347,-0.14652511,0.13187551,-0.10825951,-0.13531339,0.04824769,-0.18520451,-0.05445314,0.15263382,-0.01752874,-0.04207735,0.11867242,-0.17792536,-0.13557100,
0.29645714,0.22547324,0.01207676,-0.00693686,-0.19354953,-0.15356609,-0.07741062,0.28353086,0.04000507,0.06697553,-0.32186812,-0.03246371,0.08008891,-0.00407738,0.06380469,-0.60929245,-0.12250916,-0.12012971,0.37959605,0.06574737,0.26077232,0.93979520,-1.64400959,0.35537270,-0.70155388,0.91806674,0.37600937,
-0.26374769,-0.03082348,0.50064021,0.11394478,0.12881166,0.05594126,-0.30086493,-0.11206505,-0.16153599,-0.08657646,-0.26062980,0.06762769,0.09769277,0.32500684,0.05528230,0.14136124,0.07110999,-0.16744773,0.00871560,-0.01236582,-0.40200424,0.31373787,0.65467376,-0.64160877,1.08745122,-1.17340922,-0.82107759,
0.01938506,0.29125309,-0.04910144,0.28220844,0.12887575,0.33258560,0.09148111,0.07217184,0.17526805,0.21312150,-0.03985703,0.06872581,-0.06019008,0.38913524,0.20287473,-0.08441480,-0.22854161,-0.02549303,0.08738280,-0.05509530,0.07908285,0.54547620,0.60196167,-0.18524247,0.22226228,-0.84945327,0.45898828,
-0.07054857,-0.29355446,0.17318498,-0.18355870,0.17998020,0.26480949,-0.14766762,0.40861392,-0.11343221,0.57010651,-0.18274102,0.09470566,0.22256608,0.05923067,0.08980335,-0.08770926,-0.17492758,-0.43409136,0.13421528,0.02807165,-0.08597719,-0.75415987,-1.40013671,-0.74187720,1.14675474,0.20652750,-1.51685059,
-0.18415859,-0.00943422,-0.05641034,-0.19600071,-0.12739170,0.13798322,-0.16924553,0.16543598,0.04789888,0.08461289,0.09707344,-0.01821856,-0.03409445,-0.05319016,-0.03405732,0.03479083,-0.02703573,0.03087159,0.14192730,0.13019848,0.15905149,-0.17104916,-0.15930294,-0.02253542,-0.19826680,0.08510758,0.06372813,
-0.02026805,-0.14166632,-0.09397207,0.07946989,-0.06691394,0.12532726,-0.14906034,0.05362535,-0.03266968,0.05511387,-0.08307330,0.00497242,-0.03409638,0.05747164,-0.20535724,0.03470432,0.10009709,0.08342256,0.12964006,-0.03038536,-0.10908939,-0.05145429,0.15348545,0.13701364,-0.18235551,-0.17674778,-0.14843804,
-0.48811436,-0.09021595,0.25517496,-0.46381223,0.09071650,0.16348541,0.19149867,0.48022515,-0.06045547,0.32578570,0.21285158,0.34245294,0.22104213,0.16483533,-0.03394242,0.61596602,0.59501565,-0.09929252,0.47745138,0.36848271,-0.10440671,-0.09345879,0.58810872,0.41527098,0.26324680,1.44320869,0.34735829,
0.08141195,0.19047646,0.36852384,0.29595125,-0.01548616,0.16637112,-0.00378072,-0.22229934,0.05742800,0.18745120,-0.10018238,-0.12094588,0.11218113,0.19169755,0.06538714,-0.30847794,0.02686187,-0.04364388,0.17985591,0.02420590,-0.11812647,0.70518625,-0.18747601,-0.23496915,0.39563078,-0.53145695,0.10367834,
-0.02857284,0.06860330,-0.07578088,0.06121470,-0.05756669,-0.04937017,-0.16061433,-0.14382312,0.08920553,-0.04847817,0.10758296,-0.09707798,-0.10540529,-0.05234036,-0.12638313,0.16445403,-0.07668729,-0.10006824,-0.10330861,0.11579952,0.07111658,-0.14827445,0.09365198,-0.04425187,0.03170076,0.05438611,-0.06702332,
0.51488006,0.22155344,-0.02796264,0.50671411,-0.53537124,-0.18208897,-0.13754809,-0.23575516,-0.54483324,-0.36100402,-0.49857584,-0.26875407,-0.18899223,-0.19746843,-0.28286222,0.16859977,-0.22259267,0.28082371,0.36786348,-0.52829945,0.12905711,0.64110857,0.26735076,-0.30267805,-1.28448474,-2.12817144,0.96742588,
0.08837821,-0.27583236,0.09063782,-0.04499532,0.44391018,0.08368100,-0.35833874,-0.26136971,0.16331169,-0.26146114,-0.64049542,0.25721598,-0.12172277,-0.04153385,0.09008213,-0.31017920,0.00715092,-0.02123799,0.20590697,-0.04327325,0.01710444,-0.04501107,-0.56945497,-0.18408468,0.19865277,0.76720065,0.71491200,
0.30824924,-0.09839779,0.06538297,0.15546474,-0.16277824,0.25791508,0.08503590,0.09038320,-0.04323246,-0.05745292,-0.13282244,-0.02330640,0.15000212,0.15189065,-0.08867405,-0.23263246,0.42406300,-0.01148005,-0.15634982,0.53691393,-0.12520109,0.20259042,0.24584629,-0.04434996,-0.01035925,0.35204542,1.45733881,
0.19935258,0.03442063,-0.44642460,0.12671331,-0.11013426,0.25097322,0.23053561,0.00269863,-0.27071834,-0.01064529,0.08341643,0.18757074,0.06310622,0.07403841,0.06475875,0.13032638,0.03539134,0.07721295,-0.04720655,-0.73283821,0.11816052,0.78737271,1.78966546,0.40238979,-0.64413500,0.54862148,-1.15933871,
-0.40476486,-0.28478420,0.30988574,0.25103506,-0.23635846,0.27300420,0.26006231,0.18270400,0.22389092,0.26237190,0.58441526,-0.03376633,0.03731021,0.09192284,0.05592027,-0.33323821,0.00734013,-0.21581914,0.01187218,0.29286957,-0.41719753,-1.03599513,0.14222434,-0.76999056,0.84696591,-0.82273579,-1.54870307,
0.18678008,-0.04123136,0.17006752,0.19833212,0.15524206,-0.08530457,0.37292922,-0.01970871,-0.09894877,0.15101941,0.14047004,-0.20735291,0.02111340,-0.03456601,0.10176756,-0.26158056,-0.21997282,-0.20277219,0.20851108,-0.19501081,0.03883402,0.47047994,-0.37950999,-0.39695495,0.55050153,-1.19390643,-1.06781161,
0.20764729,0.09136115,0.18801144,0.38134453,-0.12355859,-0.24710315,-0.04737602,-0.24620570,0.34998256,-0.01816573,-0.32977575,-0.81321049,0.05954352,-0.09410811,-0.11773580,-0.00601074,-0.30237782,0.24004766,0.66683793,-0.34616825,0.27287474,0.38114586,-0.64727277,0.31619349,-1.11766922,0.46708381,0.94393075,
0.13496824,-0.00451365,0.28765848,-0.57755786,-0.25722262,-0.05570002,0.23772448,0.11597557,-0.15579236,-0.17077583,0.03360669,-0.01206101,0.02716147,-0.03306591,-0.11498176,-0.17468518,-0.56653601,0.12294779,-0.22635584,-0.38793850,0.22291829,0.61265206,-0.48351225,0.51210970,-0.55870658,0.66400963,1.43267524,
-0.17981304,0.15891425,-0.08443079,-0.07756769,-0.07833781,0.09740457,-0.08454767,0.01024806,-0.13550490,-0.03664056,-0.15575169,-0.07369654,-0.17151442,-0.21186697,0.14310621,0.13382030,0.10349327,0.11708421,-0.11736262,-0.04992316,0.03998580,-0.10656957,-0.03834711,-0.18894795,-0.01455000,-0.11713068,-0.11833052,
0.40240237,0.12776703,-0.15159091,0.16172352,-0.01705467,0.21279903,-0.06709162,0.33637989,-0.11398496,-0.04096914,-0.52196050,0.23905949,0.03205994,-0.03154307,-0.12027305,-0.06853680,0.41471416,-0.07375207,0.35215947,0.34302488,0.04057677,0.29650018,-0.05375732,-0.58978599,-0.29458609,0.50376987,1.51125014,
0.08897342,-0.11135828,-0.12228673,-0.00740026,0.18328202,0.16795109,-0.36696818,0.07181077,-0.05974800,0.13688010,-0.07011859,0.38688868,-0.01159298,0.16540079,0.01284638,0.04664037,-0.72651511,-0.03013525,0.25395489,-0.88315362,0.10918462,0.48997232,-1.46095359,0.10214837,-0.47443244,0.69960499,2.29640889,
0.00497920,0.02395298,0.27134120,-0.10574172,0.07726544,-0.25440469,-0.03450335,-0.08424617,-0.07441847,-0.07052483,-0.05213799,0.01869094,0.25772214,-0.01412899,0.18129908,0.14715919,0.06292188,-0.18928541,0.21712194,-0.11262731,-0.26847377,-0.58424300,0.14266089,0.19642317,0.94574726,-1.75525188,-3.16459513,
-0.66679442,0.43231159,-0.31739056,-0.13345607,0.27040073,-0.50769192,0.10304232,-0.00451262,0.06961362,-0.42308164,0.15968877,-0.01250682,0.29899144,0.23032066,0.24152137,0.03464013,0.40183574,-0.23834147,0.15165651,-0.14316435,-0.20097984,-0.04891782,-0.92487037,-0.36353716,0.19683570,0.01339888,-1.36531281,
0.08710667,0.32445377,0.28355864,0.25452581,0.36271313,0.00622437,0.41084912,-0.21420915,0.12302041,0.14411049,0.46320203,0.05176222,0.12120316,0.17786494,0.12876913,0.01826483,-0.03335834,-0.33839127,-0.00332011,-0.11112367,-0.21259400,0.54756886,-0.12993835,-0.37901220,0.67862982,-1.49131095,-1.21777761,
-0.44130787,-0.22282529,0.16951546,-0.39008397,0.21532452,-0.35176405,-0.08038168,0.07228713,0.04169951,-0.22170091,-0.13892885,-0.48265064,0.35555854,0.03731262,0.25342634,0.28929493,-0.31506625,-0.41775593,0.00707649,-0.21350580,-0.29193422,-0.84092671,0.41220629,-0.13396241,0.54474330,2.02315974,1.86831057,
0.04965999,0.16020343,0.26039320,-0.24131553,0.09979165,0.01510205,-0.14127100,-0.05180189,0.09915326,-0.11347490,0.09289166,-0.20489496,-0.20333833,0.17197020,-0.17081563,0.41738006,-0.35985172,0.15881675,-0.29124227,-0.40518218,0.11290503,1.03819919,0.39251897,0.07769181,-1.11370242,0.12646900,1.45665359,
-0.17944379,0.04463475,0.12379581,-0.14231744,-0.14034876,-0.05458777,0.01999260,0.07281969,-0.04703134,-0.11077795,0.14697362,0.05210303,-0.10541048,-0.13450155,-0.17704970,-0.05863835,-0.15393761,0.07828891,0.16625035,0.10101030,0.14433096,-0.05051614,-0.07058048,0.07362233,-0.14095496,-0.15581204,-0.18047789,
0.15104020,0.01586986,-0.07056309,0.53688663,0.02182802,-0.16926037,0.12936313,-0.51385140,-0.19775118,-0.42686814,-0.03359476,-0.10273875,-0.15386860,0.15379463,-0.35001600,-0.52121753,-0.42633140,-0.01348320,-0.04534916,-0.35500562,0.04969864,0.81147146,0.36499509,0.48254067,-1.14364564,-0.51939839,1.72161973,
0.03084739,-0.09294108,-0.02713853,0.16038145,0.37393695,-0.12502412,0.34431449,-0.12250458,0.94143403,0.12447764,0.10038853,-0.07501185,0.14184697,0.13041912,0.07757420,-0.55720913,0.01960296,-0.14329019,0.13679998,0.02171915,-0.14682025,0.69118196,-0.80756098,-1.00604236,1.32197237,-0.12933330,-0.72531933,
-0.02767301,0.22092469,0.11266442,-0.04155314,-0.31639388,0.07502625,-0.03932794,0.10249847,-0.22300036,-0.04284265,0.37427664,-0.23851301,0.14397733,0.21629737,0.14302579,0.05500654,0.00446154,0.07186967,0.04207931,-0.09658699,-0.18179077,0.26038560,0.27185363,-0.11343655,0.09365728,0.06028162,0.92941159,
-0.57538414,-0.24483010,-0.15649869,0.17681469,-0.22005256,-0.09153340,0.22086740,0.07267793,0.49668232,-0.26910982,0.47720838,-0.32694089,0.22766924,0.11242117,0.10207935,-0.27491578,-0.01300373,-0.26898971,0.52945799,0.17024173,0.00468129,-1.35041082,-0.77314985,-1.42622781,1.06693029,0.53124261,-0.47242275,
-0.12260415,0.17549795,-0.07625755,0.18162015,0.16730537,0.05220004,-0.23371747,0.13831374,0.16254386,-0.03845846,-0.48634732,-0.06614155,-0.00341714,0.29173106,-0.10278104,-0.05306596,0.27895036,0.11598448,0.40817580,0.35749382,-0.09003327,0.56095719,0.22312248,-0.12879622,-0.12219870,0.66747278,1.56642902,
0.11652708,0.07257410,0.35056633,0.11459951,-0.19350919,0.22599477,-0.03150941,0.10854559,-0.03669040,-0.09946081,0.04178049,-0.33281326,0.02263387,0.34410819,0.11765216,-0.20776723,-0.13375606,0.05434465,-0.20869556,0.01528491,-0.17166030,0.79444122,-0.40768832,-0.02438337,0.01112054,0.08678079,0.89328384,
0.33434004,0.02716149,0.42433211,0.07803382,-0.26083946,-0.01081973,-0.19791836,0.22809929,-0.12221894,0.00633399,-0.23056155,-0.07153024,0.01121167,0.36987400,0.06569675,0.22823617,-0.19327499,-0.13358092,0.18671080,0.08061637,-0.15012339,0.66009510,0.61417526,0.00651606,0.23759887,-0.62950295,0.04284824,
-0.12616989,0.06173894,0.48769510,-0.09207382,-0.33991301,0.10496806,-0.25225067,-0.46032995,-0.11215680,-0.35591564,-0.46391034,-0.47725737,0.20874144,0.09073763,0.20856306,-0.44290930,-0.10951852,-0.26418599,0.29088083,-0.20413367,-0.00922385,0.67076892,-0.44273287,0.06816231,-0.13962086,-0.24482077,-0.91533297,
0.30502224,0.27154830,0.34152010,0.18058947,-0.10239819,-0.08229919,-0.09575476,-0.19949210,-0.15470125,-0.13842468,0.24423511,-0.36045823,0.06694104,-0.00201560,0.07836314,0.36341298,0.19570999,-0.26436290,0.28976563,-0.03656487,-0.28555599,-0.76666242,-0.38374886,0.26340890,0.41558790,-5.68674707,-2.89584589,
-0.11424599,0.18871026,0.36120439,0.24635601,0.09226838,0.07030943,0.17089435,0.16941853,-0.22897106,-0.06842307,0.23016855,0.04357441,-0.09412482,0.09368704,0.46637201,0.28603855,-0.09327861,-0.42134699,-0.06751389,0.01257668,-0.26709750,0.23551451,0.62689644,-0.41403198,1.01084268,-1.60733020,-1.51821649,
0.07469739,0.12247492,-0.03879738,0.01894337,0.11581568,-0.03794064,-0.10268840,-0.05141138,-0.08390920,-0.11178191,0.09482376,-0.18546389,-0.03710891,-0.07304347,-0.15898423,-0.14076257,-0.13650045,0.10417077,0.16929531,-0.16039418,0.07514386,-0.03350669,-0.15050590,0.02822394,-0.03013390,0.17559832,-0.05840180,
0.07168340,-0.04668997,0.33200997,-0.08651358,-0.00270338,0.11423074,-0.08300386,-0.02634989,-0.05921081,-0.04239789,-0.40983161,0.11420703,0.03711736,0.08539470,0.09781907,0.27294862,-0.05547473,0.05596968,0.17295380,-0.03785106,-0.15959102,0.48321611,0.23249663,-0.04673564,0.55339271,-0.05865686,0.62140632,
-1.02391052,-0.23276240,-0.09650264,-0.21385980,0.12298298,0.39887416,-0.13763864,0.11020118,0.22118078,-0.02169611,0.10193102,0.26447156,0.30030671,0.12813364,0.21322303,0.33710882,0.51491940,-0.10651182,-0.19066155,0.45974809,0.09393205,-1.94665504,-0.53201616,-0.87465596,0.74406761,1.16115654,-1.18213177,
-0.05939690,-0.23982887,0.00749922,0.24861729,0.16442585,0.08192831,-0.11481454,0.22228095,0.14361863,0.22490497,0.26011157,0.20469740,-0.02693718,-0.00987816,0.07729410,0.27339467,-0.94541389,-0.04603998,-0.11780195,-0.68898970,0.26103267,1.07116652,-0.16079406,0.38269168,-0.80908334,0.38616925,1.52553272,
0.20830935,-0.07071777,-0.16990213,0.18073490,-0.40112159,-0.16172619,-0.02727334,0.37978646,-0.45097703,-0.10952855,0.25634256,0.08974148,-0.07925482,0.25856316,0.26818374,-0.25730085,-0.04891058,-0.01776329,0.11824518,-0.20719779,-0.10501316,0.52633703,-0.89785862,-0.28759220,0.40958175,-0.59567595,-0.07699903,
0.09270873,-0.06310139,0.30539033,-0.01085618,-0.01003345,0.05657894,-0.07552247,0.00977722,-0.31062120,0.11710136,0.34255120,-0.21155065,0.07638525,0.39845073,0.05956671,0.31095994,-0.05942737,0.06579684,0.48781669,0.31705409,-0.14650075,0.23022695,0.36310315,-0.01281975,0.24231569,0.06786732,1.80035329,
0.38951552,-0.04096071,0.07890469,-0.00034218,-0.26629069,0.20959757,-0.19061591,0.12853165,0.01919360,0.11720412,0.03189216,0.28680295,0.05861544,0.23099089,-0.04854691,0.21161656,0.08479379,0.04931922,0.06337742,-0.00746401,-0.22072482,0.67630309,0.28681481,0.17442288,-0.12569118,0.10948607,0.68406057,
0.00266113,0.33377966,0.12231312,-0.06945423,0.08343059,0.36215344,-0.23726079,0.25741428,0.17885777,0.10250338,0.03543475,0.42294183,-0.25404996,0.28267565,0.29324523,0.02221956,-0.11645409,-0.03401246,0.15606624,-0.39759359,-0.29228020,0.15559188,0.50530511,-0.75850588,1.31913960,-1.32805049,-1.13951421,
-0.11926889,0.24067844,-0.10922329,-0.13507973,0.32736474,0.11775482,-0.25815794,0.46507418,0.39135808,0.18576014,-0.13010715,0.25589883,-0.17676643,0.31810507,0.17664848,0.05748987,0.27185321,0.12491034,0.37444273,0.40490708,0.13135372,0.12888907,0.35094917,0.11741291,-0.37593788,0.24032260,2.32371449,
0.18031245,0.29752418,-0.09819549,0.22538738,0.17929761,0.36080384,0.02968302,-0.00799660,0.02549079,0.14188282,-0.39065003,0.16631666,-0.18567112,0.24793249,-0.12753165,-0.12089614,0.23815954,-0.09102475,-0.03974396,0.30131832,-0.09958518,0.62126195,0.34387174,-0.56407332,0.31163839,-0.45438203,0.90309703,
0.00334776,-0.07914430,-0.14248928,-0.17072545,-0.16975127,-0.07551960,0.05183440,-0.18615673,-0.08059271,0.13418356,0.05406659,-0.19109732,-0.03216739,-0.06464620,-0.12431443,0.10064936,0.11008579,0.12283756,0.02313304,0.04126900,-0.08989773,0.10477544,0.08443657,-0.13897718,-0.05512410,0.07986870,-0.15464713,
0.27320337,
0.18806352,
-0.11952756,
0.04521513,
-0.18066341,
-0.12129894,
0.18994576,
-0.00433862,
-0.14915150,
-0.17315561,
0.31174317,
0.16724680,
-0.03213502,
0.12303081,
-0.01341675,
0.24282806,
0.13668178,
-0.03187090,
0.04076948,
0.25776979,
0.06878555,
0.15306331,
-0.09821230,
0.27088967,
-0.09797295,
-0.00496115,
0.00431128,
-0.12200882,
0.12852301,
0.15863417,
0.37600198,
0.10833653,
-0.08828041,
0.10281023,
0.10265768,
-0.06140207,
-0.05345539,
0.22192726,
0.11802016,
0.15187982,
0.41160917,
-0.24168772,
-0.15854444,
-0.24470724,
0.32709986,
0.14813158,
0.16143292,
0.16989252,
0.17179495,
0.04955328,
0.22672205,
0.14656274,
0.46119627,
-0.17809939,
0.18851598,
0.03778354,
-0.13257538,
0.26850587,
0.16204415,
-0.10141823,
-0.03694569,
-0.11999334,
0.21441115,
-0.10626238,
-0.31318340,0.12306434,0.01249969,-0.27503285,-0.13982488,0.58172590,0.79668957,-0.62676090,-0.00247781,-1.24709284,0.07383616,0.07522103,0.45423031,-0.17153069,0.04215652,0.92527854,0.11711809,-0.01115247,0.00625075,0.12518050,0.97195023,-0.06199745,-0.12464638,-1.05156159,0.07189795,0.03715646,-1.01123285,0.15658753,-0.18234879,0.25451776,0.24026765,0.10552536,-0.65979111,-0.85271490,0.02913475,-0.08839311,0.41502041,0.44321087,0.46356440,0.13618246,0.28632686,-1.19790387,0.06913164,-1.85066450,0.23635796,0.03893209,0.15898067,-0.04015225,0.02983165,-0.18575573,-0.03002727,1.12971807,0.09732158,-0.02534345,0.03297316,0.54484272,-0.13165988,0.08613744,-0.06899779,-0.04979347,0.08125361,0.24839716,0.03647457,0.12406451,
-0.20212315,0.01102799,-0.06616113,-0.56855059,0.09064030,0.77720731,-0.09045310,-1.10444283,-0.01720877,-0.25460103,0.13454540,0.01004371,0.37930083,-0.06227782,-1.80631185,0.05402246,-0.10001367,-0.12695655,0.18673804,0.34789631,-0.24288976,-0.08932615,0.00583000,-2.25690556,0.14053403,0.07888582,-0.57495868,0.21875957,-0.06904227,-0.22894214,-0.20658949,0.53178781,-0.03079222,-0.25653565,-0.07110436,0.32877564,0.71721518,0.42409959,0.53096563,0.37633321,-1.43043864,-0.56223768,0.08176102,-0.50295758,0.67576551,0.21103074,-0.90405196,0.01880326,0.07755561,0.26871121,-0.15898770,1.26528370,0.31491905,-0.09917122,-0.00622251,0.08523468,0.19579819,0.64165550,-0.00126328,0.08160295,0.58832288,-0.35640821,0.76764387,0.11763455,
-0.13124017,-0.00230633,-0.01449725,-0.12298639,-0.10049091,-0.12670678,0.01554780,0.10008133,-0.01293458,0.00021993,-0.10142028,-0.01690482,0.07608217,0.10056759,-0.06586194,-0.09088467,0.00373740,0.00736161,-0.07584407,-0.03725084,0.02428378,-0.02414818,-0.01296212,-0.05043672,0.09519149,0.07275940,0.12010108,-0.02806968,-0.12194492,-0.07624194,-0.01234297,-0.13848773,-0.06323054,-0.08709027,0.01586248,-0.01787584,-0.09740913,0.09795019,-0.05454388,0.04713739,0.00961129,0.10525283,-0.02202830,-0.12066056,-0.01799657,0.04199497,-0.07522963,-0.01705515,-0.12380817,-0.08095825,-0.11428672,-0.03824257,-0.07054836,0.11564086,-0.00745073,-0.09388123,0.02602559,-0.04154571,0.03886851,0.04409317,-0.03400440,0.01019493,-0.08252027,0.08337761,
-0.09244688,0.10436885,-0.00163488,0.09985070,-0.04748991,-0.00276166,0.05599778,0.07658344,0.08378983,0.00444198,0.04625316,0.01912481,-0.01487744,-0.03654204,-0.03154697,-0.07420698,0.01508746,-0.08280770,-0.02576331,-0.02045046,0.12248431,0.11277175,-0.09872104,-0.07641789,-0.01232843,-0.07881784,-0.11578435,0.05306068,-0.11413395,-0.01170424,0.06018220,-0.11055109,-0.05295880,-0.01129000,0.11620297,0.10866164,-0.09239006,-0.13527305,-0.01314832,-0.12587126,-0.04144289,0.05552069,-0.00554571,0.01910212,-0.10956493,-0.08107642,0.07491468,-0.11815271,-0.10429081,-0.01906261,0.04240616,-0.03617536,0.02881475,0.05316842,-0.04031097,0.01682754,-0.08569286,-0.11599950,-0.07644144,0.04606432,-0.05377460,0.10385359,0.03892957,-0.06867942,
-0.15946922,-0.11852124,0.04239728,0.21288800,-0.09170099,0.16089728,-0.13000742,0.49206847,-0.05626568,0.14719447,-0.03983320,-0.03943530,-0.15682794,0.27556035,0.09838945,-0.71140313,-0.08264813,-0.14265813,0.32326844,0.23017332,-0.65478849,-0.00052842,0.00881170,0.60402501,0.13022722,0.04442167,0.17868224,0.25144389,0.32737464,-0.40843287,-0.12847677,0.21534115,-0.02351167,0.10200956,-0.08776642,0.26119950,-0.04116972,-0.02500403,-0.01645244,0.21582463,-0.04469036,0.29385358,-0.01541947,0.44167745,0.17111750,0.23536617,0.08125904,0.37650093,0.11579128,0.30114779,0.05483767,-0.41959441,0.42768928,-0.09252043,0.31386971,-0.43208873,0.04859588,0.30840811,0.27863783,0.11445252,0.25328127,0.41676724,0.14260478,0.02859314,
0.02497530,-0.10715094,0.03253260,-0.13067125,-0.00059511,-0.10508841,0.03127186,-0.04030380,0.00980362,-0.00230056,-0.05604474,0.06151420,0.01086824,-0.13900274,0.00792614,0.02645960,-0.04566574,-0.01997817,0.05528924,0.01135738,-0.00856318,-0.04832532,0.12325951,-0.08081614,0.01898883,-0.07844436,-0.02249220,-0.00398655,-0.04883282,0.02477899,-0.12075182,0.07048230,-0.04094881,0.08478663,0.12143220,-0.06735241,-0.01386319,-0.01832499,-0.12469968,0.04980462,0.09598093,-0.08411008,-0.04748560,0.06819472,-0.11612227,-0.05756623,0.06407407,-0.14064850,-0.02953302,0.01460180,0.04496513,-0.05869585,0.01876500,0.11684662,-0.06308445,-0.05073615,0.01297121,0.04424408,-0.09203829,-0.01606008,-0.08234483,-0.12527797,0.02301174,-0.02214594,
0.90667677,-0.05751622,0.06451235,0.29628271,-0.00096829,-0.11671220,-0.96929926,0.89836133,-0.02998284,0.40646529,0.19306067,0.08961673,0.01464306,-0.04705049,0.63986552,-0.61821818,-0.11333930,0.07300632,0.15062973,0.19465372,-0.50781745,0.09408103,-0.06791427,0.93970639,0.06345633,0.12025221,0.26796925,0.03842071,0.08920014,-0.19749962,0.21095717,-0.01347734,-0.02230819,-0.13522130,-0.06542843,0.08104550,0.36972982,0.03647405,0.14208849,0.19670850,0.50357807,0.25126833,-0.11806406,0.41627109,0.18148400,0.21723810,0.48090070,0.29276729,0.10390480,0.03229617,0.03117101,-0.68234533,0.11591666,-0.07893172,0.26264182,-0.16377631,0.58530748,0.09402222,0.37777925,0.18747987,0.05760281,0.48640263,0.10987516,0.04735783,
0.85111141,-0.03270964,-0.05842488,0.44895577,0.04233028,0.06341306,-1.21096146,1.07529521,0.01338929,0.50836426,0.00280379,0.04750006,-0.05509202,-0.00197982,0.93796057,-0.53616422,0.07073216,-0.02219780,-0.00012438,0.10626043,-0.40016422,0.03478344,-0.10384378,0.96336955,0.16920707,-0.11592163,0.16334173,0.04332329,0.39837500,-0.12029877,0.05668925,-0.04423993,0.09531055,0.17519651,0.11549599,0.30068353,0.35550317,-0.11906280,-0.21118230,0.03001284,0.71899825,0.42875451,-0.08363706,0.68849140,0.23796397,0.23340860,0.35967401,0.33372989,0.20299728,0.02702972,-0.00525258,-0.86144215,0.00865876,-0.09018850,0.14822789,-0.30543405,0.44767427,0.11650890,0.40714628,0.22149204,0.04759026,0.73083383,0.14708838,0.00749248,
0.59618044,-0.04227570,-0.00674635,-0.44511747,-0.02147232,0.20275989,0.65611362,-0.35419184,0.04132588,-0.18536274,1.10408437,-0.11556929,0.62090266,0.06594376,0.07214239,1.52450848,0.01324396,0.45697162,-0.07181044,-0.12874925,0.82850665,0.11627837,-0.11718943,-1.08294737,-0.05103171,-0.05617091,-1.58785808,0.31765360,-0.15434954,-0.05422954,-0.13742243,0.15938284,0.36118624,-0.19852334,0.03821891,0.13560216,0.20642045,0.56799412,0.85458493,-0.05565985,0.24211106,-0.95459294,0.00845714,-0.92256564,0.17931043,0.00065572,0.59771597,0.15295778,-0.12781119,-0.10204224,0.15578033,0.94486773,-0.04301861,-0.04524544,0.02183233,0.82048351,-0.57012087,0.05331816,0.01323691,-0.00892962,-0.03325474,0.04192131,-0.33617592,-0.06231114,
-0.36899066,0.02229618,0.06652054,0.56072313,-0.00446481,0.35050479,-0.07621077,0.47422877,0.08514915,0.37622097,-0.65359974,-0.11008643,0.10751080,0.00965612,0.05916250,-0.85987341,0.12405604,-0.06426036,0.18966569,0.36915720,-0.66430855,-0.11982541,-0.00650414,0.44520211,0.21531315,-0.02840801,0.83225983,0.14411145,0.19501711,-0.69532174,-0.54731792,0.06936475,0.17114137,0.37384948,-0.07776123,0.27110863,0.28246588,-0.32470298,-0.33210397,0.22088109,-0.07894976,0.56506312,0.01575477,0.65349203,0.35956934,0.14190692,-0.51814383,0.34260577,0.22777553,0.36693648,-0.03112417,-0.36177024,0.16969737,-0.09958282,0.26818982,-1.19300139,0.51232833,0.17375116,0.37297496,0.33599222,0.27556565,0.32542682,0.56355989,-0.12116472,
0.21101151,-0.07593296,0.08406007,0.54944623,-0.08982865,-0.01760777,-1.15864742,0.73816162,0.09603870,0.42110118,-0.70675790,0.06293893,0.10926795,-0.26827100,0.22810154,-1.49768496,0.00060500,-0.16516961,0.12545121,0.02032984,-0.89781213,0.03589638,0.12348996,0.73760712,0.09017587,0.06731561,0.08551264,0.00677443,0.20873526,-0.94593936,-0.18896651,0.03329584,0.22207908,0.64368349,-0.11590355,0.10642994,0.37999597,-0.60267234,-0.31963477,-0.07190568,0.15163465,0.52833432,0.00627440,0.56790978,0.05021135,0.20417792,-0.24372165,0.08227593,0.20251554,0.22171007,0.10369058,-0.76431799,0.02944742,0.06563343,0.12038518,-1.09511971,0.52575141,0.08079699,0.27642319,0.03283710,-0.14562111,0.40219116,-0.01363235,0.06185168,
-0.10582104,-0.08437249,-0.02251245,-0.02201062,0.01531529,-0.05131437,0.07290697,-0.07038246,0.12485869,0.07074571,-0.02027618,-0.06318034,-0.11830617,-0.11510460,-0.02445578,0.04194589,-0.00796013,0.08078210,0.08751877,0.05495800,-0.12282974,-0.04163651,0.04503730,0.05093378,-0.03604614,-0.12400249,0.10322399,0.01116751,-0.03815448,-0.03264261,-0.03733399,0.04763233,-0.12004122,0.10938996,-0.09971185,-0.10873673,0.01747607,0.02053818,-0.02466241,0.04708800,-0.12204974,-0.04093181,0.07931522,0.00511315,0.06613585,-0.09030689,-0.09895420,-0.03754329,-0.09755004,-0.11710076,-0.06347952,0.07379034,-0.00512389,0.00654863,-0.09201691,-0.10152161,-0.03254759,-0.04311220,0.08689103,-0.09051963,0.00521230,-0.10763259,0.01820364,0.01202877,
-0.82336318,0.03127295,-0.11860801,-0.50340521,0.03435788,0.12091656,1.46982753,-1.67944717,-0.06926034,-0.42654172,0.17831169,0.01036201,0.21496589,0.30049399,-1.13082969,0.75784785,0.07602984,0.04914330,0.32249033,0.06764998,-0.09081808,0.08597431,0.04036377,-1.71913064,0.02506642,-0.11625254,-0.15326110,-0.05043432,-0.18586302,0.27184674,0.23350559,0.22505137,0.24865302,0.03607703,-0.10871546,-0.21140666,-0.47780541,0.51416939,0.11675187,0.21844113,-0.51834965,0.27001780,0.00946344,-0.94360662,0.04007515,0.23619829,-0.05587533,-0.28575736,-0.04064791,0.21507688,0.22062346,1.21660209,0.40436268,0.11944894,0.15848850,-0.02206637,-0.33820516,0.30049738,0.12290369,0.26873761,0.39269212,-0.85478121,-0.03604437,0.10812539,
-0.89394909,-0.07107544,0.02242514,-0.16956805,0.14791229,-0.35803318,1.13240194,-0.16375509,-0.01205689,-0.64590651,-0.07338857,0.10116100,-0.21785393,0.28092629,0.04482944,-0.11749168,0.01310737,0.01482216,0.19658466,-0.08835053,0.31563652,0.11725551,0.08811889,-0.37521794,-0.00770811,-0.10526744,-0.06864110,0.19181506,0.10012256,-2.30634713,-0.00711985,0.17091243,0.30560699,0.41886950,-0.05687568,-0.26715508,-0.41953281,0.42208552,-0.13160497,0.12954983,0.78277856,0.11749868,-0.09889393,0.13478899,0.20145181,-0.02490558,-0.59745371,-0.00749159,0.03594860,0.17612569,0.13845831,0.22430851,0.08594736,0.09040816,0.20080084,-0.15478109,-0.18233950,-0.09042519,0.07579458,-0.10527342,0.00745108,0.08887222,-0.20728062,-0.07969926,
-0.59198266,0.00810264,-0.14252788,-0.61665380,-0.07708720,0.02590778,1.19795573,-0.99750584,-0.08369797,-1.29619539,0.59934276,-0.05206263,0.42968702,0.33834511,-0.72222918,1.39659595,-0.06590559,0.16424561,0.29025009,0.09871365,0.99882799,-0.00770819,-0.08826240,-1.09655344,0.23597695,0.10105303,-1.83962405,0.15022843,0.07114135,0.41574162,0.35865244,0.16156669,-0.27007559,-1.08566928,0.11430521,-0.30225384,-0.16824959,0.34862489,0.44200265,0.32763115,-0.17052148,-0.72665256,-0.08630313,-0.79627949,0.17615342,0.08393044,0.34161901,-0.03764847,0.22977129,-0.00939582,0.37767267,1.08274364,0.28971142,0.03077717,0.12070081,0.91797537,-0.39561567,0.20633313,0.05341018,-0.13158505,0.18065982,-0.16939242,0.11066646,0.11984900,
0.75612009,-0.11111364,-0.02842133,0.31484428,-0.02972813,0.09019303,-0.96121502,0.73522329,-0.04301223,0.00962245,-0.00639254,-0.08218642,-0.18708026,-0.19951956,0.81056106,-0.33950770,-0.05109602,-0.24437675,0.10924754,0.13938248,-0.42570621,0.08432246,-0.04822815,0.33403602,0.16576809,-0.11661963,-0.18040796,-0.05753943,0.12708601,0.29268545,0.42103490,-0.01087071,-0.19128281,-0.47527882,0.06221741,0.05993089,0.36822084,-0.10262799,-0.44074026,0.01307086,0.58899492,0.41935155,-0.06738934,0.15115656,0.02086435,0.13039416,0.37409139,0.12119215,0.05219981,0.19132408,-0.16443515,-0.42227623,0.16069874,-0.06502311,0.18430342,-0.58109981,0.45068336,0.08341399,0.30948859,0.07581753,-0.02293877,0.54938459,-0.09215248,-0.10739376,
0.31262887,0.09079209,-0.08346345,-1.14989901,0.08829482,-0.06592725,-0.12976502,0.11297531,-0.04082957,-1.10462916,-0.00493069,0.10368226,-0.06143804,-0.32729596,-0.00994853,0.52695328,0.02594659,-0.41826212,-0.00070081,0.14151922,-0.20372967,-0.07663988,-0.10533512,-0.19515550,-0.11610840,0.03087017,-0.02411700,-0.56453186,-0.10757457,0.55903137,0.85366678,-0.00677312,-1.34487534,-0.88033116,0.04422012,-0.68104362,-0.07212766,-0.02416443,0.56819278,0.24334882,0.16135940,-1.13410020,0.06216536,-0.43748522,0.22994077,0.12494544,0.69386673,-0.15242732,-0.18638177,0.00198560,-0.35996103,0.74675119,0.31794474,-0.06053552,-0.04686976,-0.10661794,-0.53120971,0.22561684,0.17363597,-0.22331172,0.24304128,0.16020545,-0.15108094,-0.07247621,
0.07272383,0.10845436,-0.00593390,-0.12853366,0.02980097,0.03299825,0.07050781,-0.13080075,-0.07944195,0.01824230,-0.01379446,-0.08450955,0.07609447,-0.04358746,-0.13855360,0.06428081,0.10236318,-0.13083947,0.00279317,-0.08998660,-0.12933096,-0.11962533,-0.05430952,0.05112775,-0.09114495,-0.11503372,0.02136091,0.05037622,-0.15760502,0.06763464,0.05007161,-0.01017252,0.03037770,-0.04862291,-0.02102681,-0.13816348,0.01449140,0.00745613,0.06600752,0.03174588,-0.00464972,0.09134129,-0.06691146,0.03593047,0.00554745,0.07242467,-0.11404748,-0.02567677,0.06271303,-0.03774793,0.09419614,0.00853954,0.01427263,0.12367329,0.03996293,-0.04301130,0.01859342,-0.01906763,-0.05808948,-0.09121078,-0.14351846,0.06888809,-0.17220226,-0.11573388,
-0.70180231,-0.05347861,0.11665647,-0.57898110,-0.01848814,-0.28269958,0.50312066,0.39567652,0.07421432,-1.34677148,0.11881308,0.11973274,-1.25861657,-0.00337644,0.27506506,0.54431409,-0.04292311,-1.11271417,0.43916321,0.16011517,-0.30275819,-0.11729556,0.08076808,0.43531474,-0.08855247,-0.12467664,-0.76454300,-0.17820622,-0.06447215,-0.19195788,1.01094866,-0.24741778,-0.76138622,-0.39743543,0.12088666,-0.45689887,-1.00910830,0.31732255,-0.19320405,-0.13016757,0.72175336,-0.39125994,0.05961379,-0.40484095,-0.63451630,0.17190570,0.71248484,0.18126678,-0.09713830,0.05802917,0.08381460,0.17260210,0.15753135,-0.05232275,0.00456469,0.69164574,-0.66085845,-0.54083622,0.31244135,-0.10279220,0.24803682,0.26778179,0.03010842,0.05700102,
0.04534089,-0.05347016,0.03373431,-0.06817212,0.08480260,-0.09013645,-0.07756630,-0.11000416,0.08765435,-0.07879353,0.07252859,-0.09737504,-0.12882268,-0.06127528,-0.06311154,-0.04921844,-0.10821208,0.04221982,0.02153752,-0.08517405,-0.07426743,0.01258925,0.07702073,0.01870175,0.00086558,0.00730288,0.05260946,-0.05745176,-0.05318264,-0.10567909,0.02876375,0.03000627,-0.08432560,-0.03812041,-0.12172686,-0.11925870,0.08599888,-0.08071893,-0.10257967,-0.01090477,0.09286391,0.03191416,-0.01486552,-0.01564802,-0.13131177,-0.14854524,-0.09503423,0.06808574,-0.13991611,0.02536786,-0.06414219,-0.04153689,-0.04688552,0.04891703,0.07580247,-0.08450045,-0.04095487,0.06267007,0.09038588,-0.05353959,-0.09773673,0.04542470,0.07122134,-0.07593501,
-0.08840805,-0.09016444,0.02549811,-0.01765847,0.02888535,-0.08387991,-0.08336392,-0.12573516,0.03804037,0.09352552,-0.12171210,-0.10914484,-0.01318259,-0.03132946,-0.03631675,-0.10268448,-0.04101326,-0.13138136,0.04078743,-0.02734249,-0.10117836,-0.04404560,0.10742499,-0.07978991,-0.05932046,-0.08021364,-0.01188095,-0.02849130,-0.03633354,-0.12112787,0.00523155,0.06753785,-0.03717163,0.04405892,-0.03889602,-0.12564220,-0.08877274,-0.02457354,-0.13106404,0.09559138,-0.06667283,0.00647711,0.01377232,0.01131417,-0.10588653,-0.07148910,0.03248426,0.04790439,0.06279852,-0.09473529,0.07452574,-0.02511201,-0.09300800,-0.09488223,0.09645618,-0.08620217,0.04250383,-0.05901467,-0.09896274,-0.12407997,0.06354151,-0.00068852,0.10188893,-0.07034874,
-0.25218660,-0.00467235,-0.05940059,0.11480676,-0.00557258,0.10351689,-0.33184731,0.02083861,0.09254892,-0.33606893,-0.12394073,-0.04997572,0.86231035,-0.13052467,-0.18384913,0.07527531,0.05004801,0.24290368,0.15483978,-0.01316511,0.16916864,-0.10386606,-0.06843022,-0.19835302,0.22344820,0.09288858,-0.86145216,-0.01688750,-0.10969238,1.29348004,0.26389751,0.11032299,0.18378897,-0.47396964,-0.00606438,-0.53266245,0.47387487,0.48465338,0.25470042,0.27090675,0.01471596,-0.39000461,-0.06268877,0.02978756,-0.33582979,0.07098588,0.22810063,-0.22407287,0.27538690,0.18700345,0.35143918,0.67953992,0.17698675,0.08182706,-0.04728239,-0.08137340,0.37811366,0.08480183,0.07133042,0.05201511,-0.12605093,-0.41797283,-0.37108913,-0.00131290,
-0.37749079,0.05772349,-0.00736892,0.26748282,0.13662629,0.10562290,0.22606632,0.05199326,-0.10876369,0.25162935,-0.30634812,-0.01924074,-0.13438736,0.41354609,0.00829521,-0.47595507,0.11910549,0.02856660,0.18121602,0.17796533,-0.25719604,0.02059667,0.14344892,0.27837223,0.22579761,-0.11987828,0.23726465,0.23791151,0.19424500,-0.57287574,-0.18572941,0.25685599,0.27402148,0.28308100,0.04099994,0.26782915,-0.05686060,0.16263682,0.03689367,0.27339914,-0.08794483,0.41675773,0.10899755,0.37828618,0.45457476,0.25009537,-0.23238876,0.10905508,0.26546431,0.34979063,0.16206172,-0.37713650,0.24471819,-0.09922385,0.06785911,-0.03846239,0.10860864,0.25903091,0.35217643,0.14498885,0.10351134,0.00411348,0.18699114,0.10323574,
0.19138183,-0.04981828,0.01170567,0.27860078,0.13756046,0.40864328,1.13556206,0.28124976,0.00238188,0.18001842,-0.51571631,-0.07787134,0.01872646,-0.22484328,0.03917541,0.12539305,0.00765650,-0.14458144,-0.16734657,0.17064013,-0.26148739,-0.09513780,0.04283677,-0.11493231,-0.11490715,0.01616633,-0.17246132,-0.11946947,0.06746359,-1.22821391,-0.51517355,-0.10681536,0.61134118,0.42272669,-0.09568824,0.25746474,0.12070615,-0.83661169,-0.24743453,0.07108697,0.16445109,0.44344831,-0.05523521,0.33297437,-0.34692490,0.16822717,-0.74601668,0.04387774,-0.00372146,-0.01508828,-0.20857805,0.53492254,0.15216862,0.06777449,-0.11801154,-0.78655881,-0.21248877,0.12075050,0.31573275,-0.14217179,-0.04641592,0.73102951,0.20314039,-0.04567733,
-0.31419748,-0.06461017,-0.08607385,-0.00048320,0.03166036,-0.19629568,0.72980183,0.03095363,0.08734059,-0.05064002,0.01694397,-0.07059775,-0.22048026,0.46414644,0.03373315,0.02005270,0.02616692,-0.00341807,0.36313897,0.21967873,-0.62880766,0.09503532,0.10068393,0.68629587,0.03525544,0.00171955,0.23172984,0.04393468,-0.12652920,-1.31406212,-0.66373384,0.00484347,0.14592531,-0.20213450,0.00889197,-0.33418626,-0.49295518,0.39631981,0.30929998,0.11727957,0.49976453,0.37691483,0.06674874,-0.16789448,-0.10669903,0.25705311,-0.33855894,0.19382936,-0.01643289,0.09819661,0.34993577,-0.21202919,0.17768183,0.00792103,0.28604597,-0.14804994,-0.61818075,-0.16104518,0.28545958,-0.02935517,0.39272279,0.14000908,0.12880424,0.08847013,
-0.86468744,-0.06644565,-0.12019537,-0.60542983,0.06587885,0.37590137,1.17722046,-0.89818090,0.03555036,-1.24782407,-0.06962073,-0.03381288,0.46019420,0.18965194,-0.35219693,0.43064713,-0.07120082,0.26956466,0.08953184,0.01750687,0.67681575,-0.08680346,0.06268777,-0.79652721,0.22301121,0.05894093,-1.32236528,0.23650375,-0.12695706,0.51800305,0.50103313,0.28668043,-0.17700848,0.91209930,-0.11259335,-0.33654130,0.20724046,0.42693111,0.22495684,0.33008179,-0.11809842,-0.69520742,0.10677232,-1.28036022,0.22438845,0.11050377,0.12328734,-0.17629571,0.24993320,0.20211346,0.35775873,0.88685274,0.23513556,0.06330693,0.28382722,0.35899267,-0.08504368,0.30982894,0.13581032,0.17259645,0.22230114,-0.66656184,-0.29806167,0.00799082,
0.07980633,0.04865406,-0.10377375,-0.50400662,0.00155025,-0.02280308,1.42596698,-0.50449717,-0.05761553,-0.71300912,0.49288461,0.09876388,0.23568463,0.04855337,-0.05924092,0.71479100,0.08876134,0.21709199,-0.08243508,0.06472389,0.49301761,-0.03748911,0.06665356,-0.55344826,-0.00967889,0.09133670,-0.78701872,0.00676595,-0.37954172,0.37444925,-0.06645858,0.05482699,0.28365335,-0.95022959,-0.05649412,-0.46873829,0.07273237,0.50305092,0.20316236,0.19346960,0.29968616,-0.62220615,-0.01561862,-1.39016581,-0.22772026,0.13783860,0.32674831,-0.05403158,0.02702553,0.07712772,0.15617500,1.12760484,0.09620161,0.10148318,0.11430299,0.53494942,-0.25657389,-0.26706731,-0.11915525,-0.04107640,0.17780444,-0.39610752,-0.43210638,0.05199018,
-1.05507123,0.01300173,0.01221196,0.09046102,-0.08474390,0.05954267,0.13313271,-0.15411544,-0.07528135,0.02246073,-0.20098111,-0.02988401,0.44466940,0.26907343,-0.31791261,-0.28808680,-0.11662683,0.12608676,0.35984167,0.04386263,-0.71679151,0.00922212,-0.08073923,0.33982059,0.26827243,-0.04709505,0.34343395,0.14698374,-0.13996850,-1.43988657,-0.52075493,0.14288267,0.31880403,0.58000076,-0.09954143,-0.25206959,-0.28335926,0.27122837,0.39398992,0.29079324,-0.00894352,0.27838999,-0.05017880,0.19291134,0.12859729,0.14791235,-0.43624887,0.14213428,0.25904945,0.09862786,0.49388406,-0.25892052,0.31215233,0.08951108,0.27973580,0.07346095,0.16610110,0.07680026,0.14204888,0.08766329,0.26272142,0.05071997,-0.13343419,0.00008531,
-0.07574122,-0.03550905,-0.10714497,-0.11937263,-0.11829360,-0.00895970,0.03207660,-0.06987034,-0.01507413,0.06297281,-0.06328931,-0.00397284,-0.07711387,0.02545761,-0.07891450,-0.01578398,0.10629003,0.00390623,-0.06168159,-0.05830721,-0.09326932,-0.00376061,-0.12401620,0.03913962,0.09009006,-0.11361445,-0.06924894,-0.06099092,-0.13814674,0.02569855,0.11589020,0.07652389,0.09012844,-0.08286921,-0.06897500,0.02773991,0.07443109,0.00405505,-0.08009620,-0.03502025,-0.08797060,0.03677295,0.05082951,-0.08292861,-0.12958691,-0.10779794,-0.07903865,-0.08994979,0.08811563,-0.14062135,0.00510543,0.04132503,0.00158776,-0.05292685,-0.00106041,-0.10794221,0.04766564,-0.00977582,-0.07816970,0.03874934,-0.12772897,0.10928086,0.09571938,0.07706451,
-0.29980186,0.03252199,-0.08531331,0.27852520,0.07505552,-0.04061325,-0.39186299,0.26976585,0.00925218,0.32916728,0.12703918,-0.10658455,-0.06684358,0.41897491,0.39910933,-0.21980862,0.06618449,-0.16211358,0.25863639,0.03840263,-0.49842319,0.10961010,0.09832475,0.99765104,0.12372204,0.08515601,0.53678972,0.12188359,0.05946891,-1.18643296,-0.46560836,0.00050761,0.09745029,0.55199367,-0.09320951,0.04969298,-0.14844468,0.21751648,0.07254934,0.02175949,0.48406368,0.45491078,0.02695358,0.28452113,0.20162411,0.01944902,0.06370609,0.21657728,0.20110397,0.28322336,0.07635196,-0.86445856,0.19671588,-0.02257389,0.23186709,-0.26595753,0.07801589,-0.02512761,0.23380639,0.06397267,0.05910524,0.29167083,0.06495630,0.05079862,
-0.10763411,0.06016222,0.01799905,-0.02711668,-0.03052428,0.03561682,0.09536327,-0.04100117,-0.06930047,0.09746800,-0.04856930,-0.08163792,0.04243077,-0.00877273,-0.01983871,0.08056471,-0.06575687,0.05852251,-0.10855645,-0.09618928,0.01644588,-0.03994587,0.00993462,0.04098954,-0.12663020,-0.11258543,0.01878167,0.02067501,0.07451627,-0.13726589,0.04608257,-0.07930952,-0.07196943,-0.12950934,-0.02839111,0.03297996,-0.08200338,-0.12256500,0.06180418,0.08315779,-0.11660880,0.01792686,-0.01702189,-0.13077463,0.02376697,-0.02745997,0.03450281,-0.06549223,-0.01870860,-0.03016157,-0.06661237,0.00861166,-0.08013766,-0.04882032,0.03830907,-0.00372575,0.05186567,-0.02873294,0.07735454,-0.07930434,-0.04265998,0.08541293,0.08578122,-0.01693808,
-0.52899021,0.08895141,0.04460098,0.34447014,0.10790568,0.13740486,-1.56814885,-0.04646218,-0.04029492,0.35858452,-1.60235238,-0.07736665,0.25647411,0.06500480,-0.31605703,-1.36186373,-0.01971297,0.10682634,0.07941881,-0.00325117,-0.57402658,0.10232905,0.00173388,0.00007078,0.13739531,0.00820619,0.41295511,0.18292890,0.09253592,-1.56512749,0.64627147,0.20863126,0.00490741,0.54833454,0.10096867,-0.01208264,0.34113985,0.03126023,-0.65575391,0.27903315,-0.69765270,0.35754365,0.09147032,0.55450588,0.18397449,-0.01796665,-1.01011479,0.08888701,0.25247467,0.05334617,0.14507554,-0.11158633,0.11468627,-0.08831564,0.28819895,-2.17430568,0.62411267,0.07993557,0.20093045,0.21744512,0.09886499,0.29528680,0.12055708,0.09479927,
-0.03024155,-0.09018974,-0.06599453,0.01928465,0.02298701,0.00208375,0.05267817,0.07906149,0.00202538,0.07617797,0.09684689,-0.08340104,-0.00168975,-0.02615338,-0.09787494,-0.00242485,0.04744665,-0.12754920,0.01006692,-0.02736140,0.08555210,-0.11525895,-0.00248076,-0.10843466,-0.05678181,0.07786834,-0.01403812,-0.12782919,0.04153187,0.00919954,0.05369877,-0.13858441,-0.04822417,-0.03296910,0.08418031,0.00766458,-0.03443639,0.04599984,-0.00427525,-0.07592740,-0.06643931,0.02314831,-0.07553026,-0.03781909,-0.10276690,0.02539956,0.00198584,-0.06419433,-0.10258351,-0.00749141,0.09951454,-0.01043598,0.03726056,-0.10146174,-0.01811311,0.08937377,-0.05258799,-0.10194147,-0.12997054,-0.03604581,-0.13665995,-0.07474968,-0.11649209,0.05485310,
-0.74800491,0.04565637,0.06608096,0.19715708,0.08612785,0.30324411,0.28305128,0.03738128,-0.08649248,0.01950972,-0.24651662,0.04556340,0.16607106,0.19796114,0.19306238,-0.80144149,0.12435408,0.12534834,0.24970505,0.27735019,-0.53681570,-0.08189826,0.09352303,0.34614113,0.26483598,-0.09119445,0.48039952,0.12532571,0.33917716,-0.50239605,0.03302616,0.20779158,0.30800694,0.40846050,-0.02270497,0.08518751,0.34200373,-0.03046067,0.04632402,0.25667936,-0.04425537,0.28709105,-0.08543843,0.16734895,0.30720636,0.25609031,0.00750006,0.09437934,0.37936780,0.23778911,0.07685867,0.04132905,0.28838438,-0.01024045,0.19901206,-0.16746919,0.34651792,0.32229602,0.34365091,0.28659025,0.18989377,-0.08959375,-0.10879498,-0.00317073,
-0.13309999,0.06365205,-0.10070486,-0.33058125,0.09712016,0.14328325,0.76487547,-0.39832783,-0.00461715,0.30244121,0.63140792,-0.11704394,-0.27973393,0.21184994,0.22813721,1.04925585,-0.02099988,-0.29284957,0.20331748,0.11159355,0.52942520,-0.06297380,-0.13356544,-0.59273589,-0.16826813,-0.07559693,-1.08966279,0.24609756,0.01053038,0.78720045,0.45594659,-0.04226651,-0.43642086,-0.06350195,0.03275642,-0.01882344,-0.17138474,0.61998332,0.19652300,-0.08616791,0.61903930,-0.43141383,0.08566986,-0.93756467,-0.22206469,-0.14382747,0.12371674,-0.26484025,-0.23595433,-0.02377587,-0.08879714,0.69048774,0.26174796,-0.03724694,0.10690472,0.46836674,-0.56307906,0.17240421,0.00114704,-0.01584594,0.38813433,0.05399939,-0.15458533,-0.00798644,
0.17603876,-0.00481692,-0.03858032,-1.28220248,-0.10393216,0.03089452,0.63115138,-0.34144124,0.02623010,-2.23126149,0.37108016,-0.10436907,0.28260681,0.11123989,0.07701987,0.72136998,-0.02608834,0.31936431,-0.00049561,-0.11660883,1.13374150,0.09092568,0.04555989,-0.78151858,0.10499807,0.11716658,-1.68038929,0.00382456,0.14401136,0.04805660,0.09580991,0.23502766,-0.73534775,-0.03812023,-0.03401944,0.17910102,0.41184998,0.26897761,0.52859682,-0.00979859,0.54749364,-2.59527302,-0.10214205,-1.57558084,0.09563301,0.01346228,0.24523321,0.13374567,0.19927539,-0.14712951,-0.04463543,0.15980273,0.18164627,0.02829424,-0.09731240,0.69161153,-0.30878887,0.26353732,-0.06684769,-0.21084450,0.12694967,-0.12789665,0.02088865,-0.09655479,
0.01804318,0.01467808,-0.06882037,0.06613984,-0.02198812,0.02095079,0.03789303,-0.06138860,-0.04343446,-0.00004968,0.01938651,0.04052334,0.04124147,0.10433918,-0.07075954,-0.06316131,0.10154234,-0.11477099,-0.10159355,-0.01061195,-0.04716096,0.10424444,-0.03628469,-0.01228093,-0.12780480,0.11869702,0.02763611,0.05254684,0.04985325,-0.01060691,0.08130278,-0.03669690,-0.06836589,0.09122770,0.06762438,-0.04699859,-0.06077211,0.02073647,0.05291539,0.03586159,-0.12339002,0.00637974,-0.10179600,0.08720320,-0.00714738,0.00120725,0.01403901,-0.04084004,-0.04847975,-0.07173613,0.08089051,0.07309264,0.04676124,-0.07656649,-0.01312229,-0.01497011,0.09531137,-0.05575666,0.06132799,-0.08683176,-0.00905869,-0.06979980,-0.02702828,-0.03054322,
-0.11155213,0.11969204,0.00256132,0.06953076,0.07131244,-0.06237305,-0.02228590,0.08203717,-0.03038892,-0.03270005,-0.11178412,0.11934374,0.09874751,-0.07340496,-0.00238407,0.02522394,0.03689662,0.01372124,0.01433627,-0.00946857,-0.14317878,-0.08354141,0.08795826,0.04649769,-0.09440868,0.09183577,-0.09650210,-0.05089089,-0.00174210,0.07960652,-0.01232384,0.06125835,-0.13245246,0.06030497,-0.06862919,0.00434563,-0.00985711,-0.15287429,0.04305900,-0.06531896,-0.06814603,-0.06650118,-0.07999334,-0.08717851,-0.09745368,0.10232158,0.08492348,0.02037315,-0.00263687,-0.08370943,-0.08547340,-0.10209823,0.00891758,0.05099247,0.02430809,-0.01472484,0.03995203,0.02638608,0.00632816,-0.08372697,-0.10114284,0.03203013,-0.06952584,-0.07075390,
-0.07511199,-0.12190604,-0.06672199,0.10475530,0.01539835,-0.05426763,0.07899864,-0.02452865,0.04547516,0.02344379,0.01385768,-0.11538865,-0.06423131,0.01610697,0.00919644,0.10407756,0.00401261,-0.03644664,-0.11742645,0.01040984,-0.07314429,0.08105513,0.12037782,0.10284711,0.02062310,0.02900390,0.06716998,-0.03780873,-0.11791623,0.01332257,0.03889954,0.09050228,-0.07708756,0.04094608,0.06840764,0.07518746,0.07701151,-0.10645564,-0.03359110,0.05598566,-0.13506632,0.02792028,-0.03341180,-0.04750033,-0.07658539,-0.10639139,-0.09467027,-0.10383430,0.10318757,-0.00969073,-0.10676724,0.11063997,-0.13232388,-0.10133120,-0.07736334,0.07816455,-0.12253454,-0.06252889,-0.07391006,0.08955134,0.09548277,0.09950015,0.08253218,0.10116622,
0.82231903,-0.03202720,0.04734527,-1.61667240,0.12650707,0.10357794,0.43252265,0.07727212,0.08463939,-2.60735035,-0.01686786,0.09345081,-0.20659198,0.23260494,-0.13714334,0.42194772,-0.04806525,-0.32056555,0.11024223,0.16184258,0.45728067,-0.11753050,0.09792199,-0.89070916,0.11117575,0.01831420,-1.98730266,0.00210665,0.11071163,0.40739119,-0.00326097,-0.05867166,-0.90291506,-0.96347469,-0.03429931,0.09678023,0.04301497,0.32630548,1.04136038,0.29631603,0.18908744,-2.08856678,0.09493999,-0.61264306,0.14004514,0.00725504,0.23104061,0.19647661,-0.08993641,-0.26689881,-0.13724890,0.29813182,0.25147954,-0.04120712,-0.13098916,0.75118059,-0.18803117,0.08633142,-0.15759189,-0.31519589,0.18760155,-0.08055855,0.21552317,-0.00686821,
0.03431422,-0.04306965,0.11316274,-0.06908917,-0.06543924,-0.03024569,-0.06971939,0.01295197,-0.04429202,-0.00482067,-0.07451344,-0.06008060,-0.07894127,-0.01962138,0.02019447,-0.10230390,0.01643406,-0.07714013,0.08268127,-0.01195286,-0.02694382,0.11679709,-0.09119257,0.00728895,-0.04007184,0.07726046,0.10833138,-0.09354807,0.06236755,-0.11249464,0.08956889,-0.02608756,-0.07341669,0.02114216,0.11091076,-0.08926616,-0.06975612,-0.08045710,-0.12073590,0.00899625,-0.02627247,-0.08689722,-0.04660662,-0.08254027,-0.03851943,-0.14700274,-0.06249679,-0.03851345,0.03914914,-0.01631516,-0.03905713,-0.03373243,-0.00283667,0.04444686,0.00971781,-0.04603530,-0.09707303,-0.05665071,-0.05371166,0.04980354,-0.06124131,-0.03839482,0.09649405,0.11076139,
-0.53177315,0.04190828,0.09319024,0.39722604,0.11703690,0.09843519,-0.92527139,0.01604036,0.04522140,0.49092308,-1.58901846,-0.03096318,0.13803414,-0.10385985,-0.36436981,-1.30221450,-0.09651363,-0.12923357,0.19143227,0.27618706,-1.07177663,-0.01719848,0.08197272,0.10565604,0.11781059,-0.03371365,0.71406597,0.20293230,0.01402137,-1.09978914,0.23554729,0.11265999,0.10810146,0.26574311,-0.00552857,-0.05649778,0.46708596,-0.21345793,-0.61607885,0.19266602,-0.39818960,0.26189199,0.10239291,0.46096838,0.36301765,-0.06550398,-0.76935065,0.07882825,0.01829173,0.13116933,-0.01734634,0.03640171,0.07733687,-0.01181307,0.09602783,-1.13886404,0.72236192,-0.07269972,0.11904220,0.00717530,0.10402037,0.24299392,0.31434715,0.02391525,
-0.04811308,-0.04343995,0.01640934,-0.12835804,-0.08815934,0.07830043,-0.02171540,0.04978304,-0.11188303,0.01507939,0.06720203,-0.07899721,0.05583445,-0.12862894,-0.12214112,-0.10926729,0.06344447,0.04068418,-0.00634636,-0.07228148,-0.07402933,0.00412811,0.02920032,0.05395606,0.05551806,-0.10099232,0.06362776,-0.07175764,-0.11805920,-0.04982430,-0.13990000,-0.02267642,0.06903654,0.05988916,-0.02947963,0.03424407,0.03757101,0.08088218,0.06498908,-0.10856646,-0.01506983,0.05121438,-0.07239141,-0.00850730,0.00876023,-0.05047827,0.09407383,0.00720636,-0.02832494,-0.09596891,0.04684680,0.05235255,0.03963070,-0.08120383,-0.08197848,0.09739133,0.02521267,-0.03154062,0.00520933,0.01595694,-0.07633528,0.05288346,-0.09328452,-0.02316907,
0.50319028,-0.00808319,-0.00309329,0.24329796,-0.03453382,-0.03908224,-0.28375363,0.74067765,0.04086107,0.18080349,-0.07412469,0.08519132,-0.10444732,0.30991998,0.28213686,-0.43685693,-0.08076221,-0.03730346,0.25279927,0.28850326,-0.64701736,0.00061539,0.00495860,0.88497138,0.10378043,-0.00234264,0.11344945,0.14270191,0.22886689,-0.50680667,0.01933508,0.02832246,-0.13732429,-0.26783127,0.00994954,0.01737540,0.17523071,-0.14222969,-0.05369367,0.18075977,0.40245554,0.38802922,-0.10665695,0.25724897,0.19804122,0.31968445,-0.00489998,0.36398220,0.15413231,0.11444491,0.17374456,-0.50695312,0.23873828,-0.05573697,0.21382536,-0.45417991,0.13714668,0.19338936,0.34309372,0.04774602,0.16432312,0.61520690,0.18547662,0.06384838,
-2.06624174,0.10627107,-0.02638890,-0.12182622,-0.11852776,0.59754461,-0.16820973,-2.15963531,0.09064230,-0.28849983,-0.44289547,-0.02309348,0.08257112,0.20629065,-2.44576454,0.91903484,0.06549467,-0.35548553,0.43733144,0.47732401,-0.18126744,0.03425085,0.00123875,-0.98084348,0.33333120,0.02495943,0.11284927,-0.36160284,-0.12623449,0.60455036,0.63875961,0.49096325,-0.19540106,-0.60504192,-0.12028006,-0.33957246,-1.39869201,0.92757368,0.29023322,0.70355195,-1.20907938,-0.06601125,0.12314694,-0.37067503,0.13124840,0.06422871,-0.03313695,-0.32461318,-0.05979596,0.39295369,0.11865418,1.58626115,0.76746547,0.07905367,0.09859185,-0.30356357,-0.84591985,0.09257925,-0.00681947,0.13211063,0.47366011,-0.84512496,0.25505203,0.01262501,
0.92453212,0.07517505,-0.10560159,0.17716111,0.07425020,-0.00578356,-0.89850318,1.04011440,0.06056139,0.19524825,0.12442410,0.07885051,-0.12525854,-0.07339944,0.64944339,-0.28726584,-0.10790850,-0.29907832,0.30913961,0.29323971,-0.64564174,-0.03998135,-0.13014878,0.83321387,0.18617420,0.06930311,-0.08654007,0.14484212,0.12910888,-0.24187262,0.20794898,0.07136218,-0.24484964,-0.41118670,-0.08017940,-0.03428323,0.20144172,-0.12897258,-0.29589725,0.00047846,0.70797032,0.45260328,-0.03049526,0.45060685,-0.06967802,0.22162804,0.28238752,0.22502148,0.15801743,0.15194781,0.03813883,-0.54300416,0.05727009,0.03599371,0.24434881,-0.43713444,0.49304381,-0.02428572,0.34095100,0.19276603,0.09232018,0.71159631,0.17915832,0.00992844,
-0.24331878,-0.00878462,0.10613370,0.24606936,-0.10849936,0.45642397,-0.71267849,-0.21923934,0.00460567,0.24294424,-1.34628987,-0.08967932,0.33059880,-0.01930880,-1.03262746,-0.92492867,0.01336306,0.17050850,0.04411040,0.26864192,-1.21443224,-0.08427246,0.08216942,-0.42330825,0.27985537,-0.11175404,0.41628250,0.29281431,0.03570826,-1.30026507,0.04822312,0.10350490,0.25133461,0.93750513,0.10036888,0.12193964,0.31611973,0.04262206,-0.35182318,0.21693878,-0.99102014,0.30552000,0.06564243,0.57941711,0.11337683,0.11399402,-1.40722668,0.23940283,0.19552398,0.12095287,0.10978395,0.01415957,0.17062141,-0.07873644,-0.03509488,-2.16281605,0.37366837,-0.03969362,-0.12716547,-0.05173835,0.23451051,0.08166723,0.24992129,-0.04204345,
0.48021066,0.04023987,0.00210873,0.15696323,-0.10292104,0.11047525,-0.61161530,0.90051252,0.11412938,0.30885026,-0.01372398,-0.08618774,-0.07122134,0.34563211,0.36923641,-0.53621072,0.09996265,0.14023252,0.13380955,0.22218999,-0.66209418,-0.02340070,0.09355250,1.04929042,0.16122396,0.06380828,0.22350243,0.11597042,0.28533745,-0.77460212,-0.26916400,0.07556204,0.22076182,0.20694952,0.12102497,0.25890484,-0.19224855,-0.08679061,0.10080940,-0.02075289,0.25435066,0.12915994,0.10409065,0.52062106,0.11929843,0.20530210,-0.20607360,0.25209078,0.13687055,0.14891233,0.24305990,-0.98721009,0.16323887,0.00792408,0.21670409,-0.19489193,0.10270388,0.09610371,0.10319426,0.15076078,0.01397935,0.54504126,0.38447866,-0.11633980,
0.63806158,-0.00974074,-0.04760379,0.14192997,0.02393401,-0.05946870,-0.28982422,0.72264743,0.02195144,0.14102520,-0.11427175,0.07731438,-0.01387858,0.21818781,0.39999017,-0.35920542,0.02243976,-0.15323727,0.25727534,0.12699386,-0.73788708,0.07047031,-0.00574479,0.99266130,0.26033339,-0.02770467,0.18146686,-0.09061220,0.07312302,-0.67583519,-0.02459562,0.08941054,-0.05041179,-0.26830968,-0.00943316,-0.15451564,-0.03180952,0.00977175,0.21115719,0.27671087,0.57188118,0.48810545,0.05743891,-0.01052455,0.03327734,0.30021837,-0.03695454,0.18594772,0.21815023,0.21762462,0.02338780,-0.68209571,0.02959365,-0.09454532,0.22340533,-0.34840101,0.09003410,0.00599836,0.20589185,0.14923750,0.19503587,0.39792010,0.09065950,-0.03875548,
-1.22744167,-0.05290321,-0.11946680,0.23034029,-0.05254468,0.05893988,0.75315124,-0.35783800,-0.06849891,0.19657297,-0.11537784,-0.08979173,-0.19854428,0.42814463,-0.17579167,-0.22111090,-0.11530438,-0.17675813,0.12607700,0.04198368,-0.40280965,-0.09931976,0.01926405,0.34990439,0.15394089,0.00126047,0.67744935,0.07338691,0.13826302,-1.40898407,-0.78621560,-0.08128239,0.47247487,0.24261704,-0.07852685,0.07078563,-0.67653376,0.32489064,-0.07233495,-0.07999067,-0.00041579,0.37862289,0.05297638,0.60649663,-0.02826372,0.05644665,-0.73898506,0.23741539,-0.14001690,0.20474932,0.14833125,-0.37373275,0.06097542,-0.00028156,0.15436313,-0.03691771,-0.40871942,-0.19488414,-0.01711544,0.08603493,0.10214332,0.23239230,0.02602332,-0.05854973,
-0.38866153,0.02768160,-0.07091430,0.38964278,0.01627553,0.16028944,-0.67580706,-0.10028740,0.04951307,0.37032899,-1.35772395,-0.04544087,0.11953946,-0.06569866,-0.46793461,-1.19815612,0.05296290,0.17057420,0.07282893,0.23130363,-1.07153070,-0.09202697,0.12954110,0.14038515,0.23640244,0.06401740,0.86290121,0.27475163,0.15548988,-1.83041656,-0.55626047,0.03594831,0.24724659,0.65127110,0.11642083,0.21470641,0.10509197,-0.30585894,-0.48012060,0.09729963,-0.74439502,0.33387193,-0.06566466,0.47355381,0.20914483,0.07666021,-1.45704341,0.32106718,0.07697469,0.10555272,0.06899763,-0.27525693,-0.03671884,0.00160906,0.09820940,-1.99188435,0.15303144,0.00227186,0.15989034,-0.00109177,0.17391852,0.44419238,0.48324662,0.03311598,
-0.02972747,-0.10031021,-0.04871739,0.00648564,-0.12422217,-0.07784625,-0.01581756,-0.05780425,0.02369118,0.09855855,0.04148068,0.04966879,0.10078893,0.00617559,-0.00139477,-0.09697586,0.03950885,0.07803465,0.03990009,0.01408123,-0.09991263,0.00751550,-0.01126169,0.05374073,0.03470277,-0.00024036,-0.00458019,-0.12237126,-0.07871108,0.00763247,-0.02655058,-0.11198809,-0.05448779,-0.03864306,0.09526205,0.05569534,-0.11473007,-0.11086051,-0.02444199,-0.12823622,-0.06671238,-0.12159038,0.06752929,0.09541199,-0.13932154,0.05058343,0.05713334,-0.06564962,-0.05423224,0.07706682,-0.13016146,-0.06099957,-0.13800001,-0.05689608,-0.01115945,0.03993597,0.01033778,-0.02277093,0.08381338,0.08500822,-0.06722561,0.00774504,-0.02467554,0.02386390,
-1.03132522,-0.08436635,0.08335622,-0.14834765,0.05657430,-0.22361970,1.08015299,-0.70788580,0.07194716,-1.08309603,-0.50797093,-0.07653032,-0.51677597,0.42868230,-0.34468192,0.42572027,-0.08469664,-0.32372469,0.26323947,-0.00447836,0.29872480,0.12020439,0.05881489,-0.75378197,0.07000465,0.00002164,-0.59714043,0.01156554,-0.14297569,0.28737879,-0.25020042,0.01922554,-0.09999634,-0.12883224,0.02882673,-0.05799073,-0.91632926,0.75645894,0.04930196,0.12476267,0.37499219,-0.06179087,0.07204145,0.20205922,-0.37283596,-0.09986895,-0.26882327,-0.12844846,-0.08871011,0.20361358,0.16638522,0.85035372,0.32873693,0.11254553,0.20043287,0.72315878,-0.05629049,-0.13111059,0.01247090,0.04725378,0.03103220,-0.39662272,-0.29507071,0.02485867,
-0.02745842,-0.01612343,-0.12342504,-0.12552258,0.05346163,-0.16434953,0.06477706,-0.08485819,-0.08120972,-0.03928882,0.04014918,0.11081383,0.01714051,-0.06824870,-0.01473828,-0.10385560,0.00823298,-0.13687497,0.06845160,0.04182633,-0.12303720,-0.07295956,0.04130685,0.07519805,0.02220080,0.00335020,-0.04064787,-0.01955088,-0.01445817,0.01198663,0.01197995,-0.10716903,-0.07991934,-0.10409740,0.10676025,-0.04750014,0.08174305,-0.02959998,-0.11552316,0.04214605,0.04006465,0.05400055,-0.10369487,-0.02983656,-0.01849818,-0.03390058,-0.14852032,0.01911724,-0.04017741,-0.01922974,-0.09501037,-0.09214950,-0.03771256,0.08483458,-0.11482202,-0.14227769,-0.03843019,-0.03604898,-0.04473012,-0.00037293,-0.16871609,-0.00175895,0.06046154,0.11300810,
0.09397501,0.08625992,-0.06813091,-0.08622510,0.07154842,-0.11007732,-0.08978811,-0.07232852,0.12067337,-0.07552819,-0.00433148,-0.08669145,-0.04967972,0.01724837,-0.01141787,0.04274397,-0.07389344,0.03734202,0.05370549,-0.06063614,0.03069967,0.11253291,0.08751811,0.05579527,0.00907180,0.01377121,-0.03293535,-0.01317609,-0.14537032,0.07258750,-0.15316443,-0.01190685,-0.03482980,-0.01505095,-0.12130675,-0.00591289,-0.11771940,-0.10589337,-0.01927906,-0.09385645,0.04140653,0.03544236,0.01206206,0.05924200,-0.05602613,0.06614767,-0.04384393,0.06359646,-0.13375652,0.00322253,-0.16465853,-0.06589962,0.00349218,0.02762441,-0.00241123,0.04407286,-0.15218766,0.03178160,-0.16048910,0.04261717,-0.07371909,0.02163489,-0.11507735,0.03016078,
0.95305324,-0.04968217,-0.03648244,0.31926158,-0.06583443,-0.03614696,-1.30439174,1.02622736,-0.02714562,0.41833776,-0.22107454,-0.05438277,0.18401040,-0.35996962,0.67753154,-0.82472116,-0.04607461,0.00325558,-0.14293428,0.24454618,-0.67495716,-0.09436994,0.04810750,0.70230806,0.04406468,0.12338302,0.19081560,0.19228441,0.26417431,0.11790323,-0.03745430,0.02143149,-0.00523417,0.16395007,0.04001456,-0.05124176,0.64362305,-0.41629311,-0.05891939,-0.13712846,0.62336326,0.34309712,-0.09843232,0.41032958,0.12954727,0.08825439,0.29329211,0.20926349,0.06861882,-0.07266091,-0.15810482,-0.83675784,-0.08072958,-0.08251326,-0.06611550,-0.46345001,0.55663675,-0.02165719,0.20938887,0.16229936,-0.08149693,0.53035504,0.05284902,0.01767877,
-1.17318630,0.00234488,0.03773483,0.29289985,0.10608669,0.46884599,0.43578187,-0.66652715,0.09302917,0.05599397,-0.86977851,0.04715978,0.02831311,-0.09614543,-0.93754464,-0.58304077,0.00650698,0.23809887,0.20314622,0.29763770,-0.93409801,0.04410786,0.10821344,-0.84667325,0.08695280,0.03877594,0.32589966,0.16871446,0.12364818,0.10073303,-0.64798993,0.14631426,0.30369797,0.53086203,0.00721708,0.32913619,0.13504103,0.23053458,0.61159575,0.15894906,-0.87144893,0.08907748,-0.06407325,0.34531164,0.41355413,0.20332462,-1.48381412,0.11609209,0.27893597,0.29622474,0.12933335,0.93387407,0.27595520,0.02310416,0.04582144,-0.03560284,0.08191630,0.07871767,0.08010331,0.32127604,0.41083136,-0.11886145,0.42012563,0.11864211,
0.12277907,-0.02781871,0.05973141,-0.26376760,0.05668797,0.12132639,-1.32665360,-0.45103329,0.09136596,-0.33902845,0.57506591,0.05402377,0.66761816,0.09150577,-0.77360690,0.45145240,0.03530668,0.07115361,0.12786050,-0.01698288,0.40841520,-0.10594708,-0.05135454,-0.75184363,0.24560334,-0.08048555,-1.09577727,0.12770440,-0.06130071,-0.40156037,-0.14577702,0.36471742,0.07054069,-0.70337343,-0.08969280,-0.24458808,0.06974129,0.31163660,0.23700710,0.31744704,-0.18486260,-0.75895643,0.08199491,-0.46924293,0.41517767,-0.04925755,-0.11573375,-0.25223917,0.07744202,-0.08507301,0.30576086,0.75716007,0.17022325,0.07078581,0.06849490,-0.55480134,-0.72384709,0.24708092,0.08612540,-0.28154230,0.12551092,-0.32215506,0.17586543,0.05173346,
-0.09667162,0.10970162,-0.11501282,-0.02568993,-0.05017905,-0.07947696,-0.09603624,-0.01678637,-0.08807203,0.10934165,-0.07920132,0.09109065,-0.06657873,-0.00449804,0.02294563,-0.10891419,-0.02042010,-0.07767514,-0.10439826,-0.08890148,0.05229965,0.06025366,-0.00582117,-0.06648995,-0.04222505,-0.06814559,0.10462184,-0.01134364,-0.14043705,0.05844290,0.07305957,0.06537861,0.07431895,0.10446762,0.04434076,-0.10156026,0.05994453,-0.11792764,-0.02956506,-0.01882430,0.04139211,0.07215669,-0.01882796,0.10983761,-0.11894999,0.05126488,0.00360127,-0.13404833,-0.11122876,0.04540198,0.05473206,0.09915005,0.01837149,0.01884124,0.01583270,0.07424829,-0.12882340,0.05388618,-0.13262877,0.00737282,-0.07103982,-0.10180303,-0.05299884,-0.00636503,
0.94320178,-0.06636965,-0.04634063,0.51011252,0.04206102,0.18658449,0.46859401,0.74145776,0.12038586,0.67696518,-0.00657793,-0.00866722,-0.29882920,-0.41541663,0.77145237,-0.79600376,0.02590388,0.32567134,-0.51174945,-0.08878651,-0.45683903,-0.06723610,0.04977003,0.33924866,0.00105508,-0.02037875,0.19785379,0.40507439,0.34227934,0.32621646,-0.52491516,-0.22959156,0.44262651,0.47598010,-0.01850839,0.75130165,0.84577233,-0.83171362,0.09955037,-0.29598090,0.10901171,0.47054598,0.01211894,1.13309109,-0.00221199,0.14574598,-0.28487900,0.35092604,-0.00285062,-0.00688087,-0.02390241,-1.33696711,-0.53138787,-0.09488338,0.05841279,0.59962076,0.64239573,0.13296890,0.27968353,0.30345047,-0.46328756,0.38598189,0.16082731,-0.00227498,
0.07180542,-0.11192524,-0.12824883,0.41880590,0.01224334,0.17163874,-0.75641203,0.57861227,-0.09716299,0.35322458,0.03812586,-0.02040240,0.14399093,0.15381058,0.48526528,-0.80804551,0.05578566,0.11478317,0.30448446,0.03173153,-0.55535936,-0.09323239,-0.03550467,0.98031074,0.02595765,-0.05767426,0.38772663,0.32562715,0.17726564,-0.41268006,-0.19797295,0.03776362,0.03984598,0.38683212,0.03120408,0.13887241,0.22395770,0.18638423,0.06576137,-0.01187482,0.57651776,0.32857361,-0.01501541,0.39562505,0.30366036,0.16484995,0.06812694,0.31391209,0.07028702,0.26750764,0.20622979,-0.71632284,0.18629427,0.00281113,0.20654170,-0.23584780,0.40208089,0.19136217,0.30774841,0.23177721,0.06004355,0.29315877,0.13581872,-0.03647985,
0.04848266,0.05896029,-0.01593395,-0.09491572,0.12358379,0.03130407,-0.05271064,0.06228911,-0.03126819,-0.03217039,-0.03276331,-0.02985610,-0.11282911,-0.00781334,-0.07841748,-0.00801371,0.10637589,-0.12597074,0.06858473,-0.02805092,-0.09455479,-0.00494778,0.05150162,-0.10059408,-0.02701510,0.03242409,0.01235023,0.05984823,0.05187450,0.05541877,-0.02786605,-0.08676790,0.00037394,0.08197808,-0.08801447,-0.01028359,-0.02271211,0.06839776,-0.06663361,-0.07934087,0.02275129,-0.07515374,0.02288182,-0.02097456,0.09663705,-0.08316045,-0.09123839,-0.03972639,-0.11576844,-0.12199087,-0.04035876,0.05954374,0.09963445,0.00679719,0.04675328,0.06178354,-0.08287745,0.03411970,0.10300004,-0.02320448,-0.04847723,-0.05335380,-0.11782416,0.09935910,
-0.08333731,-0.00324777,0.01033814,0.08576638,0.08182064,-0.10798812,-0.03277047,-0.02928224,-0.00759991,-0.00075772,-0.06334741,0.03245221,-0.01381171,-0.00563133,0.08271220,0.05796312,-0.03783859,0.08287661,0.08003789,0.02165338,0.03283769,-0.08207190,0.07967344,-0.10238729,-0.04095855,0.03648528,0.10550930,0.06560346,-0.02522077,-0.01718833,-0.04326928,-0.06562302,-0.07382597,-0.03248861,-0.10488351,0.01847811,-0.11975646,0.10387352,-0.06604990,0.03845771,-0.04482874,0.00633210,0.02568889,0.01099810,-0.12247042,0.03269529,0.06631149,-0.07414633,-0.02356592,-0.06886764,0.03850448,-0.00343382,-0.11325793,-0.11349851,0.05583979,0.07865164,-0.11257613,-0.08847435,-0.11383094,-0.00566410,0.00128293,0.07326688,-0.11372408,-0.09916219,
0.00890674,0.11438428,0.12091453,-0.02561349,-0.05739003,-0.01777776,-0.08317135,-0.08754875,-0.02808261,0.07467376,-0.01296232,-0.05650325,-0.06622693,-0.10058047,-0.09579300,0.12371090,0.05340217,-0.12367615,0.06357168,-0.10532659,-0.06261402,-0.05170058,0.08147374,-0.12029271,0.06026153,0.08701396,-0.08463719,0.04977338,0.08506962,-0.04649670,0.06862423,-0.08311411,0.00919568,-0.03701784,-0.02918094,0.03807511,0.06701316,-0.00912957,0.10303438,-0.01564461,0.01785138,0.11086902,-0.07454161,0.02194166,-0.11060930,0.06487246,-0.12212119,0.03254870,0.02987979,-0.08227677,0.00315773,-0.12932347,-0.03367938,0.08252864,-0.12054276,-0.06546659,-0.06825513,0.03544563,0.04752517,-0.10922855,-0.12998636,-0.11152815,0.00592352,-0.02367198,
0.02386376,
0.25803199,
-0.03270133,
0.08363882,
0.19142231,
-0.10667013,
0.27216652,
0.10536443,
0.15033711,
0.07296490,
0.06032778,
0.00494367,
0.21501237,
0.07239250,
0.30240035,
0.04205054,
0.30956939,
-0.13868535,
0.13103651,
-0.00896467,
-0.09715203,
0.23577346,
0.37116152,
0.04991929,
0.16787203,
0.17237233,
0.13615242,
0.06904103,
-0.12302570,
0.11780836,
0.01110458,
-0.15579325,
0.00106993,
0.17895783,
0.27135950,
0.12292100,
0.05638595,
-0.12373120,
0.00433410,
0.30945095,
-0.02750542,
-0.04188497,
0.02008430,
0.24292019,
0.40071410,
0.14311950,
0.05488613,
0.12053642,
0.13203830,
0.01915160,
-0.13776258,
-0.08682254,
0.22361916,
0.06627322,
0.02517688,
0.12857293,
0.27398992,
0.18633100,
-0.00559709,
0.09553461,
0.14360827,
0.04242223,
-0.02838334,
0.10262691,
-0.21921021,-1.00469351,0.03581274,-0.00943393,0.38882098,0.08673470,0.04426974,0.23748040,-0.05895258,0.75674504,0.54815829,-0.03026256,0.06187389,0.30128688,0.20395537,0.23112546,0.62660086,0.10537229,0.06113405,0.09783371,0.02560213,-0.45631242,0.26801863,1.03512025,0.05335672,-0.44710132,-0.19724709,-0.63695985,0.08240034,0.10125258,-0.10582974,0.54939115,-0.03903481,0.27055067,0.08757304,-0.23202379,0.04935945,-0.09120561,-0.00409303,-0.07454249,0.01767027,0.62656718,-0.07002993,0.24504907,0.08081088,0.18934178,1.15288663,0.12682179,0.13667943,0.08359051,-0.29388437,0.07658182,0.51018488,0.06815555,0.01663122,0.16445586,-0.44764212,1.23891568,-0.10858387,0.10551788,0.07854947,0.06044901,0.10865574,-0.07661091,
0.25802368,-0.04972361,-0.10195910,0.05397995,0.34252077,0.04384682,0.28212824,0.30451483,-0.21886569,0.29585114,0.02702469,-0.00923920,-0.04517352,0.23633018,0.15234928,0.35102773,-1.29962742,-0.02484276,-0.52980447,0.03106029,0.00069135,0.88338101,0.23818584,0.33074236,0.36416319,0.21096446,0.58829856,0.22768089,-0.03327448,0.19442560,-0.09681077,-0.03161322,-0.05486222,0.36402550,-0.86389154,-0.06777765,-0.01855439,0.05066252,0.07908517,-0.16518454,-0.08771016,-0.07665288,-0.10523982,0.35931635,0.11937921,0.33919424,0.29436663,0.26004189,0.33157584,0.27875125,-0.24267557,0.06077183,0.44971272,-0.12625267,0.02114180,0.22356178,0.15539202,-0.36508843,0.00932646,0.13706049,0.24501859,0.05084524,0.08114260,0.12186137,
-0.12886861,-0.30641243,-0.09023538,-0.07872310,0.29290497,0.09502505,0.36413726,0.45851451,-0.14484887,0.53972054,0.54139882,-0.06121010,-0.94335240,0.74489164,-0.51177663,0.18036455,-0.08962477,-0.09338120,-0.80448997,0.06971505,0.06780267,0.10782108,0.07758910,-0.05118850,-0.05523830,-0.55206847,-0.57758939,-0.04872584,0.09759334,0.12092865,0.05640780,0.76728904,0.08657102,0.03009743,-0.59515536,0.77705228,0.10850561,-0.02153279,0.00335123,0.71044803,0.04080684,0.28105605,-0.03541561,0.23194550,-1.31871605,0.31935266,-0.00260272,0.51847875,0.13730638,0.07649484,0.38904667,-0.09540921,-0.20084360,-0.09210803,-0.05977886,0.60817742,-0.10946529,-0.00003508,-0.06780385,-0.72542000,0.21763948,0.13021417,-0.00725952,-0.11181773,
-0.21990193,-1.78457570,-0.11332016,0.12324791,0.19368897,0.03104313,0.44861174,0.42663038,-0.07942414,0.58378100,0.73329276,0.09763627,-0.54681170,-0.02533703,-0.45041010,0.32938349,0.18926677,-0.05349097,0.36533898,-0.06476912,0.10722430,-0.26339620,-0.09682261,-0.33144218,0.17089187,-0.39718163,0.02535794,-0.00706922,-0.08231770,0.29911682,0.08369228,0.69511414,0.10915545,0.10252667,-0.04791007,-0.39502117,-0.02566655,-0.00285634,0.09823496,-0.35264027,0.04432241,0.71383524,0.09643418,0.26714769,-1.23228145,0.42230910,0.86387044,0.15827899,0.23765193,0.43481043,1.09890068,0.12792079,-0.07162280,0.09873804,0.01365813,0.47548291,-0.58051389,-0.23994620,0.00308388,-2.35362697,0.26414362,-0.08765774,0.00781259,-0.04871991,
-0.20144834,-0.16827615,-0.04459506,-0.06221740,-0.10432438,0.02569562,-0.21166274,-0.09617357,-0.23982795,0.11527990,-0.05019434,-0.07976815,-0.11253877,-0.11999420,-0.04935242,-0.20154460,-0.23105955,0.00972192,-0.03701933,-0.05319412,0.10011323,-0.11897422,-0.15191722,-0.02353790,-0.14499983,-0.14042252,-0.19285949,-0.05231831,-0.00026083,-0.12954038,-0.00724477,-0.09445992,0.12446785,-0.11237105,-0.48519400,-0.25541773,0.03661624,0.10460913,-0.06963752,-0.12450159,-0.04526530,-0.16296090,0.04628783,-0.19381024,0.11120115,-0.12638643,-0.28153217,-0.10913709,-0.21561821,-0.00342088,-0.01514530,-0.01134033,-0.15021157,-0.12497043,-0.06813283,-0.24923699,-0.09242669,0.06304859,0.11727532,-0.15520146,-0.10219223,0.01241456,0.05370694,0.10759141,
0.01023434,-1.13573885,-0.07308485,0.00977278,0.13651405,0.04972725,0.39177907,0.34462675,0.08646746,0.66515303,0.72710276,-0.03648800,-0.55811155,0.00910857,-0.27045578,0.10179199,0.08902871,0.08527444,-0.07345449,-0.08635925,-0.09065451,-0.13416992,0.26736769,1.07328272,0.02139341,-0.12908529,-0.09767551,-0.13446116,0.08175641,-0.04040150,-0.10757116,0.58159220,-0.10087367,0.20186213,-0.05838013,0.07628443,-0.03550119,-0.01945490,0.01215510,0.12945645,-0.02829690,-0.88711989,-0.03474735,0.11071113,-1.12048554,0.06853651,0.82340169,0.36689684,0.25144649,0.01438623,0.56355190,-0.02398166,0.06125367,0.01743045,-0.05950102,0.52569002,-0.85220373,-0.70481932,-0.08450706,-0.38826501,0.17880851,0.11884737,-0.04313257,0.11272389,
-0.14433612,-0.35459113,0.02803531,0.01538970,0.05078750,0.04876663,0.24731070,0.40821573,-0.35219827,0.52492422,0.30209875,-0.08968709,-0.48492193,0.04332264,-0.84947979,0.08413313,0.46986380,0.03039302,0.51861119,0.02481404,0.11915909,-0.26032016,0.08314451,0.93776405,0.28272304,-0.11368653,-0.11384936,0.20963311,0.09565069,0.26826066,-0.07834855,0.37605226,0.03839062,0.05273821,-0.04598547,-0.12776080,-0.08320969,0.03648346,-0.01207113,-0.99527055,-0.01142541,-0.11174542,0.11501702,0.27853292,-0.79050720,0.23548499,0.15232620,0.32830021,0.28324196,0.12612197,0.92632371,0.07461273,-0.75831318,-0.07818798,-0.03932898,0.51909941,-0.60490274,-0.28907090,0.02867182,-0.51135004,0.16027258,0.09408784,0.10247719,0.03764216,
-0.02027168,-0.06039161,0.08430818,0.02545215,-0.17800362,0.04195254,-0.18851021,-0.15818094,-0.14209561,0.18149811,0.00467819,0.12080492,-0.01871039,-0.21481632,-0.03020525,-0.16081828,-0.15884332,0.03419576,0.15211965,-0.11370936,-0.09247760,-0.26266491,-0.05859300,-0.06852801,-0.22578838,-0.26280960,-0.24247082,-0.28527206,-0.01887706,-0.12355034,0.09057020,-0.28492332,-0.08112314,-0.02456627,-0.29737699,-0.08348528,0.02047485,0.06740168,0.10094347,-0.21777984,-0.06135198,-0.17445090,0.10587976,-0.08633226,0.13341452,-0.16238773,-0.14400545,-0.00872975,-0.19861701,-0.10842945,-0.19615988,0.02966599,-0.17735536,0.05654430,-0.11554064,0.04415802,-0.17871714,0.17169037,-0.12173823,-0.05345921,-0.17732184,0.02571683,0.03269619,0.08057784,
0.51305646,0.13186595,-0.05819099,0.01869528,0.21368529,-0.12459883,-0.07531982,0.14691252,-0.08961296,0.88180947,0.28426465,0.09009136,-0.51088881,-0.21686997,-0.17211060,0.07972001,0.42305642,0.02217325,0.66291827,0.00159925,0.00908040,-0.13049942,0.10398309,0.07426044,-0.12974326,-0.02835477,-0.39312989,0.09046853,-0.12291710,0.02810543,-0.04345763,0.49760255,0.07371925,0.21324849,-0.13692409,-0.15895906,-0.00852005,0.11059462,0.11881389,-0.26120105,0.02043305,0.54025215,0.06771816,0.00717984,0.47480479,0.00360529,0.75559372,0.04067830,-0.06670149,0.18149284,0.82372135,-0.05485982,0.04508232,-0.06756578,-0.04873843,0.22397099,0.20318744,-0.22311778,-0.11785516,0.47837421,0.14311859,-0.01963945,0.01208115,0.03977637,
-0.30938354,0.28041899,-0.07822426,-0.09048018,0.01499208,0.09690988,-0.00007576,-0.01819341,-0.39759612,0.49596593,0.18658422,-0.08764414,0.31807959,0.30738202,-0.52227563,-0.10392332,0.30746338,0.09916097,0.62254614,0.11411391,-0.11245207,-0.30592719,0.16111605,0.17290667,-0.01577094,-0.21151316,-0.09510597,0.11380853,-0.10683101,0.02016647,-0.09314681,0.29878804,0.08926620,0.14676416,-0.38183552,-0.29307276,0.01803753,-0.00037647,0.05649036,-0.45966935,0.01034755,0.26670507,0.06807831,0.14290261,0.07221058,-0.05358383,0.30105129,0.09192280,0.16777092,0.09405304,0.44719583,-0.08957893,-0.17823286,0.09345185,0.08992758,0.02846767,0.06121945,-0.70990741,0.00284952,0.10621110,0.11763262,0.03201799,-0.02829449,0.07895815,
0.10739377,-0.07786308,0.01309685,0.10089214,0.11708780,-0.10735260,-0.08839332,0.08084838,-0.02209295,-0.07270536,0.08761898,0.09792869,-0.11941561,-0.00969660,-0.03722768,-0.09525055,-0.11461997,-0.07829896,-0.03292675,0.03421970,-0.02601345,0.07966578,-0.03926413,-0.01338196,-0.00586018,-0.09715952,0.10145184,-0.03379022,0.09353065,-0.04569589,-0.11434664,0.08119726,0.05253591,-0.00073251,-0.00827159,0.08867422,-0.09799810,-0.08124837,0.07686026,0.11384712,-0.02022626,0.00403373,0.08147790,0.09851283,0.08968541,-0.00402045,-0.02106859,-0.09800434,0.02801865,0.01757436,0.02647871,-0.00053558,-0.03827251,-0.00200355,0.09966460,-0.07939231,0.03058665,-0.05290665,0.05954891,0.00497849,-0.09368287,0.10639553,-0.07450765,-0.02035634,
-0.44652840,-0.04784426,0.02349821,0.09310780,0.18799533,0.06245188,0.20020184,0.16736460,-1.44149554,0.47131389,0.34790963,-0.03629090,0.25909629,0.91924423,-0.85984749,0.09551646,-0.82951200,0.03799371,-2.00944877,-0.03628513,0.02985772,-0.04508157,0.17248574,0.02014305,0.08514850,0.21648420,-0.12177190,0.26727954,0.00880478,0.27925399,0.11961040,0.26650164,-0.05992997,0.36917308,-0.76945031,1.30039978,0.03214026,0.09608676,-0.05912982,-0.14032301,-0.07736617,0.36611006,-0.04055652,0.10812285,0.70303577,0.11288258,0.15521894,0.18381852,0.09117580,0.25504601,0.49524704,0.07580996,0.13983569,-0.05968815,0.03036013,0.20800672,0.12813836,-1.07879293,-0.08577333,0.06534786,0.26797864,0.08565567,0.02772370,-0.05653019,
-0.72848219,-0.30268762,-0.05331348,-0.07378899,0.25551373,0.04820664,0.09342749,0.05700247,-0.14105301,0.61667293,0.13894488,0.05167000,0.09272233,0.70558804,-0.46858349,-0.04820539,-0.40442088,0.12503746,1.31803167,-0.02458538,-0.09244363,-0.99526036,0.20942536,0.32962778,0.37831956,-0.55216724,-0.22264142,0.33735743,0.03652386,0.35560200,-0.14350201,0.25080302,0.04171588,0.05518204,0.21448477,-0.70989549,0.05033179,0.10222443,-0.12385727,-0.92527252,-0.05391932,0.39014933,-0.11290324,0.14492713,0.74774551,0.05972371,0.74837774,0.34540531,0.18436125,0.66626340,0.86031651,0.12858771,1.33071280,-0.03679220,-0.01388536,-0.07913841,0.02487451,-0.39952421,-0.08328740,0.08259666,0.21037416,-0.07848202,-0.10654883,0.02733339,
-0.01424399,-0.02598394,0.10531715,0.09266995,-0.04028429,-0.12117957,-0.04413864,0.08833103,0.04848033,-0.11157529,-0.04416867,0.10748811,-0.07906064,0.12102696,-0.09263232,0.06248492,-0.11345389,0.00384563,0.06560642,-0.10387465,0.06377666,-0.03697063,0.05369064,-0.12428391,-0.04217385,-0.01935084,0.11117387,-0.02548926,0.10721818,-0.08626530,0.02115089,0.10761064,-0.12071256,-0.06910598,0.07086331,0.06204328,-0.02762587,0.01300262,0.09725915,-0.03802235,0.07884927,0.10951142,-0.11544617,0.11492395,0.10564375,-0.10470279,-0.04254821,0.08737101,-0.03381988,-0.01230571,0.01274350,-0.09324561,-0.06373341,0.11415724,-0.03078701,0.03184731,0.08142269,0.05515419,-0.01635166,-0.10195735,0.05609396,-0.08096820,0.06830423,-0.09653015,
-0.46815819,-0.01038387,0.07797365,0.10945211,0.25750777,-0.05885038,0.47523186,0.27285272,-0.39827207,0.43342778,0.38344607,0.01948234,0.18336268,0.53789562,0.01186757,0.33487028,0.49252993,-0.00299545,-0.70249391,-0.07884856,0.08042932,0.12617949,0.36046809,-0.44607940,0.14985567,0.19271347,0.00914809,0.28256148,-0.08788705,0.16886128,-0.11178938,0.89270157,-0.09999999,0.17698762,-0.06329074,-0.03714044,0.06623182,0.00939619,-0.05126321,0.45078713,-0.06939404,0.78227216,0.06482819,0.22868003,-0.29399300,0.38585192,0.18530709,0.28363568,0.24388802,-0.08105115,0.30964455,0.08727250,0.16356087,0.09192643,0.00913519,0.55177635,0.03824835,-0.51762080,-0.02275082,-0.62719935,0.29897380,0.08199347,0.06377481,0.11333989,
0.24767604,
0.64095956,
0.01386960,
0.05877123,
-0.07087543,
0.13092463,
-0.03195650,
-0.11982922,
-0.17600624,
0.00480593,
0.03198899,
-0.01812563,
-0.12660637,
0.09232777,
0.48185384,
