// Neural Network File Format by Kyle Julian, Stanford 2016
3,29,6,64,
29,64,64,6,
0,
0,0,0,0,0,0,0,0,0,0,0,0,0,0,0,0,0,0,0,0,0,0,0,0,0,0,0,0,0,
40,40,40,40,40,40,40,40,40,40,40,40,40,40,40,40,40,40,40,40,40,40,40,40,40,24,40,3,1,
0,0,0,0,0,0,0,0,0,0,0,0,0,0,0,0,0,0,0,0,0,0,0,0,0,0,0,0,0,0,
1,1,1,1,1,1,1,1,1,1,1,1,1,1,1,1,1,1,1,1,1,1,1,1,1,1,1,1,1,1,
0.11684931,0.27577892,0.19777545,0.22315943,0.13999029,0.18129566,0.19436735,0.20623875,0.30049688,0.20473927,0.26537678,0.21999207,0.19480704,0.17276211,0.22055703,0.20834109,0.33011422,0.31780782,0.23430723,0.26308498,0.25936568,0.27516949,0.17208138,0.02710357,0.08351158,-0.00480853,-2.26952600,0.44300547,-0.01589643,
-0.26535571,-0.58936882,-0.59232569,-0.52677613,-0.33694035,-0.48979679,-0.30444330,-0.22670808,-0.11538625,-0.30665061,-0.35134479,-0.45517185,-0.62636244,-0.66198218,-0.30671474,-0.31205612,-0.79673564,-1.12366343,-0.51644677,-0.33257103,-0.56977725,-0.66083050,-0.52022356,-0.42579764,0.12839650,-0.21343222,-0.33772609,-0.79134631,-0.15311897,
0.12850913,-0.10062257,-0.17851602,-0.18509236,-0.09906372,-0.59089571,-0.09967381,0.05529921,0.01989017,0.09472818,0.18028544,0.11337554,0.34525317,0.15681593,0.24771954,0.09441876,0.01096304,-0.00447299,-0.23721847,-0.02502364,0.01936563,0.02941519,0.27942824,0.11852137,0.13929780,-0.18648762,0.19349942,-1.40857756,-0.27487227,
-0.00472620,0.16538058,-0.07309024,0.02810767,0.06144425,0.02001074,0.14677711,0.11568990,-0.19694781,0.05998698,0.02139318,0.07722356,0.11083714,0.20793642,-0.10762589,0.05831781,0.21070740,0.15182711,-0.08090658,-0.00076641,-0.05805821,0.09338643,0.09002443,-0.29623541,-0.21667841,0.37899467,-0.38531315,0.41759133,1.29830480,
0.33838618,0.14765148,0.18616761,0.34294182,0.04957933,0.32008645,0.33108544,0.19458295,0.20982313,0.11408985,0.21381459,0.26094705,0.05331313,0.33517191,0.26193750,-0.00166108,0.16839276,0.20588346,0.11765182,0.25492847,0.24947327,0.08090038,-0.16631305,-0.20694117,0.05295648,0.41268829,-0.71674353,0.47442952,0.47788951,
0.10890279,0.35770321,0.02480751,0.14507186,-0.00515608,0.22242504,0.23261550,0.38041255,0.38749495,0.47311482,0.49937442,0.46850559,0.32591724,0.31144139,0.34176996,0.43004122,0.57523501,0.51625484,0.47756532,0.41676500,0.41916308,0.20183161,0.04957615,0.44715178,-0.18194188,-0.19202279,0.05036165,-0.27657562,0.14631078,
0.06993933,-0.22965617,-0.06097381,-0.00703911,-0.29012614,-0.33414906,-0.29069051,-0.17965236,0.00912846,-0.00890542,0.02139982,0.27486858,-0.01307386,-0.06513542,-0.05136396,0.15220349,0.10036996,0.38032418,0.32597455,0.18061212,0.20379780,-0.05821890,0.09004274,0.05811822,0.07117353,0.44291562,-0.29882637,0.58001471,0.02133463,
-0.08811947,-0.37379956,-0.11567731,-0.68653733,-0.75287718,-0.74993223,-0.72294682,-0.16833283,-0.41266719,-0.40024957,-0.37689653,-0.29190600,-0.14040330,0.07312546,-0.23882878,-0.32802847,-0.92908722,-0.55846000,-0.40966377,-0.65237176,-0.43056858,-0.74614656,-0.40025482,-0.48994735,-0.01230708,-0.15449214,-0.77968073,0.14985505,-0.29636490,
-0.42534706,-0.19780572,-0.75130492,-0.13687102,-0.09297522,-0.30420527,-0.45044529,-0.32320127,-0.37228790,-0.23340251,-0.38788301,-0.21747115,-0.20838466,-0.34619310,-0.48810315,-0.17131232,-0.27727333,-0.18663342,-0.48063076,-0.45210326,-0.33688325,-0.11606385,0.11688475,-0.15394308,0.17460752,0.12909840,0.05330656,-1.12983418,-0.56338394,
-0.43367401,-0.59359699,-0.80948168,-0.52970040,-0.09844511,-0.33798856,-0.68227851,0.06040670,-0.21003008,-0.22354709,-0.69612134,-0.73899907,-0.57740015,-0.60909224,-1.01429558,-0.55002046,-0.69805723,-1.24855113,-1.10158789,-1.08302212,-1.01072025,-0.95761353,-1.05179179,0.14352986,0.19745339,-0.27811849,0.22183053,0.17278381,-0.73600483,
0.02176886,0.39643717,-0.14725015,0.16867608,-0.04225855,0.22768036,0.01511275,0.15253015,0.30418670,0.02126773,0.34401414,-0.00304997,0.16603993,0.19783135,0.14044386,0.26432133,0.02698174,0.17662874,-0.01612642,0.11792413,0.04075030,0.16101062,0.22783300,0.00433569,0.17425177,0.07402053,-0.09786277,-0.14370845,0.06728908,
0.20900446,-0.10219146,-0.08054569,0.00355232,0.06689776,0.26747817,0.00933198,-0.03057604,0.22729860,0.24847162,0.28241685,-0.04866355,0.03616985,0.04019689,-0.44253254,-0.01518073,-0.29239684,0.09672873,-0.15817986,-0.24806558,0.15270253,-0.27394095,-0.19423561,-0.16062771,-0.86386144,0.15974087,0.09897001,0.89119130,-0.15693255,
-0.14450674,-0.11475508,0.01240616,-0.30546531,-0.20622070,-0.33009326,-0.50308698,-0.29565340,-0.23182085,-0.63190228,-0.05007049,-0.61457556,-0.57912302,-0.69172871,-0.42754477,-0.72307467,-0.78742272,-0.89681000,-0.93959212,-0.69946843,-0.52916116,-0.47854510,-0.46988446,-0.13748927,0.08365226,0.39890462,-0.54177076,-0.42809591,-0.78577328,
0.10194523,-0.00279476,0.21689090,0.17493740,0.07007860,0.24198854,0.16570684,0.01945281,0.02287955,0.20818220,0.20641387,0.19200687,0.19788139,0.15869419,0.18463753,-0.01367996,0.10074014,-0.01725875,-0.06679579,-0.13453285,0.04160191,-0.12052634,-0.13951723,-0.22446394,-0.20735896,0.36771166,-0.21414199,1.15552187,0.09703321,
-0.95829028,-0.41808695,-0.76511949,-0.81854457,-0.64634496,-1.41634560,-0.63614923,-1.06729412,-0.66805774,-0.84861881,-1.01614058,-0.89685583,-0.94700223,-1.60423970,-1.08362830,-1.08976150,-1.39014363,-1.16817522,-1.45220351,-0.92537886,-1.06002975,-1.07631779,-1.17445672,-0.65905589,0.24883562,-0.01928717,-0.03344745,0.09369348,-0.40697688,
-0.57744581,-0.34665579,-0.14348398,-0.17118153,-0.30546325,-0.04264135,-0.67912298,-0.65783858,-0.37487048,-1.06696057,-0.49841130,-0.99451715,-0.61415309,-0.86851954,-0.80029821,-0.56467628,-0.81961846,-0.62755615,-0.60683095,-0.01151041,-0.28685713,-0.13703606,-0.02154098,-0.02886809,-0.20178269,0.39335808,-0.19662103,0.03872738,-1.09804046,
0.00749910,-0.01036786,0.01401050,0.07138356,0.06074076,-0.03620307,0.12283984,0.25081390,-0.04091483,0.16148293,0.11786967,0.15903538,0.27746484,0.32718158,0.01322369,0.30666754,0.34985200,0.26937631,0.22178940,0.42367125,0.27778208,0.26511544,0.16168356,-0.03537617,-0.24709128,0.40814915,-0.28729704,0.78146273,0.93117434,
-0.46848202,-0.81974763,-0.82859892,-0.42834461,-0.31649119,-0.73728669,-0.87364590,-0.75311202,-0.43970749,-0.94003493,-1.02658188,-0.95861864,-0.60544038,-0.86893296,-0.67789012,-0.71401030,-0.91718853,-1.41652751,-0.81241775,-0.87587523,-0.71428233,-0.82213116,-0.82017457,-0.92613995,0.11151623,-0.08908210,-0.02092419,-0.61004043,-1.00638473,
0.66606414,0.65021187,0.69613838,0.60086077,0.59102792,0.67432553,0.72601378,0.65850294,0.40575281,0.70000821,0.93624258,0.56327599,0.61507773,0.82582897,0.48273438,0.61601394,0.50949508,0.52883703,0.11642299,0.14196916,0.22936518,0.24269454,0.30789641,0.35944587,0.03482049,-0.07398046,0.06959149,-0.69266522,0.55927187,
-0.05875674,-0.25073013,-0.04090267,-0.24522598,-0.17497349,-0.10921334,-0.11565126,-0.25924373,-0.00252237,-0.02277652,-0.02228605,-0.01640584,0.00494689,-0.15382247,-0.21471295,-0.07658217,-0.09952249,-0.09685055,0.02576136,-0.02847133,0.13116424,0.05113300,0.08132101,-0.05820880,-0.15686886,0.24672213,0.04222716,1.03769696,-0.66889644,
-0.06440881,-0.15612990,-0.48518977,-0.47096026,-0.47132704,0.05841209,-0.20163693,-0.06000507,-0.09792444,-0.11247103,-0.13401791,-0.32226768,-0.08291510,-0.36342052,-0.21700887,-0.31082770,-0.48102796,-0.27892163,-0.24278997,-0.23899196,-0.24294336,-0.25760499,-0.31374571,-0.36342195,-0.15956911,0.36136574,-0.01000373,-0.09783857,-1.01498055,
-0.30345437,-0.47835571,-0.37138546,-0.33355385,-0.13123649,-0.44717833,-0.28228262,-0.26889816,-0.29360417,-0.49983186,-0.51502156,-0.46492973,-0.14696655,-0.55588156,-0.14864531,0.16121167,-0.70441234,-0.32715121,-0.45095637,-0.52348626,-0.34656522,0.07427678,-0.17958926,-0.13542196,0.23595017,-0.38041317,0.34433359,-1.42232466,-1.02768230,
0.00971498,0.09515303,-0.00146140,-0.00854112,-0.18521063,0.14542955,0.15234773,0.14782380,0.11214019,0.20811166,0.35521388,0.22840390,0.07917356,0.04817485,-0.00899548,0.11616715,0.09821452,0.01741903,0.13137755,0.35463238,0.23474887,-0.08725996,0.29569057,0.22204848,-0.05184704,0.42482936,-0.14035510,0.87601191,0.08070005,
0.33108482,0.42419782,0.23511489,0.34932491,0.33458796,0.50257593,0.46733972,0.31210107,0.48514357,0.30477095,0.50797218,0.53367251,0.57873714,0.69277620,0.48793072,0.54891461,0.48413074,0.46061015,0.38517404,0.43778792,0.39585873,0.30367196,0.20335387,0.17177375,0.09362681,-0.18815839,0.16447006,-0.64955580,0.72989404,
0.03619768,0.08480574,0.02529799,0.03072229,0.03377976,0.05839403,0.09617431,0.08549920,0.15376590,-0.06043755,0.13169579,0.08642276,-0.05812614,0.08688058,0.08155347,0.00122487,0.20996779,0.03117595,0.09509516,0.03852427,0.01950838,0.12971187,-0.20576712,-0.12217742,-0.01950294,0.19590904,-2.49690390,0.83231211,0.22265857,
0.03167101,0.22381587,0.05513743,-0.00833094,0.06704205,0.12257978,0.14201503,0.13677418,-0.00390900,0.05286275,-0.00055456,0.09217888,0.18343660,0.15001795,0.06514910,0.20004502,0.05376760,0.25090981,0.18709303,0.25805378,0.19421381,0.17483853,0.38589624,-0.00227485,-0.14511591,0.19222569,0.11259726,-1.66928291,0.23289409,
0.30876684,0.20339921,0.29763237,0.28727487,0.15107292,0.33144617,0.29303831,0.47396058,0.58983827,0.20407037,0.53180289,0.40624088,0.17467751,0.22588742,0.37969440,0.29112980,0.38520530,0.11232609,0.29009974,0.55170447,0.33946976,0.32265428,0.14013043,0.05437521,0.12684996,-0.12137797,-0.02995008,-0.79104877,0.46114302,
0.00987077,0.12129727,0.05902826,0.15366274,0.27604431,0.06875379,0.21116702,0.20859748,0.24499293,0.34477922,0.42891493,0.51394206,0.38513923,0.40754139,0.24841806,0.32913917,0.54881322,0.43252164,0.46929535,0.40230986,0.31807211,0.45406261,0.29534382,0.36668515,-0.44401670,-0.49717245,0.15008414,-0.21532026,0.12568130,
-0.51587081,-0.46159580,-0.18728200,-0.37006369,-0.35858744,-0.46773967,-0.39980689,-0.52522218,-0.22010948,-0.38389036,-0.42516774,-0.33237991,-0.36147690,-0.51268941,-0.42352796,-0.43632057,-0.24304035,-0.48611879,-0.32444701,-0.49493673,-0.62049627,-0.36456004,-0.09884801,-0.20987988,0.16532189,0.29169449,-0.16398972,-0.18880591,-1.03025377,
-0.26037776,0.01091802,-0.31201288,-0.01059704,-0.34809253,-0.07650027,-0.08217788,-0.22297469,-0.18504491,-0.10858253,-0.15215828,-0.26568198,-0.31278279,-0.11406769,-0.05745552,-0.04079715,-0.33409619,-0.42800397,-0.40216368,-0.45410442,-0.48458672,-0.52126271,-0.24892320,-0.07304699,0.09715855,0.11269090,-0.10421726,-1.22963071,-0.59728038,
0.28851676,0.34490934,0.18794943,0.34157383,0.38680226,0.29007438,0.40227187,0.42335901,0.27757713,0.32271898,0.48123810,0.48057762,0.51849133,0.56626689,0.28840560,0.53889889,0.43833452,0.62797314,0.42485294,0.42428714,0.40554106,0.31983775,0.22625096,-0.01419544,0.14392668,0.05114467,-0.14465477,-0.43965235,0.64900464,
-0.44074669,-0.53380078,-0.32774469,-0.64276290,-0.65819055,-0.93801945,-0.97103852,-0.39538285,-0.43287498,-0.97503763,-0.53483945,-0.77612436,-0.79788989,-0.83758616,-0.68133986,-0.93731159,-1.37865222,-1.29987466,-0.57704562,-0.99518335,-0.83030277,-0.70380688,-0.73175323,-0.74426401,0.08874128,-0.04297814,-0.96847343,0.37807691,-0.66506225,
0.27015018,0.35396072,0.24964014,0.21915343,-0.01854441,0.26958767,0.34654301,0.28658974,0.17466977,0.42328826,0.40817273,0.30720058,0.37565577,0.25257367,0.33059597,0.32958186,0.31387272,0.45323229,0.26698348,0.23680094,0.57833302,0.31203964,0.32007900,0.46734130,0.11182976,0.24711500,-0.35349128,-1.16934240,0.33061156,
0.59442860,0.53362966,0.51770711,0.65283555,0.59878129,0.75097203,0.64977044,0.70741391,0.50876832,0.75795454,0.82110786,0.49453330,0.75040275,0.98009950,0.67402381,0.68549037,0.64168501,0.77491903,0.44101205,0.58325702,0.79008764,0.53323299,0.17746896,0.14508356,0.09850842,-0.18475427,0.14137715,-0.23021235,1.51712906,
0.16104797,0.08426869,0.47728798,-0.73033375,0.28541031,0.43149850,0.09689568,0.22613230,0.16281241,-0.13091636,-0.05037388,0.16890675,0.08305342,-0.49721149,-0.34088758,-0.51901567,-0.39309615,-0.43558961,-0.13247660,-0.40996894,-0.12189786,-0.49283305,-0.58210158,0.01678734,0.04114986,0.01171205,-0.03729738,-0.00309636,-0.42562383,
0.27808571,0.05739919,0.06957742,0.16230239,0.05810235,-0.02420366,-0.00056285,0.10394998,0.04054427,0.04590089,0.03476457,0.11066260,0.21069439,0.12256405,-0.09982760,0.24990645,0.35946846,0.09288684,0.20846219,0.26489913,0.17132945,0.06973671,-0.08326329,0.11115434,-0.09326895,0.17482509,0.11574308,0.81933010,-0.21354906,
-0.10740618,-0.41862965,-0.07160597,-0.16083314,-0.34079280,-0.75152546,-0.29320347,-0.27662531,-0.37739071,-0.14596997,-0.24001646,-0.45034823,0.12630759,0.05303511,0.18684275,0.25926548,0.05943889,0.24409762,0.30945137,0.40898255,0.50504017,0.30687183,0.58179516,0.40775254,-0.12596233,-0.37494528,0.15685672,-0.01764807,-0.07909764,
0.05275730,-0.38731900,-0.37698713,0.35479918,-0.67603898,-1.07528126,-0.66936666,-0.20252980,0.14824663,0.14170964,0.25652722,-0.21972312,-0.04023357,-0.03401865,-0.10693686,-0.11905825,-0.22625205,0.28237861,0.12099346,0.20206362,-0.00054332,-0.08492836,-0.54103607,-0.17850730,0.00909483,-0.14373943,-0.84686494,-0.95425910,0.13716294,
0.40381691,0.56785196,0.50376683,0.40105382,0.22978655,0.54033810,0.42565686,0.31494328,0.26423693,0.29845923,0.36592403,0.19570215,0.27277160,0.38671145,0.55652469,0.24033716,0.04673644,0.19588387,-0.19609131,0.07852597,0.10161816,0.02852897,0.10265246,-0.19578514,-0.14484909,0.18543252,-0.12762240,-0.10081936,0.79106098,
0.33972716,0.25485954,0.16656879,0.28265220,0.08601578,0.12580819,0.19747442,0.27183783,0.13644740,0.07200948,0.40869394,0.18293141,-0.10583427,0.15140080,0.21737660,0.10841972,0.07450448,0.26301482,0.09543958,0.14949152,-0.05207857,0.17561182,-0.11939565,-0.34252608,0.03779344,0.32997623,-0.35136223,0.46906257,0.48026934,
-0.34831712,-0.02887768,-0.21969363,-0.23787983,-0.31911805,-0.45132983,-0.23792309,-0.47685802,-0.32866606,-0.51484060,-0.49374956,-0.58584172,-0.50126845,-0.57706743,-0.20289795,-0.34131449,-0.55616987,-0.41328558,-0.14790688,-0.16644621,-0.22863431,-0.48186845,-0.31553447,-0.53841436,0.37875324,0.54161221,-0.59297091,0.72981167,-0.40887406,
0.17655991,-0.02699943,0.17857234,0.06584191,0.29976538,0.15087096,-0.06535126,0.10007388,0.07569987,0.16811091,0.32799894,-0.07521892,0.13300774,-0.01599972,0.12876546,0.30700633,0.62076759,0.23990653,0.08341155,0.37918657,-0.04721643,0.27350691,0.11586851,0.17973357,0.02802556,0.28209952,-0.17359094,0.33225217,0.27389637,
-0.48873618,-0.63932395,-0.80637383,-0.79933822,-0.58364433,-0.74204445,-1.01016152,-0.66506338,-0.80809605,-0.59968370,-0.59421486,-0.68859780,-0.67586696,-0.74729323,-0.10160520,-0.55558723,-0.35493347,-0.32937652,-0.06024992,-0.37735760,-0.49680722,-0.07007286,-0.09412997,-0.12014502,-0.06356452,0.26934743,-0.14505984,0.40330705,-1.04657841,
0.46245834,0.30271697,0.36966714,0.57691759,0.45239171,0.57526636,0.49665064,0.46189949,0.48629260,0.64187026,0.42280573,0.53558373,0.45985916,0.70798069,0.73398095,0.55587655,0.78505915,0.67137134,0.39467114,0.39968038,0.68917394,0.50888413,0.33450982,0.34172049,0.10094069,-0.16319583,0.32253650,-0.73390943,0.73041779,
-0.56063139,-0.35559842,0.06779940,-0.60914546,-0.57518893,-0.41695899,-0.80986339,-0.62905371,-0.31674892,-1.12374532,-0.60546136,-0.78221679,-1.08350527,-1.36680102,-0.82587683,-0.95234722,-1.09022665,-1.15873230,-0.45932186,-1.01124370,-0.86212409,-1.28103614,-1.12169695,-0.81152332,0.07768352,0.02005243,-0.15111561,-0.80850130,-1.10228431,
-0.61779261,-0.88457465,-0.60637271,-0.51286542,-0.29833552,-0.45814601,-0.48987582,-0.40645748,-0.53126621,-0.70307869,-0.72969395,-0.87370646,-0.69910204,-0.43753237,-0.64121860,-0.64469296,-0.62880212,-0.54348117,-0.17214845,-0.76749647,-0.45326868,-0.83184201,-0.43185452,-0.58151823,0.09636050,-0.02996538,-1.73094106,0.15857121,-0.37615353,
0.00776781,0.12018857,0.05144168,0.19783013,0.07125312,-0.22107410,0.02285877,0.05074437,-0.05405226,0.05638605,0.05418374,0.07261536,0.14050232,0.12032825,-0.17348275,0.09010658,-0.01889972,0.13331416,-0.06120156,-0.01964680,-0.12948193,-0.01243591,-0.16502181,-0.29988036,-0.05687523,0.41034165,-0.36011547,0.45766100,0.27831420,
-0.21836267,-0.24191667,-0.16602333,-0.21625727,-0.20207180,-0.16638044,-0.15944082,-0.19288190,-0.04555573,-0.12169961,-0.02340455,-0.16868672,-0.07799647,-0.13914071,0.01146967,-0.46178165,-0.04174528,-0.10149555,-0.15440395,-0.07522587,-0.20542635,-0.02558585,-0.27192071,-0.24029550,-0.11248767,0.30182606,-0.19016339,0.75393295,-0.83352065,
-0.06332966,-0.40854180,-0.41116217,-0.18372114,-0.41126257,-0.49085438,-0.32698140,-0.31717753,-0.01870495,-0.73209518,-0.38059279,-0.59976566,-0.47234777,-0.50953001,-0.46633077,-0.67463058,-0.67639047,-0.78407723,-0.33796468,-0.72074467,-0.19532080,-0.37079537,-0.25281823,-0.24433491,0.05786425,0.45994356,-0.33903295,0.23063192,-0.52519917,
-0.65071672,-0.63465816,-0.66094697,-0.57281131,-0.86628455,-0.52527559,-0.37798783,-0.62921977,-0.25879875,-0.46933982,-0.71566164,-0.38328335,-0.48406795,-0.54000181,-0.12557240,-0.52383900,-0.10346814,-0.22623415,-0.06037287,-0.03375503,-0.20004950,-0.11463563,-0.16897888,-0.19513209,-0.09223317,0.39764401,-0.14447607,0.22279316,-0.86766827,
-0.50972235,-0.44239354,-0.96350449,-0.91389430,-0.63805360,-0.77576536,-0.70183551,-0.60815030,-0.60499543,-0.25347275,-0.61156964,-0.99237394,-0.17783494,-0.65698743,-0.35026795,-0.56876254,-0.27996537,-0.27452043,-0.31348971,-0.68167561,-0.32208771,-0.31882310,-0.02962510,-0.16816585,0.03949374,0.13756126,-0.10031668,0.32653213,-0.68003029,
0.54981816,0.44951963,0.43967855,0.71336401,0.35409817,0.44669604,0.59661788,0.63072860,0.33824292,0.48163280,0.61257547,0.55913585,0.36868134,0.77450770,0.46878424,0.48410964,0.49219558,0.58266485,0.33809999,0.57064700,0.57115567,0.51140565,0.39761552,0.09957324,0.10237419,-0.19667649,0.13623506,-0.51109815,0.58749998,
0.45245722,0.36838776,0.32906115,0.64435017,0.39279997,0.48562422,0.48374549,0.65322870,0.41409269,0.52839178,0.67496276,0.55176479,0.51732373,0.44005290,0.62671578,0.35952729,0.19028683,0.63393486,0.40394336,0.11087634,0.25602815,0.31327516,0.08928503,0.04192675,0.07204526,0.02518370,-0.07423126,-0.38807988,1.06467021,
0.26984638,0.32415512,0.40865704,0.16788441,0.28064308,-0.24305004,0.26830599,0.15741445,0.34007177,-0.02067528,0.14712624,0.28771427,0.09857540,0.09385820,0.13489991,0.12027087,0.22050412,0.02391800,0.32878304,0.07291142,-0.01570518,-0.17938159,-0.21113862,-0.09746444,-0.18963727,0.35468054,-0.23142508,0.61429095,-0.05377952,
0.22816190,0.21450511,0.45657620,0.46233231,0.18073101,0.32170317,0.38505971,0.44366375,0.30200687,0.38627064,0.51515490,0.66670614,0.58121336,0.21444507,0.18975775,0.51802200,0.46019900,0.29893732,0.14422941,0.03224432,0.10100355,0.10607274,0.18495117,0.01885501,-0.53248936,-0.04600279,-0.38455340,0.28150806,-0.03341378,
0.50329614,0.48253217,0.36968797,0.41376373,0.34961849,0.48836154,0.25516638,0.47634214,0.48412651,0.43065929,0.57958335,0.59897619,0.62637013,0.70312959,0.38078755,0.46287754,0.46033666,0.61609989,0.51801473,0.54738188,0.38887656,0.44815770,0.20418872,-0.55636531,0.13557169,-0.23932077,0.06958107,-0.86130166,1.02322900,
0.04130483,-0.39312765,-0.00140311,0.09854170,-0.12699507,0.04242666,-0.28972834,-0.16508642,0.31341004,0.14197665,0.20403975,-0.10876878,-0.20299062,0.09713162,0.13932109,0.19455045,-0.02730551,0.20906591,0.07433935,0.36656740,0.37021443,0.10006776,0.06744307,-0.04896974,-0.02274592,0.24020341,-0.32911858,0.02878833,0.86087430,
-0.27575234,-0.44658667,-0.54529423,-0.44111985,-0.31704974,-0.39703843,-0.25708139,-0.20960371,-0.28819302,-0.93089813,-0.46567380,-0.60967612,-0.27977741,-0.62253225,-0.59716356,-0.53960496,-0.71079767,-0.70109326,-0.18477061,-0.47015026,-0.40487218,-0.73599458,-0.44542512,-0.04097267,-0.01970446,0.51316351,-0.37180120,-0.40003568,-0.33675784,
0.46696034,0.45592454,0.39800951,0.42961544,0.23888893,0.53101206,0.44273910,0.45135847,0.43079516,0.45723781,0.57623971,0.52861857,0.51908201,0.64203215,0.37153399,0.47824150,0.81983495,0.62806183,0.35224146,0.39432296,0.36828580,0.64157826,0.25074127,0.13001294,0.07673147,-0.13845401,0.01427026,-0.55230212,1.17561758,
-0.32364711,-1.08842385,-0.53362328,-0.45345587,-0.37003452,-0.60430199,-0.61309958,-0.76668352,-0.68780303,-0.05630203,-0.37208176,-0.04998304,-0.62523341,-0.63448125,-0.04795339,-0.25121567,-0.84745610,-1.19392705,-0.39762026,-0.61903888,-0.25024840,-0.38086596,-0.46986791,-0.58490241,0.06958136,-0.14812313,-0.11744758,0.70981163,-0.07972869,
-1.01894188,-1.12246907,-0.91920716,-0.46665958,-0.57369351,-1.03746426,-1.67013955,-0.91803360,-0.87601072,-1.17094660,-1.04202783,-0.81551820,-0.80762517,-1.38726926,-1.20149946,-1.65683603,-1.43040800,-1.14563274,-1.17974734,-1.23402333,-0.53839880,-1.56955945,-1.20417833,-0.51002771,0.15694292,-0.15768114,0.08466120,-0.32925349,-1.16427207,
0.49243906,0.19657327,0.45176265,0.17188010,0.24294977,0.24743502,0.14677031,0.23514593,0.34140107,0.25173020,0.24909484,0.39802063,0.34157890,0.39809242,0.27308816,0.29578054,0.33525896,0.38832444,0.38048083,0.36770499,0.27598748,0.41155583,0.34088960,0.37998301,0.07219694,-0.49198779,0.15068078,0.08533488,-0.33528295,
0.54835838,0.42697826,0.59537530,0.60159379,0.57271492,0.54669559,0.60014439,0.62745589,0.53895432,0.57598025,0.59786481,0.55766350,0.53831106,0.90026647,0.41667476,0.61832535,0.60463017,0.79420370,0.54442519,0.60335559,0.45136485,0.71105665,0.47571516,-0.01979765,0.08907200,-0.12465091,0.02467175,-1.10440195,1.01307726,
0.50848532,0.04190405,0.61953574,0.40964007,0.30597553,0.54106039,0.33684260,0.40445843,0.33114550,0.43911397,0.47869238,-0.09258651,0.41895604,0.69128841,0.50794834,0.42571741,0.50445449,0.38046455,0.15143013,0.49099877,0.62362909,0.63564092,0.45758307,0.16199934,0.10517810,-0.15612689,-0.14115298,-0.70392412,0.63507599,
0.20729151,
-0.06179192,
-0.05479626,
-0.03110316,
0.02031166,
0.24429998,
0.25062221,
-0.04113050,
-0.20300108,
-0.08895686,
0.55869818,
0.27434522,
0.15073201,
0.09808088,
0.08859802,
-0.10538790,
0.18562248,
-0.35602674,
0.33669218,
0.02121910,
0.01378388,
0.10046797,
0.33970401,
0.57053608,
-0.29416704,
0.12109206,
0.19681367,
0.50071067,
-0.14014766,
-0.15407227,
0.22411105,
-0.22806363,
0.36313942,
0.37099159,
-0.04936584,
-0.20123740,
0.28992856,
0.06363676,
0.59978348,
0.24639545,
0.12591687,
0.11336505,
-0.24535085,
0.22707903,
0.03546189,
-0.18338919,
0.09741991,
-0.21327811,
-0.06547668,
-0.34067810,
-0.10052861,
0.54420006,
0.30508131,
0.14211237,
0.31937462,
0.33048218,
-0.28965545,
-0.08549755,
0.33656678,
-0.14620440,
-0.16147351,
0.45317695,
0.39436787,
0.24988368,
-1.06790745,0.53844661,-0.08318779,-0.45566308,-0.48514453,-0.42615411,0.21233112,0.42884052,0.03789509,0.73815930,-0.06077235,-0.20837437,0.04372137,0.18914892,0.87521255,0.25847435,0.15623230,1.14767110,-0.93754756,0.35131890,0.17275256,0.25086534,0.05416455,-0.74283016,-0.68831849,0.08432351,-0.30911595,-0.60251135,0.25506344,0.09254877,-0.48438266,1.26595843,-0.90317547,-0.92476344,-0.02365778,-0.02401602,0.10771406,0.14592847,0.16050263,-0.58853471,0.12878013,0.16360402,0.33918899,-0.43513408,0.85267431,1.06986165,-0.35124233,0.19186737,0.11866435,0.30654502,0.28516519,-0.79483813,-0.18940485,0.02970352,-0.28404087,-0.91301650,-0.26083642,0.39446929,-0.60817891,0.31357768,0.87079287,-1.19673884,-1.71918428,-1.18141091,
-0.16237040,-0.23806246,-0.13431920,0.65038764,-0.16972147,-0.14358310,0.27098176,-0.10680359,-0.01758401,-0.33729917,0.19919753,0.11888034,0.00654974,0.16549031,0.16774319,0.04781578,0.15738051,0.91511422,-0.05783748,0.09058715,-0.00536567,0.03863679,0.34055471,0.03019492,-0.47134003,-0.30622968,-0.01217354,-0.11279915,0.06605726,0.27572724,0.41188458,0.67548835,0.09995386,-0.13814154,0.09393248,0.01291986,-0.07284835,0.06809032,-0.14222699,0.00316310,0.17040400,0.38424978,0.07234451,0.01662542,0.40625116,0.87586218,-0.25170454,0.00996104,0.17886715,0.02146589,0.07625068,0.07182622,0.22192556,0.14837022,-0.45363227,-0.05928506,0.33493862,0.25047621,0.13819443,-0.14786798,0.14275596,-0.12904526,-0.07076777,0.01657685,
-1.06462789,0.79494512,0.09891178,-0.34234202,-0.52434117,-0.42619708,-0.06836449,0.61029726,0.13248171,0.84138125,-0.09120134,-0.03223339,0.09145913,-0.18017626,0.80807447,0.18728991,-0.34104222,1.14644778,-1.02615774,0.14512724,0.05756273,0.51853669,0.06455341,-0.66581917,-0.58486676,-0.03471358,-0.33262268,-0.78042895,0.21823786,0.20047392,-0.41049629,1.37913597,-0.76663232,-1.11701810,-0.05977022,-0.12318504,-0.18332201,0.41534072,-0.01077482,-0.47052303,0.25541067,-0.00539986,0.29868343,-0.49651092,1.00077677,1.23995948,-0.46301696,0.03445633,0.18307133,0.28108916,0.16682513,-0.80084354,-0.21309406,-0.21699847,-0.25010940,-0.77007914,-0.21828222,0.29882798,-0.76060313,0.48821199,0.94343072,-1.16591227,-1.45320845,-1.10887873,
1.11088955,-0.47625864,0.10310765,-0.58966976,0.32755265,-0.15696129,-0.11926442,-0.72285259,0.01808978,-1.23110902,-0.14952733,-0.08220015,-0.12253551,0.16470136,-0.53211355,0.04092003,-0.23906673,-0.95968115,0.28589830,-0.02558188,-0.13567370,-0.60371995,0.27774885,-0.03531494,0.45760706,-0.08696914,0.19719341,-0.34502336,-0.09356299,0.08367103,0.35491937,-0.92175025,0.43250418,0.16093548,-0.01434797,-0.01102444,-0.39325973,-0.66796893,-0.18908453,0.44255951,-0.17665040,0.37562045,0.09842748,0.14540365,-0.46042982,-0.93911153,0.37863848,0.07188322,0.03856023,0.08025450,-0.07626109,-0.03115812,0.06941096,0.23051228,-0.34814042,-0.01426367,-0.39739922,-0.05241383,-0.09662441,-0.42628285,-1.15637469,-0.45085832,0.22985971,-0.05690287,
0.21445915,-0.48813739,-0.23567876,-0.46605721,0.31383795,-0.73569697,0.19902985,-0.09279904,0.03948219,-0.59998256,-0.56292379,-0.13865152,-0.09073747,0.29845682,-0.63098210,0.27703437,-0.00096395,-0.80679107,-0.40436015,0.34913278,0.31330568,-0.72840577,0.15558667,-0.74337775,0.36737335,0.23206067,-0.18445466,-1.05013263,0.17291588,0.00888472,-0.46371123,-0.96267897,0.51150185,-0.49561930,-0.26210794,0.19990599,-0.28663349,-0.13532014,-0.48830789,0.36835524,-0.11075739,0.01704690,0.30773479,-0.32745546,-0.88987929,-1.10204375,0.48794237,0.20739892,-0.14066629,0.29554135,0.12442134,-0.48736355,-0.23494132,0.16749662,-0.45969468,-0.83545673,-0.04009845,0.13561560,-0.52921337,-0.16905366,-0.64364934,-1.53985453,-0.48717037,-0.13932195,
-1.72191775,0.24063782,0.14719741,-0.42593339,-0.70521092,-0.08156443,0.22719817,0.19983178,0.06879045,0.20353417,0.38469642,-0.52074885,0.07099271,0.04190428,0.44069606,0.16382086,-0.79429680,1.10594773,-0.11145459,0.01862225,0.16077486,0.11718231,-0.19089869,-0.16798434,-1.22778320,-0.09193230,0.21605846,-0.45422274,0.22190164,0.13494927,-0.06725184,0.99029213,-0.38308063,-0.41945413,-0.05794802,0.13862509,-0.08542417,-0.13851182,-0.45468122,-0.61938655,-0.15397540,-0.02624127,0.20615123,0.04247312,0.78261697,0.93621796,-0.38599399,0.11457041,0.45983231,0.09426206,0.12306808,-0.30738971,-0.01173216,0.01067254,-0.24813585,-0.42751661,-0.24160443,0.23474415,-0.34246197,-0.06393816,0.61110789,-1.12003827,-0.97670245,-1.08459425,
-1.27470636,0.57503843,-0.16312194,-0.39860848,-0.44010636,-0.24223278,0.24341489,0.58546329,-0.01514558,0.60656178,-0.15145369,-0.30797702,0.01405136,0.12297679,0.62993777,0.28726310,0.21974091,1.01509595,-0.81131804,0.32561752,0.13573849,0.12096906,0.16370118,-0.55994439,-0.87409401,0.01164059,-0.16493081,-0.74395961,0.19872117,0.00919774,-0.27197134,1.45366168,-0.81686401,-0.80959445,-0.03005824,0.10505199,0.18370707,0.09344576,-0.11370832,-0.50037909,0.05885480,0.09790767,0.34004247,-0.36552966,0.68685579,1.17029929,-0.46371928,0.16015771,0.33791775,0.29113507,0.28467751,-0.46327418,-0.27478573,-0.04701661,0.20873858,-0.73604935,-0.11579388,0.39607203,-0.47848183,0.33076251,0.80305392,-1.02536404,-1.56128597,-1.03535223,
-1.40180826,0.49015284,-0.01230019,-0.40166223,-0.54176593,-0.15675595,0.01326356,0.55407315,0.16264550,0.70046186,-0.16439173,-0.04584905,0.27109092,-0.20329036,0.62853873,0.26319247,-0.35949448,1.15225804,-0.52302158,-0.04993511,0.10851023,0.52490723,-0.00875098,-0.21461406,-0.84738845,-0.04197243,-0.19850482,-0.41261986,0.04038076,0.18242763,-0.06888065,1.37203646,-0.74670756,-0.86172706,-0.07780349,-0.08045891,0.00074987,0.38819885,0.19300665,-0.69458330,0.29646832,-0.00581901,0.08191277,-0.22927882,1.02869213,1.01913095,-0.44289654,0.12924083,0.18545242,0.08232369,0.20413117,-0.47053361,-0.08624123,-0.18125167,-0.04851717,-0.43768045,-0.23231532,0.20257805,-0.68874520,0.26842582,0.92047477,-0.95736593,-1.26425207,-1.01761055,
-0.53522760,0.71913654,0.02951558,-0.06399888,0.03966240,-0.15377049,-0.08477756,0.63060516,0.09637137,0.31451172,-0.01113947,-0.04805679,0.12305740,-0.30034080,0.00580243,-0.01743884,-0.02684207,0.05797850,-0.10529391,-0.27900961,0.14437971,-0.08273161,-0.19141637,-0.66908056,0.10795333,-0.11223423,-0.24790010,-0.36340183,-0.02639839,0.03102630,-0.42780095,0.43001202,-0.07309207,-0.22604364,-0.04239461,-0.45049480,-0.16661794,0.45166397,-0.04246410,0.05267059,0.11788011,-0.30868995,0.06067628,-0.33562469,0.06707852,0.10658249,-0.05120864,0.01254418,0.08088519,-0.15127642,-0.12744908,-0.47658086,-0.32664531,0.03584890,-0.16202283,-0.12157169,-0.01374678,0.05871882,-0.28625888,0.22768183,0.05596502,-0.54393643,-0.05999518,-0.10060115,
-1.39428985,0.59624964,0.43787464,0.19056050,-0.62299925,0.93072391,-0.19758098,0.43686077,0.21419235,0.43990234,0.01302261,0.17638385,0.25062162,-0.19467548,0.92125452,0.53123635,0.46578282,1.29726624,0.26986349,0.11918339,0.00199676,0.37945542,-0.20265463,-0.02866436,-0.97452450,0.22538313,0.01483251,-0.01973010,0.12033086,0.28762877,-0.13005543,1.54928386,-0.73838001,-0.19951428,0.09113476,0.14796291,0.09080225,0.30748713,0.03673481,-1.06851137,0.36033434,-0.12452039,0.21689734,0.18251877,1.15366411,1.28920305,-0.63022888,-0.04279544,-0.07798938,0.23787776,0.35080528,0.02986005,0.10877066,-0.19220628,-0.13332812,-0.13816127,-0.16460370,0.17101425,-0.14167789,0.26999497,0.92978853,-0.29319257,0.10100559,-0.30505621,
-1.26319349,0.26661912,0.13335460,-0.45737714,-0.57274634,-0.41837412,0.10962667,0.42909989,0.21690378,0.46225554,0.05200285,-0.39331385,0.23923492,-0.06628538,0.79601508,0.13835354,-0.61918229,1.04250658,-0.25841832,0.13105467,0.05515859,0.15931083,0.04688796,-0.18866162,-1.00323892,-0.19209687,0.21454051,-0.18497840,0.10617001,0.00624669,0.17691661,1.27555001,-0.61851412,-0.38703480,0.07167167,0.19398616,-0.25746068,-0.10553781,-0.56460398,-0.82093602,-0.07082812,0.11804587,0.19031966,0.12078071,1.01319838,1.02580416,-0.59844649,0.05879753,0.17481056,0.08204047,0.29574937,-0.17320167,-0.08411650,-0.05251016,-0.39252320,-0.34816825,-0.22944260,0.24011597,-0.40778759,0.27996644,0.91011781,-0.04068638,-0.88212484,-0.84616530,
1.04786849,-0.39792335,-0.28880480,-0.76985168,0.45535177,-0.63154387,0.37790355,-0.49631912,-0.05939255,-0.58732951,0.00793489,0.03624791,0.08578474,0.31582183,-0.41741690,-0.22746973,-1.03454113,-1.00938094,-0.30868256,0.28032848,0.07950436,-1.16407263,0.46450183,-0.44055510,1.01304555,-0.27926272,-0.20028441,-0.52145857,0.05536877,-0.11960592,-0.18624462,-0.90681356,-0.12553233,-0.08787356,-0.09289964,0.20875831,0.11741430,-0.71126175,-0.92046785,0.24653374,0.29789963,0.40963617,0.10607753,-0.31149590,-0.61839432,-0.41073307,0.17318498,0.25569144,0.21522763,0.16864607,0.10251164,-0.50485486,-0.22049892,0.06499846,-0.02140306,-0.43792754,-0.42747086,0.24438339,-0.29496175,0.03511086,-0.76956099,-0.89171082,-0.54567528,-0.59486973,
-1.10016775,0.69550365,0.15633312,-0.44930902,-0.32142442,-0.23977564,-0.13406675,0.47002953,0.18758166,0.72035676,-0.12050207,-0.20564818,0.35677978,-0.59184605,0.90526760,-0.05059380,-0.73561156,1.03127980,-1.10543466,-0.26673910,0.07289408,0.78653449,-0.18756881,-0.75658703,-0.66891140,-0.33936271,-0.55825639,-0.46223632,0.20297115,0.01204107,-0.10201824,1.48134911,-0.55814874,-1.22386503,0.02930269,-0.26683229,-0.27384767,0.14734834,-0.50176156,-0.68526447,0.26557642,-0.11407880,0.20819964,-0.55470389,1.18852699,1.36696160,-0.32295039,-0.02489612,0.18314284,-0.02494195,0.27441210,-0.87806505,-0.34907168,-0.41951522,-0.12609743,-0.77482194,-0.11457676,0.29628819,-0.73348147,0.32788718,1.03432524,-0.66258734,-1.28254104,-1.08831728,
-0.19567759,0.55446482,0.00325502,0.54575169,0.11753087,-0.36709055,0.36983776,0.30368638,0.29034305,0.57799506,-0.16977559,-0.39688924,0.33473825,0.20834346,0.73637462,0.37317625,0.07150524,1.12074292,-0.10332057,0.05993541,0.21988933,-0.16075552,0.25295901,-0.67546171,0.09809186,-0.08006509,-0.12334762,-0.94644666,0.39508668,0.25464860,-0.03267934,1.55623889,-0.10530499,-0.44258970,0.06455687,0.04898904,-0.37209681,0.51735413,0.13460965,-0.13360474,0.28814441,0.13348252,0.47924533,-0.30943191,0.61840916,1.14185774,0.13942410,0.31778094,0.35124978,0.45618463,0.18097614,-0.37521943,0.10933882,0.30326429,-0.47182512,-0.47290564,0.29797465,0.50450510,-0.30972031,0.41295737,0.65751010,-1.70002401,-0.10933832,-0.45609087,
0.82891136,-0.58557957,-0.01523130,-0.45803913,0.16860676,-0.21523118,0.11949985,-0.45025137,-0.03086999,-0.80951244,-0.03704458,-0.19156158,0.01778392,0.30540311,-0.68416274,-0.03774968,-0.07999424,-1.04374981,-0.16235600,0.00994339,0.01924716,-0.65504932,0.32270694,0.03103897,0.57136810,-0.14650398,-0.05046591,-0.09848242,0.07574202,0.03226570,0.10433456,-1.15132999,0.22351865,-0.09933828,-0.03786277,0.04240703,-0.42277646,-0.39280093,-0.08838756,0.38649818,-0.15854806,0.34393153,0.05913611,-0.12627020,-0.57340628,-0.60666257,0.34839883,0.13003078,-0.01817537,-0.06147232,-0.19115943,-0.02735432,0.13440283,0.13842767,-0.09908313,-0.17262192,-0.09767873,0.04425324,0.07323147,-0.32521001,-1.15411711,0.06935670,-0.10435854,0.22694845,
0.53887719,-0.62974787,-0.24581903,-0.03889200,0.16348454,-0.59975868,0.24475092,-0.36038643,-0.17691939,-1.02433169,-0.41958365,-0.13361093,0.13683595,0.27542594,-0.09228615,0.16537227,-0.30451569,-0.87130135,-0.30468425,0.29138061,0.12597430,-0.97115588,0.29590875,-0.86450136,0.73719496,-0.38684952,-0.01756778,-0.65844285,-0.11052141,-0.17577533,-0.20962211,-0.90230656,-0.11695560,-0.29337734,0.08797148,0.17584239,-0.00295701,-0.52423102,-0.08529498,0.21298283,0.26745215,0.16407590,-0.08093685,-0.45265567,-0.47479141,-0.69479346,0.30418754,0.10926071,0.25287303,0.05953258,0.05167464,-0.53929764,-0.21843098,0.29329836,-0.46191603,-0.74003041,-0.05389921,0.18816558,-0.47796467,0.00539764,-0.60135257,-1.11819947,-0.39619279,0.06505787,
0.59140062,-0.30625159,0.11236370,-0.74529999,0.08092632,0.00754507,0.12751938,-0.33000916,-0.03240499,-1.46384180,0.15965392,0.14712973,0.12003984,-0.03034814,-0.44590762,-0.19452491,-0.31102905,-0.89226508,0.18624745,-0.07535075,0.15038846,-1.40058744,0.10488029,0.15971652,0.50364953,-0.05597889,0.04508510,-0.15435117,-0.02801185,0.02564460,0.31709057,-1.11274838,0.09788296,0.03195798,0.08453135,-0.08463874,-0.47974959,-0.60334516,-0.08476716,0.27986503,0.13490425,0.10538774,-0.15919204,-0.04691929,-0.41190535,-0.75560224,0.11781731,0.02728933,0.24431705,-0.03347637,-0.21504258,0.21343596,0.12638360,0.16966598,-0.09214181,0.04264281,-0.44455236,0.02318552,-0.06353565,-0.40223852,-0.98092848,-0.10890633,0.23053087,-0.10779408,
0.21823163,-0.11875298,-0.00396861,-0.21538518,0.15068962,0.07524125,0.12669063,-0.12750857,0.06071912,-0.41867808,-0.32602271,-0.22018895,-0.42571172,0.27187955,-0.08135688,0.16918552,0.53081101,-0.63530618,-0.54061514,0.40082335,0.04315058,-0.56028205,0.27576405,-0.22617795,0.49743006,0.08445914,0.01276262,-0.82065773,0.28535151,-0.11286970,-0.42089382,-0.65385395,0.19980241,-0.03284830,-0.83595908,0.22152306,-0.20514090,-0.23228097,-0.37138250,0.19984926,-0.31424686,0.34036514,0.30359620,-0.19376120,-1.19151258,-0.24159639,0.15910284,0.43788436,-0.12436176,0.45191935,0.18505001,-0.23219918,-0.20647418,0.07326400,0.35659331,-0.06101023,-0.09676016,0.07543414,0.01257544,0.25737572,-0.36264399,-1.69096315,-0.08321142,-0.00066120,
0.59922278,-0.59128684,-0.17043178,0.34304208,0.02852224,-0.63443148,0.10396164,-0.30619171,-0.11128674,-0.23364328,-0.26384518,0.08204205,0.03645429,0.12917389,0.18700156,-0.17948048,0.17968041,-0.10507359,-0.27568322,0.10656644,-0.09684709,-0.34672236,0.18847877,-0.71321636,0.84618002,-0.50080633,0.23138428,-0.64154691,0.00764934,-0.13885313,-0.22630517,-0.73286849,-0.07475150,-0.38141146,-0.07573354,0.01248305,0.04037820,-0.48024094,0.06599854,-0.04659664,0.23858321,0.25760579,-0.03912054,-0.45623365,0.01827147,0.01994017,-0.00968263,0.09731302,0.04734359,0.11334104,0.08889192,-0.45368645,-0.10283605,0.06115056,-0.27901632,-0.23311408,0.01231081,-0.01593135,-0.25225106,-0.12031884,-0.03464986,-1.17126310,-0.27391145,0.19828802,
1.38546288,-0.36886564,0.16578358,-0.67923909,0.30924624,-0.32268298,0.30796108,-0.54735553,-0.06419398,-0.61956382,0.08023760,-0.08898877,0.26217443,-0.04036010,-0.24219643,-0.16246395,-0.92900324,-1.00214005,0.06696727,-0.02276899,0.09729844,-0.85131675,0.65507621,-0.45816442,0.79827917,-0.58979386,-0.43562096,-0.29728371,-0.00366464,-0.01682948,0.50350434,-0.94232899,0.24586016,0.15060678,-0.08378995,-0.06775092,-0.64788914,-0.44410637,-0.84686989,0.25128374,0.44783819,0.65927351,-0.09351760,-0.11917891,-0.60664952,-0.47594571,0.12767716,-0.05323690,0.29297841,-0.07727903,-0.14233461,-0.19963989,0.26140279,0.12710862,-0.60666060,-0.14003968,-0.46038803,0.13362786,-0.13977379,-0.11941314,-0.80096912,-0.78739673,0.39715132,-0.43749091,
-0.40936306,0.72810608,0.18836616,0.05660000,0.02911926,-0.32412869,-0.25587076,0.59021419,0.08498080,0.58432013,-0.06748368,-0.13846529,0.09719653,-0.47007895,0.20438409,-0.03651322,-0.16924611,0.01463819,-0.09396918,-0.01305919,0.20889325,0.09552220,-0.43866944,-0.46616769,0.11393824,-0.06874465,-0.02340897,-0.13708577,0.12785359,0.10911247,-0.36548385,0.50720096,-0.08244217,-0.15649325,0.00906101,-0.19598316,-0.29584330,0.55336601,-0.16812593,-0.21546733,0.14300518,-0.32331416,-0.10447115,-0.30546203,0.25456789,0.04531008,-0.02438619,0.09464867,0.04966018,0.17226098,0.11163854,-0.34313539,-0.59603512,-0.18894370,-0.28700769,-0.18765560,0.07763082,0.00015603,-0.12482675,0.41127789,0.39979768,-0.56068146,0.00375963,-0.06407171,
-0.05881136,0.36375073,0.06931531,0.30450186,0.16342773,-0.39903203,0.12053924,0.01804294,0.10502947,0.46133122,-0.05744303,0.07671790,0.16694714,0.37297484,0.44283408,-0.13711849,0.01566913,0.96630907,0.23688202,0.11885262,0.45596772,0.01586978,0.39856410,-0.04497593,-0.24192828,-0.15079176,0.06850235,-0.64946550,0.21905290,0.10174932,-0.06224363,1.44068778,0.02443277,0.12572809,-0.00694777,0.01654179,-0.81836635,0.03659085,0.20531963,0.03274031,-0.08560821,0.16746765,0.13607049,0.02439075,0.44917858,0.97940958,0.09561478,0.21634480,0.19568411,0.23634210,0.07400442,0.11456202,0.09313434,0.22244436,-0.30082762,-0.06313466,-0.01469226,0.31581455,-0.14730968,-0.00616513,0.43505806,-0.31590769,-0.28660318,-0.12056530,
1.02531946,-0.56329691,-0.43455410,-0.01719585,0.24097537,-0.15386295,0.15901846,-0.23988278,-0.14872411,-0.54324567,-0.28594476,0.26730487,-0.06627661,0.13926797,0.02801316,0.06671862,0.14384121,-0.28479537,-0.36747679,0.05858393,-0.25121537,-0.51590979,0.26228824,-0.75655055,0.88798839,-0.48115540,-0.32550901,-0.41947502,-0.18251292,-0.21561821,-0.25928456,-0.21432763,-0.17250937,-0.26052541,-0.00112031,-0.09485014,-0.04011962,-0.41025862,-0.03783011,-0.08653291,0.24213287,0.19568893,-0.06388573,-0.60260439,-0.13342501,0.26559755,-0.10977901,0.09150720,0.04194024,-0.06143436,-0.06236582,-0.41181028,-0.28848314,0.11338565,-0.00503782,-0.64545506,0.05366509,0.04150373,-0.22718796,0.04971416,-0.14239021,-0.56342441,-0.44852984,-0.27882111,
0.72459263,-0.50892687,-0.15316407,-0.47885969,0.35033503,-0.15760614,0.06008926,-0.26903379,0.01752145,-0.79589343,0.04765014,0.12674752,0.02241112,0.16517660,-0.65688711,0.03789002,-0.23356155,-1.17405462,-0.13418467,0.17509168,0.17804769,-0.97846788,0.32884648,-0.06338094,0.78367579,-0.12088067,-0.23728070,-0.10342477,0.11154159,0.05997125,-0.08619814,-1.08548963,0.28132731,0.02662982,-0.17348675,0.08894452,-0.01475777,-0.62063497,-0.35322070,0.20788033,-0.07134200,0.10461359,-0.03603366,-0.24750662,-0.54926991,-0.62631583,0.31994203,0.19447526,-0.04037851,0.10444839,-0.00671211,-0.26396015,-0.11094982,0.13904913,0.16208912,-0.12043440,-0.17252696,-0.07702965,0.08094998,-0.14553444,-0.99442029,-0.14905827,-0.17244093,-0.02515225,
-0.39840272,-0.25796959,0.05280802,0.65848535,-0.20561372,-0.01441115,0.20931898,-0.03639608,-0.00451408,-0.48673636,-0.02349226,0.19372499,0.15964518,0.13973600,0.46443546,0.00869298,0.03709593,0.85424602,0.09201903,-0.05025748,0.09199985,-0.08112248,0.39157221,0.02832603,-0.43030030,-0.05404869,0.05439455,0.07209773,0.00862968,0.08984908,0.42112797,0.50253296,0.00902328,-0.23520873,-0.02371730,-0.00320022,-0.31708035,-0.00467734,0.06096296,-0.07256368,0.28976622,0.36336419,0.08868960,-0.14473529,0.51050776,0.84959495,-0.08045934,0.18564275,0.07616448,0.09196050,0.04323787,-0.12167470,0.12681657,0.33306274,-0.55626029,-0.00101900,0.17579652,0.30682868,-0.09307097,-0.25210118,0.00709463,-0.17029308,0.29336774,-0.01089651,
-0.73610538,0.73050445,0.12481174,-0.04393275,0.03328160,-0.30877882,-0.03427555,0.38463169,0.00477902,0.43808430,0.04425271,-0.06486097,0.04326886,-0.26099792,0.26455450,0.11641973,0.07072885,0.18099052,-0.07565273,-0.19070028,0.11178889,0.07550518,-0.17883354,-0.54682505,0.12615113,-0.00760125,-0.09557661,-0.16820337,0.12781367,0.12455106,-0.48951286,0.61965990,0.03120121,-0.24446538,0.03708110,-0.31224039,-0.16734996,0.56953377,-0.11961877,-0.31089884,-0.06140197,-0.39621520,0.00799709,-0.28289831,0.20513557,0.09600599,0.13417935,0.10455076,0.04559918,0.09252731,0.00561815,-0.35517818,-0.16045451,-0.28854549,-0.25729588,-0.03969939,-0.07663543,0.05448619,-0.13038529,0.38001376,0.32665890,-0.59255570,-0.02682450,-0.15400292,
1.04943001,-0.54817271,0.21169271,-0.69838691,0.27001897,-0.48568425,-0.16138500,-0.50554746,-0.04270277,-0.04391702,-0.04003966,0.00897550,0.07831264,0.05575671,-0.64143056,0.14314121,-0.17276709,-0.80339319,0.06413086,0.12804472,0.14833054,-0.17952506,0.26991701,-0.00814987,0.66193622,0.08166630,0.10639294,-0.37468949,0.11303215,0.04499824,0.16737208,-1.08587790,0.34149522,-0.12146827,0.12559740,-0.00853928,-0.55979711,-0.08455173,-0.06729356,0.24287452,-0.11984675,0.10739572,-0.02400784,0.17818883,-0.42644837,-0.56537354,0.13770585,0.11265215,0.01711242,0.03230616,-0.04975091,0.09953769,0.15189968,0.09988846,-0.26583794,-0.14974409,-0.34929743,-0.11699887,-0.15903877,-0.37610996,-0.67734325,-0.39097255,0.13221702,0.04876041,
0.72959024,-0.64155000,0.05691309,-0.51580542,0.26936617,-0.01338865,0.01444018,-0.43545327,0.12595828,-0.10648167,-0.21555990,0.01702833,0.08638539,0.05817909,-0.65954089,0.00137765,-0.04154973,-0.90838909,0.15486008,-0.05607759,-0.03891659,-0.01031040,0.13422650,-0.02352218,0.45234272,0.10531410,0.05058338,-0.19363005,-0.03649713,0.06524765,0.15863672,-1.25037301,0.22957940,-0.04812527,0.06103932,0.12482358,0.05087913,-0.31459242,-0.12011246,0.26298773,-0.07310986,0.22213018,-0.07432205,0.18904269,-0.40443322,-0.84372276,0.25407305,-0.06707022,-0.08992410,0.15524092,0.06956410,-0.08353515,-0.05851996,0.00456986,-0.20872515,-0.04322935,-0.27399969,-0.03308467,0.00581149,-0.37831300,-0.60149032,-0.65007657,0.10482240,0.12958340,
0.93089640,-0.40352026,-0.43317083,0.40950170,0.09269987,-0.32533959,0.03957942,-0.43299294,-0.24554378,-0.29340249,-0.16240257,0.02641835,0.15589178,0.07283701,0.06008018,-0.13016331,-0.11409432,-0.48920864,-0.07113629,-0.04111965,-0.05459370,-0.99873137,0.23888266,-0.35749263,0.69215882,-1.02738881,-0.46175563,-0.42313290,-0.07242337,-0.08411837,0.12745568,-0.10213202,-0.28164458,-0.10411143,0.21844813,-0.20422550,-0.05598272,-0.43013889,0.20436859,0.30949903,0.03415288,0.40590516,-0.21017891,-0.33200771,-0.15891303,0.17007461,0.13163283,-0.05187808,0.07212100,-0.13867940,0.03544244,-0.47833312,-0.13770223,0.14085501,-0.29130527,-0.46961004,0.08755430,0.12443766,-0.44329751,-0.06657471,-0.05503045,-0.46862000,-0.37123567,-0.11446620,
-0.16659079,0.49961117,-0.00215199,0.34639615,0.28756344,-0.39689985,0.13219102,0.18003067,0.32818207,0.49862376,0.15502065,-0.05397161,0.25714582,0.31480038,0.57907504,-0.06353990,0.11225832,0.90773267,0.39563787,0.12570339,0.53322065,0.02310026,0.10171666,-0.11433713,-0.05027608,-0.02796451,0.19281641,-0.93386006,0.26631767,0.38614550,-0.19751078,1.51606369,0.01968504,0.08888512,0.13389523,0.19221452,-0.80422199,0.19934742,0.18116492,-0.03266535,0.21331456,0.04770881,0.08811971,0.08144541,0.65619189,1.06564415,0.37398821,0.21366030,0.39049071,0.36160514,0.24809872,0.02883720,0.12257403,0.44746923,-0.55349410,-0.14328510,-0.01097205,0.29922804,-0.05011985,0.46068919,0.63286245,-0.42521596,-0.10397886,-0.35964692,
0.98777837,-0.70542800,0.10087866,-0.55694723,0.34012428,-0.03105586,-0.13001244,-0.55055225,0.10383097,-0.60071856,-0.15081076,-0.03849703,0.10357624,0.12353215,-0.47862145,0.09921734,0.06726743,-0.78543252,0.15173382,-0.00144658,0.14443772,-0.22804226,0.13731404,0.08220114,0.59968013,0.06966498,0.06548980,-0.12394441,0.08611387,0.04770435,0.13950884,-0.83035392,0.27229157,-0.18400241,-0.04322803,0.18659337,-0.23024310,-0.53274989,0.02124738,0.43874353,-0.19734843,0.10608794,0.04589443,0.18094657,-0.54055101,-0.78362679,0.20066020,0.05317289,-0.09002411,0.14398809,-0.00318271,0.01390241,0.21392402,0.10184942,-0.44447282,0.01763608,-0.35576835,-0.13129798,-0.14544231,-0.40751401,-0.76923484,-0.77602661,0.09369957,-0.03097455,
0.89974129,-0.70200700,0.08380967,-0.72460592,0.43038535,-0.66441154,-0.01816276,-0.45596784,0.06620361,-0.42035511,-0.40876681,-0.26542217,0.07618920,0.14835012,-0.62959301,0.19839281,-0.22636306,-0.79131413,-0.35811880,0.32978705,0.13550062,-0.16350162,0.15184128,-0.44770864,0.78822029,-0.08631764,-0.01282524,-0.88306165,-0.05183798,0.16014253,-0.27401537,-1.02805305,0.22877744,-0.71090370,0.17362761,0.26393998,-0.17816703,-0.59647465,-0.66092891,0.56822741,-0.15275225,0.15727994,0.13590692,-0.13727622,-0.47669017,-0.81801641,0.22098596,0.18033303,0.11755643,0.06548778,0.02308247,-0.30370790,-0.26433954,0.08169656,-0.23937453,-0.34000951,-0.21852787,0.12222869,-0.45352867,-0.35553494,-0.87197828,-1.12131667,-0.33711353,0.02575355,
-0.04787784,0.05029714,-0.35330680,0.13542806,-0.28149933,-0.25259647,0.16558471,0.00959987,-0.20453173,0.52250177,-0.27262300,0.07307715,-0.18585104,0.36744434,-0.43872780,0.46564251,0.45236942,-0.77169991,-0.51791948,0.41093576,0.15441300,-0.02436889,0.05143286,-0.34193203,-0.07008869,0.01141267,0.19770811,-0.24032140,0.03624037,-1.08027315,-0.40717027,0.06528994,-0.08578550,0.23458108,-0.33874074,0.12883438,-0.15739849,-0.21946201,0.11049008,0.23693454,-1.50924075,0.07354860,0.76697171,-0.01213745,-0.96505791,-0.00614456,-0.10213191,-0.00044321,-0.14118296,0.17286049,0.07043206,0.02203177,0.03590695,0.25792244,0.24832958,0.16792943,0.14965515,0.08821166,-0.14416483,0.03301692,-0.88833565,-0.41817135,-0.27489874,0.02447173,
-1.37511504,0.65597707,0.29861176,-0.59490615,-0.45070818,-0.33711353,-0.27505514,0.51537853,0.29658461,0.86518508,0.02321984,0.12598592,0.38980260,-0.47142193,0.88359439,0.20261317,-0.81430185,1.22372770,-0.30427414,-0.04188880,0.05391520,0.85043448,-0.13422261,-0.26108828,-0.76118737,-0.24216022,-0.02162690,-0.98996067,0.15358517,0.21620065,-0.12275430,1.39597499,-0.50724995,-0.87813389,0.15550047,-0.16710587,-0.54158163,0.32403439,-0.35638103,-0.84372598,0.41188762,-0.29799151,0.07857691,-0.30847088,1.02802360,1.22111130,-0.52758729,-0.09644898,0.01331704,0.02994050,0.22419265,-0.29850334,-0.09969941,-0.28463587,-0.25418648,-0.53212225,-0.33281344,0.07684645,-0.52299315,0.17871310,1.07387197,-0.84399480,-0.86685586,-1.10150123,
0.38361096,-0.53746021,0.00094944,-0.65943450,0.18653563,-0.49340287,-0.13206537,-0.72618854,0.07835747,-0.06727943,-0.40221265,0.44737667,-0.01352238,0.40675592,-0.68313050,0.09908311,0.30440962,-0.83804464,0.36304092,0.36499760,0.37212893,-0.46751723,0.37785193,-0.10842095,0.50287902,0.23337300,0.09202489,-0.88229853,0.12331960,0.12520456,-0.05024979,-0.87082255,-0.09312598,-0.13031408,0.19536273,0.36464980,-1.15708113,-0.44698963,0.24314554,0.31343997,-0.07461086,0.24082492,0.12593600,0.22036336,-0.52375501,-0.63910252,0.27715063,0.14777185,0.00897812,0.13628344,0.11751520,-0.02713135,0.03442114,0.38644919,-0.51234424,-0.13279398,-0.04198401,-0.00025668,-0.18925667,-0.23990433,-0.67578387,-0.92879754,-0.29423589,-0.04626225,
0.01714356,0.16348822,-0.12106241,-0.00350945,0.10334365,0.08232284,0.13703908,-0.26501137,-0.28167826,0.04439441,0.08154228,-0.00317418,-0.09719021,0.03719075,0.13551326,0.04936712,-0.00271517,-0.07904749,-0.16033219,-0.03157067,0.09857999,-0.37729377,0.10242745,-0.11829310,-0.03892750,-0.10880249,-0.09962675,-0.53066498,-0.26863340,0.05729642,0.08248446,0.13278142,0.09880934,-0.08568859,-0.08061879,-0.07823523,-0.19046058,-0.11903086,0.00693573,0.17569773,-0.11166807,0.11981723,-0.03256992,-0.47091347,0.03060015,-0.02857451,-0.11130068,0.03534176,0.19365874,-0.30983227,-0.15842831,-0.34536159,-0.10391745,0.07977758,0.11185059,-0.00137368,0.15011516,-0.13401173,-0.08738840,-0.02958490,0.18343887,-0.40148249,-0.11316102,-0.37839881,
1.15458524,-0.32912931,-0.52057636,0.14094150,0.20223774,-0.31296512,0.02454606,-0.40693757,-0.28146446,0.09573934,-0.14864193,0.11088708,0.09729368,-0.13311778,0.09932593,0.00616183,-0.01768340,-0.03056310,-0.24214785,-0.09270822,-0.03093630,-0.53767276,0.33637759,-0.43668699,0.88295484,-0.60332054,-0.32169574,-0.52606261,-0.20079049,-0.12255071,-0.02984851,-0.09642895,-0.17507881,-0.24627732,-0.04076343,-0.34268153,-0.58747953,-0.08401137,-0.10575749,0.30406699,-0.00488029,0.21188013,-0.10757086,-0.42235893,-0.16186227,0.32534441,0.00698624,-0.15785556,-0.14236197,-0.21042572,-0.17581120,-0.34802184,-0.20988317,0.05294202,-0.17361628,-0.01967700,-0.17512819,-0.02748062,-0.36943477,0.03730695,0.11090276,-0.44999394,-0.13690855,-0.09873031,
-0.10509192,0.57922661,-0.06544460,0.39100122,0.11107301,-0.15815529,0.12375332,0.45449498,0.22847210,0.48762020,0.12154916,0.24910106,0.36597741,0.18675019,0.72224104,0.05675443,0.31041390,1.10472238,0.20885871,0.26921564,0.46571997,-0.06070929,0.01198011,-0.23227240,-0.08063240,-0.03779632,0.12547201,-0.74542862,0.26551369,0.34636545,-0.13285810,1.44248247,-0.09555870,-0.04920331,0.34845850,0.22812761,-0.75389886,0.33737558,0.30144784,-0.05785040,0.27061984,0.08673830,0.29963896,-0.04349121,0.66986257,1.14716315,-0.07490100,0.41860881,0.14979438,0.19027278,0.12799403,0.20289440,0.03963987,0.32472280,-0.41001406,-0.01002676,0.11219709,0.20370574,-0.08668718,0.50692022,0.65708083,-0.66176164,-0.03217911,-0.41678503,
0.79038239,-0.68488717,0.15212122,-0.81588989,0.13890636,-0.30980662,-0.09102947,-0.67937726,0.11651525,-0.29961643,-0.15211844,-0.00433281,-0.10963556,-0.14745283,-0.49050376,0.12558307,-0.11221458,-0.97888511,-0.08487612,0.14298968,0.07658386,-0.21106975,0.11865062,-0.00387962,0.57665426,0.17138433,-0.26248053,-1.01406431,0.16057162,0.04236218,0.00966930,-1.08063459,0.39389136,-0.38584748,0.23963438,0.04538908,-0.58688241,-0.32377997,-0.22735740,0.30067217,0.12070349,-0.07244212,-0.04340282,0.04784818,-0.48123515,-0.83204538,0.03657934,0.10637158,-0.23018071,-0.02788168,0.15462896,-0.26085821,0.06715290,-0.02008956,-0.38607678,-0.35316858,-0.12133575,0.01263942,-0.31757441,-0.24258363,-0.65312827,-1.24816632,-0.12902923,-0.30514973,
-0.46637914,0.72763401,0.08717877,0.20968233,-0.11044263,0.50111467,0.14616507,0.46771243,-0.11751112,0.07938111,-0.10665877,-0.05259667,-0.14256471,-0.45210180,0.12578590,0.88024461,0.55924457,-0.02993736,0.09084442,0.42097366,-0.32363936,0.14779884,-0.32185462,-0.14052355,0.06207484,0.11482632,0.15379539,-0.08608136,0.20775223,-1.00890434,-0.24077454,0.52224088,0.16322675,0.01685812,0.26416302,0.11647555,0.08464681,-0.06537804,-0.20018688,0.12514651,-0.54332799,-0.35427415,0.66650712,0.08932759,-0.03393811,0.14262404,0.19465940,-0.31298631,-0.29063740,0.18769111,0.32107589,-0.04667344,-0.44996586,-0.63519001,-0.26287532,0.23709035,-0.28609487,-0.41672647,-0.24254881,0.25749612,-0.78788954,-0.05182752,0.08805487,-0.17473511,
-0.39993173,0.68061262,0.07296330,0.27455485,0.11673690,-0.03736758,0.15078710,0.44995219,-0.06345596,0.61772692,0.01591310,0.27201965,0.19706801,0.57727545,0.62654203,-0.13241017,0.33545038,0.95500493,0.07788803,0.32978100,0.28613034,-0.08601886,0.15399462,-0.16382751,-0.24462822,0.12742975,-0.05487100,-0.92633402,0.20096439,0.06977946,-0.29153389,1.27753234,-0.31068799,0.29913828,0.17245743,0.12480193,-0.78138387,0.29202724,0.43002442,0.08162076,0.15503848,0.21932222,0.03151376,-0.26986709,0.63213152,1.04526591,0.19079198,0.23578542,0.39491722,0.10580245,0.25680795,-0.07612166,0.04700833,0.30012020,-0.24241413,0.06908875,0.06050143,0.28854716,-0.04349537,0.43581671,0.56508267,-0.82889915,-0.37094757,-0.27803409,
0.36246836,-0.32163709,0.14312667,-0.68373477,0.15054621,-0.16358007,-0.13362698,-0.24890302,0.08474571,0.15816861,0.11280961,-0.04267754,0.16167571,-0.04660209,-0.55946523,0.06238498,-0.11346736,-0.70675248,0.09232200,0.13756259,0.36914542,-0.08730452,0.10498589,0.09155980,0.52902925,0.18029000,0.00733203,-1.13644063,0.06794441,0.19171983,-0.08677040,-0.95993567,0.02210714,0.20025690,0.07630543,0.15626262,-0.99767846,-0.24279073,0.02908963,0.12594669,-0.17720644,-0.08542375,0.01089055,0.23079759,-0.24441969,-0.77045882,0.29819134,0.28546971,-0.02162546,0.28488314,0.27490842,0.05140651,0.09077463,-0.04165986,-0.33052251,-0.11630613,-0.29736152,0.04688659,0.12953152,-0.13394198,-0.53666425,-0.57422417,-0.18479556,-0.03612959,
-1.08814025,0.51271009,-0.10891550,-0.44526607,-0.66434836,-0.38194954,0.10280642,0.38598824,0.25185856,0.60914016,-0.36970091,-0.36620599,0.03539992,-0.02638152,0.84283018,0.41532782,-0.23862675,1.15931773,-0.62494797,0.20375001,0.22771645,0.05268490,0.04825782,-0.64686465,-0.64625186,0.02183866,-0.36261863,-0.81358087,0.31999633,-0.00534462,-0.39045775,1.56653166,-0.64170665,-1.04370582,-0.10769891,-0.02042668,-0.15198731,0.10188423,-0.11737074,-0.75354701,0.26744440,0.08518905,0.38368559,-0.43982095,0.89531988,1.15306008,-0.55505574,0.05209791,0.17931394,0.39111176,0.24708219,-0.62338418,-0.16314116,-0.04486100,-0.30872917,-0.99400717,-0.15152530,0.39692447,-0.83706486,0.33497074,0.83148694,-1.55081844,-1.56830657,-1.30675828,
-0.77043748,0.42678934,-0.14456016,-0.32973990,-0.16628927,-0.48480332,-0.23410021,0.14808232,0.05508672,0.55322856,-0.22893673,0.02039436,0.36292043,-0.34726232,0.71914792,0.17478640,-0.31999794,1.16834736,-0.92721188,-0.12012806,0.10360274,0.39255506,-0.01811087,-0.90014565,-0.59838212,-0.54551321,-0.38620344,-0.51606864,0.14191145,0.20784517,-0.33122301,1.47105706,-0.49601701,-1.55034518,-0.02287523,-0.18471070,-0.17984273,0.08109086,-0.22917581,-0.53442001,0.46459997,-0.05412831,0.22363155,-0.57639593,1.00803149,1.22353518,-0.29648891,0.04527101,0.35587612,0.27748811,0.25444037,-0.86320657,-0.26096350,-0.24850762,-0.64650124,-0.84681475,-0.20672816,0.31280255,-0.92855936,0.07719357,0.85675544,-1.05310047,-1.57412982,-1.07517755,
-0.97368288,-0.24899830,0.07807582,0.28613767,-0.35034734,-0.51572871,0.35505962,-0.66771924,0.18979402,-0.02871314,0.13864633,-0.03149267,0.06093373,0.35189179,0.18166721,0.03877557,-0.14273852,0.91840994,0.44694433,0.05289111,0.00805871,0.04396726,-0.16626221,-0.06058281,-0.73195428,0.02564514,0.22172281,-0.78235924,0.16064180,0.06802925,0.13131990,0.18271549,0.08675066,-0.20960702,0.06685445,0.35314366,-1.21303260,-0.35875830,-0.10316502,0.03494623,-0.10252164,-0.03936863,-0.01260002,0.21097352,0.55646265,0.72373837,-0.17301607,0.22878999,0.35521644,0.08338688,0.13736773,0.11367826,0.22717944,0.26136494,-0.36567980,0.01474755,0.23103480,0.32986909,-0.17206590,-0.80538112,0.30110168,-0.89225543,0.16627771,-0.03877158,
0.92588234,-0.36579725,-0.00754683,-0.58574176,0.31583628,-0.23268032,0.05473530,-0.51802707,-0.01085010,-0.35111895,-0.05000055,0.20533191,0.06898925,0.03777272,-0.53221327,0.10932776,0.03425943,-0.87884885,-0.08369776,0.27912548,-0.04138438,-0.18683545,0.18358269,0.15516713,0.50535136,0.14155251,0.01122066,0.03678238,0.05289580,0.16015057,-0.02256097,-0.71991336,0.14311637,0.08764617,0.13527007,0.06051436,-0.14664626,-0.76943588,-0.04707725,0.26649806,-0.13007492,0.09963049,0.18419129,0.02773405,-0.51471490,-0.71000069,0.23351662,0.03611365,0.03445582,0.13177858,0.02919062,0.04761453,-0.15123814,0.11319057,0.08747943,-0.22256371,-0.15018605,-0.12536034,-0.00302518,-0.03604096,-0.73732543,0.00504778,-0.18183084,-0.05418700,
0.91323978,-0.59008211,-0.32821167,0.38822940,0.19767445,-0.49582270,-0.00537269,-0.47596481,-0.18061122,-0.91916841,-0.32872605,0.05204099,0.18895638,0.18370092,-0.03035809,-0.00836337,0.23433380,-0.63177198,0.20185116,-0.20309591,-0.07673865,-1.12321174,0.32522374,-0.69446725,0.78627568,-0.83142328,-0.06260234,-0.59848851,-0.01287230,0.00126326,0.00364931,-0.35566023,-0.10984559,-0.40906405,0.20017961,-0.16681869,-0.48156744,-0.40025795,0.11031452,0.15854011,0.10645273,0.13097724,-0.15095544,-0.35313877,-0.11331338,-0.35103077,-0.00724736,0.03123201,0.01713197,-0.14336307,-0.14268713,-0.29457951,-0.17010070,0.22273096,-0.75725442,-0.18144223,0.29832685,0.06930541,-0.25085211,-0.20802392,-0.48945442,-1.48173630,-0.30701777,-0.40078762,
-0.57786894,0.26999891,0.19451012,0.01602639,-0.52976876,0.30638435,0.16987850,0.22572419,0.09839927,0.12357889,-0.15740736,0.37128475,0.18939532,-0.18487401,0.71357381,0.47147128,0.29713655,1.14307439,0.06123566,0.42427298,-0.56581193,0.25774395,-0.25715771,0.02061584,-0.73905903,0.37982672,0.13185954,0.27330670,-0.02489994,-0.18673994,0.08849107,1.40856075,-0.38258997,-0.08918571,-0.15362069,0.24218129,-0.08443210,-0.16424894,0.27110428,-0.66796076,0.27012235,-0.13635570,0.26746523,0.08357671,0.85146666,1.05248559,-0.72576463,-0.24385336,0.07786930,0.11795085,0.34219024,0.18770549,0.01262863,-0.10041875,-0.05377683,-0.05101396,0.10429877,0.16716897,-0.02382769,0.10944977,0.80857474,-0.04711076,0.02612347,-0.07642189,
0.83082569,-0.57622612,0.03817702,-1.08857739,0.26884142,-0.63680995,0.04868622,-0.35675624,-0.08148059,-0.74583721,-0.20640805,-0.02576640,0.03791819,0.25657558,-0.62669349,0.03311019,-0.48745257,-0.95538366,-0.14338773,0.23690002,0.02427682,-0.71083498,0.36014524,-0.46240056,0.79346395,0.00813945,-0.21078254,-0.94890934,0.16013415,0.00103823,-0.08412272,-0.96454597,0.17837551,-0.62589037,0.06333882,0.12317491,-0.46656895,-0.51685071,-0.77590662,0.43196812,-0.15357284,0.24924400,0.23941486,-0.20724522,-0.53847206,-0.80787694,0.23386337,0.06761887,0.06105784,0.11894981,-0.03417059,-0.31897256,-0.30912679,0.17245364,-0.31804156,-0.31095755,-0.31736043,0.12448362,-0.43444148,-0.11143415,-0.86509782,-1.47615910,-0.45919636,-0.11609565,
0.99977887,-0.69744956,-0.15001836,0.28436002,0.02302557,-0.41362002,-0.07296892,-0.49179184,0.01646361,-0.81527340,-0.40058407,-0.31790885,0.14143926,0.10254726,-0.22987279,0.06013124,-0.18734203,-0.49997312,0.01193598,-0.18453950,0.03583897,-1.26119268,0.31723782,-0.57897407,0.67478347,-0.87088853,0.02900614,-0.68895328,-0.01692452,0.07808162,0.21139884,-0.41716373,-0.06848690,-0.46193582,0.39613074,-0.07220795,-0.44457698,-0.54714429,-0.40622318,0.13592301,-0.00332241,0.13543746,-0.08645406,-0.23048119,-0.09660088,-0.40251845,0.05637036,0.00326660,-0.00468328,-0.08263347,0.00084340,-0.04120345,0.11459935,0.23522453,-0.55182493,-0.03351460,0.38548589,0.06805363,-0.56564897,-0.27182528,-0.41908100,-1.41649497,-0.22504556,-0.19012868,
0.54322398,-0.49669194,0.00975158,-0.63547868,0.16749354,-0.63859773,0.09258358,-0.22181053,-0.03346797,-1.08884096,-0.36090043,-0.28214121,0.02186407,0.23210694,-0.43871194,0.16491893,-0.56930017,-0.91828775,-0.23364502,0.24903274,0.18442726,-0.95391411,0.06235601,-0.65199989,0.83894688,0.10019448,-0.14136003,-0.87502116,0.07913747,0.15498708,-0.41562107,-0.96825695,0.41419822,-0.51401466,-0.11752541,0.16191255,-0.30388337,-0.48874128,-0.89207536,0.24230176,0.00800307,0.01076632,0.13339010,-0.12481539,-0.52246755,-0.80163544,0.21769351,0.12017341,0.14351006,0.18294877,0.07631979,-0.29325053,-0.03318722,0.21587299,-0.55158985,-0.51878756,-0.43115255,0.12665266,-0.33852375,-0.29893476,-1.15479171,-1.57494092,-0.09017943,-0.22909352,
0.93288022,-0.69648045,-0.53119659,0.51281852,0.25345883,-0.31922865,-0.02471297,-0.52024060,-0.24444486,-0.71844751,-0.29352885,-0.27686042,0.08714774,0.11568381,-0.09621061,0.02587346,-0.41096628,-0.75214583,-0.00058456,-0.31566718,-0.24849595,-1.39490902,0.41149324,-0.56783730,0.62792534,-0.96754986,-0.33604068,-0.35079929,-0.08917765,0.03373435,0.17266203,-0.34255248,-0.03074863,-0.41335827,0.35685533,-0.13040291,-0.69434142,-0.29694715,-0.01759407,0.28829587,0.09929652,0.43528467,-0.08417286,-0.54364079,-0.06595217,-0.14684726,-0.04488514,0.02473863,-0.10190564,-0.03552763,-0.08512201,-0.31614944,-0.21071027,0.20141917,-0.48150194,-0.29263040,-0.05000321,0.04999574,-0.46425071,-0.37330109,-0.48585147,-0.28687575,-0.00618563,-0.17225249,
-0.89634579,0.43609032,-0.15652779,-0.33886302,-0.34832481,-0.56264442,-0.06506815,0.37120968,0.19858970,0.88486773,-0.38691345,0.12043343,0.17039694,-0.14669293,0.84105295,0.41763231,-0.15459737,1.10050523,-1.13053727,0.22495171,0.13030137,0.45422354,-0.00380788,-0.77923846,-0.47707585,-0.00982308,-0.30627334,-0.68297273,0.25948700,-0.06115746,-0.41336176,1.35533118,-0.67084432,-1.27180374,-0.07845862,-0.03746448,0.07365050,0.15617707,0.16218996,-0.52127957,0.29917470,-0.07612024,0.40779537,-0.51292866,0.86723036,1.33744824,-0.45157531,0.09431323,0.33917141,0.18520609,0.23643999,-0.86941200,-0.39880139,-0.17301548,-0.43565613,-0.99859673,-0.26109460,0.27240738,-0.94852281,0.46740142,0.85261494,-1.26066923,-1.77337086,-1.20974386,
-1.18126237,0.53317809,-0.02976411,-0.41008896,-0.69412094,-0.47565037,0.02878127,0.17596945,0.20594907,0.32438782,-0.33801115,-0.19633412,0.12529357,0.02688470,0.86209387,0.43787825,-0.27792165,1.13930905,-0.60043824,0.08440879,0.15933225,0.17187192,0.24471651,-0.62525928,-0.61405820,0.14864258,-0.21435596,-0.84069419,0.20858218,0.21051143,-0.35139355,1.59350300,-0.80162495,-1.11790013,-0.06920028,0.01597949,-0.30591181,0.21428102,-0.00609844,-0.65616560,0.17416546,0.00773931,0.28374657,-0.45745233,1.07617092,1.23509419,-0.56920850,0.16685571,0.19700608,0.38277611,0.24747781,-0.58149660,-0.14507201,-0.13855687,-0.54284149,-0.87559414,-0.08104333,0.44311953,-0.81545705,0.30238298,0.67338240,-1.60763466,-1.19738352,-1.17137694,
-0.71302706,0.69465643,0.21384279,-0.11306597,-0.08302649,0.29095432,-0.50203449,0.56767410,0.11239692,0.07147288,-0.46323863,0.37009242,-0.18232326,-1.15754008,0.10102534,1.09062803,0.11234345,0.05502864,-0.45376661,0.21686257,0.10766365,0.12802722,-0.71761209,-0.09428090,-0.12418932,0.33585155,0.06585436,-0.32178998,-0.03962575,-0.47606874,-0.69075602,0.56160730,-0.34613383,-0.21309191,-0.44449869,-0.21543410,-0.12133648,0.52139866,-0.47639492,-0.70076722,-0.10193489,-0.73266709,-0.06462318,-0.03754978,0.04164747,0.07588384,0.01949028,-0.29141518,-0.08914804,0.29447535,-0.15630245,-0.17870830,-0.72854680,-1.52354586,0.05780649,0.08584737,-0.08500726,-0.12032332,-0.44308296,0.59348035,0.20238671,-1.25669932,0.12066023,-0.17673805,
-1.16728926,0.53900427,-0.07372473,-0.53781986,-0.44956365,0.03541759,-0.01484922,0.36219588,0.10433029,0.61974764,-0.08767395,0.27254856,0.09261072,0.12794697,0.83972847,0.25900051,-0.04668505,1.24269760,-0.73684835,0.31201702,0.11773186,-0.03915966,-0.00172672,-0.42225373,-0.72451895,-0.07620264,-0.21899742,-0.79566163,0.20656416,0.02236868,-0.38836250,1.40438747,-0.55952299,-1.02373302,0.23670794,0.22150449,-0.02884730,0.26022708,0.18832459,-0.62108499,0.15220977,-0.05066245,0.43355951,-0.46478608,0.81875145,1.03389800,-0.39795229,0.25807002,0.26954997,0.18568318,0.24892317,-0.79536271,-0.20417766,-0.05424218,-0.30043408,-0.83388388,-0.18078457,0.17138614,-0.62279809,0.41067830,1.00072861,-1.15814769,-1.48216784,-1.21706474,
0.68085116,-0.61257738,-0.03160038,-0.87887204,0.25447160,-0.51232618,0.02669878,-0.51808453,0.10850857,-1.30468071,-0.13817096,-0.00917279,0.17382510,0.12625548,-0.46924630,-0.13992044,-0.95140320,-0.95441622,0.20012198,0.03579968,0.34668756,-0.99518478,0.12625802,-0.50907952,0.60536182,0.05086968,-0.29009491,-0.73735052,-0.04430967,0.13781537,0.01640665,-1.11571038,0.20121758,-0.38164091,0.05994652,-0.10560678,-0.27018270,-0.54726380,-0.78362602,0.02082362,0.05687197,0.02153011,-0.06409098,-0.09189036,-0.53147930,-0.60290873,0.05266386,0.02484025,0.14062506,-0.03183153,-0.07308775,-0.27159569,0.07212777,0.24632321,-0.45711187,-0.38132706,-0.82867122,0.14356081,-0.38818887,-0.37264913,-1.24228060,-1.12653434,0.07708176,-0.05505043,
-0.79909557,-0.28964472,-0.03674239,0.48425311,-0.32309201,-0.38181823,0.23145814,-0.17961712,0.14761509,-0.49090469,0.16447192,-0.22831927,0.19983694,0.29894271,0.18227607,0.05912552,-0.05918386,0.96584165,0.34539595,0.19908877,-0.04779826,-0.08619077,0.01798993,0.00849099,-0.77833945,-0.11928239,0.27217251,-0.74560124,0.05948237,0.11676411,0.16856444,0.36818665,0.06688595,-0.27013773,0.09347861,0.25492322,-0.93644154,-0.26176378,-0.13124079,-0.22807629,-0.08737142,0.09900969,0.05715787,0.10694684,0.40556997,0.61575598,-0.12991509,0.09452870,0.32551715,0.15625276,0.13506384,-0.11516204,0.35447225,0.29536930,-0.61660957,-0.00517367,0.41570845,0.25736195,-0.07161076,-0.49087274,0.32170245,-1.13447416,0.23523852,0.01019262,
0.00822528,0.04688285,-0.29144508,-0.01815687,-0.16706230,-0.13587435,0.06752998,0.03765141,-0.07806934,-0.10760374,-0.06190577,0.09208510,0.00084769,-0.09170649,-0.08592455,0.10583930,0.08075920,-0.12635185,-0.13433225,-0.04134207,0.00367770,-0.14097597,-0.11782923,-0.20882621,0.00339746,-0.04888578,-0.15847832,-0.23704526,0.13855053,-0.18628898,-0.00198834,-0.05677018,-0.03951430,-0.21121991,-0.27351114,0.01623295,-0.20811072,0.16913368,0.12095904,0.10476082,-0.00062490,-0.05615189,-0.00455548,-0.18011874,-0.12654637,0.13801125,0.01314983,-0.03983911,0.01176047,-0.06844802,-0.12561326,-0.30807030,0.04922953,-0.01896871,0.11006371,0.06655632,0.04613423,0.02917549,0.11712237,0.18008101,-0.03775565,-0.37328058,-0.12909898,0.09770416,
-0.19695666,-0.28722849,0.16386822,0.74137598,-0.01256387,-0.05622585,0.27869037,-0.09764839,-0.01051129,-0.37401596,0.00123024,-0.32113907,0.07987778,0.14720270,0.31750420,-0.14162572,-0.12207924,0.92986578,0.19670601,-0.06224588,0.01369225,0.17256927,0.31438679,-0.08777614,-0.40385675,-0.21304014,0.13547660,-0.08201403,-0.10326235,0.14609113,0.63244945,0.74519122,0.04404189,0.05932698,-0.15819861,0.04413066,0.48041454,0.24138579,-0.11518686,0.01144233,0.12702842,0.45657453,-0.02636705,0.04805940,0.59431821,0.82868201,-0.09170256,0.08014417,0.29760370,0.03385684,0.03213392,0.00411583,0.28789195,0.22902468,-0.41563606,0.09881704,0.41373587,0.27360487,-0.03589677,-0.26441720,0.08301515,-0.14126274,0.11856489,0.11180713,
0.23663177,-0.50592393,-0.58088958,-0.29985523,-0.10807623,-0.78671831,-0.02418110,-0.14632638,-0.07240728,-0.81968349,-0.80604339,0.00616365,-0.17510396,0.41856307,0.16489832,0.32576963,0.46325210,-0.17381504,-0.56786662,0.32175198,0.03700239,-0.31286317,0.33684549,-0.67629552,0.50783813,-0.08448863,0.06100764,-0.90206093,0.21150070,0.02296778,-0.83446139,-0.28187305,-0.20440735,-0.47018912,-0.51150769,0.16990669,-0.34056294,-0.55931181,-0.04876950,-0.02278837,-0.36352289,0.18721083,0.28984162,-0.21160515,-0.27007017,0.04556214,0.03615026,0.52024198,-0.01491756,0.32902911,0.12039626,-0.40560636,-0.58363611,0.44668320,-0.50248116,-0.64518517,0.08250276,-0.10679380,-0.57436931,-0.15244775,0.21482855,-1.42104554,-0.67483401,-0.38944718,
0.98255765,-0.68733370,0.15477289,-0.76573187,0.39490402,-0.27220687,-0.09410843,-0.69970465,-0.00866343,-0.37824762,-0.36457434,0.05232254,0.06793302,0.15511443,-0.55254275,0.14468125,-0.13098671,-0.80287951,0.23275898,-0.05723212,0.12188454,-0.16370328,0.06329753,-0.13610265,0.51742232,0.00447178,-0.05559349,-0.53986090,-0.06286853,-0.06225399,0.29382694,-0.98721808,0.25776246,0.04664433,0.09785512,0.23492271,-0.81538492,-0.71634698,-0.03043333,0.48722059,-0.08697793,0.18057969,-0.08263095,0.19464086,-0.39380497,-0.59745669,0.41619930,0.05387230,0.03026402,-0.05312930,-0.19975753,-0.09367120,0.06462653,0.13263285,-0.54359072,0.09420318,-0.29505908,-0.02842353,-0.21500607,-0.17834966,-0.89843380,-0.73027939,0.16508314,-0.04234839,
-0.55444181,0.11675736,-0.30357069,-0.01581074,0.24010290,0.27770850,0.05092259,0.21277970,-0.86916566,-0.21824172,0.06722006,0.28384626,0.30418947,0.03695658,0.27171150,0.11881909,0.35266718,-0.30928406,0.00681876,0.16162574,-0.36497614,-0.39387301,-0.12736978,-0.00463423,-0.31988680,0.26875362,0.02433067,-0.07809699,-0.31693619,-0.30030549,-0.29875249,0.01492541,0.00385944,0.21836832,-0.13011643,0.05822181,0.19487174,0.01490561,0.08043598,-0.01089069,-0.25054312,-0.08886932,0.34663263,-0.09607165,0.46149272,0.06001228,0.13126211,0.02144486,0.05466745,-0.11301383,-0.17769004,-0.14897974,0.12668109,0.17680186,0.03644534,-0.10452299,-0.07009441,-0.14886867,0.29591721,0.14787064,-0.51603669,-0.28611717,-0.08443191,-0.20891227,
0.86157244,-0.70696878,0.19705194,-0.65408105,0.19442157,-0.14557375,-0.05645809,-0.34293041,0.15739216,-0.14084351,-0.18916079,0.19661403,0.09809279,-0.09657140,-0.58688694,0.10382389,-0.20372254,-0.92885584,0.03604642,0.15929423,0.05068341,-0.12779579,0.31254169,0.09792857,0.51434004,-0.02488755,0.01434119,-0.30561748,-0.04235535,0.08150682,0.31666788,-1.47183013,0.28815988,-0.05985526,0.02965631,0.23096192,-0.54314828,-0.70652670,-0.09956487,0.25051311,-0.17711669,0.11547078,-0.01885371,0.13073792,-0.46847007,-0.81246698,0.35139769,-0.04401064,-0.04080745,0.17936724,-0.04511528,0.01567211,0.23508954,0.09422428,-0.23509432,-0.02769472,-0.30163831,-0.01353550,-0.05887801,-0.21696553,-0.70558977,-0.52592176,-0.00658428,-0.09127309,
-0.00373789,
0.04014007,
-0.05528982,
-0.02867558,
-0.24028292,
0.14862168,
-0.03480563,
0.06024203,
-0.18413930,
0.10012622,
0.01746692,
-0.02977942,
0.00535776,
-0.18128058,
0.04080770,
-0.17892589,
-0.02920588,
0.12419062,
-0.14174253,
0.03226785,
0.02829133,
0.14613371,
-0.12520194,
0.07485861,
0.06879777,
-0.06137083,
0.10663411,
0.10935687,
-0.07900365,
0.34836692,
-0.03659768,
-0.01499481,
0.06782433,
-0.06425779,
0.12079639,
-0.03733194,
-0.12074093,
0.10327867,
-0.01581344,
0.04958032,
0.14686468,
0.03922438,
-0.23792359,
-0.27279416,
0.27009112,
0.07816337,
-0.17938836,
-0.00215371,
0.00477386,
0.03873702,
-0.06862358,
-0.24927968,
-0.17217384,
-0.02113807,
-0.18575467,
-0.05637168,
-0.08285153,
0.25036430,
0.09017216,
0.06499693,
-0.04169834,
0.09392273,
-0.16329014,
0.06804284,
0.09834293,0.13178369,0.34190497,0.08066069,0.05417521,-0.01243101,0.08274939,-0.26764560,0.03034482,0.42756736,0.23136862,0.01476842,-0.07086486,0.10236936,-0.14824924,-0.01654475,0.00524265,0.07916483,-0.01758837,-0.00398034,0.00821890,-0.05938442,0.10911373,-0.00313959,0.09993400,0.12286996,-0.13057271,-0.04909159,-0.05552398,-0.46566224,0.06690764,0.04763804,0.89063257,-0.10978912,-0.66577870,0.12792991,0.01430766,-1.05198550,-0.02895390,0.30437484,-0.47313040,0.05577230,0.17093828,-0.24220258,0.13054167,0.02145854,-0.27819434,0.35599545,0.17823805,0.06159388,-0.16383110,0.00654807,0.19724937,-0.10257351,0.39942837,-0.21065822,-0.00715374,0.04558150,0.03502059,-0.09848796,0.03428289,0.01170931,0.11823817,0.15937817,
1.12491918,0.68567967,1.27913356,-0.89155728,-1.05496061,1.19428957,1.13268030,1.13807046,0.12899223,0.78618646,1.07683980,-1.99471760,1.50236952,0.32261303,-0.66652012,-1.35941613,-1.01259661,-0.49199128,-0.83409846,-1.75376582,0.19731998,0.17733045,-0.73288196,-0.73787612,0.87745601,0.22752261,-0.51759309,-0.68678486,-0.98477733,0.23993492,-0.74718821,-1.91059268,-0.29886013,1.23368025,-0.54192424,0.18612987,-0.98436588,0.26981783,-0.86490977,-0.33045226,0.45009163,-0.54743010,0.82936162,1.49396527,0.52920955,-0.61612833,-1.20111668,0.53496605,-1.22591102,-1.08537257,-1.78637791,-1.24237263,1.32200515,0.97455066,0.02784828,1.18402553,-1.52521360,0.65218902,0.12074160,0.56660897,-0.55830771,-0.83482039,-0.49312446,-0.78454304,
0.23595171,-0.01069395,-0.27364120,-0.01250535,0.18961275,-0.05008334,-0.05953079,-0.06728268,0.21408440,0.40052095,0.58635569,-0.05033157,0.05305177,-0.14601633,-0.09176400,0.64147484,0.05907679,-1.09707856,-0.26879218,0.09627711,0.21912515,-0.30187503,-0.41656539,-0.16575506,0.15004487,0.08328604,-0.06645276,0.09703353,0.21679816,-0.47206649,0.06953676,-0.33093274,0.08111349,-0.67544818,-0.42269519,-0.09988241,0.23768355,-0.18321131,-0.14066555,0.53477579,-0.29665378,-0.40243909,-0.19166946,0.24913640,-0.26674318,-0.02231370,0.41835845,0.28205377,-0.18895011,0.27774340,0.29311708,0.38522887,-0.05651473,-0.01386644,0.52660495,-0.64086372,0.27305153,-0.10125858,-0.27735338,-0.08987384,-0.65011442,-0.05422973,0.27793816,0.04999635,
-1.50624800,0.00565560,-1.27414334,0.06191143,-2.21776247,0.00384942,-0.62033939,-0.27804971,-0.06959505,0.44722873,-0.13546610,-0.07482057,-0.68037742,-1.99783242,-0.13575615,-0.43658480,0.01416117,-0.65306872,-0.61408794,0.12148616,-0.14497696,-0.16983701,-0.00684342,-0.10686037,0.18402280,-0.12138347,-0.08991074,-0.00284586,0.04579263,-0.46473417,0.10781358,-0.50764763,0.32050371,0.22740273,-0.38839501,0.24882559,-0.00200402,-0.17168924,0.34474531,0.44331816,-0.53247285,-0.30972579,-1.73299086,-0.81927925,-0.19442397,0.03011840,-0.05590670,0.29656917,-0.11651924,-0.13712241,-1.19236612,0.14214998,-1.56253850,-1.64468479,-0.05303062,1.51211500,-0.01695663,-0.08534686,0.21514393,-0.10403889,-2.02502632,-0.01582023,0.25269103,0.02797080,
-0.77791619,0.13524646,-0.63135344,-0.08450798,-0.81844431,-0.10658837,-0.17994864,-0.85985070,-0.29147619,-0.27610570,-0.02111967,-0.12431722,-0.49972990,-0.84899634,-0.11812709,-0.26460308,0.11128274,-0.09281488,-0.19694473,0.08415011,-0.07545883,-0.36531538,-0.26604193,-0.12195319,0.02375797,-0.33257008,-0.10850892,-0.08152723,0.17975727,-0.35626578,-0.10104465,-0.29433206,-0.22476675,-0.15465768,-0.30269796,0.35326564,0.09986378,-0.27270111,-0.21274064,-0.08655886,-0.34681380,-0.08021896,-1.07710063,-0.65254879,-0.38456792,0.00732935,-0.42969623,-0.18379550,-0.19901761,-0.36921093,-0.85898536,-0.08082052,-0.84217113,-1.00132012,0.09887078,-0.42841733,-0.63873875,-0.27232337,-0.03336326,-0.03250645,-0.30985063,-0.29800510,0.00501894,0.18234025,
-0.26232570,0.11074056,-0.30758959,-0.37808198,-0.21128760,0.12497830,0.25891080,0.05712299,-0.26676172,-0.10321824,-0.41017309,-0.08166048,-0.39893916,-0.31307939,-0.32711819,-0.04041407,-0.04236168,0.18483089,-0.08274484,-0.09682671,-0.25710344,-0.33474043,-0.29685643,-0.18133043,0.04350485,-0.19306402,-0.48886403,-0.31714013,-0.14898877,0.08445012,-0.24116220,-0.25281787,-0.27640817,-0.31980026,-0.16257702,-0.24991402,-0.28126195,-0.05010545,0.16163613,0.26695147,0.06357006,0.00562616,-0.31526893,-0.39980167,0.11988945,-0.22290778,-0.03377077,-0.41559961,-0.31449479,-0.08014625,0.17489086,-0.14844833,-0.27203503,-0.49537566,0.24472325,-0.06302474,-0.00965041,0.00818381,-0.03417993,-0.05531130,0.17809394,-0.10760469,-0.21886244,-0.20669028,
0.57305080,
-0.02011616,
-0.21841893,
0.15781476,
-0.21993293,
-0.33639622,
