// Neural Network File Format by Kyle Julian, Stanford 2016
3,14,5,32,
14,32,32,5,
0,
0,0,0,0,0,0,0,0,0,0,0,0,0,0,
1,4,4,4,4,4,1,1,1,1,50,50,50,50,
0,0,0,0,0,0,0,0,0,0,0,0,0,0,0,
1,1,1,1,1,1,1,1,1,1,1,1,1,1,1,
-1.99217403,0.57175785,0.78046447,0.93953973,1.11591721,-0.63760567,-0.16451116,1.03601873,0.50431311,0.28498262,-0.07823423,-0.10935967,0.02223678,0.01843502,
1.99430037,0.53953183,0.74903512,-0.09143852,0.75690889,-0.46384197,-1.53223884,-2.43797421,2.02519083,0.96977401,-0.00242567,0.02653060,-0.00165595,-0.00360651,
-3.65898919,-0.25984582,0.60569316,1.29518425,0.58330101,1.47728682,0.66711015,-0.32160953,-0.32662365,-0.27759719,-0.02002792,0.00222154,-0.01190640,-0.03535468,
0.18375899,0.51547945,0.23487464,0.64828897,0.91989452,0.09735525,-3.16202760,2.81444073,0.90443379,-0.44323784,-0.04270579,0.03845467,-0.00240182,-0.02433231,
-2.89834118,-0.14283049,0.13330179,-0.77490938,1.73980463,-5.26177835,-0.27139536,-0.51851112,1.05542064,-0.79843020,0.03185578,-0.03945561,-0.03267860,-0.03994695,
-3.23482108,0.15113303,-0.20695846,1.41873884,-0.79804415,1.49719691,-0.20393287,1.20133758,-1.09072077,1.26924944,0.02364682,-0.03376296,0.00783974,-0.00223167,
-3.51097441,-0.10428305,-0.03247286,0.11925612,1.05878222,-0.22061193,-0.11820708,0.13303395,1.15515149,-0.20243436,0.02642168,0.02816418,-0.02003197,0.02339786,
-1.77652133,1.36740375,0.48358992,0.92479342,-2.09951568,-1.14940262,1.75853598,1.75936413,0.28268129,1.73814011,-0.00209297,0.00427332,-0.00683303,0.00554990,
2.42987537,1.02465904,0.02112434,-0.55604708,0.78381383,-0.19195262,2.78842688,0.32545760,-1.30109131,1.87386560,-0.02404129,0.04909989,0.03385178,-0.00912618,
0.40577137,1.62881112,-0.12893589,0.19296893,-0.45083809,3.69828653,3.66849494,1.96989083,0.27029270,0.13863181,0.04033498,-0.01892929,0.00989087,0.05495112,
2.44700193,1.00843704,-0.39518505,0.04911404,-0.14591095,-0.48304334,-3.80091190,1.38906956,1.99412131,1.54866600,0.00844465,0.01895584,-0.00671500,0.02516861,
-0.41482523,0.17344372,1.57950485,-2.90553594,-0.30369622,0.14853041,0.26799524,-0.11183117,1.02086008,-0.98504215,0.01922902,-0.01006635,0.01421387,0.04425914,
-1.47754633,1.15544605,1.21114385,0.65960568,-0.44461054,-1.30480504,2.46834302,-0.70859522,1.28731239,1.37499762,-0.00638051,-0.00204552,0.00282148,0.01777832,
1.55940688,-0.65697420,1.43346417,-0.58431840,1.18552279,0.08852840,-3.60988641,-1.65609443,-0.31175146,1.92060578,-0.00910914,-0.00353432,0.01325984,0.01090896,
1.78036273,-1.85438359,1.48304939,1.76477289,0.14906396,-0.36547080,-1.63943362,0.15176517,-0.01838918,-3.93355608,0.00127232,-0.00986615,-0.01943567,-0.03809607,
0.74717236,1.15552974,-2.70276022,-0.10161167,0.48912469,2.85736346,2.70797944,0.57062787,-0.53060955,0.95800841,0.02728448,-0.00696555,-0.02229074,0.01452641,
-2.07466245,0.23725361,0.93272191,0.55218500,-0.34930012,2.34926558,-0.44928360,-0.70231265,0.11401862,1.27632618,-0.04959328,-0.02651168,0.00612026,0.00774608,
-2.85783863,-0.08840578,0.79976320,0.13624895,0.22000343,1.56596482,-0.33192316,-0.58001173,2.21898842,-1.85411823,0.00153896,-0.01214522,0.01691951,-0.03976353,
1.87493885,0.48076060,0.49053991,1.12113786,-0.10706387,-3.58776546,-1.23223019,0.43389565,1.07165229,1.02475977,-0.00521557,-0.07437166,-0.01602758,0.03133833,
3.29517365,0.13804457,-0.90971887,1.08782339,-0.23347184,0.47077566,-0.56919158,0.74423665,-0.15843996,0.47056043,-0.00351040,-0.09206945,0.01266433,-0.00029558,
1.73224843,1.13230622,-0.65485615,-1.27837813,-1.84100723,-0.34777275,0.99084264,0.52758640,1.75871217,0.68414706,0.02789558,0.04241484,-0.01709043,0.00290275,
4.45733833,0.72499532,-0.28224853,-0.33062670,-0.35705024,-0.66826779,1.08289766,0.19482832,-0.95451909,1.38577342,0.01333529,0.02944786,-0.02697709,0.03856653,
0.10264827,1.10769248,-1.47621214,-1.38870633,-1.07384539,-1.20617878,1.20496893,0.27276781,1.15008891,0.64242697,0.04784922,0.04256845,-0.05287477,-0.01267163,
0.80445033,0.98376817,0.61640680,-0.75236976,0.96930373,0.44296154,2.47000194,-0.16173053,1.21357155,-0.37322006,-0.02024576,0.04295947,0.03495051,0.05857068,
-2.14380097,0.04817279,0.39144295,0.17902879,1.64062655,-1.62723148,0.23562676,0.08877525,-1.04356253,0.46545097,0.00481187,-0.00356006,-0.02705850,-0.02502240,
1.28217590,-0.04755444,1.02186871,-0.62183410,0.12878951,1.53266156,2.16920090,0.58063340,-1.26994276,-1.96591341,0.00547461,-0.00333124,-0.00716260,-0.00604801,
-1.75978148,0.16839795,2.93883395,-0.79497081,-0.47351894,0.08112729,-0.40063539,1.36216569,-0.35663947,0.62361014,0.00121090,0.02054383,-0.02280761,0.01834261,
-1.34170175,0.28560090,0.93343788,0.96955001,1.45053339,-0.60866761,-0.57465702,-1.07471204,0.97485673,0.99492270,0.05131900,0.02402493,-0.02090354,-0.01630232,
-2.44808984,-0.06097907,0.53177315,1.20546424,0.17633997,0.92179239,-0.30918220,-0.57494867,-0.65109307,0.80016071,0.02520872,-0.09302291,0.07220428,-0.08208305,
-1.91760242,0.06450721,-2.11116099,1.07260370,0.98237795,-0.49535337,-1.27878416,-1.89923513,0.81237483,1.90187085,-0.00022128,-0.01866944,0.01041823,-0.00208536,
3.76694727,0.84287846,0.23548971,-1.87429178,0.07865132,0.98311788,1.00066137,-0.08038473,1.70152521,-0.03811122,0.00787523,0.00381673,-0.00849268,-0.00691200,
-1.63346565,0.92869008,-2.21575141,-1.52832711,-1.17609489,-1.60217202,0.63397205,1.22164452,0.42794558,0.34863901,-0.00778583,-0.02810518,-0.16842893,0.00298579,
1.34429502,
0.19540747,
0.90187550,
0.98141456,
0.52921301,
1.02279449,
1.44749808,
0.86457580,
-0.01798001,
1.13672280,
0.76110458,
-0.20586616,
1.41472232,
-0.14438204,
-0.41091451,
0.15929684,
1.14084435,
0.90710306,
0.36134315,
-0.89897674,
-0.04045279,
-0.56267446,
-0.42652962,
0.49530759,
0.57843649,
-0.64622092,
0.87584788,
1.40236521,
0.91266042,
0.64856172,
-0.04297074,
-0.69116843,
0.09677790,0.19398305,0.07978447,0.61827308,0.88446039,-0.16818659,-0.06042411,0.16898094,0.24255405,0.34777492,0.15273719,0.18555692,-0.25768542,-0.04624211,1.40641916,0.04714045,-0.30953085,-0.10070077,0.55643016,0.51333219,0.41402802,0.25947919,1.29331160,0.43860692,-0.37806499,1.26463938,-0.60232937,-0.08203735,-0.09408377,0.08615366,0.15715978,1.32594359,
-0.08020145,0.63188994,-0.47820073,-0.25286689,-3.32574129,-0.81865466,-0.03180646,0.08041849,0.44683233,-0.02333825,0.18140388,-0.01521131,0.30606839,-0.63479996,0.52642149,0.49822703,-0.91262048,-0.00045112,0.95741397,0.21281083,0.92441535,0.69903284,2.25996780,0.56238639,-0.33841702,0.65990865,-0.64607871,-0.17353520,-0.70253044,-0.64258558,0.84369290,1.77978504,
0.64750755,-0.64778924,0.43168795,-0.48190805,-1.11091757,0.38014767,0.53581655,0.41657776,0.78647739,0.45640323,-0.56080002,-0.34085280,0.83110315,-0.63602972,0.19244410,0.62359279,-0.01527550,-0.25418523,-0.77401710,-0.08667985,-0.40326658,0.29919121,-0.61265403,0.61735022,1.07281220,0.27315938,0.08916757,0.64268720,0.30975845,-0.61791760,-0.01665506,-0.91346407,
0.64226276,-0.68824583,0.38175166,-0.02380266,-0.94457436,0.45989528,0.65568846,-0.02852667,0.18280113,0.17887123,-0.00172787,-0.74205208,0.50315911,-1.17208719,-0.05266256,0.32702625,-0.13647428,-0.09687770,-0.69225937,-0.31153673,-0.33598050,-0.16503915,-1.18012416,0.34760126,0.99854350,-0.45234239,0.08504620,0.47732115,0.11489919,-0.71294892,-0.27510461,-0.93746102,
-0.31263426,0.92379016,-0.06051695,0.05854714,0.74217933,-0.47226238,0.02722314,-0.00492747,-0.14169608,0.06203111,0.15079989,1.15484738,-0.07155304,0.40532815,0.72269297,0.09847328,0.37624604,0.20098586,0.03362888,0.33527413,0.18260150,-0.04658414,1.01165068,0.21668960,-0.81741071,0.55386341,0.39092705,-0.15643960,-0.09788705,0.14431803,0.26407099,1.16111815,
0.54320312,-0.72476453,0.57253861,0.21927802,-0.73612159,0.59322274,0.07911111,0.16256833,0.56376284,0.19519357,0.28552461,-0.29386669,0.02800682,0.00485799,-0.21591128,0.37387723,0.36914617,-0.34234136,-0.43449038,-0.30012402,-0.29186866,0.07550064,-1.14603734,0.20212306,0.83906227,-0.58501399,0.77867472,0.68838727,0.51348054,-0.39185917,-0.05943851,-1.22248852,
0.52755171,-0.37291849,-0.42453450,-0.52825022,-1.18169236,0.13255580,0.42434600,0.50685924,0.01036551,-0.45288503,-0.24727874,0.15407552,0.93881607,-1.70902121,-1.44834137,-0.79252082,-0.32309735,-0.05162753,-5.16309214,-0.61721516,0.20368484,-0.13328569,0.43386093,-0.31768113,0.81601518,-1.37085187,0.99265021,0.11258768,-0.34939241,-2.92215633,-0.10221878,0.33473077,
0.16304690,0.59008980,0.22930105,-0.07154949,-0.21753050,-0.24575219,0.48438263,0.57582974,0.11701189,0.33062187,0.66839129,-0.10584067,1.09390104,0.31442049,0.43504119,-0.03565169,0.35845539,0.62257051,0.20788717,0.41860041,-0.14862671,-0.22874846,2.26142526,0.56873447,-0.07956235,-0.40978333,-0.56038237,0.77335632,0.17034765,-1.06227946,0.64791745,2.30090523,
-0.13538358,0.01221970,0.03130025,0.07277340,0.17595626,-0.03850235,0.01954396,-0.02277636,-0.11516740,-0.03717508,0.00016435,0.02007820,-0.06041908,-0.15885712,-0.00921506,0.01101803,-0.06667428,-0.20641446,-0.05645709,0.09962568,-0.02145902,-0.09698516,0.12824641,0.13152900,-0.17840464,-0.14268239,-0.15924555,-0.12996624,-0.14964801,-0.09136085,0.10372487,-0.14947325,
-0.17759152,0.16504490,0.44774222,0.37549761,-0.20582455,0.86212420,0.15926060,-1.08174121,-0.26902443,-0.41847107,-0.44829127,-0.58203936,0.36676210,0.40084440,0.43571836,0.03850405,0.32544121,0.12446983,0.75612438,-0.28926539,-0.75667673,0.05719884,-1.35348582,-0.24535331,0.26730257,0.42596895,0.59853077,0.11837278,0.29584494,0.74975502,-1.06043637,0.00605801,
0.20771849,-0.12456220,-0.59221148,0.78819638,1.37203145,0.53384054,-0.40676987,0.57243186,-0.39931852,-0.36353984,1.11835992,-2.74944830,1.11887681,-0.28342733,-1.66879809,-0.85318685,-0.30337036,-0.28548047,0.29805687,0.28026253,-0.09021114,-0.07240324,-1.25194812,-1.52738404,-0.12442011,-3.56018043,-0.17311440,-0.01643031,-0.05646569,-0.71559829,-0.53620160,-0.94776475,
0.63410497,0.26493910,0.50682920,0.59091091,0.36906013,0.53397912,0.55153036,0.19577746,-0.07099314,0.40557852,1.10923135,-0.28581041,0.52505100,0.72370988,-0.58756566,-0.21020491,1.19202757,0.13438387,0.36495805,-0.15974161,-0.09626644,-0.45381176,-0.87924337,0.32667434,0.45196015,-1.14473236,0.70885623,1.03603303,0.44452658,-0.22428371,0.31321990,-0.96870893,
0.41982663,1.40714788,-0.51296127,0.71966702,-0.03886718,-1.20900202,0.22188216,-3.75423312,-0.25015017,-1.09689355,1.00508654,-1.24392796,-1.70848203,0.81328738,1.04472363,-0.96033454,-1.73844111,-0.22724584,2.31390285,0.09162647,0.68824744,0.12098791,-0.09712920,-0.15020299,0.55817723,-2.17851877,-3.81686068,0.69033128,0.00190421,0.67394572,-0.84450400,-0.09861104,
0.09296258,0.07715272,0.60567790,0.05976015,-0.04479879,-0.02736128,0.36890578,-0.68513352,-0.40725258,0.15977363,-0.98712629,0.82723057,-0.39579546,-0.86289126,0.84331620,0.37455684,0.05423022,0.66499865,-1.18280172,-0.05473666,-0.86613882,-0.61360085,-0.39468366,0.61370260,-0.37345940,0.95709336,-0.41331583,0.09796454,0.18637913,0.51398259,0.31699339,0.06581613,
-0.29197648,0.39700302,-0.28431994,0.27268165,0.99144620,-1.10779214,-0.11889597,-0.67924571,-0.62159407,-0.76117688,-0.02244987,-0.85011858,-0.62639928,-0.22928846,0.09707327,-2.26177120,-1.53935647,0.04595602,0.83714747,0.03536702,0.19213730,-0.31344017,0.42009521,-0.37827593,-0.02749210,-0.69134611,-3.06055927,0.25133812,-0.36369902,-0.02499917,-0.17768900,0.32891190,
0.25716141,-0.92962950,0.12708066,0.48663542,0.74780893,1.06152058,0.25764522,0.25764498,-0.47541097,0.27637264,0.87077814,-0.38052034,-0.03413816,-0.21442334,-1.48903286,-0.43371245,0.37090510,0.15181543,-0.62742180,-0.14135349,0.43284211,-0.25896320,-0.79294050,-0.54675448,0.03264994,-0.70446306,1.28853023,-0.32996705,0.08448892,0.29668891,0.04025257,-0.86162549,
0.16501699,0.41582724,-0.29872313,0.05103366,1.38645089,-0.50544763,-0.35570067,-0.82232106,0.30520278,0.05289317,-0.11082815,0.34593004,-0.37257764,0.04713163,0.24438801,0.45071122,-0.57671857,-0.14443170,0.97268128,0.59363002,0.21043739,0.40295973,-0.00726955,0.00247033,0.14666104,0.95176047,-0.06725111,-0.09018616,-0.09347903,1.58318150,0.08283994,0.51935124,
0.68913680,0.38977295,0.66439593,0.45530322,0.15136999,0.45271581,0.80045474,0.03949979,-0.19211678,0.41171858,1.00550556,-0.36665127,0.81427079,-0.03109433,-0.11667919,0.05338574,0.79497296,0.54321009,-0.04177448,-0.47068524,-0.22807379,-0.63826054,-0.92690867,0.43631580,0.69591588,-0.46916813,-0.06920138,1.11147547,0.35126972,-0.55208164,0.40545410,-0.66564596,
-0.20508797,0.66058600,-0.44477463,0.23436692,-1.28216493,-0.41154671,-0.46141592,-0.06194624,0.20145489,0.16092576,0.44581801,1.17574751,0.00279818,-0.75536245,0.69783783,0.20116358,-0.52986640,-0.28546408,0.86810583,0.44560555,0.63936144,0.29404974,1.48882926,0.45815295,-0.20417291,0.43453741,-0.46483243,-0.23271391,-0.15051347,-0.36027366,0.44940698,1.81315577,
0.43390462,0.02767575,0.08206350,-0.60141438,-2.71057820,0.27822366,0.28209946,0.77006286,0.21055676,-0.19565912,-0.58966017,-0.84895957,0.93641013,-0.89147925,0.78836560,-0.05007498,-0.44457176,0.00021673,0.30731830,-0.20432770,0.21284996,-0.15258837,0.97631919,0.23543814,0.50977367,0.55674779,-0.90656567,0.08502106,0.01701985,-0.22545774,-0.50532871,1.81991303,
-0.29364336,0.57208699,-0.05412561,0.34880218,-0.64241743,-0.10434335,-0.14374883,0.05635538,0.21118130,0.16284390,0.25783518,0.84467906,-1.07588696,0.93254268,0.07771143,0.50662398,0.81538397,-0.08790617,0.10798862,0.31182069,0.26886919,0.04346733,1.32440007,-0.04904917,-1.11299920,-0.97697759,-1.37022245,0.09505017,0.31302252,0.21226650,0.69335228,1.12393296,
0.42143378,0.19777298,0.69522184,-0.01852654,-0.06128389,0.59384489,0.44171184,-0.01577892,0.43819833,0.31222978,0.67602950,-0.17862947,1.03531659,0.28885558,-0.33656958,-0.03907209,1.00068188,0.26891637,0.26902503,-0.39554712,-0.48637599,-0.22809066,-0.88747346,0.70718461,0.48715815,-0.68666166,0.15849786,1.24663198,0.48560610,-0.29160017,0.11862996,-0.62241709,
-0.10318696,0.64615810,-1.30719733,-0.18241514,-1.71898949,-0.78235060,-0.43096271,0.02467740,0.54452628,0.16067940,0.93628836,0.44017437,0.29333058,-0.37680069,-1.08552957,0.22676818,-0.89170825,-0.09882883,0.69249105,-0.22879213,1.13867092,0.55930412,2.32314801,0.55826223,-0.27207199,-0.26000139,-0.15799002,-0.41797385,-1.06161487,-2.11869884,0.94619340,1.99856019,
-0.10223364,-0.20454244,0.21469812,-0.78252882,-0.41273791,0.20619905,0.02065668,0.72342914,0.83241469,0.17649490,-0.17796484,-0.24268417,0.56922126,0.52933449,0.35951361,0.40415338,0.21063453,-0.65259856,-0.71635145,0.49732432,-0.36921033,0.72911370,2.04108024,0.53909230,0.22980261,-0.14961466,0.08188574,0.31306875,0.27900290,-1.03837907,0.17484385,1.20029354,
0.12214479,-0.46507961,-0.02217415,0.51343036,0.35204732,0.29075021,-0.34282890,0.74206150,0.63028109,0.14922616,0.23367204,0.02340276,-0.37317488,1.25618052,0.04278424,0.22405651,-0.07041661,-0.43118709,-0.57681888,0.55861235,0.24723656,0.62519938,1.00285339,-0.08658449,-0.33546969,0.05759893,0.64652616,-0.00039828,0.02920926,-1.10501015,0.00320549,0.82995969,
0.30427468,0.84738821,-0.42727152,0.43819374,1.87767053,-2.64145303,0.26113334,-1.14231884,-0.90938640,-1.25459135,-0.02965484,0.52049190,0.25998098,0.45002848,0.57843316,-4.39391470,-1.10406995,0.27019086,1.13377964,-0.62275308,-0.12963895,-1.45620763,-0.11751855,-0.18989064,0.29030663,-0.51970261,-1.64631855,0.29476011,-0.39938921,-0.27405477,-0.13830937,-0.19384199,
0.87069207,0.08080629,0.41728666,0.85298878,-0.33727384,0.48218098,0.66385448,0.29549342,-0.01361215,0.35011667,0.58711368,-0.81295371,0.89120406,-0.60314471,0.15126723,-0.02147328,-0.02823558,0.34604087,-0.59317207,-0.27444682,0.01895082,-0.30542028,-1.15242577,0.45508733,0.88464457,0.35015148,-0.06370632,0.77995551,0.34826210,-0.72956234,0.12047284,-0.69488907,
-0.14929725,0.18246533,-0.45817503,-0.19673377,-1.09910417,-0.11875480,-0.53245622,0.54257351,0.19996357,0.19354235,0.35647604,0.94676089,0.49526811,-0.19006538,0.62033749,0.02633902,0.16951600,-0.72768766,-0.01444943,0.63059157,0.51253450,0.29441363,1.63988137,0.14662147,-0.85941344,-0.76532453,0.00244116,-0.06117667,-0.25561458,-1.52152681,0.68579721,1.67106736,
0.41255465,0.49117309,0.40239239,0.47298047,0.20763178,0.26487175,0.53392351,0.11228625,-0.06471778,0.30465305,0.92657006,-0.01902845,0.78664863,0.43951708,-0.71196812,-0.04387334,1.03155029,0.33764774,0.56776536,-0.03602668,-0.39117688,-0.32723722,-0.95393163,0.51113218,0.49376878,-0.90109926,-0.09665406,1.18869603,0.46882308,-0.39501575,0.55069691,-0.84180611,
0.28886333,-0.19021291,0.19076695,0.63179362,0.96902812,0.29424864,0.47459358,0.18120214,0.35626560,0.05940126,0.52914423,0.06485006,-0.95590395,0.98507172,-1.13196862,0.84036934,-0.46718684,-0.35751155,0.01210240,-0.00199911,-0.25648808,0.15798545,0.19735229,-0.08065394,0.18922462,-0.96203929,-0.36173072,0.15654227,0.13321878,0.40920621,-0.27806300,0.47720569,
0.00993102,0.10219239,0.01537690,-0.14086591,-0.14991872,0.06473444,-0.06776204,-0.10347766,-0.02406789,0.05596994,-0.12909380,-0.15931511,-0.12016385,0.07332084,-0.13845740,-0.13407800,-0.09691993,-0.08333828,-0.00029935,0.05611898,0.08240472,-0.09513497,-0.00413793,-0.14633738,0.07106142,-0.08301941,0.13634662,-0.13064028,0.09616393,-0.04002450,-0.17177196,-0.06724723,
-0.21820967,0.50885093,0.23610803,-0.71535504,-0.82388413,-0.39350331,0.08136716,-1.10266006,0.06559366,-0.28825143,-0.87189400,0.29493165,-0.00406406,1.48252082,-0.80630904,-0.06847601,0.31024358,0.11920745,-0.51143759,-0.54426223,0.19153769,0.30968297,-1.85968006,0.28204465,-0.20621370,-0.39790311,0.95297891,0.25941551,-0.08894725,0.50146025,0.10305729,-1.19899368,
-0.12657352,
-0.26504263,
0.69282299,
0.83125407,
-0.54638594,
0.69934410,
0.29548818,
0.87547421,
0.05212003,
-0.49589586,
0.52582705,
1.71544588,
0.36708120,
-0.04334998,
-0.08949953,
0.94196653,
-0.59462529,
1.51993191,
-0.26571089,
0.14441326,
-0.06319375,
1.67918825,
-0.16483514,
0.22600928,
-0.47160289,
0.41803503,
1.52214849,
-0.09286040,
1.68855882,
0.05521310,
-0.14958270,
-0.33500242,
-1.34996641,-2.12900257,0.61994255,0.89235252,-0.66443992,0.79780805,-0.87097991,-0.24402727,0.08872519,-0.44677794,0.25841147,0.79984319,-0.30337617,0.14630896,1.23709095,0.89126903,-0.83341348,0.76717007,-1.42874062,0.32763246,-0.34775367,0.86257106,-2.84312320,-0.34677625,-0.76677287,2.51598549,0.73328322,-1.49639678,0.80414933,0.06408045,-0.15864062,0.94403261,
0.42504776,0.77868962,1.40499640,0.79212785,-0.09296321,0.25540537,-0.13956067,0.86806726,-0.14970562,-2.16545558,1.25839293,-0.04972353,1.10740829,0.64441597,-0.52209198,-1.99148333,-0.30065873,0.42582554,-1.45663702,0.85966939,-1.75335062,0.54349685,-0.02937888,0.99656141,-0.20833628,0.50630856,0.74095827,0.55353487,0.27650511,-1.45544207,0.08751699,-0.81585008,
1.85366702,-0.77217501,0.48763475,0.47013503,-0.67639410,0.58339077,2.17616510,0.04601914,-0.01385824,-0.15778671,1.04065013,0.52949035,0.51492727,-0.69248217,-0.13807340,1.08510327,-0.56415951,0.37267113,1.63848639,-0.48608902,-1.43147182,0.32676551,0.27911749,0.29518083,0.61289006,1.46382236,0.98226458,-0.33584395,0.25205839,1.06186414,0.15293516,-0.86762851,
-0.50276649,-0.47599429,-0.41534662,0.28544566,0.18189262,-0.00868890,1.01054597,0.97323465,-0.00016831,-2.38445950,0.60447949,0.88978881,1.24960637,0.80398118,0.37624449,0.11786831,-0.44890082,0.93222553,0.43005282,1.50786674,0.32017222,0.69417143,0.93019480,-0.60523611,-0.25601593,1.09670258,0.60272485,0.18397419,0.94402331,-1.11152804,-0.14074358,-1.31837368,
-0.50005299,-0.03003589,0.53308171,0.20869154,0.19492473,0.68711203,2.19946814,0.54297465,0.15224649,0.07621245,2.30138326,0.77867419,2.51773715,-1.26974237,-0.10323516,-0.61723739,-1.43625057,0.31899533,-1.54195917,-0.63531440,0.89643270,0.74527138,0.40902609,1.36880589,0.66180104,-0.44732580,-0.15380526,0.65003926,0.69746763,0.44459343,0.17143710,-1.18095303,
0.84355891,
0.85185033,
1.17937922,
1.29895771,
1.03007150,
