// Neural Network File Format by Kyle Julian, Stanford 2016
6,13,5,256,
13,256,128,64,32,16,5,
0,
0,0,0,0,0,0,0,0,0,0,0,0,0,
20,20,20,20,20,20,20,20,20,20,9,20,3,
0,0,0,0,0,0,0,0,0,0,0,0,0,0,
1,1,1,1,1,1,1,1,1,1,1,1,1,1,
0.02685485,-2.03226948,-1.19580126,0.09179195,0.08504081,0.09337849,0.12661974,0.08889075,0.25432393,0.11999588,-0.34019053,0.21765558,-0.54505342,
0.01019653,0.15470083,-0.07752810,-0.04910163,0.03062683,0.05842478,-0.01096675,0.07690615,-0.09964822,-0.04588829,0.45513150,0.15986487,0.68493062,
0.06738938,-2.82549882,-2.59264374,-0.31637269,0.20957743,-0.09809604,0.18708533,0.18966934,0.17657040,0.03127089,-0.25739950,0.22336943,-0.18279807,
-0.04904573,-1.01589561,-0.70074338,-0.02274334,0.02020490,0.08213417,0.05453749,-0.05716350,0.07984705,-0.90272278,-0.03579563,-0.03397400,0.30096507,
-0.09577692,-0.11264881,-0.08383962,-0.05654692,0.22463661,0.16893753,0.19943428,-0.05278672,-0.15155162,-0.43415082,0.41573778,-0.15151417,0.52825743,
-0.00896534,0.00790964,0.01834335,-0.00035491,0.00746020,0.01966578,0.00878688,-0.03302401,0.10916111,-0.11396971,0.41394326,0.15581137,0.23176140,
0.10665250,0.03012455,0.05062535,0.09223772,0.12853150,0.14934461,0.19599095,0.21009709,0.15776305,0.10127417,-0.64916843,0.16379178,-0.24236630,
-0.16005778,0.07810694,-0.06849289,-0.07584177,-0.07385238,-0.20691223,-0.71175152,-0.18614022,-0.42143178,-0.50859582,0.26942411,-0.21864960,0.13352382,
-0.01434892,-0.13818349,0.02392621,0.10886781,0.18791418,0.24882703,0.44289559,-0.28194031,0.12740009,-0.26211840,-0.45056462,0.12004899,-0.48507571,
-0.06845245,0.01966888,-0.01687002,-0.00471366,0.05475331,-0.44044679,-0.02725502,0.03259885,-0.90792847,-0.93028140,0.23219621,-0.01301186,-0.12665056,
-1.09286952,0.14391989,-0.88575727,-0.43385246,-1.18164754,-0.47736382,-1.30771005,-1.51718378,-1.66786575,0.04432663,0.14896421,0.03880484,-0.23241054,
0.09143555,0.13243733,0.28643766,0.19906884,0.00002920,-0.12992555,0.02344809,-0.45702702,-0.03769622,0.00941322,-0.51740658,0.06197060,-0.51376873,
0.04522756,-0.21249948,-0.15371841,-0.34474525,-0.21230894,-0.62727749,-0.50281346,0.00445060,-0.00243185,-0.29282704,0.30950287,0.01441652,0.50067496,
-0.21506375,0.02789057,0.23888639,-0.11925777,0.05567834,-0.01467972,-0.06963656,-0.23250657,0.08273473,0.23408717,-0.20863204,-0.37404400,-0.36810860,
-0.09871683,0.43996757,0.13877660,0.07437951,0.02762432,0.08199780,0.10993915,-0.18700667,0.08656440,0.21441871,0.06689655,0.01345623,-1.54981136,
-0.15780269,-0.00397040,0.04393303,0.01621020,0.14105476,0.05915024,0.05396475,0.09043325,0.13130926,-0.02649963,-0.49151573,0.06630956,-1.16453922,
0.35405660,0.24666546,0.17190637,0.28870350,0.18514611,0.30069923,0.24974948,0.27483016,0.22067197,0.17150567,-0.33370879,0.35270524,-0.30130711,
-0.01916788,0.08636101,0.11974744,0.13555153,0.09762634,0.14714581,0.33593979,0.14636666,0.16930532,0.25762773,-0.18083562,0.14191854,-0.65939021,
-0.08589666,-1.57212341,-1.54417861,0.17947666,0.12117724,0.14853606,0.13171747,0.10939950,0.07069352,-0.58980095,-0.19006422,0.13724442,-0.72977406,
0.08832555,0.11532769,0.24586639,0.18590949,0.12702744,-0.29839182,0.13722545,-0.12510483,0.17030214,-0.38792711,-0.36870706,0.16363463,0.30459440,
0.14508875,0.19173485,-0.24942970,0.08157118,-1.09909356,-1.37068796,-0.04213482,-0.58873624,0.15778707,-0.12632605,-0.37031385,0.10456751,0.05206754,
-0.02487891,0.01980296,-0.02752812,0.03290875,-0.02959326,0.01279225,0.11468045,-0.02119931,0.04944673,-0.08870085,0.36525971,0.09537067,0.33068389,
0.00768519,0.04893285,-0.05418046,0.05427126,-0.27370387,-0.39910957,0.11325782,-0.45243794,-0.29040819,-0.00952093,-1.30909944,-0.36182243,-0.63957906,
-0.72178674,-1.37053931,-1.47735810,0.01284331,-1.89299965,0.07302067,0.06074021,-0.02431018,-0.00183868,0.05556685,0.10349775,0.09049302,0.37729821,
0.03833783,0.06588253,0.04013604,0.00480817,0.06694302,-0.08116422,-1.69414401,0.18311931,0.15325147,-0.01347178,-0.23411351,0.19128188,-0.44258645,
-0.01133227,-1.80216205,0.00475777,-1.59447110,-2.12705803,0.14086732,0.12581459,0.12964888,0.06497104,-0.62883347,-0.05003355,0.10061751,-0.16930950,
0.03524100,-1.58166802,0.11669305,0.08312564,-1.27892935,0.00595431,-1.21069944,-1.45875216,0.01563148,0.06704139,-0.05140642,0.08593726,-0.32981560,
-0.08157633,-0.04561996,0.12452322,0.04413056,-0.09554932,-0.11843283,-0.31778216,-0.37986335,-0.04990634,-0.13636449,0.41989645,-0.06148763,0.72523189,
-1.84264326,-1.87436819,0.14357594,0.07972690,0.12513828,0.13510585,0.10435789,0.11070371,0.06378277,-0.61128902,0.00082855,0.13480628,-0.36103755,
-0.01885938,-0.03561843,-0.05219071,-0.01198881,-0.00939205,-0.00710145,0.00034048,0.08241390,0.00330046,0.13873355,0.41352901,0.11060848,0.66521740,
-0.37265003,-0.23883146,-0.53954613,0.03351368,0.05078200,-0.08549423,-0.11020992,0.06227337,-0.01632469,0.20748293,-0.16861093,-1.17383051,-0.96450531,
-0.07689323,0.02340901,0.06434878,-0.03957695,0.03393700,0.13342601,-0.30394995,-0.72443831,-0.41089505,0.03967828,-0.77619022,-0.42548487,-0.29455864,
-0.12010204,-0.01840904,0.00724656,-0.92083895,-0.83260047,-0.89409167,-0.08175785,-0.20350054,-0.34641141,-0.14223889,-0.04604408,-0.15664060,0.02910956,
-0.09513164,-1.35123897,-1.49283826,0.10187478,0.15574379,0.10349175,0.01297047,0.00144499,-0.10222529,-0.06038980,-0.25246930,-0.18257533,-0.54732329,
-0.08093319,0.08431667,0.16870220,0.15979584,0.15717430,-0.01534627,0.14573650,0.08362439,0.10357903,0.23511639,-0.01179602,0.10301058,-0.95317537,
-1.23696685,-1.28239357,-0.56414360,-1.06547880,-1.02184463,-0.75664359,-0.56225324,-0.67830688,-0.06312736,0.25610784,-0.26645458,0.05380400,-1.25428379,
-0.08349986,-0.21836171,-0.26808879,-0.01418343,-0.29758844,-0.13773501,-0.50148129,-0.03665740,-0.33766404,-0.10830854,0.46214920,-0.48574850,0.91555089,
-0.05018956,-1.29146945,0.01255996,-1.19655895,-1.52464294,-1.31091142,-1.07451892,-1.43003225,-1.46861601,0.05702703,0.09809023,0.06078504,0.15847003,
-0.41459444,0.08397343,0.08256712,-0.36493179,-0.44763997,-0.13974704,-0.31620416,-0.32604018,-0.82812202,-0.34262937,-0.16421939,-0.14317253,-0.80481797,
0.01883368,-1.78053832,0.30171779,0.21133482,0.10098739,0.15397832,0.22254647,0.24831863,0.13686953,0.22376256,-0.35608426,0.05358115,-0.28583753,
-0.05982935,-0.08980517,-0.08530123,0.02524235,-0.36256552,0.00009634,-0.17750953,-0.82648939,-0.06224768,-0.40649688,0.22898997,-0.43039864,-0.03478971,
-0.34779242,0.00164979,0.02736844,0.17816964,0.00510623,0.02278714,-0.00210772,0.02716461,-0.02221511,-2.08227372,0.17410718,0.02316333,-0.46900651,
-0.11640562,0.02227698,-0.02810867,-0.09361330,-0.16006672,0.07159218,0.04219484,-0.54620218,-0.15422402,-0.77852428,0.01844869,-0.01815780,-0.18737225,
-0.10931738,0.35200503,0.32985449,0.16313720,0.16470212,0.21668312,0.29374272,0.13006607,0.15195356,-0.17646109,-0.07276602,0.05159695,-0.33985791,
-0.06076100,0.18172918,0.07862831,0.11370446,0.12787493,0.14659314,0.10015019,0.08626391,0.14220615,0.13485871,-0.07647389,-0.01607043,-0.64781898,
0.06544187,0.04014787,0.08953894,-0.00398071,0.13425350,-0.50869066,-0.14397357,-0.66029376,-0.48906195,0.19245410,-0.76390129,0.05518413,-0.31613699,
-0.01928152,-0.00979040,-0.51367235,-0.66570294,-0.18229756,0.03669441,0.18873507,0.17768501,0.01942738,-0.33926740,0.20029360,-0.27565587,0.35251471,
-0.08283001,-0.04873147,0.24711141,-0.12109102,0.05080565,-0.25380775,-0.25232199,0.28771096,0.04242421,0.15999250,-0.13866949,-0.03666890,-0.70902860,
0.20138694,0.31293935,0.12691836,0.20678379,0.21474379,0.29607269,0.14071973,0.30049592,0.13493544,0.12897174,-0.12077095,0.11958228,-0.75407875,
0.14643055,0.35643339,0.33245957,0.19421986,0.08793450,0.07996788,0.26869005,0.12452404,0.15008323,0.05822991,-0.05211635,0.15785824,-0.79762697,
-1.08041131,0.21932271,-0.98344284,-1.22247434,-0.71927756,0.09537032,0.10148953,-0.43705520,0.05541527,0.01800760,-0.08882431,0.06202913,-0.15818056,
-1.51967728,-2.36630559,-2.52997875,-2.43835473,-1.93492115,-1.92244685,0.09213259,0.09173681,0.13774487,0.10521387,-0.02759579,0.08340215,0.13019705,
0.05890961,0.01977663,0.13143735,-0.02119572,0.06991747,0.01222065,0.05024440,0.17361422,0.05435416,0.25526384,-0.02272857,-0.35460296,-0.76098686,
0.12627821,0.15620588,0.15165068,0.17467363,0.25449768,0.25313148,0.19822448,0.17278352,0.16756107,-0.44156528,-0.30748880,0.19493167,0.33351535,
-0.29475847,-0.29512522,-0.48516947,-0.18943696,-0.24716973,-0.14540732,-0.27893656,-0.15847996,0.04808116,-0.13699463,0.42700338,-0.22197098,1.17225194,
0.12671827,0.02709958,0.09460393,0.06408945,0.07717998,0.11127041,0.20780061,0.15041056,0.05366505,0.15864432,-0.07060788,0.06715365,-0.75580621,
0.01599839,0.22720416,0.15825664,0.15548696,-0.14124058,0.02506548,0.04287936,0.14995357,0.01101223,0.09906481,-0.18611237,0.13870598,-0.63794047,
0.02288327,0.00151471,0.16993184,0.15837233,0.28284851,-0.03425620,-0.03158951,0.17604135,0.23403168,0.08390509,-0.21566935,0.29754117,-0.15346274,
0.02417839,-0.02560228,0.21210076,0.17403649,0.16673476,0.20033082,0.19785587,-1.91135168,0.13926961,-0.21950197,-0.18817316,0.13564846,-0.29510847,
0.37166524,0.14245957,0.24196522,0.16867316,0.13450836,0.14914499,0.13297491,0.30395746,0.20761903,0.26835081,-0.24106064,0.21586759,-0.46769482,
-0.86604267,-0.78248405,-0.13780695,-0.05100681,0.08440028,0.14342861,0.04104645,-0.21751124,0.14272602,0.15691289,-0.38982669,-1.38149023,-0.85656863,
0.17779741,-0.05421892,-0.04267357,0.18686697,0.20802726,0.18864337,0.19125961,0.16917399,0.26796567,-0.28142250,-0.39020133,0.19165595,0.54347652,
-0.00376647,0.35267228,0.31650019,0.20896144,0.31536978,0.14300203,0.21752974,-0.08719244,0.08207522,-0.15025744,-0.17213126,0.06381822,-0.54311728,
0.28490794,0.06324491,0.21398683,0.12347607,-0.01582928,-0.66293824,-1.21456945,-0.19372854,-0.07279607,0.01913053,-0.30135810,0.23953313,-0.23883708,
-0.28130892,-0.18478510,0.01301921,0.01617486,0.01544606,0.01207041,-0.06394289,-0.00867877,0.00894966,0.09258692,-0.79249519,-0.45705017,-0.52397531,
-0.14072585,-0.31621045,-0.30411577,-0.24448840,-0.11683641,-0.16482902,-0.21331626,-0.31330118,-0.25868213,0.02351277,-0.00152889,-0.15513743,-0.06967252,
-0.22092152,0.09729838,0.10024066,0.14695172,0.05032763,0.23207024,0.09192134,0.03141513,0.17894752,0.02373180,-0.13198596,-0.20266643,-0.29520684,
-0.12882365,0.07901414,0.22692159,0.04313578,0.06078536,0.13200895,0.17784658,0.13850795,-0.01631587,0.19724260,-0.18272831,-0.50003380,-0.54969591,
0.03322932,-1.16708088,0.04347663,0.13088575,0.10704546,0.17160036,0.32916564,0.11874449,-0.61881655,-0.29570073,-0.52398705,0.14047213,-0.29699928,
-0.08025994,0.02951705,0.01278737,0.04867100,-0.25143522,-0.04186666,-0.50724006,0.00881553,-0.14507431,-0.05297388,0.10171629,-0.62205470,0.56556535,
0.05644121,0.12932506,0.17815787,0.52356112,0.08341944,0.05949850,0.12251022,0.04774126,0.08390820,-0.26453102,-0.67864388,0.05825768,-0.55994999,
-0.12266224,-0.02347575,-0.28665236,-0.23027653,-0.28679705,-0.29599091,-0.14989965,-0.14859068,-0.22707541,-0.21601824,0.50418055,-0.20559730,0.78750241,
-0.13576759,-0.40560299,0.23818524,0.17566420,0.17146924,0.11109582,-0.20696300,0.10625516,0.21330465,0.18690416,-0.28247055,-0.24008976,-0.71996689,
-0.22823471,-0.30281046,-0.19932693,-0.22736551,-0.22182830,-0.23025322,-0.31741545,-0.16209260,-0.24851212,-0.08666085,0.32326719,-0.28068417,0.74372476,
0.23171410,0.14493464,0.13696773,0.14584900,0.15473457,0.14721033,0.16675305,0.31853560,0.24182490,0.28815970,-0.29357910,0.27272174,-0.30238196,
-0.34760010,-0.02399605,0.10543995,-0.11721426,-0.08319815,-0.07546379,0.11383740,-0.22537777,-0.09389181,-0.17888209,0.41885847,-0.17270966,0.95733070,
-1.19770300,-1.96743846,-2.22992873,-1.91093135,-1.80909646,-1.41284442,-1.13298225,-1.14945233,0.11039247,0.22982308,-0.23093233,0.13521944,-0.15684710,
0.12024707,0.06649797,0.12700261,0.10426264,-1.89105546,0.03330288,0.16585363,0.20538020,0.08647799,0.21788396,-0.09161370,0.10616660,-0.86816907,
0.00845184,-0.00928588,-0.30118820,-0.14030088,-0.08187417,-0.27006721,-0.05120680,-0.20446284,-0.93635273,-0.82356614,0.28738728,-0.05562735,0.33447739,
0.04197836,0.19741045,0.05715322,0.05936455,0.02252811,0.12895760,0.13597307,-0.09633085,-0.47104156,0.11903222,-0.34676608,0.23071548,-0.79669577,
-0.15262218,-0.26277131,0.00469645,-0.23301056,0.12387725,0.11043008,0.07437469,-0.11986496,-0.06560187,-0.39008433,0.51880699,-0.18778603,0.35591829,
-0.06630427,-0.15876605,0.00563438,-0.52700001,-0.02158366,-0.01538555,-0.62485504,-0.04793435,-0.29653817,-0.07167435,0.05249822,-0.66189402,0.51716852,
-0.08526815,0.20054287,0.21573219,0.11190899,0.11921882,0.05240076,-1.45803666,-1.58100116,-1.01972985,-0.24637365,-0.62936139,-0.27434760,-0.27069509,
0.29252166,0.08675449,0.13525967,-0.05984648,0.01772698,0.13828492,-0.65000427,-0.53166825,0.03585922,0.11008232,-0.27376255,0.13973875,0.08431567,
0.08089403,0.03394009,0.16013668,-1.85237896,0.05552572,0.11946277,0.12381704,0.13433675,0.12404413,0.17128938,-0.09965855,0.10486688,-0.81494910,
0.12008861,-0.18250088,0.15227906,0.13208459,0.23676467,0.23820496,0.14285438,0.10723134,-0.20365249,0.16499253,-0.11313280,0.10949171,-1.08142686,
0.27951971,0.12544519,0.33333501,0.09452310,0.22001626,0.11674010,0.32870707,0.36706331,0.41285747,0.32226098,-0.16511275,0.22086522,-0.62664455,
-0.04556540,0.33777297,0.16150351,-1.43250012,-0.01430810,0.12177078,0.21363543,0.13486630,0.12444080,-0.02373981,-0.27659783,0.08254676,-0.29075450,
0.02631586,0.00929882,-0.06927454,0.03269536,-0.01449469,-0.08993583,-0.14975217,-0.11530735,-0.28117156,-0.48092541,-0.32552105,0.14060740,0.65059745,
-0.24283583,0.00221568,-0.27754411,0.00133995,-0.13845898,-0.33892688,0.18686257,0.10655062,0.10065552,0.27593750,-0.19575928,-0.15972060,-0.75126851,
0.23799063,0.32460555,0.16447891,0.23549043,0.06312828,0.33388305,0.30503342,0.23027676,-0.18322873,0.24878876,-0.31670174,0.11753111,-0.11461366,
-0.14147840,-0.25101072,0.27297619,-0.29481706,0.07680269,-0.37670338,-0.21217190,0.17268384,-0.07914762,0.16617064,-0.34217525,-0.24165508,0.04703768,
-0.84495789,-1.70370734,-0.67634267,0.12792456,0.01968824,0.05082116,0.10481235,0.07602146,0.06538624,-0.02272829,-0.67304367,-1.37596357,-0.43673089,
-2.63341522,0.03841156,-1.80556548,-0.23925945,-2.18280888,-1.59014952,0.06392696,0.14064920,0.15661913,0.08531313,-0.12497405,0.10497936,-0.32626492,
0.08919233,0.25133029,0.30724496,0.24270201,0.14129600,0.00236878,0.00544999,0.05020969,-0.56310588,-0.25564376,-0.62084806,0.00374378,-0.25520971,
-1.38809669,-2.21443057,0.13721265,-2.33702612,0.07382293,0.12843616,0.08409731,0.07375204,-0.06145141,0.10747524,-0.12836923,0.08790655,-0.34009475,
0.02214468,-3.34608412,0.12354042,0.12673746,0.08574262,-0.08982772,-0.06861111,-0.00063046,-0.01560086,0.09020626,0.01437780,0.19739483,-0.44705075,
0.14205423,0.00031576,0.04798867,0.00479661,0.07404754,-0.02170953,-0.00015029,0.02736417,0.00466968,-1.19739544,0.34317589,0.04029452,0.24099477,
0.01957392,0.04899949,0.09738632,0.08490878,0.06756566,0.10257265,0.12516961,0.10607649,0.07371814,-0.14865050,-0.07498279,0.17288576,-0.40059987,
-0.39093608,-1.15589416,0.07890100,0.02184102,-0.59399658,0.07712860,-0.25130078,0.12071031,0.06389003,0.17505501,-0.99827236,-0.57416618,-0.50970638,
-0.28714743,-0.02240241,0.07627867,0.04332824,-0.03296470,0.10380882,0.11442856,0.12470026,0.10603727,0.12106828,-0.69934255,-0.13990752,-0.76405686,
-0.71122319,-1.40044224,-0.69781828,0.03133652,0.02295331,-0.39039868,-0.03963475,0.01759183,0.01006320,-0.19268209,-0.56942582,-1.02853727,-0.47310799,
-0.03657322,-0.20334545,-0.19326954,-0.35124442,-0.59734732,-0.50337398,-0.03483150,-0.35589272,-0.01418492,0.24060148,0.06997620,-0.02186259,-0.93003482,
-0.11052431,0.04305324,0.11331180,0.09662082,0.05251162,-0.01847143,-0.32124591,0.19323933,0.21323922,0.08024865,-0.77049375,0.00025495,-1.05508316,
-0.30298704,-0.16955802,0.02111083,-1.53915226,-0.94944984,0.01701332,-1.10977077,-1.13886714,-0.57543182,-0.27019599,-0.27438802,0.12081371,-0.20805554,
-0.04131418,-0.01883621,0.00365385,-0.11452784,0.00498920,-0.13024759,-0.15201609,-0.15225761,-0.12887070,-0.03982335,0.50938380,-0.04549913,0.56329513,
-0.00382861,-0.44231588,-0.39102855,-0.24039051,-0.25553331,-1.08999991,-1.46428585,-1.22742379,-2.13176632,-0.01769104,0.33817196,-0.02427411,-0.01693387,
-0.12833261,0.13511263,0.24381059,0.19352962,-0.53445858,0.12618452,0.13171239,0.02589168,-0.30832723,-0.89204764,0.29138967,-0.07760365,0.43712544,
-0.03778052,0.00318411,0.16570677,-0.04657305,-0.09798028,-0.08855824,-0.05848266,-0.09556603,-0.06690531,-0.02757613,0.47876552,0.08800614,0.53704113,
0.18499553,0.11015313,0.04002652,0.04754916,0.11905075,0.08188446,0.13637920,-1.52645051,-1.33898020,-1.29360676,-0.05245617,0.09166085,-0.21650206,
0.22355166,0.26606724,0.26622802,0.26383165,0.23595396,0.07957380,-0.04057091,-0.07976281,-0.06267241,-0.29797819,0.44137079,-0.07159126,0.33794266,
0.20618750,0.12951037,0.16979377,0.06495351,0.12680306,0.09548108,-0.56236488,-0.44000587,-0.59196699,-0.15610957,-0.23271255,0.17660120,0.19970870,
0.02160481,-0.07977457,-0.04928354,0.05561811,-0.07996149,0.06535430,-0.00863150,0.10963646,-0.26438838,-0.25683960,-0.07175409,-0.80648828,0.57825994,
0.19835036,0.20955616,0.17137863,0.33675143,0.13863830,0.19606934,0.15565819,0.13075228,-0.14949180,-0.35408536,-0.36429235,0.17541037,0.31626722,
0.13525639,0.15716527,0.09636178,0.30514669,0.15384619,0.17565517,0.18600520,0.25491750,0.16774216,0.18031909,-0.19905315,0.23394126,-0.40873176,
0.00841419,-1.58415675,-1.55413282,-1.76845515,0.09003812,-1.97419453,-0.58328718,0.08801322,-1.06900096,0.16423008,-0.12904692,0.09432480,-0.44074419,
0.17226276,0.17465095,0.27286303,0.11985344,0.23196806,0.16740444,0.17594622,0.16561137,0.30169016,0.32682866,-0.23635060,0.24546109,-0.50781369,
-0.13507143,-0.04261459,-0.65993482,-0.48381111,-0.50853086,-0.27655298,-0.19446228,-1.27196240,0.10953558,0.01822763,-0.25984102,-0.35368368,0.09680908,
-0.03274661,-0.27920914,-0.10192562,-0.06111748,-0.12800732,-0.02802757,-0.02931437,-0.06142929,-0.06138525,-0.35417852,0.31993416,-0.57150668,0.32377025,
-0.01179172,0.17086685,0.13819820,0.10392021,0.04257909,0.06776802,-0.09193570,-0.04232412,-0.04823396,0.18543060,0.46392810,0.01976283,0.59745258,
0.02548091,-0.12178896,-0.00488576,0.10915180,0.11678279,0.16979228,0.28726870,0.16222221,0.25116765,0.17070828,-0.37249666,0.20722422,0.14540334,
-0.05633225,-1.75315654,0.10705958,0.12829283,0.17760295,0.17266388,0.31457481,0.29449579,0.14136863,-0.24305996,-0.54188472,0.15019934,-0.35976291,
-0.02844755,-0.14903405,-0.18807870,-0.10698480,0.05598305,0.12947188,-0.78488845,-1.14867771,-1.06613600,0.19002198,-0.19397621,0.16928282,-0.58162004,
-1.36693406,0.03741741,-2.01005292,-2.03543353,0.07758997,0.06344247,0.17122312,0.07539396,-0.44944188,0.10607582,-0.12962906,-0.03955421,-0.06563101,
-1.63659537,-1.50026786,-1.56905305,-2.10830784,-2.16995168,-2.40277982,-2.35042739,0.08608451,0.09208427,0.03939501,0.14610259,0.09060134,0.11910433,
0.03012642,0.02113892,0.15047739,-0.01269227,0.04640277,0.14043686,0.18734613,-0.14561115,-0.41882032,0.07526777,-0.19981304,-0.15852959,-0.69238722,
0.23781888,0.12006997,-0.11515269,0.09458452,-0.74448985,-0.51005483,-0.07992531,-0.88294166,0.19402568,0.14300384,-0.30752704,0.20025341,-0.27761701,
0.20872408,0.02668087,-0.56015158,-1.27671695,-0.76494193,-1.17522883,0.00040338,-0.48827419,-0.98848611,0.10478672,-0.34835416,0.15025054,0.22004071,
-0.43536076,-0.15037069,0.01973166,0.12355456,-1.14259279,-0.00421994,0.04710253,-0.20752409,0.04354208,-0.48719740,0.06182043,-0.22629958,-0.11207461,
0.02252949,-0.12693183,-0.34387577,-0.22757903,-0.24737372,-0.07426575,-0.13036419,-0.41237172,0.09565983,-0.24050611,0.34648439,-0.11079337,0.66375452,
-0.22533818,-0.13208933,-0.18244618,0.00508777,-0.03889240,-0.04178211,-0.59719414,-0.27600312,-0.10075808,0.00440693,-0.39858899,-0.38496676,0.29985645,
-0.21985097,0.46317890,0.45017087,0.32438511,0.15000516,0.10001921,-0.21036544,-0.16048329,-0.69239146,-0.79492599,-0.23650855,-0.13099696,-0.39448571,
-0.01344665,0.03266206,0.10271112,0.14682874,0.32724825,0.30706832,0.04251977,0.14675310,0.24450381,0.10332110,-0.65326589,0.08988146,-0.48928508,
0.33253324,0.25971064,0.00635226,0.01648379,0.09113495,0.21562615,0.25630730,0.25575435,0.20489652,0.21633407,-0.27929786,0.20826244,-0.30451027,
0.16925123,0.15655255,0.14589243,0.19962180,0.23028232,0.15683301,0.24573858,0.06878564,0.18999472,0.26127008,-0.20219095,0.12323387,-0.29366112,
-0.46918616,-0.13849813,-0.05648150,-0.23069341,-0.69639504,0.07254668,-0.12931971,-0.29473168,-0.16165835,0.18884505,0.26981214,-0.33506492,0.81594229,
0.08391795,0.06677772,0.12862155,0.16803500,0.29369274,0.27864209,0.28774467,0.18848301,0.22625110,-0.33247808,-0.23750679,0.22344106,-0.04451967,
0.11822030,0.00264482,-0.31234521,0.16897675,-0.02678206,0.13616787,-0.36275163,0.15050757,-0.63812864,-0.09407903,-0.41163418,-0.17655544,-0.30074057,
0.32887378,0.03006510,0.18702075,0.04661506,0.16405037,0.00683252,0.15179268,0.12836236,0.01850932,-0.05797593,0.01033454,0.04021306,-0.88869655,
-0.16717914,-3.35777688,-2.31329274,-2.45254421,0.16677776,0.18970492,0.18809348,0.19528449,0.18802488,-0.35434669,-0.30890065,0.17750274,-0.04782958,
-0.10159967,-0.22492495,-0.02265704,-0.22917332,-0.04946405,-0.06528289,-0.02917391,-0.09285967,-0.00555501,-0.02110487,0.36435661,-0.54345965,0.78722262,
-0.11317421,0.05882765,-0.08007675,-0.16665533,0.01474863,-1.86444068,0.05070610,-0.87670237,0.11990271,-0.34257135,-0.26760322,0.10553969,0.65215170,
0.11827541,0.10627216,0.08703355,0.33918324,0.48408005,0.08027284,0.04414058,0.07156247,0.14067283,0.29393345,-0.35553858,-0.01184996,-0.82037169,
0.46495697,0.52058941,0.28514808,0.17150372,0.29585910,0.19790886,0.07536661,0.04949917,0.05125456,0.01509267,-0.02501015,0.08181997,-0.65795881,
-1.25663292,-0.26758340,-1.50478411,0.10059565,-0.18545642,-0.95223171,-1.41120970,-1.96573555,-0.78613567,0.17614938,-0.05671301,0.12773949,-1.05126798,
-0.76099348,-1.20473659,-0.46292114,-0.95012915,-0.82598901,-0.21966107,0.11877143,0.08913297,0.08455224,0.06724061,-0.19595355,-1.57277310,0.74236929,
0.22067100,0.27452758,0.26349965,0.35875320,0.23549937,0.19313811,0.19175096,0.31692824,0.27339607,0.20813830,-0.33609655,0.19695346,-0.51780194,
0.12002881,0.16587852,0.00549703,0.16269839,0.06076729,0.07701336,0.03765270,0.12780915,0.23979828,-0.03738312,-0.35527292,-0.03007497,0.04253696,
0.03670944,0.02013165,-0.01178139,-0.10843766,-0.01785233,-0.00754389,-0.04457837,0.09010421,0.17994097,0.20764078,0.28183562,0.08437110,0.32576793,
0.06081261,0.14589801,0.23289548,0.05012114,0.05770634,0.06405955,0.10761751,0.22083198,0.18619345,0.08129022,-0.11480301,0.12738131,-0.66574240,
0.18865708,0.06178507,0.07353880,0.03688431,-0.07162250,-0.19023770,-0.10881573,0.17587276,0.29240417,-0.36581120,-0.37128499,0.15813090,-0.25024739,
-0.01408230,0.17561330,0.01264150,0.05179687,0.05332413,-0.05099950,-0.02781414,0.03307436,0.03702229,-0.15139879,0.39278889,-0.00822947,0.21952380,
-0.11032707,-0.22088027,-0.11560744,-0.42154843,-0.14719790,0.06289115,-0.06752706,-0.44253060,-0.00909825,-0.07889391,-0.00972116,-0.11130702,0.77240098,
-0.03887130,-0.15942183,0.02401722,-0.20481859,-0.04761439,-0.52863026,-0.13410516,0.02769950,-0.15631752,-0.02531118,0.37782085,-0.03335950,0.71327335,
0.38415202,0.40105945,0.16827168,0.37296331,0.14962703,0.29672235,0.06854694,0.06541035,0.07185940,0.06163684,-0.06716111,0.06830143,-0.85698318,
0.07086033,-0.22442530,-0.15571424,-0.40700129,-0.31541669,-0.14342850,-0.20053704,-0.19224656,-0.19800782,0.06293549,-0.66719717,0.06516742,-0.53274238,
-0.10107130,-0.01837140,-0.07339105,-0.34788561,-0.42101315,-0.52452087,-0.35181579,-0.94100785,-0.07367242,-0.13615197,0.17624974,-0.33319148,0.60723883,
0.32292977,0.22717404,0.35888034,0.13014016,0.14546186,0.16469716,0.07645565,0.11425457,0.11965294,0.07244537,-0.16951419,0.10613609,-0.79914826,
-0.08863331,-0.19055989,0.03275750,-0.09717449,-0.11921398,-0.13929352,-0.12581813,-0.15419397,-0.16066088,-0.16916953,0.38270670,-0.56952298,0.45637414,
-0.28958586,-0.02387709,-0.18816613,-0.28326857,-0.36839753,-0.12626539,-0.05740747,-0.02956825,-0.30521849,-0.03663516,-0.59158385,-0.38166326,0.84264225,
0.34514120,0.37710467,0.17148852,0.13377421,0.20043400,0.05737088,0.13742216,0.16163039,0.21630761,-0.06332920,-0.27516672,0.13674641,0.23781317,
-0.19160999,-0.05326354,-0.03783047,0.01687128,-0.06104113,0.06173822,-0.03290041,0.10639103,-0.12314820,-0.32427159,0.47134647,-0.11719582,0.55365735,
-0.10959571,-0.14428423,-0.03800535,-0.12823217,-0.20507526,-0.09053733,-0.19353437,-0.46023464,-0.14344427,-0.15259960,0.15428478,-0.72936600,0.61136806,
-0.83799839,-1.16320240,-1.28464305,-1.40851688,0.08574875,0.12943053,0.12703986,0.13898021,0.10009033,-0.00375792,-0.20968536,-1.35739207,-0.45002517,
0.20946804,0.03363007,0.16816075,0.07189123,0.15846419,0.26057547,0.22863239,0.06089852,-0.19940151,-0.03247835,-0.29624560,0.28114668,-0.51149344,
-1.11345565,-1.50525367,-1.29944229,-1.46010077,-1.01591873,-1.42455041,0.05567007,-1.17799258,-1.00323725,0.12325331,-0.05448164,0.04512056,-0.52479017,
0.04759096,0.06032027,-0.11246625,-0.35488153,0.01132351,-0.41422841,-0.25779399,-0.24869539,-0.44863647,-0.07077616,-1.18031466,-0.15602823,-0.31263766,
0.00645652,-0.70611912,-0.07607096,-1.00884593,-0.40882197,-0.00894032,-0.42068702,-0.30132031,-0.48890015,-0.11180838,-0.40981144,-0.27977666,0.47074687,
-0.78058422,-1.39448810,-1.29489231,-0.62435317,-1.52628481,-1.23742032,-1.45171750,-1.48739493,-1.25115931,0.11119444,-0.06435820,0.07574937,-0.78716868,
0.21530268,0.52406633,0.12939128,-0.03819046,0.04550462,-0.00576307,0.06909721,0.03437423,-0.30229270,-0.03850116,-0.88988429,0.06512635,-0.47993255,
0.12264993,0.08512185,0.06819474,0.28602424,0.08048940,0.28420556,0.20646852,0.23373893,0.35425648,0.36169347,-0.08282741,0.31153658,-0.75329256,
-0.03172648,-0.02010196,-0.09016040,-0.01789240,-0.04844530,-0.02788373,-0.03136379,-0.07398797,0.02392344,-0.01644755,0.49075836,0.04866816,0.59330559,
-0.03555491,0.00221521,0.02804310,-0.21421504,-0.11649036,-0.02959019,0.00649140,0.07029200,-0.00602435,-0.13868606,0.39643285,-0.00588940,0.59062159,
-0.02397536,-1.33545423,0.03708988,-0.00292697,-0.01177379,-0.00194785,0.18039949,0.05104281,0.00752542,-0.55400562,0.20913963,0.02544399,0.15977284,
-0.03753081,-0.96567816,-0.09510793,0.04658926,-0.01252051,0.11139836,-0.49918020,-0.20979922,0.00506733,-0.17957114,-1.17610800,0.07255609,-0.00868753,
-0.10582615,0.01972355,-0.35011408,-0.24684176,0.01523513,-0.11953378,0.07954996,0.06672633,0.04494561,0.19711688,-0.78697562,-0.78539741,-0.92946327,
0.18727158,0.07868005,0.16079758,0.24539565,0.23681596,0.29344544,0.12623279,0.32535452,0.17002286,0.38107705,-0.06417656,0.21015421,-0.65335149,
-0.41485718,-0.12273580,-0.24581242,-0.30284283,-0.22927478,-0.42607662,0.09196377,-0.20915166,-0.14619157,-0.04208710,0.41512108,-0.26840520,1.04476249,
-0.94753426,-0.00583349,-0.01050249,-0.01770745,-0.03843338,-0.03179017,-0.01109575,0.00246593,-0.03341085,-0.34928435,0.26930445,-1.11598527,0.40682653,
0.09630856,0.00528940,-0.13268319,0.02115639,0.03562055,-2.09818316,0.15750958,0.02329870,0.07176931,-0.24941115,-0.15146804,0.13457945,-0.39637244,
-0.03704517,0.11920934,0.22458372,-0.07711607,-0.32162726,0.22320212,0.20071718,0.22992267,0.29981118,0.08286149,-0.31632110,-0.04309400,-0.17500579,
0.39087522,0.14326933,0.12086502,0.13928020,0.29302022,0.17277026,0.15780169,0.11824048,0.29694933,0.19702639,-0.17017105,0.19564612,-0.82734662,
-0.09180111,0.01345206,0.00690020,-0.15906970,-0.08078527,0.05670676,-0.31225133,-0.24608839,0.01983551,-0.66586685,0.21228060,0.05783309,0.22932929,
0.24878107,0.19421174,0.24463893,0.21780513,0.26886684,0.28734201,0.20170939,0.26885429,-1.67679989,-0.47616857,-0.25801814,0.20542188,0.11251793,
-0.00499332,-0.12667517,-0.58655816,-0.46582797,-0.48552436,-0.26572084,-0.41059536,-0.09447189,-0.23746797,0.01010233,0.22685760,-0.51357573,0.83794147,
0.03388654,0.14737508,0.20701876,0.19537763,0.29136574,0.16717967,0.22769497,0.18894452,0.16532421,-0.08062865,-0.29356757,0.24991153,-0.04536381,
0.00478513,0.08526183,0.04568429,-0.23281989,-0.25269333,0.06205605,0.07521571,-0.06896993,0.04788943,-0.19097672,-1.55576587,0.06726868,-0.97218364,
0.23348507,0.17241244,0.13389336,0.16584232,0.34469733,0.13522108,0.15377958,0.12604363,0.20558548,0.26567999,-0.26005793,0.26652011,-0.28713986,
-0.06467302,-0.08474156,-0.03766178,0.04979748,-0.15769969,0.07293188,0.04795714,0.12539126,-0.51660138,-0.16196662,-0.60441417,-0.39075443,-0.22570901,
-0.19873957,-0.20878105,-0.05789448,-0.27937365,-0.12084453,0.03541787,0.10437775,-0.03760030,-0.80416232,-0.02137841,0.18662596,-0.27261853,0.58757061,
-0.06951269,-0.26354879,-0.22468905,0.14643271,-0.26275396,-0.16600244,0.08469675,-0.10866518,-0.08751271,-0.16016783,0.43376604,-0.13701823,0.93980896,
-0.69192654,-1.07039058,-1.07103908,-0.48606044,-0.83756828,-0.79334378,-0.50260806,0.11105848,0.10085097,-0.15238599,-0.04294857,-1.68491876,-0.16534883,
0.27878925,0.55683970,0.52831984,0.00448073,0.00734497,0.00075828,-0.02154154,0.02722122,0.06383074,0.34440994,-0.62855077,0.07029952,-1.10264146,
-0.00537238,-0.08572201,-0.11350349,-0.00853980,-0.01987997,0.03187488,-0.02889287,0.09387854,0.10674965,0.23614289,0.17476757,-0.07169504,-1.34616470,
0.04644220,-1.19139397,-0.33010647,-1.22077107,-0.09185831,-0.02561582,-1.24737215,-1.32474053,0.03456524,-0.58878094,-0.02497196,0.03331567,-0.36446163,
0.04248706,-1.53277636,-1.92786729,0.09178791,0.12019529,0.10921832,0.06157033,0.13774930,0.08550991,0.05762982,-0.06075250,0.13573493,-0.47072321,
-2.32036543,0.13054094,0.05471321,0.09692712,0.08327693,0.11778846,0.11501545,0.05113916,0.09030925,-1.92745388,0.05280513,0.13500422,-0.43886274,
-0.01598448,-0.39833856,0.27920264,-0.01576777,0.22397001,0.29324627,0.23130041,0.01184261,0.04640875,0.09599891,-0.38320488,0.21118191,-0.39449108,
-0.26227722,-0.41920468,0.03242339,-0.12613328,-0.30520269,-0.10891310,-0.13662818,-0.01241273,-0.09010558,-0.00234823,0.41814551,-0.44466722,0.59615248,
0.35125530,0.20931533,0.14886983,0.34558105,0.19242638,0.13324638,0.15623204,0.12238543,0.15915175,0.11677492,-0.21256797,0.15012817,-0.67295259,
0.24462830,0.39490739,0.17214584,0.20529664,0.16750970,0.29278383,0.08050024,0.05206944,0.21339664,0.14962721,-0.24873285,0.17808151,-0.53938156,
0.03212003,0.05032602,-0.03262526,-0.02475332,0.06191693,-0.01865256,-0.03575534,-0.03266937,-0.02790873,0.03477617,0.44726783,0.18412982,0.16980872,
-0.24233007,-0.01615925,-0.02046076,0.07281876,-0.03761412,0.07177239,-0.21683043,-0.13760528,0.05777051,-0.15439957,-0.28004134,-0.65488023,-0.90845275,
-0.24133094,0.02039126,-0.17591988,-0.22949173,-0.28970209,-0.42233020,-0.55546349,-0.34698164,-0.21044476,-0.06679156,0.17097954,-0.37136972,0.35228881,
0.02675834,-1.73106313,-1.51062024,-1.99989831,-1.88263714,0.13644032,0.16235250,0.19107759,0.12423787,0.10313936,-0.16141962,0.14140303,-0.25316027,
-0.05296413,-0.80951357,0.10073594,0.08757345,-0.22062884,-0.02119135,0.05984676,-0.09360378,0.09423312,-0.33741352,-0.79700184,-0.19781686,-0.47071686,
-0.11924017,0.04165225,-0.03944935,-0.01927896,-0.48033288,-0.24301921,-0.23624273,-0.01347659,-0.53924781,0.09151907,-1.12563598,-0.10082254,-0.64418936,
-0.45456007,0.02316451,-0.24519502,-0.48594815,-0.60740846,-0.32224077,-0.29527676,-0.03694380,-0.79285586,0.14199145,0.13127778,-0.14122452,0.46930790,
-0.52043015,-0.22256809,-0.25394809,-0.03507212,0.02400510,-0.34764498,-0.05619391,-0.37904355,-0.34027711,-0.61325687,0.40191558,-0.31602538,0.11345566,
0.23749477,0.21071772,0.21329050,0.28359720,-0.12590870,0.22046110,0.22497453,0.16802174,0.13014051,0.21752313,-0.23641962,0.16525568,-0.39034081,
0.05719269,0.00907474,0.08400018,0.08475320,0.10964846,0.12982878,0.09860139,-0.01484100,-0.01277956,-0.32155174,-0.07529379,0.20758216,-0.44146547,
-0.06519031,-0.01486790,-0.11422211,-0.04851609,-0.26305851,-0.06097990,-0.11691157,-0.04382280,-0.56686348,-0.15184845,0.20366864,-0.38926321,0.59799403,
0.15064205,0.14469974,0.17710380,0.32561749,0.25784940,0.09368118,0.11371262,0.02969754,-0.00541939,-0.49960855,-0.12668721,-0.06253447,-0.88339281,
-0.37150264,-0.08560636,-0.34344766,-0.21470194,-0.51964545,-0.19841143,-0.16089581,-0.29795954,-0.17536969,0.01150006,0.43760103,-0.12725361,0.67666048,
-0.04458015,0.02511968,0.10544869,-0.16835597,-0.11832225,0.04349383,-0.23138079,-0.54406846,-0.69623077,-0.32192224,-0.76195246,-0.22899224,-0.33807862,
-0.26535624,0.04190704,0.13488117,0.06180558,0.07588814,0.02044888,0.16840531,-0.10956102,0.13548800,0.00647831,-0.63885140,-0.18352459,-0.89960051,
-0.77236950,-0.68506336,-1.19353926,-1.40402234,-1.30559123,-1.51230204,-1.12826347,-0.51965714,0.04550143,0.07643990,-0.00336266,0.06824829,-0.34403378,
-0.05634233,-0.10280935,0.02202266,-0.17416963,-0.23146050,0.17622919,0.20400132,0.11406629,-0.06396497,0.16685092,-0.62162954,-0.21825847,-0.54904598,
0.09268721,0.04316505,-0.08729485,0.05811759,-0.02229849,0.13419749,0.06091624,0.17526658,0.14740472,-0.33678514,-0.34991077,0.13626775,0.68944144,
0.19109531,0.24846503,0.30783334,0.23846111,0.20303561,0.22413051,0.21620043,0.22483715,0.18728891,0.19928578,-0.33975625,0.19921969,-0.60474867,
-0.07596339,-0.59766001,-0.02025738,-0.03682082,-0.05424698,-0.05766575,-0.02930230,-0.03245815,0.06257360,0.12571241,0.27083921,-0.03006676,0.85146278,
-0.00563522,-2.20540738,-2.62228465,-1.61691523,0.11852619,0.15592092,0.10502190,-0.01512033,0.03427358,0.07851127,0.05025560,0.12041813,0.26199859,
0.00556395,-0.02229077,0.00957733,-0.02587079,0.03170279,-0.01910765,0.11579734,0.12479527,-0.01264172,0.17575918,0.39872739,0.12691909,0.33841228,
0.29177165,0.10058475,-1.62911189,-0.00678833,-0.03342326,0.01981307,0.15099637,0.14834961,0.09367522,-0.48192322,-0.25827324,0.13897903,0.47250819,
0.04312627,0.02692555,0.23201600,0.03715637,0.00658995,0.08048870,-0.03029908,0.03306517,0.13969190,-0.09697116,0.34770453,0.10186680,0.14406592,
-0.25483307,-0.15866353,-0.09475662,-0.02277774,0.00208731,0.03542618,-0.01558068,-0.03064867,-0.05048246,-0.05799342,0.21325201,-1.08072114,0.36367965,
0.21827109,0.17810869,-0.77145898,-0.77970952,-0.17120220,-1.03575110,-1.99741101,-0.09003676,-1.38004792,0.09207360,-0.10278831,0.03125221,0.01406191,
-0.64935142,-0.16597825,-0.52199787,-0.51535803,-0.55128080,-0.32841182,0.01828099,-0.27966428,-0.46423304,-0.00193794,-0.27389210,-0.23704511,-0.19863586,
-0.03299141,0.00090138,-0.08623593,0.18483287,0.01156669,0.05636096,-0.02571716,-0.18583968,-0.07047523,0.02085408,0.41292700,-0.02004772,0.41952413,
-0.04749912,0.08992321,0.03310221,0.01444637,0.10629999,-1.18755877,-0.01201067,-1.67178500,0.08662654,-0.30541220,-0.01309799,0.06423362,0.20211411,
0.08401646,-1.40821803,-1.66641307,-1.65753472,-1.38458216,0.06515297,-0.57581896,-1.45878196,0.11599248,0.11641273,-0.02363856,0.04373910,-0.06638663,
0.00993572,0.15780477,0.06455643,-0.70200229,-0.11659253,0.06769840,0.14921404,-1.11649024,-0.71449101,-0.53293002,-0.26794347,0.11398482,0.13016364,
-0.45529890,-0.71944952,0.08564695,0.03153498,0.04154953,-0.19996461,0.00057961,-0.00394636,-0.46127939,-0.10070510,-0.96208221,-0.84897321,-0.45085898,
-0.79468280,-1.01127994,0.04178188,-1.03954780,-0.66778803,-0.00799331,0.03512105,-0.11731128,-0.18669170,-0.27159923,0.06679872,-0.85234261,0.52923149,
-0.73299426,-0.01944546,-0.02428018,-0.38760984,-0.38152283,-0.95603120,-0.10280100,-0.79556996,-0.01868399,-0.23574267,0.24832606,-0.05257116,0.52079874,
-0.02028290,0.07728739,0.18876810,0.18611994,0.16011707,0.18095030,0.18929103,0.18090191,0.28687605,-0.43580917,-0.37699419,0.16891563,0.32948896,
0.03826417,0.01097179,-0.09564802,0.00651610,-1.10268283,-0.42593986,-0.78393966,-0.41411725,-0.68113470,-0.04238591,-0.22414704,-0.68727428,0.30364659,
0.08913393,0.04331188,-0.14443861,-1.05075860,-0.86395973,-1.70190740,-0.10751131,-0.04287301,0.15838538,-0.01454692,-0.19182822,0.04119225,0.29544407,
-0.05456381,0.06329643,-0.00158842,0.01476453,0.16804098,-0.17985874,0.09588508,-0.15497324,-0.22575530,-0.36549827,-0.70381898,-0.01593912,-0.37709767,
-0.25292039,0.01886865,-0.28770867,-0.11419896,0.00937307,0.04577852,-0.00100187,-1.00962138,-0.59555352,0.02367281,0.01380880,-0.59615427,0.73757476,
0.15882745,0.39765114,0.30737561,0.22666423,0.16095328,0.26248619,0.10377206,0.02807699,0.28899199,-0.06736941,0.07325595,0.00934446,-0.89625037,
0.18798198,0.20644908,0.28865188,0.22438943,0.17795639,0.23329276,0.20933901,0.19978826,0.28139025,0.27606824,-0.31176639,0.18559092,-0.48289272,
0.00023705,0.20937018,0.16997631,0.06558625,0.23988882,0.31820875,0.32982922,0.37822732,0.25387451,0.33237946,-0.23775852,0.15817298,-0.67411363,
-0.00329691,-0.02083769,-0.01393012,-0.08414497,-0.05142716,-0.03436359,-0.19888146,-0.06615627,-0.43481958,-0.22768098,0.42733645,-0.74131149,0.22868292,
0.06166243,0.03139653,0.16300906,0.16997319,0.19314687,0.16986901,0.18122865,0.17849876,0.15609547,-0.57638127,-0.39369491,0.16607501,0.63300425,
0.11609538,-0.00134157,0.03948535,0.11447612,0.34405088,0.33428448,0.09422921,0.10605306,0.11528286,-0.07089219,-0.44842416,0.08869780,-0.56716442,
-0.14701204,-0.11658774,0.05306869,-0.32804543,-0.18852250,-0.02313449,0.01248280,-0.04167747,-0.02202577,-0.96671355,0.05357267,-0.18304907,0.21668066,
0.04001715,-0.12248626,-0.15389544,-0.19951630,-0.55349976,-0.40596002,-0.30778670,-0.06717461,-0.14606391,0.03486120,0.31376716,-0.34455886,0.77191579,
0.02815362,0.04209524,0.33086482,0.12243375,0.20295559,0.11906785,-0.19949196,0.00193339,-0.15111296,0.17153931,-0.46475241,0.09486996,-0.63488674,
0.15685596,0.19849262,0.12674917,0.20189662,0.15808798,0.19149704,0.21251391,0.17154726,0.17872700,0.32294723,-0.25597811,0.23032972,-0.79151726,
0.28520936,0.16137315,0.22450620,0.11546694,0.34098360,0.19274852,0.20241477,0.38183492,0.32630110,0.21722570,-0.19222866,0.12094186,-0.43711212,
-0.23993279,-0.30505168,0.07137211,-0.83373696,-0.24004135,-0.20059319,-0.87241280,-0.57261324,-0.02146195,0.04252975,-0.64016080,-0.66860878,-0.53593302,
-0.02213749,0.18895037,0.14210968,0.31675318,0.25401151,0.28571308,0.22214927,0.22934350,0.19051424,-0.30694988,-0.33395106,0.16802265,0.11833526,
0.16424459,0.32821140,0.28759909,0.17625757,0.26781687,0.22462007,0.42047843,0.18848445,0.18108819,0.22255790,-0.27421704,0.19732258,-0.71764535,
-0.04621600,-0.21744688,-0.03227271,-0.00273443,0.00639300,-0.02385338,-0.20872308,0.19516517,0.15059684,-0.19342904,-0.37637010,-0.02322932,-0.41249570,
-0.12080029,-0.23084775,0.03445058,-0.47117412,0.07616271,0.02680969,0.00346033,-0.06880888,-0.46217924,0.12819871,-0.38765976,-0.55255198,-0.95796800,
0.02968697,
0.12733574,
-0.41737506,
-0.21179470,
-0.08211032,
-0.08996916,
-0.14439808,
-0.39381239,
-0.09002250,
0.07352886,
-0.33123681,
-0.02567592,
-0.04330520,
0.15786949,
0.10629770,
-0.07629211,
0.21981096,
0.27000868,
-0.32388210,
-0.01038574,
-0.23630616,
-0.05123327,
-0.79027927,
-0.26857552,
-0.03778576,
-0.34549555,
-0.06173068,
0.15364771,
-0.34642577,
-0.31295323,
-0.34138256,
-0.41099712,
-0.25737190,
-0.21876991,
-0.02335592,
0.10938655,
-0.12364266,
-0.27214500,
-0.57253838,
-0.16909739,
-0.26469329,
-0.06808709,
-0.32511768,
0.27128181,
-0.45862237,
-0.19713017,
-0.33264056,
-0.24959412,
0.29093102,
0.33613428,
-0.23031162,
0.11779616,
0.00271467,
0.21262203,
0.26024941,
0.07302810,
0.21559884,
0.25701407,
0.27938786,
0.11124831,
-0.12760672,
0.14891438,
-0.09812026,
-0.10404592,
-0.38062495,
-0.31821212,
-0.20825496,
0.09938665,
-0.17848992,
-0.06745085,
0.07156715,
-0.29254702,
0.09942367,
-0.00169421,
0.06297012,
-0.04982268,
0.04742070,
0.05275271,
-0.22059821,
-0.15788394,
-0.31805512,
-0.30781299,
-0.54307574,
0.07537588,
-0.18475708,
0.15585126,
0.15239841,
0.22817789,
-0.17666045,
0.26931024,
0.07668205,
0.00284919,
-0.78454417,
-0.22838081,
0.16412699,
-0.53129840,
-0.20293313,
-0.26482394,
0.27750394,
-0.55081189,
-0.31649667,
-0.62888366,
0.07649433,
-0.39239132,
-0.11777301,
0.06337021,
0.01393655,
0.00400373,
0.04324476,
-0.41033661,
-0.11600947,
0.12345824,
-0.05790659,
0.30015931,
-0.01575359,
-0.05053288,
0.19036452,
-0.38006952,
-0.38158914,
-0.10711327,
0.10035612,
-0.17227128,
-0.52959919,
-0.38712966,
-0.41224313,
0.13650730,
-0.15548272,
-0.11715510,
-0.41084430,
-0.24284779,
-0.43014938,
0.07352557,
-0.24412447,
0.22644964,
0.38606682,
-0.16609138,
0.03725897,
-0.12091335,
0.23652978,
-0.13074817,
-0.02465736,
0.09731454,
0.00964468,
0.35368806,
-0.36797366,
-0.46102944,
0.33323830,
-0.53909892,
-0.07703820,
0.00496529,
0.06373717,
-0.05945555,
-0.28407028,
-0.27432919,
0.34230202,
-0.36547300,
-0.60007203,
0.22056174,
-0.09747626,
-0.41487432,
-0.16587371,
0.01581820,
-0.20948961,
-0.49202925,
-0.07978660,
-0.26421016,
-0.45865470,
-0.37091959,
-0.22027135,
-0.12907302,
0.10813408,
0.04627178,
-0.32307449,
-0.30029351,
-0.03402001,
-0.60186964,
0.01105826,
-0.29001755,
-0.34508604,
0.19329512,
0.16358136,
0.04063870,
-0.18922432,
0.09900362,
-0.15334019,
0.04971981,
-0.43829787,
0.01238093,
-0.42689613,
-0.52859992,
0.05507617,
-0.43091443,
0.21910451,
-0.13763762,
-0.36909440,
-0.20861343,
-0.33995524,
-0.23030911,
-0.03014592,
0.32937765,
0.34573317,
0.15082909,
-0.34820923,
-0.23686685,
-0.12937088,
-0.37785333,
-0.60971910,
-0.26820517,
-0.09673901,
-0.00503084,
-0.39060405,
-0.38612539,
-0.17094156,
0.07473257,
-0.62688482,
-0.16161865,
-0.14398067,
0.03552071,
0.20826593,
0.47548676,
-0.16806698,
-0.27376339,
0.06552158,
-0.12693501,
-0.01501120,
-0.21061467,
-0.38853326,
-0.37631363,
-0.24253039,
0.03587740,
-0.11741525,
0.32104063,
-0.13657087,
0.10190454,
0.07759744,
0.27565742,
-0.55942315,
-0.50304610,
-0.46953833,
-0.50374717,
-0.18488057,
0.10911819,
0.14783099,
-0.29535520,
0.27647176,
-0.12589328,
-0.55964947,
-0.14535926,
0.01360587,
0.25853276,
0.01903422,
-0.34245601,
0.26360857,
0.15410614,
-0.67278212,
-0.03427087,
-0.35167724,0.09325283,-0.15487850,0.20515968,0.17969137,0.12816566,0.02898651,0.15778802,-0.08699353,0.25345963,0.16047750,-0.01736128,0.22867645,-0.24366705,-0.42734858,-0.28027055,-0.23875965,-0.13915126,0.20369031,-0.50938410,-0.15782824,0.15720583,-0.08820547,0.08395606,0.01110302,-0.01078579,-0.06467349,0.09091578,0.17005692,0.16323291,-0.37262860,-0.00646790,0.01909998,0.10749531,-0.24478562,-0.06771308,0.18133692,-0.18853505,0.29912275,-0.31911549,0.10383254,0.24897631,0.03021659,-0.08138314,-0.07831511,-0.04600755,0.16403788,-0.13907991,-0.04075728,-0.06912904,0.06331246,0.10999761,0.05026219,-0.12931877,0.39473644,-0.08890522,-0.15638041,-0.09216677,-0.09805035,-0.15807742,-0.01140405,-0.62070310,-0.23311262,-0.33984956,-0.05769350,0.02555413,-0.15853252,-0.18084478,-0.19704680,0.14598580,-0.05968133,0.32636380,-0.12050653,0.11019125,-0.09566395,0.10182914,0.07460207,0.00664821,0.26243106,-0.13546370,0.22301598,-0.06263325,-0.08251029,-0.28567410,0.01051860,-0.27272961,-0.16729134,-0.37442979,-0.82870466,-0.38005096,-0.35855955,-0.12031619,0.19682559,0.20015448,-0.26208743,-0.05142729,0.05988748,0.25587741,0.04519512,-0.12165718,-0.08456209,0.09151627,-0.21985652,-0.03065408,-0.53083098,0.17984042,0.27390483,0.15553370,0.17814612,0.09855504,0.16781551,-0.59920436,-0.06508055,-0.46379003,-0.05140516,0.04775207,-0.11787390,-0.00260241,-0.06097257,0.03292459,-0.53854817,-0.17318860,-0.19623144,0.01469739,0.24419595,-0.34488899,-0.22994326,-0.73535717,0.03494484,0.27197236,0.01926754,-0.02098489,-0.09644475,-0.13783368,-0.31216848,-0.08855274,-0.03017502,-0.17290528,0.12953359,-0.07441083,-0.07872345,-0.46964741,-0.11432272,0.08331812,0.03426643,0.02262414,-0.40219668,-0.04102533,0.08470861,0.01878929,-0.10662411,0.18516503,-0.06852558,0.20407990,0.17282809,-0.03078104,-0.01106522,0.10316564,0.12259426,0.05401305,-0.36699656,0.22521314,-0.13202094,0.03032935,-0.13143745,0.31021607,0.00861739,-0.09711307,0.43459836,-0.02404352,-0.03617962,0.19927587,0.18087050,0.13649073,-0.48991331,-0.23230971,-0.14850718,0.25561973,0.01608303,0.05124654,-0.31970987,-0.03533483,0.04163067,-0.45394677,0.11994967,-0.02575112,-0.03009861,-0.06644285,-0.16959403,0.00008801,0.12512530,-0.08689567,0.02268389,-0.57737505,0.43237519,0.08031656,0.16713838,-0.24392141,-0.05175596,-0.11814481,-0.12633128,0.12071577,-0.10489147,0.06414676,-0.17194319,-0.03313337,0.03739564,0.10736444,0.24305743,-0.26752466,0.17595889,0.01203206,0.30100939,0.03416932,0.01450154,-0.11120455,0.47445783,-0.32710603,-0.68614727,-0.53555685,0.01351156,0.12679999,0.03150631,-0.40239820,0.07500616,-0.00339596,0.13716602,0.10432290,0.09260687,0.09133395,0.03943752,-0.70930320,-0.32931888,-0.02290916,0.12991731,-0.65892601,0.06711905,-0.18016273,-0.29496154,0.03308558,-0.07621691,-0.47870541,-0.23963213,0.07462538,-0.78557563,-0.38250455,0.18664208,0.19384557,-0.25628236,-0.26582697,-0.18454862,0.06429952,-0.40832546,-0.44119129,0.14615420,-0.31266814,
-0.00944193,-0.03912409,-0.12227604,-0.09245420,-0.08587697,0.04611647,0.06373284,-0.05004146,-0.03219531,0.01419027,0.09406464,-0.11954050,0.05181950,-0.07542433,-0.09349650,-0.12647213,-0.12415174,-0.06105397,-0.11984082,-0.06031892,-0.05314053,0.03062789,-0.02144163,0.22871475,-0.11073825,0.01969923,0.03844968,-0.03884678,0.06288446,0.02224944,-0.26813108,-0.02644396,-0.01612733,0.00379425,-0.08021765,0.06778396,-0.13832019,0.23703451,-0.01522716,-0.09002651,0.04542324,0.02564988,-0.02186166,-0.17746362,0.03635141,-0.07559901,0.05948197,-0.05415675,-0.15638331,-0.22498329,0.05991386,0.02551369,-0.07016950,-0.24627365,0.02132373,-0.04210898,-0.26046398,-0.32831120,-0.28511938,-0.10312795,-0.19389391,-0.11461829,-0.10328881,-0.02083510,0.03318615,-0.03546946,-0.17565300,-0.00928088,-0.14128138,-0.03962993,-0.02429650,0.05208038,0.02762306,0.11330062,-0.03278790,0.01215724,0.22132818,-0.12180743,0.00628694,0.05774914,-0.07486477,-0.04759809,-0.09762099,-0.17429101,-0.01147851,-0.06798637,-0.05199508,-0.19990033,-0.17200707,-0.27895269,-0.26574188,-0.02617295,0.11189958,0.03785929,-0.08532771,-0.03092874,0.00559465,0.00418963,-0.12106772,-0.21823682,-0.18593752,-0.02847749,0.18428893,-0.22727564,-0.06439464,0.04782226,0.13400342,0.09634478,0.04333020,-0.16428338,-0.10306339,-0.01500602,0.12620680,-0.02818858,-0.04413868,0.16384450,-0.11501665,0.06197708,0.00816085,0.03116191,-0.17664567,-0.06783122,0.09570067,-0.03922964,0.05737503,-0.20812935,-0.21349397,-0.19098933,0.03424717,0.05201444,-0.04293494,-0.21551155,0.07797982,-0.08044292,-0.01860534,0.00394531,-0.22539909,-0.25638756,-0.23067334,0.02028343,-0.00778508,-0.05089407,0.00781627,-0.15970287,0.09726062,0.12371309,-0.35769317,-0.01669889,-0.05432063,-0.01133632,-0.05053052,-0.03801950,0.04118025,0.09064257,-0.00856010,0.01638390,0.01504833,-0.12287008,0.11404126,0.04896291,-0.05067961,-0.01644505,-0.01654002,0.14732961,-0.22245172,0.09878205,0.01508476,0.01083144,0.38167283,0.00353651,-0.07975682,0.07008295,-0.01515723,0.00393793,-0.12984261,-0.02419105,-0.01737988,0.06522305,0.07128664,-0.16143693,-0.12473666,-0.08082135,0.02327169,-0.06236365,-0.12402725,-0.15160562,-0.08233232,-0.07172059,-0.03670081,-0.08479770,-0.05944856,0.09080148,-0.04452036,-0.06915646,0.01218822,-0.09540056,-0.05012849,-0.10337222,0.02612121,-0.16717620,-0.10564945,-0.01084678,0.03402199,-0.05445651,-0.22140826,0.04670328,-0.01749694,0.10135563,0.02182144,-0.20350781,-0.08344042,-0.08160660,-0.04356149,0.09993514,0.01928420,0.02019050,0.17181860,-0.12149733,-0.08276249,-0.31359783,-0.02995887,0.06500503,0.02592449,-0.02399232,-0.00393091,0.07028768,0.00908837,-0.00818130,0.03710708,0.07759041,-0.02036348,-0.07355177,-0.05113793,0.02330795,0.10537681,-0.14178574,0.07550491,0.04083964,-0.02939235,0.00118304,-0.24686682,-0.18467356,-0.11603821,0.06522537,-0.13787898,-0.31456444,-0.06587458,0.09371180,-0.06182840,-0.11750101,-0.05903334,-0.00800161,-0.12492451,-0.25951993,-0.05703377,-0.04925714,
0.11637560,-0.12279335,-0.01049317,-0.08068956,-0.00409444,-0.06898410,-0.18124592,-0.05854908,-0.08005200,-0.04357015,0.07989036,-0.01983956,-0.03670167,-0.00975291,-0.05734250,-0.09356539,-0.21840282,-0.11776941,-0.05152816,0.02390284,0.03659058,-0.15990597,0.03334762,0.14608569,0.02640326,0.06713872,-0.08788390,-0.00697361,-0.00366669,-0.11639524,-0.01002406,-0.01754578,-0.04524991,0.19032156,0.00101442,0.20301738,0.06860025,0.26599374,0.00452242,0.01166614,0.12253306,0.11186717,-0.07241374,-0.10914258,-0.16516651,-0.06914055,0.05402371,-0.08163017,-0.18498364,-0.19647805,0.02304639,0.15141162,-0.01656967,-0.06322115,0.03659326,-0.12982406,-0.06344149,-0.06345747,-0.09837607,-0.01462797,-0.02678139,0.00775204,0.00041731,0.19935304,0.07817828,0.09869806,-0.06658700,-0.06196438,-0.06904382,0.13361761,0.02767083,0.09488963,-0.07696477,-0.01348004,-0.09781335,-0.09970725,0.26931530,-0.06389362,-0.04230247,0.20820516,0.12772411,0.12641548,-0.06103335,0.04676593,-0.10665006,-0.06744369,-0.11457500,-0.06629283,-0.02214464,-0.00275225,-0.13043909,-0.09248000,-0.04528394,0.06701910,0.00431017,0.00155449,-0.09545939,0.01742277,-0.02446490,0.05743332,0.06554457,0.13005652,0.09017103,0.07440645,-0.10145853,-0.02502994,0.03445720,0.13064313,-0.05993935,0.03803935,-0.11115799,-0.06239006,0.18748251,-0.04048689,-0.15683357,0.13407809,-0.14264162,0.00855508,0.15245973,-0.16053480,0.01906345,0.07662288,0.02299077,0.02340470,0.04047659,-0.01008024,-0.08505022,0.05699605,0.08575480,-0.06470996,-0.00030987,-0.01198233,-0.00416184,-0.02234477,-0.08201209,-0.01991604,-0.02751379,-0.15598555,-0.08442329,-0.06470829,0.00781062,0.01351359,-0.04808148,-0.13898197,0.08021258,0.21753381,-0.15953338,-0.08622588,-0.13235255,-0.07936227,0.12158538,0.08528022,-0.05075375,-0.06453129,-0.10462995,-0.05185882,-0.08685380,-0.10368128,0.11765005,0.09472506,-0.16245608,0.14141516,0.01506180,0.11181761,0.05599014,0.20835219,0.07913427,0.00520012,0.26113644,0.12651908,-0.24121256,-0.09690937,-0.10878816,-0.07358692,0.01533191,0.00957106,-0.18392308,-0.02769255,0.03441051,-0.00189264,-0.02739987,-0.01952088,-0.16940251,-0.04474608,-0.00742458,0.09746198,0.10303973,-0.12799439,-0.02546155,-0.11439288,-0.00992943,0.12379488,0.10377228,-0.14255238,0.00882324,0.12176563,0.00135394,0.01175143,0.00877637,-0.17091461,-0.10395622,-0.11348613,0.10949008,-0.02222075,-0.02762271,0.04463249,0.02977388,0.07919357,0.13606425,-0.11174393,-0.00306841,0.08814065,-0.10281698,0.00467648,0.00785863,0.03812674,0.10331874,-0.07410368,-0.00890388,-0.11315432,-0.08105326,0.07198029,-0.09604467,-0.03986929,0.00537570,0.03913530,-0.07182210,-0.04093202,-0.09716598,-0.03012407,-0.01088521,-0.06981815,-0.03186199,0.18458113,-0.06673878,-0.00125895,-0.00247605,-0.08388118,0.09148370,-0.05936639,-0.04286961,-0.06309838,-0.14710124,0.13181394,0.00190737,-0.16293128,-0.10114060,-0.00010629,-0.01873493,-0.19396509,-0.03503365,0.07017802,-0.02844285,-0.18300393,-0.14003520,0.04710671,
0.03452060,0.01390804,0.00167804,0.01145728,-0.06290557,-0.04508080,0.02212190,0.04629367,0.00431578,-0.02063495,-0.00196745,-0.00106864,-0.05060637,0.04087844,0.06123514,0.03650179,0.01793631,-0.07611446,0.01103322,-0.05391628,-0.00512290,-0.02404995,-0.00039193,0.00462035,-0.03315608,-0.04403688,-0.03871667,-0.01023611,-0.03393801,-0.00265676,0.03208254,-0.02595568,-0.03495821,-0.00913405,-0.03080166,0.00738656,0.03296388,0.02298803,-0.04671344,0.02525826,0.00166683,-0.04366428,-0.00647495,-0.01428865,-0.04464469,0.01110145,-0.05006770,-0.04879449,0.00723172,-0.05255055,-0.02095522,0.01036093,-0.06643423,-0.06877553,-0.01352049,-0.03013055,-0.03455934,-0.03862441,-0.06504122,-0.06547283,-0.02111401,0.00397054,-0.07390014,-0.04299595,0.02048066,0.03359975,-0.06513753,-0.01812342,0.03910417,-0.03742223,-0.02101921,-0.02550537,-0.05890858,-0.04161847,-0.03077301,-0.04461401,-0.04407362,-0.05974152,0.04007161,-0.00071393,-0.02109695,0.02753923,-0.06230669,-0.04447422,-0.02172252,-0.08046851,0.01687404,0.03179311,-0.05317321,-0.04289789,0.01752607,0.03777283,0.03728302,0.04473129,-0.04926370,-0.02952231,-0.02150294,-0.00976433,-0.00494420,0.04934390,-0.00622344,-0.06609406,0.01447310,0.02988688,-0.05804332,-0.04447059,-0.01946395,0.04679338,-0.00964098,-0.02331004,-0.05438730,-0.00989584,0.02782539,0.04038049,0.01589623,0.04195647,0.01785079,0.02559981,0.00596483,-0.04414656,-0.05304099,-0.00872797,0.00096518,0.03187527,-0.05074256,-0.05874988,0.01301879,-0.00625430,-0.02032893,-0.00153688,0.02145576,-0.02955489,0.04557950,0.03346144,-0.05135264,-0.04787702,-0.01944511,-0.05850920,0.02041402,-0.03815859,0.00495378,-0.00613560,-0.01695716,-0.04770083,-0.05997017,-0.05156617,-0.00517602,-0.02620889,-0.07834487,0.00736559,-0.01011598,0.01439121,0.01357144,-0.00736164,-0.01936534,-0.05866716,0.00266439,-0.00392856,0.03493502,0.03253251,0.01101478,-0.01131590,-0.06312976,-0.02727918,-0.01876730,0.05291007,-0.02351236,-0.03092631,0.02506984,0.03882812,-0.03160864,-0.01457087,-0.03907043,-0.04016120,-0.04400722,-0.00728520,0.03927834,-0.04816329,-0.02929155,-0.03759048,0.00122794,-0.07668487,0.04379067,0.00133737,-0.03070700,-0.04542998,-0.03661492,-0.05187026,0.00967771,-0.05416425,0.01895560,0.01074532,0.00043475,-0.03328456,-0.00189347,-0.08177754,-0.00546410,-0.03410115,0.02876642,0.00225114,0.00551347,0.02554369,-0.03478675,-0.04771673,0.04185909,-0.03795698,-0.05645291,0.02666821,0.02360576,-0.00904275,0.00694449,-0.04712148,-0.07797443,0.03809746,0.01806489,-0.01492847,-0.05694004,-0.05941053,0.03337968,0.03197816,-0.01193282,0.02612265,-0.01936696,-0.07115712,0.00810447,-0.05530718,-0.00360390,-0.01715638,-0.03582268,0.04010741,0.01902066,-0.07655196,-0.01158791,-0.04979751,0.03838985,-0.04842253,0.00324668,-0.08090106,0.00923874,-0.04086720,-0.01722948,0.01913722,-0.07727862,-0.05427641,-0.05816615,-0.00487080,0.03435466,-0.04463001,0.03130626,-0.04408267,-0.05343903,-0.04634096,-0.08200601,0.03800137,0.03194998,-0.00751702,
0.11986680,-0.00427831,0.06282683,0.23951371,-0.00601678,0.03397040,-0.09844625,0.03606637,0.02248982,0.00016064,-0.06852338,0.13470723,-0.09878375,0.14125617,0.15801938,0.11773646,0.22466788,0.11100271,0.02590442,0.16261593,0.05158591,0.00794411,-0.02365698,0.05464284,0.16054599,0.03569907,0.00753214,-0.01910966,0.13893799,-0.06281167,0.04747135,-0.04065804,0.06926412,-0.06688706,0.07974247,-0.00249268,-0.18864183,-0.12897575,-0.12335925,0.09606286,-0.02335716,0.03829753,0.01947753,0.02042908,0.00727584,0.20941329,-0.08403249,0.15166928,0.17689915,0.11216994,-0.00631517,-0.06248144,0.21829098,0.08092620,-0.19529533,0.10263877,0.09743495,0.13469525,0.06790718,0.13476126,0.00424338,0.33290547,0.04717238,0.06638200,-0.11625548,0.08277789,0.14920132,0.01278375,0.07613768,0.07091824,0.19575311,-0.36035186,0.09647109,-0.16120809,0.08145207,-0.04071922,-0.31146592,0.05614746,-0.09930962,-0.24387407,0.00068549,0.04853254,-0.02326711,0.15280659,0.06720881,0.10482819,0.13290128,0.00118388,0.36734840,0.20738177,0.17291999,0.08586141,-0.61308014,0.07930796,0.11878080,0.00831617,0.10609878,-0.06486968,0.24660088,-0.10512630,0.02975801,-0.11565399,0.20029166,0.07939897,0.09114517,-0.08662429,-0.09404396,-0.06959864,-0.07207499,0.04461038,-0.01946423,0.22837572,0.07040156,0.14346585,0.14809875,-0.04041305,0.16173053,-0.16355398,-0.06872349,-0.00896962,0.21804428,0.21626349,-0.14592184,0.06738923,-0.00554686,0.12555537,0.12601914,0.24576633,0.06488719,0.02021847,-0.10326366,-0.02356036,0.01795037,0.07154760,0.10015780,-0.08011007,0.10628472,0.09154912,-0.02447050,0.12453121,-0.01781387,0.12239994,0.10042672,0.08970311,0.05444772,-0.37648931,0.38297024,0.06575559,0.08786558,0.03347925,0.29318413,-0.04322429,0.09094810,-0.11302179,0.04838226,0.08446246,-0.12152591,0.02409854,-0.21286534,0.10327997,0.19452597,-0.11693771,0.04105448,-0.46484911,0.08055997,-0.03534957,-0.26970223,-0.14626585,-0.30516171,0.10294297,0.13945669,-0.03909054,-0.06442676,0.05173455,0.11440079,0.16093117,0.16522238,-0.24063067,-0.02004070,0.02315065,0.11460160,0.18732136,-0.03948988,0.07042579,-0.28640938,0.05404029,0.07583448,0.04853893,0.17350936,-0.05700330,0.02813138,-0.41589803,0.27102458,0.10984857,-0.02933043,0.30462652,0.08128250,0.06167641,-0.06548755,0.13630658,0.20020646,0.07146649,0.06232656,-0.06508128,0.04544427,0.39376342,0.08528077,-0.05010535,-0.07716075,0.14766347,0.04541966,-0.02519423,-0.07559055,-0.08402934,0.15126957,0.14291562,-0.17491278,0.14677019,0.23836887,0.34402668,0.03267787,-0.00913507,-0.01427003,0.03887151,0.03984988,0.07665569,-0.06977949,-0.04574108,0.02170385,0.01566071,0.10804109,0.18403096,0.01459336,-0.18524012,0.05062170,0.37021655,-0.01832155,-0.06564052,0.25260147,-0.11430229,0.05826610,0.21615747,0.12744178,-0.08009230,0.40748659,0.30364165,0.04948551,-0.05475419,0.10023806,0.18671589,0.15193783,0.21187188,0.13889161,0.29124615,-0.05179516,0.04413117,
0.01094801,0.01076763,-0.06920451,0.05195829,0.02036596,-0.04839004,0.05342147,0.04141341,-0.02178178,0.04155767,0.05043400,0.00086690,-0.04679978,-0.00742552,-0.05042187,0.00573083,-0.05580791,0.01942220,-0.02028808,0.01197365,-0.02230648,0.01909822,-0.02342790,-0.03472929,0.01402405,-0.00871215,-0.01492481,-0.02804979,-0.03654497,-0.02912525,-0.05454928,-0.01484073,-0.04003544,-0.01226296,0.04065002,-0.06451755,-0.05095618,0.02192279,0.04858961,-0.01946044,0.02193935,-0.00754909,0.04975662,-0.00586204,0.02919066,0.01372806,0.04834731,-0.05162568,0.02595258,-0.00663816,0.03805466,-0.05395592,0.04181357,0.04781352,-0.06288704,-0.05521308,0.00423344,-0.00210832,-0.03657763,0.03507260,-0.01206519,-0.00229296,-0.05412843,0.05586348,0.05071393,-0.03472247,-0.06254117,0.04057239,-0.05933106,-0.02242212,-0.00666384,-0.05961332,-0.03423629,0.00379338,-0.02343408,0.04517002,0.03880860,0.02327365,-0.06178378,-0.04657330,-0.04547541,-0.00059803,-0.04071725,0.00801524,0.05087868,0.02447653,0.04979014,-0.02594532,0.00163532,0.06381123,-0.06456783,0.00876425,-0.02867873,0.00887056,-0.06584424,0.03356545,0.04587682,-0.04536987,-0.06682941,0.01236975,0.01797784,-0.01405298,-0.02155534,0.05001146,0.06286953,0.05240045,-0.04356690,-0.02150418,-0.02749228,-0.01333975,0.00865187,-0.04475003,0.02340670,-0.05061948,-0.04584152,-0.04916518,0.01563006,0.04615200,-0.01662063,0.04450526,-0.06460962,0.01934535,0.04649064,-0.00696642,0.01983510,-0.05591875,-0.04278621,-0.00696290,-0.01456846,0.03870289,0.00517845,-0.02643374,-0.04011868,-0.04134409,-0.04773889,0.04417576,0.03942512,-0.02150647,-0.03217331,0.05530002,-0.05619701,0.01424009,0.04442876,-0.05191357,0.03038989,-0.04925169,0.05623849,-0.04058800,0.02193597,-0.03944048,-0.01495545,0.00401380,0.02723525,0.01163895,-0.03215310,-0.05513304,-0.00977182,0.04672027,-0.03575811,0.00491563,0.02377353,-0.01904224,-0.02361658,-0.03292432,-0.05288199,0.00833107,0.03390418,0.00768379,0.05326422,0.06283313,0.00398625,-0.02885546,-0.04154397,0.04832803,0.01274117,-0.01380944,0.02349780,-0.00043258,-0.03419965,-0.05323383,0.05506243,0.04346737,-0.02297334,-0.06544819,0.00957077,-0.03729853,-0.02624392,-0.06192206,-0.05391737,0.00144936,0.00892240,-0.05373780,0.00013558,-0.05099736,-0.01759641,-0.05246186,0.04558748,0.01397261,-0.01527152,0.03910325,-0.06126665,-0.06111238,-0.03087626,0.01965808,-0.01243174,0.02442335,0.00453813,-0.05920126,0.01012278,-0.02529536,-0.02686409,-0.00957093,-0.01539650,-0.00729653,0.03012787,-0.04987071,-0.06655455,0.00161446,0.04847555,0.00173831,-0.02036454,-0.01920713,-0.00409873,0.03092229,-0.04649813,0.05025455,-0.05887603,-0.03919715,-0.01066435,0.03505462,0.00304259,0.01633598,0.00648107,-0.04671055,-0.05045557,-0.04471795,-0.04534988,-0.04141518,-0.00121439,0.03133008,-0.01554740,0.03850295,-0.05967053,0.05357073,0.00986564,0.01922309,-0.04936503,-0.00357273,0.02607020,-0.05578634,0.04365425,-0.01141834,-0.01903087,-0.04863740,0.01339673,-0.04567195,
-0.22722982,0.09444525,-0.39306372,0.01819590,0.15763772,0.11045022,0.03155003,0.09472568,0.02916698,0.30604947,0.26444554,-0.12804593,0.26616886,-0.09219289,-0.44602457,-0.16455826,-0.24840327,-0.05342064,-0.00461486,-0.41924962,-0.00503090,0.05001881,-0.12417935,0.07702315,-0.01931500,0.02382457,0.04070590,0.18961737,0.06194317,0.15938655,-0.07753623,0.03575999,0.03776397,-0.02337128,-0.03728859,0.41322103,0.24426286,0.19338802,0.17607316,-0.09142728,0.11522090,0.02719037,0.09234336,-0.07075280,0.01167654,-0.13914220,0.12134200,-0.05464132,-0.13914211,-0.00162102,0.00869250,0.07647531,-0.21381840,-0.29554930,0.33662084,0.02206666,-0.18679118,-0.08203268,-0.15058210,-0.11642399,-0.22248487,-0.69255626,0.05236061,-0.10335706,-0.04023848,-0.08934201,-0.08171634,-0.38411778,-0.17394117,-0.14154749,-0.24588248,0.37716040,-0.01103740,0.32965258,-0.12027662,0.15743990,0.63996500,-0.06487922,0.20817190,0.05746591,0.22328092,0.03639334,0.03497465,-0.26236799,-0.00992349,-0.27713054,-0.06511527,-0.21242851,-0.97704440,-0.12400392,-0.24804725,-0.18170062,0.23281866,0.05409551,-0.22709705,0.04479273,0.02814600,0.25758120,0.08075209,-0.11864567,-0.16937293,0.01389187,0.21718235,-0.04765842,-0.47352022,0.22968611,0.24028413,0.16560060,0.12594093,-0.03002236,0.09087805,-0.34802458,0.03586883,-0.54758489,-0.06253977,0.24522501,-0.08365386,0.08209883,0.23175047,0.07343102,-0.67860907,-0.28086609,0.23605335,-0.00771073,0.36257681,-0.10317782,-0.10797964,-0.64595097,0.06687593,0.10807971,0.03991373,-0.02654234,-0.07224239,-0.13650136,-0.12355574,0.18063486,-0.06136866,-0.27214769,0.00672300,-0.28950062,0.17448333,-0.49510336,-0.15908749,-0.00527976,0.30770445,0.29898825,-0.34264249,0.03299002,0.00708186,-0.00478319,0.03994871,0.19830923,-0.08768939,0.20121402,-0.04055252,-0.00250396,0.18173948,0.01644756,0.19840410,0.02214549,-0.55162770,0.21794195,0.09363135,0.01967576,-0.02498904,0.43304655,-0.13994400,-0.03797556,0.82286131,-0.08534060,-0.13334629,0.14706780,0.17784174,0.15833877,-0.23617183,-0.13057128,-0.00993660,0.37635726,0.12570035,0.11685618,-0.21980797,-0.11967560,0.19284736,-0.37661842,0.26419273,-0.07587634,-0.05475118,-0.12990811,-0.19962730,0.09013785,0.22172461,0.17140150,-0.04258091,-0.06046683,0.28833959,-0.04521285,0.07784677,-0.18437377,0.25897929,-0.21046759,-0.13325880,0.10222864,-0.14793454,0.18649271,-0.09404071,-0.11130086,0.11872859,0.10695068,0.28057218,-0.26727456,0.10429832,0.05520631,0.07213086,0.17836154,-0.04737396,-0.12628321,0.58492142,-0.21748997,-0.90076292,-0.46459860,0.05481645,0.06247064,0.04763287,-0.68396443,0.02491919,0.08561181,0.10016029,-0.02148972,0.02684961,-0.04130439,0.03236247,-0.61810774,-0.26578248,0.11501098,0.22552183,-0.65906692,0.14601967,-0.08507244,-0.36882228,-0.04823155,0.01493852,-0.24104041,-0.15003012,0.16297497,-0.87139887,-0.34309801,0.11514692,0.24742280,-0.45309657,-0.25044477,-0.10086385,0.00425888,-0.37444556,-0.35411432,0.14050788,-0.15612806,
-0.16371378,0.19268212,-0.33573633,-0.10479603,0.25133008,0.14520343,-0.05366142,0.13348210,0.00645291,0.25117272,0.32149181,-0.28307012,0.17096087,-0.11398064,-0.27800959,-0.16433141,-0.23666054,-0.09966264,0.08759398,-0.22337274,-0.09992101,0.11598513,-0.07036249,0.14076093,-0.25546628,0.10705914,0.07528144,0.17496787,-0.01320579,0.19878241,-0.15383500,0.05407830,-0.00302149,-0.04169777,0.01347804,0.21142510,0.22463487,0.31184617,0.14770578,-0.06957471,0.14093894,0.16850452,0.13859336,0.03854958,0.08864211,-0.29221290,0.17276412,-0.21607386,-0.08997835,-0.05998657,0.00217363,0.21693625,-0.24143970,-0.21489541,0.24780007,-0.05865102,-0.18107508,-0.27702010,-0.08493523,-0.05172455,-0.11615445,-0.64763492,0.03407669,-0.12932931,-0.04465896,-0.00301987,-0.08774998,-0.23218597,-0.16375569,0.00724221,-0.24732214,0.43904316,-0.26224786,0.17318898,-0.06047412,0.18007134,0.69332451,0.01025182,0.03272635,0.29670915,0.28460672,0.06012123,0.14964218,0.01500008,-0.04758909,-0.18709752,-0.04875736,-0.20359083,-0.39603651,-0.25756460,-0.20937626,-0.34802401,0.20393869,0.06913089,-0.35092402,0.07500978,0.09634049,0.21844298,-0.08875334,-0.13475980,-0.09886426,0.01418140,-0.14463751,-0.13700068,-0.42776975,0.20207949,0.39038697,0.23479056,0.12943806,0.01193362,0.21678968,-0.16998306,-0.04965919,-0.34044337,0.01064643,0.30563951,-0.14076830,0.16747904,0.30204540,0.13051733,-0.52704865,-0.30741709,0.09399988,0.09155805,0.27023467,-0.18422312,-0.00565491,-0.18548870,0.12979576,0.06165778,0.02673468,0.14119831,-0.16626380,-0.09938173,-0.06142823,0.10920521,-0.09376869,-0.23094393,-0.01409871,-0.45309356,0.09177373,-0.48385543,-0.29113927,0.02553436,0.27989307,0.16437843,-0.40930808,-0.20406766,0.00916912,-0.01480226,-0.36006612,0.11616741,-0.09058965,0.15393876,-0.03439984,-0.13729720,0.16001888,-0.09065368,0.26441193,-0.02174426,-0.22182994,0.23494337,-0.07438761,0.03032653,-0.05577502,0.38664570,-0.09246460,-0.12023156,0.83502471,-0.13767718,-0.07155570,0.17715028,0.15836878,0.12015501,-0.24141313,-0.17639320,-0.05366589,0.32017499,0.22507083,0.04661578,-0.23013200,-0.06415273,0.17322186,-0.18854110,0.35181656,-0.02647410,-0.18120280,-0.12167396,-0.38438737,0.11212044,0.21187919,0.16528174,-0.42855316,-0.25431460,0.08803003,-0.06479552,0.13509546,-0.05401897,0.10527664,-0.06131474,-0.12202853,0.15774022,-0.14174400,0.18108699,-0.06356250,-0.07141721,0.02454981,0.03825486,0.41196248,-0.18361622,0.12206393,0.17506024,0.18883193,0.19130632,-0.09430640,-0.11581087,0.58267146,-0.18498977,-0.83541131,-0.35940397,0.07083968,0.25831792,0.10389099,-0.54350674,0.02679460,0.23538040,0.00180346,0.14183590,0.11436054,-0.02091522,0.07947934,0.10857059,-0.36810541,0.21685135,0.12468965,-0.62463105,0.14233384,-0.04599804,-0.36491850,0.06739982,0.04561915,-0.33465633,-0.15260209,0.12772691,-0.78008682,-0.33377680,0.13678889,0.13520166,-0.32832438,-0.17729226,-0.08715931,-0.07313063,-0.36907876,-0.25060749,-0.00319519,-0.27698690,
0.02686259,-0.06729735,0.02056461,-0.04240834,-0.00512318,0.03948162,0.02961790,-0.03350380,0.04515228,-0.02427595,0.00509285,0.03513135,-0.02144604,-0.03584235,-0.00050948,0.00229914,0.01585606,-0.06805822,-0.03184830,-0.01596524,-0.04740984,-0.00276788,0.01045474,-0.07661001,-0.00558624,-0.03380448,-0.05236859,-0.07305872,0.01179126,0.00906130,-0.06921566,0.01057196,-0.01761898,-0.00007814,-0.05060734,-0.07504553,-0.00136046,-0.00749521,-0.05889374,-0.02713141,-0.01770774,-0.03331685,0.04010697,-0.00796058,-0.05676688,-0.02852351,-0.05605414,-0.08933786,-0.04681104,-0.05386562,0.02313981,-0.04766473,0.01619265,-0.02773392,0.00729249,0.03484673,-0.04747876,-0.01604590,-0.04910712,0.01711892,-0.00131196,-0.08036735,0.03485332,-0.06862838,-0.04593996,-0.01496964,-0.07562319,0.02415664,0.01097117,0.02888578,0.02407751,0.00314820,-0.09817683,-0.01002021,-0.06473712,-0.06274088,-0.00217566,-0.00592482,0.05372214,0.02510720,-0.00005217,-0.06901186,-0.00514171,-0.04731508,0.04816576,0.00318967,0.01553365,0.04135991,-0.00055702,-0.03211790,0.02769064,0.03259643,0.01794041,0.00269845,0.04418492,-0.03813758,-0.09061911,-0.02113380,0.03712976,-0.06140250,0.02485651,-0.02025852,-0.02177782,-0.02639849,-0.00218868,-0.04750274,0.00166441,0.03468185,-0.02763668,-0.01562210,-0.03695177,-0.02687891,0.04200174,-0.00299951,0.00340623,-0.02959943,-0.06249488,-0.04748753,-0.02530147,-0.07613594,-0.04651064,0.00541379,0.03463442,0.04235757,-0.08163863,0.03866675,0.05559508,-0.00754577,-0.01830412,-0.07608336,-0.05084476,-0.01815741,-0.00431576,-0.01816928,-0.01118027,0.04154760,-0.06340365,0.01205001,-0.06975444,-0.03823888,-0.05717720,0.00870744,-0.03024832,-0.07356760,-0.00069821,0.00418918,0.04149122,0.03604179,-0.03920124,0.01647541,-0.04190641,0.00948978,-0.01001455,-0.04427344,-0.01935897,0.00991106,-0.00461770,0.01958535,-0.03253672,-0.06774430,0.03153298,-0.02528385,-0.00533921,-0.07335716,-0.03742680,-0.06059681,0.00533665,-0.03662409,0.04884804,-0.00916250,-0.07914929,-0.03792598,-0.07019915,-0.00847318,0.01209922,0.01938735,-0.05374809,-0.06968468,0.01570050,-0.03098105,-0.00063303,0.01114511,-0.08860994,0.03111522,-0.03997512,0.02026956,-0.01032552,-0.00581179,-0.02960742,-0.01075512,-0.05379988,-0.04302635,0.00224606,-0.02491192,-0.04213057,-0.02183779,-0.01408064,-0.06166788,-0.05516561,-0.05214204,0.00470426,0.00586424,-0.05645598,0.02486919,-0.04989929,-0.07255765,0.06258236,-0.05558538,-0.00977034,0.01116175,-0.00079451,-0.04286021,-0.06365908,0.02248723,0.04328512,-0.05438251,-0.05520425,0.04414554,0.00077771,0.04032340,-0.07301430,-0.03582365,-0.05099787,-0.00557679,-0.07881899,0.00449989,0.00375143,-0.08598108,-0.03205032,-0.06976350,-0.00992877,0.02374121,-0.01329535,-0.04994987,-0.04459972,0.00921776,0.01923937,-0.04617991,-0.01173369,-0.07623861,-0.00314154,-0.07488341,-0.05672516,-0.07253642,-0.00384543,-0.05088253,0.00088513,0.05811225,-0.03457441,-0.05671962,-0.06487340,-0.07869039,-0.04225089,0.00980892,-0.02234852,-0.02033651,
-0.09921263,-0.00531396,-0.01950943,-0.00996544,0.08870858,0.09581257,-0.08042615,-0.01873367,-0.03765959,-0.04370931,0.10110751,-0.07462657,-0.03549013,-0.01898064,-0.27230230,-0.09809368,-0.09951771,-0.09061945,0.01585013,-0.08977772,-0.03399119,-0.00785991,-0.11360433,0.09604627,-0.08606020,-0.07165301,-0.09123576,0.05873981,-0.06813974,0.08271295,-0.07168539,-0.05528154,-0.00035782,-0.24296141,-0.06146264,0.26443073,0.15156937,0.20968571,-0.02921661,-0.02281972,0.07424627,0.11140390,-0.02913122,-0.00214040,-0.01613830,-0.09500629,0.13669381,-0.08021941,-0.08344324,-0.15087125,-0.03764686,0.11441474,-0.03554748,-0.06068570,0.08300560,-0.02762613,-0.11559404,-0.08095491,-0.05545662,-0.01690269,-0.02693358,-0.11187802,-0.04414651,-0.08450946,0.01825670,-0.01354161,0.01476116,-0.06690930,-0.25255418,0.06725985,-0.18938190,0.12295502,0.01229246,-0.01019367,-0.14603873,0.01547030,0.37162587,-0.09424305,-0.02965981,0.08222743,0.14110139,-0.07070556,-0.09713772,-0.25134876,-0.06504226,-0.23729818,-0.17057627,-0.17186691,-0.30069393,-0.18930939,-0.11291265,-0.01957389,-0.09683019,0.02528426,-0.15107788,-0.03980094,-0.05370621,-0.03025393,-0.12341575,-0.00058730,-0.05300044,0.05692708,0.03816234,-0.12919948,-0.16911653,-0.02284245,0.08022463,0.03474605,0.00567368,-0.01655706,0.02013024,-0.18026122,-0.05223133,-0.18459265,-0.08944024,0.13023493,-0.20700312,0.02480788,0.15558104,0.00697612,-0.14599605,-0.15062508,0.14912556,-0.05354986,0.04911464,-0.13227257,-0.10792418,-0.20305376,-0.10253674,0.01026921,0.07331308,-0.04489627,-0.13162008,-0.12141841,-0.08330897,-0.02080306,-0.09115353,-0.19824515,-0.09154227,-0.21271844,0.05085593,-0.08260296,-0.04168316,-0.08596555,0.12401181,0.04495930,-0.24714170,-0.08408374,0.01096752,-0.04617906,-0.08807071,0.01904684,0.01738597,0.07835144,-0.06509911,0.01645191,0.00520076,-0.10001010,0.20481910,-0.08214164,-0.06829309,0.02290860,0.01108945,-0.18519953,-0.08196074,0.29965740,-0.13627160,0.03205900,0.41644955,0.02178017,-0.10101727,-0.02607935,0.02722827,-0.10619599,-0.12402608,0.00484987,-0.10590781,0.00468819,0.07256219,-0.24102353,-0.26475400,-0.08066954,-0.02324559,-0.02569835,0.02988588,-0.05940424,-0.04731254,-0.06902100,-0.24888071,0.01020131,0.08684114,0.12310357,-0.11886165,-0.04818423,0.03500981,-0.00627999,0.07667568,-0.15509172,0.08521723,-0.10275122,-0.09202988,-0.05880405,0.05086732,0.07692401,-0.11069101,-0.10146797,-0.14998989,0.00734094,-0.02584567,-0.20462836,0.01691830,-0.00368323,-0.03431074,0.01256360,-0.04266009,-0.03838080,0.19100122,-0.09019099,-0.41251206,-0.33259106,0.03600796,0.10508177,-0.03323081,-0.14433898,-0.01551933,-0.05189911,-0.06463587,-0.01800615,0.01963656,0.07904698,0.03117518,-0.08889482,-0.28389096,-0.02772534,-0.04795911,-0.13415852,-0.04456798,0.00804390,-0.37912506,-0.03023608,-0.08123146,-0.19752240,-0.10985380,0.07770626,-0.35357407,-0.39364770,0.00724806,0.13418631,-0.17840357,-0.16702311,-0.15514132,-0.09152068,-0.19255313,-0.28746104,-0.02503155,-0.21852516,
0.00075472,-0.02532580,-0.02526470,-0.26775408,0.13923454,-0.08523732,-0.31970170,-0.05349432,-0.06010231,-0.06880780,0.19512422,-0.09740160,-0.10653692,-0.08788590,0.02127195,-0.12528449,-0.27155685,-0.22603813,-0.31074545,-0.14837536,-0.13825011,-0.02636809,0.01376550,-0.21038771,-0.22331180,-0.21395588,0.10058057,0.13418244,-0.09137795,0.03002200,-0.39652693,-0.10426171,-0.25519779,-0.19101430,0.16301808,0.01672900,0.18387091,0.11254987,0.06861369,-0.23098330,0.17771563,0.04521191,-0.01252556,0.02721412,-0.01954258,-0.31764367,0.02261611,-0.08761026,-0.18768419,-0.17789304,0.05317302,0.02675574,-0.09961076,-0.20187667,0.06537043,-0.07396937,0.01120954,-0.63815528,-0.14620858,-0.14923324,-0.14360213,-0.59297752,-0.03923320,-0.11627069,-0.13397594,0.07542966,-0.03366018,-0.16817884,-0.34433848,0.22990678,-0.35783470,0.26468703,-0.14585122,0.00341586,-0.31599429,-0.03428649,0.14814927,-0.30109495,-0.06813175,0.04033221,0.07479392,0.05102328,0.01820554,-0.33398664,-0.35059640,-0.27343562,-0.26664731,-0.39744475,-0.37246427,-0.74396598,-0.17862724,-0.17680353,0.02685183,-0.05068589,-0.18573424,-0.11608125,-0.26436266,-0.07105822,-0.12557027,-0.26365566,-0.14007683,0.24121499,0.07967462,-0.24827649,-0.09706753,-0.00982442,-0.05820355,0.16550475,0.06515400,0.07607778,0.12466955,-0.11208193,0.01532876,-0.17179641,-0.16969801,0.11503648,-0.32436985,0.02515090,0.19239634,0.09710243,-0.40334681,-0.31131834,-0.04557587,-0.31266865,-0.11460406,-0.19917637,-0.18078703,-0.29758608,0.23600538,0.10391316,-0.00448725,0.06951540,-0.12908317,-0.35916042,-0.13658316,0.06180582,-0.28550556,-0.11003967,-0.03863811,-0.33500531,0.06965601,-0.26847786,-0.14102687,-0.02289766,0.11453983,-0.16717663,-0.35179016,-0.06247102,-0.24401625,-0.07420392,-0.18149982,0.01134759,0.00478748,0.04339563,0.06372755,-0.08178019,0.12956232,-0.02785351,0.17175160,0.05643340,-0.14656986,0.17109349,0.14974983,-0.00813597,-0.21701755,0.00803717,-0.13440140,-0.16176100,0.33817804,-0.10271961,-0.13832670,-0.02989833,-0.01015078,-0.29211983,-0.36260778,-0.27009517,-0.07574893,-0.01313269,0.08762436,-0.39315745,-0.30864543,-0.25955719,0.13573197,-0.25598335,0.02606210,-0.28385797,-0.08575553,-0.38403264,-0.32673165,0.01962515,0.03363386,-0.07464700,-0.08918677,0.10429600,0.09300368,-0.06437326,-0.02455906,-0.16114111,0.02470406,-0.17807166,-0.13142022,-0.02354065,0.21886240,-0.15794535,-0.49354780,-0.20871004,-0.02964505,-0.07518354,0.05068825,-0.06748323,-0.22927970,0.27194533,0.08835208,0.12010843,-0.14168322,0.04116114,0.05587327,-0.27686021,-0.47173041,-0.29683805,0.00671607,-0.12671572,-0.15543650,-0.55330873,0.00267217,-0.03336911,-0.14062050,-0.12029557,0.03448116,-0.34654406,-0.42035326,-0.11466631,-0.53634578,0.00990418,0.16830529,-0.43754712,0.15219545,-0.10749374,-0.21897024,0.07471079,-0.05744385,-0.27527985,-0.37587628,0.15741225,-0.53086758,-0.43107873,0.01921435,-0.12249818,-0.14749426,-0.27950928,-0.34511149,0.22081463,-0.31075165,-0.30723086,0.04503011,-0.17302489,
-0.05727961,0.08224821,-0.17036733,0.00380547,0.16868919,-0.02912882,-0.20307402,0.03952926,-0.16834906,0.09429842,-0.14486001,-0.10115687,0.01947159,-0.21331440,-0.23188028,-0.23404905,-0.27100194,-0.09479139,-0.05352829,-0.19214861,0.00745535,0.04774703,-0.09437867,-0.16516024,-0.33690494,-0.00731717,-0.12955956,0.14812551,-0.01405472,0.12962835,-0.07663766,-0.21166162,-0.05864174,-0.19475159,0.02951812,0.17070061,0.19749126,0.13220216,0.01586905,-0.00837696,-0.02979646,0.15200715,-0.04920124,-0.03621287,0.06935753,-0.20484526,0.13774535,-0.15645066,-0.09204819,-0.11589553,0.02670625,-0.20418608,-0.07100879,-0.10572812,0.14797965,0.02713901,-0.08152549,-0.13778803,-0.12511970,-0.15876377,-0.16501553,-0.19150938,-0.03793380,-0.21219674,-0.14776243,-0.06337971,-0.00778501,-0.05398842,-0.06934705,0.09680541,-0.34235355,0.17179242,-0.09701832,0.08023105,-0.11866990,0.09352133,0.10574314,-0.25027722,0.09809209,-0.09869318,0.12642254,0.00957265,-0.05113449,-0.37656537,-0.03809178,-0.32283515,-0.23214464,-0.26150805,-0.40212703,-0.39764962,-0.14654048,-0.12932853,0.09544572,-0.12691717,-0.23795269,-0.13614221,-0.25521117,0.13057567,-0.39752898,-0.23094659,-0.14866675,0.05834883,0.27805257,-0.12240411,-0.07990175,0.02494603,-0.22201775,0.10466596,0.06334695,0.13579291,0.04778159,-0.20190185,0.06774160,-0.21083851,-0.13454431,0.04636041,-0.23688874,0.04529731,0.26922143,0.10255434,-0.26087201,-0.15915532,0.00523078,-0.08181744,-0.35079297,-0.24405353,-0.18340893,-0.21595237,0.05709996,0.03228115,-0.04913381,0.00735131,-0.07311923,-0.28548712,-0.11563098,0.03774664,-0.11208176,-0.16643432,-0.09477055,-0.47481012,0.00690587,-0.29599306,-0.12371600,-0.08938067,-0.13966973,-0.08428045,-0.38669974,-0.10629020,0.03172803,-0.02639173,-0.34901345,0.10431100,-0.01112371,0.16363044,-0.11191598,-0.06160524,0.07249437,-0.07156225,0.17639191,-0.07072643,-0.29051828,0.16970237,0.06100375,-0.00367382,-0.29249653,-0.00668810,-0.17171533,0.02399525,0.05015788,-0.15148383,-0.18237570,0.03143083,0.08216346,-0.13164662,-0.15223107,-0.24831501,-0.14577934,0.19103517,0.04066223,-0.15231460,-0.14146219,-0.29572514,-0.05765759,-0.09600963,0.13481854,-0.03422726,-0.13003072,-0.17641434,-0.18755646,0.00895438,0.15441306,-0.04739963,-0.07622389,-0.05486219,-0.01112491,-0.08562078,0.05078426,-0.11466979,0.17006300,-0.19742510,-0.28405157,0.02600801,-0.06236042,0.06348918,-0.21497579,-0.02483297,-0.01115573,0.07259149,0.15641573,-0.39291924,-0.09155426,0.18796879,0.00579700,0.04597249,-0.10668427,-0.18582916,-0.09190285,-0.22041717,-0.29977629,-0.41747719,0.06507064,-0.20213521,0.01429935,-0.10490516,-0.02241903,-0.00377114,-0.11270439,-0.03727008,0.05140445,-0.02514658,-0.20158833,-0.21878554,-0.36944333,0.12995054,-0.01908624,-0.36809003,-0.10604241,-0.30390820,-0.32059607,0.00132918,-0.11852331,-0.27352428,-0.17993324,0.08628502,-0.42750731,-0.47471005,-0.00297752,0.10603791,-0.18384624,-0.24761994,-0.14335078,-0.10935076,-0.26060662,-0.38751245,-0.15731716,-0.26980317,
-0.16717488,-0.08388655,0.04872556,0.12278852,-0.01020741,-0.02485533,-0.26230466,-0.06149330,-0.03742660,0.05389244,-0.11335846,-0.07665117,-0.03240191,0.03488608,0.22632767,0.05314035,0.24072717,0.08984819,0.04044120,0.14333807,-0.09976669,-0.02198765,0.14787687,0.03285824,0.12730870,0.09380149,0.03907531,-0.03930150,-0.00027612,-0.05653033,0.23097347,0.04266090,-0.00378358,0.09024437,0.16803569,0.10149971,-0.17501225,-0.10151602,-0.02461855,0.00800137,-0.08326203,0.06041794,0.04372948,0.05712401,0.03095482,-0.01206612,-0.09735776,0.02913048,0.10465663,0.10820402,0.07144286,0.01142325,0.19261260,0.08122619,-0.24810170,-0.01441719,0.00011936,0.08221630,0.01181442,0.06413974,0.14083959,0.07789219,-0.10047331,-0.14684311,-0.25845841,0.14801678,-0.01554219,-0.03262667,0.05814891,-0.03349596,-0.06856425,-0.28038636,-0.05344330,-0.13741967,0.09054638,-0.03602317,-0.21025068,0.06748696,-0.09774109,-0.17640489,-0.04106383,0.06086706,-0.09376548,0.06870776,0.18326592,0.17002365,0.13548417,-0.02551150,0.28718349,0.18356095,0.18002592,-0.05733577,0.05022828,0.10964047,-0.02390028,-0.05262813,0.05683635,0.00723985,0.05632628,0.00739088,-0.09951223,-0.12100101,0.17042188,-0.37821910,-0.18995331,-0.04398824,-0.04592349,-0.13275422,-0.07623804,0.05439167,0.00271934,0.16340105,0.00307843,0.04560450,0.02352169,-0.06070945,0.18198197,-0.01244685,-0.11096215,-0.02664241,0.04441888,0.03455045,0.13772976,0.01993603,-0.02750772,0.00473626,0.13795888,-0.02676162,-0.17545527,-0.05550085,0.02014325,-0.05362413,-0.06919168,-0.02598228,0.02947059,-0.02493486,0.05015212,0.04775652,0.05853845,0.02678282,-0.09835331,0.11122429,0.01833164,-0.00191704,0.07587672,-0.07215047,0.18703640,-0.05321198,0.03417491,-0.03707559,-0.14547494,-0.03640741,-0.11952341,-0.03914688,0.04378047,-0.01217294,-0.08392083,0.00601033,-0.15932909,0.00568918,0.03678488,-0.12613954,0.03095474,-0.06508401,0.00585162,-0.06815156,-0.18318915,-0.08059846,-0.28686726,-0.00300800,0.13763005,-0.03685838,-0.09235773,-0.04570330,0.00609566,-0.12080885,0.15472504,-0.15008338,0.01946069,0.02454410,-0.04052050,0.08702216,-0.06314177,-0.02837687,-0.24968626,-0.04741688,-0.11528793,0.05172766,-0.06171124,-0.05725550,-0.03854813,0.19820830,0.10462009,0.16340514,0.15631731,0.13842206,0.06393813,0.00559235,-0.12395969,0.11981185,0.10807338,-0.02628525,-0.18927847,0.03775051,0.12181291,-0.13703474,-0.17664579,-0.02211945,-0.03988315,0.03520186,-0.04105061,-0.02594059,-0.05234830,-0.15656404,-0.08309013,-0.24939471,-0.16806886,-0.00264767,0.20917059,0.23754621,0.00692107,-0.03443738,0.04985255,-0.09176691,0.00583262,0.05117838,-0.03192075,0.05745141,-0.02207913,0.10067663,0.02458989,-0.01692072,0.06633114,-0.05626874,-0.01200184,0.15350574,-0.20067257,-0.06668008,0.05413708,-0.04142255,0.08773337,0.14933856,0.10591131,0.03289798,0.21724015,0.14663312,-0.05680826,-0.05806359,0.07619461,0.13343060,0.05469484,-0.03064716,0.12750433,0.18821749,-0.40895122,0.03346971,
0.48451906,-0.15735990,0.14251842,0.10699090,-0.11510143,-0.05082629,0.38432541,0.00937512,-0.10849118,-0.27771243,-0.33637691,0.21546172,-0.05163330,0.12440423,0.14031328,0.10736463,0.00848669,-0.08829337,-0.10565215,-0.11325400,-0.18435666,-0.06376465,0.11060077,-0.42396095,-0.42162174,-0.44731557,-0.42250994,0.20433065,-0.31939068,-0.27428529,0.29601642,0.15531920,-0.07843614,-0.08519050,0.04571187,-0.00536234,-0.14779140,-0.13895619,-0.21708302,-0.02677411,-0.10721921,-0.23302962,-0.08131164,0.01012476,0.02022744,-0.28700969,-0.21728599,0.11231607,0.03942515,-0.08778483,-0.01545242,-0.11652242,0.02215679,-0.11123689,-0.07909946,-0.09977429,0.03570582,-0.19583336,-0.13733171,-0.11626068,0.22585493,-0.15656744,-0.03563817,-0.21712367,0.50957471,0.04768001,0.04362257,0.05599631,-0.20524295,-0.17167622,0.07850382,-0.11788664,0.01989710,0.07751778,-0.20019618,-0.01725928,-0.63127798,-0.16220401,0.01155399,-1.24617362,0.03544065,-0.32722661,-0.26451260,-0.01821731,-0.02312280,0.03447205,-0.08781847,0.05798458,-0.01684402,0.36075136,-0.00589246,-0.03689962,-0.02722927,-0.13117512,0.08053366,-0.43025205,-0.39726058,-0.05128302,-0.15388951,0.28732350,0.08413955,-0.01288072,0.19335803,0.05528857,-0.13588838,0.11823611,-0.01133972,-0.15293533,-0.03695101,-0.13135916,0.19253017,-0.13790432,-0.20298353,-0.09896843,-0.06507870,-0.82021964,-0.05414610,-0.03161480,-0.20647569,0.02725242,-0.01810144,0.21134280,-0.57551765,-0.31094903,-0.33377516,0.08242993,-0.25763568,-0.16132021,0.17437510,0.02150460,0.04940298,-0.01960920,0.13699724,-0.26932430,-0.07353275,0.05665367,-0.02231172,0.07950073,-0.03544702,-0.05462507,-0.05204364,-0.11721938,0.06742210,-0.10933852,-0.29699457,0.10590024,0.03530324,0.25499818,-0.16078906,-0.28534275,0.01317037,-0.10368488,0.08665327,0.15221395,-0.02224490,0.18526876,-0.00326985,-0.19160169,-0.19559819,-0.12434742,-0.04516446,-0.17432858,-0.00976368,0.11794535,-0.11612716,-0.45097598,0.19295694,0.07446580,-1.30935812,0.02265810,-0.08131937,0.08309852,0.04368883,-0.13736452,-0.17353083,0.24380285,-0.09102400,-0.09372106,-0.17899500,-0.10381112,-0.20325458,-0.12087816,0.06632636,-0.26144320,0.06801611,-0.09709546,0.23463628,-0.12054478,-0.14240567,-0.07187143,0.00842894,-0.15991254,-0.02918811,0.28915694,-0.36899993,-0.24728663,-0.21297291,0.06689959,-0.04031515,-0.09961569,-0.06711865,0.03183021,0.01771051,-0.00287122,0.09683994,0.38038805,0.37436345,-0.01352172,-0.01195615,-0.00431333,-0.09351111,-0.12877734,-0.10110781,0.06092933,0.32629696,0.02367408,-0.45818850,0.17252690,-0.10695983,0.12579013,-0.00286619,-0.32718247,-0.20593862,-0.06214481,-0.13951024,-0.14454959,-0.48601618,-0.21792600,0.04269541,-0.06274717,-0.20370282,-0.10549278,0.01015729,-0.13837610,-0.05487604,0.06381695,-0.17572729,-0.45514366,-0.13532783,0.03408137,0.15262055,0.03568651,0.05332708,-0.27317953,0.07451431,0.26646930,-0.08710890,-0.04108816,-0.15554418,-0.12544946,-0.03004425,0.05627828,-0.08361162,0.11967575,0.07032441,0.12992266,
-0.27333763,-0.00432060,0.06215502,0.14547101,-0.00715857,-0.00022699,-0.23383148,0.03316973,-0.05043159,0.00002222,-0.04586121,0.00801062,-0.07549548,0.15018927,0.19994293,-0.01246490,0.20513354,0.14687757,0.10408486,0.21454558,-0.02609625,-0.10481676,0.08430395,0.13234684,-0.10571913,0.24970426,0.05500633,-0.06537155,0.10894110,-0.09102691,0.21756551,-0.08707954,-0.02496976,0.05721442,0.15845180,0.17681670,-0.17970118,0.00016192,0.10319091,0.09193356,-0.17495504,0.03895744,-0.09382036,0.11763419,0.04095069,0.05714788,-0.09711576,0.04347164,0.08387091,0.14787145,-0.05311947,0.04840339,0.20256375,0.12940389,-0.34585539,0.01440252,0.15494685,0.11683495,-0.00545107,0.06456452,0.09410641,0.27725244,0.04569038,0.04862340,-0.19833305,0.10340293,-0.06051085,-0.09624340,0.18674754,-0.12836377,0.05162511,-0.20515701,0.04465073,-0.22189480,0.12266711,-0.09793718,-0.16775611,0.12498345,-0.05417335,-0.03335292,-0.11863220,0.06779304,0.09934719,0.16194157,0.16863900,0.16128778,0.12819152,-0.13694032,0.36754629,0.19468430,0.21787424,0.01078525,-0.30426803,0.00160687,0.00929862,0.07382933,0.04707138,-0.07485347,0.13454583,-0.26889277,-0.23878446,-0.15413664,0.13733031,-0.61049014,-0.07992573,-0.06220240,-0.00591535,-0.09355073,-0.14987606,0.06985153,-0.06857749,0.31401157,-0.15672122,0.23418306,0.02544834,0.07802610,0.14594190,-0.21253528,-0.10073240,-0.01520188,0.14142250,0.24941553,0.03997780,0.05792156,0.11859488,0.07070201,0.16012536,0.12319134,-0.32956752,-0.16117589,-0.16530842,-0.10447001,0.14771725,-0.04983912,0.09040159,-0.09064333,0.14651021,0.10378997,0.09253445,-0.01107277,-0.02402936,0.24351749,0.05474432,0.02556729,0.17254579,-0.20121300,0.27971679,0.04009709,0.05659251,-0.06812007,-0.53567868,-0.09635732,0.05624750,-0.08455177,0.10576812,0.01455077,0.02036707,0.12859783,-0.24254429,0.11335921,0.08039808,-0.06733382,0.12488371,-0.23493412,0.15377788,0.01311344,-0.21119566,-0.16595633,-0.09737989,0.13010220,0.13040680,-0.14107846,-0.15584506,-0.06644747,0.22416526,-0.21049535,0.19494268,-0.24507697,-0.03320365,-0.00873701,-0.01216802,0.12059687,-0.07496861,0.25210047,-0.51919591,0.00082181,-0.31797034,0.11878245,-0.16876602,0.02407720,-0.01765976,0.18788761,0.40045598,0.18274763,-0.02070023,0.36315799,-0.01285350,0.17880338,-0.11492445,0.07581367,0.16418254,0.00027200,-0.46979833,0.00427857,0.21109734,-0.23520873,-0.23292130,0.01829316,-0.09142657,0.17851263,0.18592772,-0.08638540,-0.00032912,-0.03973308,0.05999443,-0.29889596,-0.06175670,0.01576970,0.23617426,0.27885041,-0.00672644,0.09712826,0.00836055,0.03905758,-0.06412917,-0.01804059,-0.04376011,-0.09860498,-0.06779122,0.00991687,0.10359653,0.20512699,0.07437475,-0.10681023,0.00899692,0.24469344,-0.34571302,-0.11974335,0.03524530,-0.06979072,-0.07230846,0.19648021,0.13540357,-0.05743670,0.40948644,0.25001508,-0.01314567,-0.03250236,0.17549539,0.23792762,0.02231511,-0.18695569,0.12798329,0.27590665,-0.51897430,-0.13891804,
-0.18642756,0.00290597,-0.31401670,0.18539530,0.17515513,0.09865401,0.04053039,0.10580313,-0.04244174,0.15087286,0.06055953,-0.14427219,0.09040313,-0.11662612,-0.50969440,-0.19723214,-0.19923276,-0.16235392,0.52793002,-0.29252636,0.06205094,0.06948864,-0.08390862,0.10408307,-0.05160300,0.09196518,-0.11466978,0.04622002,-0.14755096,0.10303725,-0.16988112,-0.16651733,-0.03456469,0.04371881,-0.36961892,0.11066594,0.23444252,0.12953572,0.05573005,-0.07240224,0.25377178,0.09276153,0.06880432,-0.12126793,-0.22145039,-0.18974335,0.22458030,0.03136885,-0.16751260,-0.12744045,-0.17068686,0.20279959,0.11306333,-0.16576932,0.32040116,-0.06877016,-0.24257505,-0.11091989,-0.16272327,-0.14319453,0.09718169,-0.43512824,-0.13125344,-0.14933856,-0.05433122,0.00512266,-0.15149188,0.09795813,0.00368600,0.13660106,-0.10420638,0.36226049,-0.05987629,0.28543842,-0.14430621,0.03608191,0.14389201,-0.11634741,0.23599273,0.23690253,0.12629783,0.23610345,-0.01215291,-0.25415468,-0.13730012,-0.40158111,-0.11156566,-0.31350067,-0.44958442,-0.10984644,-0.38902357,-0.08403753,0.15240414,-0.06607170,-0.19056770,-0.07249632,0.04807834,0.07178107,0.03835960,-0.17897002,-0.12743287,0.04354266,0.07343199,-0.12197059,-0.22460365,0.09745728,0.23432140,0.14787987,0.07822225,-0.00839652,0.05594919,-0.54374784,0.00682111,-0.41090295,-0.11204968,0.17350294,-0.19209306,0.07784839,0.23925994,-0.06402358,-0.55144924,-0.09743711,0.03966854,0.09781587,0.19778256,-0.25980705,-0.11938028,-0.59849590,0.09871479,0.21473832,-0.01712211,-0.02635366,-0.19918588,-0.24844128,-0.27435181,-0.07106362,-0.14026774,-0.03193190,-0.10273618,-0.20903990,0.18292612,-0.30172288,-0.00581242,-0.13740605,0.05145640,0.11437411,-0.46190169,-0.01200307,-0.06665641,0.01543219,-0.14608821,0.08884777,-0.08172183,0.14847314,-0.16749409,-0.08738559,0.04762509,-0.15252407,0.26127222,-0.02990094,-0.25823429,0.13635680,0.04293502,0.00609033,-0.04064483,0.16128744,-0.07088404,-0.03688842,0.30846396,0.01778719,-0.14885160,-0.00010777,0.00641864,0.07841595,-0.10068455,-0.02811823,-0.12244430,0.31841725,0.02202904,-0.04596787,-0.02465339,-0.15803856,-0.04966272,-0.18244864,0.24754293,0.00090972,-0.05195254,-0.15467374,-0.13812065,0.03804341,0.21390812,0.09112310,-0.12418142,-0.19922255,0.22272287,0.00262786,0.06217929,-0.29047009,0.22791839,-0.20973562,-0.21042444,0.01773004,-0.10459499,0.06010548,0.07184184,-0.03275759,-0.06507941,0.05562731,0.20238347,-0.37159079,0.01312870,0.24720480,-0.03883281,0.11183119,-0.09455650,-0.14835078,0.40711880,-0.08718218,-0.49501085,-0.52345061,0.05192160,0.11185523,0.04473612,-0.41648424,0.00991402,0.23799600,0.01460563,0.03972835,-0.00412263,-0.02533421,0.06833488,-0.31253082,-0.30412933,0.17875919,0.11485105,-0.52200735,0.02320195,-0.05038747,-0.23436666,0.08848448,-0.12197921,-0.41502964,-0.36395347,0.10332218,-0.58164054,-0.30339411,0.07103898,0.28376198,-0.30367860,-0.27046216,-0.20358972,-0.04899653,-0.35321581,-0.35521460,0.04681366,-0.15667659,
-0.19659695,0.21234071,-0.44465417,0.04635093,0.17858043,0.23214553,-0.02360073,0.06623820,-0.22519529,-0.18459995,-0.12778251,-0.22280195,0.23540212,-0.37190172,-0.71702570,-0.23243447,-0.21782134,-0.09970529,-0.16948763,-0.35855886,-0.23120980,0.11050186,-0.22285001,0.16033234,-0.08207582,-0.28491119,-0.12938294,0.35439986,-0.09669393,0.22886676,-0.07755566,-0.04370710,-0.00702029,0.08567913,-0.25929371,-0.20273852,0.29683042,0.08545335,-0.10352307,-0.04492354,0.00531959,0.02701986,0.00748775,-0.17173027,-0.03772328,-0.16650535,0.07150995,-0.22601162,-0.21284759,-0.06059480,-0.05240933,0.09522764,-0.28778869,-0.21181846,0.50045592,-0.11274711,-0.18431753,-0.26710388,-0.35564443,-0.13165952,-0.06428348,-0.30694896,-0.16337077,-0.28301537,-0.02819005,-0.08051431,-0.03772751,-0.18440077,-0.19353339,0.00681356,-0.19342919,0.46633691,-0.29431048,0.31634206,-0.08707369,0.22880952,-0.46139890,-0.15254779,0.17300713,-0.64259636,0.17542441,0.09866329,-0.06697910,-0.15567656,-0.30474904,-0.53559887,-0.14396924,-0.26224241,-0.47145548,-0.22800983,-0.13395296,-0.22368048,0.17572644,0.04363769,-0.18238255,-0.19950612,-0.05832791,0.17654026,-0.29611632,0.00897463,-0.05950737,0.01653448,-0.40732211,-0.08185794,-0.39796031,0.26655975,-0.17986837,0.09024743,0.29509771,-0.01284970,0.09255543,-0.32164869,0.00315149,-0.55593175,-0.11502528,-0.39746043,-0.10089220,-0.00867120,0.24453773,0.15650432,-0.26296887,-0.24710874,-0.58486396,-0.12560157,-0.08245394,-0.01940473,-0.22792584,-0.42764473,0.03849723,0.33416876,-0.03643902,-0.12985168,-0.07720283,-0.14333889,-0.12146245,0.24889581,-0.09483159,-0.27321941,-0.06532756,-0.08654071,0.09219983,-0.59367639,-0.10338968,-0.09437434,-0.41059566,0.23122786,-0.41379339,-0.00118279,0.20028649,-0.10852858,-0.23124589,0.10024474,0.00162945,0.29168054,-0.21568859,-0.03452430,0.19746415,-0.09411657,0.11070711,-0.05500954,-0.41481620,0.15795456,0.27260262,0.00197689,-0.51997644,-0.23799112,-0.06219781,0.11906593,-0.20339365,-0.17439297,-0.08879500,0.26652354,0.20827204,0.06237382,-0.26607600,-0.35054949,-0.07972164,0.53155208,0.15210025,-0.13077700,-0.37188858,-0.10620965,0.23446557,-0.50649124,0.15517214,-0.12562610,-0.08403863,-0.10057140,-0.21174315,0.18952806,0.33559322,-0.14759442,-0.00637953,-0.13245732,0.24107376,-0.02136496,-0.07133437,-0.20320083,0.24583998,-0.23285387,-0.16143706,0.13815930,0.02569856,0.12854840,-0.13109809,-0.03040909,0.12923427,-0.02622360,0.25091875,-0.36645317,-0.15324949,-0.02455561,-0.07886032,0.35159370,-0.15975054,-0.21765244,-0.11780163,-0.27945325,-0.51317722,-0.65241736,0.24473843,-0.00408528,0.08670907,-0.19411917,0.08960755,-0.02316250,-0.10424061,0.09096061,0.21056503,0.15695457,0.24124089,-0.41892996,-0.39647090,0.09040495,0.21062313,-0.43362936,0.03202816,0.07845882,-0.30473721,0.12793599,-0.06687779,-0.41025028,-0.20094419,0.06099956,-0.58663601,-0.38723496,0.05384946,0.12706403,-0.39036533,-0.28655940,-0.10699131,-0.01487504,-0.39797208,-0.39550617,-0.11180246,-0.22756645,
-0.43801475,0.16185352,-0.08368256,-0.19783072,-0.05228826,0.07051292,0.83916390,0.22911580,-0.10803599,-0.09862873,0.24613664,-0.03516462,0.26305348,-0.06922349,-0.18684056,0.01805839,-0.01873623,0.00023762,-0.33062610,-0.40539220,-1.26734233,0.10472532,-0.10568330,0.09315272,0.66536307,-0.23146938,-0.05864303,0.17737278,-0.03921320,0.16574436,0.17706625,0.10404582,0.15237936,-0.14032589,0.08079737,0.22040854,0.12809640,0.29716459,-0.20763581,-0.16185398,0.37514696,-0.05290153,-0.34575340,-0.04216718,0.05549990,-0.18791328,0.02054010,-0.14808236,-0.09296368,-0.12271052,-0.14424986,0.48142150,-0.05813618,-0.05891277,0.15252112,0.00928482,0.24338105,-0.05473209,-0.28628433,0.02217128,-0.27076912,-0.09155288,-0.05471505,0.62183070,0.02808681,0.13055055,-0.20310600,-0.21773636,0.03911439,0.14102972,-0.27949786,0.32487568,0.06894605,0.19463150,0.07221504,0.01961167,0.59196186,0.10209839,-0.03095698,-0.15839964,0.24915054,0.30159184,-0.35241148,-0.42030782,0.12523131,-0.11742587,0.03003576,-0.10104047,-0.01735169,-0.16409642,-0.20887338,0.24270380,0.14205152,0.20464411,-0.01003295,-0.01425738,0.15287623,0.01626769,-0.19903083,-0.14957771,0.03154823,0.21235324,-0.06753424,-0.00417014,-0.96583974,0.06129812,0.18471119,-0.18822232,0.11357217,-0.44588444,0.03631527,-0.43426430,-0.07858700,-0.11641745,0.09041626,0.37428743,0.03630141,-0.27204046,0.08794831,0.14305758,-0.12352549,0.12584773,0.03254173,-0.03429892,0.34043610,-0.19590488,-0.12568770,-0.36210224,0.04820854,0.20453407,0.01555164,-0.23698334,0.22367373,-0.00390433,0.00094857,0.11409211,-0.19049510,-0.22929814,-0.09051929,-0.22471970,0.04394181,-0.73641562,0.07254291,0.08423300,0.21555725,0.16423364,-0.13967974,-0.07112090,0.19157191,-0.01402638,-0.02853856,0.11307792,-0.03558069,0.16092223,0.10243171,-0.06405841,0.03340786,0.00737636,0.25949433,0.13501245,-0.08024678,0.12749153,0.36057454,0.25320780,-0.17902270,0.14437425,0.02735224,0.27895334,0.70123422,-0.05412804,0.12658484,0.19245498,0.04639307,-0.19866255,-0.41850948,0.16104025,0.08240503,0.14805520,0.25283793,-0.00290109,-0.02438896,0.05653714,-0.03279357,-0.16420579,0.05980041,-0.08727860,-0.12512332,0.10473245,-0.13385530,-0.08405016,0.05490447,1.04140604,-0.12700514,-0.13677566,0.09025464,0.02127895,-0.09211025,-0.11635821,-0.04180792,-0.03431170,-0.03494257,0.11277200,0.38398501,0.12295043,-0.33668447,-0.02946306,0.03453178,0.03631228,0.17968197,-0.14252903,-0.17909275,-0.00549090,-0.16268869,0.19315943,0.04866195,-0.10815100,0.40196890,-0.03339786,-0.33954865,-0.20312284,0.05163426,0.05370304,0.09029119,-0.08322240,0.05456656,0.28020507,0.20977658,0.06396572,0.11433709,-0.17060469,0.24445014,-0.69110346,0.02193791,0.41759694,0.03207151,-0.32821637,0.17077661,0.13130876,-0.25469893,0.09448431,0.02582860,-0.09583548,-0.09621105,0.05892415,-0.36093608,0.15467280,-0.15000641,0.03072804,0.19725977,0.04266294,-0.01666398,-0.88074988,-0.25384486,-0.24709599,0.19014835,0.03524171,
-0.20233665,0.10846651,-0.29605767,0.12996498,0.11573505,0.15156415,-0.12364278,0.18103530,-0.07303474,0.03877478,0.12197989,-0.19829538,0.16306952,-0.05478113,-0.77149945,-0.18036021,-0.26653248,-0.07396433,-0.02161427,-0.28079095,-0.16982056,0.13874803,-0.23813452,0.14014274,0.00062288,-0.13409902,0.07553422,0.30046481,-0.08209122,0.22951998,0.00795153,-0.04769595,0.06324486,-0.06805524,-0.26373717,-0.35262635,0.33876777,0.23943558,-0.05960546,-0.02218607,0.05768361,-0.10776017,-0.08261514,-0.16069821,-0.06111044,-0.21663550,0.12612203,-0.14451273,-0.11223168,-0.00861384,-0.01475743,0.06574786,-0.23557901,-0.18596718,0.56534773,0.04796233,-0.17635934,-0.21512024,-0.30245697,-0.11360185,-0.01288497,-0.08427332,-0.01624342,-0.19148028,0.01783820,-0.11067043,-0.02422130,-0.08700638,-0.17966019,0.18032743,-0.14457506,0.39278659,-0.22575140,0.33939934,-0.11188253,0.23020792,-0.28789490,-0.11873930,0.20475341,-0.48839298,0.20140743,0.17926793,-0.03034323,-0.11375594,-0.14817108,-0.33584642,-0.11874175,-0.21676373,-0.25827435,-0.18473130,-0.20069012,0.01299464,0.04768776,-0.04441582,-0.22671998,0.01233838,-0.16587745,0.13396324,-0.20028262,-0.13604514,-0.02140527,0.02060094,-0.38849562,-0.10677378,-0.39584666,0.25621203,0.07715543,0.01635556,0.28186390,-0.11329194,0.11224592,-0.49058136,-0.11835989,-0.38087964,-0.00180455,-0.27795905,-0.16254413,-0.06992867,0.32739571,0.14716424,-0.22114944,-0.10505687,-0.23571296,0.03719984,-0.11185283,-0.00499131,-0.31932336,-0.26112145,0.03613454,0.24547361,0.03353153,0.03892679,-0.21548168,-0.24529892,-0.14120933,0.29928347,-0.06991886,-0.09151589,0.00112486,-0.11161243,0.26670161,-0.27730614,-0.12285324,-0.02992659,-0.34519976,0.18080187,-0.40973347,-0.02727718,0.18638338,-0.12134521,-0.24901603,0.08280256,0.01405540,0.33631134,-0.06849741,-0.01574245,0.16313860,-0.13439760,0.20112403,-0.08598757,-0.40227753,0.21695641,0.32332140,-0.02670485,-0.47151142,-0.10386230,-0.14087297,-0.07239371,-0.21189119,-0.23983079,-0.10519952,0.20056061,0.20526065,0.07920968,-0.24892552,-0.31406185,-0.00627588,0.44314325,0.10233074,-0.14350422,-0.20455216,-0.10468640,0.12778777,-0.43771335,0.18499576,-0.05180271,-0.17189975,-0.02586096,-0.34372607,0.14961636,0.33173123,-0.08257798,0.05120008,-0.07525893,0.04879443,-0.05032689,-0.06209935,-0.07176799,0.19900836,-0.30500165,-0.11968488,0.10821018,-0.25182903,0.23559184,-0.08742736,-0.19589721,0.00433646,0.00912931,0.20837907,-0.24289839,-0.25988120,0.17917047,-0.11406565,0.38718337,-0.16715544,-0.28748927,-0.18401112,-0.25942397,-0.33475891,-0.58168930,0.18128736,0.02303700,0.15977690,-0.18833116,0.04975958,0.18246202,0.00237277,-0.02835866,0.17547701,0.03419182,-0.08082371,-0.46416506,-0.38773331,0.07376549,0.26663920,-0.41499290,0.11278256,-0.01401310,-0.31056842,0.10872588,0.00290784,-0.32717997,-0.18834411,0.22142488,-0.57005048,-0.42545542,0.04321713,0.25750011,-0.25375727,-0.20016810,-0.19539316,-0.07099979,-0.48458982,-0.42778707,-0.02090380,-0.22878291,
