// Neural Network File Format by Kyle Julian, Stanford 2016
3,28,5,256,
28,256,256,5,
0,
0,0,0,0,0,0,0,0,0,0,0,0,0,0,0,0,0,0,0,0,0,0,0,0,0,0,0,0,
40,40,40,40,40,40,40,40,40,40,40,40,40,40,40,40,40,40,40,40,40,40,40,40,40,24,40,3,
0,0,0,0,0,0,0,0,0,0,0,0,0,0,0,0,0,0,0,0,0,0,0,0,0,0,0,0,0,
1,1,1,1,1,1,1,1,1,1,1,1,1,1,1,1,1,1,1,1,1,1,1,1,1,1,1,1,1,
-1.41123796,-1.44192052,0.29305083,0.16234343,0.20470062,-0.19920535,0.00988741,-0.57200956,-0.88034022,-0.12815352,0.11496647,-1.77990592,0.17109029,-2.18361855,0.35196319,0.04748750,0.43104523,-0.07413600,-0.66052032,0.07978465,0.15241709,-0.00850049,0.26161879,-0.44034746,-0.72656512,-0.55051452,0.15569523,0.28587037,
0.27000612,0.23977366,0.19047077,0.34875301,0.45773223,0.27820045,-0.03249139,0.00708431,0.49294230,0.43285573,0.36516905,0.30676922,0.34458721,0.38110659,0.26464927,0.34552205,0.35170004,0.39392409,0.44075632,0.22002426,0.49759275,0.13712430,-0.90943694,-0.68325680,-2.09901071,-0.54083627,0.33206332,-0.62683564,
0.10754911,0.27075931,0.26015416,0.23165198,0.44160250,0.12373073,-0.27341568,-0.31185433,0.43203384,-0.17434871,0.03924857,-0.78498816,-1.63764930,0.37878343,-0.40587229,0.04868704,0.41552565,0.16956609,0.09257557,-0.04521301,-0.27505153,-0.80664408,0.33452401,-1.06225681,-0.04653783,-1.33755541,0.04458086,-0.76869941,
0.00737226,-0.13066295,0.01543109,0.09034888,-0.26169652,-0.01587720,-0.04497455,-0.80741531,-0.19276030,0.19137847,-0.06092458,-0.00970129,-0.33308575,-0.00728866,-0.39356297,-0.04155475,-0.38899103,-0.84244293,-0.67523545,-0.14401576,-0.03516087,-0.00898115,0.00249206,-0.07530519,-1.92899287,0.30863127,-0.11877502,0.78719288,
-0.00988208,0.06530444,-0.03241417,0.05136896,0.19632602,-0.03100864,0.27063552,0.30699626,0.07174592,0.10066593,0.06755064,0.02472913,0.38768950,0.20730786,0.30353647,-0.12083746,-0.16956344,0.28732044,0.00553658,0.24796419,0.16045700,0.37430277,0.32043710,0.36183316,-0.62002867,-0.49814275,0.33685902,-1.11145532,
0.28020802,-0.10457212,-0.58522457,-0.59342974,0.04407410,-0.03107069,-0.51889724,-0.04616453,-0.01439829,-0.03147743,-0.03603460,-1.73497450,-0.18116871,-1.42090881,-0.48585263,-2.54124236,0.16140550,0.09864202,-4.65255213,-2.05344176,-3.73063636,-2.28776050,-0.95321977,-1.20260060,-0.16235328,-0.35430729,0.23625639,-0.93615609,
-0.11831343,0.00103934,-0.29050034,-0.39143935,-0.39957044,-0.05282710,-0.04063411,-0.53345323,-0.31695971,-0.11337043,-0.10088249,-0.31864178,-0.07609206,-0.04252128,-0.63599741,-0.06793176,-0.21245201,-0.45784652,-0.88157040,-0.46754980,-0.46132812,-0.73309028,-0.61245143,-0.59357709,-0.12185665,-1.50535119,-0.07343324,-1.56260967,
0.06254186,-0.18544713,-0.01980702,-0.10003547,-0.16958049,0.00191605,-0.29104462,-0.80586469,0.00871926,-0.77129376,-0.55082762,-0.06000708,-0.02482429,-0.20131464,-0.11054564,-0.69147205,-0.46492499,-0.39124933,-0.38264316,-0.37258142,-1.11081576,-0.80014676,-0.06398495,0.02250000,-0.15714079,-1.94696724,-0.02699102,-2.39770460,
-0.15032272,-0.38370159,-0.11931887,-0.25545323,0.00960148,-0.26157656,-0.52479142,-0.12344977,-0.19801366,0.06603646,-0.49926066,-0.02967870,-0.73441249,-0.24725690,-0.28024888,-0.39209551,-0.02183579,-0.75154495,-0.07563517,-0.20661788,-0.41055650,-1.86593699,-0.80887240,-1.14448929,-1.99350083,0.45670849,-0.20513992,0.17353296,
-0.18866481,-0.31764331,-0.09912684,-0.18294388,-0.28781915,-0.17959404,-0.05842730,-0.06471480,-0.21890371,0.00031834,-0.26577303,-0.06811102,-0.08281025,-0.45481321,-0.43777558,-0.03156979,-0.34751478,-0.19879715,-0.41304517,-0.06076076,-0.23583902,-0.08697301,-0.13821471,-0.22685394,0.22425869,-0.39764246,-0.22753781,-0.88414842,
-0.36575252,-1.07885695,-0.44591781,-0.35477543,-0.31251708,-1.17189956,-0.66568965,-0.34971806,0.19837248,0.27442980,-0.03771080,-0.39119998,-0.03573999,0.06918322,-0.25397709,0.25822291,-0.15640798,0.20741244,-0.41584498,-0.11917536,-0.53935379,-1.00322127,0.19852687,-0.43714106,0.15978889,-0.61842942,-0.86795080,-0.97677451,
0.23385297,-0.02471484,-0.37124023,-0.37718433,-0.56099504,0.23507687,0.28135568,0.01171591,0.30595523,0.31671697,0.11839148,0.23017992,0.11514971,-0.14258924,-0.11055671,0.06247379,0.00637907,-0.31250980,-0.21156166,-0.22932741,-1.08009040,-0.07473436,-0.56737918,-0.12048460,-0.45721537,-0.54070634,0.16807549,-3.12882352,
0.06989843,0.03498397,0.17788558,0.23173702,0.10047509,0.02593329,0.01947257,0.18286973,0.06034617,0.23003758,0.08729654,0.11977061,0.06839787,0.21536112,0.14294754,0.07923156,0.20150758,0.23661602,0.16397373,0.16643859,0.12423641,0.25167301,0.08620404,0.09166296,-6.78566933,-0.31337121,0.39753777,0.61887652,
0.12192168,0.05206185,0.04545728,-0.00146396,0.03563460,0.19628201,0.27802745,0.31685984,0.00274698,-0.15549609,-1.10523379,-1.22304678,-0.22241205,-1.87463689,-0.85789156,-0.28713953,-0.66161937,0.09888081,0.18528400,0.39380351,0.10542206,0.33017233,0.52438229,-0.04531252,-1.15332425,-1.33726478,-0.14647937,-1.17253137,
-0.07391445,-0.10249270,-0.20210539,-0.03303735,-0.06773327,-0.21976294,-0.10220546,-0.38710800,-0.03562694,-0.07226352,-0.33354869,-0.29237261,-0.16147235,-0.23867330,-0.04211688,-0.01394373,-0.00004986,-0.21071346,-0.55571073,-0.12368505,-0.07955747,-0.08095839,-0.10064004,-0.02909631,-0.16093969,0.02142709,-0.34466878,-0.37072077,
-0.39414164,-0.96512759,0.16176264,0.09004643,-0.04751572,0.05140089,-0.50840807,-0.55620152,-0.01863927,-0.30886668,-0.03370244,-0.26873505,0.07224841,-0.00242113,-0.12644593,-0.00574253,-1.81118596,-0.24565479,0.09259657,0.09825143,0.09390283,0.05545982,-0.69583583,-0.21811187,-0.07174041,-2.30169630,-1.42433035,-1.40467882,
-0.20196097,-0.20991836,-0.33339581,-0.77667671,-0.49963492,-0.01642243,-0.16953085,0.22368847,0.18008627,-0.08549459,0.26804927,-0.01623999,0.22955221,0.05663956,-0.00808035,-0.50440407,0.17477867,0.05705494,0.14529522,0.10468101,-0.37307185,0.21970905,0.10094949,-0.33812630,-0.27650830,-1.77427423,-0.05676755,2.07569218,
-0.36495999,0.04493553,0.07290176,-0.06341967,-0.15690687,0.07882317,-0.11289659,-0.11184108,0.14891601,-0.25505155,0.14275077,0.13981389,0.18366009,-0.39866617,-0.08912712,-0.08311246,0.00974848,-0.12159263,0.01795841,-0.22342563,0.07391120,0.08445398,0.11698575,-0.04261750,-1.19883776,-0.04710359,0.00707454,0.60724413,
-0.21691431,-0.28893584,-0.38962045,-0.24287109,-0.36206830,-0.21252480,-0.10054955,0.01020765,-0.12631264,-0.32718781,-0.31774864,-0.35882917,-0.45046937,-0.06915476,-0.23544993,-0.01440646,-0.39022666,-0.42905864,-0.00431804,-0.25592220,-0.23481075,-0.36783019,-0.21901263,-0.11314236,0.05683108,-0.70699251,-0.20274648,-0.60924011,
-1.24787307,0.46232930,0.10384628,-0.36677885,-0.57651693,0.35721421,-0.18566303,-0.01135592,-0.09555978,-0.45292729,-0.01622970,-0.26688379,-0.57151079,0.16519111,-0.25970930,-0.01016163,0.15456195,0.04452834,-0.39606807,-0.92437917,-0.10746253,-0.02875480,-0.48690519,-0.75235367,-0.13589242,-1.03441179,-1.71697021,-0.48064512,
-0.30982432,-0.13687395,-0.82313180,-1.04438436,-0.14456096,-0.45368430,-0.11305388,-0.00256484,-0.37721533,0.17987776,-0.36288550,-0.01847767,-0.41356832,-0.72002190,-0.69716245,-0.59931237,-0.22255950,-0.30769840,-0.36230075,-0.61759239,0.45446613,0.06443280,-0.36211187,-0.57031983,0.13279440,-0.64448160,-2.07123899,-0.97137129,
-0.04759752,-0.07634806,0.05079383,0.23194860,-0.90653884,-0.15342893,-0.02076815,0.18150701,-0.31657010,-0.19912225,0.38576755,0.27215376,-0.75178748,0.32032382,0.40746552,-1.33218133,0.34561720,-0.44505000,0.03682332,0.30493736,-3.40039039,-1.06260133,0.28174093,0.32854396,-1.76854372,-0.37106082,0.25083411,-1.33887267,
-0.22246073,0.07817315,0.18394169,0.21800746,0.35058039,0.22969082,0.15354875,0.09240665,0.08279725,0.11174945,0.01817210,0.39785904,0.23766416,0.22905858,0.20661332,0.36450014,0.16021736,0.29868326,0.30470911,0.20894107,0.20246963,0.24539688,0.31716579,0.19192454,0.13184506,-2.30485821,0.16423322,-2.46319509,
-0.08039461,-0.26529190,-0.27402502,-0.19771093,-0.34835231,-0.34331033,-0.23338865,-0.44861114,-0.06748472,-0.35637429,-0.50476903,-0.29049286,-0.06068711,-0.35727972,-0.39476356,-0.19338341,-0.25135526,-0.26175258,-0.07239483,-0.24199826,-0.11795635,-0.22226627,-0.12795983,-0.00836357,0.01833074,-0.01493353,-0.17462732,-1.06679702,
-0.10375132,0.04275325,0.26701698,0.25774202,0.14817540,0.11202028,0.12862588,0.17096782,-0.11647407,0.26327479,-0.08479547,-0.01763128,0.32686833,0.35011744,0.03086375,-0.04645613,0.22482917,0.31561539,0.14993745,0.24484871,-0.64125961,0.26928288,0.09286319,0.16472039,-0.19196200,-2.27346826,0.21068063,-2.36546540,
-0.16772848,-0.05502602,0.18054034,-0.20323808,0.11501052,0.07011328,0.06095943,-0.15199457,0.32028660,-0.22575159,-0.60723400,-0.08568265,0.06836547,0.27668422,0.31605685,-0.25174391,0.32669857,0.10891259,0.54039651,0.28873172,-2.01720333,-0.17489944,-0.09819315,-0.71668571,-3.06361771,-0.35388774,0.25721955,-1.07700539,
-0.16686627,-0.01560821,-0.75140721,-0.53112757,-0.33808050,0.02419105,-0.22225614,-0.05058718,-0.18921508,-0.76188177,-0.72470427,0.01458464,-0.02823216,-0.23204231,-0.55569977,-0.36439610,-0.29142079,-0.14545733,-0.33729461,-0.27443111,-0.01802656,-0.35963213,-0.20207363,-0.33039472,-0.31796452,-1.39292705,-1.90854335,-0.72263730,
-0.38396761,-1.01960063,-0.00173361,-0.29568797,-0.69577974,-0.36958683,-0.55145890,-0.85180032,-0.64266121,-0.01603431,-0.14030351,-0.29591191,-0.31248486,-0.39489332,0.02783517,-0.20604894,-0.61233348,-0.20046654,-0.02498223,-0.05402125,-0.52713376,-0.14202359,-0.51305562,-0.01899718,-0.26024160,-3.07619524,-0.61540467,-1.45923269,
-0.06454693,-0.38289672,0.11697332,-0.49459100,-0.15993989,0.39299425,-0.10971078,-0.61936557,0.33999857,-0.41564789,-0.04788126,0.34439436,-0.38214463,0.11925677,0.19082189,0.30188113,0.21452506,0.32706150,0.26965982,0.25937411,0.23407750,0.21462525,0.07864216,0.40582046,-1.03041410,-0.55574274,0.33639368,-0.14820941,
-0.01887218,-0.04502753,-0.00121519,-0.13629049,-0.07527620,-0.61553425,-0.54959416,-0.48292798,-0.16091451,-0.04224138,-0.37579960,-0.07775409,-0.25801206,-0.40007979,-0.15905912,-0.39645338,-0.03739217,-0.38248244,-0.44230306,-0.20620370,-0.74771202,0.00673757,-0.62273884,-0.67432326,-1.30202448,-1.21908772,-0.53725934,0.04795434,
-0.21972078,0.09397890,0.03557981,-2.00069332,0.14826094,0.08819032,0.17340550,0.26745984,0.30714253,0.35982502,0.43624449,0.39160091,0.40992793,0.33047706,0.21054558,0.24673897,0.39547279,0.31775457,0.27948186,0.18370761,0.29757023,0.26085788,0.30047643,0.31321642,-0.13088359,-1.09659958,0.25985610,-1.50360394,
-0.05561818,-0.42677414,0.02759241,-0.15951096,-0.18819179,-0.24565646,-0.25082389,-0.27632114,-0.12680648,-0.25828013,-0.20809859,-0.25090384,0.03069496,-0.43325207,-0.15062876,-0.39201745,-0.35666049,0.11236370,-0.15944423,0.02028677,-0.32900107,-0.36366159,-0.30851066,-0.19074437,0.14426000,0.39788914,-0.18317725,1.02330613,
0.14740987,-0.10097780,-0.15327391,-0.41224515,0.06863233,0.02066640,-0.13201328,0.25371006,-0.00695014,-0.38274434,-0.40846357,-0.39347112,-0.16766556,-0.75174719,-0.02222719,-0.35469538,-0.43558288,-0.24192657,0.00391768,-0.04815154,-1.22678459,-0.76016712,-0.47233579,-1.28388786,-0.43318206,-1.14456594,0.21294723,-2.02825046,
-4.18828344,-3.67638683,-4.00206423,0.03774986,0.11534093,0.04118595,0.09988805,0.03880406,0.03633938,0.05090474,0.04412202,0.05102560,0.08874353,0.00400092,0.03337389,-0.01639598,0.01133803,0.03106694,0.05164386,0.05537069,0.03761237,0.05283480,0.01635479,0.05105563,-5.35108042,0.31062338,0.11887459,0.33464965,
-1.23905921,-1.59833336,-0.88701332,-0.81387186,-0.08893740,-0.18289742,-0.39621559,-0.15192787,-0.53538501,-0.04625465,-1.02444685,0.03555942,-0.00564963,0.25626743,0.04320996,-0.00491213,-0.16341677,0.12018019,-0.04718911,0.07633778,0.24323332,0.01773082,0.03577114,-0.02319775,-5.71002007,0.05092142,0.04756494,0.11178661,
-0.02732491,0.04671069,0.12671544,-0.24376379,0.06850313,0.12600501,0.00126321,-0.83137798,-0.73228008,0.03552327,-0.51759672,-0.10298792,-0.57013261,-0.18050879,0.27892980,-0.24995893,-0.00884402,-0.17536154,0.14140385,-0.99488014,-0.42955327,-0.26219353,-0.73055387,-0.15578341,-0.25833759,-0.85804802,-1.06280124,0.01990649,
0.10341577,0.30951941,0.11079800,0.18706872,-0.00689023,-1.05713773,0.18083903,0.16217974,0.32491788,0.32215542,0.32470113,0.40746436,0.34144184,0.19220021,-0.36090130,0.00224083,0.21798849,0.09465441,-0.44745871,0.13351612,-0.85333884,0.25902450,-0.58140713,0.29635927,0.20784649,-1.12955964,0.24778885,-1.23154020,
-0.52587271,-0.57966191,-0.62288719,-0.38353607,-0.51555866,-0.54479986,-0.30018771,-0.38676721,-0.79206169,-0.88960737,-0.49453041,-0.87930727,-0.78324193,0.33056414,-0.83534539,-0.59918493,-0.27197623,-0.08370622,-0.91180402,-1.02961516,0.05578053,-0.48023397,-0.37869242,0.13260132,-0.71682507,-0.33693820,-1.20180488,-0.33452868,
-0.95928621,-0.03972182,-0.56331134,-0.30822304,-0.39097425,-0.29684797,-0.54947156,-0.33707118,0.16620527,-0.11007927,-0.20462281,-0.35621822,0.02643877,-0.03146144,-0.46474949,-0.75801295,-0.41073877,0.02170285,0.09082919,-0.98462129,-0.23162575,-0.59576422,0.04753823,-0.02984707,-0.39524031,-1.83788800,-0.92421627,-0.66171706,
-1.15292239,-1.11903477,-0.92028391,-0.71089715,-0.95064634,-0.97689480,-0.64381963,-0.85073960,-0.95827550,-0.60008311,-0.94551426,-0.16963977,0.04018701,-0.20399518,-0.89446020,-0.52624625,-0.99737900,-0.85854846,-0.75089461,-0.66414231,0.11505267,0.16490048,0.16460237,-0.42802432,-0.59684479,-0.12695806,-0.54943216,0.25638556,
0.04930028,-0.11700138,-1.64311683,-0.53958613,-0.04699693,0.06295154,0.10890739,-0.02919673,-0.45678627,-0.04471405,-0.58840233,-0.24053884,-0.57769966,-0.03269558,0.22061585,-0.10452655,0.27536392,0.15841471,-0.00345175,0.20254949,0.27873224,0.24109617,0.23238114,0.38243797,-0.98570937,-0.74702018,0.34717071,-1.09362423,
-0.46767437,-0.90717447,-1.14628935,-2.04254270,-0.34551570,0.31033528,0.10665759,0.13721119,0.16378580,-0.09950852,0.22713286,0.30144581,0.05514631,-0.02959341,0.12289084,0.26964611,-0.12421960,0.12302227,0.01923705,0.22287190,0.22458051,0.19350693,-0.05284462,0.29295024,-4.28610373,-0.19669895,-0.01370176,0.93521279,
0.02741004,0.42648840,0.34741813,0.47128317,0.07525434,0.53381711,0.28646275,0.26565239,0.35557839,0.44545838,0.44494280,0.47310346,0.44070405,0.43934476,0.31292003,0.43487471,0.33604074,0.11128855,0.30618572,0.36262536,0.44297737,0.07984881,0.36698318,0.27324069,-1.65045917,-0.47031748,0.28957656,0.50493646,
-0.15637982,-0.27987912,-0.71942371,-0.15605389,-0.13917232,-0.13757803,-0.17495249,-1.21926892,-1.45648253,-1.29066622,-1.35179508,-1.56944418,-1.10428488,-1.47230673,-2.14967608,-0.12317194,-0.34025264,-0.04868514,-0.02988202,-0.11756405,-0.31145632,-0.00288708,-0.05016685,-0.20186606,-0.82529134,0.06537008,-0.03146854,2.32087374,
-0.13483009,-0.04652731,0.14820044,0.31589499,-0.43681422,-0.17643796,-0.37536609,0.01927910,0.23068920,0.02875240,0.12385318,0.10300318,0.30062309,0.09483963,0.25621289,-0.41989189,0.26276320,0.23401369,0.17942064,0.07920358,0.26720831,0.29866257,0.20002998,0.31977275,0.35157189,-0.26953974,-0.52483290,-0.87091780,
0.20534748,-0.17334302,-0.95619935,0.00341224,-0.64842403,0.06415285,-0.82370102,-0.23569679,-0.16797455,-0.52924591,-0.04562703,-0.44554350,0.13249764,0.13871911,-0.57738423,-1.82523334,-0.91024685,-0.80360878,-0.55408561,-0.64847511,-0.76149428,-0.34513634,-0.31842721,-0.12356757,-0.00236061,-0.82896662,0.28424987,-1.14235723,
-0.04890456,-0.02189972,0.03199595,-0.45620781,0.04839750,0.05519471,0.03005498,-0.87012541,0.05000265,-0.05295269,-0.17019458,-0.92668301,-0.29679143,0.28553125,-0.47363147,-0.62904477,-0.00027851,-0.38869512,0.06713368,0.16931038,-1.85832691,-0.16438897,-0.02148389,-0.11580473,0.04001987,-1.15363932,-0.09404440,-1.42419899,
-0.10076843,0.08216046,-0.14018169,0.16365881,-0.22685316,0.01227205,0.15351267,0.02364079,0.34861472,0.15828495,-0.21714857,-0.05863802,-0.90939367,-2.94009709,-0.03005612,-0.94946927,-0.41313636,-3.37049007,0.05099308,0.02988169,-0.01717944,-0.27423304,-0.45624858,0.01820656,-2.00377989,-0.91233230,-0.58399689,-0.61686671,
-0.05303442,-0.37819409,-0.68562430,-0.54164934,-0.70287126,-0.01462558,-0.09972842,-0.32398683,0.06506199,0.12313139,-0.65967190,-0.28792259,0.15082024,-0.52759826,-0.39465827,0.20809871,-0.72027689,-0.74459618,-1.09505188,-2.64235044,-1.55680931,-2.60388947,-1.30348957,-1.85232365,-1.06537771,-0.48393098,0.29613492,-0.65500933,
-2.36444330,-1.55580461,-3.43249893,-5.31237555,-0.21333383,-4.23215580,-3.96121573,-4.28609610,0.23466404,0.19692987,0.27622756,0.20819840,0.23596184,0.22454259,0.00235671,0.22149464,0.26068184,0.22092628,0.20276588,0.28630039,0.09220301,0.19715835,0.16891129,-0.00370245,-2.22571278,-0.59482074,0.21168114,-0.66195124,
-0.52540129,-0.03475109,-0.10666021,-0.04168081,-0.38543221,-0.03515017,-0.29227665,-0.10617719,-0.13214836,-0.08054173,-0.42925614,-0.04923712,-0.04076350,-0.07042840,-0.09717937,-0.45418170,-0.21077842,-0.15131372,-0.11005311,-0.07396793,-0.10993170,-0.10967863,-0.01796047,-0.02046452,-0.21051398,0.03614262,-0.05897211,-0.27633944,
-0.05898480,-0.03007436,0.08977781,-0.06876910,0.28122151,-0.25471881,-0.49056756,-0.13411628,-1.69638765,-0.08542022,0.37281913,0.10393126,0.07800087,0.49085438,-0.44145107,0.18959303,0.20262168,0.16840379,0.11977305,0.44381478,0.10112482,0.34586218,-0.10298601,-0.10174154,-0.61518395,-1.28511381,0.30748415,-0.84176040,
-0.17542475,-0.42187294,-0.95894510,-0.73545307,-0.80267346,-0.13866076,-0.64366978,-0.59600902,-1.03053927,-0.50634450,0.27989912,0.21969827,-0.11057398,-0.77527630,-0.05338002,-1.49450159,-0.88963050,0.32672548,-1.71465731,0.23403788,-1.82921326,0.23172347,0.27437964,0.24288818,-1.93029237,-0.41558942,0.30942830,-0.18762533,
-0.71101594,-0.86712724,-0.48201737,-0.51169831,-0.94066352,-0.43641132,-0.02067119,-0.52823973,-0.68880296,-0.44091898,-0.02859503,-0.16590542,-0.24518010,-0.23648639,-0.61179179,-0.84976774,-0.34615725,-0.55855286,-0.31997469,0.32907453,0.04566179,-0.32521728,-0.40876251,-0.91560000,0.18577997,-0.95175701,-1.93054140,-0.87948412,
0.13066393,-0.02970696,0.11823906,0.15936610,0.38326010,0.18536426,0.03230107,0.14824525,-0.20039280,0.19393611,0.21239845,0.07417987,0.35240978,0.19285713,0.30343997,0.19843227,0.26859277,-1.89481962,0.20130432,0.02842063,-0.64863795,0.41790155,0.18809040,0.36104324,-0.96763402,-0.52907932,0.24230354,-0.18689279,
-4.26867533,-4.28303576,-4.03422022,-3.91376019,-4.03955650,-3.64312267,-3.96250677,-4.04020882,-3.02824783,-3.31502938,-1.36832976,-1.80026758,0.04023209,0.04888580,0.14774774,0.10795306,0.12765759,0.10685495,0.11389413,0.13613316,0.18588525,0.16718228,0.20430592,0.20039314,-1.45704257,-0.14786771,0.14542206,-0.35871264,
0.30707565,0.20995256,0.21927373,0.20566057,-2.07260251,-0.79876810,-0.45443854,-0.87961513,-0.08785313,-0.07593953,0.15231213,-0.28694296,0.13109520,-0.12377098,-0.01588989,0.04955272,0.32212800,-0.29370409,0.04300233,0.22053552,-0.12626180,-0.21400756,0.10991568,-0.15738839,-0.58342195,-2.04523182,0.17719969,-1.99826479,
0.15812048,-0.71097028,-0.33333078,-0.13310994,-0.04445976,-0.02348085,-0.01346558,-0.64951485,-0.15430577,-1.51993394,-1.09256876,-1.58434379,-0.46219438,-0.70571864,-1.44300020,-0.16708685,-0.75908279,-0.61550093,-0.50862813,-0.13730335,0.09792532,-0.30480558,-0.32832059,-0.15267749,0.01536445,0.15996026,-0.17162503,0.94148898,
-0.66958195,-0.95889050,-0.81790233,-0.31180409,-0.57629240,-0.27021828,-0.56853062,-0.66939741,-0.22821426,-0.52198142,-0.45188776,-0.71700126,-0.80992055,-1.04186296,-0.98691636,-0.68999916,-0.54049951,-1.06103122,0.05970778,-0.84557253,-0.61347699,-0.11817082,-0.21949752,0.02056333,-1.45520890,-0.61479050,-0.56657487,-0.68756104,
-0.83454162,-0.46424156,-0.27797234,-0.50131428,-0.45546108,-0.45637566,-0.39844635,-0.22134668,-0.40652749,-0.20993662,-0.29882082,-0.17605482,-0.20484282,-0.20540917,-0.15037282,-0.76667261,0.05593708,0.03065940,-0.21581633,-0.08988324,0.04495619,-0.18554030,-0.00551482,-0.24402691,-0.36928320,0.56652075,-0.67326999,1.37386131,
-0.00347785,0.05882001,-0.01757345,-0.84025544,-0.36802289,-0.67451257,-0.57555056,-0.93210226,-0.17447332,0.16558224,-0.18037601,-0.87980264,-0.23975480,-0.03557139,0.15030806,-0.30451789,-0.32343170,-1.30766821,-1.58093166,-0.04365493,-0.24881709,-1.08612382,-0.04056365,-0.02899908,-0.34713054,-1.32946980,0.16817155,0.82399744,
-0.08692816,-0.03868657,-0.17649768,-0.05308428,-0.29297242,-0.09684972,-0.07556124,-0.09946771,-0.14971313,-0.12230594,-0.00298752,-0.02703082,-0.18011168,-0.03850554,-0.21627906,-0.03859349,-0.15831293,-0.02420889,-0.07785480,-0.03077076,-0.01100223,-0.15376347,-0.32261330,-0.17666064,-0.44594523,0.00660172,-0.62450242,-0.44008484,
-0.08324007,-0.03782213,-0.16266659,-0.33661890,-0.45347556,-0.33553407,-0.54101455,-0.20646334,-0.45940340,-0.59469813,0.02795140,-0.34119794,-0.74206066,0.42101812,-0.14938651,-0.08349440,0.09708097,0.28737026,0.27857393,-0.81914830,0.12773336,0.09323581,-0.35459456,-0.69516289,-0.33986375,-1.13644052,0.29125026,-0.12923905,
-0.33559835,-0.43737826,-0.25098401,-0.55315816,-0.63003016,-0.38008684,-0.04757747,-0.14106786,-0.24744409,0.06736472,-0.23638311,-0.26026231,-0.59682190,-0.48096037,0.00840793,-0.26259941,-0.49767059,-0.38032803,-0.08842844,-0.11711292,-0.55386424,-1.07220912,-0.54619825,-0.52855772,-1.19637191,-0.69216275,-1.61930060,-0.26532257,
-0.17266780,-0.14833438,-0.52966064,-0.07549304,-0.08432859,-0.28030670,-0.06620008,-0.04051858,-0.08276932,-0.06573423,-0.04118640,-0.39243135,-0.10950202,-0.11211188,-0.14150180,-0.09869826,-0.12203342,-0.18623650,-0.02976570,-0.42647892,-0.15122764,-0.06029156,-0.12699942,-0.08255088,-0.18339114,0.03897461,-0.38410902,-0.19768602,
-0.45498830,-0.01644067,-0.65877521,-0.17100799,0.04866994,-0.06145093,0.18089968,-0.05727380,-0.30564275,0.07675964,-0.32776657,-0.67568004,-0.18550205,-0.83080560,0.19714394,0.18155773,0.11234843,0.34124464,-0.15201731,0.11685719,-0.76843965,-0.18002781,0.27463484,0.08272937,0.14839034,-1.60492480,-1.21282947,-0.87073123,
-0.16378938,-0.06861447,0.13055147,0.02339939,-0.00813407,-0.39247626,-0.31949705,0.03546702,0.06862734,-0.14338714,-0.27016443,-0.40427524,0.03161173,0.15334484,0.09880877,-0.35400766,0.02262941,-0.01793506,-0.32817191,-0.32006532,-0.36933306,0.01691122,0.22333920,0.09044998,-0.82117617,-0.60883027,-0.16918948,1.04715931,
0.11555393,0.22639278,0.27006790,0.14359172,0.18280469,0.20284593,0.08961642,0.23130222,0.15160456,0.26537606,0.34458077,0.32210949,0.26458305,0.10663358,0.17488347,0.15550725,0.03364425,0.24667263,0.09592323,0.16090068,0.10787178,0.24880448,0.15485351,0.21573776,-1.40667892,-0.45739061,0.35557279,0.64072418,
-0.18649100,0.09768889,-0.00143908,0.02351349,0.14976405,0.20465992,0.21818489,0.21696097,0.18182132,0.19539127,0.19176310,0.19143504,0.20711997,0.24060394,0.16019163,0.15485138,0.24444486,0.19873475,0.14220546,0.18945105,0.20366696,0.02255631,0.22033803,0.15341398,0.11512905,-0.00733701,0.11954993,-5.90279818,
-0.17697765,-0.10095981,-0.37598264,-0.03033980,-0.10572281,-0.16182916,-0.57905257,-0.05885878,-0.18161295,-0.03909237,-0.29597309,-0.38307646,-0.02859929,-0.30780384,-0.31687060,-0.11539311,-0.10776730,-0.23583238,-0.17806983,-0.15380773,-0.32466725,-0.41448522,-0.07024071,-0.02806032,-0.03067535,0.03093527,-1.21941078,0.26855907,
0.04417841,-0.17982656,-0.22216985,0.42256641,0.27615765,0.28356367,0.27808249,0.11029369,0.07815333,-4.34779978,0.16306821,0.18947814,0.12433352,0.15364346,-3.36236286,0.20663619,0.10327826,0.09401646,0.09706255,-2.73645568,0.06751890,0.23588942,0.18453704,0.24346028,-1.25456071,-0.22369362,0.20315330,-0.64494735,
-1.64033997,-1.84276772,-1.63245106,-1.63389266,-1.78919113,-1.60764444,-1.48930132,0.01631109,-0.90486020,-1.89906454,0.20848601,-1.68711352,-1.23800552,-1.43307698,-1.95233130,-1.45450127,-1.62502885,-1.46779931,-2.12609863,0.04140338,-2.25522208,0.06777677,0.04177405,0.06244414,0.02833533,-0.02234501,0.05416872,-0.16326274,
-0.08447184,-0.07861511,-0.06786716,0.12181056,0.01280235,0.09305958,0.05110851,0.16669615,0.09949722,-0.22273679,-0.07895980,-0.43994480,0.11921364,-0.51083273,0.11039530,0.00981526,-0.31045651,-0.17833251,0.07055461,-0.48269203,0.14836513,0.14726672,0.07669246,-0.24672113,-0.42148203,-0.13524993,-1.12435901,1.03574824,
0.04187421,-0.15554246,-0.45973372,-0.35596853,0.21842746,-0.17843151,-0.35476834,-0.14470942,-0.40631250,-0.15133129,0.12750615,-0.10601465,-0.44446361,-0.29245913,0.22203058,0.13994944,-0.17965803,-1.67783713,-0.23511243,-0.26439959,-0.74446297,0.18737015,-1.03306401,-0.27910429,-2.05218101,-0.16558094,0.14106585,-0.46730790,
-0.03830014,0.06141986,0.09244409,0.38321915,0.37701806,-0.51909739,-0.62398010,-0.06040555,0.24067323,0.25104034,0.07776229,0.24745025,0.44363374,0.22676410,0.18613958,0.09025100,0.30001089,0.28675091,0.10229993,0.13729285,0.22832440,0.28787342,-0.06352489,0.05529428,-0.10611700,-2.35898304,0.28584933,-2.51868320,
-1.69649601,-1.51409101,-1.92481220,-1.61818123,-1.76914465,-1.51249957,-1.81551814,-2.26206756,-1.55630815,-2.02024508,-1.69341493,-2.02469254,-1.96305108,-1.70856130,-2.40098691,-1.65324759,-1.70158064,-2.13940215,-2.09327674,-1.49762595,-1.16159046,-1.52516973,-1.03334296,-0.11622769,-0.06811156,0.18954031,-0.04310354,0.38527429,
-1.95012522,-2.30118608,-2.36181641,-2.16385627,-2.55890870,-2.24155664,-2.15438509,-1.96096623,-2.36075759,-2.77445626,-3.15944695,-2.71765327,-2.36760259,0.04921060,0.10270941,0.01329634,0.06856120,-0.35085788,0.08313724,0.08411568,0.08019846,0.08217593,0.08333866,-0.02436565,-1.87657464,-0.08080694,0.09489827,-0.28744638,
-0.05784398,-0.16817564,-0.05658544,-0.34373796,-0.57975394,-0.03806157,0.09042577,-0.33635902,-0.12693627,-0.62723529,-0.16411208,0.08906958,-0.59200710,-0.04709375,-0.00379270,-0.73404837,-0.46613228,-0.16483051,-0.01000069,-0.30275932,-0.31689811,-0.71894914,-0.33229962,-0.87218481,-0.18317774,0.08707856,-0.58650607,1.93242395,
-0.00634339,-0.21297969,-0.04770136,-0.00172020,-0.46025190,-0.61840701,-0.31190804,-0.00978944,-0.10048412,-0.11152679,-0.48430771,-0.17752895,0.00346146,-0.00900004,-0.06809668,-0.01173702,-0.02217381,-0.21437879,-0.02835272,-0.25252062,-0.00767837,-0.08082057,-0.00932724,-0.05836263,-0.12216542,-0.08485186,-0.07950978,0.13515981,
-0.21065983,-0.58958656,-0.18445832,-0.01604164,0.01143949,-0.35188347,-0.37852898,-0.34416026,-0.40952563,-0.01497440,-0.04860832,-0.39515173,-0.34021142,-0.36455008,-0.28458518,-0.51931155,-0.17632070,-0.29563653,-0.26043850,-0.22770172,0.00297088,-0.40953001,-0.37835938,-0.44838843,-0.06899973,-0.49701726,-0.89120173,-0.38903517,
0.03278457,0.20895338,0.08412033,0.16181479,0.10655000,0.17758057,0.35268378,0.20102687,0.35235098,0.41492319,0.26673859,0.39200318,0.28090519,0.25113076,0.07456379,0.30658305,0.43404707,0.31383029,0.19644229,0.26913288,0.27046236,0.30337942,0.28942266,0.30120721,-1.46468210,-0.38399735,0.33096966,-1.92955959,
-0.06445117,-0.03135632,-0.03997168,-0.22827977,-0.06635062,-0.05411056,-0.58060026,-0.16551167,-0.22593190,-0.52981681,-0.27672896,-0.24532087,-0.31315318,-0.17871141,-0.51023650,-0.12603053,-0.20373733,-0.27808520,0.00175752,-0.27294159,-0.28527048,-0.24583910,-0.40692985,-0.30168867,-0.28345025,0.62649447,-1.01860797,0.95880574,
0.07870394,-0.16838281,-0.01861205,-0.06410392,0.14919488,0.09542942,-0.20582175,0.16270481,0.17599218,0.24431835,-0.06350085,0.23086362,0.22845666,0.12734854,0.26470935,0.23293230,0.31690434,0.16557814,0.35605192,0.30085200,0.10300110,0.35185400,0.27684242,0.24650012,0.39684039,-0.32925856,0.12214169,-0.86836177,
-0.03719566,-0.57616401,-0.39865065,-0.46013328,-0.13622166,-0.77435178,-1.33921075,-0.68775916,-1.04711890,-0.80601823,-0.71790898,0.34278208,0.16912617,-0.35230777,-0.44157246,0.06065489,-0.09265995,-0.39634636,-0.87345433,0.23284906,0.16504738,-0.34086573,0.06072307,-1.61854708,-0.96404582,-0.95573843,0.20371625,0.65726811,
-2.42209721,-3.35463929,-2.27597070,-3.16294026,-3.13472247,-2.20362616,-0.19406277,-0.40972298,0.08113918,0.20852871,0.10227066,0.09610203,-3.58680773,0.03221712,-0.10548712,0.03946831,0.04970967,-0.02710318,0.08728521,0.06766404,0.04676176,0.09491179,0.09848104,-0.05869073,-4.16793203,-0.00565733,0.08640402,0.00226548,
-0.20753683,-0.27513465,-0.23379980,-0.19135073,-0.18753955,-1.08318293,-0.12583452,-0.02185162,0.02382224,-0.58663058,-0.25264761,-0.83460552,-1.07933497,-0.05756679,0.06852005,-0.04867143,-0.12974624,-0.02134843,0.16914658,-0.03364029,-0.12423561,0.05783895,-0.05054562,-0.17749286,-1.12036145,0.35347915,-0.12770113,0.54321390,
-0.61327875,-0.76811832,-0.98452091,-0.36809775,-0.55779862,-0.36913431,-0.94474971,-0.86362851,-0.37259647,-0.02886765,-0.51495624,-0.07554546,-0.56713778,-0.13975760,0.11121686,0.25423425,-0.01050866,0.40370259,-0.14725748,0.36769706,0.00360111,-0.24086870,-0.72923428,-0.23236701,-3.10221910,-0.35981813,-0.59107995,0.35015839,
-1.13381696,0.02870174,-2.31141686,0.10485926,0.18527675,0.06608590,0.11787194,0.12258980,0.14463265,-0.05939880,0.20530534,0.35751000,0.32565600,0.37800938,0.07145162,0.36503473,0.24110641,0.25626782,0.18932401,0.21222857,0.04964612,0.11012287,0.26842412,0.38720053,-0.61315125,-0.91680115,0.34268209,-1.39514649,
-0.30092946,-0.20653239,-0.17755845,0.11413522,0.10883540,0.00624688,0.28483477,-0.06978886,-0.04232034,0.14934409,-0.68398994,-0.19199568,0.15435188,0.25530556,0.10779030,-0.18184172,-0.52824861,0.14824983,-0.73443002,-0.29662934,0.30111751,0.48360226,0.01643975,0.36458862,-0.39765945,-0.84232938,0.22325186,-0.77703869,
-0.35666689,-0.45266265,-0.08787567,-0.09953848,-0.13191833,-0.03429372,-0.01665685,-0.02600051,-0.10379530,-0.13801804,-0.06385753,0.00762120,-0.03418537,-0.05596932,-0.07251096,-0.10291027,-0.09803683,-0.00046946,-0.20193769,-0.22391161,-0.08041611,-0.23023356,-0.30800301,-0.16656256,-1.11265171,-0.00389675,-1.10961330,-0.00847929,
-0.57044035,-0.45075679,-0.04259647,0.02693393,-0.59428817,-0.11004567,0.00848723,-0.07571661,-0.14148824,-0.04123713,-0.00260995,0.02421921,-0.17501271,-0.01332413,-0.17101495,-0.09000921,-0.24526007,-0.17167254,-0.23134506,-0.23618214,-0.34889305,-0.62549412,-0.55028051,-0.20944530,-0.25616315,-1.00082517,-0.39119121,-1.02800000,
0.05901708,0.09829333,0.15500696,0.12485354,0.20979673,-0.18855141,-0.30257770,-2.18867421,0.01549521,-1.42605615,0.06979556,-0.65575004,0.49702245,-1.21535766,0.29422504,0.39550099,-0.37431762,0.16228911,0.48517153,0.31824490,0.28733507,0.33349809,0.14630151,0.24404418,-0.34132367,-1.36049747,0.21354614,-1.61431944,
-1.89589894,-2.14411879,-2.07359076,-2.44185376,-2.81198573,-2.50946069,-3.72615170,-2.88274693,-4.19345474,-3.71298289,-3.06949854,-3.89920187,-1.55303752,-2.98422194,-1.81120431,0.13205661,-2.02559185,0.21435095,-0.35043827,0.19558059,0.23416308,0.20022988,0.08613511,0.21152970,-0.26964960,-0.33025363,0.19055171,-0.61550176,
-0.31162167,-0.42946234,0.02514164,-0.34085068,-0.34003693,-0.54945379,-0.91981173,-0.88983059,-0.41857919,-0.02336541,-0.66815251,-0.68727744,0.00849255,-0.15520103,0.01770276,0.00240780,0.02414443,-0.01167104,-0.31789801,-0.21073264,0.01050516,-0.25426498,-0.01573244,-0.10396231,-0.56592232,-2.14258790,-0.22324201,-1.17474484,
-0.56775630,-0.43005386,-0.47518241,0.03557190,-0.64880115,-0.05286343,-0.14491904,-0.24167974,0.03179088,-0.31267747,-0.20565113,-0.53986931,-0.17687154,-0.46069613,-0.18372101,0.01213445,-0.23284811,-0.35111284,-0.25212529,-0.12074901,-0.42429340,-0.25868234,-0.04570073,-0.52618897,-0.32352453,-0.68485302,-0.31866506,-1.00654149,
0.01324266,-0.16790269,-0.13534102,-0.28508076,-0.06270736,-0.00879061,-0.10208533,-0.32449839,-0.25549591,0.18839476,0.23901807,0.12453314,-0.33469582,-0.70312423,-0.16230072,-0.15403366,-0.24850576,-0.25145927,0.03015804,-0.02849919,0.04594500,-0.10429626,-0.21967615,-0.12448983,0.23398791,0.20409319,-0.17137524,-2.46132946,
-0.51928824,-0.51620144,-0.07191607,-0.13842307,-0.25743115,0.04401970,-0.26176029,-0.17653038,0.08357304,-0.06691825,-0.51484448,-0.00073474,-0.48827440,-0.77430171,-0.25846329,-0.49578369,-0.65447426,-0.65673023,-0.47514960,0.00390671,-0.92366624,-0.52347100,-0.15880188,-0.00475546,-0.46155143,-1.18533599,-0.10678186,-1.42718494,
-0.91452253,-0.11599725,-0.48825836,0.18446617,0.20211293,0.56147194,0.23185761,0.24125817,0.28583941,-0.15517882,0.29094836,0.18559571,0.29992348,0.31693503,0.04007539,0.05827316,0.50366008,0.34920055,0.23856243,0.10501516,0.24447298,0.54640722,0.27218008,0.26376215,-0.90113276,-1.34856999,0.17943224,-1.86662495,
-0.22765622,0.08166734,0.18721029,0.05239670,0.12921505,0.13905025,0.01566004,-0.26188290,-0.01930200,-0.03199692,0.01023302,0.07422321,0.08994339,-0.02272270,0.15766861,0.09603542,-0.05361110,0.10008863,0.02207905,0.01522688,-0.06167698,0.02098577,0.01455719,-0.02665315,-4.29179144,0.11996863,0.12802258,0.53159428,
-0.00064773,0.03275986,-0.03126584,-0.28371027,0.08316449,0.13310355,-0.04628657,-0.06480967,0.03493262,-0.00468221,0.04937769,-0.04960732,-0.03523227,0.17835134,-0.05342896,0.27352899,-0.19365232,0.14450637,0.14975232,0.20869385,-0.04454486,-1.77723181,-1.58876312,-1.18517220,0.26306507,-0.35305527,0.21872842,-0.20130920,
-0.06264690,-0.03557240,-0.17944390,0.01269956,-0.17131446,-0.16163810,-0.30428934,-0.22362982,-0.02626710,-0.12760039,-0.25220913,-0.26734287,-0.09892822,-0.15087442,0.01034001,-0.23512441,-0.40867671,0.00147259,-0.03045085,-0.05067530,-0.49364728,-0.42051589,0.00034247,-0.09531899,-0.17353514,-0.12565902,-0.22358893,-0.32525501,
-0.42897689,-0.05293258,-0.28053203,-0.11093599,0.00297413,-0.01433120,-0.30920565,-0.19287433,-0.36844712,0.00296100,-0.57147157,-0.03551220,-0.03767228,-0.40148100,-0.01690174,-0.00941826,-0.16600734,-0.25800762,-0.07249460,-0.35903478,-0.16829681,-0.38635498,-0.12722887,-0.53482419,-0.04907306,-0.08012101,-0.43406650,0.02093227,
0.38658649,0.52616364,0.30397752,0.20942445,0.06270791,0.13477488,0.23612167,0.19817257,0.11012629,0.17677456,0.22844614,0.04330302,0.15336512,0.12176333,0.10318625,0.20847760,0.22725539,0.06818976,0.17894201,-0.08768966,0.12146366,0.13296089,0.10302857,0.06269110,-1.19300711,-0.35711986,0.23372969,-0.65646231,
0.04804435,-0.24794193,0.24584940,0.29426381,0.10284530,0.11938669,0.12431610,0.09831935,-0.11272963,-0.03709966,0.21015966,-0.15488352,-0.36454892,0.01372794,0.08849416,0.11491910,0.21830149,0.14410865,0.09404553,0.07551832,0.11076456,0.21539827,0.11632599,0.10259469,0.11658955,-3.14283967,0.17781599,-2.79987168,
-0.03641007,-0.28876933,-0.30884358,-0.07437459,-0.40895236,-0.39964390,-0.32217756,-0.68199551,-0.38657367,-0.27890405,-0.51258421,-0.22441864,-0.03317457,-0.62645674,-0.53115016,-0.15253003,-0.02547337,-0.03616605,-0.28912452,-0.03489126,-0.08120144,-0.40478557,-0.12401156,0.00655607,-0.09189133,-0.24231973,-0.76203668,-0.22909726,
0.01643427,0.03598493,-0.04880228,0.02210999,-0.08017730,-0.42079103,-0.34464315,-1.07746005,-1.07613337,-0.45417932,-1.82721019,-0.18112059,-0.87410164,-0.83733267,-0.79645902,-0.30172831,-0.23332192,-1.73605669,-0.80217683,-0.39844435,-0.08515936,-0.28486413,0.02866110,0.24834493,-0.87459904,-1.51546085,-0.28954616,-1.03078592,
0.26075891,0.15734397,-0.07615528,0.34278676,0.33238843,0.07592875,0.23912700,0.27944154,0.43415612,0.05717892,-1.25237525,0.18961307,0.32330486,0.44666889,0.33299118,0.37519044,0.22882210,0.36629644,-0.71034962,0.03064544,0.15065891,0.48358795,0.43976748,0.23265377,-1.19899690,-0.54051733,0.32903916,0.56730473,
-1.72845936,-1.82941318,-2.20360994,-1.21733510,-1.72283661,-1.16889822,-2.02851844,-1.47730017,-2.23367333,-2.76616979,-3.30185747,-3.86222053,-2.61960125,-4.36728907,-3.30401921,0.02897071,-0.06938812,-0.03123774,0.03040024,-0.02993311,-0.02400675,-0.04201309,-0.13016199,-0.03272279,-3.58660698,0.33159351,-0.01049541,0.60231107,
0.13297105,0.25694454,0.25024542,0.35294491,0.28813896,0.30683634,0.15800472,0.13663119,0.25263321,0.24871460,0.21430869,0.19013700,0.19607674,0.25054672,0.25474447,0.21817078,0.21448340,0.19977219,0.20854418,0.21802689,0.20071039,0.23900945,0.15942478,0.35242152,0.16606855,-0.27235237,0.27469924,-2.16829777,
0.04264593,-0.11007239,-0.20363156,-0.36861244,-0.35581255,-0.25250939,-0.71810311,-1.09745467,-1.33040738,-0.10153547,-0.80225641,-1.19789302,-0.61553770,-2.10696220,-3.89639282,-4.15019846,-4.28035164,-5.08439684,-5.48207426,-3.74417043,-2.48041773,0.36922956,0.33280522,0.33669055,-0.86915952,-0.51415354,0.35062188,-0.57861668,
-0.27804959,-0.50131190,-0.55823922,-0.04158016,-0.27569595,-0.22432894,-0.45671299,-0.39930645,-0.40654033,-0.02808623,-0.63855541,-0.51005173,-0.79686016,0.02376839,-0.43284485,-0.37852305,-0.03424795,-0.16542576,-0.10604136,-0.41743606,-0.72515154,-0.17072119,-0.22628714,0.02001850,-0.46997705,0.32226270,-0.14728543,1.03737855,
-0.01749773,0.00773490,0.00120878,-0.06577218,-0.24627605,0.01298221,-0.27521235,-0.29543969,-0.40419540,-0.13098393,0.00200746,-0.45438734,-0.19517633,-0.36120185,-0.06056020,-0.17685996,-0.19176489,-0.21774814,-0.08847511,-0.39801574,-0.06568351,-0.05330459,-0.52901393,-0.26999751,-0.22220638,-0.17768273,-0.06771916,-0.09678841,
0.27305770,0.13019010,0.32647198,0.23686428,0.26751906,0.09129695,0.16270986,0.30147681,0.20917580,0.14550042,0.25176707,0.28939667,0.18122490,0.29003221,0.27531415,0.29701188,0.36823955,0.25360328,0.31321058,0.48801270,0.45750386,0.33177444,0.29561841,0.20692672,-1.84885919,-0.37914172,0.31121901,-1.47954428,
-0.09994958,-0.11644498,0.11893494,-0.14863749,0.08663828,0.20130010,-0.15678872,-0.27329957,-0.16795772,-0.06148802,0.08281644,-0.00764557,-0.15004434,0.06772003,-0.08885147,0.11908221,-0.13998617,0.09888073,-0.17315127,0.12114097,0.28447616,0.00337967,0.24329390,0.24056065,-1.02396667,-0.38388667,0.28824478,-1.43058002,
-0.02214509,-0.00232323,-0.41056189,-0.27652594,-0.06105090,-0.33457977,-0.06077721,-0.26346791,-0.02866275,-0.06864844,-0.47896945,-0.48130292,-0.20455350,-0.45878246,-0.10919749,-0.03992388,-0.03147806,-0.02165233,-0.00331685,-0.02747056,-0.42614585,-0.36579263,-0.01205353,-0.06808666,-0.68933898,-0.13398676,-0.07379781,0.20365842,
0.32860196,-1.31551206,-1.30472672,-0.53225166,-0.42630166,0.05660755,-0.84578103,-0.37462765,-1.90744591,-0.45871279,0.03792775,-1.20477164,-0.67185128,0.33179691,-2.39010596,-1.60795724,-0.37767974,0.38907087,-1.54284835,0.37598887,0.38901079,-0.58602697,-0.18965058,-1.36720693,-1.56894803,-0.37806085,0.24889128,-0.84781009,
-0.07283843,-0.03327222,-0.03849207,-0.04808710,-0.35419679,-0.14721118,-0.04872128,-0.08532112,-0.16473155,-0.08451421,-0.20894754,-0.06623746,-0.11503146,-0.09765589,-0.07566423,-0.09280586,-0.19023447,-0.06356855,-0.14434917,-0.06116901,-0.05323436,-0.43321982,-0.17748722,-0.06953701,-0.15847975,0.06348758,-0.14262307,0.05123236,
-0.78217191,-1.07658529,-0.68221366,-0.15020181,-1.17071235,-0.64021397,0.06713406,0.02165921,0.00075484,-0.14792567,-0.31696042,-0.17915174,-0.71529043,0.19928105,-0.47165427,0.25416923,-0.00281627,-0.43571123,-0.13298747,-0.15101528,-0.35890216,0.00995627,-0.49930567,-0.46106523,-0.52936876,-1.10839355,-0.84419429,-1.48207867,
0.10953343,0.34231454,0.33106387,0.24265859,-0.27202305,-0.08631095,-0.48580188,-0.33780795,-0.74597520,-0.79133296,-0.64653558,-0.80538523,-1.17749655,-1.89629018,-0.16313557,-1.65723205,0.12894601,0.21061249,-0.46142673,-0.78911883,-1.34650505,-0.06049195,0.23826188,0.27491570,-0.48035845,-0.65049297,0.19987631,-0.92855030,
-2.38654852,-2.23980451,0.03881658,0.07449502,0.18313076,0.26558453,0.42455915,0.24313609,0.21613997,-0.16233885,0.20837145,0.11409060,0.32490307,0.28970784,0.28334770,0.29578677,0.13927236,0.15234351,0.32330632,0.27082860,0.16513377,0.15632656,0.24732177,0.22821769,-0.31040266,-1.45083869,0.23081093,-1.78913271,
-0.29741061,-1.51036012,-0.26446036,0.04381675,0.00053636,-0.14565924,0.04892880,-0.50000948,-0.08770084,-0.56813568,-0.55770254,-1.24140334,-0.65985906,-0.58395231,-0.57824069,0.00471773,0.35438910,-0.23932338,-0.27054870,-0.46360663,-0.25905940,-0.32099652,0.41787115,-0.81846023,0.17810379,-0.65568107,-1.02200902,-1.28263271,
0.30285004,-0.25700706,-0.23694819,0.08590658,0.14835656,0.22602057,0.18518747,0.31722566,0.32937279,0.52189410,0.11769181,0.00686435,0.24815114,0.19409187,0.24298850,0.31230944,0.22237900,0.32219037,0.29977715,0.23305869,0.27627599,0.16225556,0.32295105,0.02349714,0.14937955,-1.22307515,0.27289173,-1.39365387,
-0.02466702,-0.23393667,-0.07294726,0.08020217,-0.42121032,-0.12380718,0.21696469,-0.21982192,-0.09812108,-0.50964779,-0.06781542,-0.60421360,-0.12720113,-1.48154426,-0.58032066,-0.73016262,-0.68449712,-0.06475099,-0.49832162,-0.06198888,-0.67767781,-0.61681831,-0.02091761,-0.73429108,-0.75158167,-1.85363185,-0.79413277,-0.82928336,
-2.03200436,-1.79174078,-2.01052761,-2.16622257,-1.71750855,-1.40724099,-1.93860424,-2.37741542,-2.48419762,-1.87426233,-2.11149883,-1.95733821,-2.38524175,-3.23270226,-2.71433425,-2.53176951,-1.78811979,-2.08997917,-0.49193433,-0.11557525,-0.00120112,0.04223453,0.07267156,0.08678467,-0.93394208,0.05499105,0.04908223,0.35616490,
-0.30954781,-0.08988044,-0.12070403,-0.13798729,-0.01955809,-0.04580064,-0.61590469,-0.11978067,-0.01404961,-0.04155368,-0.12109402,-0.31501997,-0.04945496,-0.18757826,-0.11851335,-0.25043434,-0.14903609,-0.24539022,-0.50486517,-0.23123141,-0.11963584,-0.06982332,-0.52292949,-0.01024234,0.01275548,-0.07293907,-0.49900094,0.30545151,
-0.08657336,-0.28487527,-0.64186472,-1.49986863,-1.93341458,-3.99229360,-3.77266097,-5.02731085,-5.15275812,-4.15077877,-5.43777609,-4.51961327,-3.39651442,-3.40058756,-2.68308687,-1.95424235,0.13574636,0.22244379,0.21263881,0.28829858,0.27785543,0.33305699,0.25664374,0.28320858,-0.54568571,-0.44640228,0.25269496,-0.48162672,
-0.09956651,0.07206605,-0.10955676,-0.18018036,-0.12055695,-0.82873929,-1.31780243,-1.29298389,-2.29347396,0.08339647,-0.58005661,-1.93746269,-1.55063272,-0.88098407,-0.25197241,0.16610451,-1.15028977,0.31246829,0.38947222,0.40810040,0.38946557,0.39228681,0.35389993,0.34253237,-0.38176766,-0.80493736,0.37490568,-0.88303816,
-0.11770889,0.05860662,0.36546272,0.22513245,0.34466836,0.03096193,-0.01562083,0.11726244,0.23894344,0.22710690,-0.17738537,-0.32431418,-0.14559764,-0.97006291,-0.50840718,0.07584154,0.01492019,-0.95753819,0.07064179,-0.19791092,-0.30343977,0.23507446,-0.13824345,-0.07953339,-0.30704796,-1.86216283,0.12577872,-1.72664368,
0.05363199,-0.21646968,0.20136324,0.17469659,0.19531465,-0.46037668,-0.03472475,0.20413335,0.05198996,-0.14399463,0.15977715,-0.24231218,-0.51435584,0.19243523,-0.20640291,-0.08068261,0.30122697,0.13808188,0.06189650,-0.48939544,-0.00362051,0.18843172,0.29472244,0.06399386,-0.17847556,-0.40405780,0.28697547,-1.18213451,
-4.98625326,-5.67905283,-5.61350679,-4.83575583,-3.89595246,-4.11511374,-3.78710294,-3.03444481,-2.64745593,0.13131884,0.19332099,0.24081321,0.22907118,0.25357762,0.29862693,0.28115806,0.25321656,0.18058445,0.23401527,0.25707904,0.17302433,0.20795333,0.22776774,0.23734473,0.00504227,-0.63264489,0.23469438,-0.71447647,
-0.12977952,-0.05391775,0.38385513,0.25544509,0.32863683,0.17782627,0.14138967,0.04661441,-0.18035851,0.08470037,0.32022694,-0.37283322,0.41992956,0.19564049,0.26163664,0.27194157,0.16438344,-0.21735078,-0.09103240,0.20587391,-0.34841430,0.24348339,0.05869484,-0.03771854,0.03080396,-1.88261962,0.22950026,-2.06580806,
-0.37439179,-0.11441437,0.10907714,-0.13221677,-0.45131722,0.15199013,-0.21331285,0.13815632,-0.55160475,-0.19032131,-0.13158512,-0.98180199,-0.60110128,0.19934110,-0.71822357,-0.05942592,0.01708240,0.16179650,0.11847616,0.08148002,0.12840636,0.09898722,0.07094478,0.12964047,-0.26902145,-1.91277015,-0.09315754,-1.60864913,
0.24585254,0.13786905,0.24110071,0.26613507,0.42172974,0.28870302,0.29258245,0.35759816,0.34185845,0.34565818,0.36732566,0.37030458,0.30902001,0.38972124,0.40886667,0.39707187,0.32922533,0.29628929,0.32178766,0.22728069,0.45092866,0.26619929,0.25003749,0.22691374,0.21592771,-0.34999052,0.25704494,-0.99086970,
-0.82307339,-0.99166542,-1.27738190,-1.42564082,-0.99618834,-0.83496654,-1.65231383,-0.85867500,-1.34674859,-1.34016144,-0.98826844,-1.22466218,-1.05892146,-0.95800412,-0.83830905,-1.03330755,-0.83553612,-0.38222063,-0.22741978,-0.28052428,-0.21646206,-0.21925358,-0.09894852,0.22642009,-0.03775121,0.25748226,-0.33242384,0.59185481,
-0.14356346,-0.53628671,-0.08294145,-0.08439603,-0.10047493,-0.10544579,-0.26245341,-0.03762344,-0.00723612,-0.21146363,-0.16291846,-0.16545640,-0.10327159,-0.00047036,-0.50782710,-0.15766557,-0.22099027,-0.39055064,-0.12273280,-0.01174995,-0.02509475,-0.25964630,-0.03115833,-0.05319760,-0.06706549,0.01607600,-0.24519517,0.10223969,
-2.42491388,-2.51109815,-2.86971259,-1.24668252,0.17311849,-0.14940761,0.15965153,0.19142260,0.23731650,0.17723626,0.38558355,0.17450787,0.31119409,0.25767362,0.27725682,0.34837380,0.31081736,0.37217706,-0.09505082,0.24698690,0.03135734,0.21228246,-0.05597026,-0.42517459,-0.09679689,-1.15094209,0.17928670,-1.53902256,
0.35305712,0.37844425,0.41179633,0.42516434,0.51827031,0.41358623,0.43155316,0.43957999,0.35453939,0.40339488,0.35879591,0.39801407,0.34181836,0.41761667,0.38898668,0.40765783,0.40322715,0.40478146,0.37452826,0.37078643,0.35796508,0.34383449,0.36790571,0.34180236,-0.32112509,-0.52859759,0.35763413,-1.67166615,
0.43242598,0.19235402,0.29289412,-0.13813075,0.40037170,0.29895028,0.26112059,0.33201885,0.34345910,0.30173746,0.21816328,0.37196290,0.21410219,0.22171828,0.42881823,0.37229267,0.34386322,0.43814945,0.35556686,0.29238147,0.22426310,0.32602140,0.32742292,0.49133110,-1.84840906,-0.46272394,0.28684765,0.86874539,
-1.41596973,-1.81089365,-2.09672713,-2.06609917,-2.09069347,-1.71745574,-3.34325957,-2.68863916,-3.26044536,-2.33721566,-2.83889985,-2.65999937,-2.45467114,-3.66633868,-3.82527447,-1.92792642,-2.73042250,-3.38726211,-4.17283154,-3.55359554,-3.02750897,-1.32553244,-0.09825880,0.16806844,0.21392795,-0.26490659,0.23925868,-0.82288194,
-0.18847769,-0.30450320,-0.32858771,0.00985113,-0.21116911,-0.14984776,-0.20030035,-0.03115364,-0.19069436,-0.18474685,-0.22020444,-0.19139209,-0.14773639,-0.25050586,-0.07655000,-0.22443844,-0.28576958,0.01656054,-0.05054795,-0.23684815,-0.52533841,-0.07112961,-0.02970706,-0.25685236,0.04008626,-0.80570966,-0.49376604,-0.06779876,
-0.05340203,-0.84912127,-0.28968441,-0.18996814,-0.05865701,0.14429356,-1.13790441,0.26933721,0.07760534,0.09054057,-0.09236504,0.03278601,-0.01558714,0.07700336,-0.06095386,0.04588690,0.10030470,0.19282337,0.11099729,-0.02227254,0.20993906,-1.72510314,-1.12873220,0.01128409,-3.47600031,0.28273639,0.02202737,0.21243019,
-0.41198292,-0.24781589,-0.05267603,-0.07637057,-0.29504016,-0.50204766,-0.05116557,-0.03083934,-1.08632112,-0.59126312,-0.88710940,-0.53285968,-0.25624830,-0.12564562,-1.20741832,-0.27189636,-0.27343291,0.10963997,-1.13000846,-0.83742940,-1.00444579,-0.73294163,-0.77193213,-0.85723788,-0.08003169,-0.67749047,-0.10420043,-1.22103715,
0.17880236,0.01599097,0.17986289,0.34477240,0.24749818,-0.17103447,0.29141805,0.12984022,0.29670808,0.13634916,0.23664325,0.03196022,0.27390692,0.10651766,0.19319879,0.02231098,0.24231163,0.14076604,-0.12881799,0.36972693,0.48764789,-0.44342712,0.10057591,0.19807136,0.06409742,-2.21219659,0.16726469,-1.65083051,
0.05326872,-0.24154936,0.01054962,-0.20328081,-0.37424898,-0.06697805,-0.33437654,-0.65645182,-0.30114582,-1.40862191,-0.00225295,-1.35823262,-0.44215384,-0.53295612,-0.63572168,-0.62318993,-0.23064810,-0.46308076,-0.08480243,-0.16666202,-0.42682427,-0.51649326,-0.34372041,-0.22191548,0.12065630,0.25323424,-0.03721768,-2.94508314,
-0.95758563,-0.95194632,-0.97137779,-1.12444830,-1.07513714,-0.87017643,-1.04485011,-0.88514256,-2.15245008,-1.77969444,-2.05671287,-2.75910115,-3.02452230,-3.77424431,-3.71235871,-4.67565012,-4.65282345,-0.08733893,-0.05686389,-0.09168589,-0.14204714,-0.06729142,-0.10918889,-0.12181880,-2.09902382,0.38469076,-0.07058792,0.54238087,
0.02129644,-0.04360403,0.01326725,-0.01808589,-0.05571111,-0.12354232,-0.04127520,-0.11811654,-0.62905794,-0.20670722,-1.15333021,-1.10756660,-0.84881055,-1.54756546,-0.64415318,-0.76060981,-0.98592687,-0.49085253,-0.69206619,-0.46407467,-0.60133493,-0.66780740,-0.54961485,-0.70924759,-0.76562124,-1.19013202,-0.11169233,-0.49670750,
-1.13381159,-2.60473204,-1.91970551,-2.73685384,-3.33847690,-4.04159784,-3.39003944,-0.18483798,0.08970688,-0.03028365,0.18863761,0.06464257,0.12858473,-2.58566904,0.21156542,0.22755590,0.23575549,-0.22235519,0.15002522,0.33468375,0.35576487,0.43980801,0.40655532,0.46441498,-1.39968121,-0.55265778,0.30455613,-0.78717244,
-0.16684730,-0.38340396,-0.28077748,-0.33425844,-0.00354986,-0.01480957,-0.16362761,-0.30498812,-0.66302937,-0.07901712,-0.00414099,-0.18273129,-0.38511741,-0.32361829,-0.04279708,0.00604724,-0.22756493,-0.00806786,-0.09116601,-0.27501720,-0.29420516,-0.17356840,-0.81018806,-0.23863722,-0.19858673,-0.14839861,-0.53465414,-0.13669498,
-0.02034187,-0.60617691,-0.11503345,-0.09062873,-0.25726691,-0.13292202,-0.10088016,-0.19120128,-0.26361641,-0.17729233,-0.06654843,-0.44038469,-0.35554022,0.07387259,-0.37334138,-0.10082164,-0.14937992,0.06902651,-0.54193622,-0.42079476,-0.37937036,-0.43732521,-0.24320960,-0.39075577,-0.22132027,0.70784968,-0.31028301,0.57569790,
-0.10139398,-1.00557220,-1.17200935,-0.72670841,-0.27026749,-0.35398889,-1.33880687,-0.65688610,-0.81227237,-0.01074088,0.21665147,-0.88647103,0.25924748,0.35711873,0.37172076,0.34533286,0.34195909,0.41250998,0.40204918,0.48737594,0.51390481,0.18261233,0.34910440,0.02195675,-0.71101242,-0.79418600,0.41661149,-1.01186609,
-0.14903408,0.13729675,0.08362764,-0.49380624,-1.03555596,-1.38198268,-0.41544238,-1.51127100,-0.44593573,-0.20291717,-0.48843801,-0.51987386,-0.18374538,-0.08606724,-0.16642231,0.06403371,-0.30759171,-0.03407601,0.43449214,-0.05989626,0.33141711,0.22765762,0.42681882,-0.97552836,0.35378695,-0.47542894,-1.34268951,-1.16005695,
0.17460877,0.07010679,-0.07725877,-0.20920877,-0.53129101,0.06035766,-0.00422392,0.04056550,-0.79431349,-0.78979313,-0.74972463,-1.96401572,-0.83471364,0.12457264,-3.99608278,-3.61388111,-3.81283498,-1.68152595,0.37617463,0.27355859,0.33340842,0.20847881,0.29394051,0.17730926,-1.67864037,-0.49017707,0.32420316,-0.28859353,
-0.93098253,0.10030578,-0.42876983,-0.65320504,-0.19721058,-0.45667055,-0.44684088,-0.12926617,-0.20004337,-0.18329963,-0.54772121,-0.14901192,-0.07087194,-0.14436224,-0.19872008,-0.07531022,-0.08922952,-0.26702130,-0.10149193,-0.14900976,-0.34298834,-0.08365667,-0.03406662,-0.20059781,-0.19724467,0.46475965,-0.48933509,0.35560393,
-0.22903442,-0.69199616,-0.09588292,-0.12577225,-0.21089928,-0.40490317,-0.30682188,-0.23305078,-0.03541724,-0.41832629,0.01526251,-0.45148179,-0.02821429,-0.17348598,-0.21517542,-0.18736352,-0.17901480,-0.14920977,-0.24914765,-0.52651781,-0.25981814,0.01205383,-0.07881151,-0.09371055,-0.19119234,-2.04300427,-0.55971324,-0.91164809,
-1.75383341,-0.62646806,-0.22219561,-0.06415112,0.21356614,-0.03910614,0.09961537,0.28828898,0.21047828,0.35502246,0.26185754,0.17824997,0.18949318,0.33216867,0.30896923,0.06333899,-0.02617456,-1.11268497,0.28426930,0.11807080,-1.87392604,0.15977989,-0.33180964,-0.31994477,0.29789099,-0.25318387,0.09449996,-1.00635064,
-0.03088703,-0.17907061,-0.81890488,-0.87050515,-1.49057484,-0.92687613,-0.63804990,-0.05020465,-0.54512548,-0.92915934,-0.27571443,-0.48950204,-1.01687646,0.28647521,-0.61119753,-0.15682437,0.01717982,-0.87775391,-1.62826526,-0.31439513,-0.00176189,-0.02526407,-0.07873670,0.29022625,0.24698013,-1.11204123,-0.84640479,-0.77711070,
-0.18988383,0.28462407,0.22346589,0.25616071,0.18030629,0.18021074,-0.81500047,-0.11253843,0.02108441,0.04636150,0.17613901,0.03461340,0.29308024,0.20223144,-0.08238737,-0.72459435,-0.01478329,0.19096912,-0.25898567,0.11548586,0.19008896,-0.82408029,0.33075052,-0.00356924,0.05335392,-2.32265139,0.22392391,-1.95608723,
-0.48630705,-0.48211035,0.04267366,-0.99515861,-1.14618635,-0.77847725,-0.17865212,-0.46256590,0.04710026,-0.20528959,-0.48268655,0.01864899,-0.07489260,-0.59520245,-0.72428977,-0.30378440,-0.75263810,-0.02486154,0.08591823,-0.59995973,0.25501201,0.11217016,-0.05862338,0.24638192,-0.96841246,-2.11112618,-0.32922101,-1.03432691,
0.08431166,-0.50186127,-0.23473547,-0.08603028,-0.05733351,0.20636015,-0.36874121,-1.16672814,0.07999143,-0.26390579,0.01182355,-1.32299078,0.03142956,-0.00920919,-0.19958614,0.00114624,-0.52799553,-0.47470185,-1.26522517,-0.24546908,-0.13698053,-0.19508159,-0.08286533,-0.10334553,0.07646443,0.10804705,0.00382640,-2.57191491,
0.06237328,0.03373910,-0.51698297,-0.13021962,-0.20775554,-0.29332677,-0.38521719,-0.41608164,-0.83385646,-0.32852975,-0.66686165,-0.38914022,-0.26859847,-0.38166663,-0.68469727,-0.20338686,-0.04809113,-0.90670013,-0.06893731,-0.12859094,-0.52374011,0.03271741,-1.00859511,-0.51618618,-0.30112159,0.46266383,-0.29868338,1.12648785,
-1.42737329,0.02960138,-0.73423123,-2.73885632,-2.62786603,0.14463116,0.27150217,0.19813372,0.09302103,0.03601141,-0.00597225,-0.02208442,0.03771628,0.00339125,0.03837137,0.06213331,0.07966923,-0.01417526,-0.04167180,0.04734845,-0.00964848,-0.01549537,0.12855406,0.04849409,-3.23843336,0.31264395,0.04398236,0.55262440,
-0.58527750,-1.02492130,0.08206218,0.12805301,-0.26273826,-0.00597756,-0.02116634,0.02081793,-0.10286961,-0.49563506,-0.46950704,-0.51999700,-0.05250588,0.00522600,-0.37185928,-0.30950552,-0.25790972,0.15561832,0.01522024,-0.31146526,-0.10714111,-0.75372803,-0.59697211,-0.16931157,0.35097679,-1.35037041,-0.68424815,-1.69808590,
-0.00703754,0.20478170,0.45929092,0.24424626,0.40625432,-0.14139210,0.31470764,0.44795862,0.27103937,0.39702463,0.39822578,0.28123376,0.30770397,0.36030266,0.31909090,0.35602194,0.27695283,0.36974642,0.25613868,0.37986392,0.23000957,0.23355317,0.22916943,0.29190221,-1.94028330,-0.43463477,0.25301039,0.36857745,
-1.05512345,-0.61354727,-0.78099513,-0.21104981,-0.58614659,0.20372547,-0.40953487,-0.26229703,0.01183891,-0.64263731,-1.05979288,-0.71264917,-0.60405076,-1.16369891,-1.24784219,0.33962485,0.32629424,0.28618667,0.40341288,0.17829722,0.28473049,0.03550568,0.07626664,0.21054254,-0.01831137,-0.68966478,0.36417890,-0.85475701,
0.17424412,0.02441123,-0.09707648,-0.08225785,-0.46013397,-0.41573772,-0.48880684,0.31687793,0.21847013,-0.26631150,0.06112346,0.07896949,0.30503774,-0.17987654,-0.54556996,0.13473429,0.23817796,-1.71641922,0.05030335,-0.21719426,-2.70047402,0.09102338,-0.67016053,0.22614238,-0.65022129,-0.48462409,0.27617955,-0.56147277,
-1.22815871,-0.71214354,-0.57394218,-0.54885948,-0.00377356,-0.05504586,-0.24624288,-0.04337681,-0.24008894,-0.58138168,-0.33515400,-0.08519687,-0.75788456,0.21056370,-0.42029777,-1.12693560,-0.15988721,-0.60249907,0.06127030,-0.85791123,-0.28268790,-0.05769172,-0.72643578,-0.73781639,-0.26670933,-0.29965729,-2.46003151,0.27848715,
0.02063464,-0.07373229,0.14468610,0.15161149,0.18341625,0.28823924,0.26780546,0.11454134,0.12371663,0.12409202,0.06400229,-0.44195250,-0.94715506,-3.31841946,-3.13406062,-5.76481009,-5.55738544,-5.10124159,-0.12392227,0.08367496,0.17557836,0.18294282,0.14495087,0.06214485,-2.89477205,-0.11147428,0.21921001,-0.53389144,
-0.98431510,-2.45239758,-2.43092513,-3.29804087,-2.30919909,-0.17211822,0.09820806,0.28589997,0.24953413,0.33606833,0.25743067,0.20609263,0.19922680,0.34826401,0.09776878,-3.30274749,0.15440440,0.15020406,0.23901418,0.24587005,0.18451697,0.21483758,0.24793582,0.14413968,-0.57695961,-0.79836178,0.20628333,-1.04918683,
-3.16652989,0.21419056,-0.97921115,0.06553443,0.14796758,0.16085698,0.08318187,-0.03521833,-0.11227407,-0.16677032,-0.17908117,0.00911713,0.12174474,0.05400143,-0.10466089,0.20502892,0.06505244,0.12058499,-0.09711704,-0.10947148,0.16608335,-0.17202465,-0.30657056,-0.41393277,0.16315825,-0.22500791,0.16535266,-0.52241683,
0.02756843,0.12909342,-0.08838870,-0.08158339,0.19007577,-0.00891433,0.19334418,0.08780687,-0.27712667,-0.15122609,-0.35881639,-2.07318544,-3.20689988,-2.22526693,-1.32677901,-0.78889829,0.28787255,0.23807350,0.36638576,0.24431987,0.33353212,0.03738578,0.18637121,-0.08324989,-0.02369788,-1.04850173,0.30530533,-1.10448313,
0.19815676,0.11296348,0.23657046,-0.00718357,-0.32228866,0.18587060,0.29977298,0.12174514,0.24244833,0.06399194,0.09725883,0.10449263,-0.01513751,-1.04558372,-0.96721518,-0.01822582,0.11044274,0.43151480,-0.76489937,-1.16218293,-0.36370721,0.09386376,0.08456608,-0.16434088,0.15523344,-1.93144977,0.13652673,-1.22519565,
0.55444008,0.24492316,0.02221734,0.36810052,0.30995390,0.36895409,0.36361736,0.23344645,0.33599696,0.32196310,0.36756229,0.34217852,0.36034140,0.33468127,0.24121697,0.33773550,0.48964512,0.29450056,0.61686677,0.44073230,0.31811529,0.30499217,0.44106972,0.34697378,-1.90518439,-0.54891390,0.38521200,0.59147483,
-0.04356534,-0.26853439,-0.32512245,-0.08720233,-0.04890804,-0.04151956,-0.47516847,-0.63168931,-0.34506917,0.00116200,-0.31983921,-0.43121427,-0.00379491,-0.58296221,-0.06325939,-0.07363699,-0.46747434,-0.02046201,-0.44382885,-0.03915866,0.00099221,-0.03121876,-0.01754175,-0.10667120,-0.45702279,-0.04545908,-0.10892218,-0.16193368,
0.00352082,-0.09967615,-0.23718821,0.01209424,-0.42957550,0.00734490,-0.14457689,-0.22101215,-0.31883779,0.00932537,-0.16885932,-0.49156374,-0.00768577,-0.15362829,-0.09893379,-0.31661168,-0.19730701,-0.30145019,-0.17421772,-0.10854261,-0.02038095,0.01130312,-0.23411259,-0.19514368,-0.26355544,-0.16559321,-0.42940113,-0.25116315,
-0.02431746,0.02719830,0.00594558,-0.87720191,-0.07136986,-0.44114423,-0.47956347,-0.14236966,-0.28159156,-0.82713258,-0.73519725,-0.37007475,-0.61489469,-0.44476214,-0.71008372,-0.12906981,-0.65513426,0.01906404,-0.39473575,-0.49189749,-0.26592687,-0.09376946,-0.04706075,-0.56684428,-0.22220834,-1.60695338,-0.63017321,-0.80359501,
-1.92527497,-1.79281437,-2.20879078,-2.59161496,-2.35648036,-1.78145754,-1.57527912,-2.44932604,-3.29942822,-0.98340863,-2.10989761,-2.31461358,-0.06383799,-1.73362029,0.01287586,-2.50129128,0.02600324,-1.95286787,-2.04906464,-2.78999209,0.04840118,-1.35033917,0.05706917,0.04586831,0.10495700,-0.01950054,0.08404132,-0.16602416,
-0.06734802,-0.20939192,-0.21511598,0.00523046,-0.77102339,-0.87067270,-1.48663104,-0.67332190,-0.19102962,-0.28815809,0.40356007,-0.14384499,-0.03132097,-0.30659384,0.29953113,0.35088354,-0.17573938,0.20743987,-0.03309006,-1.63999081,0.36433050,0.18782368,0.22975269,0.18494840,-1.68346369,-0.56923801,0.32993671,-0.05884141,
-1.31903458,-1.26908422,-0.12211041,0.00895914,0.19971356,0.33796772,0.18561374,0.22813420,0.14177406,0.37315267,0.06468651,0.06883565,0.20062052,0.24778840,0.30022243,-0.16284671,-0.03106603,-0.04544738,0.23258331,0.26173410,0.18591416,-0.44465154,-0.89313936,-0.45620450,-0.78494781,-1.34296811,0.18852851,-1.26821506,
0.08395958,0.21199100,0.33643523,0.24184072,0.15506010,-0.00448912,0.13352621,0.25541827,0.16270852,0.14729384,0.07441258,-0.15238076,-0.30798060,0.27321449,0.30125484,0.22016390,0.18225408,-0.19783476,-0.73717177,0.14368479,0.39222431,0.06407180,-0.14988714,0.28984025,-0.05113172,-1.18421173,0.28191993,-1.34903824,
-0.08024727,-0.01561387,-0.03130589,-0.07119989,-0.19241153,-0.42152157,-0.12848014,-0.12686364,-0.12049406,-0.05913132,-0.12928155,-0.10573094,-0.05714087,-0.09039477,-0.34195840,-0.49349481,-0.14462084,-0.02181251,-0.21735352,-0.31832707,-0.03986778,-0.17496850,-0.03645851,-0.08619615,-0.02708070,-0.01789486,-0.06747472,0.36788508,
-0.25987434,0.00400326,-0.11962378,-0.05798681,-0.18981911,-0.27906263,-0.01971278,-0.18565668,-0.20615882,0.05115002,-0.39773276,-0.63063705,-0.01889398,-0.23129690,-0.03145461,-0.11322905,-0.32834452,-0.27532595,-0.05618690,-0.29284900,-0.19396017,-0.04415049,-0.22087078,-0.36692703,-0.14706692,0.44900018,-0.90363777,0.67617661,
-0.34391192,-0.08737001,0.02267557,0.03905402,-0.49430183,-0.21017729,-0.69897115,-1.27397382,-0.04889031,-0.17234837,-0.15920556,-0.06460316,0.09784047,0.15757971,-0.21361391,-0.17351501,-0.11866467,-0.57654083,-0.47924370,0.09191150,0.00888163,-0.31707782,-0.94209337,-0.78086084,0.07883044,-1.08168924,0.24942598,0.24230984,
-0.14591575,-0.76871538,-0.04356675,-0.76646900,-0.14083406,-0.56154549,0.10407890,0.19461615,0.17115413,0.34897140,-0.58141643,0.27384025,0.09490196,0.19876269,0.32755598,0.39785650,0.38819271,0.32659838,-0.06881608,0.14089517,0.31123874,0.37672389,0.32016930,0.01448185,-0.00877844,-0.81967062,0.36026633,-0.70288426,
0.03568015,0.02163820,0.10138324,0.10996617,-0.10994714,-0.02554837,0.01394419,-0.09462255,-0.07401583,-0.08637025,0.35521364,-0.07735523,0.29116023,0.29823419,0.26691237,0.29342946,0.04620126,-0.90375173,0.26808792,0.00462503,0.14949267,-1.38723111,-0.02413951,0.12524988,-1.61197948,-0.35153469,0.28658369,-0.85415828,
-2.59486723,-3.28815222,-3.70792842,-3.49627090,-3.79307985,-2.75921702,-3.31091833,-2.42570233,-3.35624576,0.02380988,0.01649802,0.10008872,0.12657693,0.12281308,0.11102686,0.07818519,0.13074559,-0.03149800,0.01702038,0.09268475,0.10637913,0.06942558,0.08654109,0.19543269,-0.31617191,-0.00698069,0.10704669,-0.07343631,
-0.70216846,-1.42462420,-1.70354474,-2.37697649,-2.50620008,-1.61446333,-2.20166397,0.05041721,0.15368269,0.23834792,-2.54251266,0.21529271,0.13745674,-1.42282271,0.15164748,0.13791624,-2.09121323,0.16312429,-1.67803609,0.14469928,0.07377761,0.11951599,0.06784591,0.03683473,-1.23792338,-0.17940639,0.09179883,-0.34093148,
0.19458656,0.22194995,0.32445785,0.24194208,0.28414583,-0.01549355,0.19662839,0.38117239,-0.24425510,0.07268843,-0.33854294,0.14516322,-0.24249847,0.33948213,0.42812485,-0.37931976,0.17560601,-0.24915792,-0.02569001,-1.07804549,-0.12866749,0.21645413,-0.27451378,0.06515563,-0.03852814,-2.28806019,0.16843481,-1.88707793,
-0.78379667,-0.36033082,-0.59961921,-0.12570806,-0.65094167,-0.58402181,-0.16108310,-0.01023628,-0.12791862,-0.24229559,-0.19038643,-0.15417567,-0.41673267,-0.60044110,-0.15928729,-0.06296825,-0.47435275,0.01231675,-0.25206769,-1.05869019,-0.49657378,-0.04537848,-0.00909152,-0.41147882,-0.11246005,-1.07541573,-0.84853286,-1.11932564,
-0.50476635,-1.11424017,-0.38687831,-0.81055069,-0.40673274,-0.88019222,-0.12205195,-0.67054760,-0.25654051,-0.77298671,-0.98854828,-0.30922380,-1.06657827,-0.61421722,0.01364133,-0.82594192,-0.73998469,-0.30565688,-0.48135975,-0.31088570,-0.04917239,-0.53386360,-0.36280486,-0.74827272,-1.01355326,-0.58326608,-0.39655352,-0.20452997,
-3.56409025,-2.75313306,-3.60659909,-2.77789879,-3.16067481,-2.81786251,-3.18583512,-2.83686686,-3.31398845,-3.19788313,-0.00204460,0.09669352,-0.01531666,-0.00774626,0.02399676,-0.01064986,-0.09921417,-0.00972846,0.00185882,0.01520124,-0.00258859,-0.01683675,0.04850088,-0.01055492,-1.22564864,0.25630337,0.03307038,0.61915052,
-0.49635080,-0.33678821,-0.30208522,-0.03829322,-0.43123791,-0.12009671,-0.38092342,-0.30482778,-0.43610880,-0.63715929,-0.28035697,-0.11716273,0.01716112,-0.59045142,-0.62883508,-0.17143477,-0.50533253,-0.09878889,-0.34846598,-0.51866800,0.00792790,-0.01635292,-0.26196298,-0.73719835,-0.28322536,-1.09143102,-1.77159631,-1.07761049,
-0.22107440,-0.13293418,-0.30176350,-0.33223861,-0.22230791,-0.36715421,-1.15520144,-1.98079324,-1.84964323,-0.47216281,-1.00761020,-1.17782855,-0.28334174,0.17011786,0.36193541,0.37212303,0.25010347,0.33355349,0.45548940,0.20957096,-0.08474787,0.20581731,0.23175457,0.05842180,0.23440252,-1.01187670,0.26351628,1.06935883,
-0.07391836,-0.15869121,-0.11396422,-0.18624778,-0.19866440,-0.21254395,-0.00223066,-0.28444690,-0.23663154,-0.12714575,-0.76564717,-0.17279106,-0.12385655,-0.09552864,-0.26288480,-0.00867305,-0.02425270,-0.13393870,-0.20097925,-0.19760849,-0.04260901,-0.00124184,-0.12293328,-0.01537961,0.16143295,-0.26437986,-0.65768802,-0.96673346,
0.11473320,0.17805511,-0.09316017,-0.10887120,-0.61511427,0.13134526,-0.36620420,-0.04400911,-0.34358430,-0.48726380,-0.20114113,-0.60895604,-0.56323785,-0.82741797,-0.18519591,-0.37334737,-0.23542641,-0.39951912,-0.15415516,-0.53417099,-0.51724768,-0.43147725,-0.43861800,-0.60002995,-0.80374581,-1.46385920,0.23796761,-1.34454834,
-0.02159165,-0.32148728,-0.28027216,-0.52062881,-0.11684266,-0.08255351,-0.01674965,-0.00850765,-0.33790204,-0.13005014,-0.44997790,-0.50460511,-0.08662330,-0.17265682,-0.04422216,-0.32510012,-0.56001627,-0.34790429,-0.21809742,-0.22644955,-0.38551533,-0.53352374,-0.29577935,0.00578128,-0.10019081,-0.19198725,-0.37921897,-0.22857347,
-0.45109287,-2.38565731,-0.05240884,-0.13066277,0.01577680,0.24155559,0.08461864,0.01381380,0.11732057,-0.01792916,0.02743969,0.01097156,0.08197507,-0.00371925,0.02728961,0.15074533,0.10675623,0.09292095,0.04112184,0.00987434,0.05669980,0.09625085,0.10502878,0.07735093,-3.86729717,-0.04544683,0.21481906,0.03169811,
-0.39453164,-0.77715534,-0.54235744,-0.64149398,-0.39557356,-0.34948575,-0.04992219,-0.11937917,-0.11865514,-0.32088721,-0.21681327,-0.28599817,-0.01062184,0.01621605,-0.37375319,-0.28343776,-0.11053372,-0.42585191,-0.29785252,-0.39096442,-0.41363245,-0.46428311,-0.15806840,-0.22777504,-0.38080433,-0.91405302,-0.78498381,-0.70579284,
-0.69117546,-1.25940609,-1.25410950,-1.02454865,-0.67226237,-0.36374128,-0.79039323,-0.83529741,-0.79811311,-0.60322833,-0.52095813,-0.82982433,-0.28871870,-0.54686898,-0.68657392,0.01234545,-0.30766749,0.37489134,-0.44138187,-0.08003904,-0.07849015,-0.38444728,-0.38648957,-0.90125144,-0.00274820,-0.94361305,-0.91993582,-1.08149326,
-1.85933363,-1.10542941,-1.82471144,-1.29384017,-1.13495910,-0.44690052,-2.54830027,-2.59062433,-2.31563306,-2.87780237,-2.19642758,-1.55256796,-1.35816741,-1.46959257,0.01487884,-0.00782262,0.09445046,0.16809730,0.15288842,0.10635516,-0.71854007,0.07410247,0.08440482,-0.56270564,0.09494790,-0.08734214,0.10343737,-0.32579845,
-0.10126878,-3.52733111,-0.97914791,-0.02469627,0.23390375,0.34737077,0.37695491,-0.33018115,0.17298976,0.07473195,0.26233914,0.10286898,0.10115369,0.15317661,0.27600110,-0.25180811,0.11385339,0.25638333,0.12408537,0.28191489,0.10231004,0.17924374,0.23263247,0.28085780,-0.15570068,-1.51183224,0.31158933,-1.54310870,
-0.19791299,0.06392476,-0.00757650,-0.14844429,0.06998788,-0.36357909,-0.59007382,-0.67561835,0.14155696,0.00886623,-0.13710076,-0.52348393,0.13373213,0.08861528,-0.26391405,-0.13537556,-0.24715152,0.02638512,-0.43304738,-0.25469816,-0.39996612,-0.79258329,-0.07376666,-0.88706142,-1.17695153,-1.79652143,-0.01439680,-1.33289278,
0.16530296,-0.09878927,-0.11106756,0.12824914,0.18070056,0.01913155,0.12410270,-0.03432379,0.07685457,0.08299767,0.04099976,0.11264355,0.18064967,-0.27973133,-0.06727961,0.00871280,-0.63494563,0.02701077,-0.55596298,-0.08170258,-0.99919057,0.21910867,-0.26918724,-0.20129780,-3.76809597,-0.23048706,0.19589807,-0.61067539,
0.00517298,-0.09630395,-0.00250978,-0.10992870,-0.31949687,-0.27327594,-0.01064693,-0.08588366,-0.04979847,-0.12524574,0.00877268,-0.03591431,-0.08773962,-0.07046816,-0.34279025,-0.01579412,-0.15534157,-0.04742754,-0.10033686,-0.09920064,-0.09983937,-0.15071221,-0.05400077,-0.05035575,-0.21721998,-0.28698984,-0.24507952,-0.74299967,
-0.73671997,-0.52520299,-0.51759124,-0.59515899,-0.44055632,-0.01786696,-0.33456737,-0.38962927,-0.03223418,0.04509600,-0.43898419,-0.10201979,-0.88541037,-0.18971631,-0.22190829,-0.39514503,-0.13926192,-0.14488654,-0.30732557,-1.10121059,-0.16912143,0.08105865,-0.16375193,-0.51659656,0.16188502,-1.70264232,-1.24090707,-1.95996535,
-0.34351259,-0.09653272,-0.04828163,-0.08280992,0.03604213,-0.14226688,-0.02338829,0.30744541,0.35841867,0.25666425,0.34170842,0.32225320,0.37522247,0.34268856,-0.47496757,0.38316822,-0.17342934,0.01509252,-0.15523447,0.29569685,-0.72892272,-0.09209169,-0.02031212,0.32028070,-0.86358392,-1.76620781,0.13169931,-1.71604300,
0.01164989,-0.23954044,-0.48537233,0.01445261,-0.06285755,-0.46466893,-0.85616767,-0.00483618,-0.53347147,-0.61244220,-0.56929928,-0.46214718,-0.29919222,-1.65756905,-0.58415204,-1.38827443,-0.52894372,-1.19415176,-1.61598635,-1.16115069,-0.71478701,-0.68313432,-0.40044498,-0.40759015,-0.54193503,-1.35575819,-0.46283787,-1.40489149,
0.21463898,0.14393294,0.17226394,-0.40089837,-0.06025845,0.25668234,-1.14104497,0.07881284,0.33799899,-0.34729517,-1.15820169,0.00805757,0.35058805,-0.27513692,0.06817420,0.06698547,-1.03498447,-0.26105958,-0.13470170,-0.08359982,-0.04918826,-0.31021842,0.17132819,0.13258149,-0.73763138,-1.04367220,0.03604770,-1.65407860,
-0.03964129,-0.39897004,-0.01762705,-0.02258177,-0.01111385,-0.13033032,-0.18581577,-0.10598657,-0.23493031,-0.39753526,-0.48768979,-0.23752382,-0.56929624,-0.17115718,-0.32425323,-0.16202442,-0.99824101,0.01245371,-0.26980752,-0.39063922,-1.55976129,-1.47265995,-1.72902918,-0.74118209,-1.88686681,0.47200608,-0.18141219,0.46645975,
-0.06219646,-0.16138761,-0.23041855,-0.39841461,-0.12994690,-0.03585658,-0.04767266,-0.06642573,-0.07652726,-0.07907294,-0.04903406,-0.12246357,-0.22232698,-0.11708181,-0.17698364,-0.17912802,-0.15579315,-0.17615756,-0.05890018,-0.10498725,-0.24084130,-0.37877873,-0.08668471,-0.07540783,-0.23081827,0.05144855,-0.36319378,-0.06567119,
-0.02019848,-0.19384770,-0.09702175,-0.48775139,-0.25784171,-0.28084946,-0.16253173,-0.00567371,-0.94590688,-0.22979224,-0.06728764,-0.32680359,-0.02681641,-0.15839170,-0.07806531,0.00456968,-0.11294220,-0.04410049,-0.25408116,-0.23576607,-0.06691557,-0.46305960,-0.46576560,-0.38319170,-0.34620184,-0.09591813,-0.44136727,-0.43499318,
0.29598963,0.17970593,0.38473144,0.17693214,0.20512667,0.30877313,0.14461640,0.23331171,0.25607836,0.20887516,0.27648374,0.23584676,0.25185725,0.27833387,0.23158982,0.23342617,0.28243285,0.30893239,0.30764422,0.31087455,0.29015213,0.25720581,0.22554713,0.30257532,0.12357204,-0.15263095,0.28097197,-2.98020267,
0.00709117,-0.13921589,0.00574866,-0.06966053,-0.62562883,-0.12333693,-0.19535367,-0.02310251,-0.08930007,-0.05663962,-0.26770166,-0.15645400,-0.03574189,-0.06133494,-0.46189559,-0.06067898,-0.18459401,-0.18293396,-0.06598292,-0.11007370,-0.04439750,-0.01594060,-0.22982936,0.00405828,-0.35219163,-0.04029960,-0.76009375,0.12298288,
-0.11564235,-0.55028939,-0.02422694,-0.05197306,-0.14666195,-0.01871073,-0.08969779,-0.06995327,-0.08133657,-0.06198688,-0.07349414,-0.59459585,-0.14580251,-0.11171200,-0.05008459,-0.04110425,-0.13808808,-0.12519680,-0.06726604,-0.06389683,-0.07830043,-0.02202168,-0.05202526,-0.02057822,-0.59206742,0.05467878,-0.22380769,-0.12452801,
0.03257757,0.18926807,-0.15608455,-0.59288412,-1.34663308,-1.26999462,-0.96306843,0.31200945,0.36061221,0.38173723,0.42649695,0.16343868,-0.06260151,0.30133179,0.11055025,0.35054868,0.25176448,0.25719479,0.32530472,0.29016832,0.20486185,0.25929850,0.24042119,0.06244598,-0.59005934,-1.17509234,0.28410119,-1.10829842,
-0.17379461,-0.10974805,0.22446074,0.41040412,0.16009553,-0.89351285,0.16101485,0.25237796,0.13571358,0.00983743,-0.04370986,-0.01797825,-0.27451041,0.03884039,0.17536525,0.02290822,0.24315593,0.10353938,-0.10380724,0.34600663,0.17038256,0.16173837,-0.23886697,0.39254060,-0.17313115,-1.02014816,0.24327698,-0.80718404,
-0.72209585,-0.18150191,-0.05645837,-0.08942296,-0.15477659,-0.40935752,-0.03185640,-0.35193127,-0.16052365,-0.40240878,-0.59821790,-0.14190257,-0.55920482,0.18326190,-0.94716889,-0.09829158,-0.16241692,-0.69921684,-0.17726916,-0.04927603,-0.67766732,-0.10261679,-0.58268356,-0.92795217,-0.83205962,-0.32297522,-0.43856612,0.98382586,
0.04977383,0.11258722,0.18050286,-0.01349238,0.18809174,0.05728807,-0.14251931,0.06223317,0.23481302,0.01223943,0.39210585,0.31663704,0.31550401,0.27720833,0.40440962,-0.35774189,-0.45292899,-0.59058464,-0.13074626,0.05308046,-0.54278481,-0.80252945,0.04350657,0.20238809,-0.16946754,-1.37124622,0.04649219,-1.34417117,
-2.82129240,-2.38775611,-2.56319189,-2.43622565,-2.24621749,-1.80751252,-2.34574127,-2.01033354,-2.22862577,-2.75504208,-1.83127654,-1.94454658,-2.80284953,-2.24854207,-1.20954299,-1.20251763,-0.16889775,0.09525850,0.09285222,0.10774897,0.08351839,0.03420554,0.10947928,0.04829337,-1.77064013,-0.02720239,0.08021438,-0.21133655,
-0.12461615,-0.04071572,0.06253860,0.17896858,-0.09689796,-0.22312121,0.03551372,0.01986725,-0.04280394,0.05474524,-0.02771926,0.04729284,-0.02094725,0.07414237,0.00242624,-0.27719355,0.05970472,0.04591096,-0.19063820,-0.04287077,-0.49691823,-0.15291093,0.00901636,-2.09158230,-5.32463503,0.36575159,0.04272084,0.30260783,
0.14119770,-0.10601654,-0.06737452,-0.01889162,-0.33115813,-0.27221712,-0.01143774,0.07610796,-0.06094684,0.08857124,-0.32068688,-0.45978123,-0.89564878,-2.32418680,-0.35320219,0.18246154,0.11403753,0.24833840,0.32055166,0.28643170,0.28064597,0.23092502,0.27032784,0.25679487,-1.33032811,-0.46469280,0.27147576,0.65187758,
0.16249929,-0.45214340,-0.28803533,-0.99968296,-0.84160000,-0.68424100,-0.36590341,-0.23190813,-0.38599584,-0.49979702,-0.08167823,-0.18153404,-0.14786410,-0.27006093,-0.72849917,-0.40012580,-0.29513535,-0.15784545,-0.25404662,-0.86839497,-0.29767039,0.08636873,-0.69049644,-0.57488704,-0.36088374,-0.84425694,0.13523760,-2.07800746,
-0.07173064,-0.31940261,-1.43528080,-4.30733252,-4.91547632,-5.47369289,-5.89694405,-5.47801971,-4.77636623,-1.94968867,-1.01661944,0.34942096,0.20377553,0.30655587,0.24282883,0.28036439,0.31197307,0.30296996,0.30436015,0.23891957,0.31654444,0.14812434,0.21940656,0.19859973,-0.10814572,-0.58388406,0.30163267,-0.83705646,
0.37329754,0.42905813,0.24629858,0.39399120,0.12210911,0.39191952,0.35294098,0.40147555,0.42396107,0.33654675,0.20176487,0.21747403,0.41666725,0.11289617,0.25798565,0.36529171,0.32936585,0.39900857,0.26953027,0.31860816,0.32342610,0.30258912,0.37962872,0.42919016,-1.34302175,-0.49342820,0.35275191,-1.41610432,
-0.38565636,-0.25069603,-0.31909847,-0.03372549,-0.48959392,-0.12281276,-0.28505728,-0.22448604,-0.08548260,-0.40880501,0.11675515,-0.02869491,-0.04219624,-0.05786629,-0.00177191,-0.38428164,-0.33884367,-1.24705398,-2.37403679,-1.79559088,-2.87111354,-0.07717307,-0.27254263,0.01341836,-2.24511814,0.35005847,-0.14585763,0.80592346,
-0.34952435,-0.74835616,-0.54415357,-0.22607462,-0.50047672,-0.31342340,-0.53558707,-0.23477370,-0.19959129,-0.48741117,-0.25291643,-0.26536807,-0.49426886,-0.37274307,-0.40957105,-0.28325814,-0.52321720,-0.38134721,-0.01534342,0.01181056,-0.17740735,-0.06335886,-0.38114965,-0.53410035,-0.24768373,-0.27596113,-0.85625553,-0.33766258,
-0.39607796,-0.72205794,-0.53477502,-0.92522353,-0.16336377,-0.08762293,-0.66287756,0.13247231,-0.55986494,-0.22773236,-0.38874817,-0.52396709,-0.30521107,-0.71529400,-0.54422635,-0.06722364,-0.68814683,-0.20245463,-0.04625159,0.18741144,0.33071387,0.30303290,0.11889070,-1.04293990,0.08933625,-0.37727353,-0.86939472,-0.13320221,
0.02811825,-0.17944692,0.05424865,0.16326696,0.44602883,0.49723288,0.09710874,-0.70394421,-0.06250457,0.20267342,0.11124160,0.50720268,-1.57290483,-0.33085036,0.41410208,0.64264721,0.13552459,0.32950360,0.31539917,0.23841049,0.30713421,0.43486074,0.28354195,0.24529910,-0.47428337,-1.99103439,0.25908709,-2.38685369,
0.28638247,0.07574854,-0.31463745,-0.22856100,-1.13060105,-3.42846894,-3.61142397,-0.50844258,0.23690693,0.19854604,0.34736398,0.49512574,0.49761331,0.37034988,0.29213661,0.36850339,0.35072577,0.33109692,0.16388443,0.20476091,0.34312266,0.33739182,0.14505713,0.42968863,-0.42792168,-1.18383741,0.35739401,-1.44766903,
-0.09762531,0.11927600,-0.02352425,-0.56429744,-0.66736650,-0.07899670,-0.43401429,-0.24435736,-0.66261756,-2.32151341,-1.81804323,-2.22080112,-0.20027125,-3.99121737,-0.20135227,-3.32504416,-2.06844187,-3.11080718,-0.12111292,-0.02466484,-0.15991403,-0.04231376,-0.01058139,-0.14525741,-3.16347575,0.21635172,-0.04839083,0.25586408,
0.30848062,-0.12133485,0.00050337,0.17152089,0.08539397,-0.06993175,0.03205211,-0.20502651,-0.04381267,-0.14706331,-0.12568781,0.10060637,0.01834446,0.12500778,0.05283834,0.08830468,-0.13208729,-0.20520042,0.07229333,-0.00677193,0.10270767,0.17811427,0.10199649,0.00040071,-0.85519481,-0.01549204,0.16135362,-3.67443895,
-0.31632617,-0.24837624,-0.09636296,-0.26469857,-0.35359877,-0.51029348,-0.50120437,-0.29604873,-0.30158490,-0.00483408,-0.25361878,-0.21963759,-0.21375710,-0.51122439,-0.10155089,-0.40702733,-0.51240152,-0.03963629,-0.75914526,-0.16248401,-0.86262441,-0.45497715,0.01646810,-0.01637137,-0.01882070,-1.66701293,-0.99329340,-0.53612590,
0.15734385,0.42066696,0.24030514,0.19974343,0.27051815,-0.21303986,-0.47274223,0.08360029,0.24402174,-0.22027847,-0.03199847,-0.28064552,-0.21185902,0.10236754,0.16806616,0.00310491,-0.07046545,-0.33687717,0.01973604,-0.32199287,0.07320497,-1.39840627,-0.55490011,-0.20513842,-0.48347977,-0.83430278,0.11129235,-0.75419521,
0.09053813,-0.37220755,-0.48269022,-0.42157486,-0.86900038,-1.71244645,-1.09403670,-1.10328078,-0.12635767,-0.95316303,-0.96599478,-0.09063836,-0.24310179,-0.06136602,0.51588446,-0.04026398,-0.03616931,-0.54935688,-0.00965234,-0.11522296,0.31856036,0.09725907,-1.03623986,-0.11383407,0.13498312,-0.98054349,0.25573647,-0.04592473,
-0.46636048,0.08620326,-0.25435868,0.10693008,-0.46691546,-0.48719832,-0.11966083,-0.21935217,-0.18237197,-0.43054852,-0.81619054,-0.56374443,-0.21739636,-0.39618218,-0.13381384,-0.01942302,-0.71894580,0.09970813,0.13665907,0.10833832,-0.13059814,-0.38920009,0.36396837,-0.17800699,0.10266937,-2.98043895,-1.58452141,-2.32725406,
-0.56867450,-0.83896023,-0.19296302,-0.40166691,-0.74659532,-0.45678702,-0.24285030,-0.28353256,-0.18278278,-0.69491851,-0.11414111,0.01792716,-0.43041301,-0.67361683,0.07759113,-0.51493227,0.17775938,-0.06474357,-0.15919453,-0.40795663,-0.29683730,-0.87485456,-0.64812911,0.18114129,-0.04523081,-0.76868254,-1.71116912,-1.00233650,
-0.63367265,0.07533325,0.07290608,-0.03697527,0.15445952,0.00754011,-0.01343006,-0.15556176,0.03947600,-0.09031100,0.00993910,0.04363197,-0.15915972,-0.04958005,0.02508656,0.00495647,-0.14703220,-0.19459130,-0.10448748,-0.18611978,-0.02332856,-0.10637438,0.03492155,0.02838384,0.03512838,0.64081210,0.00572205,1.00258350,
-0.76229453,-0.13631527,-0.14561972,-0.41477039,0.28815272,-0.16869330,-0.20343813,-0.05723771,-0.86240131,0.11726284,-0.05902355,-0.15350990,0.12275588,-0.10473479,-0.07257149,-0.15345877,-0.41916573,-0.88229513,0.00992850,-0.50931942,0.05529432,0.11498471,-0.59714472,0.26214054,-0.46770263,-1.50876725,-1.54103518,-1.09076428,
0.09006810,0.31318623,0.18302460,-0.01561371,-0.13271162,-1.07714903,-1.68869126,-3.71860647,-3.05525064,-2.82809520,0.09355594,0.25318652,0.31885621,0.40249521,0.19975257,0.18253201,0.28191265,0.37334552,0.20393337,0.31939471,-0.07607926,-0.04894410,0.08197028,-1.22051454,-0.07238309,-0.96575934,0.36482155,-1.21130407,
-0.29449892,-1.17531490,-0.27558306,-0.09382457,-0.30095097,-0.01850372,-0.12092102,-0.04179619,0.01538693,-0.18455213,-0.46556476,-0.41708571,0.18816079,-0.36823985,-0.05441031,0.16814922,-0.60776389,0.06673213,0.11738525,0.01352676,-0.73648202,-0.67342556,0.15362491,-0.29688004,-0.40479219,-0.58817917,-2.43688774,0.21997926,
0.13114771,0.01426336,0.00755263,-0.04048735,-0.26375923,-0.13835979,-0.63470423,-0.22986746,-0.43114182,0.38453549,-0.12083528,-0.44874886,-0.72775221,-2.03551841,-1.11938524,-1.32265627,-1.11799049,-1.42665672,-0.59415984,0.24774173,0.40609124,0.03184958,0.18639854,0.26213768,-0.35250959,-0.51052147,0.27498180,-1.00343025,
0.10651532,0.05172708,-0.26956347,-0.69137323,-1.27342057,0.24542853,-0.29411373,-1.07957113,0.08611360,-0.18842942,-0.40925756,-0.20404844,-1.22184408,-1.09785068,0.25216231,0.17509046,0.08007150,0.28631988,0.08098640,0.27193454,0.15367740,0.24721290,0.28804728,0.25754678,-1.79487705,-0.41281852,0.31198496,-1.41432440,
-0.54079640,-0.47974560,-0.26266047,-0.11274403,-0.32178816,-0.28485411,-0.16670536,-0.14237621,-0.30914888,-1.07729971,-0.84246433,-0.34990320,-0.59321553,-0.47019219,-0.93034893,0.05487069,-0.08999350,-0.51221615,0.01554684,0.00710393,-0.41722828,-0.39182180,0.36766499,0.03512082,0.17208032,-0.85931307,-0.72044289,-0.63611031,
-1.02136338,-3.15580773,-2.73726439,-4.64675093,-2.77964854,-5.07928562,-4.05747461,-2.62824273,-3.72920728,-3.74779701,-3.71846676,-1.86918974,-1.65628028,0.17118010,0.25465080,0.25976545,0.27153015,0.28131571,0.33134186,0.24479772,-0.57362664,0.10276434,0.04476106,0.27405187,-0.34463584,-0.44906014,0.21039470,-0.62404919,
0.25995967,-0.17881860,-0.11866236,-1.60674441,-0.09586474,0.05806604,-0.07274957,0.20020807,0.21839121,0.19783525,0.38694486,0.35561532,0.41589487,0.41165057,0.31939042,0.42990366,0.06430847,0.41031411,0.06947892,0.45611832,0.45207623,-0.33764309,0.29315630,0.38118035,0.00314177,-1.00319290,0.35781518,-2.14443660,
-0.36751509,-0.09853487,-0.19512305,-0.70162553,-1.21616793,-0.48577347,0.20705712,-0.66185248,-0.43750590,-0.01642161,-0.60367030,-0.01776563,-0.83741391,-0.07302000,-0.56954288,0.03054214,-0.77865338,-1.38879037,-1.51543474,-1.50474942,-1.22415435,-1.01335454,-1.58266985,-1.60577154,0.12991385,-0.07219318,-0.04306375,-0.01209738,
-1.41320062,-0.89365244,0.19750561,0.03085368,-0.01927833,-0.04688308,0.10129061,-0.24324563,-1.27392018,0.24240887,-1.17135715,0.08242283,-0.66587269,-1.07915378,-0.14929849,-0.64102846,-0.66394532,0.14143147,0.14297059,0.18345381,0.17397083,0.02182139,0.10591788,0.11205073,-3.56335306,-0.08976413,0.05278440,-0.65437376,
-0.24267983,-0.68237972,-0.46533254,0.00863447,-0.43987393,-0.69718295,-0.84650493,-0.23356070,-0.00678738,-0.36253712,-0.13985798,-0.16103809,-0.31919193,-0.47080061,-0.34213886,-0.23321441,-0.11812404,-0.42436400,-0.45201096,-0.45464289,-1.98130596,-2.25892162,-2.23682451,-0.63506114,-1.71389771,-1.16820860,-0.00587166,-0.85387111,
0.07102093,-0.09961348,-0.09503760,-0.08988308,-0.02425465,-0.01672987,-0.00012785,0.04272205,-0.11780852,0.01354904,-0.07108114,-0.05209382,-0.07666970,-0.09699382,-0.06101831,-0.13930561,-0.03077215,-0.07498201,-0.02714058,-0.01204323,-0.06268917,-0.06986562,-0.08608411,0.00147251,-0.44814336,0.44900224,-0.06757389,1.34492946,
-1.45510256,-3.65032053,-4.14281988,-3.90287399,-1.70845830,-0.18394297,0.05174160,0.21923071,0.16373245,0.24951491,0.09633813,0.18168136,0.23144618,0.19029152,0.25468734,0.33644801,0.35393533,0.27807644,0.38663808,0.27045450,0.22512166,0.13826719,0.09581785,0.34483525,0.14095907,-0.48028624,0.21629703,-1.21932459,
-1.17554748,-0.46689245,-0.79872447,-0.55512112,-0.27871403,-0.94650060,-0.26433188,-0.68442267,-0.36820781,-0.39498672,-0.58844841,-0.10689482,-0.06030415,0.12668809,-0.31287870,-0.16526434,-1.02460670,-0.70105094,-0.40633744,-0.18684681,0.18312369,-0.43006638,-0.06904542,-0.40118587,-0.79840106,-0.93761623,-0.61417615,-0.96236962,
-0.17413299,-0.58578753,-0.74299699,-0.50995219,-0.26654038,-0.65672541,-0.67865610,-0.68266481,-0.10294202,-0.39954370,-0.06909579,-0.22934002,-1.02105963,-0.19511555,-0.89336950,-0.35927942,0.18457954,-1.18667853,-1.29708469,-1.11287081,-2.27419901,-0.25321648,0.15974316,-0.60908014,-0.63921714,-1.00089848,-0.10321174,-0.42408669,
-1.58788502,-1.51679265,-0.09845538,-0.13740209,-0.88577878,-0.95689869,-0.44309255,-0.90172529,-1.23286033,-0.75145805,-0.79354572,-2.30060530,-1.50546849,-1.36010218,-2.25354767,-2.21283340,-2.58855200,-2.48970795,-2.43574667,-0.34135619,-0.10960321,0.07663163,-2.89864731,-1.06233418,0.16244608,-0.11626434,0.11591759,-3.12418842,
-0.11351911,-0.04011962,-0.04946877,-0.20247817,-0.06712698,-0.04681325,-0.05334045,-0.14583640,-0.39661852,-0.03692674,-0.33273521,-0.08377959,-0.18986520,-0.50784492,-0.10726737,-0.01486699,-0.25514579,-0.08056347,-0.00897029,-0.02517250,-0.25337240,-0.01256926,-0.09603246,-0.04631652,-0.15989491,0.02284005,-0.46862826,-0.34493846,
-0.40659323,-0.07480918,0.32762200,-0.37328857,-0.27831668,0.02514760,0.02154271,-0.08299546,-0.11068203,-0.42806751,0.28476247,-0.28165707,-0.23582259,-0.52109206,-0.63135022,-0.15093970,-0.35381308,-0.64534479,-0.21234012,-0.23491058,-0.28782144,-0.25997171,-0.48245615,0.00362101,-0.17230965,-2.61676669,-0.68893164,-0.02142813,
-0.08013988,-0.03205920,-0.09116835,-0.09245607,-0.06762645,-0.25189239,-0.64580542,-0.06374083,-0.05622781,-0.01886089,-0.03480474,-0.01628680,-0.15840608,-0.10986712,-0.03904920,-0.16500318,-0.36170104,-0.07744109,-0.20703581,-0.28883848,-0.16127460,-0.05149108,-0.00567848,-0.55662203,-0.48037484,0.00529592,-0.10915641,0.00487519,
-0.54977798,-0.68895209,-0.86320430,-0.22576845,-0.02986396,-0.25478250,-0.22492017,-0.80367911,0.00590737,-0.03289596,-0.47748241,0.02077104,-0.52205199,-0.51430589,0.01247436,-0.47987658,-0.28102303,0.02185774,-0.16520743,-0.44340402,-0.35537285,-0.30441576,-0.02036432,-0.54168040,-0.15455052,-1.00174081,-1.26678085,-0.62607819,
-0.22058930,
0.32389197,
-0.45265761,
-0.14962406,
0.11732095,
-0.04306643,
-0.63981408,
-0.50288105,
-0.78246623,
-0.12245192,
-0.51048887,
-0.42324364,
-0.08828766,
-0.83960313,
-0.53488696,
-1.27752042,
0.11016446,
-0.38099509,
-0.42726344,
-1.62786555,
-0.90973759,
0.03823598,
-0.44141951,
-0.36247528,
-1.10789847,
0.20546359,
-0.98873806,
-1.22644544,
0.25453129,
-0.52787673,
-0.05966872,
0.10927401,
-0.30870676,
-0.04406990,
-0.57655275,
-0.90206617,
-0.00384059,
-0.78522944,
-1.57679141,
-0.89570510,
-0.16435342,
-0.36896497,
0.26289737,
-0.61409885,
0.25067154,
-0.07859665,
-0.56657898,
-0.32542691,
0.01804671,
-0.56861752,
-0.55132711,
-0.38346788,
-0.03220006,
-0.95904243,
0.08469697,
-0.69456989,
-0.72223645,
-0.31309888,
-1.04795790,
-0.40865344,
-0.20794304,
-0.69815487,
-0.09886988,
-0.89242083,
-0.69693804,
-0.73746008,
-0.89809388,
0.15548013,
-0.23545536,
-0.51444083,
-0.38322300,
-0.36751115,
-0.85343897,
-0.23384129,
-0.69482160,
-0.52132392,
-0.58946371,
-0.60110104,
-0.52442956,
-0.71588671,
0.05613808,
0.00090595,
0.33287111,
0.16447975,
-0.30562982,
-0.32733265,
-0.39758366,
-0.70530176,
-0.43377024,
-0.85461724,
-1.18867457,
-0.88364857,
-0.83669490,
-1.06392360,
-1.54431057,
-0.09581453,
-0.54929024,
-0.78133631,
-0.24224795,
-0.06072298,
-0.63637620,
-0.33984348,
0.21721703,
-0.27471733,
-0.64645153,
-1.25229716,
0.32339302,
-0.58407742,
0.14258260,
-0.35374770,
-0.52179790,
-0.52837741,
0.17585866,
0.17146251,
-0.43369722,
0.34415603,
-0.47365540,
-0.95557535,
-0.58157748,
-0.49992895,
-0.45931822,
-0.18778402,
-1.17026591,
-0.57675409,
-0.61080545,
-0.34666371,
-0.09476630,
-0.69240326,
-0.01699876,
-0.67117506,
-0.54957765,
-0.75776410,
0.46928105,
-0.45743284,
-0.54985112,
-0.85457164,
0.64951509,
0.33116084,
-0.37738079,
-0.67169070,
-0.42591938,
-0.70304286,
-0.75144690,
0.00510691,
-0.08614893,
-0.90780407,
-0.64491528,
-0.40598622,
-0.25855786,
-0.10347360,
-0.41075289,
-0.51406801,
-0.58431828,
-0.85398638,
-0.01583339,
-0.54245204,
-0.85720682,
-0.99033892,
-0.49854639,
-0.39555743,
-0.34377584,
-1.17187440,
0.54281682,
-0.01669057,
0.15269828,
-0.90734684,
-0.78771752,
-1.02285659,
-0.08514492,
-0.44490549,
-0.43934658,
0.25208893,
-0.28315198,
-0.68692756,
-1.11262870,
-0.41671622,
0.14105867,
-1.06018054,
-0.15349577,
-0.64839518,
-0.46567693,
-0.24006915,
-0.01323805,
0.14762251,
0.01041288,
-0.64439285,
-0.73296750,
-1.04633749,
-0.72811103,
-0.17376679,
-0.89718843,
0.44042081,
0.01444527,
-0.19361371,
-0.34777951,
-0.30957928,
-1.10185027,
-0.67251611,
-0.66563052,
-0.88657337,
-0.52555013,
-0.45020226,
-0.45682791,
-1.44877982,
-0.56987298,
-0.81286269,
-0.93269032,
-0.96303385,
-0.49724981,
-0.32950011,
-0.06295258,
-0.50686121,
-0.58381444,
-0.06583927,
-0.06420840,
-0.73508269,
-0.58703703,
-0.90596783,
-0.55229491,
0.05351964,
-0.32830045,
-0.43209228,
0.12194490,
-0.75312042,
-0.61515635,
-0.59947288,
-1.15993369,
-0.28427160,
-0.62938422,
-0.10238406,
-1.00592482,
-0.37052345,
-0.16386349,
-0.99217385,
-1.02207172,
-0.00229051,
-1.49654746,
-0.66449082,
-1.02562892,
0.11481023,
0.11942215,
-0.33762464,
-0.82151955,
-0.15573439,
-0.52533615,
-0.49765226,
-0.60372978,
-0.63200694,
-0.08712886,
-1.28206086,
-0.43925744,
-0.17128381,
-0.31982774,
-0.43481061,
-0.32976624,
-1.19594634,
0.26128703,-0.12929597,-0.00219513,-0.18220040,-0.19020556,-0.22303653,-0.03638309,0.19691108,-0.16268831,0.07557712,-0.01438469,0.07245260,0.03802264,-0.05232430,-0.21964750,0.06236811,0.05397025,-0.27066761,-0.07831071,0.03435459,0.04890939,0.03294440,0.01045871,-0.04772000,0.03298753,-0.23449828,0.07152656,0.16804291,-0.44879928,0.10323711,0.01981559,0.27543932,0.03091519,0.10866290,-0.10546312,-0.12310623,0.07861606,0.18889371,0.08528739,-0.42796731,0.06538748,-0.03025762,0.07253531,-0.09154715,-0.95951408,-0.12572372,-0.08804798,-0.01739326,0.16635883,0.01749816,-0.11262530,-0.17537810,-0.00116442,-0.23572609,0.21736704,0.36497971,0.15872461,0.49864778,0.10251489,-1.12614632,0.08430126,0.03487911,-0.15939634,0.08407759,-0.03902405,-0.83388656,-0.34866172,0.10574570,-0.35836202,0.11973718,-0.04959958,-0.04900987,-0.10316105,-0.11034011,-0.15691082,-0.01532352,0.68573898,-0.47463435,-0.08085413,0.00851339,-0.07288820,0.40968364,-0.23703997,0.20156430,-0.08369096,-0.47640917,0.13057670,-0.16387130,-0.25911102,0.08674692,-0.01362727,0.02493569,-1.33927858,0.08570042,-0.07065100,0.40257701,-0.16528076,0.06451096,-0.22355428,0.10672716,-0.02679295,-0.00216358,0.03421986,-0.15410298,-0.06273233,-0.04727834,-0.10756496,-0.05517191,-0.35739568,-0.10507751,-0.45002979,-0.00445974,-0.15047115,-0.13979627,-0.04759842,-0.06044705,-0.25382909,-0.04885195,-0.05638022,0.10274307,-0.05902952,0.06276882,0.17107329,-0.05545852,0.06327433,-2.04315710,-0.08271083,0.16828425,-0.39495915,-0.01022540,0.06532410,0.08951674,-0.59126943,0.03585288,0.13424964,0.00958867,-1.79649734,0.01860051,-0.84244448,-0.02089916,0.09342611,-0.17901936,0.07227517,0.21107063,-0.01226487,-0.11403812,0.10285459,-0.01126157,0.12539372,0.11575990,-0.50558144,0.05500100,-0.05768117,-0.00371924,0.23083378,-0.43064430,0.01293098,-0.01085952,0.16209324,0.11830755,-0.47024578,-0.18631808,0.03249184,-0.21554942,0.12899069,-0.09514226,-0.04654480,0.17685376,-0.37872475,0.20532876,-0.17317647,0.12561150,-0.00571732,-0.07340840,-0.02281071,-1.05645859,0.02068328,-0.11104116,-0.02312150,0.06443871,-0.50009060,-0.42796591,-0.18390271,-0.18546827,-0.06640325,0.26558203,-0.12144917,-0.05553391,-0.19146417,0.30590352,-0.03068608,-0.39595219,-0.25998759,-0.12086280,-0.12699097,-0.18626745,-0.07797618,0.03450753,-1.11681902,0.02984552,0.18981263,-0.06838616,-0.04650781,0.06333388,-0.10342767,0.01408799,-0.03475198,0.07226531,0.04679590,0.06587406,-0.33691648,-0.06700529,0.01047470,-0.08854123,-0.67679167,-0.23884617,0.04513813,-0.05392969,-0.59465605,-0.06156976,0.09751659,0.60305971,-0.58770323,0.05066247,0.05710142,-0.03148825,0.05239313,-0.00411277,0.05497549,-0.31340286,0.11633642,-0.24747717,-0.29739189,0.03820248,-0.08374377,0.08367243,-0.02280951,0.51178622,-0.02512318,-0.11887704,0.02181173,-0.21947533,0.46323273,-0.20445102,-0.12801103,-0.29988775,-0.07238612,-0.50646132,-0.40218613,-0.03642822,0.04380110,-0.54335535,0.01052703,-0.05833917,-0.09770724,-0.09564511,
-0.05654522,-0.10435864,-0.03250632,-0.15533963,-0.08726687,0.03813789,-0.01650203,0.04088092,-0.02670788,-0.04520280,0.01320950,-0.07408095,-0.05414556,0.00210157,-0.04960625,-0.03275146,-0.04103431,0.10082150,0.02956288,0.01421116,-0.05070357,0.01542374,0.00453546,-0.04980538,-0.08237600,-0.03411428,-0.05030850,0.01913025,-0.06510299,0.02098215,-0.02954020,0.07829649,-0.02241248,-0.16740902,-0.07738461,-0.04674216,-0.00036160,-0.02887629,-0.06009955,0.00381066,-0.03631962,-0.00202938,-0.05632296,-0.07787240,-0.39184257,-0.06485419,0.00318739,-0.08577640,0.04031776,-0.00933225,-0.06309848,-0.02316236,-0.00857631,0.04317492,0.00951707,-0.01938290,0.00189951,-0.18796228,-0.07407674,-0.14773883,-0.03224914,-0.02923023,0.02228202,-0.03785328,0.00216404,-0.07879968,-0.08441778,-0.05814881,-0.23644632,-0.04238130,0.02661272,-0.20956846,0.02458845,-0.02014185,0.00423451,-0.11243942,-0.01695280,0.07299643,-0.04263888,-0.02531349,-0.01485027,-0.07730265,-0.10709046,-0.04641100,0.00284888,-0.08996116,-0.09025095,0.02630561,-0.05744515,-0.04610687,0.03115960,-0.02964804,0.05886376,-0.04924326,-0.09747903,-0.12590694,0.02561857,-0.06781026,-0.07239670,-0.31681895,0.04561816,0.01744178,0.00280808,-0.09358069,-0.05892390,-0.05784284,0.09233661,-0.04564195,-0.11335110,0.05288992,-0.20600767,-0.00960746,-0.10812395,-0.01492173,-0.01077367,-0.07866263,-0.05955963,-0.00513417,-0.00490750,-0.02863819,0.01736826,0.04057940,0.02966169,-0.02910367,-0.04723036,-0.01166529,0.01311488,0.03408323,-0.07785177,0.01400672,-0.06551105,0.00719330,0.16223583,-0.14876990,0.01245895,0.03305489,-0.27107963,-0.16506892,-0.09914146,0.01421819,0.04586064,-0.06580314,-0.01726344,-0.21370968,-0.05685585,-0.05755061,-0.03255602,0.00693072,0.05053066,-0.04841882,-0.05699740,-0.04844528,0.03536258,-0.06234882,0.17404251,-0.01166447,-0.03291044,0.00986417,-0.12293307,0.01562772,-0.02192723,-0.03083932,-0.05019873,-0.04638228,-0.06927256,0.02448585,-0.03629599,-0.07433094,0.01433161,-0.00012184,0.03150339,0.02593364,-0.04899967,-0.05092449,-0.00216746,-0.43504080,0.04383501,-0.04750594,-0.09651305,0.01750553,-0.25427997,-0.08251501,-0.04417787,0.00312342,-0.04599962,-0.00354555,-0.06309553,-0.03786231,-0.00047138,-0.05871756,0.04590824,-0.03037297,-0.02471099,0.03371660,0.02330443,-0.06200569,-0.01495791,0.01853948,-0.20673254,-0.05285067,-0.01491036,-0.09892208,-0.00309283,0.02115096,-0.05132749,-0.00485082,-0.05941718,-0.04674337,0.00537953,-0.03280477,-0.02590125,-0.03291576,0.01375713,-0.00730761,-0.06694399,0.00018904,0.03519476,0.03899218,-0.10221215,0.04141202,-0.03806067,-0.06659269,0.07979637,0.00761772,-0.00741149,-0.07836352,0.00739678,-0.09487602,0.01663101,-0.14589275,-0.06194315,-0.04542559,0.01473910,-0.03904602,-0.05695176,0.11840480,-0.06610656,-0.07543658,0.01163664,-0.01578477,0.00412638,0.01196887,-0.02254977,-0.03469538,-0.30959255,-0.05656230,-0.00047935,-0.07657477,0.01193351,0.04222613,-0.07508294,-0.25810802,0.00177055,-0.07600400,-0.04988423,-0.05955497,
0.70899308,0.53010923,0.28658074,0.36608657,0.03649509,-0.28467175,-0.02994232,-0.17439638,-0.00447607,0.13434693,0.51902843,-0.00838795,0.16797930,-0.56900311,-0.00020173,-0.44670007,0.70792121,0.24153683,-0.10921966,0.32773733,0.10561538,0.14687543,-0.97158647,-0.08114532,-1.09268904,0.65788996,-0.02412911,-0.06363861,-0.61150950,-0.29203752,-0.82053083,0.32180488,-0.20267546,0.43471006,0.20296989,-0.13421537,-0.90210932,0.12987067,0.35505968,0.29336077,-0.07398119,0.48749128,0.19848303,0.45045781,0.49002877,-0.77596539,-0.55362940,0.29337564,0.14684935,-0.93943262,0.14039937,0.05796172,0.05858117,0.59240776,0.44267777,-2.04158449,-0.47196805,0.08087356,0.40424198,0.43947941,0.92824239,0.06852978,0.61640841,-0.01864931,-0.09694339,-0.62242663,-0.08350155,0.06946380,0.57903153,0.10306379,-1.03382027,-1.60915267,0.28810427,0.30121848,-0.83248585,-1.96982360,-2.72816539,0.32060698,-0.00361331,-0.12089477,0.12100664,0.11959501,-0.15950286,0.41106334,-0.15727183,0.41402242,0.79821211,-1.62175202,-0.02312798,0.04236364,-0.02789232,-0.07303905,-2.46983433,0.10967100,-0.07600028,0.26978850,-0.51337266,0.12568726,0.16309871,-0.65597194,0.04209180,-0.14739218,0.00878619,-0.27950543,-0.03100049,-0.16553004,0.05013381,-1.00301826,0.36188918,-2.23524237,0.30946967,-0.11687768,0.77232218,-0.01295156,-0.00786769,0.10714126,0.04166387,0.26983711,0.30604979,-1.65457165,0.74455661,-2.29028273,0.02248478,-2.19469309,-0.03291041,-5.31893206,-1.29462183,-0.93432719,0.13617168,-4.84853554,-0.58453912,-0.23022893,0.07454046,0.34693471,0.03159229,-1.74772441,-1.28534400,0.50032961,-2.72377777,-0.14389978,0.28678852,-0.39924598,-0.40278345,0.33634219,-1.06273317,-0.26213449,-1.82802784,-0.11767059,0.25093707,-1.00367832,0.76479203,-1.08789468,0.15743217,0.06973334,-0.33701020,0.50821823,-0.23173916,-0.50396615,0.50526983,0.48709342,0.34409523,0.31513318,-0.09276588,0.34537956,0.27404857,0.16731603,-1.13886559,-2.37792444,-0.44200993,-0.03348186,-0.30615813,-0.02057265,0.05422790,0.12210711,0.18202929,-3.09360266,0.01416161,-1.16988254,-0.87583631,0.01745925,-0.25381082,0.20661059,-0.99569601,-0.03198319,-0.32961443,-1.31352091,-0.77551073,0.12067601,0.25906575,0.08308854,0.16402243,1.65682900,-0.29343969,-0.28617710,0.13842696,0.37651077,0.22242361,0.38930985,-3.69866657,-1.39531398,0.45366058,0.30205095,0.03731794,-0.25817016,0.19947410,-0.21379191,-0.12298087,0.33340809,0.01647594,-0.00847336,0.36745185,0.06844507,0.01640110,-1.03649259,0.13607346,0.62484670,-0.35786608,-1.93889380,0.49677432,0.14252387,0.12914118,-3.35119057,0.07038935,0.18951412,0.43776941,-0.33428267,-0.99209148,-0.47773963,-0.75215703,0.64929670,0.15128258,-0.72805619,0.93816328,-0.00258738,0.14494628,0.32878017,-0.14539821,-2.12713838,0.17315544,0.12930609,-0.46531910,0.36382729,-4.97766924,-0.14110585,-0.08401130,0.16444780,0.19284968,0.40339410,-1.23515904,0.58183378,-0.00495011,-1.06632197,0.06067215,-0.02451534,-0.07463001,0.02062603,
0.02197278,-0.00615263,-0.01553466,-0.07517737,0.02159655,-0.04774116,-0.05900398,-0.05433834,-0.05084065,-0.05585732,-0.06358276,0.01853921,0.00574179,0.00150600,-0.01472663,0.04264687,0.01343821,0.03275389,0.02490590,0.01750496,-0.01535618,-0.04933624,0.02502317,-0.04868529,-0.06315381,-0.08647248,-0.06433944,0.03947853,-0.05394066,-0.03915173,0.04237835,-0.04500090,-0.06023999,0.02668097,-0.06765117,0.01826737,-0.07712464,0.00291893,-0.06762982,-0.00299896,0.03175047,0.03383368,-0.02273831,-0.06505295,-0.03435575,-0.06815936,-0.03830398,-0.06538668,-0.06087556,0.02735445,-0.04233803,0.03124983,0.01032542,-0.07011874,-0.07342370,-0.03794313,-0.03261054,-0.03016709,0.01102365,-0.08166433,0.00875158,-0.01226689,-0.05033517,-0.00287506,-0.03629262,-0.04110791,0.00178016,0.03217249,0.00214903,-0.04797907,-0.05924469,0.03765034,-0.07452565,-0.04061026,-0.01652020,0.01720054,0.00591133,-0.10261934,-0.04171676,0.02495719,-0.00624256,-0.02501858,-0.02062766,0.00878533,0.01331305,-0.03678723,-0.00827472,0.00416013,-0.07412107,-0.00926837,0.02814907,0.04947281,-0.05589546,-0.01761064,0.01981521,0.00322817,-0.06105343,-0.04483643,-0.07935073,0.01055588,-0.06157594,0.04513485,-0.03953058,-0.06119311,0.04039471,0.01625806,0.01626564,-0.03139365,-0.01717632,-0.03615398,-0.03183449,0.03167556,-0.01282251,-0.06780675,-0.02078494,0.01304055,-0.00481563,-0.05656680,-0.01629655,-0.01784046,-0.03788926,0.01588321,0.00669099,0.03176190,-0.03350247,0.01178785,-0.03144339,-0.04757001,-0.05815164,0.00198972,-0.01829304,0.04315922,0.00179917,-0.04261896,0.04530184,0.02107179,-0.11032177,0.01491461,0.04828200,-0.02688247,-0.03636574,-0.02454304,0.02742413,0.03246810,-0.05482479,-0.01712255,0.00080090,-0.00727324,0.00674168,-0.03423473,-0.05346651,0.02119881,-0.02580309,-0.06090871,-0.07649121,-0.01009842,0.02291372,-0.00980584,-0.04881600,-0.05424925,-0.02725740,-0.03658407,-0.05840028,-0.01509866,-0.07806722,-0.05053513,-0.06319337,-0.02291790,-0.01172779,-0.02770999,-0.04004436,-0.03537805,-0.03402255,-0.01382337,-0.05424571,0.02613334,-0.02230855,0.00734215,-0.03243756,0.01810441,0.01628925,-0.06339717,0.01214615,-0.00131575,-0.03366436,0.01220197,0.03663862,0.00504536,-0.07714716,-0.06318511,-0.00822520,-0.00109810,0.03731348,0.03132099,-0.03610973,0.01059931,0.00359467,-0.06012781,-0.07140385,-0.04268832,-0.02253748,-0.02352068,-0.03539574,-0.07740761,-0.01370156,-0.06910551,-0.00399898,-0.04028055,0.04889242,-0.05636466,-0.07105836,-0.00965023,0.01826712,-0.02082818,-0.02761003,0.02393262,-0.06480260,-0.01105062,0.00310698,-0.00032038,0.03558299,-0.00625392,-0.09843647,-0.07226362,-0.04357688,-0.02215127,-0.03262795,0.01902741,0.00609992,-0.00238730,0.01293193,-0.06977497,-0.08945380,-0.06760286,-0.04960203,-0.01373735,-0.04682628,-0.03392479,-0.04159363,-0.00928708,0.01003207,-0.00732070,0.00982574,-0.05755213,0.03076375,-0.01511375,-0.02322792,-0.01611210,-0.08667352,0.03497688,-0.06238998,-0.03851105,0.00018833,0.02471532,0.03364238,-0.06407936,
