// Neural Network File Format by Kyle Julian, Stanford 2016
3,14,6,64,
14,64,64,6,
0,
0,0,0,0,0,0,0,0,0,0,0,0,-3,0,
17,17,17,17,17,17,17,17,17,17,9,17,3,1,
0,0,0,0,0,0,0,0,0,0,0,0,0,0,0,
1,1,1,1,1,1,1,1,1,1,1,1,1,1,1,
-5.64102364,0.30111480,0.31389806,0.40619707,0.19041504,0.26511991,0.18821384,0.19573875,0.19788754,0.47804484,-0.55975646,0.36585265,-0.70181483,0.08722705,
0.62982470,1.20075834,0.28835452,0.41480854,0.59909904,0.64074349,0.66040933,0.69197088,0.69422013,0.63952684,-0.92772317,0.64507324,-2.58018208,-0.11707619,
-0.10161997,-0.12803452,-0.05882401,0.15952790,0.13455984,0.03786758,0.09896000,0.20114239,0.11145340,0.10309094,-6.28155565,-0.17942481,-5.21409655,0.15712357,
-0.13702740,-2.11977267,-0.38746527,-0.04550107,-0.05101790,-0.11205135,-0.31129816,-0.19615170,-0.14357682,-0.32095599,-1.34955978,-0.13348986,-6.46592283,-0.13877849,
-5.61381006,-5.24803543,0.21072735,-2.97154021,0.32408559,0.29099873,0.21618904,0.30593541,0.35665923,0.26494247,-0.60770214,0.32732770,-0.90714377,-0.04120657,
-3.03790927,-4.64703846,-3.59889770,-3.52947140,-3.56846762,-3.62969136,-3.34595537,0.09354157,0.15201697,0.05220306,0.45260936,0.08976834,0.83332968,-0.23907863,
-1.49065661,-0.43251884,-2.93546939,-3.04643154,-0.76110810,-0.00754428,-1.24452829,-1.54699731,-2.04863524,-0.09157410,-1.02874827,-0.10229791,0.59164864,-0.24650383,
0.20603369,0.21017556,0.36504412,0.18919747,0.08834392,0.21193627,0.30250072,0.21356197,0.01309962,0.54698730,0.31573313,0.23921955,0.75308537,0.10424846,
0.08043275,0.33180830,0.23600392,0.48204300,0.36849630,-4.23155069,-0.02821533,-0.64422911,-0.26122794,0.53979605,-0.81153500,0.41137072,-1.79787123,-0.08259328,
-0.66125220,-1.19975495,-1.29626131,-0.87064201,-1.41619670,-0.56491643,-1.28710949,-0.71629447,-0.68806511,-0.62977833,1.41111088,-0.68950415,1.34180140,-0.00298840,
-0.57828742,-1.56899655,-0.34949708,-1.56694591,-1.59448326,-1.75846267,-1.61979723,-1.67242491,-0.50435531,-0.40641311,0.60440570,-0.57443339,1.03002572,0.15384600,
-0.91093290,-0.99952203,-1.13762581,-0.78487897,-0.94063681,-0.98905921,-0.94460982,-0.95134652,-0.98947465,-0.95921904,1.83414185,-0.95368361,2.03154325,-0.25709507,
0.08402660,-3.51965070,-2.51131439,-4.08792305,-1.00191045,-1.64508283,0.11451367,-0.96581078,0.11157899,-0.98521620,-0.83896816,0.05885278,1.69660938,-0.16793552,
0.13435183,-1.61753035,0.14367366,0.12368746,-4.34639025,-4.33830118,0.13075656,0.18005571,0.09155668,-0.97267842,0.14686908,0.12566178,-0.04938010,0.18945441,
-0.34764120,-3.87734461,-4.02734709,-6.03564119,-3.80464005,-4.06112289,-6.41213655,-5.61440659,-7.20574856,-0.34996447,1.21618545,-0.41086391,3.73158288,0.10660332,
-1.53807545,-4.60250330,-4.42909718,-0.19345513,-0.75139523,-0.26712233,-0.26809803,-0.18867789,-0.18094261,-0.13500533,0.81253994,-0.23077551,2.72740650,-0.01292807,
-0.10031845,-0.44472361,0.05041510,-0.00143083,-0.03531531,0.03966249,-0.13006948,-0.09214643,-0.10739849,-0.24252585,0.83010805,-0.06265603,-1.90863431,0.18754289,
0.13753138,0.19469683,0.22159113,0.12456854,0.16926830,0.19728833,0.14716244,-3.76335311,0.17911266,-0.79178613,-0.00216376,0.25149730,-0.08943490,0.12761262,
0.05155620,0.14649822,0.03077975,-0.08701245,0.02710865,-0.01722072,0.00812107,0.02184722,-0.06073015,0.27704030,-6.42949152,0.07093393,-4.82987738,0.20502153,
-2.55723834,-3.90147996,-3.42115283,-3.28444719,-3.40753007,-3.12337804,-3.95955181,-4.04717445,-0.09641279,0.04514603,0.43198654,0.03170060,0.61959255,-0.13187943,
0.40605456,0.23176305,0.08389992,0.12649415,-0.00037551,0.14262366,0.26807833,0.12365752,0.06919502,-0.85102183,-1.30625665,0.19464807,2.30175900,-0.00796092,
-2.33004975,-3.00536799,-3.33428073,-3.03739238,0.05167075,-3.67569113,0.09534445,0.11141888,0.14637198,0.27856174,0.04118421,0.14975683,0.46898043,-0.21580938,
0.15526417,0.56347942,-0.01414857,0.01921418,0.25529262,0.21569879,0.47370550,0.44952214,0.25182483,0.80151844,0.73582071,0.27216452,0.28784534,-0.04546735,
0.18225351,0.20562699,0.24111453,0.17395477,0.22821628,0.06451236,-3.23636079,0.18963607,0.10167436,0.12466219,-0.03340731,0.23661156,-0.14837608,-0.20401680,
0.42080715,0.07117674,0.14838892,0.38637155,0.25459531,0.30144373,0.32018730,0.33160055,0.29350415,0.03364557,-2.70473146,0.34759137,-3.36045909,0.00671577,
0.51969427,0.47985590,-7.06338739,-2.07162547,0.57553345,0.51613432,0.30323389,0.58086675,0.45177251,0.58088148,-1.73432565,0.56939089,-3.13514614,0.19538257,
-1.57102787,-3.06751871,-3.05282354,-1.73585904,-2.57437730,-1.81774187,-0.93437290,-0.60854489,-0.71999508,-0.50992709,1.10706735,-0.51000959,3.50630617,-0.13007924,
0.40497038,0.36781210,0.25236312,0.33893993,0.16079520,0.26351976,0.24200468,0.13438341,0.27815643,-0.16497079,-0.81009263,0.13844256,1.42172992,0.06428081,
-5.61100054,-7.00051737,-5.21180153,0.32438612,0.34895414,0.38454446,0.25787416,0.33860770,0.34952724,0.53552330,-0.29518393,0.32449394,0.13108937,0.12307739,
-0.04802616,0.03392231,-0.88325304,-0.72313392,-0.72329742,-1.22198617,-0.26370347,-0.24825098,-0.66847765,-0.33559343,0.58489203,-0.41429660,1.35915506,-0.05692466,
0.53564227,0.20154794,0.44598886,0.13060731,0.11055326,0.07343750,0.20513327,0.20526551,0.04313955,0.69863278,0.63924575,0.75398660,0.36460796,-0.02478455,
0.91791964,0.66873807,0.67922527,0.55795789,0.60245150,0.66549319,0.82532257,0.92242962,0.79263574,0.82277209,-1.29895949,0.71635044,-2.61144042,0.16201314,
-1.81536102,-5.92668962,-4.81533146,-4.14012527,0.40755358,0.31501216,0.53166223,0.71229464,0.55192286,0.67930484,-0.84967101,-1.79838717,0.82259130,-0.05807240,
0.01683868,-0.25040731,-1.40893233,-1.89087939,-0.83530182,-1.31517410,-0.97535455,-1.35729861,-0.31030533,0.11939126,-1.46961093,-0.11280496,-0.58924508,0.11520094,
-1.34300470,-2.81705713,-2.67114472,-2.45971274,-3.49826598,-2.44526911,-2.26706195,-1.39008832,-1.12486494,-0.42370635,0.14906031,-0.73267984,2.54929209,0.17396805,
0.17047313,-4.77783871,-4.11585474,-4.83876753,-2.93982124,-3.84667635,-1.10429645,-0.60886556,0.16892633,0.41918308,-1.25594127,0.01220099,-0.44342279,0.03912598,
0.00166591,0.23743202,0.20515525,0.66098052,0.38212222,0.86233735,0.65951985,0.75954461,0.64050120,0.74041218,-1.10513914,0.72260380,-2.47599006,-0.08012739,
0.23822403,0.99027807,0.79571092,0.66684598,0.73954934,0.52335775,0.54777497,0.51975781,0.42165828,0.43026862,-0.66564208,0.37795070,-1.71720302,0.10286421,
0.01161436,0.11815859,0.06958095,0.05291521,-0.01257347,0.03874477,0.03130279,0.16674583,0.10607647,-1.10283887,0.40539384,0.05988532,0.14059913,-0.23065102,
0.34160769,0.12971322,0.21368027,0.34743515,0.35497811,0.27758294,0.22999586,0.26458651,0.32856590,0.43959412,-0.69720590,0.29415697,0.36652815,-0.08082454,
0.42288351,0.65212256,0.44715703,0.47750756,-5.91466141,0.55094874,0.58305460,0.91726178,0.96228993,0.81581372,-1.98564386,0.62088418,-0.56447738,-0.03537081,
0.41241774,0.05292479,0.21469148,0.27057812,0.22240631,0.24520651,0.34411648,0.30949175,0.29832312,0.30874357,-0.62811464,0.33086136,-4.41150475,-0.12010817,
0.04430963,-0.22842091,0.00321467,0.06055495,-0.08353584,-0.09310887,0.03340103,0.03693465,0.05437518,-0.01780842,-6.75087166,0.06582747,-6.83376169,0.03880224,
-4.83822823,-5.54494524,-4.75167942,-4.49650049,-4.42793751,0.00318241,0.17465085,0.12899472,0.10622749,0.32304013,0.37930259,0.14559570,0.47246712,-0.15742067,
0.20751804,0.06092950,0.22297822,0.52574778,0.57908714,0.31084010,-0.06708368,-0.05135906,0.52078927,0.74491489,0.38987997,0.51603246,0.01563209,0.12689281,
1.22119474,0.17154241,0.63800061,0.64136362,0.78883541,0.73905587,0.75858355,0.72362959,0.73545480,0.70097125,-1.07483041,0.70618784,-2.54298329,0.06772205,
-7.23913956,-5.79343557,-4.66909933,-2.61432409,0.27053389,0.18762471,0.25737935,0.24522015,0.24025469,0.28122574,-0.62966251,0.26547331,-3.53292370,0.25423363,
0.21395943,0.54940033,0.03834585,0.34427270,0.17721042,-0.65259504,0.11623249,0.18000227,0.16455445,0.52173358,-1.20318627,0.34953970,1.41662037,0.19554958,
-0.11666431,0.02988042,0.00190562,0.17685646,0.09298840,0.19105050,0.74880940,0.54568255,0.41729721,0.22642499,0.04848929,-0.04850398,0.40515178,-0.10884453,
0.04564183,-2.34135628,-1.03599894,-1.60827315,-1.71304166,-0.59901309,-2.49769711,-2.07166290,0.04321958,-1.31408274,-1.19809127,-0.38820934,-0.00401300,0.11309236,
0.23247874,0.28555965,-0.33061126,-4.38328743,-1.55498207,-2.53469539,-0.80371141,-0.06116544,-0.03586654,-0.25276247,-1.02392936,0.35581276,-1.07005131,-0.11545138,
-0.12099668,0.17376845,0.05743098,-0.14644760,-0.08035866,0.05330877,-0.00397341,-0.11344998,-0.05126914,0.31469685,-4.18180752,0.17988838,-4.50413513,-0.26612708,
0.63954073,0.75675082,0.78415012,0.79268509,0.68506628,0.90838623,0.72788382,0.79090738,0.75289935,0.25827888,0.21696395,0.59541517,0.60443741,-0.21411318,
0.00545007,-0.33762419,-2.80643988,-3.19827247,-3.48112130,-1.73352337,-1.76195729,-0.77922881,-0.96176934,-0.34639898,-0.57146758,-0.03476857,-0.51748133,-0.23860283,
0.12138324,0.08424032,0.54873508,0.51933533,-0.02272100,0.13595814,0.00012374,0.06762660,0.26030245,-0.05360061,0.25709045,0.02013863,-0.03213886,0.25942913,
0.06406661,-0.08054673,0.05100235,0.04607166,0.42155954,0.53676987,0.00983953,0.19726658,0.25277433,0.01168565,0.46144941,-0.03308493,0.99939847,0.10287309,
0.28043956,0.32854337,-4.14152193,-5.30034542,0.40430418,-3.33867931,0.43214464,0.36148608,0.40616527,-0.04215818,-2.04275274,0.37714395,-2.06400895,-0.17005071,
0.31114820,0.26799411,0.38296092,-2.12538242,-0.15521123,0.26803458,0.27824068,0.11662246,-2.09787393,0.20999098,-0.84974504,0.36598346,-0.80549014,-0.03859341,
-4.69342756,-4.76597548,0.16896631,0.30606756,0.06455363,0.18311027,0.09204637,0.01176072,-2.70693231,0.27428061,0.00173335,0.24263240,-0.03118201,-0.08452146,
-1.88850749,-3.47112513,-3.49460649,-3.65748572,-0.32075429,-1.44728732,-0.56789428,-1.54545057,-0.45371374,-0.22753425,-0.04276209,-0.31750828,2.32364750,0.10866669,
-0.66989404,-0.81736177,-0.62777829,-0.70145714,-0.66366500,-1.02505493,-0.87067693,-0.72333831,-0.68624425,-0.68992746,1.54060853,-0.66354656,1.40651238,-0.00159186,
-0.59709352,-1.03990269,-1.04313016,-3.76084018,-0.70219988,0.23361045,0.05511214,-0.51810831,-0.05399963,0.37401426,-0.37867224,-0.95191377,-0.43341896,0.24202737,
-1.37252223,-0.54108292,0.36099079,0.56270140,0.36889604,0.53143907,0.70374501,0.71267003,0.60158563,0.21801600,-1.23444760,-2.18102956,-0.50071168,0.01594174,
-0.87763590,-1.19781685,-1.04692578,-1.67990947,-1.15602779,-0.85973889,-0.82785189,-1.97870457,-1.67473423,-0.43895477,1.02796698,-0.44268751,0.67868209,0.16539770,
0.85448700,
-0.12812257,
-1.26322985,
2.22266412,
0.21792510,
-0.78572607,
-0.55650127,
0.02745133,
0.00906165,
-0.76225358,
-1.17918658,
-0.67528957,
-0.22322246,
-0.62314814,
-1.44621122,
-0.81369805,
-0.06828833,
-0.77335316,
1.72678971,
-0.94695699,
-0.52470690,
-0.08644610,
0.44316325,
-0.39031106,
1.83283997,
-1.28317058,
-0.54846483,
-0.22034550,
0.48691675,
-2.04501677,
0.69539851,
0.05583012,
-4.63435364,
-0.91335809,
-1.10635686,
-3.16522932,
-0.36422345,
0.18633237,
-1.50654769,
0.57046568,
-2.28044343,
0.38904595,
-1.22006214,
-0.12362655,
0.55705267,
0.10045786,
-1.24184799,
-1.01378846,
-0.58124530,
-0.83855075,
-2.49372149,
-3.05919528,
0.68768120,
-0.69338208,
-0.78676051,
-0.12990402,
-2.24714589,
-3.11792564,
-0.79492933,
-1.55337858,
-1.28444600,
-2.21677399,
-2.38997865,
-1.10371482,
-1.09573853,-0.07974430,-2.35944843,2.66463375,-1.15250480,-0.59006691,0.22787268,0.08559182,-0.34374219,-1.71169531,-0.42228451,0.50914216,-0.26837206,-0.32175294,-1.18797362,0.34925210,0.20586857,-0.63062221,-1.89015198,0.40708452,-0.06907064,0.25872624,-0.22844329,-0.51267117,0.66439557,-0.48700830,1.99434841,0.42395708,-1.32951927,1.13320410,-0.51602811,0.16713493,-0.45292398,-0.05230143,2.08387327,0.72708875,-0.25392830,-0.21433066,-0.25433215,0.01340176,-0.34233910,1.39571214,-2.50627518,-1.82665062,0.06534426,-0.40232137,0.56133944,-0.27619648,0.78985280,-0.19894476,-0.60361660,-2.08781052,0.23108341,0.62156117,0.80793399,1.06044161,-0.20665599,-0.71947670,-0.62745380,2.70743179,0.98150045,-3.18741012,-0.34696543,-1.14682102,
0.49128613,-7.12737417,0.07335361,-0.20325895,0.06130480,0.81518036,-0.10546490,0.53085697,-7.76071548,1.27384257,0.75379139,2.93534970,-0.47593316,0.69031447,-1.15859544,0.71172601,-1.87908936,0.20397316,-0.12449716,-0.80718654,2.16596007,0.96903652,0.45955116,0.52232605,-0.12878054,-3.68651700,2.50907540,1.27852201,0.68667412,0.54540110,0.09323577,-10.82634735,-3.79693794,0.37402400,1.76245320,-3.48348737,-3.13063192,-3.51931429,-1.16126394,0.52924746,-5.52789974,-0.50847089,-0.14313176,0.07343415,0.20199771,-4.06771183,-0.16640869,-0.08708593,-0.00145575,-0.72613627,0.10238655,0.05697073,0.50820726,-0.24936330,-0.88535029,0.36560586,0.04405168,-2.75280929,0.74924457,1.10271525,1.45514715,0.32478788,-2.54382110,0.75949746,
-1.42143643,-0.51178217,-1.04197001,0.97557330,-2.53841686,-5.18678522,-1.90072870,0.83179772,-0.52641976,-2.28302717,-2.82871485,-2.68532610,-1.59018958,-0.30372888,-2.47518849,0.67622966,-0.84329033,0.08768918,6.39419699,1.41286755,0.52829373,0.65148801,0.59048069,-0.37996474,0.19501586,-0.30902833,-5.18637896,0.25780600,-2.16819525,-8.19864178,0.86527783,-0.77065390,0.48308134,0.42437440,-1.27146947,-2.14814305,0.24083713,-0.35220426,1.63875914,0.56998813,0.21427080,-1.95770586,1.44487166,-5.86435604,0.72749943,-0.10138653,-0.84598827,0.77749950,0.14956585,-0.01940399,-0.12226341,0.79549062,0.07267556,0.06234147,-0.19562846,0.86981469,-0.69548875,0.50993317,0.25542042,-3.25345731,-2.30561805,0.30027214,0.65835780,-1.60024238,
0.23238067,0.16484290,-2.17868161,-0.52944249,0.07965218,-0.89996725,-1.44564307,0.15385069,-0.69372004,-10.85670757,-9.52223587,0.81521803,-2.88601422,-0.58142388,-20.26715851,0.49360847,0.97375315,0.17186725,6.97705364,-3.12444162,0.25552347,-0.18183082,0.70807499,0.00679691,-0.84806627,0.35866359,0.75467610,0.42249578,-0.38155800,-2.12130070,-0.01784469,0.50425142,0.47797227,0.49394822,-10.40660763,-4.56280899,0.38782781,0.28020734,0.72010064,0.43373013,-0.61185801,-0.41412735,-0.26600930,-0.49373350,0.34308299,0.32946709,-0.16072698,-0.37435508,0.20772724,0.12464008,0.03358557,-0.58909684,-0.08475021,0.24603184,0.42777994,0.21296312,-0.93571591,0.43425307,-1.43409634,0.84399372,-5.78661203,0.89721709,0.12074655,1.95114458,
0.25433522,-0.26996905,2.95015001,1.25359964,-0.67228740,1.58170462,1.23265123,0.31164676,-0.57030588,-1.30393004,-0.37231648,0.77331841,1.80799246,0.17733578,1.65271115,-0.53151089,-0.07656158,-2.14898920,-2.99926686,-0.07371651,-3.93341494,0.04876841,0.52165908,0.17574666,0.63236606,-1.87112546,3.53829932,-3.30620050,0.56339449,-1.13368368,0.08659872,-0.82739437,0.14596397,0.53796035,1.74732065,-4.43360519,-0.94333428,0.04286882,0.35273820,-0.11912052,-0.07831563,-1.76625252,4.46416140,1.03667533,0.26357239,-1.03078139,0.93261409,-2.77479362,0.53714168,0.08824196,0.90464997,1.59065700,-0.49646273,-1.33068049,0.65297574,0.43160552,-3.55461669,-1.11003733,-0.14660871,0.58248061,-1.37143064,2.42688489,-0.00144111,-2.28742361,
-0.60228926,-0.12656884,-3.96396875,0.71317154,-0.54782504,-1.11973894,-0.19883218,0.22459081,0.11505491,2.16509914,-1.18945432,2.32681894,1.28103447,-1.06816638,1.82925928,0.69463426,0.59324193,-0.34984985,6.07365513,0.09082571,1.00847161,-0.42399925,0.21725567,-0.54217905,1.10077298,-0.73149467,-2.04808402,0.34784010,-0.24383196,1.57277727,0.29115719,-0.01981399,0.54257160,0.32808548,-1.79395092,0.99990153,-0.18282627,0.34995490,0.13112701,0.01805503,-0.18597551,-0.44284716,-9.89292908,0.01761659,0.35543215,-0.18063243,-0.07432071,0.68770671,-0.12571374,0.11657768,0.60617411,-3.97643089,0.26753753,0.65105999,0.41688648,0.14839238,0.75297362,-0.87069374,0.36849806,-0.70600307,3.26107812,-0.29192337,-0.13566679,1.03791726,
0.71082532,0.22014976,-1.04665041,1.01054561,-1.96884942,-2.37059665,0.37193683,0.17742018,0.19134764,1.36915827,1.51959765,2.76385260,-2.18257308,-0.81623501,-0.26801729,2.58811522,-0.53442228,-0.08534559,-1.08447456,-2.69510555,0.05917574,-0.67652351,-0.14261936,-0.24532863,0.74760014,0.57530338,2.14048028,0.28958169,-2.26547980,2.42499399,0.48426503,-0.65205896,1.39497733,1.10365951,1.46669424,-1.00738561,-0.33371407,-0.26626772,0.88650542,0.51613075,0.25323251,0.34003758,-1.70010912,-2.49769497,0.18024305,-0.73336309,-0.49811089,-0.10303068,0.51737249,-0.16061349,1.18700647,-1.40039420,0.50468493,0.71221393,-0.38294002,0.32587910,0.86167592,1.32228982,-0.35228109,1.81844950,1.23501086,0.88209862,-0.20385537,0.31784156,
0.06088944,0.03734345,-0.05491676,-0.00147016,-0.11528890,-0.11014419,-0.12814321,-0.12213278,-0.12385489,-0.10774490,-0.02600148,0.06913666,0.04333840,-0.00961540,0.06812008,-0.07739501,-0.09183455,-0.01875819,0.02924855,-0.03225784,-0.13598523,-0.04225416,-0.06920826,-0.11324777,-0.10786580,0.01812894,0.02881618,-0.10895818,-0.02470111,0.00052891,-0.09672013,-0.00907686,0.04192033,-0.11119461,-0.06283485,-0.05610361,0.05739109,-0.00307799,0.03127918,-0.05003045,-0.11429335,-0.15770595,0.06085246,-0.10892186,-0.01218559,-0.00322419,-0.12025452,-0.12310323,-0.02333780,-0.08695892,-0.07126980,0.00134629,0.00811656,-0.09752367,-0.12227431,-0.12236597,-0.04322587,0.00839382,-0.02326756,0.08583502,-0.06596075,-0.00983125,0.04879182,-0.12325757,
-0.16303033,-3.08536577,0.20419210,0.68063599,0.35675097,0.36766696,0.47715271,-0.01741399,-1.12994230,3.40960050,2.37223291,-0.54438466,1.06442463,0.32235911,2.46045423,0.80696851,0.70774001,-0.56946367,0.07415803,-0.88182414,-0.23436417,-0.07922239,0.23398228,-0.19644152,0.52696085,-1.38902855,2.69727826,-0.07745331,0.09885082,2.77326632,0.09453085,-6.06427383,-1.17282152,0.11239500,1.00469065,1.70623946,-2.89900661,-1.11927247,-0.07754026,-0.74369884,0.42288229,0.98825651,0.03932496,0.39311659,-0.18719906,-3.06299639,0.50040609,0.77489674,0.89584744,-0.45492887,0.20212604,0.05141186,-0.53776091,-0.76908439,0.05623377,0.32300824,0.49560714,-0.40026063,0.58551717,1.75507247,3.91738725,-0.01316185,-0.35635135,1.54749513,
0.36055163,0.66647947,-0.75982481,1.56425929,-0.34569791,-0.14190696,-1.49776793,-2.19355083,0.40363556,0.12173134,-0.06066969,0.12690482,-1.79683304,-1.85427880,-0.51070219,-0.38052961,0.06398500,-0.14245385,-5.48480797,0.37243211,-2.92334461,-0.86838800,-1.01537490,-0.33781824,2.29718614,0.15144201,-0.12247893,-1.01813054,-0.57340413,-0.11918999,-2.30657649,0.43070847,0.17886084,-0.88090408,-0.32368970,-0.34674698,0.02121688,0.19754489,-2.92620516,-1.03907359,0.39206105,1.25077009,-3.15063214,0.02508016,-1.74017513,0.31645733,0.58736324,-2.67268229,-1.77742434,-1.49499428,-0.19182205,-0.92777932,-0.70629901,-1.13369656,-0.54275423,-2.61268044,-0.21819471,-0.44595155,0.22594935,-0.09249289,-0.09259732,-0.56923759,0.13897265,-0.00364742,
0.02332103,-0.50509858,-0.02352696,2.13954568,0.51061690,-1.00142276,-0.78439599,0.57015032,-1.93294811,-4.39855766,-0.84056824,0.09629852,-4.33033800,0.14104988,0.63730657,1.63375974,0.78556675,2.11786199,-0.09463537,-0.21584810,0.04257140,-1.22567081,0.40683612,1.00696611,-1.80576265,-9.73602581,-1.10320365,0.41273531,0.56417602,-3.09619737,0.08674517,-1.81780481,-0.35785657,0.01531392,0.66314054,-6.61720181,-1.90930390,-1.88687098,0.62226212,-0.01194396,-10.27211094,1.03374159,0.22050683,1.13660264,-0.05176412,-1.56226027,6.31969976,-2.85168934,0.43054116,-3.24017477,-1.04094124,0.26855779,-0.40031299,-3.90966010,0.87124360,0.83400607,-1.50726819,-2.59528708,0.39712557,1.04178369,-2.73856187,1.51515925,-1.38493979,-2.67947149,
-0.36240038,-0.25240606,-0.47449830,1.09502351,-0.35825524,0.29438409,0.54011559,-0.81437272,-0.46852860,1.30539370,-1.03752887,1.31132138,-1.71423733,-0.07655969,1.15880263,-3.87194347,-0.88987416,-0.23022601,1.41882932,2.29568028,-0.79574436,-0.36025876,-0.65227383,-1.18260312,-0.72242212,-0.05154731,-1.95360231,-0.51698714,0.29545408,-0.11630838,-0.93050152,-0.54856139,-0.24911678,-0.09167082,-0.66215605,3.76906991,-0.44101417,-0.03701125,-1.48359275,-0.34931722,-0.80936706,-0.36246964,1.47518742,0.00094503,-0.76036167,-0.67269033,1.80473554,-0.58725983,-0.77101976,-0.31777707,-1.01235271,0.69444740,-0.51880270,-0.29546794,-1.57358479,-1.42722476,-0.84339625,-2.54762340,-0.09762198,-2.27648950,0.15913010,-0.34544230,-0.11769968,-0.31450528,
0.29935861,-0.01346468,-0.88094079,-0.49021730,0.30363870,1.12759817,-0.15691297,-0.07040517,-2.37075782,-7.37239408,-0.33239540,-30.10280800,-9.26243019,0.05194421,0.59580046,-0.19120945,0.69171637,-0.09482356,1.12084603,1.17978525,-0.21944067,0.43978605,-0.13807863,0.14071822,-6.64919186,0.98868161,-1.44208455,0.10582341,-0.14313588,-8.08018017,-0.15406516,-0.00505732,-1.02830088,0.35434672,-0.68040854,-4.15206385,0.36917567,0.34954953,-0.19380505,0.04484119,-1.51738060,-1.54928899,1.10352015,0.06630982,-0.14566140,0.16552822,0.77804136,-1.26653874,-0.26240769,-0.69320297,-1.11805117,0.41574284,-0.97679472,-3.33238840,-0.02587197,0.12295935,-4.17997026,-2.41461253,-0.25733045,-1.52661216,-6.97928095,-0.59829700,-0.39438266,-4.05006742,
0.20298357,0.03936252,0.52389985,-0.61528534,0.16231146,0.07258438,-0.61958671,0.62624139,0.05177104,-8.84945488,-0.81477129,-21.68462753,-0.56656998,0.32863435,-0.02279004,-0.33872560,-0.05113513,0.27041423,-3.50177836,0.31456256,-0.01031199,0.34021705,0.71683133,0.30436561,-0.11703986,-0.09647530,-1.62622464,0.17144550,0.16384226,-7.70441532,1.06065714,0.19504131,0.25009137,-0.38807511,-1.38995862,-0.86261845,0.18593867,0.39199105,0.04867713,0.31335780,0.04544668,-0.39047527,-7.10102320,0.23161696,0.81691682,0.55932498,-0.35824427,-0.12169114,0.27867106,-0.71017712,-0.26632518,-1.94790423,1.00656819,0.03649554,0.23668635,0.28903896,-0.10060783,0.12243520,0.14031044,-1.12510383,-9.39083958,0.58212292,0.35200387,-3.70789647,
-0.12306246,-0.13119537,0.03369980,-0.03987399,-0.14892863,-0.09896252,0.04167815,-0.14563000,-0.09946880,0.03694586,0.02272909,-0.07597640,-0.09280084,-0.07223900,0.04501766,0.03588758,-0.05298223,0.04414870,0.00497146,-0.06191593,-0.16476543,-0.05828978,-0.16929108,0.00508407,0.05184442,-0.13280404,-0.13172396,-0.08535414,0.08344843,-0.06004130,-0.06622148,0.01266795,0.00307913,-0.07572721,-0.08656440,-0.12146953,-0.01181466,-0.07084069,-0.04152369,-0.09803271,-0.11854604,0.05157039,0.01970111,0.03706282,-0.17742541,-0.00215572,-0.01161659,0.06709094,-0.12277055,-0.08611222,0.07665214,0.08587706,0.04010830,-0.08598220,0.03726736,0.03089575,-0.05827698,-0.08953352,0.06120180,-0.04402116,-0.13019690,-0.02570074,-0.08409005,0.10009590,
0.73849797,0.41016558,3.99327374,0.99460179,0.27002862,0.44924569,-0.27364409,-1.28396523,0.77393544,0.46316525,-0.74771869,0.81561637,-2.42542148,-1.51705110,1.19316471,-0.66187006,-0.41149697,0.15086038,-0.91066307,0.34173536,-2.16928220,-0.10700965,-0.91092998,-0.02519445,2.04260850,0.21025555,1.01364446,-1.90068531,-0.82018042,-1.86156869,-1.78226483,0.67748350,0.30164045,-0.42720196,1.37461913,1.21006286,-0.29450434,0.59388155,-3.31008220,-0.89711696,0.34544900,0.97158450,6.41562462,-0.26826662,-1.56545770,0.25764745,0.23931755,-1.81920350,-2.00582099,-1.07449663,-0.06010570,2.98282957,-0.77440983,-1.13685942,-0.97919649,-2.48658395,0.02154742,-0.05912198,-0.63974643,0.56065470,-0.45480528,0.28001091,0.25107190,-1.56758463,
-0.00411092,-0.13311566,1.12299049,-0.52349186,0.03109038,-0.16960850,-0.49332350,0.44378597,-0.12759580,2.02371049,0.76757181,-1.35033023,-0.01312689,0.01744980,0.77458823,-0.00664756,0.12774192,-0.06330781,-0.77311450,-0.15545678,-0.16773251,-0.00272998,0.61643314,0.12882686,-0.23303485,-0.66966760,-0.55038267,0.09033579,0.21475697,0.79588360,0.79138720,0.01213651,-0.28066558,-0.69191033,-0.50918245,-0.47688672,-0.17377767,0.24445152,-0.03747154,-0.04499641,-0.03913462,-0.25701505,-4.54156065,0.05123185,0.63756174,0.28501830,0.04068702,0.05607977,0.45166603,-0.94949996,-0.79065663,-1.17838502,0.67411923,-0.37665263,0.01005180,-0.00688065,0.01657647,-0.16554104,0.24083301,-0.61742002,1.89306891,-0.08994340,-0.15332928,1.36561680,
-1.72946775,-0.43667570,-1.06600940,3.84041667,-0.19103515,-1.04449785,1.40767789,0.15051225,0.04253467,2.58732843,-1.12116492,3.01251101,3.35934353,-0.08908585,-1.85358655,-0.20009355,-0.73291099,0.17458123,4.63394308,5.24873161,0.41195196,1.65827763,-1.10072112,0.21999650,1.30039823,-0.55184847,1.63037443,-0.16312121,1.28707695,0.66727567,0.10511731,-0.31700161,-0.36529109,0.46135029,-3.63106585,3.34935713,-0.14262253,-0.27546045,-1.25328481,0.74803579,0.14272405,0.47867358,-1.48609018,-1.32952619,-0.26442719,-0.29711518,0.68166906,-0.06649402,-0.11339249,0.38493818,-0.51801473,-0.26079172,-0.31374171,-0.58696878,-0.71478766,-0.43895301,1.27372813,-0.77321529,0.25887468,-1.62703538,1.85134721,0.50913900,-0.33838683,1.99326384,
0.33868924,-0.04327228,-6.79717541,-2.33503580,0.41205239,0.54935127,-0.37575936,0.33872357,-0.46801651,0.29340020,0.98680180,2.84227061,-2.07721710,0.33183682,-0.32233596,1.09252965,0.14257540,0.27805310,-7.09666300,-0.28919479,0.29203990,0.22474845,0.33983147,0.58896375,-1.10268700,0.84300661,4.43657875,0.40369099,0.33313397,1.66817689,0.18003863,0.50275552,0.79271567,0.83171922,3.50671887,-2.03866529,0.75218624,0.36255258,0.52241659,0.80609453,0.20348354,-0.75522709,-16.42661858,-0.40914589,0.40693140,0.17395978,-4.49323416,0.14987035,0.02984085,-0.00367688,0.33725518,-15.52510357,0.14930178,-0.32660639,0.27951509,0.13962063,-0.11458150,0.07293630,-0.09773881,3.19531727,1.51095247,-1.14396465,0.63278210,-0.59829026,
0.09388323,0.16744585,0.74273062,1.60166609,0.17879631,0.47728950,-0.47482073,0.26591265,0.47392169,2.41909266,0.52083206,2.75068212,-0.32027054,0.70324308,1.95185840,-0.75797588,0.19502859,0.78933507,5.08111382,0.79035509,-0.17784499,0.56711286,0.32875288,0.42263657,-0.52008533,0.02508908,0.60275710,0.31559989,0.25017107,2.53049040,0.56266028,0.77445453,-0.07244425,0.85242039,-1.05054796,-1.56866431,0.51878464,0.55592883,-0.36561355,0.15291239,0.32944843,0.73319644,-2.23197722,0.56590897,0.58621472,0.26340452,2.46672750,0.17920581,-0.18912606,1.04863477,0.53451401,-0.04558163,0.59871346,1.20832813,-0.04712171,0.03458614,0.49383521,0.99035698,0.12300767,-1.42670488,2.79677081,-0.97097182,-0.01644548,1.44614136,
0.25983554,0.51272225,1.96088338,-3.95267200,0.88867241,1.93924451,-0.20072225,-0.32592586,-0.05988248,-1.98235691,0.36070931,-0.32022473,-1.24008274,1.81557369,-6.95712709,-1.37285137,-1.39242232,-0.15187915,-2.47523570,2.20181441,-0.21297927,0.50439560,-0.85106081,-0.26280406,1.05799961,0.28422466,4.84530449,-0.34372544,-0.68868834,-0.04209702,-0.20703718,0.25125590,-1.48181093,0.56030488,1.27815127,0.31673118,0.67412579,0.36708182,-1.33322370,0.37414968,0.04579269,-0.08711522,4.26170015,1.77037489,-0.21934393,0.38644588,3.74029136,0.00242456,0.01957878,1.04325497,0.36582956,2.88642454,-0.29981884,0.62262797,-1.04533803,-0.35702810,-0.69335449,1.69418001,-0.82932365,0.41542703,-4.45421124,-0.78511626,-0.50049448,-1.88229561,
0.10908227,0.36191159,-0.11798822,1.04093552,0.66975510,0.61577666,-0.37343821,0.01164224,0.12207148,-11.89247322,-2.42451906,-33.68176651,-0.93743539,0.24149068,0.63027757,-0.32250899,0.73831475,0.02437689,3.04893875,0.81974912,-0.32781175,0.53511804,0.14635229,-0.00019528,0.45152226,0.06284846,-1.75527251,-0.02544619,0.35211018,-11.14115143,0.26335767,0.49624789,0.14341362,-0.74398655,-1.52412534,-0.06489777,0.48713499,0.37436226,-0.07593311,-0.06508251,-0.27458820,-0.54449266,1.24730670,0.81961536,0.20284134,0.70602649,0.55810535,-0.24992247,0.11105804,-1.08221519,-0.19861603,-0.09935492,0.11969467,-0.67276543,0.33956701,0.00336398,-0.10378123,-0.17457470,0.21688887,-2.20413303,-11.48019600,-0.32903114,0.01981024,-6.63006115,
0.17076012,0.32681599,0.37383404,-0.64603424,0.14974348,0.25442898,-0.67215681,0.63615412,-0.01133746,-8.97586632,-0.78294557,-22.55060577,-0.29923549,0.21959539,0.06531360,-0.42274877,-0.02239494,0.23170464,-3.05454588,0.32647303,0.04764680,0.27487352,0.74783611,0.30304956,0.05282861,-0.22267708,-1.83926117,0.13356523,0.23895821,-8.15545177,0.85991031,0.13394161,0.20271431,-0.57220781,-1.54197896,-0.56119722,0.02366640,0.43642855,0.09477536,0.30362475,0.03142222,-0.66513252,-6.66441727,0.19519201,0.95669949,0.39713734,-0.58445889,0.02096069,0.33255705,-0.81155747,-0.39206561,-2.29653215,1.00360048,-0.11378624,0.20609376,0.34226373,-0.07259197,-0.03234774,0.32950810,-1.18006468,-9.56647778,0.58080399,0.30600682,-3.73295522,
0.01415017,0.03201463,-0.30706149,1.57693899,-0.80871135,-0.60022134,1.65948069,0.19394638,0.45686921,0.07252207,0.41792834,0.59975213,4.46014214,-0.38867912,1.31530595,0.07946682,0.51144010,-0.81615937,-3.45597506,0.63054818,1.23070085,0.57039624,0.17707630,-1.16833162,-0.15658653,1.71560705,2.21594644,0.58166963,-0.62537408,1.28878331,0.19182836,-0.39218211,1.62166154,0.08827402,1.76268125,3.38492322,-0.52866369,0.17902936,0.29073176,-0.04208373,0.18632238,1.72897565,2.75409818,-0.33419570,0.24354401,-0.54278529,-1.17928171,1.55651259,-0.06987722,1.39468431,0.60146606,1.10585630,-0.47524303,0.33333075,-0.61121029,0.14493893,0.76198792,2.02888846,-0.43985084,2.43590403,0.40857667,1.60710526,0.62777793,-1.03273523,
-0.65375394,0.01553550,1.14476287,1.11507320,0.87799430,1.00094843,0.36851633,-0.07943393,-0.24772140,0.26513019,0.69520628,1.45820189,0.87930733,0.48335180,-0.17073634,-0.43150914,0.42387876,0.55296761,-0.52206725,0.19934224,0.50311863,0.19119753,-0.16031830,0.22153099,-0.43043071,-0.99250370,1.12705529,0.30848160,-1.33898818,0.95188856,-0.16711503,0.25384718,-0.54855275,-0.81809866,1.95774150,0.21252950,-0.25735119,0.06243895,-1.23437476,0.46487582,0.41779265,0.15777434,3.32196999,-0.39432219,-0.38865727,-0.23692410,-2.69682765,1.34954190,0.22309506,0.29333770,0.03320833,1.73070717,-0.29392359,1.11431217,0.33410895,0.37657705,0.21737450,0.43872848,0.64875060,1.49188697,0.58612782,-0.25759143,0.04394887,-1.58886421,
0.51525414,-0.18537502,0.73123330,-0.84566575,-0.11775298,-1.58538854,0.74981374,0.04435436,0.14713228,1.67402256,0.80416566,5.04112053,1.29127336,0.97452778,-1.49442708,-1.08985198,0.46798429,-0.01711267,0.03711415,-0.30523792,0.00306282,-1.53211594,-0.16526634,0.84356815,-1.18071878,-0.18146731,1.51834404,0.33865660,0.07312347,3.17034674,0.01700093,-0.01179319,-0.58518517,-0.41628617,1.27678573,0.79974055,0.12838364,-0.31060737,-0.85417080,0.23664941,0.60185468,0.41529867,2.12981319,-0.89854676,0.16781761,0.19513698,-0.78968161,-0.18865670,0.80283308,1.11716282,0.34016925,1.63137877,-0.45730528,-0.56931031,0.17654364,-1.17164338,0.84889424,0.91376430,-0.34488168,2.72527528,3.04043889,-0.17882355,-0.01306129,0.76336336,
-0.03677631,-6.66344261,-0.73256141,0.04951749,-0.02406573,-0.57380891,2.24398088,-0.01457938,-1.51516521,4.05010128,0.37220290,6.69305801,-0.20419779,-0.49215668,-0.01037367,0.19238080,0.62930167,-0.39142877,-0.91695684,-1.11977518,-1.43990350,0.14114144,-0.01754503,-0.28523842,0.54756534,0.95639831,1.11619556,-0.85188168,0.40686306,1.29789460,-0.25077137,-5.20155954,-0.65320098,-0.23137656,0.93577802,2.26067781,-6.21649790,-2.10537195,0.07675220,-0.37644094,-0.37106863,-0.19074827,0.92392033,0.03894941,-0.42166898,-6.68067932,0.14817595,-0.81946045,0.55176568,2.20779443,-0.48424044,-0.18013933,-0.97831535,0.28893855,-0.20484459,0.51682645,0.52951193,0.70489126,0.26270634,0.34556198,3.18666339,0.11976487,0.23706962,0.35271180,
-0.27258202,-0.15365784,2.20487905,1.38243735,-0.29909497,0.56110668,0.00087844,-0.05006730,-0.23100214,3.37172246,0.72051913,1.56900299,1.35656071,0.22260445,0.77585083,-0.25248656,-0.58414185,0.30704218,2.08667231,0.15501916,-1.30311763,-0.11179212,0.09474915,-0.24726158,-0.02082087,-0.95622629,2.02159500,-0.07567717,-0.10750332,2.10368633,0.13219897,-0.26647615,-1.24606967,-1.26624024,0.38478100,-0.82007790,-0.29936031,-0.49295419,-0.02222760,0.01373707,-0.82691514,0.44968361,3.02180624,0.18009368,0.14839581,-0.82312477,-0.88253045,-0.30152366,0.02081423,0.27652776,-0.68289429,2.41793346,-0.00691452,-1.20189559,-0.32607162,-0.08899269,-0.51083386,-0.92435318,-1.02805758,0.36027810,2.38891506,-0.95131332,1.00031185,0.50206912,
-0.66789198,-0.36124897,0.32501704,-0.83443749,-0.85088927,-2.44219947,-1.02693200,0.82391816,-0.15549661,-0.98539788,-0.65531099,1.69278407,-0.04032755,-0.71130651,0.19759357,2.11675692,0.61307377,-0.13133965,-4.56206703,-4.12701082,0.30584919,-1.34233475,1.14230990,0.26378390,-0.10413235,-0.44701383,-0.78095776,0.44896606,-1.79752433,-1.72474909,0.76428497,-0.76428831,0.10795732,0.60549140,-0.86447006,-0.76074082,-0.41153473,-0.65482420,0.42459124,-0.02411851,0.18113266,0.90699011,1.58137786,-2.83551168,0.80774921,-1.02094686,-0.67572272,-0.08863196,0.53315657,-0.33924627,-0.85108149,0.29734489,-0.06229237,-0.44140908,0.68482935,1.10426688,0.10745312,0.02063316,-0.24561311,0.72666222,-3.46904898,-1.04704809,-0.06051804,-0.11004270,
-0.13317162,-0.01715026,-2.68372750,0.27337235,0.06327775,-0.24847357,-0.03334486,0.02108699,0.09660304,-1.10258079,-0.80744869,-9.00676441,1.41943681,0.32472327,0.62857205,-0.65000665,-0.31251296,0.27794221,2.75169587,-0.10671757,0.53024966,0.20226829,0.27113515,-0.07747545,0.22378387,-0.02402285,-2.76682186,0.28770494,0.14350402,-0.82758772,0.46443492,0.02059307,0.43323538,0.21077175,-3.20070767,1.77972162,0.13284962,0.32104099,-0.20265625,-0.27948618,0.00111212,-0.37877828,-9.74158192,0.10699087,0.28423214,0.27583018,-0.87407571,0.33220509,0.29873824,0.09543356,-0.14829080,-2.94056797,0.63929850,0.59189624,0.13622469,-0.36565244,0.46441483,-0.05718315,0.23294885,-3.10678363,-0.68193275,0.36058009,0.02904815,-0.95909530,
-0.29554573,-7.75699568,0.07960968,-0.07978267,-0.48343924,-0.60537159,0.27995008,0.26067048,-7.68869257,4.31268930,0.52898276,5.41791058,1.59002936,-0.24825035,0.65958494,0.57896090,1.40511346,-0.36547041,-0.00581742,-0.08128661,0.02887232,-0.10121404,0.49442655,-0.27282330,-0.03786161,-0.99575406,0.28151298,0.19477935,0.08008412,2.05411410,0.22294867,-10.58032322,-0.13695560,-0.50416607,0.47088984,1.61839426,-12.83184528,-0.93867117,0.29951233,-1.33276093,0.29067042,-0.20236717,-0.11336733,0.43625802,-0.33372045,-14.42790413,-0.18940763,-0.00666179,0.10826649,-0.01426287,-0.11401735,-0.10998774,0.09939148,-0.20900005,0.25810289,0.68470615,-0.03470307,-0.08289378,-0.32091123,0.53819126,3.94355464,-0.30522329,-1.04968166,1.19437051,
-0.53256685,0.37133330,1.12196624,1.41362000,-0.19663431,-1.13798416,0.47224629,0.22129300,-0.30713734,1.85215592,-5.11845350,-0.49270913,-0.04437515,-0.27551579,-1.86153126,3.66683030,0.29137856,-0.35774332,-0.51858348,0.28090119,-0.07921887,-1.27373922,0.75510240,-0.22376677,3.26594663,2.25475621,-0.98920661,0.11799785,-1.09172726,0.74165618,-0.14621712,-0.47333792,-0.53289479,-0.85598022,-0.03733872,1.42232394,-0.39688388,0.03552326,0.07828645,0.31129625,-0.26212305,0.35963690,-0.90259123,0.37417540,0.37261993,-0.13710399,1.76574469,-0.48175266,-0.17559819,1.18825305,-0.25333363,0.03489777,0.21246339,-0.50428426,0.24579561,0.07083128,-0.42897233,-0.01105992,-0.38905627,-0.52390629,1.05565012,0.93103224,0.20453309,-0.86677712,
-0.44370225,-0.21963558,-0.49917772,-4.05687189,0.32346296,-1.24377620,-0.37085769,0.02723349,-1.26853311,-6.29291010,-1.16490352,-7.51064157,0.69130808,1.50624156,1.92717898,-0.69352019,0.53628284,-0.00019450,2.33277011,-1.33579755,1.14586043,-0.06750952,0.19798610,-0.10587605,-2.30348849,1.42948270,-1.72374284,0.73625374,-0.95993787,-6.10279989,0.40239608,-0.46984836,0.16872188,-0.22634609,0.19891337,1.42249048,-0.32699117,-0.84143698,1.37464833,-0.12015592,0.85904747,-0.50227052,-0.49764132,-0.18839158,0.38801569,-0.30844802,2.60387611,0.39850798,0.25734502,0.95703596,-0.04098725,0.12428254,-0.12512957,1.84348524,-0.48667240,-0.02297981,0.54123873,2.36777711,-0.49599770,-0.62318188,-6.10032225,-1.71953285,-0.33014244,-3.67247677,
2.31274104,0.61244267,1.28446722,2.30522943,0.01425267,-0.62986797,-0.28600129,-0.56466955,0.40507987,1.12558889,-0.41824725,1.48616207,-3.47846270,-1.04061317,0.41643187,-0.79526299,-0.77313370,-0.11538298,2.32290125,-0.56999516,-1.70696568,-0.46730298,-1.28425515,-0.06658991,2.01516461,-0.33887884,0.87618375,-0.31539327,-0.97158223,-0.95607078,-1.11748600,0.46188340,2.63906360,-0.44481349,0.72126174,-1.13109493,0.51408225,0.09757303,-1.09802365,-0.52549493,-0.36554354,1.25862086,3.18905497,-2.30925775,-1.10350204,0.06470150,-1.11724198,-1.80075061,-0.73574942,-0.22354984,0.87830073,2.21556282,-1.14704347,0.08874066,-0.60487670,-0.95085430,0.06512193,-1.28159094,1.77681100,0.01386714,0.69694734,-0.10558993,0.03704767,-0.79521805,
0.18271686,-3.15449595,0.25348377,0.22114138,-0.33104670,1.05761743,-0.38893959,0.00868148,-5.95909643,1.61494446,0.98444521,1.07692277,0.40633678,0.54016906,1.10049772,0.22570072,-0.29210979,0.00691103,0.26704884,0.62828428,-0.56497055,0.16473140,0.02846510,0.29097557,0.10932294,-1.17757106,1.43236005,-0.05276081,-0.04758029,0.28900823,-0.00826084,-8.10601425,-0.75985688,-0.11485529,1.11417019,0.85334998,-10.38194942,-4.01952982,-0.54217154,0.28898266,0.39926070,-0.02985239,0.10634784,0.29125777,-0.24737775,-10.57518768,0.21614133,-0.21085958,-0.10303778,0.01944575,0.09384616,0.25146976,-0.92878288,0.14362827,-0.94198823,-0.31408069,0.19833604,-0.09944405,-0.31458968,0.83677322,2.06065845,0.42180094,-0.88777316,1.25980818,
0.08610634,0.22729616,2.59849262,3.59196711,0.07352187,0.59858125,-0.02232832,0.30577826,0.52928448,1.36666512,0.64694172,2.14775848,0.62808949,0.14928731,2.31490397,-0.38667494,0.13280180,0.47966376,4.08871794,0.84447533,-0.18407331,0.23394638,0.41837355,0.57390225,-0.07180584,-0.14396890,1.30357456,0.35075605,0.22009842,2.67232895,0.45707273,0.43982032,0.00597018,0.66399848,-0.01493440,1.60678613,0.12013008,0.16140974,-0.35815474,0.23313962,0.49387017,0.69077206,2.27989745,0.33402967,0.46758953,-0.10917865,0.09705875,0.05012110,-0.36318353,1.27849388,0.79099435,2.33516026,0.23234525,1.20345986,-0.00809946,-0.16716526,1.05724812,1.05812168,-0.04300857,0.17150323,1.95394003,0.00148094,0.03629273,0.20327216,
0.22533843,-0.50540209,-0.06065935,2.21236849,1.13528359,-0.01838226,0.72001046,0.11848010,-2.97070336,-2.03524494,-1.70336330,1.44378507,0.28922674,-0.20138490,0.75158703,0.36794791,-1.08107567,0.24101159,-0.03412991,-3.04029679,1.00227630,-0.61552376,0.05356879,-0.70949727,-6.21962690,-3.60487890,0.97785240,0.96401399,1.26471198,-2.31840682,0.10036074,-0.93122846,-0.37234026,-0.18543023,-0.09520882,-4.31478119,-0.78667158,-0.28503010,0.37054116,0.71827167,-10.98305893,-0.47300830,0.60247868,0.60605973,-0.13704513,-0.70164329,-4.81181240,2.10437965,0.65046394,-0.45389980,0.17732674,0.02189261,0.39135179,-2.19647479,-0.76342863,0.85008264,-2.70444226,0.60373670,-0.20753340,-0.03947384,-1.27651870,0.46950302,0.21618463,-3.42433262,
0.15119489,0.22274630,0.47466117,-0.63824934,0.12856822,0.15376149,-0.59405035,0.55247879,0.16536476,-8.49323940,-0.65090120,-21.25951004,-0.56792355,0.22492857,0.06163516,-0.25008255,0.01814735,0.34297660,-2.84515691,0.30538493,-0.07069142,0.30119762,0.72754341,0.23279233,-0.05011329,-0.05569659,-1.44145405,0.11129902,0.22523256,-7.18876982,0.82564270,0.26401025,0.24020313,-0.45530051,-1.47277904,-0.67796177,0.18912734,0.29127732,0.18941346,0.26972389,-0.00324128,-0.39248574,-6.91004086,0.23015942,0.86829114,0.31122458,-0.71729887,0.09049543,0.29644209,-0.73587906,-0.23081324,-2.14591575,0.87738645,-0.00274209,0.20331471,0.21070701,0.05112611,-0.03093416,0.32244837,-0.97281766,-8.81348133,0.45437253,0.32575756,-3.36055040,
-0.46677959,1.67612243,0.75746459,1.39455497,-1.40115976,-0.17128277,0.55760205,-0.03054312,-2.08624268,3.42001963,0.22227851,5.35515118,0.42811611,-0.51335585,0.80088967,0.35507786,0.37086922,-0.06708331,0.54700381,-0.61630094,-0.81100029,-0.19152801,0.20478599,-0.38227481,1.33676732,-0.67122293,0.78422147,-0.99227518,-0.40552142,2.09095836,-0.20884319,-3.30297160,-0.17357959,-0.54950106,0.57255572,0.16621047,-2.43493342,-0.03772430,0.40629235,-0.97021180,-0.22345532,0.64680600,0.90593588,-0.00381823,0.01480694,-1.45982468,1.32274818,-0.68397737,0.37494105,-0.14290528,-0.05483488,0.79275340,-0.64622307,-0.49590769,0.32414737,0.27720013,0.69684225,0.06221055,-0.08372775,0.75655204,2.95517516,0.20916897,-1.64920712,0.05635254,
0.09692167,-0.02695523,0.17091659,-0.88571471,0.14221855,0.08685915,-0.72079086,0.55404466,-0.09134513,-8.63456535,-0.83089852,-20.81221581,-0.79096347,0.18173084,-0.07788511,-0.37438649,0.03754836,0.17192766,-3.76567841,0.38179857,0.04674745,0.37674135,0.79145128,0.35100636,-0.29799494,-0.07104100,-1.34533036,0.04443584,0.12663159,-6.94631386,0.95138896,0.17549486,0.24039324,-0.37406656,-1.34931290,-0.84976709,0.32529056,0.47217807,0.06508147,0.34817401,0.09246092,-0.38692513,-5.71426773,0.08385701,0.81473780,0.48378357,0.13838908,0.06045053,0.15786879,-0.78521627,-0.16449918,-1.09122610,0.95824671,0.03612541,0.31557253,0.34658936,-0.08725306,0.00336499,0.13136832,-1.07984304,-9.19842434,0.68112338,0.34644935,-3.53111267,
-0.09744716,-0.95042282,0.34591222,-1.05244160,0.44396102,0.09930655,1.44242322,0.14779310,-0.55067009,6.54184437,2.28693819,3.51785183,-1.99434185,0.30959716,-0.02125840,0.87367392,0.19234312,0.00636538,0.13044587,-1.48529220,1.49475825,-0.09880650,0.02688436,-0.24793750,-0.89206380,-2.58388925,4.53691196,1.11050713,0.27074265,3.76457143,-0.05141670,-1.57992709,-3.13248539,-0.18341880,3.48374724,-0.61514121,-1.13563240,-0.99301571,0.25738463,0.54795569,-10.34307194,2.66831827,0.25012171,-0.42211741,-0.10374581,-1.22431552,1.14701784,-0.90057534,-0.23318952,-0.39966142,-0.84439743,0.40882260,0.32302040,-1.65311837,-0.27905169,0.00988319,0.74941111,-2.17278957,0.96224558,3.07129836,6.17361546,-1.82265770,-2.14625144,3.59364820,
0.07249318,-0.97796345,0.29885942,0.83287871,-0.61873233,-0.92475587,-0.21689457,0.27682012,1.25009823,3.67957973,1.33827329,-0.65939254,1.20429790,-1.37389147,-1.27039266,1.67526412,0.71830487,0.00774190,0.09606018,-0.00462885,-1.16934335,-1.48601604,0.39587888,-0.30371639,1.10356224,0.24159403,2.11279511,-0.84488940,-0.05195113,2.39296389,0.04156574,-2.39100504,-1.95163572,-0.10937896,1.73953474,0.93679070,-0.54657960,-1.80830300,1.10904992,-0.48526588,1.26771808,0.17719321,0.08378056,-0.05057383,0.28933641,-1.78258109,-2.33162355,0.29296798,-0.02988185,-0.25634849,0.33652112,0.13251512,0.44181901,-0.14193870,1.11686242,-0.00097025,0.59247202,1.81481040,-1.36048353,2.06105018,3.99267936,2.69431186,-1.93594360,3.01927686,
-0.33261111,0.04477654,-2.66177249,2.31536150,0.07822832,1.23188269,0.45317221,0.31705976,-0.56957853,-12.76820183,-4.84484768,-10.72840214,0.68235785,0.38159975,3.74061036,0.38887274,-0.33990967,-0.52074224,1.61115324,0.52092105,-0.49011299,-0.18478605,0.35405132,-0.24759614,-1.51038539,1.34589410,-23.75181389,-0.44896090,0.32224378,-8.05637455,0.21919374,-0.45631105,-1.11750305,0.11106029,-9.47045994,1.25175154,-0.42107788,-0.50188887,0.36400464,-0.37632066,-0.16966051,-2.14938879,-3.50622749,1.03675568,0.22137827,-0.42336172,1.34893262,0.19467117,0.33241931,1.41735339,-0.10159073,-5.52662563,-0.46156561,1.39914429,-0.03290647,0.25811914,1.97403586,2.68986964,-0.30908015,-8.33641052,-14.60817051,-0.37147260,0.36199501,-6.33806515,
-1.73364902,0.58755636,-2.47024822,-0.67039740,-0.97209471,-5.21259737,0.12875932,0.51347452,0.20568582,-7.85782909,-0.35600901,1.36795926,-0.70225781,-1.56534088,-0.63856679,-0.74361742,1.22595000,-0.23992406,-10.08150768,-7.50505543,0.38576460,-0.64421183,0.53447747,0.02387640,-1.43852437,-0.05854627,1.84711790,0.50518793,-1.47397983,0.45097178,0.52483022,0.04669834,0.93002236,0.70441431,1.74633443,-1.30392122,0.37070450,-0.30091855,0.49679005,0.68070757,-0.12275176,-1.60370672,-0.69735014,-2.30328107,0.51342469,-0.14955580,-3.49992919,0.35156065,0.20797062,-0.29453313,0.09035990,0.17363428,0.42772585,-0.46133024,0.24834853,-0.29198524,-0.46055952,-0.28469431,-0.19454262,2.74750066,-4.48818398,1.55439532,-0.14322296,-8.98827839,
-0.31416565,-0.67276293,-0.03933319,-1.69502878,0.41426176,1.17868292,0.98814869,0.18185842,-0.69482017,0.69776398,2.18535781,1.79117763,1.81979609,1.24981892,0.83553737,0.43424690,-0.64776880,0.20960134,-4.64280319,1.00610983,0.31025571,0.83251852,0.11124805,-0.73934233,-1.04312336,-8.67186546,4.99542665,0.75199616,0.51456058,3.61456323,0.31694853,-0.71714485,0.06253028,-1.27705383,3.08316779,-0.47922617,-0.77045518,-1.23767018,0.68156904,-0.33622760,0.25614312,-1.08605564,-2.65581203,1.06859481,-0.11462855,-0.72048503,-13.55723953,0.18276908,0.18357983,1.93697476,-0.57543570,-1.74036360,0.42713359,1.09065390,-0.31147546,-0.26421759,1.02190185,-1.76969028,0.05515906,3.54779077,2.57741427,-3.14494538,-0.36553812,1.68635774,
-0.71046382,-0.26624224,-0.10023639,-0.09589946,-1.66163909,0.04001449,0.38012582,0.11506018,1.43789864,3.43336725,1.03796971,5.31430817,0.32405677,-0.86644512,-1.04925895,0.18319927,0.94200039,-0.36986223,-0.03999169,1.13826048,-0.34817839,-0.18541785,0.63626826,-0.23386785,-0.03893651,-0.24734691,0.01180337,-1.01365018,-0.63783503,1.87435496,0.03606154,0.10867608,0.66752297,-0.40581626,0.41379014,0.59893423,-3.17066288,-0.44684654,0.47772434,-1.85884607,-0.13112164,0.17156686,-0.11359078,0.02823148,-0.17096309,-4.34889650,-0.15451518,-0.88881332,-0.13281825,-0.14397040,0.75223505,-0.01134428,-0.49341142,-0.09327994,0.95234650,0.50616431,-0.02588189,0.18657306,0.09393444,0.42748368,2.65999460,0.10106473,-0.64925706,1.08807576,
-0.04501649,-0.15299298,1.25460660,-0.10153768,-0.01392383,-0.22878684,-0.33726203,0.44505861,-0.01106823,2.08241868,0.77953380,-1.37288201,-0.46497056,-0.00033066,0.15747936,0.07159157,-0.07135620,-0.10118186,-1.84938967,-0.20071566,-0.07209352,-0.00031021,0.48016664,-0.00075668,-0.06257160,-0.37351516,-0.53105050,-0.00538221,0.12294661,1.16398633,0.76653773,0.03218924,-0.15561390,-0.67492360,-0.78598058,-0.76196581,-0.10258552,0.32857150,0.00553656,-0.08223034,-0.03260790,-0.12513556,-4.47583914,-0.16434486,0.48303312,0.31262562,0.77898258,0.04933817,0.22397071,-0.79015636,-0.64573950,-0.33293003,0.51872635,-0.43959391,0.09879608,-0.05045203,-0.01144356,0.00404042,0.04707278,-0.54589820,1.98754215,-0.07956792,-0.14214861,1.42278564,
-0.01444596,0.01669149,-1.48654401,0.34980479,0.00341368,-0.17193763,-0.20070256,0.33396798,0.07791951,2.37110019,0.88162100,-0.89472443,0.04917314,0.00328418,0.45610058,-0.08098800,-0.08628649,0.01371500,0.61106730,-0.18085697,0.05261425,-0.03583826,0.50023657,-0.06427756,-0.02429489,-0.10728222,-0.62969720,0.12317282,0.09250805,1.57983816,0.61315745,0.09478137,0.05836601,-0.17348024,-1.32507682,0.32357684,0.08383127,0.18226044,-0.20128782,-0.15811943,-0.00070987,-0.06729476,-7.83452702,-0.27991703,0.29694965,0.43911105,0.27206495,0.08222837,0.14201531,-0.29965943,-0.42051798,-1.47081125,0.45799190,0.04512110,-0.11168439,0.01565129,0.22017281,-0.14581536,0.05007645,-1.12277293,2.58985281,0.01924425,-0.22291319,1.91958010,
-0.09707393,0.03746850,-0.56382084,0.33861405,0.07227898,0.61335289,-0.11848345,-0.37168017,-0.42514831,-0.31084549,0.03164634,-0.19068603,1.01359391,-0.23245077,-0.09336232,-0.19962908,-0.20524617,0.11804120,-0.84768933,-0.12339418,0.15830344,-0.22099201,-0.09127425,-0.11545564,0.05130475,0.74178934,0.18009061,0.14958183,0.26961419,0.33637199,-0.31869000,0.05006523,-0.51101625,-0.13356897,-0.11152996,0.21053188,0.01475984,-0.06237556,-0.09178422,-0.02551069,0.30328247,0.32050505,-0.65288252,-0.48696679,-0.28878510,-0.08375964,0.49454167,0.10210789,0.36081648,-0.11217791,0.21201304,-0.20772573,-0.09195309,-0.11189410,0.46877134,-0.10517219,0.52026647,0.09204943,-0.86184251,-0.04256795,-0.55898964,-1.47096181,-0.57548773,-0.01374921,
0.19849215,0.48371944,-2.82072258,0.12009565,0.06363852,0.67482758,0.21082848,-0.04514377,-0.07518151,-0.43154714,-2.53418994,-8.75761223,0.90607858,0.11448626,1.36688495,-1.50638545,0.20865834,0.00823956,5.38255692,1.07028675,-0.35044822,0.25018242,0.29294699,0.25880659,0.38862383,0.58289438,-7.83069086,-0.03975055,0.00636799,-2.12410879,0.05064993,0.35575488,0.72711670,0.33109871,-7.21321392,-0.35831389,0.11574053,0.16038509,-0.06593955,-0.08336611,0.17988952,-0.72144413,-8.62932777,0.02130538,0.07700388,-0.01190962,-1.26959789,-0.09646063,-0.14736241,0.49380103,0.05692754,-4.60727406,-0.35996819,1.03325987,0.14597623,-0.16336989,0.15870695,0.04997687,0.10240395,-8.91601181,-2.36631703,1.01340735,-0.12368471,-1.88500929,
0.21772212,0.07113860,-0.25036484,0.29568622,-0.03853882,0.18816212,-0.34573171,0.61517996,0.00928187,1.92311931,1.15061283,-0.72286797,-0.26196468,0.18033098,0.77249062,0.03233325,0.19349270,0.07534950,-2.77238202,0.04957416,-0.20732643,0.20574427,0.76947528,0.30736771,-0.09608804,-0.54583347,0.23269702,0.24819233,0.22311907,1.71130502,0.93374920,0.11929994,-0.21560070,-0.45719165,-0.23879206,-0.58300579,-0.19196659,0.18589240,-0.15879984,-0.01316293,0.06037452,0.05611555,-5.50075722,0.21442552,0.75538516,0.17318308,1.47896349,0.12983224,0.42303973,-0.64049399,-0.50282937,-0.81072408,0.74437624,-0.17738834,0.02280833,0.27737880,0.07138642,0.17019127,0.04754944,0.05925929,2.16212726,-0.04012223,-0.39278495,1.75756919,
1.23846662,0.47067952,-3.01321983,-1.89447629,0.09994850,-0.01521368,0.62555522,0.08256823,0.31769830,2.98600483,0.06133492,0.71331424,-0.73570907,-0.57998639,1.85138655,-1.36163235,0.44437987,0.10827967,-8.53386784,0.04329666,-0.34602472,0.19014663,0.27626047,0.11088274,-3.06619668,0.02623006,-2.46587014,0.17114575,-0.06298007,-0.03399827,0.37066761,-0.28572202,-0.79523075,0.82764810,-1.68802357,0.85102630,0.19969727,-0.59929270,-0.52642256,-0.27651745,0.39531088,0.35058460,-2.14959598,-0.03623724,0.34975162,-0.49948892,-2.24131989,0.21105817,0.24122801,0.47971040,0.85144454,-3.59771109,0.85083479,0.67346096,-0.43348742,-0.12488495,0.40255150,-0.32704741,0.66268456,-2.14358544,2.12549901,0.75678325,-0.70630008,0.26082695,
-1.10259831,-0.30795291,1.06513059,1.98740101,-0.56639749,1.30775642,0.24306855,-0.53117496,0.43707615,-0.64947611,-0.80059534,-0.74585623,2.96316385,-0.53568369,2.64637876,-1.21261883,-0.42989558,-0.06563018,1.38256156,1.59760857,-0.20079014,0.77099359,-1.69741189,0.55128086,0.47134694,-0.07043374,-1.00914919,-0.42419943,0.38252515,-2.26421380,-0.32437503,-0.26159260,-1.58214295,0.30544254,-0.33160239,3.60467649,0.05528815,-0.05401015,-0.73759615,-0.04025222,-0.54930979,0.42582983,2.34633565,0.26390564,-0.33579066,-0.43491784,-0.46752226,0.73097146,0.68333346,-1.30089474,-0.25287229,0.50796521,-0.73050052,1.82291269,-0.09846275,-0.28280303,-0.08647370,0.75587910,0.59220767,0.34487060,-1.84205472,0.52222520,-0.05666871,-2.54009938,
0.36029798,0.22717479,-0.09766842,0.98256701,0.38618007,0.61121917,-0.26371703,0.08165936,-0.29709738,-11.39399433,-2.14663720,-33.57582474,-1.52509332,0.06103747,0.65193588,-0.10328696,0.58501381,0.12969367,2.49522185,0.95632768,-0.08950537,0.11812997,0.21125826,0.21453243,0.14030008,0.50015330,-0.45658055,0.17036872,0.36058411,-9.50874710,0.09020811,0.14385948,-0.16751479,0.02463044,0.05148764,-0.34288138,0.40071779,0.33883780,0.06652506,0.16780533,-0.22253826,0.19677015,2.07955194,0.68150449,0.22158474,0.48943540,0.18640214,0.07701808,0.35899276,-0.80242455,0.34297234,0.53298974,-0.21782331,-0.83064997,0.31352711,0.12473395,0.17258558,0.12699869,-0.00295205,-0.23373818,-11.21884060,-0.75477946,0.15300818,-4.22730112,
0.31363484,-0.64149642,-5.07534027,-12.91700840,1.03804827,0.51140463,0.15622388,0.11575436,-0.06813247,1.93947661,1.04264438,0.07501249,1.33569348,0.83104265,0.16702013,0.33085188,0.54266548,0.22540371,-13.25402355,0.24454261,0.01824872,0.11429770,0.44194931,0.34308925,-4.27836895,-0.45053238,1.49668121,0.44555613,-0.47914910,3.57274413,0.49891835,0.02811478,-0.56419230,0.22639093,0.16592011,0.12363861,-0.08928136,-0.67659515,0.31656897,0.17580964,0.35497764,0.94732678,-3.68493104,-0.29343468,0.27836522,-0.13039275,-7.35082483,-0.22672372,0.36524972,1.48716080,1.21285796,-1.73183143,-0.15907884,0.33644226,0.39400169,0.63362831,10.85491371,-0.21966319,1.09511125,1.05407166,2.80460048,0.75716954,-0.30586240,1.91967297,
-0.31439981,-4.61017561,0.60077596,0.77858627,-0.26849476,-0.22405814,0.43911436,0.27537757,-5.95447254,4.06372213,1.20509982,4.97868538,2.06146383,-0.20849438,-0.05246673,0.51051980,1.04114461,-0.07446988,0.46026886,-0.14950930,0.59207940,-0.42323372,0.22767551,-0.33012342,0.60706413,-1.11086702,1.09210062,0.53708625,-0.05851679,2.40353394,0.08422058,-8.02003193,-0.78281945,0.00111809,1.11363447,2.64955878,-11.28787899,-1.72261035,-0.04203263,-0.10653167,-0.49992123,0.25039959,0.46640208,0.11300352,-0.15716952,-12.16910744,0.39127499,0.60779303,0.38035646,-0.05098755,-0.23864797,0.46843156,0.20437157,0.08202171,-0.73023653,0.38199919,0.50593913,-0.62978834,-0.13216209,0.90633965,4.07525158,-0.41464451,-0.45352188,1.73708522,
-0.42995721,0.05831868,-1.17982686,1.46948290,1.81027091,2.39192390,0.47251451,-0.43367121,-0.09302475,3.80259585,1.99741662,4.08960199,1.11725700,1.48090458,0.79807687,-1.25749695,-2.83251643,-0.27166191,-0.53947490,2.21963501,-0.22440539,0.10524971,-0.69764179,-0.27334225,-0.07652156,0.47704023,0.06129488,-0.18757673,-1.82526660,4.10847330,0.02221748,-0.01853031,0.11541036,-0.06379168,0.40962499,1.81670904,0.25014454,1.05577719,-2.52507544,0.02669327,0.27386785,0.47370920,-4.80661106,1.18868840,-0.30504867,-0.03241221,1.31316829,-0.35541308,-0.44720325,0.35978225,0.70823389,-1.94619656,0.26872543,0.07642227,-1.47392142,-0.67335844,-1.26063037,1.26894653,-1.06930101,0.05440089,2.98827887,-2.36043358,-0.09765450,0.97264636,
-0.51937652,0.32505164,-1.49441385,0.60415399,1.97447276,0.82496864,0.91083550,-0.13704284,-0.13781801,1.67983353,0.23187236,-2.01235366,0.28587785,-0.19957535,0.99565256,-1.54333830,-1.23999786,-0.04635349,1.65645730,0.08979902,-0.70691705,0.79908949,0.17446844,-0.07198352,1.77603722,0.48566899,-0.21906817,-1.06802523,1.56912816,0.00481058,0.51284951,-0.54775214,1.58985114,-0.90518969,-0.27887344,1.42426133,-0.10417677,-1.82444656,-0.62173647,-0.55215710,-0.21191144,1.07094395,-5.48547411,0.83732480,0.05799638,0.08076129,-0.34662014,-0.84517968,0.48239005,0.63223237,-0.77173012,-4.34119272,-0.18636832,0.03732955,-1.01983881,0.83752030,0.60400319,-1.17274225,0.95970577,-0.36107191,1.17358804,1.04990208,0.41426119,0.86146146,
0.04184152,-0.32157746,2.73749781,1.60625684,-0.07526744,1.21367097,0.36919209,0.03562741,-0.34543455,2.82208538,0.30880553,1.15256035,2.81461120,-0.66156101,0.43589625,-0.05532386,-0.32492623,-0.96013081,2.18812060,1.23129117,-0.25276887,0.08715399,0.18237033,-0.13980338,1.20781887,-0.56357867,1.85619807,-0.88157493,0.50975001,0.88378537,-0.01929527,-0.22499140,-0.72095639,-0.08422750,0.81431311,3.58681178,-0.49224758,-0.98600906,-0.90275228,-0.13477924,2.61069322,-1.46852243,4.29463291,0.54677892,0.35926557,-0.89299011,-1.33224308,0.93927646,-0.23194322,0.33908385,-0.51906621,1.81244910,-0.22801670,0.04576796,-0.17376974,-0.21093726,-1.36814141,1.09024644,0.27206624,0.57981271,1.32039213,-2.51120138,-0.19605817,-0.11086939,
0.89992356,-0.07440776,-2.42766738,-6.82034063,-1.48703599,0.26986548,-0.00191126,0.17012770,-0.07195327,2.20276928,0.87743765,2.55946827,-0.29316422,-1.12290132,1.03080654,0.15899864,-0.58863461,-0.36868584,-9.09825706,0.60396457,-0.19640569,-0.57790190,0.13885181,-0.26846305,1.61702335,-0.62205243,2.10584474,0.07168124,-0.43277323,1.96612835,-0.10868583,-0.32683873,0.16255529,-0.85450065,1.95856547,-1.34758544,0.36978415,0.17198405,-0.87971765,0.51712656,0.60782409,-1.14337885,3.04490018,0.13503899,0.11302222,-0.20615287,-4.22467613,0.60357183,-0.69842678,-0.27485102,1.40747035,1.53615201,-0.13319738,-0.80386925,-0.81364906,0.49550205,-1.98290205,1.18588567,0.93632805,2.13523579,3.84295774,-0.48890921,0.22626530,0.04774063,
0.45632571,-0.46471345,1.32154536,-1.14304554,0.45185992,-0.03026833,-0.27842721,0.20446050,0.28268993,-1.54933977,0.23311202,-5.58319759,0.45959526,-0.30007452,-1.78815186,0.06748245,-0.56755322,0.44363195,-0.66309452,-0.37393504,-0.31601596,-0.56123555,0.38731015,0.46722907,-0.02409723,0.06322495,-0.45857412,-0.16396463,0.07459106,0.07988221,1.01625681,0.47045657,-0.70006984,-0.49565837,-0.22235110,0.51611161,0.50783020,-1.03230119,-0.21777926,-0.05867445,-0.03435163,0.13179879,-3.73305011,-0.26116121,0.42699018,-0.13270886,-0.41678220,0.36860725,-0.00334667,-0.53449893,-0.32307497,0.11862881,-0.34867629,-0.20492128,-0.66821009,-0.06383291,0.50915068,0.57800323,0.30967113,0.57148051,-2.17936683,1.01854181,-0.73538208,-2.29809046,
0.33025613,-0.24064980,2.25598168,-1.11953330,0.02281367,0.33042607,-0.11253157,0.13890429,0.48468903,1.25308585,1.56642246,1.42747128,-0.72226572,0.74933171,0.45597598,-0.02311740,-0.22510064,0.36032498,-1.94813871,0.61233270,0.14231895,-0.05837076,0.33109751,0.41947472,0.16360557,0.09288097,3.35021186,-0.15204200,-0.26946732,2.65800858,0.15605281,-0.01733351,-0.81063724,0.12063675,3.17364120,-2.01215553,-0.20041387,-0.09863579,-0.10849758,0.15426032,-0.40783492,0.65406191,3.60172391,-0.09592152,0.26843569,-0.13616011,-0.94220197,0.65862262,-0.38957503,0.38596365,-1.10026979,2.44137239,-0.28580794,-0.12376258,0.49756029,-0.25163263,-1.62104213,0.48427498,-0.32930827,2.99286962,2.41970968,-0.02948626,-0.75665528,0.75275618,
-0.48607937,0.24594010,2.45634294,2.04997301,-0.30305398,0.35220206,-0.22501749,0.20546056,0.95000196,1.57480311,0.67185885,1.72017527,0.72088057,-0.33685407,2.04250979,-0.32503146,0.11165684,-0.29349443,2.91670680,0.46355292,-0.39798605,0.10993351,0.22232690,-0.03851818,-0.13794619,-0.40355003,1.45131552,-0.36159745,-0.20974721,2.33858395,0.30625156,0.02986727,-0.55941522,-0.71528083,0.78882623,1.49630976,-0.21028759,-0.24420805,-0.70089877,-0.19738883,0.28733879,0.60886496,1.75300777,0.05167425,0.40072513,-0.31316191,-0.60916173,0.28028509,-0.43981510,0.79491997,-0.47567403,1.61842573,0.01248291,0.34520519,-0.35367206,-0.21592532,0.09742338,0.46998963,-0.36309674,0.26223025,1.90801847,-1.17446864,0.25294137,-0.27243426,
0.17707469,0.04680154,-0.20020734,-0.03779830,0.06593280,0.13807462,-0.19974297,0.44014314,0.03235225,2.42151713,1.00613892,-1.33860517,-0.08091061,0.31855217,0.55522585,-0.14679506,-0.02251261,0.15492187,-1.78153670,-0.01784720,-0.28646848,0.18359259,0.54362899,0.42988926,0.04201626,-0.55148804,-0.31866375,0.10003527,0.41442648,0.89971817,0.88685238,-0.03619003,-0.17363773,-0.49569356,-0.41371161,-0.42006397,-0.04504353,0.28195494,-0.08207981,-0.02010068,0.03734546,0.10668987,-6.09535027,0.26755336,0.65132767,0.28447676,0.80836934,0.09152986,0.53740019,-0.83115840,-0.58303118,-1.31598604,0.73941231,-0.25304678,-0.00766330,0.05942238,-0.22049634,0.06701080,0.14889653,-0.42797858,2.01759076,-0.00953789,-0.13520586,1.74533808,
0.24985330,
0.64697725,
0.06898104,
0.65502131,
-0.15498066,
0.76587427,
0.57697392,
0.04839722,
-0.10678064,
-0.87362134,
-0.27052310,
-0.63045073,
-0.73269916,
1.54773664,
-0.08869016,
-0.39404881,
1.35375690,
-0.24719852,
0.50880295,
0.85924506,
-0.25043541,
-0.31900176,
1.42445254,
0.29520941,
0.05208432,
0.08407770,
-0.48741746,
0.32042551,
0.11792934,
1.08494139,
-0.13030556,
0.95844531,
-0.03792349,
-0.91266561,
-0.52144134,
0.63167077,
0.05414907,
1.41541719,
-0.56990921,
1.54547906,
0.04076603,
0.38428059,
-0.08650479,
0.56428307,
0.22932403,
-0.62114429,
1.35769367,
1.33664179,
-0.08978403,
0.13487576,
1.49217308,
0.81212848,
-0.86377144,
-0.58615565,
0.62523353,
0.10008699,
0.17509995,
0.42711976,
0.20988703,
0.12570798,
0.66907883,
0.42511073,
0.53080750,
1.51456499,
0.19741763,0.08550473,0.13461855,0.19368821,0.16945791,0.22538824,0.39246923,0.09322411,0.19247994,-0.45793787,-0.14472875,0.56245816,0.09202551,1.27740133,0.06555298,-0.35037792,1.16927624,0.42888835,0.24127582,1.13668537,-0.25032076,0.78638697,1.27354288,0.34137696,-0.18217821,0.34200200,1.78158391,2.52743793,-1.89927399,1.05574536,-0.02667039,0.89198512,0.05994062,0.55453068,-0.06470264,0.89064729,-0.62972617,1.26920009,-0.79136866,1.23786712,1.48355389,0.63924670,-0.17839430,-0.75936246,-0.44867811,-0.28657621,0.96055919,0.94278795,0.59023052,1.01855731,1.20570862,0.88822895,0.80956823,0.55588019,0.42883521,-0.40903354,0.51337600,0.98785603,1.68242610,0.26147410,0.36480650,0.46691370,0.20786643,1.39853489,
0.83727825,-0.99068987,0.41967505,1.26480258,0.36522901,1.32506859,1.16490042,0.04227620,0.14312878,-0.04959024,-0.37633437,-0.02611914,-0.61613458,1.33921921,-0.05263431,-0.06121346,1.23356378,1.98148632,0.53817028,0.93375778,-0.13839726,-0.24305810,1.25880241,0.18885219,-0.01825878,0.84120250,-0.54781467,0.32468918,-3.04841757,0.75874174,-0.24930693,1.10454869,-0.56900287,0.26422876,-0.04600475,0.86631006,-0.38719139,1.27527392,0.12244264,1.35293090,0.22370000,0.60789585,-0.61117476,-0.86074448,0.55995286,0.09209360,1.06632936,1.11149931,-0.03614108,0.04871234,1.29937673,1.03052855,1.03527617,-0.60294372,0.68704748,-0.27956724,0.76173890,0.76695222,0.29607865,0.39368561,0.57743549,0.34772930,0.64071703,1.11093998,
0.13997166,1.73082793,0.16826227,0.39125946,-1.93778563,0.61236292,1.97604895,0.03344696,2.07212472,-6.35065794,-1.57062268,0.64328444,-0.49915934,2.43298650,-0.06480212,-4.44240713,0.58337909,0.88430184,-1.05118012,0.15523690,-0.48249272,0.57177365,2.51398277,-0.37386060,0.31459913,1.21255195,1.89109492,0.71678406,-3.72418475,0.89915395,-5.00132561,0.38580927,0.93444967,-0.70519376,-1.11605442,-0.00626467,-1.93911433,2.16480827,-1.07463408,2.19930291,4.96708918,2.69770432,4.97402525,-1.91593754,-2.66270089,-3.12537813,0.57118976,0.62319446,0.74030989,2.26974583,0.40099189,0.69361192,1.31581378,-0.20657556,-0.23096269,-4.27381706,0.77152479,0.40960890,-0.08343770,-0.92491603,0.94760579,0.07674427,0.13766381,0.56088716,
2.50414777,-0.94588554,-1.24258113,0.54252476,0.22297354,0.41099554,1.35653245,0.00786817,1.78956807,2.20862699,-1.09998441,0.00564816,-1.00600767,2.48976612,0.06427982,-1.37840927,0.79557824,0.81154251,0.44623879,0.19173785,0.83506638,-2.31429029,2.16662765,-0.11682052,0.05440745,0.75782502,2.54925919,0.92671174,-3.57611609,0.53568739,-5.72251320,1.45548677,-0.06945104,1.28930843,-4.45625973,0.10052153,0.12957698,2.14517879,-4.32562637,2.59479380,-0.54809976,1.01989579,0.03784714,0.65702033,0.44445780,-2.60741186,0.86494493,0.77155435,-0.02218926,-0.84487915,0.95358813,0.49825558,0.12193137,-1.99467885,1.11219597,-5.27222633,0.30938417,1.09174824,0.44435462,0.34464335,0.80313087,0.41608825,0.24957396,0.86773145,
1.30071366,-3.39287782,-1.62425303,-0.70840842,0.69976491,-0.14314172,2.49800205,0.07446601,-4.41144419,3.86114049,-0.21125609,-0.93637317,-0.47986254,2.52460551,0.08448086,2.21796036,0.77384406,-1.79480064,0.31491026,-0.18889403,-0.47378904,0.58894199,2.61917996,0.72932220,0.66334361,1.28455400,3.76066303,0.99068242,-2.37888908,0.03919422,-1.14517319,0.54361200,1.06048596,-4.62017202,0.80631256,-0.09607346,-0.71386224,2.10286760,-0.82218015,2.41138673,0.90524781,-1.36584926,0.06399627,0.20651174,0.34572834,-2.51273990,0.67634910,0.27153593,-0.08244315,-1.50589943,0.67104238,0.29248387,1.89502895,-0.11545882,-0.53542560,0.80468452,1.72690129,0.76441079,0.64694053,-0.12828711,1.38033342,0.26416841,0.24545446,0.73801398,
-0.31389594,-0.01879569,0.08778282,0.15367921,0.20088218,0.00609156,0.02002848,-0.04317003,0.00423489,-0.01925489,0.14871334,0.11737928,-0.12384468,-0.11856990,0.09113237,-0.23114119,-0.13209932,-0.18466817,-0.17236134,-0.00987164,-0.11692420,-0.25650543,-0.21618168,0.15663716,-0.01551870,0.09776111,0.07348515,0.15464102,-0.04310274,-0.11277127,-0.15399720,-0.09249480,0.07458072,-0.16032495,-0.07045072,-0.02961901,-0.10437248,-0.20535004,-0.18758722,-0.10938939,-0.07338145,-0.17743574,-0.01946243,-0.00308676,0.00622477,-0.39388058,-0.23684074,0.00949685,0.32054266,0.27001041,-0.06301095,-0.08582129,-0.01062820,0.42650780,0.10723913,-0.11954720,0.06697891,0.01350956,-0.16775730,0.04284016,0.50137633,-0.05295505,0.01226558,0.08830659,
2.05035520,
2.09278035,
-0.16111851,
1.01436114,
0.22483018,
-0.89736116,
