// Neural Network File Format by Kyle Julian, Stanford 2016
3,10,5,64,
10,64,64,5,
0,
0,0,0,0,0,0,0,0,0,0,
1,4,4,4,4,4,1,1,1,1,
0,0,0,0,0,0,0,0,0,0,0,
1,1,1,1,1,1,1,1,1,1,1,
-0.74037784,0.19706576,-0.22165002,0.28076932,-0.28450358,-3.01191211,0.25156438,0.10482292,0.86431652,0.02547467,
0.77016091,0.50395834,0.94081080,-0.47778726,-0.45777088,0.30050132,-0.38460106,1.68223166,-0.11792817,-0.76887488,
-0.48502120,-0.11509116,-0.10628867,0.60312378,1.06951714,-0.68742025,-0.13384949,0.41760939,0.39942303,-0.84265554,
-0.69681478,0.38195911,0.69608402,-0.92492098,0.12139285,-0.58102858,-0.36130461,-0.15942633,0.69909334,1.33800495,
0.81273532,0.25962976,-0.55964446,1.19516563,0.88079202,0.01460524,-2.30664039,0.19154620,1.21829367,0.26627508,
0.74985337,0.30147794,0.48002604,0.97813457,0.65376216,0.07903544,-0.96170813,-0.17229018,1.12524736,0.57934386,
0.10575992,0.26133752,0.89465880,-0.14001237,-0.19803193,-0.30865157,0.04607676,0.84341240,-0.63485688,0.57314926,
-1.25294125,0.77702278,-0.68024498,-1.25128293,0.36786529,-0.38094005,1.77451444,-0.29040754,0.18168989,0.72893286,
0.17225361,0.71352404,-0.16947134,-0.22044908,0.81170291,0.06924795,0.21247791,0.20835176,0.39429018,1.18923342,
0.35876891,0.60383636,0.49581462,0.36546454,0.22647893,0.20307362,0.75609171,-0.93966937,0.34921286,1.61541450,
-1.07617891,0.74214870,-0.99853396,-1.45694077,-0.50974965,-0.37502393,1.29711211,0.67370450,0.55301613,0.57752019,
1.51422131,0.29282525,0.20107915,-0.84329826,0.23990619,0.44178417,-0.21661547,-0.88446695,0.28311983,1.07646346,
0.53393036,-0.10765803,0.67824191,-0.03986362,0.01662792,0.50253910,-1.32907736,0.47794291,-0.24824090,1.42346990,
-1.48408806,0.08876288,-0.07067294,0.53612548,-0.52982980,-1.55845821,-0.02449013,0.01663399,-0.85498351,1.13292813,
-0.57737660,0.05021264,0.20472617,0.46601030,0.55727249,-0.21550484,-1.22272968,1.01115000,0.72060031,-1.26021528,
-0.49460825,0.07982086,0.24970196,-0.60734868,0.25945252,-2.56813169,-1.74306381,-0.33664027,0.55045301,-0.17868090,
0.90731794,0.26296893,0.10775971,0.55410582,0.16694345,0.11003117,-0.59948862,-0.69200426,1.08556485,1.02546251,
0.09726942,-0.16113830,0.03437996,-0.20532532,-0.15414594,-0.06126860,-0.00294834,0.12704864,0.00612333,0.05901107,
-0.29234943,-0.17045452,0.55306178,-0.58421892,0.34335387,0.71732581,1.09561288,-1.67836082,-0.27102444,0.41353673,
0.26866043,0.03052050,0.42770794,0.18756661,0.83813405,0.73923701,-0.11772814,0.62834191,-0.01529428,-0.39993766,
1.41199267,0.50294507,-1.10297287,0.02741641,-0.55187035,-0.93973166,0.45177719,-0.16522977,0.15451486,0.49056455,
1.08134973,-0.09358249,-0.02566879,0.20992510,0.18010609,1.23814666,-0.66084433,-0.41378793,0.57213241,0.45175162,
-0.00841740,-0.06709212,-0.15773171,-0.06421387,-0.09286079,-0.24067798,0.19420072,0.04014504,0.01982701,0.16213396,
-0.14125925,0.78293025,-1.45246589,-0.27733302,-0.38732502,-0.55769509,1.29338682,0.37064630,0.68787235,1.07416880,
1.26370239,0.06884483,-0.13895167,0.60132653,0.69116557,-0.49596566,0.70690554,-0.72209746,0.67770153,-1.18987811,
0.06352025,0.41976312,0.15724130,-0.10244435,0.16428320,0.74047297,0.35607398,1.34719968,-0.17154378,-1.04611182,
-0.15223746,0.50488234,0.06770575,0.25657362,0.53676093,0.43063971,1.22392154,0.85767025,-0.70407313,0.79564112,
0.20027331,0.56881446,-0.88712656,0.29688215,0.11867278,-0.51485199,0.63810575,0.70444936,0.15417580,0.20144200,
0.98509276,-0.51867652,0.72695673,-0.17880601,0.07997417,0.85439116,-0.83111823,-0.00846982,0.10464882,-0.56590420,
-1.42466176,0.03611420,0.07349449,-0.48559591,0.08000490,1.05609560,-0.32571188,0.11731264,-0.44819373,0.61867237,
-0.62737381,-0.61182314,-0.65925336,-0.23901753,0.50495380,-1.43466771,-1.13259101,-0.85783517,0.20785008,0.05208792,
-0.27641767,0.14127088,-0.03893959,-0.99370497,0.64642334,-1.16197050,-0.19239990,-0.75042087,0.28083679,0.63894075,
-0.32916868,0.10072587,-1.12322998,0.37339988,0.43285975,0.51209754,-1.03253257,0.06979570,0.00187674,0.65715110,
0.07012242,0.32243982,0.53668940,-0.11470252,0.49428564,0.57977265,1.21723890,0.86842531,-0.11383420,-1.10706306,
0.24997976,0.55948097,0.19856384,-0.01348047,0.37480640,-0.21094055,1.51151884,-0.89287162,0.29214141,0.66221958,
-0.58900380,0.72828239,0.67425489,-0.32443845,0.51695049,0.04730007,1.97985601,-0.62593859,0.26028872,0.68978572,
-0.08114917,0.13095051,-0.01431008,0.79796666,0.00916937,-0.04232955,0.24316077,-1.08420587,0.34646791,0.14213248,
-1.76735401,0.05552491,0.17756261,0.84482741,0.31309134,-0.82382089,-0.29904404,0.17015146,0.74191892,-0.27662599,
0.71615648,0.46593067,0.36146101,0.07985318,-0.96031094,0.44104829,0.43826938,0.89617532,1.09388268,-0.54911959,
0.16966534,-0.25731701,-0.25131771,-0.03061849,-0.17002732,-0.25643611,0.08976203,-0.19899942,0.14569184,0.28829464,
0.02085945,-0.07987705,-0.30463108,-0.20662683,-0.11273283,-0.17373349,0.02051112,-0.20440438,-0.24231201,-0.27480635,
1.55962288,-0.19066162,0.34828088,0.73815089,0.33287817,-0.31718859,1.00238633,-1.35418010,-0.48046210,-0.03509913,
-2.08083320,-0.67260975,0.38914165,0.51077974,0.26569396,-0.08444947,0.66668171,0.05752279,-1.04690063,-0.59722936,
-0.58287269,0.15434149,-1.42995667,0.49530613,0.45689178,-0.05642084,-0.59506291,-0.22048041,0.50698793,0.58863008,
-1.68653905,-0.06158194,-0.02606758,0.60183775,0.48943269,-0.50814497,-0.36457607,0.72390103,-0.38130143,-0.64730012,
0.71632379,0.35561827,-0.09170535,0.51155508,0.67230332,-0.06605634,-0.44596520,0.97595280,1.39051843,-0.88180661,
0.47977802,-0.02776981,0.88797629,0.04998539,-0.32414666,0.52719897,-1.73338294,0.54367495,0.34053496,0.23875971,
-0.51829499,0.66445881,0.73008955,0.58920515,0.37660182,-0.01108270,1.56787014,-0.48060268,0.47353208,-0.26016384,
0.17345263,0.33057049,0.35169315,-0.53062397,-0.46594959,1.12136614,0.67297810,-1.16940606,0.80731642,-0.59395534,
0.22522105,0.45317993,0.13922092,0.18215320,0.11597459,0.64591742,1.38720751,0.42236033,-0.78317094,-0.25202337,
-0.19471230,0.05364981,-0.10303746,0.08709419,-0.30279255,-0.20878828,0.03121933,-0.05506361,0.18043819,0.15550292,
-0.41247827,0.81321108,0.36529696,0.46600136,0.33702430,0.08071522,0.72162211,0.32089502,0.79298997,0.04283693,
-0.55797565,0.49899447,0.31445897,-1.80951333,-0.01601995,0.29641700,0.05558497,-0.07643387,0.01957020,0.00546951,
-1.57085526,0.78754348,0.54745215,0.35099286,-1.45181727,0.41334924,0.50710905,0.50617909,0.59119594,1.26708293,
1.25747406,-0.65924406,1.15557027,0.48560464,0.03464097,0.75957954,-0.23472804,-0.48227650,0.02431399,-0.55199516,
0.98860693,0.83995444,-0.07147524,-0.58627951,-0.62210488,-1.25709403,0.46374938,0.33214113,0.48825002,1.06951451,
0.44247958,0.10214269,0.50891399,0.88973343,-0.03758689,-1.12158954,-0.97051829,-0.14257497,0.04963609,0.44421452,
1.04153717,-0.13736361,0.16000982,0.54510659,-0.19553460,0.60999370,1.23981071,-0.41511318,-1.15218616,1.15102470,
0.06857406,0.08478310,-1.64609098,0.35767850,0.19001777,-0.93841857,-0.69679993,0.52477777,0.28378606,1.03198874,
0.26848203,-0.18732984,-0.28053218,0.02094301,-0.02670866,-0.05078634,0.18555647,-0.15895239,-0.09035486,0.25817585,
0.42907447,0.44486809,-0.40377271,0.45089370,-0.34818795,0.13238235,1.79082119,0.79622167,-0.44261736,0.25551718,
0.09858000,-0.17418948,-0.19714159,-0.28683066,-0.21582127,0.12824515,-0.15941425,-0.16030820,-0.00630876,-0.18405946,
0.78531671,0.52564985,-1.03657746,-0.77277821,0.13464968,0.23782156,1.64082515,-0.04638268,-0.56479412,-0.18911238,
-1.16609704,-0.16507708,0.06362159,-0.15914689,-0.01559267,0.95454729,-0.27856863,0.58568937,0.52201480,-0.60454136,
-0.03333163,
0.13807994,
0.49535844,
0.40016860,
0.15162842,
0.60440689,
0.12294218,
0.43920323,
0.66510856,
0.18350600,
0.13286684,
-0.19626305,
0.13576458,
0.48036656,
0.37312463,
0.29290560,
0.33451030,
-0.29547408,
0.33336762,
0.60028315,
-0.38742995,
0.31280756,
-0.16583708,
0.21744612,
0.08769385,
-0.03334897,
0.75373733,
-0.27722195,
-0.47329873,
0.49235094,
0.00929916,
-0.06375644,
-0.22427259,
0.47907802,
0.26486409,
0.53672701,
0.12480923,
0.27484497,
-0.03693121,
-0.05293456,
-0.12564959,
0.19760436,
0.20214948,
0.17896324,
0.50968128,
0.50126708,
0.37099463,
0.88659012,
-0.08371680,
0.34081367,
-0.13994560,
0.75571883,
-0.07097083,
0.75016075,
-0.03530178,
-0.10593928,
0.14474097,
-0.32531863,
0.13993572,
-0.05376176,
-0.01339866,
0.29613128,
-0.45894900,
0.26776326,
-2.63987780,0.37752151,-0.69203603,-0.24731900,0.52806652,0.21389920,0.13396858,-0.03174172,0.96395618,0.57639533,1.68090332,0.48244300,0.29655808,0.90728426,-0.32828414,-1.65468538,0.57228309,-0.09158251,0.52461380,0.40501437,0.81291610,0.06312244,-0.02081229,1.27807832,0.08323944,0.60187793,0.57467586,1.23194683,0.31431964,-0.29958066,-1.69476569,0.63676745,0.44520080,0.48808521,0.46446320,0.35879982,0.01292215,-2.65847564,0.82220358,-0.05525453,0.10708307,0.17554210,-1.06220603,-1.07126129,-0.77953786,0.49846062,-0.00255511,0.28104764,-0.27852237,0.44577011,-0.00946347,0.55198228,0.29000759,1.11740327,0.15438072,1.33999360,1.02073395,-0.19390795,0.06523750,-0.09753448,0.38190776,-0.10774061,0.50023347,0.59265989,
0.62983370,0.71957368,0.70982850,0.61241019,-0.08552164,0.20221785,0.16899402,1.44311118,0.45574400,0.21558952,0.11466858,-0.70420021,-0.28990579,0.26256722,0.87189114,-1.02792192,-0.00288055,-0.07063448,0.37633616,0.11227193,1.02887332,-2.29914355,0.06417409,0.56170958,0.59654385,0.30435482,0.32354677,-0.01428244,-0.76951355,-2.11334038,-0.84633446,-1.23463345,-1.88608062,0.38588622,0.52212125,0.50941581,-0.26781911,0.06692830,0.50642323,-0.09141906,0.01966533,0.32516649,-1.28841269,-1.04442763,0.53306496,0.35346314,-0.18811719,0.44910729,-0.61487615,0.35511267,-0.08088319,0.44732159,0.21553226,-0.01844583,0.17206876,1.06070626,0.02868437,-0.30798909,0.47173610,-0.06522769,0.15536191,-0.09660996,0.01787616,-0.90358442,
0.63995630,-0.56080544,0.19526610,1.03355217,0.34245783,0.23631158,-0.16528128,-1.13545251,0.32620093,0.22795516,-2.04049635,-0.53720576,-1.11431980,0.69405800,0.49526152,0.37304026,0.15131265,-0.11130813,-3.90356922,0.00708434,-0.51361519,-1.75359762,-0.02818404,-2.22374201,-0.18719757,0.13855073,0.34869567,0.12117228,-3.69124532,0.65783644,-0.17453666,-2.43987870,-0.21339092,0.00766440,0.38465387,0.09213313,0.51869559,-0.12048087,0.67102695,-0.00885549,-0.06191635,-0.03352590,0.35931599,0.05168284,0.33933529,0.44637567,-0.24132481,0.33482784,-1.76967883,0.15336175,0.03287174,0.41590196,-1.77945650,1.94165683,-1.80825245,0.30243421,0.90992475,-0.64830345,0.82630813,-0.11055374,0.40481919,0.10660101,-2.15837240,-0.15572748,
0.49625772,0.46947613,0.13233519,-0.96866173,-0.04154608,0.05276106,0.03287385,-0.19603725,0.00889798,-0.13232079,0.65642828,-0.24797726,-0.08561433,0.09558446,0.05910952,-0.36021847,0.13986255,0.09150986,0.09616773,0.25944057,0.42903611,0.09174178,-0.10715723,1.03031802,0.30878046,0.38641864,0.21602041,0.75387859,0.11706121,-1.43432200,0.41133168,-0.66574049,-0.01976207,0.31906050,0.15657791,0.12746604,-0.44690880,-0.16089466,0.08234493,0.08922200,-0.07147051,0.40357158,-0.26052845,-0.71651524,0.08789235,0.17549653,-0.70230854,0.22899863,-0.51154804,0.27288821,0.00843911,0.19708332,0.65680665,-0.21061967,0.48428312,0.83499414,-0.39165169,0.52535677,-0.17095816,-0.04740929,0.87960035,0.10812797,1.10934353,0.06400983,
0.28410634,0.45208895,0.36565104,-0.04491999,-0.52247870,-0.11082768,0.66108155,-0.08732132,0.23415066,0.31713298,-1.00572038,-0.31989914,0.10549309,2.18502903,-0.32542568,0.90687913,-0.26932678,-0.00132327,0.52447665,0.01086838,-1.30636311,-0.25394487,-0.07823399,-0.23878618,0.18282059,-0.02636605,0.49876758,-0.16486073,-0.35785186,0.46731779,0.72724795,2.05246425,0.21563855,0.24160817,0.36939031,0.51511937,0.86298037,0.32945526,-0.84790760,-0.09018144,-0.11844333,0.17104493,0.33623883,-0.39253294,0.22786371,-0.29652020,-0.49600440,0.31914726,-0.02575444,0.52477676,-0.05514115,-0.02017426,0.78556019,0.53383189,-0.10966796,-1.42150211,-0.57085341,1.22080696,-0.25387391,-0.01209629,0.89257240,-0.06206158,-0.12831835,-0.53326321,
0.03762505,0.16339494,-0.16308628,-0.53794676,0.39360040,0.14367096,0.87917602,-0.51206362,0.13036491,0.17804472,1.50117409,0.46024400,0.46015114,-0.22446536,-0.15279622,0.20585246,0.26356080,-0.05560823,-0.51671904,0.22383401,-0.35961184,0.93246776,0.01045917,1.18281853,-0.08121493,0.02274654,0.12350638,1.40617597,0.52185446,-0.27813715,0.51395708,1.24153364,1.06314266,-0.03891826,-0.24082223,-0.31580624,-1.51494563,0.02036085,-0.52171713,-0.04268968,0.09089886,0.17982176,1.35711133,0.13339990,0.06541948,0.25609675,-0.43736219,0.03876693,-1.00218546,0.06003284,-0.03879093,-0.13849764,0.87755245,-0.33307374,0.35634595,0.71298546,0.57277173,0.23057231,0.11359476,-0.03681407,0.41721869,-0.05489518,0.41584694,-0.10117031,
0.45095977,-0.64843023,-0.18055588,1.49351966,0.68375742,0.33896551,-0.68733788,-0.24599682,0.30748132,0.02515121,-2.96791768,0.06650040,0.35188743,0.82653010,0.12105316,0.71310568,0.39938334,-0.06026340,-0.72726846,0.23641497,-1.36066377,0.69229776,-0.06435810,-2.47920895,-0.39490229,-0.02941217,-0.00731653,-0.29325309,0.20991518,1.27099943,-0.35493347,0.39391780,0.76099801,-0.10503913,-0.29902607,-0.23278333,-1.08080220,-0.66878295,-0.39087456,-0.07913601,-0.03163245,0.09498237,-0.83690703,0.34785974,-0.05417729,0.21643104,0.94567597,0.07389016,-0.65689182,-0.29300135,0.05095714,0.13462500,-2.29779768,1.00097120,-0.31600204,-1.20125091,0.88319224,-0.25124705,0.65254915,-0.04591013,-0.85598046,-0.01572908,-2.73566008,0.37608817,
-0.02590246,-0.02017437,-0.13172384,-0.03821235,-0.05477502,-0.12441581,0.10111076,0.09048840,0.02822281,-0.02202684,-0.00078440,0.01237552,-0.14169976,-0.08738658,-0.14932652,-0.12375550,0.03843131,0.11724608,0.08732257,-0.11957882,-0.12111701,-0.11294325,-0.03952466,0.03965826,0.01003220,-0.14898370,0.06138085,-0.00509422,-0.08905271,-0.02057892,-0.00054500,-0.14638837,-0.00897699,-0.12429176,0.00470823,-0.08702563,-0.04842390,-0.10505514,-0.01216364,0.11538342,0.08571811,0.00883621,0.02146768,0.01560992,-0.07600500,-0.12490594,-0.01522948,0.01620510,0.08102045,-0.06374299,-0.00938772,0.05406023,-0.11311830,-0.04734227,0.09490494,0.00868425,0.02414243,0.06579809,-0.06495459,-0.05534506,-0.06181476,-0.04019617,-0.06759928,0.01824243,
-0.07731894,-0.12370212,0.03153598,-0.13616964,0.03429590,-0.08566686,-0.13548575,-0.01631498,-0.02835201,0.04911610,0.09896563,-0.12175690,0.04139275,0.05050567,0.03675009,-0.11495888,0.04077026,-0.10176852,-0.12152936,-0.06835433,-0.11034708,-0.04885414,-0.02431627,-0.11716668,-0.02969918,-0.00978371,0.01891429,-0.06469692,0.09430196,-0.09222025,-0.09704822,-0.07022569,-0.01489325,0.04280891,-0.12590025,0.07456581,-0.08051001,-0.09687628,-0.06986822,-0.05725291,-0.09908877,-0.03491595,0.03961509,-0.12315376,0.02974761,0.04768381,-0.00653136,-0.03584779,-0.09855108,0.01758093,-0.04237209,0.05439562,-0.11087631,-0.09704348,-0.01236063,0.02873099,-0.08656380,-0.12105756,-0.07118069,-0.03729261,-0.07283045,-0.02207072,-0.10450669,-0.09287615,
0.73038411,-0.15000804,0.06828638,0.72535908,-0.23726287,0.00853778,-0.64457357,1.17993057,0.26623634,0.38685977,-0.52866739,0.52349645,-0.34034628,0.45575488,-0.02112884,0.57437813,0.00374295,0.03529629,0.35501048,-0.07562567,0.67094010,-0.44260457,0.02421305,-0.58469772,0.14321095,0.03653399,0.16647843,-1.48114550,-0.23455618,1.15397286,-0.19316973,0.43177757,-0.65162641,0.15941124,0.76100987,0.73058790,1.90021622,0.73024178,0.22637977,0.05110362,0.05293918,0.15542926,-0.06469035,0.38866517,0.01011896,-0.11643413,0.28933460,0.42665863,1.21191645,0.18409419,0.11694779,0.39694184,-0.28424037,0.28038594,-0.18077753,-1.10007882,-0.19635850,0.29261971,-0.33671859,-0.04308175,-0.16939099,-0.01033291,-0.65226948,-0.10110898,
0.56372571,-0.10212184,0.74212408,0.27323005,0.51449722,0.31837711,-0.98760802,0.13000107,0.15679182,-0.13231096,0.41572273,-0.42871985,-0.93630379,-2.09267902,1.03014982,-0.96798772,0.00217024,0.01374288,-0.17195940,0.25692379,1.40202570,-0.92882329,-0.08291912,0.19536978,0.98702157,0.20145442,-0.03828933,-0.35930833,-0.48848388,-1.99431849,-0.58140945,-2.19349599,-0.91451281,0.43709245,0.31662858,0.13821341,0.36609891,0.19453144,0.25294375,-0.08180518,0.07318766,0.52114862,-0.68077451,0.36667109,0.50482142,0.70556432,-0.93943888,0.26947126,0.12437024,0.20773350,-0.05153951,0.20562991,-0.99913353,-1.54728353,0.63301605,1.31251955,0.09063333,-0.22733095,0.23372094,0.11406455,-0.18075119,-0.07400891,0.23831983,0.21290037,
-0.07885378,0.49539083,0.30216342,-0.18099204,0.08416791,-0.03117159,1.14573586,-0.69921213,-0.06578292,0.01273618,-1.71921670,-0.28495270,0.69279218,0.49819037,0.09697165,0.84383810,-0.01265355,-0.09253767,0.17084651,0.09987634,-1.21121311,0.65719557,-0.11690582,-1.26382554,-0.02533536,0.26311266,0.05464246,0.50113732,0.04888039,-0.13950963,1.02669585,1.67314112,0.98780185,0.12646335,-0.22551912,0.03438103,-0.58132118,0.47147959,-0.54646438,0.12324455,-0.02336273,-0.14978640,2.10716462,0.25593168,0.44955027,0.01140591,0.25167394,-0.09573199,-0.81096715,0.15586212,0.05134124,0.01501918,1.14132857,-0.04612186,-0.12274595,-0.87187016,0.03876519,0.34866512,0.07714477,0.09242813,0.34773710,0.05292313,0.16514017,-0.04758123,
-1.44989812,0.24845153,-0.42565277,-0.24932913,-0.32218513,-0.10286251,0.80897695,-0.43763348,-0.17988387,0.14974158,-0.46173579,0.76191324,0.50427723,0.74587762,-0.51196849,-0.74636000,-0.12566577,-0.11121927,0.49889639,-0.04547843,-0.86253685,0.78869402,-0.11541608,-0.04970004,-0.29304263,-0.19864963,0.05662462,0.43943039,0.34219733,0.40140089,-0.50125384,1.73413968,0.95952070,-0.21931969,-0.06203756,0.01968061,0.48512554,0.64846736,-0.85007018,0.11758319,-0.05926214,-0.04351522,1.86596084,0.04434406,-0.00253355,-0.21900974,-0.40005839,-0.05390252,0.01754482,0.06868689,-0.02286969,-0.08322314,1.30434895,-0.51104075,-0.15503375,-1.00205028,-0.77026945,0.84500843,0.18777184,-0.02265484,0.41299668,0.07949015,0.00689251,-0.25301552,
0.90634793,0.51927865,1.26461101,0.41252980,-0.05838984,-0.00950550,0.10691701,0.84182298,-0.13328195,-0.25691804,-2.62577772,-0.52730352,-0.19700435,-0.60129720,1.12285721,1.18683338,-0.31838369,-0.01610409,0.89666551,0.12013637,0.09833113,-0.09501331,0.01266892,-2.02709126,0.63618922,0.69685417,0.23510943,-0.18493223,-0.22941341,-0.45154142,1.12113500,-0.34278244,0.08690566,0.50360465,-0.09897465,0.11149155,0.38102692,0.47027683,0.27252081,0.00179845,0.08850120,-0.10824908,0.04430860,0.60208762,1.08757281,0.25931278,0.18888026,-0.02313587,0.40981865,0.24663356,0.05043530,0.25916860,1.09498680,-0.30463555,-0.44094133,-0.77002430,-0.34668037,-0.38599026,0.56813639,-0.09908352,-0.18933479,0.09475133,1.27963579,1.20321465,
-0.09339511,0.22760834,-0.05430337,-1.03629637,0.39658037,0.33015040,0.46886796,-0.72345209,0.05205946,0.02341878,1.05508947,-0.59380090,0.39551088,-0.07814764,0.31058466,-0.16787648,0.09640478,-0.11874712,-0.43657407,0.26269639,-0.42439887,0.41123709,0.05871063,0.96218711,0.05012442,0.27963722,0.22696158,1.29602730,0.30970567,-0.93925416,0.40613157,-0.25215846,0.71059048,-0.02758785,-0.26521876,-0.43085426,-1.54295290,-0.50046098,0.07419942,0.04419605,0.08769770,0.09799907,-0.11173098,-0.28221533,0.16309702,0.39552262,-0.37833515,-0.15967266,-1.18194842,0.14444672,0.12352510,0.05789996,0.11617072,0.22948745,0.49316999,0.78443295,0.22180046,0.35935891,0.26098153,-0.06904808,0.60483116,0.10023981,0.61648744,0.28284448,
0.92579770,0.08927990,0.53606832,0.50974321,-0.17490001,0.12767166,-0.00037804,1.69932330,0.34821504,0.08177069,-2.41852307,-0.75698608,-0.07795272,1.40519059,0.24295564,1.16698861,-0.06222242,-0.02180976,0.84796739,0.33801636,-0.54819608,-0.66708767,-0.05178881,-1.52540684,0.08816000,0.52467573,0.63761622,-1.23427880,-0.45826679,0.09963100,0.50655490,0.25991818,-0.32512593,0.45480910,0.31913519,0.53901207,1.20785487,0.17391035,0.38678861,0.04929695,0.09831651,0.11697466,-0.19130254,-0.39689276,0.49630648,0.13218309,0.89794385,0.39477876,0.53858078,0.48016641,0.00794852,0.34083840,0.14111981,0.73560077,-0.50422126,-1.99954104,-0.56188285,0.30449560,0.00451363,0.02802354,0.34371886,0.06095496,0.88624042,0.46821839,
-0.02471240,0.12483309,0.01913433,-0.07200179,0.00212228,-0.07028624,-0.00249337,-0.12768646,0.08028224,-0.11400110,0.09157172,-0.02531323,-0.14240076,-0.02870207,-0.00053402,-0.04618585,-0.00550300,-0.01597288,-0.04488849,-0.03657773,-0.11364569,0.09019475,-0.06798726,-0.07398923,-0.13035631,-0.13977151,0.04297420,-0.10850317,0.04417373,-0.11886378,0.04437150,-0.01044324,0.05150718,0.01073463,0.05489192,0.08307631,0.01465734,-0.05367322,-0.09130171,-0.07947665,-0.04304382,-0.05611663,0.05916198,-0.00823429,-0.04162868,-0.01425961,0.09942380,-0.02772169,-0.05196397,0.01358297,0.10564449,-0.06400272,-0.03579794,-0.01433815,-0.08921038,-0.00794826,-0.00069638,-0.06519930,0.01486278,0.11526404,-0.04421863,0.05403244,-0.09152802,-0.01366716,
0.34440821,-0.35899881,-0.05997651,0.42358109,0.39774054,0.32592309,-0.97081190,1.03807342,0.45597360,0.36024761,2.12751818,0.42707729,-0.32427329,-1.10166335,0.09706361,-0.92732751,0.35646439,-0.10197893,-0.25302067,0.20951170,1.57092059,-0.38172147,-0.05211897,1.41345656,0.20913072,-0.02144730,0.17557618,0.19907312,0.32595873,0.02058290,-0.85600388,-1.43716908,-0.60450053,0.24715459,0.29308572,0.15745386,0.01024935,-0.19739287,0.53030396,0.03767692,0.00488213,0.26797780,-1.52417326,0.22467116,-0.29643795,0.30646759,-0.13004379,0.15545319,0.21540950,0.13764492,-0.01428510,0.25674260,-0.65031362,0.10642729,0.47091293,1.22799778,0.36623591,-0.36966452,0.28031734,-0.07019073,-0.30013198,-0.02596216,-0.31169415,0.27679318,
1.19373369,-1.41626477,0.91119468,0.58362669,0.37110645,0.18919688,0.17735852,-2.14196706,-0.39838821,-0.12967910,-2.91125178,-0.88113427,0.16957702,-0.22652577,1.18780637,-0.53586835,0.02643077,0.09840140,-1.39264941,0.24782322,-2.26068330,-0.25944149,-0.04439262,-3.54855919,-0.23439100,-0.23176669,-0.14300360,-0.22739910,-0.01026602,0.12519798,-0.42375875,-0.38653409,-0.55370998,0.09138151,-0.63276690,-0.24463049,0.44750422,0.99562842,-1.47375965,-0.06966656,0.03621109,0.31807110,1.21106339,0.72350317,1.07767117,0.10484361,0.11407150,0.18819991,-2.36776662,-0.25851667,-0.10532184,-0.09235634,-3.82379246,0.04109388,0.62271172,-3.18640184,1.63111162,-0.02484471,0.84194005,0.09971769,-0.86412680,-0.12143482,-4.51059103,0.62290376,
-0.17004353,-0.01715685,0.25619963,1.05347264,0.80982989,0.32847175,0.47261265,-0.26177227,0.05679495,0.07779569,-0.93200225,0.42025790,0.22274625,0.29870197,0.68128461,0.86439836,0.37150931,-0.11622356,-0.34749970,0.03297804,-0.73123825,0.60246718,-0.11730042,-1.14911103,-0.11843634,-0.02557572,-0.12258116,0.20827487,0.21486798,1.16821408,0.01421350,0.05021834,0.82785308,-0.07438580,-0.14305557,0.05705652,-0.17736441,0.54566562,0.13760230,-0.05559523,0.06456813,-0.12201533,1.36970901,1.09875488,0.37860036,0.17683117,0.83221418,0.07044856,0.21849568,-0.28334484,0.12019032,0.17014860,-0.38956359,0.05865913,-0.42501256,0.08480715,1.52796555,-0.70460361,0.97909015,0.09444811,-0.77724552,-0.05898418,-0.39327556,0.72684258,
0.94841516,-0.26818871,0.86582679,-2.02259183,-0.25568041,0.08074161,0.67152619,-0.79615599,-0.70903480,-0.03025595,-1.05829954,-1.27952242,-0.78767490,-0.24422234,0.20042844,0.58840764,0.00476885,-0.02598622,0.56004167,-0.05944949,0.02330264,-0.33079663,0.10795629,-2.36251545,0.17215082,0.30799192,0.43715280,-0.25535846,-0.67320663,0.04239965,0.21753392,-1.48018575,0.73562598,0.09792458,0.04425296,-0.14385763,1.91478884,0.29760361,0.42027044,0.05747126,0.05418380,0.50648332,1.36734962,0.46709675,0.87132865,0.01551659,-0.43997610,0.16045755,0.53919780,0.44331533,-0.04447170,0.13398729,-0.74116653,0.59114462,-0.04377155,-1.76070452,0.33697116,0.97343868,0.32883802,-0.07185489,1.30978549,0.04040974,-0.92368543,0.21987465,
-0.31860739,0.15075028,-0.46048748,-0.41900223,0.03840430,0.19402365,0.13862823,0.06162192,0.38520128,0.46143553,2.12525344,0.43223274,0.56333452,1.14458573,-0.77562815,-1.49663579,0.42816627,0.06358677,-0.20039636,0.16567847,-0.54712880,-0.05612018,-0.02274901,1.72140145,-0.12326155,-0.02920029,0.37330276,0.96095276,0.07335449,0.08135130,-0.78021121,1.05278742,0.21029177,0.11614515,0.35171357,0.21153601,-1.57376599,-1.02078736,-0.72345585,0.09312777,-0.11133479,0.48856312,-0.20172361,-0.62649280,-0.36548772,0.03242235,-0.47256336,0.04583287,-1.22013509,0.19700702,0.06116162,0.10024246,-0.31332237,1.01030195,0.38741383,0.43262586,0.68866187,0.74292254,-0.02786465,0.09695844,0.63797927,-0.09233588,-0.22674723,-0.63349485,
-0.04809417,0.00259371,-0.01308145,-0.06484182,0.09312227,0.02774802,-0.06264636,0.03651891,-0.03513597,-0.08723208,0.11135551,-0.05849363,-0.08759783,-0.07376030,0.07449515,0.08025928,-0.00683737,0.04055431,-0.01573543,0.02903374,-0.12663421,0.11883515,0.01355413,-0.01244237,0.02992605,-0.09181341,-0.00360039,-0.00589249,-0.07278691,-0.07227592,-0.12524140,-0.04210205,0.03513056,0.01117355,-0.11166085,-0.09014530,-0.10758232,-0.10169432,-0.03490183,0.07330677,-0.00153840,-0.03430295,-0.01913711,-0.14558241,0.08111162,0.08446202,-0.10633633,-0.10123096,-0.12327181,0.00692163,-0.08917165,-0.05758224,0.06380486,-0.02595867,-0.03234793,-0.12960194,-0.01291444,-0.08361954,0.00089728,0.06550227,-0.05606151,0.00760359,-0.06688500,-0.11822712,
-0.06822580,-0.11349317,0.07444811,0.03750381,-0.07812610,0.11361117,-0.03872226,-0.08861490,-0.01134067,0.08677383,-0.04835528,-0.03894211,-0.11973447,-0.02102615,0.00822245,0.00444566,-0.11241766,0.09484367,0.02255291,-0.00300845,0.00888547,-0.02364522,-0.09215197,0.07490452,-0.05788880,-0.11628696,0.00621921,-0.12775166,-0.11842583,-0.00527784,-0.01830204,-0.06998688,-0.04912284,0.10347916,-0.04647113,-0.01271339,-0.07752169,-0.03091922,0.01036717,0.02063170,-0.02159330,-0.07397008,0.00923993,0.11587788,-0.03800560,0.00812953,0.02698079,-0.08016143,0.00151245,-0.10373907,0.06787387,0.09228802,0.06879722,0.07822648,-0.07646891,0.04219316,-0.07875076,0.00242602,-0.10116605,-0.00277311,-0.04782417,-0.00006506,-0.09333643,0.08873506,
-3.16883707,0.44925106,-0.52061450,-0.17073223,-0.00177322,0.23783718,0.13931783,0.49953550,0.69474113,0.37626451,1.23439837,-0.27833572,0.08613604,0.60603112,-0.41570973,-2.00022173,0.23828328,0.05121429,1.32917070,0.38403746,0.57039809,-0.54984915,0.04706459,1.03963494,0.03396594,0.66073459,0.56012660,0.33647683,0.06208794,-0.10233943,-1.48948944,-0.00296706,0.06640206,0.39000219,0.36657101,0.40086481,0.44653815,-2.87770081,0.51788819,-0.01371342,0.12326768,0.14038539,-1.16783512,-1.87382889,-0.62306726,0.26230657,0.03297188,0.21254358,-0.22867620,0.43466768,0.11730309,0.41253614,0.41395882,1.01594830,0.25893527,0.86338359,0.15288699,0.11774834,-0.27089721,0.00841124,0.21732628,0.03103261,0.73180622,0.49934170,
-0.21398404,0.44636920,0.10119861,-1.10349929,-0.26621291,0.02745609,-0.30033523,-0.37285793,-0.24447532,-0.08332561,1.01609802,0.43599865,-0.16565663,-1.98367071,-0.23924777,-0.22073233,-0.06100931,-0.08925812,0.23235458,0.04939773,1.79007161,0.21007837,-0.06457256,1.09167802,0.70631999,0.29158390,0.06517316,0.18713771,0.32749668,-1.17459786,0.26614279,-1.15266263,0.10236084,0.22740988,0.09465375,-0.03168677,1.07880139,0.73074806,0.49251366,0.12490514,0.08851461,0.17463146,0.41778615,-0.01231885,-0.17686658,0.14994258,-0.73741186,0.00497804,0.87955296,0.18767992,0.10420898,0.05541649,1.53199482,-1.23579371,0.42229822,0.89297718,-1.52724183,0.40644544,-0.48784792,0.03147964,0.58464885,0.12322694,0.94148862,0.13952586,
0.34111038,0.27390677,0.21438451,-0.20606655,-0.53061736,0.02441227,0.50837004,1.09901667,0.40888637,0.13846745,0.78541416,-0.52371305,-0.05615188,0.63767684,-0.43955097,-1.48490810,-0.15174371,0.11976348,0.96799123,0.20409831,-0.25007182,-0.67132282,-0.08205704,1.57469022,0.02665046,0.21734037,0.30750626,-0.21742904,-0.15167683,-1.02284598,-0.37521574,1.14412749,-1.95160222,0.40873834,0.50609547,0.59336352,-0.07103284,-0.71157902,-0.47324648,0.05064586,-0.01701005,0.26420194,-1.45714462,-1.44409943,-0.18150350,-0.17809960,-0.56009287,0.19206449,-0.31956759,0.33319190,0.07394101,0.22788741,0.84027749,0.27359569,0.48584557,-0.22535263,-1.29241288,0.73326409,-0.34248194,0.06221825,0.69329506,0.06929228,1.02324533,-0.46543542,
-3.44688773,0.44725466,-1.34615874,-0.65647137,0.41301593,0.00802690,-0.46057084,0.31552464,0.63818085,0.25235477,1.60611796,0.16768208,-0.28544426,-0.98774731,-0.56028455,-1.62537980,0.17247768,-0.10786749,0.62781274,0.28436029,0.96280116,-0.22490865,0.08339790,1.33166361,-0.00517490,0.66898113,0.43832040,1.53437471,0.03414124,-0.42030367,-1.83704937,-0.15903303,0.46378651,0.48688945,0.16958950,0.05565646,-0.34454253,-3.69511080,0.86680990,0.05521002,-0.10081808,-0.19312528,-1.37230957,-1.32904041,-1.26672328,0.49860090,-0.53664905,0.06172973,-0.21455793,0.41364396,-0.07323042,0.34658730,0.48985654,0.64102179,-0.32610568,1.45663369,0.05591914,-0.20419553,-0.09250757,-0.02836045,0.28811035,-0.07226612,0.97757614,0.63008255,
0.08721669,-0.09070592,0.01489822,-0.02107759,-0.06516394,-0.01426870,0.03970760,-0.07631440,-0.09012496,-0.09662744,-0.11062977,-0.05987171,0.01016430,0.06263660,-0.05161538,-0.10767129,-0.01824284,-0.03062844,0.08649269,-0.07062362,-0.10596173,0.07072506,0.03690468,0.09970428,-0.06475311,0.02997725,0.06442266,-0.02690513,-0.12602745,-0.08273537,-0.02874872,-0.04618682,-0.09473466,-0.03166890,-0.04515417,0.04082591,-0.04889640,-0.01927534,-0.03949242,0.09848642,0.00548498,-0.07382859,-0.06558031,0.02939458,-0.08873129,-0.12701738,0.09381691,-0.05128187,0.06625731,0.03143059,-0.10114177,0.02073557,0.01306950,0.05462224,-0.08347760,0.08033073,-0.13971159,-0.02913584,-0.08373672,0.03358094,0.02264454,0.07540700,-0.06314123,0.01359855,
0.73803490,0.10076707,0.40993333,0.68631089,-0.36926031,0.00282830,-0.41976577,1.02030456,0.12070499,0.30092797,-1.14971769,0.09571681,-0.29446277,0.15750331,0.16693938,0.75893277,0.05710673,0.12338880,0.42569730,0.06351846,0.69142401,-0.43932295,0.06534514,-1.10817540,0.27449790,0.08219298,0.32926008,-1.46889520,-0.21424903,0.56194592,0.09754389,0.00053219,-0.74451441,0.23963381,0.46065047,0.62160450,2.13225198,0.83088171,0.32779229,-0.08496433,-0.08918887,0.08292236,-0.05355400,0.37543249,0.23789884,-0.11202204,0.40627539,0.40878883,1.15179718,0.30282074,-0.06421475,0.38141435,-0.22513890,0.05194382,-0.39359984,-1.19998562,-0.47876945,0.09797324,-0.28128597,-0.05052200,-0.02044904,0.05961169,0.01270944,0.16160980,
0.81732738,0.23784545,0.66568172,0.55470246,0.01065570,0.12379190,-0.42450884,1.21954894,0.07786153,-0.28413057,-2.54097390,-0.87951201,-0.90064728,0.15195358,0.83197218,0.56768095,-0.11155315,0.11251393,0.23631254,0.18910459,-0.08626212,-1.04257166,-0.11822301,-2.20446229,0.35613593,0.27561975,0.11014048,-0.71612227,-0.96711534,-0.36986992,0.16165194,-1.18560815,-0.47680640,0.21052842,-0.01041119,0.27670503,0.36472219,0.21666966,0.43017611,0.12214424,-0.01708512,-0.11315091,-0.71244818,-0.14399883,0.65681726,0.28906465,0.49546540,0.13377002,1.08831036,-0.02746741,0.01697999,0.29291826,0.49048987,-0.08088336,-0.71043020,-0.42733482,0.22063501,-0.98166746,0.37503004,0.05297735,-0.28964433,-0.02167165,0.96025580,1.07695222,
0.39885005,0.56571501,0.30073357,-0.76607889,0.21336509,0.26083696,0.22434850,-0.55525345,0.15615651,-0.08992808,0.48786137,-0.14174525,-0.10644644,-0.24293309,0.54130214,-0.47086999,0.13824689,-0.02222805,0.11355540,0.28866363,0.05301927,0.24646635,-0.09474185,0.48472625,0.22724907,0.53753221,0.13279939,0.95838737,0.17778313,-1.55190730,0.46043879,-1.20053911,0.21146663,0.36039433,-0.13240275,-0.08976375,-1.24646473,-0.28337893,0.33548710,-0.12010495,-0.01018256,0.23305714,0.15044680,-0.41697124,0.26721326,0.38390964,-0.45499411,-0.04295925,-0.47593430,0.28752631,-0.08277065,0.11336058,1.03600812,-0.21511434,0.48437449,1.11504281,-0.04632702,0.04090850,-0.03965338,-0.05119702,0.60905969,-0.07120945,1.54436958,0.49797130,
0.55360591,-0.92212623,0.33082491,-0.36253178,0.36302751,-0.15834303,0.53147483,0.47496235,0.54294503,-0.27086407,-2.19295382,-1.65865302,-0.34917331,1.26621640,-0.12705928,0.68561393,-0.35893500,-0.09559247,0.18458608,-0.09795682,-1.84906209,-2.02882028,-0.01037675,-0.62853551,-0.30470935,0.02146998,0.28869593,0.57993662,-2.09958792,-0.66857505,1.20964491,1.37107360,1.04608393,-0.04780078,-0.06016126,-0.13207318,-0.21466433,-0.51187617,-1.22145844,0.11430451,-0.05174144,-0.33846664,0.14928746,0.58485812,0.73388481,0.10933615,-1.20553160,-0.18407379,-3.52823424,0.05011703,-0.03070508,-0.10270133,0.59841049,0.90963954,-1.75643075,-2.26459575,-0.33246478,-0.33161420,1.18237996,0.00383373,0.28376344,0.12478231,0.69296861,0.20515259,
0.17880914,0.31247917,0.16103770,0.13529924,-0.21972869,0.00871992,1.00546658,-0.09436434,0.29100654,0.28864434,-1.29726303,-0.22914347,0.69543427,1.90628314,-0.18460287,0.82996804,0.11613270,0.01429376,0.27663097,0.18362747,-1.43825090,0.15953149,0.12064533,-0.84421575,-0.30435720,0.07240736,0.29277548,0.19732882,-0.12128454,0.96624321,0.84636325,2.44695044,0.60339940,0.12938580,0.07715588,0.26009509,-0.21270671,0.23190331,-0.65851790,0.09038278,-0.02117585,0.10426445,1.08583379,-0.09247780,0.19161534,-0.00439964,0.07624014,0.24947652,-0.60130525,0.30426946,0.01740152,0.04132475,0.15802777,0.89674920,-0.37120140,-1.38757503,0.25187427,0.82310468,0.02401355,0.11713383,0.58009452,0.01794200,-0.55018872,-0.38458616,
0.38346142,-0.18648130,-0.39119259,0.37853450,0.37636340,0.25442493,-0.91709495,0.81964606,0.17544071,0.31895205,2.41307592,0.98859805,-0.21973559,-2.29773450,-0.01968700,-0.71806687,0.53628868,-0.00473647,-0.51234096,0.06595228,1.65605187,0.08441337,-0.07157111,1.64422679,0.09644298,-0.13020153,-0.23546731,-0.14560430,0.48211056,0.31323197,-0.67487723,-0.80675352,-0.58658165,0.07246684,0.15953895,0.21766078,-0.02709772,0.09494075,0.41132981,-0.01554936,-0.00341724,0.18162027,-0.97924674,0.54511511,-0.37870607,0.21229033,-0.07925270,0.11107590,0.50896430,-0.10907445,-0.06891856,0.23945539,-0.01723240,-0.65980482,0.53076017,1.28080249,0.23950711,-0.52246481,0.07786734,0.12155782,-0.49093723,0.05870394,-0.46789265,-0.14704865,
-0.06044948,0.26294330,-0.20425943,-0.43234429,-0.48489356,-0.11507127,0.13210946,0.23545848,0.27412325,0.47387838,1.76768243,0.93506485,0.14855659,0.74513191,-0.88997054,-1.16756439,0.16954842,0.09272967,0.06215398,-0.03199164,0.78531730,0.00809484,-0.07334778,1.64486945,0.26565441,-0.30256400,0.29411390,0.22274488,0.12285902,0.31801128,-0.13434051,1.32631707,-0.55827004,0.11394008,0.67101187,0.49569452,0.82870978,0.52152807,-0.71555084,-0.09933633,0.06384730,0.61045420,0.03081687,-0.45657501,-0.50228494,-0.26259947,-0.93372953,0.30866939,0.15416287,0.28886953,0.09685543,0.13953826,0.28211671,-0.25022194,0.45931846,0.05282665,-0.27636445,0.83460569,-0.94518381,0.05744727,0.76498574,-0.12377128,-0.45665431,-0.95684844,
0.37250793,-0.20590517,-0.07367897,0.40381026,0.34668931,0.25104123,-1.01371169,1.36064446,0.61739087,0.41711739,1.90997076,0.38286838,-0.17374283,0.34406966,-0.02455091,-0.88399023,0.39241701,0.04463468,0.07502430,0.29907119,1.07471585,-0.67933041,-0.08499916,1.53815544,0.26691368,0.19664720,0.28590843,-0.08820102,-0.20997801,0.31160539,-0.96113425,-0.83505505,-0.94890612,0.30592799,0.60147595,0.38597071,0.08882493,-0.53794891,0.21221358,-0.02791765,-0.09903088,0.27572313,-1.88711131,-0.28918704,-0.23925404,0.18776229,-0.17180918,0.46399119,0.09950480,0.42834428,0.10801466,0.33963531,-0.87740183,0.81710565,0.38724488,0.61501956,0.29286200,-0.02657288,0.24526209,0.10534489,-0.04076816,-0.04727076,-0.02199491,-0.09776896,
0.92162335,-2.58497095,-0.02390540,0.66171288,0.43776843,0.46941990,-2.71250749,-0.87186593,0.66155577,0.64568979,-0.82470369,0.62589836,-0.42775312,0.38648722,0.15564054,-0.71390551,0.78013241,0.11613549,-3.38111258,0.06994595,0.29162273,0.34325257,-0.06116574,-1.39520192,0.23354520,-0.71369970,0.13696207,0.16557755,-0.95201087,-0.36995777,-1.36308670,-1.07777631,-0.35402566,-0.11206408,0.62063497,0.29557762,-0.54723954,0.00655662,-0.69724202,-0.10992792,-0.01551762,0.59269166,-0.44838259,0.09588782,0.21955480,0.51799309,-0.61311597,0.35032415,-2.18434191,0.05586096,0.11647302,0.41508445,-4.04230976,2.30567336,-0.00439506,-0.88478059,0.86293578,0.34362608,0.78845626,0.08557190,-0.05415844,0.03548975,-3.03263092,-0.87662601,
0.44213986,0.22868755,0.15787964,0.30502537,0.10577346,0.09430461,-0.68562800,-0.14744575,-0.00430256,0.17242192,1.05132997,0.56726694,-0.58232164,-2.24711895,0.48638031,-0.77935755,0.32762259,-0.07425959,-0.14211793,0.00374547,1.98222530,0.19337147,0.01720245,0.68691772,0.53957099,0.10995147,-0.03316516,-0.42382801,0.41590145,-0.73775131,-0.64078879,-2.27599621,-0.53422666,0.27950150,0.05637597,0.20381233,0.92302889,0.37762138,1.08890128,0.02984802,-0.02491558,0.07901923,-0.50720042,0.49541011,-0.14941613,0.32800776,0.00459805,0.28319946,1.34841228,-0.00821710,0.08653550,0.20571767,0.70027274,-1.26336265,0.43601516,1.46651077,-0.44659066,-0.19657618,0.11807303,0.00710485,-0.21831626,0.03924407,0.70931625,0.54424024,
0.11638384,-0.12710327,0.18189740,0.62797415,0.48881558,0.34350652,-0.49500430,-0.07879397,0.02205384,0.08856107,2.21124005,1.03261220,-0.39356822,-2.27323890,0.53636479,-0.67415839,0.21925533,0.00557776,-0.70345521,-0.02841614,2.08281589,0.59278828,-0.09712817,1.29031551,0.31505108,-0.28889298,-0.50271070,-0.28445813,0.32400012,-0.65850788,-0.52173567,-1.66558886,-0.30851677,-0.29009843,0.05851176,-0.02974146,0.04001020,0.81778336,0.56340671,-0.11264522,0.09722041,-0.08554252,1.03136635,1.17203999,-0.07575766,0.17862612,0.00367436,0.12826854,0.61260885,-0.44864565,0.06777611,0.03390886,-0.24329974,-1.36326098,0.17010875,2.02813172,0.13247825,-0.83734900,0.32778448,0.09700074,-0.88144797,0.03253539,-0.12506109,-0.15443121,
0.57963902,0.75767612,0.11734141,0.15200005,-0.29519132,-0.17228244,0.41658261,-1.16971159,-0.07284031,-0.02374364,-1.37897766,0.26157951,0.07982954,-0.58918756,0.03508610,0.88567853,-0.03646586,-0.03765649,0.14893883,-0.18197848,0.02397229,0.36457616,0.11713721,-0.76919347,0.18213837,0.16571918,0.06404998,0.14918505,-0.11813052,-0.85442871,0.89740658,0.35410783,0.54003793,-0.02506444,0.26492360,0.22837706,0.10839962,0.66714734,-0.21219723,-0.10232884,-0.03342448,-0.02693965,1.58096111,-0.25598720,0.13668372,0.06884648,-0.50295925,-0.07512158,0.27794981,0.08082737,-0.06226711,-0.04172008,1.34465814,-1.18742454,-0.18712731,0.28155228,-0.85478771,0.49936774,-0.29192439,-0.11859004,0.63301730,0.07704954,0.47277877,-0.67767829,
0.05110699,0.48850930,0.39010859,-0.38591945,0.22304000,0.05571149,0.41164345,-0.87734246,0.21412443,-0.04267167,0.47427288,-0.58984089,0.12228121,-0.05544540,0.45116419,0.03464556,-0.02593332,0.12154026,0.21888734,0.23526955,-0.27350146,0.20812522,-0.09591070,0.41317904,0.16909489,0.60766160,0.22424057,1.11977947,0.14349164,-1.37272608,0.72074789,-0.78740329,0.38086858,0.23150277,-0.14067115,-0.22921032,-1.47102439,-0.42049858,0.23187102,-0.07533707,-0.05658747,0.04012344,0.16800977,-0.23171185,0.35722342,0.37719327,-0.30201051,0.08834286,-0.76130950,0.14698069,-0.04963891,0.17105009,0.95540732,0.26444992,0.37218010,0.87903756,-0.14349581,0.10147360,0.33221567,0.07481788,0.74347711,0.06144448,1.26582789,0.48760420,
1.25817490,-0.79096520,-0.31902108,0.93430394,0.31394306,0.13644141,-0.33749256,0.82428676,0.58802098,0.43348804,-1.70656741,0.27621582,0.38613912,1.00475800,-0.49197009,1.23096430,0.20814896,-0.01429600,-0.21175759,0.04886138,-1.89260530,0.00997030,-0.12209044,-1.05813694,-0.75854522,-0.12173457,0.34196383,-0.05605057,-0.77728683,1.32598174,-0.14024685,0.95854473,0.29610902,-0.30481562,0.25063673,0.14013943,-1.42184532,-0.73083496,-0.58470178,0.03967893,0.00594708,-0.25616562,-0.19433418,0.35910916,-0.23275079,-0.14634152,0.31479725,-0.05419533,-0.59699982,-0.07965460,-0.09466842,0.08085276,-1.58006680,2.00916076,-0.82144135,-1.38479435,1.20663404,-0.03826509,0.88099325,-0.00904172,-0.26375484,-0.07990958,-1.80914259,-0.08577213,
0.27837580,-0.26753208,0.01283557,0.14760154,0.37560713,0.37617287,-0.96641278,1.50183034,0.47908467,0.33914176,1.63624716,0.10704003,-0.40588814,0.19460653,0.30292979,-1.02579272,0.44325215,-0.11772218,0.09602018,0.33905163,1.13829994,-0.90948933,0.01757921,1.50678110,0.32347846,0.30981702,0.47075340,0.13109508,-0.14955220,0.15355283,-0.90921944,-1.17367887,-0.79967964,0.46374446,0.35629630,0.50146109,0.06596711,-0.76948524,0.39834839,0.01236431,-0.00197873,0.47753340,-1.95058608,-0.49835742,-0.11370115,0.31768921,-0.17085837,0.40118185,0.14880337,0.45603308,-0.09711629,0.41973048,-0.77798361,0.78594404,0.33122408,0.75400567,0.44400421,-0.18525979,0.24283969,-0.05762425,0.00259974,0.06702952,0.19237697,0.32366419,
-0.15029162,0.08069177,-0.63479531,-1.09243274,0.09817411,0.18780072,0.39614969,-0.87335736,-0.14689843,0.30051649,2.44743109,0.64263934,0.37947631,-0.52957553,-0.81442314,-0.22214530,0.19617240,-0.04214822,-0.73992735,-0.04591744,0.58278638,0.85210019,0.09037460,1.90528643,0.07141548,-0.27245376,-0.00391320,0.96959925,0.73597169,-0.12671340,0.31701919,1.14038575,0.48533937,-0.13326879,0.09396081,-0.10749835,-0.32815406,0.14609686,-0.38008514,0.01105933,-0.04584783,0.47833264,0.96801585,0.01553843,-0.56891131,-0.11858784,-1.01156688,0.05725967,-0.73835343,-0.03549794,0.05052324,-0.11694352,-0.51501018,-0.45850480,0.57043046,0.98989356,0.07068687,0.70652169,-0.72776031,0.09431387,0.65325940,0.09500790,-0.79712331,-0.56184894,
0.04942098,0.06500978,-0.18900694,0.13571009,-0.25637883,0.04558385,0.60798937,0.03336574,0.08857951,0.57254487,-0.38494664,0.55802351,0.48380387,1.25133550,-0.66911334,0.82733834,0.15010729,-0.08733954,0.23794664,-0.00483439,-0.73660564,0.07802907,-0.10179569,-0.21685544,0.07853265,-0.34562746,0.31238732,-0.10505576,-0.21936774,1.38752067,0.58985949,2.74739194,0.44590604,0.03085361,0.55728668,0.55870795,0.90028572,0.56070298,-0.81472147,0.03057519,0.03243840,0.33294505,1.22840130,0.05534470,-0.20801102,-0.45763385,-0.22352575,0.09194060,0.03322829,0.16009329,-0.00640120,-0.01660773,0.08010706,0.26003590,-0.25656673,-1.07837069,0.11144047,0.88655788,-0.51041245,0.07408575,0.36917329,0.07704936,-1.25652313,-1.03985941,
0.30267385,0.33456969,-0.30609828,-0.78169781,-0.29097772,-0.01235797,0.29190952,-0.57325810,-0.08455295,0.06525207,1.43467665,0.68620682,0.30043232,-0.58562428,-0.58584833,-0.08838287,0.07090837,0.04822485,0.05808858,0.06313207,0.70480680,0.56592470,0.04545130,1.33723295,0.22003506,-0.09606721,0.16543476,0.46585798,0.53339982,-0.87510073,0.43527132,0.80167878,0.39266223,0.19387603,0.07853315,0.22714737,-0.01827908,0.23086779,-0.39385104,-0.01506491,-0.07504886,0.39173454,0.67513716,-0.05366589,-0.35924596,-0.14447992,-1.10563827,0.00501540,-0.31672764,0.14803180,0.07268536,-0.05243847,0.86993027,-0.77982914,0.48908976,0.76304966,-0.64596128,0.79537576,-0.48253599,-0.06543572,0.84140563,0.11479667,0.54778069,-0.47440049,
0.49874559,-0.39207259,0.15811372,1.12401998,0.32125670,0.28135642,0.11112384,1.23535907,0.72908384,0.54066843,-0.95954931,-0.19516891,0.31114560,1.14280283,0.18439817,0.76466149,0.20816013,-0.11492847,0.00622245,0.24109584,-1.54106581,-0.23589249,0.08829504,-0.91629696,-0.35280854,0.05790937,0.55478233,-0.30720142,-0.54963464,1.47482061,-0.15324518,1.08439362,0.20797777,0.28995928,0.42391604,0.59096664,-0.52748173,-0.43495086,-0.21017061,-0.04121113,0.04243121,0.23719420,-0.47059917,0.19315174,0.23276392,0.18449144,0.89353335,0.33811724,-0.17431970,0.33909756,-0.03262444,0.50629377,-1.12479579,1.84515131,-0.42509636,-1.56609821,1.06812739,-0.09715596,0.82316953,-0.00267597,-0.26625133,0.11587401,-0.98727131,0.29031390,
-0.18969904,0.32181010,-0.19399725,-0.32852793,0.33763167,0.20828758,0.76257944,-0.42318755,0.39773229,0.02994558,1.40427458,0.18242446,0.72072190,0.32442608,-0.14814751,0.09984883,0.29484460,0.02495414,-0.20409921,0.21139656,-0.67965257,0.46374243,-0.10115209,1.19481182,-0.28387189,0.05568983,0.09282819,1.29120946,0.19479391,-0.21341267,0.42750600,1.32619905,0.68090236,-0.09235164,-0.04582191,0.01523956,-1.86267412,-0.37492421,-0.43645996,0.05723852,-0.00082809,0.16387764,0.52066821,-0.24893382,0.13657080,0.17601985,-0.28909078,-0.09016205,-1.48756135,0.05115004,0.03787617,-0.11308727,0.73059279,0.69408798,0.31139874,0.29784933,0.47919858,0.48337889,0.38549480,-0.02223690,0.47419438,0.03669202,0.07004409,-0.21187250,
0.47173694,0.39071044,0.37217471,0.46085161,-0.20905742,-0.04369650,-0.13123593,-0.21898760,-0.41805169,0.12506612,-1.62401712,0.11597501,-0.45741698,-0.23308219,0.60802126,0.76017398,0.01415017,-0.01697268,0.14681579,0.03510972,1.38229465,0.20206401,-0.11670874,-1.08979511,0.56242687,0.08587310,-0.14092201,-0.86394894,0.06677527,0.15489088,0.13314408,-0.82753158,0.03573585,0.14958115,0.19293784,0.29492095,1.94296217,1.65097296,0.69635928,-0.07657610,0.09672712,-0.06866086,0.93924767,0.95206404,0.34404761,0.06856934,0.28414485,0.11527617,1.34234464,0.15174827,0.00191267,0.21309121,0.49283424,-0.89267975,-0.10022015,-0.09157777,-0.80602187,-0.21168122,-0.10623650,-0.02466117,-0.21627299,0.06724618,0.34788477,0.18715580,
0.68746156,-1.45054650,-0.04338495,1.27266479,0.36502784,0.08761226,-2.51864505,0.48344752,0.52224195,0.21414189,2.45139647,1.01236570,-0.92658752,-2.42918611,0.47412190,-0.01278685,0.37823114,0.04592510,-3.33352852,-0.28252104,-0.94077206,-0.91594106,-0.01091030,1.11880469,0.19374371,-0.33523056,-0.12510268,0.24804150,-2.71990848,-2.82125378,-0.68996197,-0.94883090,-1.37300622,-0.19567665,0.56345356,0.12783284,-1.23520911,0.29949480,-0.24328931,0.12306583,0.01134285,-0.05561537,-0.63950747,0.54834580,0.02362564,0.46774933,-1.17554998,-0.00190267,-1.93571937,-0.44818959,0.04083890,0.14437017,-1.81253469,-0.12045266,-0.83807915,2.29173064,0.89073563,-1.31185412,0.95578766,-0.04062866,-0.20897429,-0.00481576,-0.97553778,-0.39532134,
0.50666481,0.54195738,0.89733136,-0.34129176,-0.52168119,-0.14361967,0.21851936,0.80441308,-0.52075011,-0.18208592,0.72056508,-1.50342751,-0.81657737,-1.53601801,0.94834036,0.21623097,-0.13632013,0.05148137,-0.84624892,-0.20618497,-0.15243392,-0.57074672,-0.09884328,0.91603464,0.47614443,0.16061582,-0.08847959,-0.10335506,-0.53255576,1.46487534,0.24397309,-1.76738036,-0.52771050,0.02634243,-0.12614982,0.20895353,1.67026889,1.25561738,1.16014290,0.11206165,0.00267965,-0.52972448,0.40340310,1.22241652,0.82060546,0.04674568,0.64248788,0.29850966,0.98015666,-0.21859372,0.11261916,0.38239273,0.44803140,1.00310087,-0.35925713,-0.66886336,0.03366933,-0.82074386,0.05056843,0.12347701,-0.19769308,-0.02473639,-0.82230663,0.43634772,
0.41901511,0.66434348,0.47898570,-0.62851793,-0.28292102,0.01535648,0.64079356,-0.45611429,-0.09635538,-0.19772463,0.15834868,-0.32382882,-0.00641568,-0.15530466,0.02346906,0.26628953,-0.32149488,0.01153235,0.49123698,0.10607360,0.19586959,-0.12322967,-0.07588248,0.61914349,0.44296727,0.32606795,0.24734062,0.43507302,-0.08635271,-1.44555080,0.92872703,0.06797522,0.07024693,0.27688646,0.17782079,0.20890263,0.23323625,0.28339294,0.10347093,-0.02734268,-0.07950595,0.33262989,0.37282014,-0.36797115,0.43773302,0.09070408,-0.68481904,0.10399403,-0.32585475,0.36846912,-0.01337545,0.06882118,1.06340551,-0.36226439,0.40079314,0.41386634,-0.76299930,0.65083665,-0.34052822,0.03818581,1.02058005,-0.03735234,1.32795727,-0.18304698,
-0.61989701,0.03942357,-0.78147990,-0.33731326,0.44286707,0.16789429,-0.01556265,-0.21094507,0.45246658,0.43586344,2.47477555,0.77895093,0.37752816,-0.57304811,-0.78012055,-1.89902711,0.29931036,0.10954228,-0.55606973,0.03449434,-0.13008204,0.31023240,0.08856177,1.91584802,-0.38654953,-0.06004390,0.24599646,1.11255705,0.33928391,0.06474860,-0.93854398,0.95894456,0.58341140,-0.08218921,0.18156254,0.04699963,-1.54530954,-0.53079927,-0.55335003,-0.10678831,-0.09603027,0.21976931,-0.09415011,-0.38186294,-0.55715370,-0.04107891,-0.58629292,0.02874265,-0.99666256,-0.04217808,-0.02898300,-0.03086160,0.17404138,0.26523846,0.54763794,0.77199709,0.28620631,0.43333313,-0.24603666,0.03785595,0.60702169,0.06199721,-0.44150349,-0.48405898,
0.50181115,-0.81401169,-0.32774600,-0.12481254,0.51296598,0.33213842,-1.26198983,1.43205595,0.50731534,0.51157403,1.84919810,1.23149109,0.05562286,0.31790638,-0.41566920,-0.48786873,0.57319975,-0.09506778,-0.65857071,0.04737260,1.68890119,0.39894560,0.09097053,1.13272810,-0.05659257,-0.54186887,0.04118747,-0.70724845,0.15611942,1.28645122,-0.66560942,-0.04801679,-0.17978132,-0.36926809,0.37703657,0.18992375,-0.17590111,0.60729206,-0.14789349,-0.07335594,0.01830854,0.43741009,-1.48110414,0.71098906,-0.05854199,-0.04353783,0.66319060,0.01864987,0.50841498,-0.03167443,-0.01638210,0.23380864,-0.88213497,-0.34684274,-0.01611828,0.07749858,0.82178295,0.11925323,0.24635696,0.05081318,-0.42356035,-0.08214387,-1.29193616,-0.62711543,
-0.06279015,0.29048973,0.36315608,0.56643510,0.16816154,0.14400660,0.04222196,-0.26170027,-0.37303165,-0.15156290,-1.64400589,0.18107846,-0.15815625,-0.71178430,0.63562065,0.47077554,0.06242610,-0.05029744,-0.14192896,0.05064649,0.94558853,0.57451510,0.00935623,-1.09760606,0.42604515,0.09419853,-0.26723701,-0.55794019,0.14290658,-0.09727317,0.08750392,-0.86430502,0.21326515,0.14078327,0.06557413,-0.08800684,0.91980094,1.35094428,0.84172952,0.00190009,0.04898089,-0.05141566,1.11490560,1.07142603,0.31704053,0.27229896,0.73264688,0.18350719,1.21130431,-0.00421382,0.10278733,0.20305398,0.27681580,-0.85834765,-0.11867839,0.53967112,-0.14867786,-0.51165766,0.21297298,0.07148802,-0.38484180,-0.00362630,0.36002889,0.58357233,
0.12863787,-0.43065095,0.22102191,0.99049711,1.03629386,0.46473682,-0.08399553,-1.00711370,0.30782750,0.33700356,0.18771659,0.55545068,0.36415276,0.23392011,0.07185763,1.10436869,0.54210877,-0.02107908,-1.04547369,-0.01643915,-1.59939682,0.60781825,-0.09534523,-0.14204499,0.01178127,-0.37382784,0.01344150,1.10960364,-0.32795504,0.73844492,0.46348026,1.44929993,0.76318514,-0.05746956,0.03270475,-0.13783924,-0.61634433,0.48633048,-0.57492048,-0.11368375,0.08560625,-0.00486300,0.86457956,1.23743761,0.24824721,0.33132756,0.40522948,0.13455471,-0.99083561,-0.29442027,0.04222453,0.13594499,-0.88321495,-0.28794008,-0.53668284,-0.17862876,1.64530361,-0.31742421,0.73661196,-0.09756561,-0.20950498,-0.00114746,-1.07328820,-0.47258154,
0.70027775,-0.35573611,0.05578807,0.99832016,0.34673557,0.36093432,0.03262351,1.08770561,0.75892425,0.42657945,-1.06255901,0.00106562,0.39517713,1.29018736,0.00237345,0.84447592,0.19719653,0.02867723,0.01092870,0.29907730,-1.52616167,-0.14271902,-0.04087779,-0.76499099,-0.36096984,0.03649242,0.59508455,-0.25555879,-0.37347457,1.50347018,-0.20152608,1.24393201,0.07734092,0.30859572,0.38662282,0.56170094,-0.50218660,-0.43389872,-0.38665098,0.04831037,0.12498759,0.07356019,-0.31763166,0.32085556,0.24815865,0.13380435,0.83942860,0.38873091,-0.20332797,0.14430636,0.02760994,0.53377366,-1.12769389,1.98499775,-0.51804262,-1.35330737,0.97916490,0.09803484,0.63580680,-0.07422909,-0.26055574,0.02265418,-1.02420890,0.05256904,
0.04859013,0.02098880,0.01419964,-0.06928037,-0.12650737,0.01977350,0.06822887,0.10323747,-0.06597787,-0.07642401,0.03237433,0.07814731,-0.12195334,-0.09273000,0.08171801,-0.00095509,0.00713854,-0.09966913,-0.11950472,0.11727650,-0.06486038,0.01211363,-0.00976907,-0.05375346,0.10228139,-0.08302092,0.08026749,0.03909159,-0.08551550,0.01288037,-0.10355175,-0.12847176,-0.00835548,0.03266554,0.10536251,-0.04708014,0.10766856,0.03783900,0.06285945,0.01626676,-0.04935995,-0.09795660,0.02098143,0.05348797,-0.02527984,-0.11968477,-0.06648347,-0.11068118,0.00524911,-0.11487143,0.01258568,-0.08049900,0.07884546,0.08111559,-0.01083738,0.11644430,-0.01710288,-0.10484971,-0.11618107,-0.00635122,0.00921285,-0.05316807,0.05150279,-0.07937613,
0.88936299,-1.68988121,0.15412408,0.61677581,0.08393024,-0.06357055,-1.48750746,1.15516925,0.15967640,-0.30633092,-0.55819982,-0.46286064,-1.44121587,-1.04743719,0.02849313,1.22512603,-0.04989197,0.06067784,-1.49988914,-0.34592915,-0.16723141,-1.58327055,0.06655191,-0.84487969,-0.08575679,-0.88514334,-0.33532214,-2.32614851,-1.99570715,0.67936319,1.09498179,-1.88884258,-1.82272518,-0.45819300,0.07904361,-0.07655423,-1.01998925,0.49249288,-0.40553552,-0.11919717,-0.10490938,-0.28793362,-0.71276563,0.62045133,0.02153641,-0.10828754,0.22151287,-0.02704030,0.46366271,-0.79458022,-0.02157930,0.00702238,-1.93590617,0.21295698,-0.48775259,-0.46225330,0.11738863,-1.70853996,0.41596258,0.09500058,-1.53602111,0.06955530,-1.28933215,-0.07384672,
0.14271577,0.25927249,-0.20492703,-0.59561151,0.21125096,0.18009557,0.54180980,-0.34198919,0.24652515,0.02086998,1.43103075,-0.00810743,0.36518461,0.32503536,-0.19390237,-0.01732467,0.15521671,0.01647034,-0.45133102,0.32479754,-0.56783187,0.37880322,-0.06940767,1.11306798,-0.26745820,0.08511537,0.30459124,1.20782220,0.14148885,-0.41746247,0.38872463,0.95232588,0.61773163,0.02271132,0.00411258,0.00710118,-1.74422252,-0.52888376,-0.56941164,-0.02547188,-0.04573849,0.15327598,0.46920693,-0.29137999,-0.07212046,0.10425423,-0.50759965,-0.01494728,-1.52477932,0.12294582,-0.10705562,0.10068630,0.47453940,0.55083412,0.25358358,0.36514068,0.52478856,0.47516519,0.25564325,0.05664725,0.70348603,0.00180198,0.25458431,-0.19329995,
-0.02454414,0.89322108,0.18628787,0.35206461,-0.03001826,-0.01899947,0.90174866,-1.01011717,-0.49830201,-0.18790983,-1.83373189,-0.08064958,0.03753036,-1.08600998,0.27160859,0.96559787,-0.01803011,-0.05336773,-0.13541928,-0.18993086,-0.52379447,0.67778218,0.10331237,-1.27437222,0.37053177,0.16115676,-0.16219723,0.42769274,0.22435699,-0.84341574,1.09527445,0.55962795,0.81736779,-0.00754535,-0.29301146,-0.07351422,0.40148169,1.01919234,0.37891600,-0.07032718,-0.06359296,-0.09841403,2.28065801,0.30326247,0.26314306,0.19403650,0.21134952,-0.16880007,0.33323446,-0.12810282,0.12144504,-0.07203477,1.14436638,-1.13511825,-0.08297560,0.39159089,-0.58811349,0.07236453,-0.00004728,-0.02498353,0.27315328,-0.05231686,0.57916069,-0.02657881,
0.37950626,0.42375240,0.28683543,0.16635716,0.45620167,0.35166362,-0.25991035,-0.42290813,-0.00909302,-0.06521861,1.12470078,0.23595922,-0.41407365,-2.56046772,0.82940000,-0.69185960,0.15102173,0.02997082,-0.03235158,0.10729843,1.63649154,0.31583300,-0.06808721,0.42156073,0.69344330,0.52519172,-0.20275547,0.21848847,0.39502019,-1.05144453,-0.39717048,-2.35024357,-0.44868317,0.24229172,-0.12268844,-0.14511006,0.01433966,0.34312713,1.05240107,0.09080505,-0.11541849,0.13243116,-0.36547026,0.55499548,0.30381447,0.58046925,-0.11970519,0.09757105,0.54292065,0.10845615,-0.01100457,0.23157923,0.73681599,-0.91092074,0.61175078,1.88749993,-0.10595518,-0.30702266,0.25435689,-0.09156968,-0.08046413,-0.09946661,0.84212720,0.65208757,
0.56325006,0.15859529,0.64007503,0.61554503,0.53588921,0.30210486,0.35966584,0.57347351,0.28290147,-0.08677956,-2.59956813,-1.28084314,0.02144391,0.12084876,0.99683034,0.97973198,0.20989239,0.01177271,0.56053287,0.48965147,-1.00382590,-0.32608691,-0.10191095,-1.94980681,0.03448942,0.64915049,0.37698951,-0.23559764,-0.58030975,0.05415741,0.43411326,-0.34299549,0.17199109,0.40967998,-0.16262841,0.01356642,-0.91198087,-0.43242675,0.60372949,-0.12024115,-0.02807364,-0.26809740,-0.14619979,-0.15832694,0.67902786,0.47333252,1.11055040,0.30113626,-0.14602897,0.35572934,0.08866847,0.34564635,-0.00018229,0.86287159,-0.45838496,-0.83551049,0.25560781,-0.37966219,0.88036919,0.06374449,-0.29864290,-0.10101759,0.75856125,1.21102619,
0.12573618,
0.24978442,
0.22225940,
0.09269420,
0.11544893,
-0.05646944,
0.22880612,
-0.00755187,
-0.08276726,
0.38243452,
-0.00070078,
0.09415286,
0.00549977,
0.18547781,
0.15179111,
0.34056932,
-0.14875279,
0.17453766,
0.26746759,
0.25573611,
0.22084121,
0.11704294,
-0.02853174,
-0.02622016,
0.09428260,
-0.16576564,
0.29231989,
-0.15356736,
-0.02768362,
0.26869303,
0.20313340,
0.04478130,
0.01523636,
0.19389527,
0.02388425,
0.11782340,
0.37938672,
0.50538152,
0.17442198,
-0.01221651,
0.00476418,
0.18645459,
0.37957862,
0.23150055,
-0.05377004,
0.05744842,
-0.05015578,
0.44144276,
0.12310459,
0.22395034,
-0.05303016,
0.38026035,
-0.15174755,
0.10064222,
0.18874893,
0.09931655,
0.08721280,
0.66623521,
0.00479629,
0.07199059,
0.15746005,
-0.07496613,
-0.01501859,
0.54667586,
-0.69337982,-0.62091756,1.33657670,-0.70463759,0.90289605,-0.61384195,1.82480490,-0.01279690,-0.09100489,1.10797524,-0.17567860,0.71450901,0.44167250,1.15351689,-0.87587273,1.41261446,0.00452679,-0.56667185,-1.50595629,0.85220230,0.87037373,-0.72004074,-0.07112583,-0.08354374,-0.57100397,-0.73192686,0.08552981,-1.01113224,-0.05743404,1.16001630,1.06268477,-0.71392339,1.07619894,1.01238620,-0.79199928,-0.45180759,-0.34143740,0.42409018,-0.35622534,-0.32780457,0.17849939,-0.64335436,2.27541780,-0.27808705,-1.27464068,0.78852046,-1.11026025,1.28949797,-0.57450658,0.68383384,-1.58312225,0.57112420,-0.34425518,-1.00962126,-0.16454281,0.59611523,0.39564741,1.42777956,-0.09206453,1.76862168,-0.60128719,0.40668711,-0.62814599,1.24633658,
0.06449421,1.14283741,0.32785705,0.43898842,0.94964707,-0.66694331,-1.12826002,0.00748082,-0.11923918,0.78977197,0.61739063,-0.46225157,-0.25436416,0.30546314,-0.16793093,0.86297578,-0.02124844,0.06623802,0.19112577,-1.06676865,1.19929898,0.23090506,0.10917797,0.06581392,0.74306387,0.18412106,1.12892437,0.14521819,-0.07915657,0.73901576,0.36248007,0.20461135,2.17613506,0.12468745,-0.35293651,0.70305270,0.48297995,1.14134383,-0.05273342,-0.82602501,-0.00439383,0.16209868,-0.76253688,0.42790461,-0.46476337,0.33489695,0.09460838,0.10436139,-0.31174755,0.09000494,-1.19305408,-0.06741831,0.64186043,-0.16954228,-0.48678124,-0.52546954,-2.28203678,0.12193112,-0.00942928,-0.19760042,-0.06109849,-0.71635604,-0.18596128,-0.13442422,
0.57678282,0.39441139,1.31831145,0.21478154,-0.10221755,0.26368302,0.84901351,-0.11842929,-0.05417290,-0.65143019,0.30253425,0.37529439,-0.26459929,0.82653600,0.53775549,0.41251934,0.11537741,0.01273916,1.04673588,0.26319626,0.56700069,0.23025663,0.05330879,-0.07249920,0.86552894,-0.66873443,0.63053006,0.80558383,-0.08961469,-0.43154550,0.55135375,0.45784003,1.72669685,0.24425989,-0.34638241,-0.90709662,0.11034595,-0.57212603,-0.46981493,-0.75781095,-0.48232639,0.67496157,0.97380519,0.23744735,-0.25552750,-0.58351946,-0.34288037,0.77673262,0.48858979,-0.70388293,1.46347272,0.00805862,0.10380480,0.05514718,-1.41819799,-0.36754179,0.26487839,0.77624637,-0.01492718,-0.12263550,0.46252134,0.03734683,0.00615915,1.21083820,
1.38004673,0.59864229,1.32445765,-0.41429049,-1.28248322,-0.74252588,1.01449847,0.06254476,0.00181445,0.68509191,0.49790499,-1.18508792,-1.59257185,0.23743829,-0.56329060,0.32095444,0.03341404,0.55328441,0.37846586,0.40962008,-0.75888211,-0.68589193,-0.06493399,0.02205469,1.43051064,-0.23440787,-0.89244342,1.12991869,-0.09060927,0.60811204,0.75969505,-0.34831277,-1.75747859,-0.83518678,0.61855584,-0.62480778,0.54028630,1.29496002,0.60523123,0.50882757,-1.14648163,-0.54627776,0.66915655,0.46979696,-0.54237169,-0.89001071,-0.81712133,0.45388964,-0.84807092,0.46213976,0.77741170,0.71381623,-0.80769557,-0.52029043,0.78551394,0.49978894,-0.30457625,0.48571846,-0.03514294,-0.18129735,-0.75198591,-0.81960934,0.46073806,0.41895354,
0.63860762,-1.05030704,1.67615879,-0.18159658,0.45567977,0.15546216,1.21242177,-0.05873271,-0.11731516,0.44241023,-1.37542593,-0.01330331,0.04100388,-1.61913896,-0.18557179,0.23509657,-0.01105882,0.15447028,1.48374283,0.06560679,-1.69272840,0.68738967,-0.00448088,0.07586022,0.46420038,-0.53962481,0.89197326,0.23275810,0.09586038,0.15904176,-1.17514217,-0.52770925,0.87564039,0.57316351,0.18059097,0.58252817,0.42519203,1.91244185,-0.53564316,-0.21045248,-0.85523778,-0.44090414,1.57174134,0.29232174,0.29305035,0.82954729,0.07443811,0.94643873,0.37753004,-0.61272126,1.33113122,-3.08492827,-0.50254738,0.48464185,0.54265404,-0.70136261,0.58186054,1.12819171,0.11166875,-0.25484276,0.30487344,-0.72286129,-0.71534616,-0.31144899,
0.23624320,
0.23315150,
0.24278913,
0.33486807,
0.17229424,
