// Neural Network File Format by Kyle Julian, Stanford 2016
3,10,4,16,
10,16,16,4,
0,
0,0,0,0,0,0,0,0,0,0,
15,15,15,15,15,15,15,6,15,15,
0,0,0,0,0,0,0,0,0,0,0,
1,1,1,1,1,1,1,1,1,1,1,
0.22988868,0.24463339,0.16053908,0.21703063,0.17024814,0.18984172,-0.11099064,0.39976576,0.26980758,-1.67708743,
0.95277494,-0.15009737,0.23576406,0.49379334,0.83439875,0.71175009,0.19161336,-0.27507520,0.04141301,-2.89266229,
-0.53923875,-0.14613140,-0.14136291,0.10754162,0.11062956,0.01874852,-1.57965493,-1.40015459,-0.84465635,-0.67305464,
0.96425962,0.80878317,0.94185793,1.03898168,0.89249235,0.54559159,0.47780186,-0.21394220,0.61356807,0.11183958,
0.68487835,0.67678666,0.68184847,0.74577743,0.57415837,0.68340141,-0.07728243,0.23112918,-0.09217636,1.07913041,
0.78205740,0.81999421,0.82051289,0.87038910,0.93017501,0.87065011,0.20827481,0.16317555,0.10446692,0.62998033,
0.87532479,0.82453001,0.79147953,0.74920398,0.68997610,0.74189609,0.29601026,-1.01639163,0.51950270,-0.49545038,
1.07371342,0.84457129,0.69876647,0.55527735,0.31200463,0.40259555,-0.08511227,-0.01976525,-0.12553026,1.00712466,
0.94209933,0.96531755,0.81441116,0.46434203,0.19130486,-0.00985303,-0.00819887,-0.34401089,-0.39713448,-0.12526913,
0.22082455,0.14882302,0.09754140,-0.00651603,0.23489158,0.16885372,0.67629457,1.08841896,0.88208479,-0.07242966,
0.52369708,0.39677161,0.35695472,0.37157273,0.31829962,0.32874441,0.19819881,-0.30657905,0.15893370,-4.91649151,
1.03309238,1.04946780,1.05582249,0.94367754,0.66260314,0.96657091,0.72079635,0.09486032,0.48836574,-0.30231753,
0.01109686,0.11362912,0.11424673,0.11153152,0.31267375,0.30821133,0.28527409,0.00413179,-3.87244081,0.03085009,
0.47920695,0.40632847,0.39537486,0.37648174,0.35604924,0.38493702,0.35368043,0.08705602,-5.85414791,0.09676199,
0.41172925,0.17694649,0.16416040,0.16361892,0.22446206,0.28091702,0.33688954,0.50589609,0.68104881,0.34726012,
-0.14494684,0.07828155,0.15011495,0.24260256,0.40492037,0.63728458,0.27291441,0.38109517,1.28869414,0.41561675,
0.53649110,
0.26664037,
-1.03691673,
1.33786511,
0.52354771,
1.05834353,
0.42009562,
0.47646663,
0.14819439,
0.77746344,
0.72411418,
1.17874539,
-0.13534413,
0.11303665,
0.56467104,
0.72106087,
0.01486955,-0.52165949,-0.79276347,0.68842882,0.44419575,0.12095682,0.53781432,-0.06726274,0.12005895,0.88479042,0.57852536,0.71904963,-0.18180767,-3.19811177,0.79577088,0.95376003,
1.18763065,0.91307485,-2.11241364,-0.31237167,2.44165635,-2.72229600,0.99115658,-2.75003409,1.36043072,0.22789863,1.79554427,0.02730167,1.27942586,-0.35464841,-0.21892750,0.00922606,
-0.17499723,-0.10119032,-0.09736302,0.03760264,-0.20381168,0.17424738,-0.08771911,-0.12397805,0.19991519,-0.04525707,-0.20956057,-0.02387630,0.14616850,-0.08471317,0.08043376,-0.27952015,
-0.40938598,-0.45114785,2.78894639,0.14866912,-0.87539577,0.60918653,0.58880943,0.96053654,-0.65082383,-0.18590564,-0.73399329,-0.20033845,-3.02491879,0.28526735,0.23200424,0.37828931,
-0.45058459,-0.56356651,-5.89548969,-0.47939605,1.81796050,-1.70965660,-1.02709961,-0.61357230,0.65129858,0.85938668,0.81868005,-0.54825938,2.42021799,-1.88339686,0.20351560,0.44433066,
0.20352843,-0.37628812,0.17287636,0.57222545,1.18488050,0.33723554,-0.01843093,-0.74186599,0.38528213,-0.11022374,-1.06414187,0.65672827,2.00915504,3.58431959,-0.32875788,-0.26605013,
0.20873070,0.11238367,-0.90147156,0.53409678,1.01626182,-0.03746118,0.46627975,-1.53533792,-0.01102772,0.16618864,0.71171385,0.91932988,2.59668088,3.53128171,-0.32443175,-0.38604915,
0.41100261,0.45476425,-0.89039820,1.01910746,-0.10441165,0.61081731,1.05546296,-0.19873057,0.61266655,1.02377176,1.11085534,0.88354403,-0.06046512,-1.61596870,0.67098939,0.78036928,
-0.73145550,0.69756949,1.20459819,0.44045770,-0.39639544,0.65684289,0.79278255,-0.01230669,0.64467949,-0.53880984,0.38266650,0.48924392,-0.99832016,-1.34294951,-0.26763064,0.40838769,
0.06079368,-0.30451977,-0.59087503,0.57282972,0.19763261,0.20738232,0.46499768,0.13512872,0.40936372,0.98272043,0.71611404,0.80943638,0.05775415,-2.47158861,0.83644235,0.88459605,
-0.06317740,0.46264294,1.39988554,1.07367420,-0.43074477,0.57067424,1.74765992,0.07758595,0.20975274,0.02213108,0.73526973,0.47958595,-1.00592220,-0.88844883,0.34316573,0.77790707,
0.06742227,0.01209285,0.90977198,0.66940218,-0.24458829,-0.21033017,0.66954565,0.49363616,-0.61370105,0.54450864,-0.30824041,0.36673921,-0.83468640,-2.85205388,0.48606181,-0.01210468,
0.74876016,0.00814100,-1.38034797,0.80519581,0.08732396,0.77220643,0.05377479,0.07883082,0.18066722,0.97295856,1.23368108,0.79875863,-0.16253056,-2.44063306,0.83843470,0.77783710,
0.46419013,0.12973845,-0.56368721,0.67044848,-0.10908104,0.03611984,1.29799867,-0.09138006,0.14129181,0.57196796,1.50543821,0.24262522,-0.93507355,-1.76043522,0.08329663,0.28952515,
0.52488160,0.07698105,-0.46021697,-0.32362676,-0.53547889,-0.03489332,0.52140546,0.04317508,0.68956214,0.56851912,0.49293870,-1.18442690,1.65643120,-2.34314823,0.72778374,1.57555783,
0.69328594,0.92141479,1.82192111,0.21871331,-1.09779763,0.71337676,0.73679060,0.92720115,0.73799098,-0.57244694,0.50292128,0.42709646,-2.11740303,0.10524204,0.06571996,-0.24544361,
0.63337284,
0.29647151,
-0.22447351,
0.15446533,
-0.42749226,
0.29567036,
0.25422886,
1.04916930,
0.43290964,
0.86962289,
0.74239939,
0.69337171,
0.61199850,
0.71213287,
0.19439316,
0.25828362,
0.28895780,-0.71965271,0.06613415,0.75101918,0.25175992,0.32465756,1.39979959,0.96544611,-0.96327364,0.45181209,0.99414986,-0.37210569,0.75713116,0.90113103,0.88783091,-0.24748486,
0.81319588,-0.07627204,0.13581087,-0.18225920,4.93248367,1.43680167,1.06910384,0.65786052,-0.95112807,0.61728996,0.10208301,0.37645313,0.76156372,0.51922917,0.35205707,0.39138913,
0.64268047,-0.91611654,-0.20679794,0.22713654,0.51471341,0.85281157,1.40548790,0.75651902,0.44453561,0.53068048,0.78586572,0.14801309,0.29593682,0.71148717,1.28461945,-0.99404186,
-0.90932554,2.00027418,0.18208820,0.40760759,2.58321595,3.33389711,3.16597581,-0.35284340,-0.73455036,-0.50756627,-0.00398060,-2.54348493,-0.65072137,-0.65765965,2.25684357,1.09146535,
0.84753543,
0.08736482,
1.08621120,
0.18498735,
