// Neural Network File Format by Kyle Julian, Stanford 2016
3,13,5,256,
13,256,256,5,
0,
0,0,0,0,0,0,0,0,0,0,0,0,-3,
20,20,20,20,20,20,20,20,20,20,9,20,3,
0,0,0,0,0,0,0,0,0,0,0,0,0,0,
1,1,1,1,1,1,1,1,1,1,1,1,1,1,
-0.40941000,-0.89270949,-0.34493467,-0.07355861,-0.70423704,-0.05630779,-0.08107899,-0.11187936,-0.90878981,-0.01206521,-0.60910332,-1.19855630,-0.79452634,
-0.47534385,-0.73501027,-0.14868735,-0.49529010,-0.37343991,-0.74550182,-0.75302118,-0.65909129,-0.19612692,0.02731864,-0.63712353,-0.50475949,-1.53050935,
0.28566605,-0.08826555,0.20477641,0.09598940,0.25175512,-0.16370024,0.25813171,-3.06347132,-3.04744649,0.26760006,-0.29575759,0.27688116,-0.75214469,
-2.73582029,0.00035851,-2.30844903,-2.99275732,-2.74147272,-3.28275013,-0.03086706,-0.00667320,-1.89941382,-1.14459109,-0.83292782,-0.20720096,0.28715172,
-0.05335169,-2.99113727,-3.56033039,-5.21349764,-5.10075569,-3.67458582,-0.16537328,-1.37652087,-1.27134657,-1.23602283,-0.81469691,-0.09592811,1.45946050,
-0.30522144,-0.60366911,-1.01550150,-2.61968040,-1.28381205,-0.06831530,-1.78981411,-0.55302936,-1.60100222,0.25724775,-1.13051736,0.11112818,0.34619612,
-0.00075507,-0.06620293,-0.01091423,-0.22235817,-0.19732045,-1.29158902,-1.52872765,-0.13275976,-0.64490730,0.08077320,-0.94437528,-0.14451224,-0.94845420,
0.19226766,-6.59225607,-5.81694221,-4.79248905,0.33594489,0.37009516,0.33354229,0.43070269,0.45985803,0.57954240,-2.94261837,0.43425804,-0.91898346,
-0.10047591,-0.51566952,-0.49476156,-2.60749221,-3.65578365,-2.95823431,-4.38761044,-5.88513470,-5.87276840,-0.08491400,0.95702267,-0.12661931,-0.18484548,
-0.08697733,-0.02970889,-0.34794968,-0.21742386,-0.22959948,-0.02876522,-0.12848778,-0.00320774,-0.03072273,-0.01503571,-0.65736467,-0.20930673,-0.15853679,
-0.07689346,-1.23258770,-2.22290683,-3.56223655,-3.68542957,-4.50432301,-4.89083767,-0.02122992,0.05589677,0.08997165,-0.56150872,-0.03658200,-0.56493556,
0.14037845,-0.29394302,-1.13265526,-2.06493378,-1.13523710,-1.54878998,-2.48641682,-0.74452144,-0.08154170,-0.94574797,-1.74545062,-0.19802709,0.23890835,
0.00046742,-2.80239844,-3.55698895,-4.22420931,-0.17079549,-0.10037996,-3.62003613,0.05793109,-3.99222016,0.03443378,0.30422640,-0.00856245,0.87275392,
-0.48897207,-0.53497362,-0.50012034,-1.19529831,-1.51909065,0.20859399,0.21875235,0.18924566,0.37686425,0.48960072,-0.44161528,-0.44243971,-0.59658170,
-0.04351809,-0.94988161,-2.08062267,-0.58408570,-0.02254583,-0.29994974,-0.54108477,-0.62716711,-0.54899019,-0.23256189,-0.35618857,-0.33118170,-0.90299165,
0.75221276,0.69243401,0.59337521,0.65515202,0.65489769,0.68790931,0.66690838,0.68490642,0.67667615,0.67415839,-1.40919638,0.67764401,-1.43509448,
0.31361529,0.03107933,-1.15564537,-1.91941023,-0.62728536,-1.01742506,0.36912167,0.29343933,0.26819438,0.43504015,-1.30399001,0.41479984,-1.20606709,
-0.03389481,-0.46018529,-0.23399082,-0.25499576,-0.02616046,-0.09926298,-0.32131362,-0.03522768,-0.07112451,-0.02770277,-0.02892993,-0.15307368,0.30695578,
0.35241410,0.33040336,0.07201926,0.14624043,-3.61623669,-4.72180319,-1.73021162,0.25075677,0.33348557,0.32711819,-0.56632978,0.25749287,-0.83266008,
-0.24648586,-0.03460957,-0.73297787,-1.57112002,-2.36316967,-0.62983054,-0.98081982,-0.36675745,-0.02607610,0.15861383,-1.05984008,-0.40090144,-0.08068978,
0.38732424,0.16218409,0.01947396,0.29934406,0.11609977,-5.89405441,-4.86869669,0.02194398,-0.49262226,0.52897060,-0.84599102,0.46725941,-1.80364370,
0.50235432,-1.64308321,-0.56371915,-0.24116047,0.04631643,-0.05239647,-2.53854537,-6.42102861,0.39064503,0.66745442,-1.13501501,0.62490118,-4.40868139,
0.22001627,0.23498824,0.35279739,0.22923632,0.06599602,-5.93901491,0.19900255,0.17959650,0.30080968,0.26894388,-0.55135709,0.30903053,-0.93848908,
-0.05840145,-0.64169759,-1.93031824,-0.34400758,-0.53497761,-1.03157735,-0.61973441,-0.39493173,-0.12741573,-0.65951270,-1.17251086,-0.01714458,0.83048689,
-0.39195797,-0.54696125,-0.55402422,-0.45966178,0.00707159,-1.01634037,-0.14193889,-1.33540511,-1.79146802,0.10189819,-1.27128971,-0.62675244,-0.79256272,
0.10064781,0.05121511,-0.48888007,-2.37187648,-3.25516510,-1.18805683,-0.70978701,-0.52667451,-1.59431732,-0.70120019,-0.66257215,-0.09114769,-0.79146224,
-3.00679207,-6.70473003,-6.14260960,-0.24653414,0.29499051,0.18351707,0.67146868,0.59560800,0.56529576,1.00740814,-2.13038325,-2.72522926,1.69158149,
-1.68902874,-1.14777267,-0.27621233,-0.63838965,-0.42440188,-0.55083221,-0.66533369,-0.28110403,-0.52600819,0.07556581,-2.16447902,-0.29688168,-1.85456932,
-1.92119253,-2.13366508,-1.89632761,-2.64500952,-3.03290677,-0.16521393,-0.10687002,-0.17610921,-0.00877280,-0.63853592,-0.58847994,-0.12219837,0.70882183,
-1.14993048,-1.64560723,-1.33053124,-1.03974664,-0.63943267,-0.38560712,-0.90389341,-0.23173673,-0.61205304,-0.23323549,0.13620287,-0.38881904,1.40447581,
0.01353015,-0.36108512,0.01724839,-0.21721688,-0.23787101,-0.16848046,-0.02765220,-0.05337596,-0.02813481,-0.04698811,-0.59823012,-0.07451332,0.10298071,
-0.17585941,-0.00275492,-0.02125964,-0.08706406,-0.01326827,-0.09577885,-0.02905201,-0.12142293,-0.01284120,-0.21125261,-0.25950927,-0.01397397,0.15297055,
-0.86786252,-1.24634492,-1.74475861,-2.28827000,-2.81486678,-5.93274403,-1.93877363,-5.02261591,-1.62058556,-1.19497979,-0.86580884,-0.20215635,2.38920188,
0.18133791,0.16749159,0.56134242,0.43976191,0.57683629,0.63801587,0.81173289,0.60060734,0.70061469,0.63164973,-1.02626038,0.67033374,-2.85433650,
-3.01856875,-2.93661642,-2.44671082,-0.05120747,-0.01270557,-0.04335687,-0.04069031,-0.08212154,0.00259075,0.05902173,0.77293253,-0.01342917,1.22045457,
-0.50994486,0.01138281,-0.44335759,-0.67841327,-0.45496002,-0.05181161,-1.24731433,-0.55560821,-0.10958613,-0.84700823,-0.75825822,-0.78489166,-1.08961022,
0.11603688,-0.96830249,-1.96400368,-1.08249104,-1.43867874,-2.75389862,-1.22121990,-0.25396746,0.07303730,-0.05563181,-0.92282254,0.01587541,-0.89732307,
-1.58213127,-0.16019410,-0.48422164,-0.59346670,-1.19066441,-0.10260820,-0.45721644,-0.08423829,-0.14592569,0.10313698,-1.68819737,-1.26121414,-1.70122564,
-2.08706403,-1.57757294,-2.30793786,-0.36116955,-0.13088472,0.02266565,-0.48429233,-0.67136091,-0.07004989,0.07734298,-0.74529934,-0.08209404,-0.41340792,
-0.00829084,-0.07682325,-0.19415833,-0.52215493,0.04094194,0.17305924,0.19244657,0.12371159,0.06932183,0.47553444,-0.75815886,0.39451110,-0.51610321,
-1.92944932,-0.13232149,-0.08608615,-0.06400383,-2.65362453,-1.94361401,-1.47487998,-0.83282423,-0.89489669,-0.54739296,-0.48754910,-0.08380803,1.23513484,
-0.01071111,-0.10347711,-0.45275205,-0.89249361,-0.79225808,-1.01075125,-0.63315725,-1.10750568,-0.75208616,-0.16992371,0.22251712,-1.16777551,1.03579962,
-0.13679284,-0.00632868,-0.24764538,-0.23612666,-0.25469553,-0.15841128,-0.04234535,-0.02659899,0.00546941,-0.14759922,-0.07816254,-0.09585806,0.14794518,
-1.70989799,-1.39017379,-0.81689715,-0.67920297,-0.52197611,-0.53066522,-0.63286269,-0.18069428,-0.62078965,0.02596025,-0.13734557,-0.14121395,-0.00224263,
-1.35206914,-4.21416140,-0.15337184,-1.15007806,-2.00189614,-0.75329852,-1.23688507,-2.41823983,-3.03591967,-0.19280620,-1.29286957,0.02040781,-0.63139391,
-0.06175293,-0.02852873,-0.15646219,-0.01698600,-0.11628666,-0.05924991,-0.01849450,-0.39152807,-0.23154967,-0.25959828,-0.10266969,-0.11480001,-0.07044693,
-3.26167154,-3.54891205,-3.49485946,-0.17705770,-0.14476463,-0.35122895,-0.29288831,-0.14399654,-0.28072956,-0.45242599,1.11918688,-0.19814205,1.46734965,
-0.21271090,-1.17390811,-0.51729232,-0.49743813,-0.88338256,-0.42232588,-1.06537044,-0.34479630,-0.41475016,-0.31505769,-5.36421108,-0.57972801,-2.89113927,
-2.03521585,-2.07064390,-1.71024203,-0.79863566,-2.49712610,-1.34632981,-1.36690760,-0.12667309,0.24965253,0.05882765,-1.07944500,-0.03051951,1.34621298,
-0.16313694,-1.27608323,-1.20321214,-5.76437712,-4.00884533,-3.12334275,-1.18625867,-3.34488654,-3.44311666,0.01124963,-0.66840869,-0.17747608,1.30007041,
-4.98636055,0.09261947,0.23739672,0.32244429,0.33009151,0.14859156,0.22542104,0.27059954,0.21600257,0.41117537,-0.75507277,0.37910590,-0.90232450,
-1.45928061,-0.89004743,-2.53539920,-2.42202020,-1.98736131,-2.05983114,-0.87996101,-0.54875082,0.04065483,0.29531616,-1.23099554,0.06390448,-0.38792571,
-0.00051038,-0.01353652,0.11606690,0.08887382,-1.50549972,-1.65295732,0.09284371,-0.12480734,-0.69472200,0.43395060,-0.72310853,-0.17071883,-0.93558580,
-0.07611065,-2.55875325,-3.05488205,-1.70171034,-0.78339905,-0.61511046,-1.81884873,-1.14371920,-0.63899189,0.13810614,-0.95922053,-0.04735985,-1.80221927,
0.51121593,0.29859647,0.28383130,0.28006127,0.33588129,0.41050398,0.30167565,0.22554509,0.24796899,0.41362497,0.97129178,0.30808446,1.50570500,
0.04382467,-0.22949558,-0.13669877,-0.04780443,-0.02526593,-0.14992371,-0.16005301,-0.16020605,-0.21180165,0.17131162,-0.82278895,0.06765211,3.78851128,
0.19382933,0.16501889,-2.92018390,-2.34327912,0.00860522,-0.85285163,-2.27522397,-2.35940909,-4.91521597,0.09482834,-0.30857280,0.20381685,-1.48388577,
-0.34719270,-0.44636393,-0.79837275,-0.42010143,-0.75025189,-0.07570248,-0.90481913,-0.51593882,0.03973482,-0.10910868,-0.49636564,-0.07270404,-1.44438446,
-0.19265223,-0.04569187,-0.27320564,-0.35677588,-0.66575259,-1.72316444,-0.86877328,-0.76829308,-0.66882050,-1.12041163,-1.59677243,-0.03909704,0.68540066,
0.02014263,-1.24593902,0.15441865,-0.84390992,0.19294617,-0.47383451,-0.41988733,0.20221828,-0.04577719,-0.08875846,0.07094441,-0.29028744,-0.35097966,
-0.05162604,-0.18547972,-0.38964757,-0.34774268,-1.84064913,-1.57704973,-2.21421432,-0.22536010,-0.42635980,0.02193167,-1.44530487,-0.01150879,-0.51917964,
-2.76869464,0.17822941,0.16802976,0.22774018,0.14854906,0.22555830,0.14093092,0.13709560,-3.38137865,0.10627031,-0.14732134,0.25278792,-0.19205520,
0.03653598,-1.03049254,-1.36526895,-1.66819012,-3.44263411,-1.39121211,-0.45836392,-0.12996967,-0.07392742,0.21917227,-1.81506026,-0.13585031,-1.84242451,
-2.67335200,-2.43654895,-0.45788848,-1.50689530,-2.85408282,-2.98550892,0.01521212,-0.39010367,0.01019472,-0.07130027,-0.29233924,-0.29841495,0.37977657,
-1.35517693,-1.85457647,-1.89703715,-0.85343558,-0.94437224,-1.11842525,-1.13634896,-1.17445624,0.01831845,-0.06649266,-0.54454768,-0.02670965,-0.19486584,
-1.10336256,-2.45726252,-2.53537846,-2.47207141,-1.94196248,-2.14423776,-2.93716621,-5.45157957,-0.30659461,-0.13359609,0.92177171,-0.17665569,2.38116527,
-0.54487306,-1.61309922,-0.89406890,-0.93720204,-0.67990106,-1.64685309,-0.80645239,-1.31458032,0.01406427,-0.02840791,-1.04866195,-0.99014550,0.90370113,
-0.16021766,-0.26961052,-0.09528400,-0.12942366,-1.46423507,-0.17107561,-2.11203861,-1.67360687,-1.13206983,-0.08677849,-1.30013037,-0.15016511,2.00882387,
-0.12597626,0.07382898,-0.10947236,-0.04075147,-0.14987215,-0.01642077,-0.11131226,-0.03144508,0.06178408,0.34038991,-2.92093110,-0.04749724,-5.78291845,
0.48794815,-0.02233103,0.04619518,0.18428361,0.26547059,0.19534339,0.28573123,0.34135708,0.33791256,-0.16562338,-0.67306966,0.12726209,1.39795005,
-0.22714122,-0.10576347,-0.42407709,-0.00787896,-0.08269889,-0.34147280,-0.15421589,0.00784067,-0.14901598,0.00852088,-0.10493451,-0.23341587,0.02745070,
-0.15029404,-0.01879988,-0.32009527,0.01029725,-0.12250378,-0.19767433,-0.11514731,-0.22440811,-0.36957413,-0.05428169,-0.24209993,0.00217378,0.15100797,
-1.41375804,-0.17583752,-0.32839420,-0.51488930,-0.05282289,-0.25619471,-0.15255810,-0.14264143,-0.19454217,0.19454780,-1.53720868,-1.59412134,-1.34279835,
-0.22083980,-0.22098510,-0.18570638,-0.57804936,-0.38294131,-1.04327440,-0.48356900,0.00498157,-0.56615907,0.57836264,-1.36331081,-0.06052192,-0.42267239,
0.22493118,0.13346136,-0.13553105,-0.13473576,-5.30245686,-1.14112437,-2.77076554,-3.60358524,-5.54539490,0.49273267,-0.72693205,0.36558345,-2.24850106,
0.03544712,-0.47872618,-2.82997942,-3.30277276,0.04674957,-0.56699455,-0.10477637,-0.08301824,-0.29705301,-0.45673031,-1.58225203,-0.22549242,-0.11702444,
-0.13857330,-1.32214463,-1.97522795,-1.75279963,-0.69813836,-0.10379487,0.00743082,-0.12449834,-0.58388472,-0.00994563,-0.92013049,-0.13249460,0.25469008,
-0.40475947,-0.45804685,-0.60096675,-0.91483122,-0.99384034,-1.42411518,-0.00321715,-0.66224843,-0.70060211,-0.18149161,-0.49964899,-1.08269739,-0.34255788,
-0.45492128,-0.40252703,-0.56939048,0.00162262,-0.37054440,-0.62387204,-0.36249578,-1.74109411,-0.62232637,0.03966079,-1.65216291,-0.43656978,-0.03148912,
-0.07378902,-4.71151304,0.25181916,-3.32353163,0.34440541,0.28783485,0.24744691,0.01283050,0.26762614,0.49745420,-0.97653860,0.28753331,-1.10673976,
-1.06215549,-1.22096205,-1.40112662,-0.63879728,-1.46304345,-1.20259821,-0.81514746,-0.02079397,-0.11844762,-0.03704793,-1.00136280,-1.38764858,-0.33862486,
-3.40693617,-4.65535450,-5.85449266,-5.42218065,-5.94124269,-0.00737536,-0.03241405,-0.09990504,-0.04134103,0.11250495,0.66832143,0.07098456,0.80985868,
-0.08899376,-0.53355861,0.01106365,-0.13556239,-0.17323427,0.00737173,-0.08175221,-0.19188918,-0.03296528,-0.43595314,0.00243016,-0.27782196,-0.01866033,
-0.29640201,-0.38287482,-2.58634686,-2.28262067,-0.65690130,-1.73414135,-0.87227124,0.01616133,-0.04505312,-0.24084195,-1.29229057,-0.60261190,-2.69703555,
-0.00419551,-1.87754953,-1.49503160,-1.37686956,-0.63827080,-0.23351058,-2.76617956,-3.04754782,-0.31229341,-0.32372564,0.56845146,-0.75204331,1.09427023,
-0.10596182,-0.03118056,-0.02062186,-0.08247335,-0.02398329,-0.02534924,-0.08758350,-0.04065154,-0.07191838,-0.02504885,-4.08585930,-0.02662327,-4.31786823,
-5.20555592,-4.53078604,-4.52174330,-4.31753683,-0.99701262,-0.79350221,-0.09546402,-0.97257608,-1.96013117,0.42061684,-1.56031406,0.02797121,-1.24098456,
-1.07411742,-1.43587804,-1.58832848,0.06459870,-0.20495366,-1.54092574,-0.43586728,-0.85382545,-0.21906838,0.49492690,-1.19151843,-0.70367050,-1.05849445,
-1.85409617,-2.16495442,-2.00479293,-2.39571214,-3.39748859,-2.84377718,-2.45736933,-0.26517561,0.04357752,-0.11096402,-0.08712709,-0.89125574,-0.27907407,
0.10318848,0.30152965,0.27484891,0.21861514,0.13348179,0.14618866,0.28116736,0.40635654,0.41473201,0.55355579,0.59621733,0.34384307,2.58479929,
-0.99395669,-0.05326205,-0.72532117,-1.93624461,-0.79927552,-0.81925660,-0.49386394,-1.71205604,-1.46924102,-0.18673226,-0.96875709,-0.03473259,1.07343733,
0.81202799,0.70570821,0.59847844,0.67204404,0.65116543,0.68936616,0.65870982,0.69567531,0.67738354,0.67550141,-1.42229319,0.67910051,-1.45851684,
-0.06280246,-0.09188716,-0.17669517,-0.11505880,-0.05144795,-0.07204451,-0.08784764,-0.13713430,-0.04198260,-0.15267251,-0.37732932,-0.04290376,-0.34204280,
0.00184856,-0.00272034,-0.13985677,-0.38116097,-0.30199262,0.00172493,-0.02003863,-0.02438571,-0.03977793,0.00519817,-0.07600293,-0.04771480,-0.07847324,
0.26968127,0.36398727,0.27688473,0.31654918,0.24163629,0.22653218,0.22076608,0.09388425,0.13392465,0.63892686,0.54403138,0.44957352,0.44843784,
-2.56051135,-2.39501047,-3.38941956,-3.40900970,-0.31097192,-0.14388575,-0.26952088,-0.31420502,-0.29646042,-0.38087291,1.05936885,-0.27559662,1.72829556,
-0.35148117,-0.01917042,-0.02378863,-0.19250013,-0.26380298,-0.36280945,-0.10103093,-0.64236403,-0.54214621,0.00009749,-1.71675742,-0.58303595,-0.60506016,
-1.87555397,-0.56586635,-0.31743208,-2.38344622,-2.20825529,-2.90309215,-0.24713673,-3.48048401,-0.04438854,-0.37787417,0.00695665,-0.14727083,0.38259417,
-0.04506300,0.27011973,0.63545650,0.58556622,0.44897920,0.21441166,0.04772199,0.57993060,0.63259429,0.47213849,-0.85470521,0.53733248,-2.12377453,
0.36016953,0.13197438,0.11286195,0.09997548,-0.04787046,0.22845154,0.34315291,0.48251575,0.53676099,0.64101148,-0.92584252,0.63836783,-5.81380701,
-1.63838100,-1.43124652,-1.04099309,-0.08272877,-0.42187440,-0.96080267,-0.12075361,-0.62791628,-0.93962300,0.46361190,-1.14423430,-0.74640650,-1.68275714,
-1.58836150,-1.60528493,-2.73681307,-2.29018974,0.01114650,-2.59915352,-2.35634971,-1.11362386,-0.36144423,-0.01843041,-2.95581198,-1.65085220,-0.80625737,
-0.19815044,-0.44058779,-0.42686200,-3.17684484,-1.06421602,-0.07674772,-0.15537959,0.28253475,0.15516455,-0.50791132,-0.97017682,-0.03270148,0.28017294,
-2.56598902,0.04289144,-1.00627899,-3.09275508,-1.98807585,-2.67345500,-2.98362613,-0.93465960,-2.78886271,0.15264054,-0.24093322,0.08202311,-2.42437863,
-0.29072973,0.00288499,-0.01451465,-0.24401972,0.01287741,-0.02536145,-0.10560933,-0.02742498,-0.37720883,-0.47503692,0.00375280,-0.26088905,0.08048884,
0.05437894,0.23463710,0.15312600,0.05824604,0.17710066,-0.09479645,0.03119275,-0.06616156,-0.12036461,0.16111292,-1.60939801,0.04061567,-4.65846443,
-0.25986969,-0.28139821,-1.12483931,-0.73798519,-1.03568363,-0.22804852,-0.10487221,-0.36442059,-1.61685264,-0.88159239,-0.98746026,-0.07744081,1.57514608,
-2.95766902,-3.83803678,-2.57911706,-3.79386306,-0.34998763,-0.63529658,-0.47613296,-1.00985289,-1.07545674,0.03511818,-1.41746843,0.00993868,-0.33619738,
-0.81750107,0.00057176,-0.29433060,-0.72635490,-0.58727753,-1.09576845,-1.42877471,-0.37127921,-0.07542480,-0.23262839,-0.81078351,-0.70662135,-0.77561635,
-1.75965810,-2.61176848,-2.18208480,-1.78437316,0.04187359,-3.62137556,-4.17336845,-3.51580238,-0.10256328,-0.01150670,-0.40529516,0.07410210,0.72828424,
-0.07016914,-0.29102963,-0.23747943,-0.31510708,-0.09403488,0.01805009,-0.33238122,-0.01015078,0.01186952,-0.17565048,-0.13166745,-0.12141169,0.08065657,
-0.29496360,-0.58253121,-0.00785439,-0.95854312,-0.59252727,-0.57970780,-0.81403446,-1.02595711,-0.91754824,-0.03284734,-0.26950738,-0.56735349,0.30989259,
-0.02459319,-0.09003691,-0.03084885,0.12238452,0.02762951,0.03195886,0.03078324,0.17544359,0.19552630,0.17902404,0.35943973,0.12062636,0.64067489,
-0.00868882,-0.30970997,-2.29259515,-2.52419186,0.14136668,-0.37904292,0.20583455,0.26315802,-0.26012439,0.58511192,-2.59817052,0.06809448,-0.13796420,
-4.55179882,-2.57495880,-1.45663381,-4.58387470,-2.25643730,-0.65454847,0.10053983,-1.32779336,-1.07200646,0.73463076,-1.23350120,0.18258531,-1.59838772,
0.13285176,0.13156778,0.13282505,0.19952084,0.05772028,0.24808487,0.14641783,0.14731620,0.22997995,-0.47350678,-7.65526247,0.16780052,-4.91240215,
-0.04518637,-0.21718362,-1.61266398,-2.85354185,0.06545097,0.06226063,-0.34440330,-1.39135313,-1.23305500,-0.56230736,-1.48936641,0.03260656,-0.05272339,
-0.40399957,0.06634632,-1.13593733,-0.43439114,-1.19947040,-0.52306676,-0.07307402,0.06516834,0.05595987,-0.73436689,-0.70277011,-0.63939625,0.02120308,
-1.36740160,-0.77833366,-0.68915981,-0.28990892,-1.18323314,-0.88073081,-0.86418962,-1.25601947,-1.01634455,0.02687516,-0.05369288,-0.02869287,-0.18670525,
-0.06346756,-2.53857923,-1.41017258,-3.24940610,-1.61081040,-1.46787322,-0.57298529,-2.27549291,-2.57813787,-0.52288520,-2.00663233,-0.03263109,1.57084632,
-4.30181026,-4.86354971,-4.63124323,-4.47912502,-4.35859156,-2.29360747,0.00315230,-2.13935995,-0.41477075,-0.64807069,-2.41739035,0.00789391,1.01207399,
-2.79906583,-1.83414650,-2.21555686,-2.54791665,-1.86953270,-2.88573074,-0.72517651,-0.46991864,-0.00055751,0.06942586,-1.79026139,-0.10068583,-1.02022731,
-9.87291527,-8.42703247,-0.07993081,0.09250280,0.30915380,0.26768291,0.05023183,0.28961942,0.30734950,0.28398535,-0.49129662,0.34583673,-4.19149351,
0.09955589,0.21195190,0.22707400,0.16308899,0.13946038,-0.05062128,-0.01517253,0.07449789,-0.10989805,0.66293454,0.14978847,0.32860434,0.24112751,
-3.73342443,-2.51611090,-3.79339957,-2.43584013,-3.92038679,-0.92753905,-0.16503884,-1.92258132,-0.23108710,-0.82199448,-1.01861525,-0.03007387,0.66209120,
-0.27708417,-0.92471653,-0.29208687,-1.75820208,-1.02118134,-0.06308732,-1.37685096,-1.69851911,-0.05088279,0.26208347,-1.02051747,0.07210190,-0.87600905,
-0.01219466,0.22448176,0.20313855,0.22766931,0.22795855,0.03600797,-4.32672834,-4.06041050,0.12955518,0.04287867,0.06494616,0.09391537,-0.52237004,
-0.07768323,-0.42612979,-0.02018812,-0.46375844,-0.35441208,-0.19565664,-0.02823172,-0.09016932,-0.23836350,-0.00079858,-0.14241679,-0.27982149,-0.03108995,
-3.76965356,-4.07553864,-3.93563771,-4.72967005,-5.07433319,-5.57038641,0.12471679,0.17219318,0.11115382,0.09644055,0.48134843,0.11315868,0.47440252,
0.03287612,-5.27608252,-3.74138093,-4.57302856,-4.27222681,-3.26432228,-4.00945282,-1.54495907,-1.75225639,0.32117951,-1.75834632,-0.16539215,0.69452435,
-0.17367207,-2.79757142,-3.41812801,-2.06732750,-0.62309897,-2.54914117,0.00341147,-0.49517503,-0.67332178,-0.96546525,-1.29826295,-0.09633703,0.78686774,
-3.79917288,-3.82254505,-3.73992443,-3.92470217,-5.19811249,-5.24787474,-6.24220848,0.06461150,0.04568528,0.00468310,0.59834743,0.09542644,0.57154071,
-3.23367214,-1.78275895,-2.43384719,-3.71186376,-2.78509283,-0.66253316,-2.72222567,-0.46721894,-0.85240239,-0.31644049,0.38501224,-0.54350716,2.02538443,
-0.99986190,-0.74067819,-1.09957528,-0.26066500,-0.93601692,-0.92898703,-2.08133292,-0.10849591,-1.98432779,-0.74471623,0.02790336,-0.30298826,2.14099479,
-0.10519736,-0.75997740,-1.57864296,-1.65288436,-1.17499721,-2.02145600,-1.59407401,-0.25980908,0.04196476,-0.22143415,-1.25633514,-0.09026127,0.08343296,
-0.03093724,-0.36629772,-0.76152539,-1.86226487,-2.02722239,-2.71899605,-1.37688243,-0.66162264,-2.49607372,0.27980503,-1.14953125,-0.31784835,1.15279675,
-2.30633688,-1.52436411,-0.31401122,-0.32056990,-0.83198267,-1.00578785,-1.20439553,-0.05911059,0.01292654,-0.16493009,-0.42840126,-0.28167084,0.18975970,
-0.03027407,-0.09052251,0.01211281,-0.26918322,-0.10980183,-0.21536435,-0.20341009,-0.18424751,-0.05514323,0.02977277,-0.22416514,-0.06914327,-0.00853277,
-0.15627867,-0.47183254,-0.23989156,-0.25239158,-0.13894802,-0.91381234,-0.02924368,-0.06049240,-0.33954209,-0.01362151,-1.24141192,-0.72506130,-0.84144890,
-1.12094426,-2.96729541,-2.10677147,-2.18828273,-2.18700004,-0.42450136,-0.83622032,-0.86218947,-0.43341160,-0.11656151,-1.01488936,-0.02839479,-1.04622722,
-2.08066845,-2.20579028,-0.44583082,0.05249613,-1.90780115,-1.19946873,-3.32545924,-0.39709958,-0.88933599,0.45985353,-1.30594802,-0.09331635,-0.92966956,
-0.12494262,-0.15063962,-0.36212009,-0.17509235,-0.19482145,-0.10313507,-0.55989474,-0.13765064,-0.12757787,-0.23167314,0.26964384,-0.10520317,-0.07640810,
-0.33513811,-0.13249207,-0.06345159,-0.15075231,-0.10891588,-0.62884927,-0.07727482,-0.09956998,-0.43684432,-0.07874991,0.17387775,-0.09837092,-0.10754786,
0.28470162,0.33302367,0.38425162,0.37525612,0.32319495,0.29851389,0.23856081,0.21218684,0.21720606,0.25642648,0.17315835,0.28493792,-0.98705488,
-1.01199448,-1.50882030,-1.82957411,-0.60429972,-0.25435510,-0.00415804,-0.26891163,-0.51351851,-0.77717626,-0.25998411,-2.17354560,-0.21773423,-1.69295216,
-0.63633579,-0.56501752,-0.86487967,-1.00922000,-1.42879272,-2.47962022,-2.04799795,-1.52713311,-0.22565623,-0.17079006,0.14270020,-0.22456461,1.28755856,
0.10905021,0.11838204,0.13371025,0.29170948,0.38515472,0.26698521,0.20569362,0.12652089,0.21531720,0.25598195,0.78262341,0.11090272,-0.54999363,
-1.11758554,-0.38454440,-0.55309725,-2.23097110,-2.66466165,-1.09285188,-0.28534731,0.00112258,-0.84703630,0.07033629,-0.68912905,-0.89678895,0.22844085,
-0.83724803,-3.47095084,-1.52262974,-2.65612006,-3.96074128,-2.00291729,-3.28986907,-2.94463968,-0.31088760,0.09499811,-0.13025768,-0.10813843,-3.41280150,
-1.94459462,-0.99595875,-2.81210542,-2.42979503,-0.53150994,-0.85147405,-0.28881657,-0.34865773,-0.00415192,-0.24253024,-0.70094031,0.00536258,0.54905009,
0.01930751,-0.29813257,-3.44232655,-2.45846963,-0.41282618,-0.24428332,-0.98135668,-0.36887392,-0.01679696,0.58527327,-1.79865742,-0.31163532,-1.93210340,
-0.61636424,-0.33205262,-0.40010172,-0.07481060,-0.16682927,-0.19701444,-0.11885615,-2.75286007,-2.28933835,0.00185922,-0.38647276,-1.90600979,-0.65846556,
-0.14247844,-0.15860389,-0.05350342,-0.30059123,-0.06357513,0.01699287,-0.29010144,-0.00029951,-0.01013886,0.01562181,-0.27522612,-0.00664747,0.01317050,
-5.18262243,0.28723934,0.06012814,0.15050004,0.13252532,0.08007456,-0.05094988,-0.24460077,0.04174796,0.39005783,-0.75343877,0.26645544,-1.05831444,
-3.50961685,-1.37770283,-0.55912650,-0.90847212,-0.34813508,-0.44165993,-1.14493430,-1.34785175,-1.40660799,-0.08949636,-0.76738548,-0.39921176,-2.91065478,
0.00676825,-0.09137311,-0.35960254,-2.33559775,-0.96859276,-0.08874183,-0.64296949,-0.40201187,-0.29008204,0.12312993,-1.18020141,-0.13399781,-1.36565197,
-1.72579479,-1.16125703,-1.08024991,-0.90645909,-0.38149369,-1.28660893,-1.03968954,-0.78047091,-0.47956878,-0.01029607,0.06343050,-0.06765232,0.04058421,
0.49362096,0.33889136,-5.52579689,-9.04338932,0.40200070,0.46708050,0.38283339,0.60390300,0.53423351,0.71278054,-0.84966248,0.53736007,-2.54811335,
0.22827072,0.21460395,0.03009622,0.19313140,-0.13149008,0.16403042,-0.09028015,0.21304879,0.22127698,-0.09405123,-2.58352613,0.14765675,-3.65969205,
-0.07581809,-0.55476320,-0.66323441,-0.84844685,-0.30678323,0.00523342,-0.89376497,-0.07161112,-0.06813534,-0.93903708,-1.63623083,0.00911994,0.75411224,
0.17444257,0.36949915,-1.78415465,-1.70195246,0.29065722,0.32377231,0.37183222,0.35691178,0.10916525,0.66795284,-1.91208613,0.35654172,-0.36779290,
-0.08981499,-0.15375555,-0.19543383,-0.14611220,-0.11456126,-0.20370436,-0.22755234,-0.32496676,-0.10908464,-0.43732983,0.14586413,-0.10081676,0.20642141,
-0.32486984,0.07391945,0.11997232,0.23591191,-0.01669074,-0.20479596,0.34348655,-0.90036625,0.16733959,0.57213986,-0.98772180,-0.01471328,-1.28903735,
0.11396389,-5.68301058,0.27669907,0.51437563,0.37312391,0.50647998,0.58867073,0.76230514,0.64850992,0.64156151,-1.79598022,0.55372292,-1.62281978,
-0.55431986,-0.15038976,-0.19609597,0.00089272,-0.19388416,0.00586576,0.00911793,-0.38004434,-0.17763583,-0.18092059,-0.40073738,-0.27123994,0.18552126,
-0.04627633,-0.27090400,-0.00700029,-0.03197929,-1.74081337,-1.83981788,-1.03189611,-0.87893885,-0.66104394,0.03613138,-0.43262297,-0.26348454,-0.17019869,
-0.05141363,-0.01609572,-0.16451775,-0.10858067,-0.11444471,-0.18244161,-0.22201313,-0.08100019,-0.05978213,-0.43885598,0.00488396,-0.02025025,0.01327722,
0.05940955,-1.14568162,-0.87234253,0.04475836,-0.86752653,-0.94203311,-1.80658817,0.03524213,-0.61710966,-0.23963624,-0.82492989,-0.31799552,-0.00730898,
-0.52616251,-0.19030698,-0.06815054,-1.56850398,-1.62339723,-0.50940531,-0.97579378,-0.62598240,0.00652792,-0.25725520,-2.55712867,-0.58585376,-1.03989148,
0.24211848,0.60799444,0.47112617,0.29378754,0.70657754,0.88014871,0.40835550,0.58236992,0.33999190,0.55456787,-0.91308308,0.50322497,-1.78541005,
-1.78489566,-1.27538896,-1.58283925,-0.05821341,-1.34153318,-1.01440632,-0.03486559,-0.30155262,-0.60860759,0.03721784,-0.56219274,-0.07344900,0.23101737,
-2.39665532,-0.18316406,0.18122604,-0.09194591,0.18545376,0.18912245,0.23740475,0.13572951,0.10794044,0.18955985,-2.02083588,0.19772950,-0.81557250,
-0.00231882,-2.15770125,-1.18392467,-0.70318377,-2.18517947,-3.67641878,-0.11105080,-0.10582761,-0.72297716,-0.32319638,-1.77481580,-0.12585673,0.84134203,
-0.12300121,-0.09504075,-0.25119588,-0.01504051,-0.00865082,-0.29153603,-0.31232357,-0.03900700,-0.17500471,-0.00057983,-0.24876946,-0.01143930,-0.05449273,
-0.01947369,0.14493543,0.03678618,0.01525907,0.35899383,0.05846775,0.11793233,0.28446731,0.22055747,0.38934091,-0.59460610,0.40635785,-1.52429330,
-2.83228493,-0.06102702,-0.21174566,-0.71294188,-1.63193965,-1.00917709,-1.42388868,-0.63661903,-1.65947044,-1.26435423,-0.41087466,-0.33169788,1.93757129,
-1.55007207,-0.87782186,-1.72275102,-0.37410349,-0.31906104,-1.84321308,-3.00424170,-3.87459469,-2.21641207,-0.22234066,0.07083233,-0.30719519,2.06031966,
-0.04540130,-0.09077904,-0.43154648,-0.19702098,-0.24483055,-0.23814669,-0.06761950,-0.07794913,-0.07744438,-0.26657131,0.13894866,-0.35340941,-0.19308920,
-0.00902998,-0.25324297,-0.06377707,0.00091473,-0.05904827,-0.26448414,-0.03399621,-0.08361003,-0.12646855,-0.00267876,-0.22189948,-0.06733800,0.02096979,
-0.02263497,-0.64822716,-0.68017930,-1.27102971,-0.34023273,-0.81820077,-0.95926529,-1.36557877,-2.23243546,-0.04267296,-0.08723459,-0.08836495,-0.74642557,
-0.05727606,-1.03749192,-0.50724459,-1.46137834,-0.32319742,-1.92632556,-1.34356034,-1.82556951,-0.20438188,0.03719414,-0.41906813,-0.12330963,-1.16752517,
-1.42453158,-2.44829488,-1.45174289,-2.43343425,-2.03380609,-2.58188581,-1.87007248,0.01162441,-2.55487275,-0.24568050,-0.41625822,-0.76658326,-0.63637537,
-0.89514977,-2.09607124,-0.61738819,-0.88154751,-0.54691160,0.04947367,-1.76751089,-1.28056860,-0.67950332,0.03530452,-1.81337488,-0.29308245,-1.62883174,
0.69432586,0.67556345,0.63525265,0.67135143,0.65298629,0.72747701,0.66861165,0.71283263,0.67105794,0.66374081,-1.38710499,0.67775899,-1.43365872,
-0.41700783,-1.98150814,-0.64878863,-0.44755369,-1.54330289,-0.01322027,-0.43416214,-1.01835155,-1.27843022,0.28483582,-2.15105891,-0.07657187,0.87319297,
-2.92186761,-3.86243129,-2.63291717,-2.03477478,-1.99517512,-1.25066328,-0.24307705,-0.25793123,-0.59658641,-0.03838834,-2.54000783,-0.04617160,1.57657897,
0.10764728,-0.44961452,-1.36621797,-1.03862989,-1.45329142,-1.02414107,-1.68739355,-0.14384636,-0.31764469,0.13370204,-1.03399730,0.10321955,-0.92171466,
0.13940221,-0.03807988,-0.02762755,0.00036632,0.19666329,0.52771223,0.80540496,0.80515772,0.72322458,0.40768811,-0.69784504,0.45952213,-1.91274416,
0.09921981,0.06118257,0.25836042,-0.02535060,-1.97537410,-5.00133324,-2.43733215,-0.03421422,-0.79456371,0.28617796,-1.15671325,0.27529931,-1.80097842,
0.16778159,-0.36893097,-0.68780959,-0.38626692,-3.02957439,-4.29809666,-2.64277577,-3.28978133,0.39923260,0.31462213,-0.55402446,0.38018051,-1.13850200,
-2.43316317,-1.81369185,-1.93495822,-0.28318682,-0.26129091,-0.41755873,-0.91001344,-0.61524719,-0.04084209,-0.53080463,-0.47510651,-0.59991479,-0.72941458,
-0.20545998,-0.96171051,-4.68913698,-1.38990223,-2.26808000,-1.28546333,-2.27625918,-1.53093946,-1.20405757,-1.67733586,-2.05748105,0.14174691,0.07736794,
-1.64059198,-0.85029870,-0.85498142,-1.99437916,-1.04859412,-2.09619927,-0.15358505,-0.27092209,-0.35665050,0.33481675,-1.01539934,-0.03380340,-1.73258817,
-5.72031403,-6.62725115,-5.40373945,0.33827314,0.39409253,0.22236264,0.36156538,0.31757244,0.36591911,-0.09557458,-0.95049310,0.35969913,-0.04405239,
-0.38583955,-1.11554873,-0.52168185,-0.51429403,-0.39466044,0.01083767,-1.88112497,-2.87646651,-1.19726801,0.34871012,-1.00814319,-1.15085459,-1.43316329,
0.07414857,-3.07907176,-3.35937595,-4.18599319,-1.09023154,-3.09864497,0.03552768,-0.05659125,-0.37115568,0.05493947,-1.50834644,-0.12685029,-0.10775062,
-0.07113729,-0.49968338,-0.51071918,-1.10434663,-0.58219928,-1.32163298,-0.01593368,-0.76245171,-0.42599243,0.10812457,-1.52218366,-0.31265873,0.08657203,
-2.46456957,-4.14248371,-4.49774885,-6.15711498,-2.70610166,-4.04321098,-6.13565493,-6.09930325,-0.12427029,0.11216472,0.72837108,-0.02015114,0.50514877,
-0.00329875,-2.37764645,-1.67175019,-2.94869471,-4.18261147,-1.93714166,-0.43291068,-1.10381734,-0.70874578,-0.36695561,-1.10523558,-0.04574781,1.18371534,
-0.87228191,-3.41451073,-2.80410290,-6.08538866,-2.45453811,-2.45157003,-1.79861784,0.28567776,0.08511012,0.23681027,-2.42149305,-1.02831542,-0.73728573,
-0.15802886,-0.39272979,-1.13042438,-1.30013442,-0.52609897,0.19799510,-0.45062533,-1.24808979,-0.12936084,0.66331118,-1.16310787,0.16374844,-1.52143693,
-1.87255538,-0.89737415,-1.64250183,-1.09167254,-0.75354582,-0.69047344,-1.01221180,-0.09812469,-0.40771514,-0.08395334,0.02957567,-0.17687707,-0.66902882,
-2.32514048,-0.32284263,0.12899812,-0.02983965,-0.04883366,-0.06411725,-0.09998892,0.00147505,-0.08400011,0.15120623,-0.96182817,-0.00376967,-4.82956409,
-6.31101274,0.42681545,0.40540397,-6.43752527,-5.01609850,0.28069893,0.42031440,0.54505104,0.48124665,0.67906010,-1.63402128,0.57672423,-0.80209911,
-1.14204347,-0.42622080,-0.71222782,-0.65724266,-0.18740755,-0.51639199,-0.21101183,-0.15925340,-0.03717118,0.19412100,-0.94981444,-1.52618623,-0.69448876,
-0.14160115,-0.40437385,-0.10301261,-0.35004058,-0.11307345,-0.21590894,-0.08903143,-0.09147026,-0.18762821,-0.55066431,0.15818246,-0.07932102,0.08688076,
0.02374763,-0.23200515,-0.68995774,-1.39637804,-1.70268857,0.00549416,-1.51808465,-1.69298303,-1.45806003,-0.35751566,-0.76343471,-0.08970509,0.07157156,
-0.03018267,-0.33502555,-0.01122460,-0.20457168,-0.17789562,-0.02525253,-0.03972229,-0.22118729,-0.03271627,-0.33047277,-0.30747280,-0.06187994,0.31106889,
0.13072449,0.33646080,0.42679802,0.41919944,0.23763168,0.28109667,-7.03215456,0.24691336,0.40464821,0.40431270,-0.60167247,0.42676944,-1.40855098,
-0.00422511,-1.11986995,-0.58497095,-0.71096826,-2.18099737,-3.23685837,-0.37880802,-0.92157680,-0.77631795,-0.17867345,1.09474897,-0.82500905,0.89592177,
-0.45022446,-0.07220662,-0.81322342,-0.52710110,-2.68969560,-0.95138466,-0.56347585,-1.13487232,-0.60386246,-0.25124946,-1.48778450,-0.16528691,-1.21988082,
-2.43912935,-2.89241099,-0.09321865,-0.46957082,-4.08087444,-2.26435399,-3.26321912,-0.46356052,-0.35522622,0.55528045,-0.65428334,0.23126842,-1.44323564,
-0.05422498,-0.73369610,-0.27584496,-1.25195098,-4.14262915,-0.31769523,-1.67777598,0.01916637,-1.02100396,0.49944872,-0.86909807,-0.05337206,-0.87523460,
-0.16923325,-0.09850042,-0.04104572,-0.40664032,-0.21177076,-0.40479887,-0.43208823,-0.19582905,-0.01858592,-0.31155962,-0.03060685,-0.44022927,-0.17138070,
-0.19753872,-0.05213262,-0.02089418,-0.00628157,-0.03527413,-0.11448897,-0.00304467,-0.03325730,-0.03523767,0.03956877,-3.91320038,-0.02294167,-4.35794640,
0.04092702,0.14043306,-4.98439598,-2.49593139,-1.17218566,0.10656442,-0.26167038,0.13244775,0.02569894,-0.57372892,-1.77683806,0.25066468,-3.75266385,
-3.36234379,-2.64702439,-3.64191508,0.16915302,-5.15400505,0.19927122,0.25520018,0.19268751,0.29537058,0.16721791,-0.25000870,0.20319690,-1.09434831,
-0.12989400,-2.15414810,-2.53842449,-2.56087041,-1.95724773,-2.17424488,-1.13907397,-1.62380326,-2.44291019,-1.50551796,-1.12734640,-0.08026449,1.80741513,
0.18819831,-0.81084400,-2.23748684,0.03251811,0.13581711,-0.07085370,0.15773764,-0.65182465,-0.71230990,0.84608936,-1.87805259,0.16930690,-2.11353469,
-0.30637920,-0.23022804,-0.07207054,-0.00075043,-0.07493188,-0.04057220,-0.43000028,-0.26029146,-0.23060225,-0.05456876,-0.22471298,0.01121315,-0.11008407,
-4.11270475,-5.32513189,0.21089068,0.19724442,0.12659517,0.17246887,0.15449461,0.22913373,0.09673664,-0.18191086,-0.36547858,0.22465816,-0.59519535,
-1.80303431,-3.36636281,-3.29756069,-2.97813725,-0.83537412,-0.66387296,-1.75505316,-0.49369371,-0.47555059,0.29929280,-2.08729768,-0.09896287,1.28988159,
-0.23794985,-0.10906784,0.01407973,-0.26003230,-0.33894649,-0.12860373,-0.08958501,-0.03459821,-0.21155202,-0.23800471,-0.23953243,-0.21022846,0.25932494,
-0.78273875,-0.01086942,-0.54868913,-0.11918048,-0.18097121,-0.02106092,-0.46632347,-0.09590956,-0.10422214,-0.36376175,0.00814212,-0.26944315,-0.18686156,
-3.27324867,-4.55981731,-3.40215588,-3.46204305,-0.01872293,-0.06053116,-0.05239929,-0.07493950,-0.04655941,0.16569726,0.92749602,-0.03621958,1.27158785,
-0.92237538,-0.90221238,-0.47758719,-1.13292599,-0.70020223,-1.90525424,-0.00933668,-0.88224435,-0.18526870,-0.60652417,-0.72144014,-0.42221707,0.70768052,
-3.96282911,0.16441840,0.12795927,0.08851370,0.24677458,0.02603208,0.17585815,-3.54926538,0.31691918,0.12558062,-0.09675768,0.25255692,-0.26578575,
-1.28837216,-0.97767788,-1.88250649,-1.96787488,-0.88223481,-0.98860002,-0.05890744,-0.02543594,-0.39331001,-0.11162325,-0.87868547,-1.02573335,-0.93395567,
-0.70014328,-0.17296337,-0.49806306,-0.09623197,-0.88085675,-2.51211905,-2.68778229,-0.11110347,-0.30918542,0.14566922,-1.24204731,-0.03166589,-1.14609742,
0.32838622,0.14871265,0.36795929,0.30172053,0.26592308,0.23928161,0.19915156,0.15586863,0.19494125,0.30830288,0.53857523,0.27430123,-1.04378498,
-0.01614139,-0.24136551,-1.58795142,-2.13680482,-1.15571892,-1.77401674,-0.20297894,-0.29231492,-1.04225147,0.29868680,-2.81186748,-0.10310587,-0.83913803,
0.18289745,0.14917620,0.33314180,0.40267006,-4.17879486,0.45786306,0.36862767,0.22097450,0.30606097,0.41027376,-0.71521693,0.30199885,-0.83349490,
-0.03732622,0.07939244,-0.01158523,-0.03176622,0.13311850,0.01862408,0.15848878,0.05541991,-0.09139249,-0.06055739,-4.82865620,0.08433779,-4.03085947,
-0.24066029,-0.10363685,-1.25860417,-0.69342899,-1.61820710,-1.54042888,-1.36758816,-0.73418915,-0.91783339,0.23786172,-1.67551136,-0.29425272,-1.61139834,
-0.07718748,-2.43066597,-2.50649786,-2.28582573,-1.37319005,-0.05272109,0.01880535,-0.64401418,-1.15579736,-0.08034582,-1.80573571,-0.41559875,-1.16551411,
-3.18020749,-4.99650860,-3.30720925,-3.38726759,-0.90147144,-0.05617062,0.09315763,0.15704535,0.05984908,-0.07873517,0.08587632,-0.35255444,1.43636703,
0.03313180,-0.51761514,-0.34023166,-1.00199306,-1.06325221,-2.13292813,-0.67535919,-0.19790722,-0.08719973,0.05956355,-0.86810184,-0.29636547,-0.67635286,
0.14596051,-1.76662564,-1.76645505,-2.34159875,-2.01489210,-0.67886859,0.24079230,0.21304527,0.23519690,0.16338906,-1.09457386,0.24469548,0.50365990,
0.07683939,-1.96813869,-2.47536516,-1.71035647,0.04576095,-3.05627966,-2.34619665,0.11360154,0.14703070,0.10616238,-0.34592757,0.12581623,0.49827653,
-0.14047012,-1.11392856,-0.83930820,-3.57106256,-3.67221594,-2.94596863,-1.49845409,-0.04599053,-0.46069410,-0.72922820,-1.23629236,-0.01755649,0.93066162,
0.04097266,-1.65559530,-2.34348130,-3.77819824,-3.63135886,-0.86476600,-0.15750122,-3.06812119,-3.62151575,-1.44313741,-0.76612407,-0.03261876,-0.83962542,
-0.28295776,-0.32766271,-0.63459212,-0.91772807,-0.09777060,-0.17003955,-0.25228369,-0.31122544,-0.48810583,-0.11533575,0.24333224,-0.44268677,-0.11172131,
-0.11693074,0.07959415,0.13443360,-0.14089155,0.00906040,-0.06721934,0.01554164,0.02336043,0.01980085,0.28893805,0.58749437,0.10458726,-0.73389673,
-0.01864839,-0.08223013,-0.02614711,-0.03354723,-0.02772161,-0.01999467,-0.02388205,-0.01719791,-0.03902070,-0.08152325,-0.04962216,-0.04532690,-0.07056329,
-2.81134892,-5.58345556,0.22408806,0.16647540,0.20690750,0.14965242,0.19012177,0.16112053,0.20401931,-0.75095761,-2.61765051,0.21459661,-2.64343500,
-0.82283092,-0.82626730,-0.14495045,-0.25682551,-0.55940926,-0.78564078,-0.74170101,-0.78045446,-1.07420290,-0.33998296,0.12055957,-0.21001555,1.04991567,
0.04384104,0.01931976,-0.29151523,-0.78738320,-0.44696581,-0.12707655,0.42922428,0.34737971,0.44730175,0.28501409,-0.39683864,0.37856400,-4.68429232,
0.29667410,0.12535308,-0.45253974,-2.67935181,-0.23379306,-0.40299049,-0.59250325,-1.84036791,-0.54919487,-0.15118170,-0.46311569,0.23502491,-1.63803065,
0.04390049,-1.10014367,-1.63942730,-1.80732977,-1.55198574,-1.40034306,-1.25877678,-1.70222425,-0.43195066,0.17070371,-2.66557050,-0.33188462,-1.67758799,
-0.38172078,-0.23291110,-0.37712085,-0.85721219,-1.74448287,-0.50228196,-0.55451405,0.09852362,-0.08345489,0.41500148,-1.72662127,0.09515166,-0.23099592,
0.52015984,0.39067075,0.22425869,0.33635360,0.50275987,0.47058174,0.56765229,0.53363174,0.54657078,0.66272956,-0.93579090,0.67874944,-0.87075013,
0.10889561,0.07030029,0.17869908,0.02175686,0.14246172,-0.13917480,-0.01455207,-0.07235067,-0.06304212,-0.13052487,-3.48011303,0.05381937,-4.85393715,
0.21120851,0.19086751,0.16173474,-1.44670296,-0.91902399,-1.48980129,-0.07045750,0.20342809,-0.93731028,0.33246654,-0.48452687,0.13313341,-0.98296010,
0.00141268,-0.07071548,-0.82791764,-2.71374011,-2.39019251,-1.85390484,-2.96180606,-1.85740578,-1.70746589,0.35770431,-1.36936796,-0.01270880,0.44629985,
-0.97917700,0.27887851,0.21909310,0.38130423,0.36226317,0.29576510,0.23041101,0.27657610,0.37749586,-0.21004750,-0.20039877,-3.05964470,1.18536413,
0.27622846,-0.06761977,-3.28483272,-2.46773458,-0.42346612,0.04097847,0.29511726,-0.08449087,0.08408035,-0.22581594,-1.00090623,0.21826451,-1.31543577,
-0.80769914,
-0.49914241,
-0.41684940,
-0.29482150,
-0.51070273,
0.05242936,
-1.00793874,
-2.65154958,
-0.28054768,
-0.36085400,
-0.99214017,
-0.68730325,
-0.32135433,
-1.86694705,
-0.51312935,
0.47740155,
-1.74798667,
-0.54119307,
-0.88898718,
-1.21199274,
-0.63724905,
-0.10563856,
0.21743616,
-0.50357288,
-0.66270363,
-2.47518229,
-0.11343276,
-0.35559019,
-0.69866222,
-0.57466477,
-0.44798774,
-0.10032009,
-0.70539582,
-0.15057053,
-0.33658829,
-0.46022883,
-2.87560844,
-1.19711399,
-1.10004079,
-0.56319869,
-0.79790980,
-0.88790941,
-0.36195973,
-0.57846379,
-1.19950509,
-0.20405394,
-0.40007675,
-0.77635312,
-0.79730242,
-0.45163506,
0.18132418,
-1.92875028,
-1.47707760,
-1.02879882,
0.39612874,
0.32547951,
-0.90914953,
-1.26759863,
0.03070636,
-0.50453937,
-1.29287982,
-0.24676135,
-3.08382201,
-0.92453539,
-0.68071586,
-0.56901765,
-1.18775117,
-0.59075755,
0.48032004,
0.21200822,
-0.29889473,
-0.37463945,
-0.88361883,
-1.71373105,
-0.29315051,
-1.38773882,
-0.50775981,
-0.65871990,
-0.78998601,
-0.36766338,
-0.61576396,
-0.11428771,
-0.44490790,
-0.38168514,
-1.23428392,
0.18479680,
-0.78615171,
-0.77883232,
-0.88629866,
0.86548615,
-0.48887691,
0.62368894,
-0.16308375,
-0.37990278,
0.43446967,
-0.49477419,
-0.87388539,
-0.38095111,
-0.41410911,
-0.28198278,
-0.67379791,
-0.75633526,
-0.92852020,
-0.99285918,
-0.53895587,
0.52578998,
-0.65956813,
-0.37601668,
-1.10538244,
-1.42901707,
-0.46230745,
-0.19434591,
0.12461002,
-1.92919004,
-1.61036015,
0.37821195,
-1.36464655,
-1.35486352,
-0.68563586,
-0.92126518,
-1.18208957,
-1.15629411,
-1.29128325,
0.66751319,
-0.09973656,
-1.72164452,
-1.12329113,
-0.34279767,
-0.03931207,
-0.76513523,
-0.91944796,
-0.55327815,
-0.80952930,
-0.52348292,
-0.93194968,
-0.60708940,
-0.49822298,
-0.58307433,
-0.76748961,
-0.71035558,
-1.12177825,
-0.52030689,
-0.42476127,
0.52889264,
-1.01049447,
-0.66204792,
0.37214375,
-1.02068913,
-1.14134729,
-0.65895575,
-2.39899659,
-0.64168584,
-0.47493184,
-0.78426594,
-0.55207974,
-1.66502690,
-0.41705450,
-0.11904928,
1.37107277,
-1.00239742,
-4.12965393,
-0.37886539,
-0.21620184,
-1.39940345,
-0.37492973,
-0.70087463,
-0.18581742,
-1.27185929,
-0.88856620,
-0.26642358,
-0.72898346,
-2.32583070,
-0.81114906,
-0.28044495,
-0.18131842,
-1.09750640,
-0.91681927,
-0.59548098,
-0.13565601,
-0.49705237,
-1.21391559,
-0.87157989,
-1.05171025,
0.25616559,
-0.81118858,
-0.70456576,
-1.10427856,
-0.13499735,
-1.98605931,
-0.70037806,
-0.45230764,
-0.25799188,
-1.16322029,
-0.12613906,
-0.49988729,
-1.64564061,
-0.84738016,
-0.52121580,
-1.16782105,
-0.58391809,
-1.25262868,
-0.75955552,
0.83862674,
-2.16806817,
-0.31490710,
-0.28240207,
-0.83813322,
-0.10262240,
-0.75665027,
-0.59350324,
-0.74799526,
-1.21743691,
-1.07546794,
-0.30753821,
0.03387875,
0.50327981,
-0.49619249,
-0.91988456,
-1.95830107,
-0.54549396,
0.08995699,
-1.03809786,
-0.58372712,
-0.53615957,
-0.59600294,
-0.57614219,
-0.56840706,
-0.74837005,
-1.24029481,
0.53571784,
-0.41786933,
-0.99442112,
0.85326773,
-0.90559840,
-1.52673411,
-0.66741955,
-1.00917554,
-1.65074944,
-1.58057094,
-0.59970760,
-1.40543532,
-0.38502553,
0.20735669,
0.05623721,
0.94119942,
-0.28665584,
-0.43278429,
-1.29707122,
-0.92745537,
-2.49673772,
0.78521478,
0.89956975,
-1.48753154,
-0.44096005,
-1.66737521,
-2.08470011,
1.06770885,-0.34300143,-0.73903286,-0.34932038,-0.28543499,0.00198703,0.22887149,0.30887866,-0.12886836,-0.02586504,0.00523070,-0.44438323,-0.12628144,0.23432006,0.17023659,-0.30527806,-0.42917639,0.07184073,-0.54139459,-0.18696287,-0.29859659,0.60064989,0.18149248,0.28571600,-0.23897137,0.93149823,-2.46204901,-0.85195524,0.39043725,-0.39217395,0.01637688,0.01066120,0.13942021,0.01631563,-0.18283013,0.22340424,1.80480337,-1.21113050,0.07032783,-0.07496088,1.27341497,-0.37222567,-0.01373499,0.11840044,0.31543028,-0.02577526,-0.44474027,0.88473421,-1.12945008,-0.54629821,0.15179631,-0.32721138,-0.06893578,0.65857428,-0.43946123,-0.05947747,0.08337442,-0.26418886,0.56201369,-0.72051609,0.56070286,-0.57202148,1.02204585,-0.43157855,-0.45879257,0.44331765,-0.34177077,0.14133810,-0.07670150,-0.39229172,0.04741676,-0.09873436,0.42167243,-0.36862504,-0.41215119,1.42724121,0.00865586,0.34532058,0.57024848,-0.17879137,-1.14239228,0.28256753,0.01677160,0.64784741,0.60122102,0.05294894,-0.14923707,1.08280551,0.49155632,-0.23879519,-0.41827077,-0.30568039,-0.07951507,-0.03637879,-0.23800801,-0.34397259,-0.08225840,-0.19414508,-0.13417234,0.02787595,1.81762433,-1.14073753,0.05678102,-0.21690224,-0.01342470,0.27737349,-0.39446366,-0.02457881,-0.58314210,0.98436540,0.01971517,-0.41280371,0.12914838,-0.62925559,-0.08708683,0.04045771,-0.38769764,-0.22548644,-0.00050474,0.82515895,1.25754404,1.57578647,1.11865342,0.03143438,-0.07110348,0.33004054,0.07700092,0.06939127,-0.41696665,-0.27064648,-0.65964687,-0.03007117,0.04112248,0.17034724,-0.30551803,-0.44216871,0.23982058,-0.00930733,-0.34724221,-0.38099945,0.06235530,0.02339377,-0.02056020,-0.37054902,0.42547816,0.16818731,-0.78620213,0.09527113,-1.08469832,0.60534102,-0.09587964,-0.14002924,0.04856224,0.14898565,0.29659829,-0.36859611,-0.03696891,0.21046950,-0.45026913,0.74977976,0.60573518,0.04159077,-0.24513584,0.60829359,0.03909073,-0.50635123,0.01018677,0.81538093,-2.40408659,-0.37578222,0.38815045,0.69254953,0.07418343,0.00836450,-0.35219401,-0.28655717,0.50366503,-0.04701322,0.06192954,-0.10584209,-0.65470004,1.01764822,-0.58542705,-0.30802578,0.40860480,0.27963218,0.54815322,-0.43343690,0.64750564,0.40877286,0.86358267,0.16905986,0.58983880,0.38816208,-0.16505805,-0.19467399,-0.28384089,0.29469156,-0.65649176,0.15628576,-0.46145788,0.19674286,-0.25234658,-0.57935107,0.53061461,-0.03348330,-1.30935705,0.03226887,0.23507869,0.07908607,-0.26588833,-0.18457726,-0.12223607,-0.03730463,0.13383389,-1.94642925,0.00917172,-0.06541125,0.63512480,-0.04150892,0.30280370,0.06433811,0.06155504,0.03448381,0.09767849,1.13077509,-0.28472221,-0.67334682,1.52606273,-0.46545947,-1.13732195,-0.16786502,0.53287607,0.00000477,0.58477044,0.04013477,-0.09019779,-0.32727754,0.33792651,0.63398325,0.11602110,0.27455592,-0.59821880,0.05249939,-1.21977103,0.12699604,-0.17044169,-0.21980022,-0.47388244,0.18184319,-0.08624760,0.51951915,0.88303822,0.43527022,-0.95304227,0.27772510,
0.16549672,-0.44354770,-0.14745466,0.45001364,-0.16366838,0.14950137,-0.05982338,0.84164929,-0.73343742,-0.09457152,0.90749347,-0.63385338,0.26553589,-0.04933115,-0.31464356,-0.08361644,-0.71241486,0.00686931,0.07118347,-0.02772973,-0.16404811,0.00002960,0.34546086,-0.10336802,0.61490989,1.86310840,-0.71542120,-0.08148795,-0.20768942,-0.29438719,-0.06003465,-0.01062803,0.05355090,-0.01337181,-0.05012766,0.52559590,-1.92590475,-1.33034348,-0.15768386,-0.44266409,-0.65628976,0.42024449,-0.00796476,-0.08545067,0.84199280,0.00129610,-0.74223465,-0.89114356,2.20238686,0.26882368,0.38284653,0.13170616,0.47145009,-1.21529949,0.24228592,-0.11582403,0.55232584,-0.48325270,-0.10719539,0.17154980,0.51527107,0.54835773,0.75999093,-0.38969171,-0.23375560,-0.58826208,-0.61935776,-0.25403175,-4.44582891,-0.47693110,-0.02370956,-0.11244640,-0.25045526,0.26577476,-0.66195399,-0.63331276,0.04725520,1.20666862,0.08263637,0.81792307,1.18047607,0.22612250,-0.08796128,-0.63401800,-0.14892055,0.59430373,-0.41794676,1.88490975,-0.80662477,0.30631277,0.11812326,-0.23833898,0.01596764,0.01929409,0.26219416,-1.19034874,0.34715930,-0.01175421,-0.37265888,0.04509998,0.31111631,0.60239881,0.11242009,-0.25937763,-0.03124420,-0.57309371,0.14302891,-0.14550744,0.06850158,0.72895777,-0.02700548,1.00731122,-0.38104972,-0.51314509,-0.14261737,1.63705826,0.75038284,0.28406528,-0.07863821,-0.86867863,-0.52613431,0.53060186,1.13310659,0.19392577,0.22279179,1.06863856,0.27500406,-0.04961304,-0.27903235,0.44754320,0.01943221,-0.41575959,-0.78122389,1.09510016,0.07268304,0.65249950,0.02938990,0.08093262,-0.74457419,-0.26184118,0.46901223,-0.05952975,-0.02591202,-0.09368909,-0.43530017,0.02630152,-0.25694695,0.19771029,0.24385016,-0.49003944,-2.15142012,1.11410642,-0.02617874,0.07589471,0.88800293,0.52670920,-0.20046574,-0.62746823,-8.08919239,-0.11086530,2.02123833,0.02646760,-0.28757408,1.42065454,-0.04920651,0.03272642,0.04986871,0.11902468,-0.62461698,-0.15835862,0.50989002,1.64730465,0.54748803,0.04198190,-0.24000503,-0.73411465,-0.30781111,-0.04519441,0.06653515,0.57142049,0.13086557,0.68473148,0.13139512,-0.27444929,-0.16127884,-0.62005597,-0.02789916,0.01921429,-0.31139556,0.33603844,0.58531415,-0.60171431,-0.75033462,0.30746296,-0.27772266,1.04674709,0.24314030,-1.01250207,-0.33192009,0.96491545,-0.56516635,0.06235684,1.00005198,0.69950360,0.60022265,0.07833821,0.41327479,-0.00189699,0.66361654,-0.48271945,0.42850608,0.21574333,0.12283302,-0.05033400,0.61805981,-7.72682428,-0.19635355,0.20152013,1.99557042,-0.04955752,0.69335270,-0.34641752,0.00221714,-0.03497067,0.19109762,0.25076380,0.35055128,0.24463144,0.38272947,0.01919491,0.49885905,0.58726883,0.11883099,-0.29480043,0.33931589,-0.36495546,-0.82905537,-0.41844019,0.55079180,-0.51514941,-0.00879141,0.03851157,-0.09067061,0.01310451,-2.71951723,-0.67797840,0.15493089,0.21734260,0.73701620,0.21108915,-0.26959878,-1.99219930,0.16141352,-0.13201933,-0.35513875,-1.19988966,
0.07311294,-0.45035622,-0.47327459,0.14055923,1.01153624,-0.31643167,0.00653616,0.10981333,-0.07511108,-0.11828957,-0.17439885,-0.26216763,0.27501494,-1.14077771,-0.35911313,-1.94293332,-0.54414958,-0.00143224,-0.87437481,-0.24172692,-0.92142403,-1.52295887,-0.58838129,0.59121168,-0.08371816,0.42992413,-0.66099340,0.18739694,0.35738975,0.86307722,0.01716064,0.00447541,0.67167985,-2.87746978,0.07883368,-0.21397763,-0.32263988,0.09562739,0.22044386,-0.70428538,0.79542679,-0.09034933,-0.00155460,0.08186796,-0.03082157,-0.01514276,0.18877880,0.18042253,0.04398868,0.61056757,-0.41311234,1.62685394,-0.51119524,0.10073191,-0.05435467,0.39562678,-0.53289306,-0.62573433,1.16419768,0.01842446,0.80154628,-0.28942999,0.13104694,0.14323901,0.45516831,0.35305321,-0.32199064,0.61124289,0.22535533,-0.09335811,-0.07393029,-0.00535897,0.00701507,-0.15829806,-0.31429419,0.19432536,0.54520172,0.09118657,-0.38066331,-0.30123991,-0.21367092,0.15224929,-0.02667008,0.02359123,0.68221849,0.28576410,-0.06402299,-0.09397423,0.05473852,-0.12928870,2.58336711,-2.10677266,0.07293975,0.00577547,-0.15753153,0.19604285,-0.04900908,0.16359198,-1.76667953,-1.82116520,-0.25123584,0.05709423,0.30885658,-1.22114229,-0.01747188,0.13313781,0.65364045,0.42393509,-0.52172911,0.26391470,0.07021082,-0.15762921,-0.19821540,-0.41487774,-0.47112995,0.21434160,-0.01579843,0.78944075,0.10163517,-0.57004422,0.36634526,-0.16776383,-0.85709929,-0.31465986,0.16529752,-0.36558554,-0.57391781,0.01579923,0.10281149,-0.59834540,-0.25734246,0.02257593,0.39689526,0.32274124,0.16796717,1.37757385,0.13361967,-0.13203305,-0.12184684,-1.03826940,0.22861969,0.11119140,0.15711693,-0.36870769,-0.58517498,0.62767661,-0.25348049,0.23537648,-0.82834721,0.08353604,0.08494581,0.49116027,-0.09432063,-0.36911455,0.35443422,-0.17479879,0.02130423,-2.02204943,0.25462663,0.35091084,-0.14373347,0.04027320,-0.53999990,-0.72310257,0.00576259,0.21123445,0.07532674,0.60123879,0.12286096,-2.43300986,0.20732559,-0.57984555,0.29098663,-0.11677086,-1.13430691,0.50565207,0.48375651,0.10400854,-0.09049723,-0.29252294,-0.43327603,-0.31155601,0.43871152,-2.06334901,0.33798906,0.03196445,-0.84297723,-1.03525817,0.12086810,-1.54948831,0.14299881,1.58349454,-1.27151179,0.46750790,-0.95664990,1.13579261,0.24185118,0.02216919,-0.14747818,-0.54612702,-1.60775018,0.22257194,0.23316666,0.46451673,-0.76411992,0.06101484,-0.49994737,-0.08909640,-0.97922766,-0.29936752,2.25093985,-1.03663826,-0.83405846,-0.01140619,0.33047965,0.13854443,0.26432368,0.39731002,0.02945487,0.01003592,-0.03476005,-1.09712505,0.00645541,0.01762171,0.06812718,0.36335939,-0.27022409,0.07923777,-0.33227262,-0.35116073,-0.47909868,-0.74194086,0.01748357,-1.80299115,0.78699046,0.15765557,-1.20894384,-0.05730279,0.69135004,0.45129246,0.12566353,0.37182727,-0.26414531,-0.03787830,0.14455020,0.05268031,-1.90876710,-0.21111126,0.20143445,0.03473721,-1.24051583,0.06650472,0.23139577,-0.20241098,-0.19865644,0.50891769,
0.53190434,-0.01101270,0.10720703,0.77996123,-0.18574455,-0.54493159,0.66998082,0.29533461,-1.13663208,0.05488019,-0.83388215,0.45762497,2.66831160,0.13035044,0.30931538,0.19060229,0.41973493,0.02563509,-0.22146909,-0.24398363,0.12537850,0.08812037,0.10026099,-0.56287289,0.00905170,0.16511047,0.15528098,1.07974017,0.82880121,-0.23261836,0.11457980,0.09105723,-0.27572346,0.67319614,4.75328255,-0.58775288,0.75776720,-0.03263194,0.46879473,-0.29173914,-0.03352182,-1.18904138,0.00571492,-0.53305596,0.56365621,0.03274822,-0.49982965,1.70983493,-0.29771090,-1.17504835,0.94807464,-1.47152138,-0.04021285,0.44459751,-1.14382017,-2.60656857,-1.42417967,-0.64066374,0.39609799,-0.05464876,-0.15863012,0.10449647,-0.06415353,3.51848364,0.24865253,-0.24240807,-0.54237080,0.48922652,1.34065115,-1.57114804,0.00691816,-0.02601633,0.11838766,-0.54246074,-0.22650401,-1.00491369,-0.82446653,0.30247229,-0.10098901,-0.04124591,-0.24787928,1.29601407,0.10872620,-0.33430973,0.60074615,0.71948671,-0.45853481,0.58907568,1.28517652,-1.72630286,0.26528201,0.05529648,0.11823666,0.01816598,-0.48626193,-1.18825614,0.20498602,-0.55820531,0.70398289,1.03411317,0.70411301,-0.56178188,-0.56865799,-0.32816449,-0.01413580,2.20060658,-1.22790194,-1.89646089,-0.52783531,1.72369993,0.02930478,-0.70332164,-1.21239400,0.25900048,0.55529487,5.25945663,0.45570093,-0.70543945,-0.29279733,0.09355117,-3.12378716,-0.44877672,0.99161172,-0.83176935,-0.07064906,-0.37841865,-0.36647344,0.05809237,0.62691671,-0.36634001,-0.51524550,-0.37871417,-0.38542721,-0.39937791,0.39219472,-0.39819556,-0.00679797,0.00018157,-0.07256959,0.11847916,1.21095467,0.07834885,0.08831038,-0.16628972,0.33612457,-0.28612190,-0.25265020,-0.23177326,-0.14438963,-1.35671997,1.21529543,0.20118779,0.05453699,0.41753173,0.77625579,0.09176828,-0.14000373,-0.11364131,2.07912183,0.22405568,-0.01251073,0.01099164,0.10715360,-0.45969513,-0.00021197,0.19397397,-0.06752107,-0.53609240,1.06001878,0.47382623,0.41369930,1.02645576,0.02808721,-0.00410720,0.11323455,-1.33765709,0.22574352,0.01041271,-0.02259666,-0.06836846,0.00363056,-0.48860511,0.05027930,0.10763992,0.20047952,-0.46210143,0.62219560,0.12623429,0.23272778,-0.10935626,-0.09073453,-0.83696717,1.33477676,-1.21586454,0.86756492,-0.21702832,0.03223130,2.81320596,-0.02923353,0.26042292,-0.10502182,-0.45800430,2.27262974,0.30817190,0.60714120,0.04294416,-0.07509110,-0.05899028,0.14868675,-0.67981374,0.08017031,1.05375993,0.10100221,0.08156084,0.84814894,0.15311790,1.19757473,-0.14307141,1.15689945,0.05149351,0.05656001,-0.20318642,-0.04437183,0.01396004,-11.32897663,-0.54925591,0.31252962,0.28567028,-0.47591069,-0.32408842,0.13558331,0.14092910,2.47885036,0.06425393,-0.03507843,1.40004075,0.16793670,-0.28700647,0.90904427,0.72511601,0.40702075,-0.21276052,-0.41764474,-0.08778790,-0.64059407,0.19499756,-0.22436650,0.38432962,0.96229208,-0.59491956,0.25175312,1.15772176,0.37256810,-0.58611298,-0.43590900,-0.09576096,
0.31281945,-0.69827247,-0.25688672,-0.13408203,-0.29335731,-0.16639967,0.13726974,0.92901611,0.29074311,-0.10602678,0.60169286,0.22769623,-0.22244304,0.62763125,-0.30094028,0.21618934,0.37494940,0.08238612,-0.27517030,-0.22869682,-0.08582747,-0.25354794,-0.56647462,-0.35836470,-0.14227599,-0.03895516,0.04719593,-0.95870984,-0.30754492,-0.17741416,-0.03161225,0.05495381,-0.29462892,-0.18492764,-0.05393996,-0.46915504,-0.41106826,0.09007187,-0.29153842,0.25028285,-0.24954607,-0.05477279,0.05727056,0.10270585,-0.44806242,-0.00059744,-0.14044683,-0.33943930,-0.13286211,0.10135593,-0.15803528,-0.58383203,-0.02481632,-0.35731074,0.26806793,0.01335941,0.60003418,0.05571752,-0.28871393,-1.11528599,-0.18064977,0.09985130,-0.49733463,-0.17534712,-0.46690696,-0.00925360,-0.43330815,-0.17171113,-1.03986788,-0.28174207,0.00926919,-0.00986831,0.21989746,-0.05901199,0.13538721,-0.11719809,-0.15428652,-0.19035268,-0.00612975,0.16614066,0.16256320,0.32300773,-0.09987165,0.97476548,-0.06673315,-2.32818341,-0.61539745,0.79098958,-0.26911107,0.25175506,-0.33207905,0.26590374,-0.02968594,0.02219431,0.22811861,-0.14187500,0.06020875,0.08561864,-0.20691516,-0.26925227,1.31932402,0.24493466,-0.02221194,-0.55731499,0.04207357,0.86870152,-0.29531574,-0.26558301,0.04115386,0.47606096,-0.01238238,-0.24659379,-0.12040503,-0.04690630,0.34236538,0.04345865,0.41645536,-0.13153867,0.14444482,-0.39009088,0.66269964,0.02170318,-0.28957900,0.13380128,0.84135365,-0.25930521,-0.14414705,0.00814730,0.27352509,-0.11660952,-0.42873323,0.07324199,-0.18085834,0.28591952,-0.33538631,0.15160595,-0.24995296,-0.00794141,0.18425439,-0.43069115,0.13021302,0.03924414,0.11810216,-0.03165131,-0.29585004,0.06756166,-0.07485365,-0.40567517,0.26236057,-0.36760521,0.38891229,0.57846349,0.03703143,0.33321404,0.62721378,0.11425067,0.13005087,0.01811893,0.40122527,0.16009031,0.19205052,0.10887410,0.01818795,-0.10339419,0.07537497,-0.09184207,-0.02423087,-0.25597900,-0.32869685,-0.19545390,-0.10840981,0.34655607,0.41075528,0.06992397,-0.05853404,-0.31259263,-0.16461445,-0.00863687,-0.04707455,-0.24205598,-0.46975598,-0.17186071,-0.62924606,0.15692386,-0.30482358,-0.51352274,-0.47869894,-0.10659844,-0.12865350,-0.29524082,0.13019279,0.47724178,-0.77719975,0.14326490,0.33992508,-0.29183647,0.00195186,0.25222310,-0.30132911,0.20601505,-0.11293243,0.01949866,0.25557333,0.45114267,0.54727411,0.05246775,-0.26436409,-0.08896331,-0.33455089,-0.33950981,-0.27210286,-0.28116229,0.15298063,-0.06960081,-0.53080446,0.48723987,-0.04088816,-0.09213838,-0.32356209,-0.07546616,-0.08520565,-0.34727070,-0.04858541,-0.07498080,0.06661551,-0.39592993,-0.18277772,0.51584691,-0.44796446,0.02796024,-0.17299023,-0.22439586,0.28085393,-0.43771380,-0.70471466,-0.48372823,-0.18009943,0.28158215,0.28630137,-0.29912153,-0.40659955,0.09990811,-0.11022282,0.06345568,1.00018585,0.13218351,-0.47763807,-0.93400228,-0.04002517,-0.30870119,0.06060478,-1.02848136,0.49385422,-0.57046175,0.46288642,0.15242596,
0.05455939,-0.15654768,-0.00215858,-0.12184514,-0.00337103,0.00900246,-0.04324899,-0.19284701,-0.10704724,-0.06848663,-0.06447322,0.00943031,-0.04305243,0.00260360,-0.13679516,-0.22441660,0.01723401,0.03890016,-0.03136105,-0.00864869,-0.09971730,-0.05167527,0.03985241,-0.02913053,-0.06309061,0.06714661,0.00499695,-0.14164644,0.03427215,0.06880270,0.02008713,-0.00684670,-0.05232295,0.06880261,-0.13285685,-0.04339897,0.00488686,0.12464331,-0.03201444,0.00826768,0.04411126,-0.03905725,-0.03645095,0.04650467,-0.09755818,-0.06646434,-0.07376942,-0.13814984,0.10304394,0.10126877,-0.00116887,0.03909367,-0.00834514,0.05148523,-0.03647840,-0.06108122,0.03372502,0.01039153,-0.05264138,0.00235786,0.05798251,-0.10492584,0.00603337,0.03358752,-0.09381377,-0.01092654,-0.03462106,0.03036983,-0.08534461,0.01894591,-0.01948779,0.01233248,0.00786076,-0.04183232,0.06704553,-0.02537012,0.02327695,0.06594834,-0.13273373,-0.01849509,0.02869199,-0.02354047,-0.03529561,-0.06963100,-0.00904693,-0.13392660,-0.01699979,0.00738053,-0.09668928,-0.00709288,0.06960849,-0.19087255,-0.23869926,-0.11434355,-0.10157161,0.05078450,-0.07211552,-0.02024727,-0.01217879,0.00631562,-0.11384173,-0.07346580,0.03346037,-0.09974534,0.01987047,-0.23292437,-0.04958995,-0.01198034,-0.02131534,-0.01786254,-0.05809394,0.02600433,-0.09247684,-0.07399973,-0.04292107,-0.12184624,-0.01614466,-0.01393661,0.06203258,-0.04834596,0.05862392,-0.02805327,-0.04141046,-0.07972761,0.04600673,-0.05801611,-0.18505414,0.04959695,-0.06570092,0.04988496,-0.14293689,-0.01855785,0.02905571,-0.00198378,-0.03294180,-0.06206676,0.05025099,-0.03906908,-0.16064866,0.01621378,-0.14348473,-0.07609815,0.02682802,-0.09577048,-0.07429283,-0.03077797,-0.02568903,0.01649367,-0.01937586,-0.09098390,-0.16214979,0.00349688,0.02738096,-0.03879379,-0.07643753,-0.00789511,0.05903741,-0.09381076,-0.08211879,0.06843900,0.11341924,0.00819639,-0.00400559,-0.05503315,0.09678905,0.06122402,-0.04362935,-0.02507484,-0.13035910,-0.08429930,0.05300199,-0.08658645,-0.05028170,-0.03383589,-0.20661299,-0.05104736,0.01528501,-0.03108246,0.02801191,-0.19867368,-0.20526579,-0.14481616,-0.07454153,-0.20254946,0.02885457,0.01076747,-0.13745971,0.20016816,-0.10711873,-0.05272767,-0.02264861,0.05034562,-0.06956840,-0.08535944,-0.04120707,0.01474568,-0.12500501,-0.02875648,0.02297058,-0.12976278,-0.02750025,-0.03821906,-0.05550160,-0.00550174,-0.08264301,-0.01506860,-0.24387076,0.02208883,-0.27862993,0.02063327,-0.03300019,-0.15411602,-0.15989593,0.03211390,-0.10606475,-0.08574191,-0.08612934,-0.03705589,-0.10806292,-0.17196359,-0.01732759,-0.07243914,-0.09524933,0.17782718,-0.01889941,-0.03966052,-0.30879340,0.04470760,0.02025477,-0.05218660,-0.04140614,-0.00458758,-0.06941883,-0.06407098,-0.02751127,-0.03780096,0.03109760,-0.13565719,-0.08816427,-0.01092560,-0.00533983,0.03075338,-0.03374040,-0.01903302,-0.14177325,-0.05369982,-0.10701928,-0.15179169,-0.03605815,0.00889720,-0.05059782,-0.07044712,-0.08085171,-0.09659533,0.01027826,-0.02331970,
0.01058921,-0.10654198,-0.31306541,-0.10925909,-0.10533746,0.67799485,-0.34687981,-0.01936041,-0.05716117,0.11372185,-0.48915765,0.44394022,-0.14481907,0.75274163,-0.09226002,-0.57261664,0.12815791,-0.07571117,0.02344678,-0.06767024,0.64614081,0.45385712,-0.45110828,-0.03934849,-0.64905715,0.14115435,0.54158562,0.36045310,-0.03771710,-0.08683827,-0.08144769,0.06090812,-0.29053533,0.21704431,0.08338856,0.02016236,0.57920128,0.44780675,-0.09990852,-0.07934327,0.16231494,0.28423950,-0.01359842,-0.26057732,-0.53985894,-0.05415313,-0.33503258,0.37025672,-0.07471481,0.22204666,0.11135079,-0.03519058,0.21459249,0.22840653,-0.13376446,-0.47800949,0.01691590,-0.10364800,-0.51692230,0.68416744,-0.36633962,-0.68442619,0.03439673,0.15501091,0.50952238,0.49495429,0.20561253,-0.16031550,0.04483356,-0.32993758,0.01047885,0.00303194,-0.04511708,0.09553543,0.21351406,-0.21204972,-0.06031784,-0.85426164,-0.15708083,0.02734635,-0.42201227,0.20728776,0.07472192,0.74484992,0.27500087,-0.17420110,-0.08760196,0.03053131,0.10519355,-0.14068636,-0.04825388,-0.83994710,0.09304479,-0.04013694,0.02023787,-0.15833074,0.57047749,0.24632348,0.33415753,0.26323530,-0.28050312,0.46614090,0.08376791,-0.22602300,0.06297316,0.29749009,-0.09831873,-0.01337291,0.05431059,0.40848055,0.00442444,0.42095909,-0.34580293,-0.13245721,0.06409343,-0.43487850,-0.48705083,0.21275292,-0.22478375,-0.19394724,0.27927715,-0.00403978,-0.24026032,0.12608723,-0.10811277,-0.13804646,-0.07035927,0.05874952,0.09546760,-0.06030049,-0.06255384,0.11065598,-0.08181426,0.26556537,0.02627514,-0.19730952,-0.08631203,-0.02369636,-0.01497886,0.61813962,0.02050766,0.00596429,0.04594921,-0.07998812,0.10369531,0.01241647,0.02191100,0.06532453,0.89777589,-0.06117835,0.28404996,0.27440947,-0.03438185,0.05409788,-0.37784666,0.56622225,-0.10530110,0.45086002,-0.21583609,-0.52953792,-0.11111749,0.06053193,0.05103191,0.19502622,-0.07813497,-0.19978935,-0.07287473,-0.17019683,0.11462238,-0.27816972,-0.19738519,0.04460901,-0.03792884,-0.01545408,-0.29242811,-0.30421069,0.14757167,0.05731299,-0.06079137,0.39193961,-0.09723990,-0.10232301,-0.08264529,-0.62533104,-0.08763748,-0.21199511,0.22054729,-0.06100735,-0.29470041,0.23881997,-0.09692544,0.15500250,-0.08750264,-0.20711629,0.07264136,-0.08838377,0.09123583,0.41114166,-0.19396085,-0.23252505,0.51498479,-0.16158964,-0.02137296,0.60221338,-0.27122635,-0.03752298,0.00958672,-0.06729220,0.06937066,0.49247000,-0.32895625,0.51889122,0.07461936,0.03915078,-0.25655752,0.51552951,-0.09445734,-0.11226477,0.24994993,-0.03412246,-0.65590876,0.39315766,-0.01068196,-0.02728996,0.18845895,0.12324060,-0.53007495,-0.19303702,-0.11293094,0.02039651,0.00212873,0.27903828,-0.58051747,0.19205686,0.23510949,0.34510243,0.05729156,-0.13229476,-0.04262292,-0.32955483,-0.07879499,0.12974410,0.07466257,-0.09364881,0.03215929,-0.09476536,-0.65704674,-0.27803981,-0.05986110,0.16642593,-0.14034705,-0.76712459,0.07196079,-0.27420703,0.03570976,0.40869704,
-0.46629748,-1.11529362,-0.39680472,0.19810945,0.39031330,-0.54739279,-0.33421084,-0.13420269,0.92947048,-0.28111652,0.14183867,-0.22088955,1.21641064,-0.10882867,-0.28578514,-3.49255180,-0.71708727,0.10622393,-0.59024012,-0.57155132,-1.34740901,-0.82304883,-0.24789438,-0.20459186,-0.20015855,-0.31014147,-0.18510905,0.04104604,0.23845169,0.54385269,0.08571938,0.07981068,1.10714650,-4.83166838,0.27697489,-0.50500309,-0.58361691,-0.19570328,-0.24078348,-0.38268790,0.69494069,0.47683012,-0.11790058,-0.04052398,0.22275874,-0.12230713,0.51988387,0.03783270,0.28386664,1.12187016,-0.47507676,0.42570895,-0.30346864,-0.34146759,0.27235517,1.05556464,-0.39161214,-1.29308236,-0.71431321,0.09384585,0.06316022,0.04041351,-0.88040388,0.43515378,0.08080832,1.06761193,-0.45669439,0.06175083,0.03472296,-0.06753780,0.03002344,-0.00179905,-0.20605947,-0.78084689,-2.24938536,-0.08691476,0.21930850,0.14787427,-0.54692000,-0.85079998,0.13072906,0.67486829,-0.05546167,-0.18693987,0.89584184,0.10299414,-0.28385937,0.03549002,0.39863297,0.33234796,0.44139600,-4.06701469,-0.03713954,-0.09644622,0.32124808,0.58684951,-0.03692729,0.26242143,-3.38794541,-0.56108117,-0.25634271,-0.21631695,0.19457343,0.20529586,-0.08508976,-0.02994698,0.61657065,-0.37510341,-0.78099364,0.80312872,0.00553906,-0.03375803,0.30917197,-0.47241640,-0.82451200,0.00997352,-0.32289487,-0.14892924,-0.01123696,0.20832697,0.55865312,-0.21635325,-0.77107704,0.61051059,-0.06810545,0.00239369,-0.31708941,0.02016060,0.45129123,-0.45007366,-0.09830578,0.74808615,1.06431675,0.86035311,0.10928486,0.52757871,-0.04123037,-0.11695617,-0.32144925,-0.68368393,-0.60099941,0.05286868,0.07874823,-0.31961384,-1.29311931,0.58977789,-0.29873845,-0.06262774,-0.25155291,0.10810748,-1.62648976,-0.34451213,0.08670282,-1.28015709,-0.19884290,-0.37957686,0.21299948,-3.04826808,0.13768390,0.15314069,0.16854838,0.06198267,-0.90386939,-1.22436631,0.24181578,0.05969897,-0.11197864,-0.61211306,-0.08278912,-3.54783869,0.16280077,-0.55240524,0.12048077,-0.04896053,-2.46595979,0.48068085,0.87684381,-0.00991063,-0.00996026,-0.54979867,-1.08610046,-0.27233782,-0.75859112,-3.72055864,0.25261340,0.29150492,-1.03364289,-4.91431379,0.82205319,-1.81990016,-0.47112232,-0.04123579,-2.08065748,0.12727252,-0.77021557,0.21273987,0.20980006,0.90045321,-0.44792724,-0.55552018,-2.99954557,0.31991088,0.13667011,-0.36741939,-1.39917207,0.04404636,-0.15330476,0.27065656,-1.38543224,0.89912552,0.02465456,-1.83470452,-1.31500816,-0.12646499,0.13082252,-0.05052643,-0.77790082,0.78709197,0.09511206,-0.19181405,0.13052678,-0.33455199,-0.00562067,0.02151874,0.47971708,0.59667802,-0.49547127,-0.09373016,-0.20921881,-0.27476278,0.36049321,-1.45957756,0.01920797,-0.92108744,0.06432052,0.47024405,-0.99581909,0.33591628,0.91189331,0.93243325,-0.72733814,-0.27597582,-0.19759053,0.02989648,0.07232891,0.53716469,0.04135297,-0.24047074,-0.16631891,-0.28081337,-1.80791700,0.04814631,-0.09789462,-0.09789903,0.47411925,-0.61298513,
0.10951695,-0.54530281,0.07587848,0.02350645,-0.18689090,-0.17242418,0.28550082,-0.04856695,0.24941312,-0.06639665,0.24524911,-0.24379088,0.28549522,0.06471810,-0.23008101,0.46016264,0.01006701,0.04122011,-0.03885616,0.15291250,0.06398159,-0.02348657,0.09883508,-0.23837706,-0.31447539,-0.34748152,0.08911603,-0.73118484,-0.24166691,-0.18954426,-0.03463427,0.00498728,-0.44318858,0.18422553,0.23087892,-0.38475919,0.29913858,0.07132068,0.19554096,0.08940219,-0.21575861,-0.10247461,0.04237119,0.15594424,-0.41599858,0.02767243,0.05355634,-0.51572269,-0.19806920,-0.18857388,0.00670369,-0.39409101,-0.09099580,-0.45425886,0.65072608,-0.09939994,-0.05845004,-0.14954089,-0.13521993,-0.05322740,-0.43807340,0.17516124,-0.00927771,-0.14473188,-0.38819632,0.18093264,-0.35933840,-0.19569142,-0.41741747,0.06342757,0.03241161,0.04105509,0.27392232,0.27629927,0.10226724,-0.20336041,-0.21876705,-0.25082350,-0.02753030,0.13784203,0.20897229,0.57083213,-0.03910634,-0.26742902,0.07561920,-6.90848160,-0.30537719,0.22910401,-0.11483818,0.57008213,-0.16113074,0.55381924,0.04690685,-0.01683324,0.68544465,0.08796356,0.10986488,0.16369705,0.01545968,-0.01885066,-0.01815752,0.09984387,-0.24008177,-0.14301595,0.05446625,-0.20964572,-0.14607546,-0.15998456,0.08382854,0.20431450,0.00456257,-0.21686870,0.23675396,-0.02148787,0.02982121,-1.16159272,-0.00813927,-0.03777947,0.24107023,-0.39688438,-0.16406281,-0.31921482,-0.04914365,0.50129300,0.34219199,-0.22231658,0.06659473,0.02860397,0.37729746,-0.33162746,-0.48220080,0.18152329,-0.13610075,0.41256431,-0.17111184,0.22515829,-0.15252009,0.00611999,0.34831747,-0.42079532,0.21414742,-0.04262603,0.04283521,0.25207809,-0.15467581,0.23439233,0.35936010,-0.13870031,-0.35935262,-0.28830272,-0.00838300,-0.02527865,-0.03598201,0.04618895,-0.01588931,0.11752760,0.27987084,0.10158681,-0.44450408,0.28963745,0.10984660,0.01074270,-0.07732245,-0.04119644,0.02242986,0.11501740,0.02925584,-0.10440759,-0.13652994,0.08723216,0.04674684,0.14402704,-0.12300811,0.00808383,-0.04519278,-0.27182084,-0.09401038,-0.02619060,0.08963560,-0.26958254,-0.13715540,-0.14174917,-0.06799218,0.36337030,-0.23596415,-0.67316377,0.14277592,0.08797096,-0.17249796,-0.01750272,0.20328350,-0.12560199,-0.84054261,0.05043362,0.12347066,-0.02854041,0.00786302,0.28717256,-0.29312107,-0.08335979,0.02040419,0.17216976,-0.44062373,0.04555927,0.90483117,-0.01994524,-0.15509313,0.02492214,0.09233334,0.13081568,-0.25336227,-0.04040225,-0.10008126,-0.01785839,-4.46428204,0.04787974,0.04957305,-0.25499731,0.08522694,-0.05988543,0.14863051,-0.55273086,-0.01740446,-0.01846963,0.43120643,-0.33742937,0.07299703,0.48108959,-0.28892618,0.39452758,-0.08883625,0.12739034,-0.54324132,-0.38729778,-0.44659817,0.00349377,-0.04581127,-0.18037015,-0.01673183,-0.27766046,0.14865425,0.14317769,0.19979751,0.07348555,-0.53780103,0.14250866,-0.03773285,-0.13675027,-0.27967435,-0.35602489,0.23928633,-0.47524768,0.27235872,-0.16953452,-0.01434949,-0.05505329,
-1.02341735,-0.53523117,-0.07878559,0.26150027,1.11180317,-0.20886646,-0.44308543,-0.19678596,0.30368620,-0.06057470,-0.44651064,-0.14928992,0.06096996,0.25241762,-0.41292039,-0.11831376,-0.21564007,-0.09250045,0.02265465,-0.64995086,-0.14138988,-0.18382324,0.10556020,-0.21563950,-0.33902669,0.41819820,-1.73101139,0.21878096,0.05037294,0.14824387,0.14637670,0.04691003,0.93124831,0.03966488,-0.45823431,0.27345213,-0.18649927,0.42351598,-0.31974962,0.15394488,0.03467510,0.41763708,-0.03023234,-0.24467234,0.40894529,-0.02686708,0.55216223,-0.21882184,0.18554068,0.77042311,0.18667392,1.01013160,0.36040628,1.09949744,-0.37746403,-0.00757801,1.13562620,-0.36588505,0.15086618,0.02442369,0.45293632,-0.35886475,0.35767606,-0.18687828,0.37013125,-0.12947956,-0.21773538,0.34928468,-0.36071435,-0.38416484,0.03907216,-0.00144407,-0.58393115,0.33257553,-0.57707775,-0.06228729,-0.88963991,0.27984661,-0.27225277,-0.00180014,-0.30524981,0.16336694,-0.03024842,0.11761333,0.23538628,-0.69756502,-0.21398054,-1.06263471,0.32564601,-0.26270789,1.10435224,-0.14781596,0.00370341,-0.07126209,-0.20385076,0.16167481,-1.37116015,0.34910086,-0.03061891,0.31789115,-0.49397773,-0.81258619,0.55820686,0.21497166,-0.06458738,0.75870079,0.37440553,-0.83483607,0.01380055,0.43263373,-0.05837283,0.11975689,-0.52076387,0.09689106,0.20036431,0.19643112,-0.01544493,-0.19806662,-0.49750546,1.61710370,0.15839174,-0.94725627,0.11759353,-0.15289478,-0.69503403,0.08668844,-0.22097240,-0.05936486,-0.39128277,0.02019037,1.75145042,-0.64516395,1.43434715,0.23103747,-0.17424372,0.04407546,-0.31241891,0.01789276,-0.39195019,-0.29159820,-0.25840476,-0.06994753,-0.07047068,-0.32386553,-1.01657510,0.01867406,-0.88833356,0.19695127,0.71283036,0.27605537,-0.49203935,0.58597428,-0.01525026,0.30850792,0.34962326,1.21979904,-0.15809417,0.29879197,-0.28180245,0.16940133,-0.52563703,0.02537073,-0.20155571,0.20454881,0.14660394,-0.47232565,0.00588089,0.87848246,1.30933619,-0.18569222,-0.20276457,0.06087188,-0.08971296,0.01682999,-0.45291737,0.29345539,1.22367215,0.00089240,0.04231402,0.29387054,0.44126263,-0.43967044,0.80950636,-0.08464379,-0.12735896,0.37907693,0.82221091,-0.17360057,0.02760362,0.40375423,-0.03912441,0.30499291,0.25518891,-0.24251354,-0.37203464,0.74238735,0.09139335,-0.15381418,0.37269840,-2.24342060,-0.19711581,-0.02044032,0.28040946,0.48382503,-0.32353443,0.02455046,1.69045949,-0.05168948,-0.50319260,-0.41735652,0.07821736,0.03664829,0.18020923,-0.03517140,-0.60054380,-0.07020426,-0.07285590,0.91081196,0.60093701,0.01616836,-0.48159432,-0.60414487,-0.02045993,0.03606352,-0.10390338,1.51237655,-0.18762396,0.54491836,-0.67106819,-0.50440747,0.33490148,-0.03869826,0.02534349,-0.29418537,-0.46653661,0.18829934,2.03858113,-0.46339864,0.25560173,0.42604157,1.28618801,-0.40523902,-0.42263094,0.07743739,-0.41609210,0.34293485,0.09429664,0.27343711,-0.19998282,0.69197625,-0.03470321,-0.05482896,0.66079110,0.30912817,-0.52969950,0.35971823,
0.02569425,-0.03309823,-0.00782872,-0.01715111,-0.00482715,0.03826057,0.01266102,0.01886131,-0.05711892,-0.03188587,-0.04338378,-0.04582766,-0.01760369,0.02546316,-0.01076581,-0.07136263,-0.06530228,0.05128834,0.05454469,0.00178724,0.01821109,0.03097301,-0.06872284,-0.04686405,0.04449409,-0.02855478,-0.05013537,-0.04420757,0.00063074,-0.05329666,0.02054976,-0.04174312,-0.04864897,-0.05602583,-0.05367871,-0.02463179,-0.07367582,-0.01901162,-0.04551269,-0.04203712,0.00618403,-0.06557574,0.03205311,-0.01812751,-0.06800643,-0.04658622,0.00700560,0.00423822,-0.02759303,-0.02201880,-0.07011696,-0.04876075,-0.05273803,0.05251547,-0.07171220,0.00653360,-0.06265533,-0.02590782,-0.00405031,-0.02073424,-0.01077538,0.01410084,-0.05113572,-0.02708510,-0.04435178,0.01343723,0.02769067,-0.00373029,-0.03697403,0.01667657,0.02451535,-0.03034543,0.05241548,-0.05908353,0.04780510,-0.03382915,0.00523236,0.00445031,-0.06659549,-0.06094460,-0.00639668,-0.04383007,-0.03109622,-0.01774056,0.01279899,-0.05590328,-0.07130927,0.01341219,-0.06685765,-0.06216493,-0.05565801,-0.03094076,-0.05154530,-0.02913204,0.01886714,-0.01713453,-0.06942910,0.00207338,0.02154585,-0.00319607,-0.05525307,-0.03500757,-0.04964126,-0.01600419,0.03536738,-0.03618159,0.02224582,0.04592918,-0.05692655,0.03302604,-0.03506931,-0.00612915,-0.07977384,0.02420180,0.01309386,-0.05976120,-0.06966529,-0.03052041,0.00353779,-0.00286910,-0.01900729,-0.03963200,-0.02796005,-0.07392769,-0.05024776,0.00800327,0.00740982,0.01549231,0.03580936,0.01684680,-0.02522158,0.04776902,0.03739199,0.02375381,-0.03169817,-0.05648284,-0.05725086,-0.02111237,-0.00477284,0.02376630,-0.01189942,-0.03082325,-0.06742900,0.00244862,-0.01489729,0.00470439,0.00842415,-0.00671995,-0.02760161,-0.06928926,-0.00079132,0.03067540,0.04685296,0.03034727,-0.04403185,0.04158065,0.03441987,0.01965058,-0.01280682,-0.00419573,-0.05996089,0.01032500,0.03581982,0.01715083,0.02526992,-0.02658369,-0.06299412,-0.02264232,0.00912627,-0.05148004,0.03439580,-0.05694200,-0.06797629,-0.04036027,-0.06712110,-0.01501488,0.03658566,0.04855967,0.03027246,-0.01172102,-0.04421426,0.01224611,0.03732828,0.03734474,0.01307356,-0.03538603,0.05364392,-0.05336805,-0.03180473,-0.05224974,-0.02112701,0.01732259,0.01152433,-0.01981467,0.00460399,0.03333659,0.04239020,-0.05017935,0.03922467,-0.05663314,0.03206672,0.02026993,-0.01282489,-0.04256888,-0.05195374,-0.04840995,0.02466206,-0.02014703,-0.04789247,0.02805881,0.03678173,-0.02669750,-0.04106187,0.04893748,0.04094062,-0.02319368,0.01431476,0.03584826,0.03688972,-0.00790450,-0.08285283,-0.02665794,-0.01996254,0.01240886,0.03162807,-0.04449088,0.02345552,0.00834051,0.03321127,-0.01018972,-0.06197576,-0.07066560,0.00448385,-0.00551375,0.00069735,0.00356227,-0.04885038,-0.02771796,-0.00703285,0.03796147,0.04509274,-0.03762013,0.00223814,0.02941103,-0.04593261,-0.04238519,-0.01695086,-0.02092677,0.01262628,0.01220890,-0.00112731,-0.05236436,0.05284544,-0.05333344,-0.00740665,-0.00192243,
0.02578776,0.00077719,0.01567584,-0.07509158,0.00028913,-0.04714213,-0.05220731,-0.03950148,-0.03679062,0.02802165,-0.05341344,-0.06551754,0.00437079,0.00675647,0.03772374,-0.07197171,-0.00190145,0.00942190,0.03889506,0.00335258,-0.01006663,-0.08006641,-0.05037935,0.00471061,0.02148683,0.04120270,0.03828601,-0.05371023,-0.01634600,-0.00426634,-0.04489759,-0.02379075,0.00648916,0.00199120,-0.01521853,0.05238027,0.04015514,0.02427920,-0.03404280,-0.03861825,-0.02678522,0.03677985,-0.04366471,-0.01645474,-0.01742344,-0.00583781,-0.03331221,0.02266940,0.05866035,-0.01452978,-0.07177741,-0.04385973,-0.04012452,0.00356415,-0.02609443,-0.03714388,-0.05144772,-0.04838308,-0.05685202,0.00027840,0.05407840,-0.03447959,0.01424443,-0.05515265,0.01438101,-0.07530123,-0.05233927,0.00358587,0.03307980,-0.08189920,-0.02195585,-0.04501688,-0.06622034,-0.04270159,0.04643246,-0.03886518,0.00498679,-0.00653559,-0.03784248,-0.03125749,0.03850999,-0.05954143,-0.01317192,-0.06019481,0.05298270,0.01767435,0.03345861,-0.01622265,-0.02604774,-0.07615636,-0.06918264,-0.01067656,0.02487940,-0.01262382,-0.00893515,-0.04866732,-0.06048711,0.02959968,0.04705129,-0.05298114,-0.06493676,0.04681801,0.02832427,0.05287182,0.02268658,-0.01525058,0.03412076,0.01015644,-0.03991153,0.04324580,0.04362967,-0.00354177,-0.03733741,-0.00171563,-0.07033297,0.03945128,-0.04054294,-0.05559602,-0.01101653,-0.05480889,0.00111517,0.03557667,-0.01190836,0.01531765,0.02816419,-0.07013772,-0.05421594,-0.03241595,-0.01757475,0.01452964,-0.00505222,-0.07429340,-0.05415487,-0.01876368,-0.05664383,0.00979389,0.02423115,-0.00347572,-0.07511153,-0.05744958,0.01691396,-0.05869944,-0.03394682,-0.04316158,0.04423559,-0.05098047,0.01585216,0.01325188,0.02986702,0.03976528,-0.05372102,0.04150061,-0.02165375,0.01888369,-0.04675850,0.05504491,-0.06915247,-0.00702945,-0.02889287,-0.00324934,-0.01466386,0.01425065,0.03444763,0.04216225,0.01189753,0.01453853,-0.02003578,0.00626646,0.01671107,-0.03046300,-0.05399406,-0.00399657,0.00662860,0.01005568,0.01708240,-0.02326360,0.05105434,0.02689397,0.02465254,0.00410093,-0.03167450,-0.06952897,0.03192973,-0.07832719,-0.06076164,0.03233575,-0.03807527,-0.04606737,-0.05292736,0.02081644,-0.02171540,0.05255795,-0.06247180,0.03714797,-0.07163247,-0.06671528,0.04436035,0.02876818,-0.06816228,0.04377951,-0.05443060,0.03556886,-0.05513617,0.03821258,0.02310031,-0.03184373,0.00163840,0.01872802,0.01023752,-0.03617974,0.00778124,0.01193772,-0.04550575,-0.01095888,-0.03242319,0.00958796,0.00141103,-0.02844918,-0.06785334,0.01584918,-0.05896029,0.02499428,-0.01885179,-0.03126659,-0.02671201,-0.06832918,-0.02793247,-0.06595948,0.00803024,-0.02206916,-0.05103724,0.01369732,-0.03448273,0.04676251,-0.06727609,-0.03561743,-0.01910145,-0.05540014,-0.03631352,-0.03497856,-0.01340913,-0.03970921,0.02136419,-0.02348359,-0.05327445,-0.02541326,0.01361685,0.02507205,0.03341539,-0.03148030,0.01810793,0.01563594,0.04138341,0.03322070,-0.02229400,-0.07651786,
0.22079471,-0.49535298,0.32829365,0.16920538,-0.02111385,0.03075961,-0.09915456,0.49888691,0.22595339,-0.10233888,0.38984463,-0.19200647,0.62730509,-0.41880068,-0.00201895,0.59632939,0.17959771,0.09888539,0.14519042,0.20401233,0.22786465,0.11560055,0.50622177,-0.34721968,-0.35354826,-0.14919305,-0.35822946,-0.34498018,-0.21712241,-0.18764240,-0.12895510,0.13258426,-0.25237003,0.27009711,0.29044297,-0.72362030,0.44825336,0.04248183,0.03406647,0.18522188,-0.30631474,-0.04356856,-0.01183006,0.17455694,-0.54044527,-0.01716906,-0.05560574,0.50017291,-0.03569321,-0.15140805,0.18708143,-0.19153857,0.21773589,-0.44204468,0.64627236,-0.19073324,-0.18517023,-0.30349791,0.06883756,0.06937924,-0.25601828,0.34546918,-0.12325975,-0.13921401,-0.45592055,-0.03502031,-0.22553122,-0.27419305,0.72890913,0.04860911,-0.00833064,-0.07072794,-0.16018578,0.08892201,0.14302175,0.07388505,-0.18307023,-0.01487910,0.02779469,0.37537584,0.11090547,0.66673416,0.00501190,-0.20885557,0.02849529,-3.53142786,-0.14081196,0.25920063,-0.23256168,0.69300598,-0.08719163,0.67197561,0.07772892,0.04764771,0.72011924,-0.05699421,0.47846025,0.26467845,-0.00149269,0.07296895,-0.52519399,0.09494055,-0.04941123,0.40717030,0.08988090,0.40141547,-0.05550947,0.14084554,0.00379821,0.15331279,0.05261180,-0.28713638,0.18851818,0.21891573,0.14487162,0.23097698,0.13529775,0.04254748,0.24480385,-0.20186335,-0.15679389,-0.09721721,0.41443422,0.50327611,0.46213385,-0.11430605,0.02800984,0.03422114,0.31385201,-0.10611895,-0.31785515,0.19881512,-0.04870446,0.68126017,0.22205715,0.22230190,-0.08204915,0.06751724,0.49032661,-0.18696246,-0.07207317,-0.01145066,0.07796980,0.30150875,0.09651272,0.25517145,0.42561787,0.04376704,0.00830580,-0.27876347,-0.27315357,-0.18371853,0.07520203,-0.05223856,0.24551401,-0.07891192,0.14642936,0.37164682,0.16491337,0.34221759,0.23639299,0.02988073,0.18161163,0.11187266,0.02552613,0.07881618,0.07127620,0.09105890,-0.17598547,0.28757399,0.18016586,0.23232232,-0.10607038,-0.03354174,-0.01471545,-0.33212212,-0.13356100,0.04049942,-0.01250999,-0.17427537,-0.21712343,0.29276702,-0.28665709,0.49002692,-0.32280415,-0.96288985,0.13986519,0.03644234,0.08738370,0.20602334,0.39705381,0.30297527,-0.77267420,0.38308227,0.31545863,-0.02682908,-0.00384237,0.17072922,-0.18845995,0.20814215,0.19917463,0.09154049,0.49221981,0.43814975,0.64495677,0.01401511,-0.02056476,-0.03514089,0.16572900,0.61127484,-0.20937178,0.14816023,0.15915042,-0.05632201,-2.19636083,0.26966119,-0.00142882,-0.07864559,0.58233130,-0.02288063,0.09534913,-0.53880614,0.01354618,-0.03497143,0.50463325,-0.13894187,0.32895386,0.22986558,-0.26491737,0.38930693,-0.26982599,0.24291591,0.61637306,-0.47483578,-0.47382429,0.11936203,-0.00966558,0.07563183,0.06021830,-0.33971781,0.22820905,0.10902911,0.29878989,-0.03400337,-0.54463190,0.09510771,0.09336516,-0.09855241,-0.28566003,-0.40950468,0.42098036,0.71871239,0.28376526,-0.08279004,-0.46554491,0.19924316,
0.38351330,-0.30709538,-0.90468490,-0.75821280,0.39673680,-0.45402849,-1.17673957,0.48768452,-0.56944478,0.01955439,2.57780910,0.44394428,-0.28125143,-0.15766256,-1.45883071,-1.88971698,1.98736119,0.01866543,0.51454854,1.60896707,-0.25149810,-0.63028145,0.08215047,0.75093436,-0.70625359,0.69905102,-0.25531304,0.39780587,-0.41707972,0.70468384,0.07650571,-0.00984341,1.38776374,0.32394204,0.10814374,0.49506441,0.52542335,0.10805501,-1.41683626,0.18467061,-0.23575871,-0.27711934,0.04326515,-0.02577944,0.42976654,-0.09656610,1.30334699,-0.27860773,0.79609281,0.25265944,-0.67648029,0.07001988,-0.51059240,-0.30005237,0.55738425,0.22261329,1.60591114,1.22791898,-0.19965909,-0.56325781,1.42506027,-0.15468834,-0.35855088,-0.10765228,-0.34673563,-0.11393095,0.05446073,0.03778508,-0.67881662,0.40046394,0.07647193,0.09338889,0.17159499,0.04059902,-0.08302333,0.20691186,-0.42601404,-1.26166499,0.11013687,-0.66191298,1.60991037,-0.33533466,0.06235489,0.86292106,0.48011509,0.41073599,-1.42645311,-0.25209355,0.14410707,0.49759883,0.54671788,-1.96510255,0.12570792,-0.11874229,0.45990086,1.57428813,-0.32120413,-0.67770332,0.53436995,-0.79493958,0.57134110,0.63104415,2.73719120,2.93898630,0.02709386,-0.63983923,-0.51320410,0.94317698,-0.44486633,1.33858144,0.06273881,0.01966088,0.13271298,1.39128482,0.18956138,1.86147332,0.65557939,-0.35716578,-0.36267084,2.82601333,3.57017040,0.13542236,-0.45396450,0.16864447,1.45881879,0.03148669,0.39148113,0.02309219,0.00866055,0.23079668,-1.49978280,0.77281517,1.52455091,1.43327653,0.77814794,0.90346348,0.04338860,0.05164880,-0.23808572,0.53156084,-0.23460604,0.08174173,0.01735097,0.55962908,0.08552621,-0.00938697,0.41624904,0.37131557,1.74604845,-0.66990191,1.93406999,1.61542082,-0.08083273,-0.30366006,0.52641141,-0.60798633,-0.07374799,-0.01315479,0.98323631,-0.18532544,2.27027798,0.05558561,-0.47613525,1.68235612,0.08432212,-0.20494263,0.15074216,0.05708475,0.36103949,-0.28224862,-0.45145136,1.22056723,2.04360914,0.00278320,-0.69886780,0.73549259,-0.10367820,0.04053263,-0.02681380,0.06795359,-0.14329199,1.38714361,0.09360360,-1.82695830,-0.47685826,1.69560683,-1.01165557,0.21176906,3.15690923,0.05269192,-0.31973141,-0.46911538,0.40691769,-0.02186305,1.31754076,0.86299437,0.94616848,-0.37395462,0.32886428,1.21378553,-0.01938462,0.09477285,-0.64225888,1.98662257,-0.83519059,0.03049734,-0.59954906,0.11524031,0.40977207,0.55220520,0.98853087,0.91714710,0.07584952,-0.11348477,0.27173734,1.20762241,-0.49089676,1.98452806,-0.17404330,-0.09504911,-0.67157310,0.52347732,0.01999601,0.04779955,-0.37384123,0.92302710,-1.91753018,-0.79770392,-0.33618703,0.54313380,-0.01194547,-0.64693844,0.68110031,0.50667042,0.08358552,-0.10858854,0.18739697,2.63892794,-0.21718729,0.60468751,1.79486334,0.40328050,0.22204497,0.02178094,2.45886683,0.21004291,-1.49321866,1.61175811,-0.50086868,1.79376614,-1.39509237,0.37827763,0.65065324,-0.21898764,0.49684969,0.99565685,
0.02472274,-0.21781127,-0.01297911,-0.37651601,-1.45732284,-2.25484180,-0.09808467,0.12625630,1.10493648,-0.00933739,-0.08556551,-0.93871224,0.82903838,0.33537298,0.05617419,-4.84767485,0.38578087,0.04771161,-0.36972916,-0.12655066,-1.79056001,-0.97037172,-0.69001478,0.14168112,-0.17176941,-0.25149319,0.05299558,0.31876174,0.07316811,0.27316666,-0.00301970,-0.05280500,-1.52409005,-0.15063739,0.12638904,-0.02473691,-0.28205743,-0.31303132,0.15846203,-1.06578445,0.01762084,0.00705644,-0.02845997,0.35479012,0.17686842,0.00519924,-0.45734775,0.23386326,-0.19319209,-1.57417583,0.06802077,-1.54798663,-1.77485466,-0.82443988,0.00142987,-2.53118968,0.68336052,0.22846872,-0.40452781,0.17095010,-0.25922868,0.29340327,-0.17211956,0.07391546,-0.31132260,0.51830214,-0.07725827,-0.31731540,0.22568184,-0.15244476,0.09579655,-0.02202664,-0.27128160,-0.79994142,0.71069872,0.24554676,0.16411407,-0.17742223,-0.16349299,-1.05565906,0.13523962,0.03480810,-0.05164756,-0.12814142,0.89270210,0.38180321,-0.16316517,-0.47165886,0.13932328,-0.08106336,-0.35223526,-4.82203579,0.10312678,-0.04170753,0.00236577,0.23670080,-0.03432180,0.22532867,0.10110177,-1.63647556,0.20646612,-0.18229589,-0.21497209,-0.08913167,0.00478475,0.17119648,-0.59711283,0.58377790,-0.08932480,0.46496785,0.01019434,0.14891119,0.17165333,-0.12831745,-0.33563170,0.27057076,-0.04711299,0.40184319,0.18733110,-0.28402352,0.17399952,-0.61931956,-1.15176892,-0.01385819,-0.21382505,0.13386843,0.83269370,-0.00063586,0.18351166,-3.48751998,0.27612233,0.36637294,-0.07196588,1.55083036,0.26713189,-0.24696901,0.12272483,0.02284401,0.03601058,-0.67975473,0.15236376,0.05984290,0.00539697,0.16472782,-0.81442136,0.18596831,0.37451202,0.04023395,-1.32426107,0.30355796,0.48300999,0.98660666,-0.00892662,0.22924513,-0.62653691,-0.39003691,0.24621736,-1.69943380,0.26088533,-0.44314036,-0.07731361,0.04172868,0.06050127,0.31723168,0.02767123,0.73209798,-0.02845147,0.06445998,0.07560710,0.44044900,0.21423021,-0.16620325,-0.83410990,-0.02764040,0.53203553,-0.63377386,-0.19837634,0.00778015,-0.03646981,0.32059598,-0.18767951,0.01467724,-0.50487942,-4.74513483,-0.15659419,-0.28695154,-0.86770284,0.58639956,-1.22882593,0.18690501,0.31026578,-0.19904879,-0.98840147,-0.94650012,-0.29086626,-0.76334524,-2.31869745,0.43733710,0.05761526,-0.52982789,0.23574539,0.36755544,0.25450790,-0.07173122,0.05479273,0.03991172,0.24544948,-0.06771116,0.02180430,1.46665168,0.26745117,0.46747816,1.03561711,-0.08935797,0.37036145,0.05412184,-0.01434620,-0.68891591,-0.05116556,0.03401162,-0.19105624,-0.91104352,0.00289896,-0.06290817,0.26440275,0.25149781,0.09099794,-0.12509541,-0.23810078,0.16006072,-0.78592944,0.32271072,0.01049709,-1.70091105,0.18662542,0.07721352,0.44614136,-0.04048565,0.11682875,0.12729731,1.24681044,0.08917646,0.34657806,0.02133140,0.16034195,-0.59979498,-0.10838863,0.55959082,0.21224958,-0.78433418,-2.57870364,0.05350899,0.16088608,-0.64345366,0.65306062,-0.15473609,
0.13478513,-0.15647635,-0.01390992,0.08296328,-0.43170694,-0.05578578,0.91973370,-0.08310613,-6.73325920,0.13405651,1.16162622,0.34482321,1.85568976,-1.07047570,-0.63052344,0.36284396,-0.50805712,-0.18222240,-0.88827848,-0.81040543,0.44894379,-0.19648030,0.52156925,-1.16367841,0.02372218,-0.40566069,-0.47899321,0.50966102,-1.31727862,-0.70107353,0.09562103,0.12063055,-0.24339521,0.40910068,-1.64712763,0.10379479,-1.41986823,0.62954313,-0.67585433,0.26428321,0.02898907,0.18731579,0.06500509,0.15317313,0.00744834,0.12473045,-12.90481949,0.36623111,0.14969353,-0.38187873,0.54561067,-1.71492994,0.01608817,-0.21727225,-0.88836890,-1.91305733,0.45555803,0.11703370,-0.38284859,0.17330675,-0.07543630,0.12559064,-0.19813535,0.82437301,0.45049924,0.26823646,0.17039762,-0.97636062,0.29940903,-0.16037025,-0.10556081,0.12199654,0.45620441,0.14962301,-0.01375576,-0.87094313,-0.32780895,-0.32559928,-0.27222273,-0.18223263,0.08412571,-4.53710413,-0.12223075,-0.91467321,-0.57485348,-0.57831663,-1.37985110,0.65452695,1.78931499,-1.01095092,-0.18293083,0.45714632,0.19026653,0.11167309,-0.21218333,-3.66657853,0.89775229,-0.51810122,0.63401324,0.68642658,0.70324057,0.23268093,0.31955919,0.66058034,-0.17094366,-0.72601289,-1.31601429,-0.58872110,-0.38957307,2.56496215,0.00933068,-0.04646964,-0.81441772,0.66072220,1.15863919,1.25865757,0.43978918,-0.10887899,0.18492171,-0.83438206,0.62904876,-0.49649262,-0.17493081,-0.04012057,0.66463846,0.23423138,0.05497529,0.20119883,1.31151462,-0.65533078,-0.50443840,3.39990830,0.06317262,-2.09052467,-0.88462383,-0.90129894,0.18379843,0.14061889,0.42010319,0.19983067,0.27852383,-0.27447674,0.10974737,-0.04582416,0.39793822,1.35094750,-0.16574094,-0.98412365,-0.49675032,-0.43535608,-0.24224038,-0.94123083,0.01400275,0.25583223,0.61620259,-0.32470721,0.69796127,0.32246906,-0.72225839,-0.62586564,-0.23922691,-0.06778160,0.29890025,0.67177099,-0.06020628,-0.45735741,-0.12160998,-0.14824443,-0.37036568,0.51421839,1.14154577,1.01993108,-0.14487863,-0.05622604,-0.18711707,-2.86352611,1.08503294,-0.06620137,-0.03523335,-0.19753338,-0.56216681,-0.00790408,-0.65608889,0.39935195,0.63361567,-0.06134519,0.13399024,0.01752279,-0.13525535,0.11148412,0.77225947,-0.70024437,0.09528162,1.33916736,0.08859386,-0.11191738,0.15094273,1.74983299,-0.58767521,-1.66593897,-0.22802636,-0.71903652,0.44402209,-1.61285460,-0.37049970,-0.03016184,-1.16263938,-0.08712202,0.41711566,-1.05878186,-0.99809861,0.77873045,-0.61478978,0.00859337,-0.13462955,-0.38087770,-2.55808449,-0.80780190,-0.62059879,0.10049877,-0.09934822,0.38751093,-0.03140340,0.10586648,0.22131157,-1.55850196,0.36994955,-0.16229171,-0.37730789,-0.05887766,-0.35657457,-0.18370375,-0.25472367,-0.33961928,0.03765887,-0.57034582,-0.12400694,0.50000566,1.86965823,-0.53229511,-0.89461231,0.20523754,-0.63989288,-0.04061279,0.42161041,-0.38953653,0.31863075,-0.26093918,0.60864788,-0.85261327,0.30324298,0.38966775,0.08704510,-0.54812592,0.45486340,-0.76650488,
-1.25841391,-0.86731172,-0.15382555,0.50279593,1.47854531,0.40339765,-0.75586748,-0.55536652,-0.91397554,0.06220561,0.78751457,0.26752043,-0.54000616,-1.34657240,-0.05089833,-0.54633838,0.10989588,-0.06986246,-0.36131740,0.69441676,-0.21724357,-0.63185489,-0.24500199,0.79386896,0.60512400,-0.36380580,-1.46694863,-0.11684868,-0.13258742,0.44339034,0.02177450,0.06468405,0.38460779,0.02450879,0.14399104,-0.63957477,0.72270489,-0.86784923,0.25099590,0.59232217,-0.43786031,-0.27016804,-0.03825108,-0.43002170,-1.22090518,-0.04196814,-0.63869298,0.83127451,-0.10490625,0.34809145,-0.26352653,2.17126298,0.05106846,1.43231654,-0.02560314,0.28640205,0.02466825,0.32574034,0.00704191,0.08403485,-0.90553427,-0.77307129,-0.54481530,0.59957147,0.41216230,0.20109771,1.78319252,-0.43687591,0.29467922,0.11251350,-0.06191203,-0.03636222,-0.67435038,-0.07247848,0.20305465,-1.85300732,-0.06573208,0.38412386,0.06430842,-0.06511256,-0.56460750,-0.18168643,0.02875511,1.04389822,-0.19454603,0.02486923,0.13030021,0.46957251,0.07183877,0.13958330,0.29396364,-0.77456945,0.13430418,0.01512279,0.00188117,-0.94760394,-0.55074853,-0.22537713,0.10414121,-0.24821112,-0.37384406,-0.70387870,0.48623690,0.99493301,-0.01641412,0.50108123,-0.48018667,0.01105664,-0.53880221,-0.28637642,0.02523343,0.19313027,-0.28266934,-0.29976428,0.08136978,0.79279387,-0.33229172,0.03092691,-0.21431857,0.82305747,2.63659716,0.01963699,0.19808345,0.14017583,0.78241289,0.01756143,-0.20548241,0.02725089,0.26699090,0.03087622,1.64674401,-0.26699874,0.09330238,0.46056527,0.90690207,-0.13087602,-0.96078390,-0.06459897,0.77553189,0.65228176,-0.79715526,0.03089702,0.05928315,-0.33889487,-0.85494834,0.53636563,-0.40829524,0.46313199,0.85069579,0.35680112,0.88031483,-2.66151953,-0.11555213,-0.23618421,1.54505253,-0.69218332,-0.15144533,0.86610752,0.22459316,1.32304668,1.39841688,0.00963327,-0.30062750,0.36716461,-0.03263669,-0.45471555,-0.03245008,-0.38945612,0.39747602,-0.67398882,-0.56403697,1.38323009,0.36504796,-0.05702722,-0.48789299,1.50718379,0.28247783,0.03570954,-0.01736924,0.28425345,-0.60936564,0.14367537,0.78488511,-0.65294141,-1.14940286,2.50836587,0.04472491,0.07502986,-0.29898444,-0.86363018,-0.53614461,0.20648131,-1.18531513,-0.25950637,0.19476235,0.64538532,0.92894077,-0.67183411,1.99968135,-0.48401317,-0.10642380,-0.54638624,0.20282784,0.50082386,-1.20519507,-0.01128027,-0.58948964,0.01581786,-1.17023087,-0.02050717,-0.51150095,-1.61970508,0.40561002,-0.03720991,-0.08290748,0.09474361,-0.31487903,1.69456553,-0.31125146,0.06537721,-0.33907190,-0.49626207,-0.02939360,-0.00065488,0.14319877,1.66514921,-1.08982956,-0.05408919,-0.33394358,-0.55258268,-0.27131644,-0.00496506,0.24462734,0.39049166,-0.19201340,0.08277254,-0.29998964,0.43842247,1.34581673,1.32237160,1.07835126,-0.33459705,-0.68357521,-0.09159813,0.48032701,-0.08629569,-0.43804258,0.01021775,-0.72698283,-0.20740475,-0.25874996,0.24086633,-0.65304410,-0.13520236,-0.97822684,1.46367323,
-0.84554917,-0.19797161,-0.37789539,0.16722600,0.07458379,-0.00865809,0.23297936,-0.31327793,-1.20358789,0.19802427,-1.22140372,0.07321533,-0.82714725,-0.81175894,-0.54479259,-0.42297161,-0.51982808,0.07348532,-0.17792706,-0.47276026,-0.98985362,-2.68356180,0.04100123,-0.88318092,-0.10622871,0.83767551,-0.26427406,0.22856270,0.24930212,0.15794390,0.24416547,0.26993826,0.24767973,-1.74327505,0.15369374,-0.80503881,-0.23134232,-0.38484213,-0.75529802,-0.28950515,-0.31294242,0.48115861,0.48799044,-0.07677254,-0.95662516,0.04661380,-0.05216665,-0.08149447,0.75887030,0.65087694,0.32619876,0.16310750,-0.11985636,0.06106352,-0.11266546,0.36887407,-0.56749618,-0.39855704,0.89684528,0.19208960,-0.55382371,-0.38400850,0.32992962,-0.02976554,-0.21739979,-0.92458701,-0.88452011,0.13149197,-0.05029865,-0.00653486,-0.34929037,0.34258497,0.06951211,0.14450549,-1.32968068,-0.80594742,-0.70075643,0.25531825,-0.32137120,0.25967985,-0.07975633,0.06228769,0.14660913,-0.51894444,-0.30605936,0.15728967,-0.62528801,-0.08524202,-0.37025741,0.09173016,0.52164018,-0.48940915,-0.40616140,0.10572696,0.04102594,-0.04538615,-0.50475091,-0.21863802,-0.99057490,-2.28847694,0.39319232,-0.52880114,0.17296986,-0.64502531,-0.31759280,-1.33775997,0.25691086,0.12957336,-0.09224659,-0.11917140,-0.04098751,0.66593534,-0.89523929,-0.12201422,0.00916832,-0.78485590,-0.96653217,-1.31305921,0.03158949,-0.44144642,0.15252885,-0.10765455,-1.27131188,0.26070890,0.20777458,0.36268252,-0.40055582,0.05456740,-0.39016175,-0.15719746,-1.58726239,-0.34810728,0.21143523,-0.03437688,-0.03914789,0.03182735,-0.21862982,0.11707164,0.00811161,-0.02918128,0.11024863,-0.12554392,-0.16476253,-0.32696158,-1.20664859,-0.19083716,-0.33550289,0.13435730,-0.38005719,-0.17621912,-0.49606341,-0.57209200,0.01356150,0.32348868,-0.30101931,0.51786435,0.59151304,-1.42234457,0.16524263,-0.52520919,0.43090898,-0.08799195,0.13926773,-1.02104163,0.01611818,0.43240005,-0.27057466,0.00634201,-2.07465816,-0.58019537,0.18160456,-0.52038854,0.22395836,0.00061666,-0.37439469,-0.67097872,-0.11795776,-0.07045995,0.16768391,-0.23434530,-0.29046443,-0.73879981,-0.29319525,-0.41807231,-0.79107630,0.00493325,0.19864270,-1.50599146,-0.80058557,-0.08811703,-0.51261944,-0.32185405,-1.01156068,0.30473220,-0.54851198,-0.16291456,-0.61170995,-1.13515735,-0.34628293,-0.54876584,-0.55011493,-0.38362199,-0.17006928,0.35807863,-0.51106882,-0.00909924,-0.89464450,0.25223759,-0.61734134,0.13764389,0.41607350,-0.21499023,-0.49935448,-0.05547604,0.12128021,-1.81894386,-1.27535856,0.21183473,-0.49859279,0.18227005,-0.04562424,-0.20843364,-0.01457764,-0.18429679,0.23313001,-0.01005203,-0.34929833,-0.30843621,0.23574223,-0.33087435,-2.65629220,0.12613006,0.68820161,-1.33709311,-0.06571753,0.37285686,-0.14673340,-0.02408633,-0.45522141,0.55458862,-0.53073043,-0.57466412,-0.41386852,-0.10855327,-0.31783170,-0.90779978,-0.58874702,0.33148292,-0.48843309,-0.17084846,-0.24653855,0.37074843,0.14792342,0.12731509,-0.83645433,0.01243927,
-0.10717648,0.01488568,0.06463063,-0.02118829,-0.18490241,-0.47499001,0.00323714,-0.03910819,0.05852905,-0.09825688,-0.36579278,-0.49603260,0.16482814,0.26495138,0.18180516,-0.33361763,-0.25424266,0.07053866,-0.18839359,-0.47058779,-0.13347431,-0.07071028,-0.04564373,-0.34100401,0.01209953,-0.12634493,-0.03333363,-0.35976416,-0.02117289,-0.17988607,-0.06606777,0.10212088,-0.37958854,-0.17970373,-0.36625230,-0.01393665,-0.11155302,-0.88766932,0.11614271,-0.37555930,0.00912127,0.34459016,-0.01642656,0.27241465,-0.13666673,-0.03740720,-0.33247215,-0.23309168,-0.22531915,-0.17952535,0.04574918,-0.31331533,-0.33096585,0.02803124,-0.07470972,-0.07014957,-0.17264000,-0.15793577,-0.02966047,0.07568482,-0.07048558,0.26481107,0.01426249,0.17478241,-0.16064781,-0.08002999,-0.04251629,-0.40767592,-0.33682376,-0.29849780,-0.03435445,-0.15595655,-0.02733339,0.20389748,-0.11370528,-0.02487368,-0.04205969,0.04325326,-0.02736468,-0.02139684,-0.04124900,0.04519556,-0.01999686,-0.04477249,0.05960490,0.00114649,0.03728559,-0.14188421,0.19171301,-0.13292535,-0.19943617,-0.45235911,-0.07134659,-0.08562753,0.01843928,-0.24880165,0.02581322,0.14151263,-0.30540556,-0.03465443,0.15404207,-0.09616146,-0.33573079,0.43170270,0.03522462,-0.32004008,-0.08278093,0.22190711,0.02146691,0.08068320,0.10052673,-0.09094297,-0.10635109,-0.25565332,0.06945769,-0.21499230,0.02393997,-0.21757291,0.10576201,-0.00765449,0.10902086,0.10027058,0.21037316,0.02194320,0.04837610,0.07531532,-0.21866943,0.09059773,0.19763879,-0.36616212,0.02920252,0.17326510,-0.24066117,0.01465776,0.10252503,-0.25338086,0.09054387,0.11240309,-0.18382275,0.06069673,0.04100675,-0.06139361,-0.05855553,-0.27099046,-0.20658557,-0.16865334,-0.28820023,-0.02987214,0.00330230,0.10319561,-0.20728949,0.28815883,0.00048350,0.06177597,0.01490125,-0.12625015,-0.00892108,-0.74831694,-0.53376263,-0.01219052,0.19146015,-0.08608910,-0.05363830,0.04241185,0.01940665,0.19490272,0.00569659,-0.06197756,0.01113399,-0.15925682,0.16920902,-0.13728923,-0.33789846,-0.09854978,-0.01261119,-0.71133077,-0.23461398,-0.07930763,0.08111130,0.24754182,-0.29334411,0.03785045,-0.24364747,-0.37402070,-0.17359337,-0.30986145,0.05677044,-0.59765321,-0.07354338,0.22241233,0.23867029,-0.03146669,-0.16701521,-0.04559373,-0.27458012,-0.06427796,-0.25761861,0.20622976,0.00947906,-0.03363505,0.05173452,0.27079001,-0.18099999,0.06434428,0.10813003,-0.05034574,0.01640533,0.13657635,-0.46118715,-0.02350471,0.04662955,-0.03655001,0.04332142,-0.04565688,-0.10533344,-0.04406670,-0.02249663,-0.28190723,-0.43039751,0.05778157,0.14710452,0.01664998,0.05323003,0.05776684,-0.08807376,-0.02540235,0.00294124,0.13614950,-0.02991184,-0.08444808,-0.46921939,0.01181728,-0.63438421,-0.18299119,0.05363072,-0.07138369,0.16225724,-0.29867297,-0.06216032,-0.00527200,0.16973573,0.02947769,0.01848263,0.03630811,-0.24823563,-0.05664385,-0.15300724,0.00831194,-0.13713963,-0.03129243,-0.34509033,-0.42321393,-0.05960711,-0.41331857,-0.02862027,-0.03790271,
