// Neural Network File Format by Kyle Julian, Stanford 2016
3,14,7,64,
14,64,64,7,
0,
0,0,0,0,0,0,0,0,0,0,0,0,0,0,
1,6,6,6,6,6,6,6,1,1,1,1,1,1,
0,0,0,0,0,0,0,0,0,0,0,0,0,0,0,
1,1,1,1,1,1,1,1,1,1,1,1,1,1,1,
-0.32967097,0.26182693,-0.05769197,-0.21195439,0.39987954,0.05774056,0.12573676,0.63391018,1.02005470,0.22475065,0.62864470,-0.61571097,0.67851084,-1.32946420,
0.43116084,-0.55777699,0.61365443,0.64548844,0.52674586,0.64868551,0.51775914,0.58772331,-0.60579532,-0.47754496,-0.24438718,-0.27691132,-0.12517966,-0.06267387,
-0.56581271,0.68080425,-2.62762117,0.32217008,0.27818194,0.35206667,0.27397305,0.30354589,-0.47845122,0.37571716,0.53922117,0.61183500,0.65944445,0.27488452,
0.31752434,0.00520085,0.18001720,0.43181178,0.11811486,0.09976190,0.43310782,-0.53859627,1.88917947,0.13912699,-0.16637737,-0.00031451,-0.49876285,-0.43150654,
-0.72954434,-0.04992685,0.22799592,0.20430371,0.20160420,-0.93931878,0.12699562,0.12838930,0.23058222,0.26930371,-2.53820157,0.54025209,1.07553220,0.80569249,
-0.40782756,-0.37974873,-0.18454541,1.07473671,-0.03881432,0.06810412,0.02588515,0.50677413,1.50695658,0.55629927,-2.28161383,-0.56153268,-0.07331669,-0.52001762,
0.16653475,0.82114863,-0.78547776,-0.07425900,-0.07406883,0.24390681,0.33270311,0.03152495,0.56978232,-0.70703793,1.65225351,-0.45025831,0.77867150,0.65607893,
-0.22795552,0.31376445,-0.27014458,0.14295158,0.25018933,0.27688304,0.06291730,0.00824059,-1.72587371,-0.79045516,0.49712932,0.90548229,-0.00142055,0.96022457,
1.72569633,0.09954772,-0.02971528,0.13878332,0.21760716,0.09479392,-2.23763227,0.18985939,-0.36878753,0.06930326,0.25324515,0.66235697,0.32920530,0.51386511,
1.09050751,-0.12648745,-0.05457443,0.04654467,0.57428592,-0.07801543,0.02283434,0.16463460,2.57191515,1.19912362,-0.23820466,-0.54217893,-0.95869160,-0.54984927,
2.25910711,-0.10375674,0.48154187,0.53795052,0.08442347,0.32351848,0.21423399,0.29784802,0.43407723,0.38070944,0.65222150,-0.53826588,-0.29090834,-0.53547031,
0.92832595,-0.51264942,-0.25093916,-0.18718550,1.12600172,-0.18486676,-0.16191691,-0.17252058,0.05949827,-1.90048623,-0.26410544,-0.20264007,-0.24467345,-0.11733393,
-0.74836487,0.20952316,0.17357425,-0.25309190,0.45045051,0.03693245,0.00256255,-0.00692730,-1.03164124,0.71047127,-0.11819740,-0.54119366,-1.09243500,1.48827326,
-1.08957541,0.43611971,0.43429202,0.09108704,0.27921033,0.04971841,0.05292869,0.09705533,0.72683847,0.53151852,0.34098676,0.45146352,0.87618816,-1.28071344,
-0.46635437,-0.15321839,1.36017907,0.29756546,-0.04303131,-0.23285417,0.02000651,0.50062174,-1.06282258,0.75277013,1.16087770,-0.63832247,-0.38297045,-0.08748327,
0.29767117,0.35551026,-0.22298685,-0.12448834,0.07882898,0.48480928,-0.35416967,-0.14433376,-0.02582562,2.21711254,1.03521311,0.57957512,-0.80262983,-0.21282250,
-1.07871664,-0.39479163,0.66190571,0.25212029,0.56219959,-0.12242994,0.42969137,1.23220897,-0.30613017,-0.55434811,0.32796445,1.01050699,-0.60714936,-1.14702702,
-0.36885807,-0.00082684,-0.42718458,0.44294214,0.35641927,0.32196867,0.34664944,-1.23739982,0.01192747,0.99512351,-1.34810257,-0.85010904,1.24325967,0.42772844,
1.84680951,-0.21138819,0.09333046,0.10143982,0.07244869,0.17811027,0.45366469,-0.07645112,-1.86099613,-1.11434865,-0.40601093,0.67527723,0.11157903,0.32652360,
-1.99870300,-0.15441291,-0.14194889,-0.37367386,-0.16989394,0.06560012,0.11494065,1.75084937,0.46189538,0.48653945,-0.13572097,-0.25164738,-0.28017932,-0.03350805,
-0.16550019,-0.18229716,-0.22845818,-0.15973580,-0.03863005,-0.18374738,-0.25174263,0.14816913,0.10474148,-0.22484335,-0.17420933,-0.18391335,0.01575172,-0.03864598,
-0.85805857,0.76976150,0.40402976,0.35414127,0.33927691,0.34503621,-1.35916746,0.15670775,-0.33541933,-0.13639638,-0.23794326,0.46349853,0.68044853,1.53815019,
1.08104467,0.26054013,0.49730977,-0.50372100,0.31719449,0.10672826,0.36042398,0.17964406,0.18739650,-2.11795139,-0.79361194,0.66360962,0.31184888,1.36037135,
-0.03689783,0.68144989,-0.13843772,0.33772817,-0.76481825,0.06556176,0.25581899,0.81650734,1.60068786,1.15443134,1.03358352,-1.17868710,0.19526994,0.39831626,
-1.29014695,-0.38140184,0.48002806,0.57897174,0.28827924,0.98036605,0.71813470,0.10594626,-1.05372345,0.02800620,0.59885764,-0.68795264,-0.30806649,-0.15929303,
-1.86144745,0.85542566,-0.12252250,0.38645014,-2.39154029,0.17098284,0.29147667,0.36175904,0.04872300,0.36586741,0.48732892,0.82623351,1.09931207,0.98793089,
-1.21205568,0.06650081,0.17859221,0.02114709,0.27294725,0.64652985,0.48542088,-0.05050966,0.04628886,-1.25725508,-0.12614322,-0.53857309,0.00783274,0.30357203,
0.77592391,0.95743978,-0.19609879,-0.19677700,0.28129953,-0.08795564,-0.23698980,-0.08049082,0.20947427,1.59435225,0.04865601,0.53319025,0.29993919,0.85342693,
-0.67471504,0.27567130,-1.84442723,0.09453323,0.34419709,0.34030613,0.41311485,-0.01797774,-1.17474020,-0.11571547,0.39487702,0.32380801,-0.25610301,0.87753123,
-0.13117795,0.27134854,-0.31129736,0.53491521,0.24085435,0.01934902,0.32094166,0.67931014,-0.57190603,0.20305505,-0.00917333,-0.58333164,-0.96599603,1.75110471,
-1.68233001,0.72631282,0.19529051,-0.47832012,-0.15966874,-3.06627369,-0.01712759,-0.24586220,0.80429339,-0.18162464,0.49801284,0.26351115,0.12635185,0.58389813,
1.17054057,-0.39955264,0.08680069,-0.10233951,1.10243154,-0.18449377,-0.20705397,-0.14180346,-0.08787867,-1.34238338,-0.16129692,-0.24398981,-0.35559124,-0.31186545,
-1.05485964,0.83603734,0.62507004,-2.82009649,0.33345854,0.43482184,0.36647946,0.28933170,-0.42335925,0.14109839,0.07762844,0.64923656,0.74094701,0.86275005,
-0.31874916,0.18338053,-1.97620666,-0.03383058,0.11570207,0.18058358,0.36538774,0.06652912,-0.94841826,0.62932616,-0.05667863,0.27672121,0.13915017,-0.04117465,
0.28405380,-0.24442998,0.44357085,-0.43668962,0.43784550,0.10592279,0.10476372,0.95575613,-1.04999781,-0.63638389,0.64915395,0.71613657,-0.82754159,-0.28381506,
-0.06996845,0.31442538,0.16051580,0.38548863,0.57021099,0.45228767,0.27186596,-2.01688600,-0.08536985,0.29414827,0.36901745,0.62777531,0.93178874,-1.79271841,
-0.66809905,0.59141022,0.11475030,0.32775724,-0.04208489,-0.03819344,0.33417046,-0.23270817,0.85812646,-0.38504738,1.03229630,0.73128939,0.27607286,0.07304314,
-1.18760490,-0.33064327,0.12016567,0.37261978,0.50607169,0.55195367,0.58526462,0.54369491,-0.77852863,-0.55071318,0.09326381,-0.02700296,0.15190567,0.21453059,
-0.03632421,0.21266262,0.08506767,0.14963247,0.02830728,-0.27049249,0.30811808,0.60421628,-0.30728161,2.61828494,0.52699232,-0.00472053,0.56806350,-1.21926653,
1.84244919,0.53283030,-0.10436921,-0.32574937,-0.29422730,0.16387574,0.12879367,0.15129401,0.76542008,1.14398658,0.47410947,1.28806412,-0.47777599,0.22519630,
0.74016351,0.11830711,0.44892180,0.34851679,0.11445963,0.50008494,-0.32231674,0.00337019,-1.30117118,-1.04004848,-1.09941709,0.62048513,0.33640671,0.36115640,
3.35145879,0.15201062,-1.49059117,0.01105096,0.15524535,0.17211987,-0.00594774,0.11350261,0.07144397,-0.06921969,0.38486570,-0.02860303,0.36720178,0.70691806,
0.19086848,0.32825604,0.51633954,0.25274134,-0.05113635,-0.27991411,0.24863163,-0.24227154,1.34458101,1.49462056,-0.29136682,0.46397823,-0.65715140,0.99243945,
0.16082218,0.18850669,-0.00569695,-0.14231962,-0.13922872,-0.18774650,-0.22452851,0.03699803,-0.17860040,0.04457161,-0.08922906,-0.00655919,-0.02323717,-0.26158848,
0.44468346,0.74010056,0.32477093,-0.87716281,-1.64927375,-1.43905175,0.03882858,0.02931197,1.10662341,0.09134489,0.69423354,0.23668484,0.85071343,0.26383951,
0.45809168,-0.22947228,0.44277358,1.44356656,0.00461049,0.40789157,-0.05651556,0.15405425,1.40853572,0.14359719,1.02014720,-0.67101043,-1.18806291,-0.57214129,
0.17087907,0.35138878,0.36581853,-1.12696469,-0.04440546,0.19746925,0.16010295,0.18113080,0.88053471,-0.53370512,0.10793433,-0.09046533,0.51818979,0.08422266,
0.06452516,0.21534787,0.33520120,0.42517909,0.16229394,-0.07569602,0.03538865,0.39615697,-0.35387841,-0.94013190,-0.47500533,-0.65856802,1.19132876,0.56312412,
-1.10728920,-0.18427336,0.70005739,0.47150758,0.60273850,0.76302260,0.57191873,-0.29224947,-1.57581758,0.23803417,-0.52758801,0.00922897,0.61121130,-0.04279323,
-0.58372062,0.07192107,0.70612347,-0.66328710,0.21802041,0.11927239,0.04561526,-0.13738300,1.21718657,-0.03916426,0.20918179,0.36488000,-0.09455620,-0.00751844,
-1.04125094,0.06448384,-1.35370100,0.19935940,0.27430454,0.16060671,0.00246481,0.04041029,0.41197258,-1.01403272,-3.73447180,0.61241198,0.52940172,0.92926681,
-0.76025945,-0.03142760,0.62613702,-0.96330512,1.14418352,-0.29604617,-0.08909507,-0.17128639,1.27011418,-0.24073285,0.70267594,-0.46888155,-0.48888740,-0.38911515,
-0.24547903,0.24532746,0.23951775,0.07916868,-0.00553372,0.01098797,0.41478372,0.54978681,1.67112458,-1.39987981,0.99025953,-0.31639737,0.00487225,-0.18392704,
-1.10673964,0.51855010,0.41182417,0.41119778,0.35224146,0.33333042,-1.84448814,0.28950861,-0.04228096,0.22353357,-0.32921284,1.24541044,0.84480786,1.04522872,
-1.51692224,0.16128327,0.34297472,0.18565652,0.41639122,0.12697607,0.49971420,-0.15378532,0.54543364,-1.30130959,0.18477927,0.75277287,-0.17785321,0.11493588,
1.08764613,0.05170139,-0.41960016,-0.03315688,0.22537372,0.08348942,0.55914342,0.19223732,-1.49967837,0.69336319,-0.03754980,-0.19599241,1.31517446,-0.41219985,
-0.04328616,0.42118004,0.52219784,0.56084502,0.29696783,-0.69994032,-0.10395449,0.60003763,0.56883866,0.12049574,1.89618313,1.32793152,0.21074356,-1.21494961,
0.75472337,-0.40241647,0.83508313,0.73433751,-0.95803851,-0.01132869,-0.11466637,0.15900250,-1.44696581,-1.28627002,0.42508474,0.04707358,0.11843864,-0.24755019,
1.24778724,-0.18775630,0.52069718,0.67323893,0.57758641,0.72347206,0.59028566,0.24329557,-1.14097714,-0.42452061,-0.28769812,-0.53075159,-0.31607568,0.16187440,
-2.30930376,-0.09062199,0.35438830,-0.32910782,-3.73455906,0.24408898,0.19444939,0.37340441,0.20523918,0.36773789,-0.74542946,0.23582444,0.43700719,0.50506926,
-0.95651722,-0.30944839,0.17256393,0.23630990,0.57256067,0.86757869,0.63922703,-0.03020868,-0.66656011,0.20356332,-0.16440541,-1.07137764,0.18590653,0.52902657,
0.71534026,0.17044595,0.13893782,0.21905775,0.24097160,-0.42757669,0.14798291,0.71674228,0.18151532,-0.13147576,-1.61568654,-1.22637904,1.11861944,0.76467121,
0.54156250,-0.48453870,0.61143160,0.57398528,0.50057822,0.53692985,0.52886009,0.53161675,-1.01106584,-0.40666038,0.11212884,-0.19291167,-0.20582297,-0.23927230,
0.84806430,0.05615142,0.26113293,0.21839416,0.36919519,-0.29506460,0.00488797,0.04084325,-1.67641735,-0.13201606,1.24632514,-0.93013996,0.68147147,0.01979148,
0.53901315,
-0.24798226,
0.20403092,
0.74593234,
0.82994241,
0.39211169,
0.88310951,
0.73470825,
-0.31296018,
-0.50246173,
-1.02705812,
0.00015113,
1.05627513,
0.96599013,
0.27324396,
0.39575306,
0.72672874,
-0.16193151,
0.35092276,
0.35902801,
0.00981033,
1.25297892,
0.47807005,
0.10599953,
1.19092989,
0.87617594,
1.28371882,
0.84732836,
0.02751292,
0.78871936,
0.60166776,
-0.57799464,
0.44256517,
0.17114952,
-0.29149660,
-0.22758718,
0.87821305,
0.69911498,
0.91234887,
-0.03955721,
0.61328369,
0.03206965,
0.46599385,
-0.20668864,
-0.42742345,
0.02006510,
0.46027645,
0.66725564,
1.02126312,
0.73038614,
-0.12609056,
-0.24055281,
-0.30656531,
0.78032708,
1.04101539,
0.21838327,
0.93694252,
0.11297023,
-0.59261024,
0.33522815,
1.04771292,
-0.50602192,
-0.21550633,
0.60750324,
-0.01724826,0.05987848,0.25408781,0.20651236,0.85785347,-0.66782939,0.28734949,0.13232753,-0.78150338,-0.79266417,0.45296952,0.70712459,-0.18610331,0.51669633,0.19088028,-0.16145433,0.02273166,0.48167446,0.50230742,-0.98716652,-0.04275016,0.39988732,-0.53750956,0.26343593,0.35055256,-0.26172376,0.05199866,-0.06596173,-0.07446291,-0.47711709,-0.37786508,-0.25683236,-0.89130217,0.61648804,-0.28350347,0.18270761,0.31648108,0.14850615,-0.16929983,-0.01963102,0.15212721,0.30089965,0.14921677,0.02654222,-1.99106574,0.03176964,0.00906607,0.11932634,0.30169049,-0.01599224,-0.63759255,0.50068223,-0.08596889,-0.70219338,-0.03618025,0.14624003,0.16078919,0.08792685,-0.16151297,2.21296382,-0.07100753,0.05977974,0.22277077,0.24393441,
0.11240907,-0.00715096,-0.96323478,0.28271982,0.55798966,-0.52073377,-0.25396851,0.25434327,-1.19929755,-0.95412570,-0.20378324,0.44786745,-0.07000478,0.20186156,-1.70146251,-1.21679616,-0.01888830,0.46578503,0.05256951,-1.27512038,0.04222561,-0.10931870,0.18477523,-2.13940120,0.56147867,-1.64872169,0.42741814,-1.20131874,0.28878549,0.07737464,-0.74472529,1.16863191,-2.14643836,-0.29151031,-1.74867094,0.57886565,-0.01230444,0.64668322,-1.53503907,-3.15344310,-0.04679963,-1.51636028,-0.33121991,0.11927618,-1.85175872,-0.96340370,-0.37723553,0.20550470,0.81982994,0.14755818,0.28462976,-0.97404128,0.06420766,-1.40518141,0.46004933,0.24563000,-1.61503160,-0.24363670,-0.01977489,0.57439601,0.44416732,-0.19668344,0.17972651,0.03193351,
-0.23782219,-0.23881750,-0.80699742,-0.23334555,0.24766566,-0.74441844,0.03193727,0.14250021,-0.32204798,-2.67469120,-0.25323188,-0.40997481,0.13865758,0.14919342,-2.20359039,0.05180952,0.18189178,-0.32121640,-0.04274924,-0.76083738,0.00461611,0.48862273,0.22804597,-0.56331587,-0.02799933,-0.17245814,-0.02868237,0.24055856,0.21212767,0.38221467,1.11111343,-0.06240454,-4.29382849,1.28128386,-0.22110331,0.20136574,0.13488683,0.13561386,0.38137990,-0.07233000,-0.10626418,-0.23103596,0.33247009,-0.04620291,-1.16310596,-1.09916341,-0.05426235,0.07243052,0.10905789,0.21006837,-0.63472211,-4.68008137,-0.69832247,-0.42927989,0.17574885,0.22646254,-0.35857204,-0.66920573,-0.09666105,2.86446357,0.21171424,-0.05297264,-0.17200541,-0.09959118,
-0.13168453,-0.18905912,1.64938235,-0.63757032,0.01011616,0.10613143,0.09143866,0.42338240,0.04253572,0.11997814,0.20876180,1.08186722,0.22064550,-0.54786110,-0.76528090,-0.48355520,0.00279354,0.61404097,0.47537458,0.17348769,-0.12240630,-0.43614444,-0.27675766,-0.11889257,-0.30272013,0.10103905,-0.38552004,0.07980385,0.89347100,0.53579980,-0.77604395,-0.20104854,0.67691827,-0.48823643,0.16061263,0.21381852,-0.41940889,0.01734914,0.07375140,0.41030726,0.14679746,0.90506208,-0.38665849,-0.00999077,0.41227069,-0.14152144,-0.63327348,0.11503904,-0.08015754,-1.45995390,0.32213351,0.09949771,-0.41366574,0.20025736,-0.59872681,0.56409931,0.02410563,0.01643535,0.38987541,-2.87426734,0.05143880,-0.33137333,0.03477183,0.48622897,
0.12234358,-0.71279168,-0.21491086,0.35124183,0.83752692,0.34806225,0.00273443,0.35524753,0.04548486,-0.07790436,-0.61444718,0.49174172,0.27604640,0.19825368,0.15028447,-0.32065278,0.65280783,0.23193187,0.67354614,0.66338265,0.11684287,0.25976887,0.57000065,-0.33896464,1.23477125,-0.20864327,0.79228538,-0.29519555,0.24953336,0.49054191,-0.42040461,-0.16052666,-0.39945990,0.15604798,0.14021417,0.01595053,0.31905028,1.09643078,-0.17198625,-0.31280163,0.50960511,-0.76234746,-0.17245319,-0.07567285,-0.74481368,0.34868428,-0.10033691,0.40247095,1.11123729,0.16386072,-0.27672639,-0.58129072,-0.48064834,-0.02811692,0.61256886,0.17397219,0.11512822,0.51303065,-0.54891902,0.00954049,1.02765870,0.48519936,-0.39662284,0.50408977,
-0.53773320,1.08196211,-0.51838708,0.10744343,0.01921540,-0.47185171,0.41139266,0.12335206,0.42218152,-0.27609190,0.27618495,0.73474699,0.32332543,-0.24844445,-0.21580352,-0.29884061,-1.03620982,1.01768100,0.42747241,-0.49223244,0.05873919,0.96962702,0.14057232,0.50235957,-0.60284877,-0.52739185,-0.16680774,0.50938284,0.44829291,0.36725020,-0.05776861,-0.93138671,0.23097652,0.01580929,-0.04041591,-1.01329648,0.14073707,-0.68189031,-0.20060545,0.29834327,-0.14272119,0.25173664,0.70333928,0.04569814,1.23715639,-0.71457529,0.10328511,0.12749088,-0.39938918,0.15377899,-1.00448513,0.13604870,-0.32856655,-0.86823279,0.10010996,-0.35207680,-0.07154155,0.37284154,1.33241701,0.17520779,-0.37761787,-0.31436193,0.81792670,0.10637803,
-0.08129328,-0.70747089,-0.04009874,0.06721121,0.00746080,0.55962771,0.22471097,0.31210706,0.37991026,0.22267541,-0.61511296,0.41826206,0.34564567,0.03666857,0.85765028,0.06137950,0.93976784,-0.34673181,0.17127331,1.12970841,0.11969438,-0.30909950,0.16121964,-0.14220396,0.75001651,0.09964064,0.47249234,-0.56570643,-0.06324939,0.24224105,-0.11799034,-0.29419154,0.24072646,0.29495695,0.32795441,-0.12230646,0.16897446,0.68138456,-0.22840942,0.13422686,0.10084593,-0.35745388,-0.14070465,0.03032473,-0.06365025,1.16080856,0.13395783,0.11234551,0.37503189,0.27909851,0.08689366,0.68828130,0.32024172,0.60053712,0.49584794,-0.38687864,0.08521781,0.09777476,-0.77954513,-0.14661480,0.34628373,-0.02072915,-0.46732116,0.13219340,
0.14903320,-0.91753340,-0.18067259,0.33726808,0.28551990,0.54625404,-0.01580241,0.31087103,0.12403899,0.89123446,-0.22762454,0.29431003,0.49883971,0.37981310,0.41938311,0.27455539,0.93113363,-0.03970122,0.57953489,0.99408907,-0.03436331,0.17241201,0.44911492,-0.05861283,1.14983940,0.09119289,0.68698680,-0.32428747,-0.05375309,0.23059355,-0.17881158,-0.74218428,0.11414132,0.63777804,0.39756641,0.25211740,0.31356055,0.91541231,0.44537929,0.12374141,0.10293380,-0.31515163,0.04752235,-0.08466394,-0.35792255,0.92821336,0.29202244,0.12922287,0.83715588,0.47374636,0.11240046,0.59286857,0.23747055,0.37078661,0.70227009,0.06917936,0.25518742,0.15896775,-0.83314842,0.20373395,0.66265851,0.33819336,-0.44201949,0.40255970,
-0.33980486,0.25335422,-0.96602154,0.47601914,0.72813994,-1.19791663,0.03076646,-0.11893576,0.02768984,-0.61015242,0.13626800,0.00818697,-0.19286439,-0.36093497,-0.89728290,-1.40897644,-0.98716301,0.74926764,0.34089640,-2.00963569,0.03846492,0.06318024,0.14914376,-0.11555883,-0.13740875,-2.35368896,0.40280327,-0.15734598,0.18273789,-0.13329469,-0.58703327,0.52192146,-2.03659105,-0.86359054,-0.77090830,0.00740426,-0.12663215,-0.01361543,-1.71510482,0.14864990,0.11960497,0.27885893,0.24231835,0.00646913,0.11141239,-0.86965734,0.12250782,0.19329181,0.06345028,-0.24261588,0.04612058,-0.68559134,-0.01064317,-2.69667459,0.06143124,0.01927746,-0.75057572,0.23769775,0.06765617,-0.39749670,0.34240869,0.14743790,-0.28258258,-0.09872619,
0.02125066,-0.07827628,-0.11868959,-0.12181535,-0.04390623,-0.01619586,0.04916966,-0.03808460,-0.11565951,0.11530934,0.04675449,0.02374431,0.08975230,-0.12254465,0.10875158,-0.10394540,0.09167295,0.02627216,-0.05990460,0.05637634,-0.10528964,0.00642219,-0.02894468,0.01483083,0.06359266,-0.06832911,-0.01882244,0.06948865,-0.06944535,-0.05226892,-0.00142743,-0.07095035,-0.06961077,0.07155949,-0.02736286,0.10834805,-0.10428177,-0.11607342,-0.08016080,-0.12300583,-0.07943287,0.07546785,0.09452781,-0.06178358,0.05971363,0.07710481,-0.11239798,-0.00767334,-0.08171511,-0.06678556,0.02960494,-0.00368765,-0.10155091,0.05539272,-0.01473308,-0.03535355,-0.09826376,-0.06807409,-0.06915365,0.00689422,-0.01681284,-0.06986491,0.09541467,0.00660196,
0.19794525,-0.39546710,-0.94210196,0.10323732,0.36254826,0.05664204,0.20641011,0.40490842,0.24432541,-0.48490524,-0.31063545,0.40546989,0.33301231,0.46156168,0.46632823,0.54260379,0.31750953,0.21327043,0.70173842,0.38640743,0.07880953,0.70710295,0.28092945,0.01310326,0.83612007,-0.01930294,0.47566438,0.38795379,-0.26843339,0.16259524,0.77116948,-0.51041240,-0.93361807,0.04066564,-0.02037527,0.21467902,0.15206444,0.31495363,1.20834577,-0.20911886,0.08706397,-0.47950235,0.30642268,0.06393245,-0.29105163,-0.15671910,0.26983160,0.37076524,0.82299978,0.11680064,-0.57005620,-0.46440813,-0.61144346,-0.34512460,0.42011121,0.57075000,0.20946886,0.37304881,-0.26841620,0.74545914,0.52796215,-0.24049242,0.00822746,0.59779745,
-0.10546469,0.18736647,0.62326676,0.30008519,-0.01538932,0.57324266,-0.23753898,-0.01829159,1.61303353,0.43225297,0.20390359,-0.44807276,0.06516840,0.04247699,-0.00318618,1.16624928,0.26374659,-0.42615226,0.25588751,0.12838612,-0.01862147,-0.46464694,-0.01528359,-0.41734117,-0.18161191,0.55969661,-0.50767022,0.14980039,0.40093166,0.04216883,0.45487505,-0.25028679,0.34449878,0.62431163,0.38904327,0.20841274,-0.08048416,-0.40209147,0.29183319,0.98976105,-0.09774032,0.62179971,0.36677223,-0.01166700,0.88997197,0.72514051,0.00216227,-0.44086897,-0.36550543,0.54211020,0.48640832,0.14733934,-0.13154224,0.54552436,-0.00044180,-0.13794459,0.20492561,-0.08968662,0.28021097,-0.13096848,-0.37503850,-0.36004114,0.43413413,-0.46192831,
0.26235157,-0.53241938,-0.19727452,-0.12444589,0.13938245,0.33994794,-0.02746620,0.14959417,-0.03804469,0.19981176,-0.57223612,-0.58202803,0.94667840,0.43971202,0.23527186,0.51492548,0.55727029,-0.47475815,-0.00322563,1.00429869,0.03283256,0.22186367,0.04913178,0.21538000,0.10737167,0.62962377,0.02399101,0.57083976,-0.18959115,0.45114180,-0.14680612,0.05910882,0.74480492,0.11609089,0.17114064,-0.82965827,0.25530252,0.22946262,1.12595892,0.11730773,-0.28821307,-0.44228858,0.44220778,-0.02822557,-0.82431269,0.28683445,0.17443907,-0.05138225,-0.00900663,0.63706928,-0.06552134,0.97891688,-0.13776471,0.33614591,0.30354360,0.13215399,0.49315903,0.05440573,-0.44992083,0.37521389,0.19172671,-0.36658692,-0.27917299,-0.02589409,
0.02417278,-0.12082791,0.08895995,-0.00920436,-0.07078086,-0.11396302,-0.02668434,-0.04259814,0.07515020,-0.03485049,-0.11554693,0.01738575,-0.03344057,0.01779538,0.08071657,0.09087723,-0.04860606,0.03823734,0.04373185,0.08425568,-0.08445948,-0.09329011,0.00570190,-0.12473752,0.00614940,-0.13933818,0.00527385,-0.09506184,0.07711268,-0.05653653,0.02002903,0.10606489,-0.07938095,0.04631913,-0.04118551,0.08937905,0.06056879,-0.04764528,-0.11795344,-0.01027759,0.01752836,-0.05660751,0.03699232,0.08557186,0.01221809,0.04416868,-0.04929426,-0.10032234,-0.10859507,-0.02785604,0.03042931,-0.03715119,-0.10465062,-0.02268096,0.03993970,0.02532550,-0.14581664,0.01893639,-0.07210227,0.00250064,-0.12282264,-0.07935435,0.03107469,0.08985005,
0.55758888,0.03828069,0.13591889,0.25966728,0.22327179,1.07002461,0.66067827,0.28801191,-0.45254976,0.56875610,-0.09421211,-0.04923775,0.81535339,0.71023226,0.31762636,0.60094184,0.43857273,-0.42695329,0.09259650,0.74503428,-0.01039530,1.55867481,0.30604830,0.69484216,-0.33856225,1.11672914,0.06052110,0.77820450,-0.40528148,0.50543612,1.55661607,-0.67011803,1.64032078,0.94899446,0.47375891,-1.12924755,0.71832943,-0.15880987,1.27653182,0.57947570,0.19615713,0.24992265,0.38819954,-0.07001212,-0.00439682,0.34442288,0.26644993,0.38380629,-0.28763282,0.24297772,-0.48834512,0.88645822,-0.16258146,0.40997869,0.50004160,0.20656131,0.68605584,0.03520270,-0.12238028,1.02033579,-0.39284411,-0.40993953,0.00248624,0.46619758,
-0.38836896,-0.22160362,-0.34004721,0.17718573,0.77296507,0.28349724,0.04954666,0.18351370,0.24522132,0.18766612,-0.17148113,0.25937915,0.15517901,0.02579051,-0.11813358,-0.25677058,0.32666451,0.53158045,0.49091846,0.67475134,0.06978360,-0.01019099,0.14474060,-0.09496868,0.27063403,0.38789624,0.36453760,-0.40236226,-0.02553412,0.02203401,0.07289549,0.17071927,1.02659738,-0.26713890,0.41741678,-0.26525420,0.15641685,0.16715795,-0.59720433,0.11567684,0.07552660,-0.19360159,0.00324290,-0.02176359,-0.72313094,0.55083990,0.30218190,0.03728733,0.10640343,0.39630869,0.02786678,0.36991826,0.08425926,-0.09776728,0.58027363,-0.33971342,0.14671612,0.42652863,-0.08814303,-0.18067528,0.00391877,-0.33021072,0.09124874,0.03722869,
0.05825312,-0.47893098,0.14416663,0.24267744,0.21875328,0.24108829,-0.56511968,0.06344558,0.10341333,1.10009778,0.06293719,-0.30329555,0.83091903,0.04055973,0.12241122,0.73497671,0.28836942,-0.09382045,-0.01508737,0.76093912,-0.07296768,0.25500864,0.46373552,0.04159606,0.45739177,-0.16940029,0.27788216,0.13821004,0.12952510,0.42095461,-1.08690369,-0.28229022,0.60235292,0.55650365,0.18150693,-0.52130687,-0.10287128,0.21832611,0.24169636,0.41587651,-0.05233371,-0.05345819,0.07606482,0.06535320,-0.25582895,0.58187109,0.29303724,-0.09468731,0.19886288,0.53105390,0.41633308,0.88385874,0.02917320,0.40708986,0.19495995,-0.09953617,-0.14939797,-0.33564886,-0.35029522,0.54363292,0.29709724,0.42999262,-0.25958940,-0.36138248,
-0.12443941,0.02103534,-0.06696688,-0.00763819,-0.01112144,0.09491882,-0.07442053,-0.00917546,-0.04639481,-0.02487941,0.05192120,-0.09676716,-0.04682386,-0.00416044,-0.07234307,-0.05718992,-0.10399721,0.01143607,-0.05612880,-0.07069173,0.05777416,-0.06880407,0.09826671,-0.06638389,-0.08023662,-0.11111739,0.03434422,0.08206690,0.02496702,-0.05002135,-0.11606390,-0.10963431,0.05866371,0.09364304,0.09394833,0.05327306,-0.07971144,0.04529177,0.00111159,0.07187587,0.07698184,-0.05569558,0.03518200,-0.11607371,-0.04633227,-0.02736114,-0.11309884,-0.01898803,-0.05711048,-0.07313658,0.06239605,-0.02685665,0.09679125,-0.06975166,-0.03401054,-0.09242152,-0.01195788,0.08127594,-0.05013561,0.10999436,-0.11398964,0.04521316,-0.06602232,-0.09971054,
-0.42371792,0.59815431,-0.40742743,-0.54502410,0.69955826,-0.96964031,0.43716681,0.20124586,0.59227693,-4.52992821,-0.53185594,-1.08483315,0.10124219,-0.09304948,-1.07388043,-0.97468168,-0.17499581,0.93157423,0.30001304,0.65182179,0.07938218,-0.05830605,0.50915796,-0.23861007,-0.64156759,0.11827941,-0.10825274,0.13434061,0.08173898,-0.07455932,0.98179144,-4.86910248,0.65763730,1.09446645,-0.15956378,-0.31470513,0.07564744,-0.01113323,-0.03324676,0.00157617,-0.05192812,0.24901372,-0.00704829,0.08350801,0.50252283,-3.56383133,0.13728429,0.11021789,-0.32210979,-0.16239169,-0.56082183,-1.45847046,-0.23494734,-0.28866953,-0.10309377,0.36235213,-0.15457496,1.35553944,0.45289603,-0.22591422,-0.40631983,-0.56076252,0.45933524,0.24377568,
-0.11931466,0.02397011,-0.01435398,0.05030589,-0.06522350,-0.03121464,-0.00361961,-0.08888011,-0.07440090,0.02389698,-0.07869949,0.06849370,-0.07281786,0.05378125,-0.00472730,-0.10179132,0.05468083,0.03238274,0.07023843,-0.08558530,-0.01887366,-0.06088378,0.00342557,0.04987431,-0.07448725,-0.00057518,-0.09385502,-0.09578940,0.05143598,-0.01939895,0.07681793,0.03528731,-0.05041485,-0.03106199,-0.05448901,-0.01044966,-0.10551417,0.00298164,0.05103856,0.00810471,0.08499048,0.03011182,-0.04339284,0.02024470,-0.03023761,-0.03958870,-0.01383331,-0.00194180,0.11500186,0.11402439,0.09530772,-0.00646250,-0.02033736,0.05440712,-0.11012881,0.01337761,-0.10091588,-0.06675033,-0.02357796,-0.06359118,-0.10709272,-0.07100377,0.06221208,-0.01913202,
0.08651371,1.30444527,-0.53304398,-0.56068820,-0.12862706,-0.37379566,0.30691940,-0.02765007,0.03875002,0.28781977,0.28407922,0.01425158,0.10977066,-0.09791803,-0.32572213,0.19440301,-0.59935445,-0.77352989,0.29259890,-0.34971198,-0.04078861,0.22424398,-0.22743939,0.17866361,-0.46174422,-0.25304553,-0.23158112,0.41155568,-0.59336120,-0.30426139,-0.27195743,-0.36488307,1.48342907,1.04481864,0.27078754,0.00845329,-0.20663367,-0.64254516,0.03762047,0.86056668,-0.34158894,1.04806769,-0.14015743,-0.02972341,0.78721774,-0.90020746,0.62216103,-0.37654835,-0.58162576,-0.05310482,0.02202509,-0.03451208,0.00126315,-0.42041335,-0.40706691,0.28792480,-0.08470240,-0.45695561,1.10421669,0.25639495,-0.38670784,0.30569983,0.76487368,-0.08483779,
0.47418395,0.38528964,-1.74178112,0.20478882,-0.00237255,-0.88839722,0.07685854,0.07890397,-0.08282081,-0.39741513,-0.32933199,-0.06721982,1.00424588,0.35482648,-0.86248612,-0.22719660,0.26728454,-0.47517458,0.04881066,-0.99557173,-0.05747794,0.73873562,0.34827006,-0.64359933,0.18015400,-1.04050148,0.34767494,0.20485552,0.58305687,-0.14354692,1.91288614,-0.66463816,-3.76960325,2.09704995,0.05634215,-0.03366750,0.05931102,0.28816670,0.29561016,-0.27960488,-0.20718503,-0.30980772,0.11213563,-0.11918548,-3.35889387,-0.90065032,0.39247990,0.08468915,0.17236923,0.75478733,-1.48558819,-1.80811036,-0.12524851,0.17513452,0.39106679,0.06132029,0.02296725,0.40076414,-0.18087310,-1.22608924,0.12867473,-0.09614035,0.07653712,0.07771402,
-0.25686932,-0.16245036,1.36963117,-0.47251821,-0.18538292,0.06866772,-0.12291476,0.38857707,-0.12421550,-0.47717324,0.01812785,0.65449524,-0.38003954,-0.24702896,-0.42268991,-0.17475998,0.07343385,-0.52697611,0.59255582,-0.37112904,-0.07151593,0.14764576,0.06696667,-0.42137453,-0.12083398,-0.21538354,-0.37735549,0.14408718,1.12134814,0.23678504,0.19790725,-0.51460862,0.69659138,0.53530622,-0.04462570,-0.51153713,-0.29544976,0.15067452,0.46053088,-0.00555166,0.15186673,0.44159570,-0.39749828,0.04878742,-0.23084547,-0.35130909,-0.76658845,0.19256170,0.13484980,-1.13089097,-0.12851584,-1.92004144,-0.38402897,-0.38973343,-0.30178821,0.65902483,-0.06500987,0.71416640,0.24305420,-1.23296785,0.06511270,-0.63061988,0.12946743,0.64907652,
-0.05948339,-0.43614382,-0.29409218,-0.65997833,-0.24918914,-1.03942633,0.25444674,0.40766659,0.14641713,-0.33351356,0.28772694,0.41120559,-0.01826988,-0.29441673,0.73516262,0.56010216,-0.00098872,-0.88185334,0.51792181,-0.46021673,-0.10530676,0.25495064,0.14436364,-0.28964260,0.14569080,-0.37883055,-0.16550614,0.28518826,0.26613766,-0.19588427,0.96364576,-0.89707875,0.12835814,0.53389537,0.51619166,-0.17346473,-0.18796164,-0.01562307,0.07265329,0.22218056,0.28285140,0.03200098,-0.31586200,0.10949863,0.23216330,-0.75828081,0.53896320,0.18604936,0.37101480,-0.31184933,0.72887003,-0.15516426,-0.73322290,-0.23308775,-0.37124318,0.79672402,-0.10807089,-0.69157046,0.53441048,0.95428145,0.14287476,0.28828534,0.18488552,0.18169467,
0.26250133,0.73404932,-0.07270635,0.04646460,0.42679581,0.50250643,-0.60743892,0.41622454,-0.84013158,0.40224007,0.19121386,0.25750595,0.66816878,-0.16876020,0.79058790,-0.37134501,0.58211309,0.16817291,0.74482006,0.63259095,-0.10303064,-0.92722774,0.94897491,-0.32707667,0.75378114,-0.79179925,0.33340183,-0.28945142,0.97263980,0.42025378,-1.15752029,0.40982240,-1.12989461,-0.96631491,0.84965843,0.74470598,-0.05543114,0.91172230,-0.09165606,-0.93010145,0.51069933,-0.51770741,-0.08846428,0.11772640,-2.19096661,0.31996289,-0.06733210,0.33235556,0.91892070,0.05338482,0.61465007,-0.06979717,0.45784312,0.95894635,0.30522910,0.41713592,0.04269339,0.48133379,1.07964611,0.55023468,0.83211386,0.23611507,0.93285722,0.51110077,
0.42450485,-0.32902232,0.69240212,-0.47482833,-0.15467915,0.61603820,-0.25448522,0.01246262,-0.03921568,0.99359161,-0.07812829,-0.89793295,0.01283208,-0.17650156,0.44647986,-0.19600500,0.46822456,0.57556099,-0.43519327,1.03992379,-0.04807742,-1.98890853,0.27164835,-0.06553972,-0.10009048,0.66835296,-0.35044354,-0.16170901,0.54695898,0.09861870,-0.00152203,0.91809863,0.63064390,-0.33469191,0.35920462,1.27498102,-0.47261962,0.30409172,-0.28005779,-0.33642134,-0.29153249,0.05465115,-0.75008595,0.09375413,-0.53011471,0.12846743,-0.12696333,0.00011556,0.10617749,-0.57136017,-0.43886364,-0.10035998,0.10696395,1.08882415,-0.33657467,0.15961857,0.21185698,0.45818409,-0.45696425,0.72330701,0.14714126,0.16176175,0.04176883,0.12035989,
0.10907389,0.53764063,-0.49770147,0.70755762,0.35873467,0.53808904,-0.38837978,0.25610355,0.06208808,0.03296584,0.37583315,0.92107987,0.14641751,0.36671075,0.65882748,-0.05350930,-0.01082445,0.74378705,0.11340991,-1.19026804,-0.03300063,1.17378783,-0.17696732,0.37117362,0.45901591,0.66532362,0.06649774,0.46060246,-0.56498969,0.42140663,0.20141628,0.01346405,-3.87982011,-0.89624071,-0.01177997,-0.20666976,0.45775464,-0.11383182,0.23289813,0.00655806,0.48898473,0.47178334,0.49919024,-0.11939271,-0.71591729,0.57768047,0.00409010,0.44835305,0.28285789,0.09093846,-0.61422354,-1.48498058,-0.26465404,-0.14620928,0.27383798,-0.22133869,0.38310614,0.37792796,-0.20879433,1.32398617,0.20289636,0.32558826,0.16246301,0.49569640,
0.21626477,0.50628227,0.46862018,0.15565136,0.56277823,0.48252225,-0.79154432,0.22053781,-0.99282664,0.75485438,0.27986863,-0.09583350,0.59939921,0.09130494,0.69709957,0.20215370,0.56045330,0.24390882,0.07354654,0.65435791,0.01781568,-1.01400709,0.49326223,-0.37110847,0.68961734,-0.36912331,0.38681406,-0.49302194,0.75029343,0.17027581,-0.44195831,0.18824780,-0.20129941,-0.90451813,0.50650358,0.90874273,-0.45384961,0.58089250,-0.23151787,-0.75722158,0.06542736,-0.55937636,-0.14470820,-0.07328661,-1.72053266,0.62546486,0.01408590,0.31179419,0.76488930,0.09485696,1.09252036,0.27171218,0.79122138,1.49890137,0.13929284,0.41635180,-0.03747755,0.03046046,0.52240741,0.41884521,0.86044145,0.28248125,0.72851020,0.20340469,
-0.01220446,0.30635726,0.33515912,0.38510123,-0.55752659,0.80507243,-0.57749283,-0.29034188,0.39164668,0.63502055,0.17897570,0.59904385,0.03558248,-0.14759974,-0.03150068,0.70210308,0.01060853,0.06933278,-0.37153670,-0.07463653,0.06430577,-0.32387975,0.04644972,0.12741123,-0.47177875,0.84598380,-0.47661838,0.38826019,0.02987915,0.15772353,-0.73697639,-0.22371633,0.66071868,0.62199175,-0.42615083,-0.38888174,-0.05925325,-0.16544122,0.58649176,0.40051937,-0.09845067,0.08921702,0.60952628,-0.04048902,0.06172065,0.04703371,-0.17029236,-0.15323752,-0.15402025,-0.22688273,0.47901291,0.24105734,-0.24269618,-0.41952184,-0.18704467,0.02338922,-0.03056079,0.62893403,0.07756153,-0.12274607,-0.05684964,0.35980880,0.21559806,-0.67252809,
0.05457710,-0.45640701,-0.66286653,0.32972595,0.58868974,0.02882378,0.00948517,0.28822914,-0.28659523,-0.11292389,-0.21483190,0.63902313,-0.74511755,0.38000268,-0.23336954,0.46657974,-0.33643746,0.59668720,0.02719110,-0.44910681,-0.06793919,0.40539062,-0.25981066,-0.30433205,0.40810597,-0.04398198,0.08943103,0.28453809,0.08072618,-0.22415245,0.47530073,-0.14478868,-0.17576121,-0.28792068,-0.20413330,1.39012194,0.30752012,-0.05045046,0.04071322,0.18334459,0.02757559,0.10644375,-0.06481864,-0.10842244,0.06898772,0.34748712,-0.29940170,-0.19371960,0.59879845,0.28768751,-0.63599855,0.13068965,-0.37391263,-1.16344094,0.13383311,0.09972037,0.11198433,-0.27767599,-0.44727781,-0.10611036,0.26353341,-1.09765899,-0.33890674,0.03924728,
0.08149828,-0.70655322,0.41954643,-0.36740121,-0.27620071,-0.54628366,0.35726398,0.41719350,-0.13760166,-0.55490476,-0.62928492,0.29381236,0.16129328,0.13128331,-0.21829690,0.35930502,-0.11542850,-0.91496778,-0.34452942,0.09260409,0.01494856,0.29458782,-0.20860672,-0.07782684,0.26277301,0.12635201,0.16667160,0.09246107,0.51928693,0.37824115,-0.32586390,-1.14647257,-1.69491911,2.05706692,0.20524997,0.09629484,0.23336436,0.46123588,0.32862660,-0.02775134,-0.23564105,-0.17652789,-0.48110422,0.00734305,0.69702411,-0.49827224,0.34904554,-0.19834411,-0.01115847,0.14518833,-0.14291322,0.28002703,-0.34208667,0.25369620,0.18283665,0.14587033,-0.09136990,-2.57023454,-0.06489597,1.86463499,0.37886924,0.40507719,-0.09714267,0.23654115,
-0.17179990,-0.03868342,0.11301443,0.15002410,-0.12743901,0.81162721,0.24140461,0.20070164,-0.21240982,0.30366439,0.31944296,0.87570971,-0.56204534,-0.11660078,0.26368746,-0.12730941,0.11079532,0.16813409,0.27023914,-0.61910582,-0.02851808,0.29808098,-0.58545011,0.15057760,-0.04373371,-0.44689563,-0.02634302,0.15015799,0.23235615,0.09782736,0.36073837,-0.58126372,-4.80969572,0.54856330,-0.40971485,-0.20413476,0.22383986,0.13735546,0.01895398,0.52310103,0.29330334,0.38659683,0.22024624,0.02853885,-1.59134352,0.64372277,-0.52943707,0.06976035,-0.02926648,-0.57151252,1.01672745,-0.10605969,-0.24101447,0.09462693,0.12668096,-0.06537933,0.34135357,-0.17751542,0.38214245,-1.13975668,-0.21941653,-0.01090651,0.41614905,0.20507532,
-0.27452943,-0.31392238,-1.10460830,0.06859236,-0.16020024,-0.31764463,0.23353648,0.14210929,0.16408387,-0.66641754,-0.24634726,-3.05466175,0.51143664,0.22136967,-0.34188506,0.24890968,-0.71016711,-0.13812900,0.71842974,-1.51350474,0.04623246,0.50313789,0.56791419,-0.35415289,-0.10411239,0.26150185,0.07450879,0.43882194,0.03660280,-0.10110649,1.76575840,0.09518435,-1.41516757,-0.40630293,-0.43468893,0.50976151,0.16493110,-0.35688886,0.64914101,0.61895585,0.18326569,0.00510683,0.61365485,0.06110324,-1.22113132,-1.01058781,0.29875889,0.10139787,0.21353073,0.36320326,1.87310266,-1.90292549,-0.18490690,-0.65355462,0.07542656,0.29233387,-0.13493085,-4.19416285,0.25190723,0.95860183,-0.16503409,-0.71542937,-0.30911642,-0.72660881,
-0.18185771,-0.82879591,-0.13475439,-0.07672139,0.40881664,0.44509733,-0.07931129,0.56350946,1.12273932,-0.18970147,-0.54797363,0.25258380,0.08823787,0.11824858,0.50991166,0.39282486,0.39162302,-0.42104253,0.32921901,0.17456271,-0.06125169,0.37776357,-0.06931631,-0.49536061,0.41169479,-0.10534962,0.07192384,-0.02542198,-0.26099351,0.30054581,0.63084650,-0.87528211,-0.39786717,0.01844963,0.31382430,0.17254256,0.22041136,0.60154271,0.59125698,-0.02188149,0.51083940,-0.11749191,-0.14984323,-0.06461859,-1.12517989,0.63146800,-0.38635519,0.05926370,0.61884207,0.03109073,0.13703987,-0.18913507,-0.59579694,0.42378426,0.42103639,0.25857487,0.28617913,0.25313228,-0.71993548,0.54065222,0.03841880,-0.66020882,-0.33704951,0.20111747,
0.05390638,-0.23908891,-0.36573997,0.36632293,0.67779362,0.32512590,-0.03320530,0.16321003,0.37754562,0.84792393,-0.48914170,0.22287354,0.66585827,0.23557536,-0.20518520,0.15060262,0.43151265,-0.46091601,0.32770577,0.89587623,0.10374299,0.42332014,0.42034453,-0.13443007,0.34111947,0.37629786,0.64980578,-0.16899733,0.23762636,0.27325815,-0.53186661,-0.34600878,0.58707225,0.83588600,0.31420144,-0.56214809,0.28436279,0.44657770,-0.35337096,0.28428662,0.14655733,-0.08076563,-0.05388205,-0.04487325,-0.58463788,0.75332844,0.35492817,0.08946255,0.12880094,0.65204906,0.08850308,0.70724976,0.12661946,0.18750934,0.66039431,-0.31499201,0.12824251,-0.13577920,-0.42734396,-0.46195915,0.33817413,0.01972234,-0.14344321,-0.19515166,
0.29694873,-0.10084882,1.17334509,-0.47560415,-0.51078534,-0.53340524,0.45839474,0.41456962,0.07471129,-0.20067325,0.23850328,-0.49809772,-0.31407419,-0.26527312,-1.48473489,0.06883874,0.17277230,-0.71509755,0.14012031,-0.56758273,0.02753884,0.49935114,-0.06279497,0.13519624,0.11706281,0.12933241,-0.16972394,0.36193269,0.34518701,0.39827260,0.08052876,-0.22865203,-1.80505550,0.52593940,0.17884670,-0.37290710,-0.06050415,0.34344366,0.36335647,0.59880835,0.43853807,1.07641852,-0.30459929,0.11189057,0.29003322,-0.77870560,0.12094747,0.06627332,-0.30468240,-0.40785730,0.73531771,-0.50033957,-0.18290402,-0.62280333,-0.34707630,0.63585049,0.04998054,-0.36640060,0.57439709,0.70189166,0.11394238,-0.27619711,0.30599821,0.25362048,
-0.10123786,-0.02521714,0.00194908,0.09626195,-0.00594954,-0.12994222,-0.04609898,-0.06079362,0.01411203,0.05404747,-0.10795134,0.05337749,-0.06177018,-0.05302360,0.10660483,-0.00022893,0.08247691,-0.03547566,-0.04418158,-0.06121188,0.02400523,0.03263943,-0.08544374,0.03640350,0.06078305,-0.10489556,-0.07728158,-0.07554378,0.04570363,0.09002673,-0.04736008,0.09107494,0.08611171,-0.08312890,0.02165321,-0.10066449,-0.09642787,0.07802764,-0.09414368,0.01008854,-0.00867246,0.10868464,-0.09763747,0.10541373,0.00697163,-0.02338971,-0.04803761,-0.10948299,-0.01389192,0.06349730,0.04904601,0.04447296,-0.00380037,-0.06290369,0.00691661,-0.10843262,0.01555626,0.01007458,-0.10509363,-0.05008685,-0.13332279,-0.04370492,0.10610662,-0.09701931,
-0.54492068,-0.40775886,-1.21425068,0.04508910,0.76530528,0.04603085,-0.86158937,0.16294485,-0.32475135,-1.17202187,-1.63359380,0.48553067,0.70523864,-0.25475204,-1.85194170,-0.14742927,-0.53589469,-0.65837842,-0.05771099,-2.46375012,0.08443633,0.49432808,0.73019153,-2.18875098,0.24757229,-0.36827591,0.19375791,0.09454229,0.38554510,0.06868677,-0.24665320,-0.82347727,-2.87142944,-0.08968730,-0.06401584,-0.03799500,-0.29792133,0.37787172,-0.28762332,-1.71137810,-0.05868926,-0.78343391,-0.05429321,0.00560078,-3.30801868,-0.64827579,-0.72564232,-0.11159021,0.51094502,0.46445593,-1.57679379,-2.34739804,-2.05575538,0.45084625,0.18546066,-0.31242052,-0.85114515,-0.23716043,-0.16657326,0.27898842,0.43145853,-2.08413053,-0.11455287,-0.20069212,
0.58172631,0.00285004,0.35579342,0.28369677,-0.17690091,-0.34480506,-0.06665166,-0.26658669,-0.80448902,0.25720924,0.38277122,-0.35202605,0.17276508,0.42543760,0.03904656,-0.28221455,0.06904526,-0.12326870,-0.44597155,0.33102345,0.12153497,0.45976114,-0.19465668,0.38744798,0.52488118,-0.91425288,0.50907832,-0.27954638,-0.05332005,-0.02300141,-1.81045330,-0.66137689,0.35870597,-0.09619947,-0.33802515,0.36841276,-0.10755660,0.25110286,-0.03074167,-0.23975110,0.01579468,0.54181582,-0.41139695,-0.06673779,-0.18182853,0.28763917,0.44021818,0.23038115,0.14461361,0.07188886,0.81012082,0.61658651,0.61283487,-0.09152707,-0.16228113,0.10115773,0.06140973,-0.68307579,-0.14292660,-0.00808890,0.67559123,0.71708322,-0.29741165,0.25230238,
-0.00107103,-0.30865431,1.12826300,-0.28093261,-0.68114448,0.02029176,0.13533081,0.02012210,0.01848525,0.05758706,0.41216990,0.86045092,0.01861221,-0.16313156,1.34783137,0.43160909,0.29750565,0.37744775,-0.12438679,-0.30185115,-0.05237673,-0.71013713,-0.82190394,0.64632785,0.19326617,-0.27862713,-0.28463152,-0.10718232,0.13603671,0.21871704,0.38166955,0.12933034,-0.03522865,0.70146990,0.28218567,0.48201188,-0.07366148,-0.08090233,0.00157153,0.19351903,-0.11887905,0.37548035,-0.12618777,-0.01050209,0.34100521,0.59215808,-0.04256890,-0.01582239,-0.15956368,-0.08626866,0.04556514,0.78829062,0.11466721,0.68792421,-0.37709269,-0.18571174,0.40373123,-0.41138762,0.13618504,-0.53960538,-0.08069842,0.37287790,0.05004157,0.49697751,
0.16896571,0.73833144,0.36632094,0.26823026,-0.26143298,-0.26935604,0.84015203,0.09767018,0.76786828,-0.31317332,0.59129763,0.42237687,-0.48568535,-0.11716130,0.36394390,-0.02114522,-0.33203658,-0.01851111,0.32242808,-0.12232850,0.01953457,0.10789271,-0.23461232,0.55226290,-0.47385103,-0.23560263,-0.17511019,0.21889551,0.08179251,0.04158091,0.38006765,0.26123494,0.39410767,0.42440078,0.09063487,-0.04512148,0.37024897,-0.40074742,-0.43614459,0.60466033,-0.11376078,1.06221175,0.11068901,0.10851379,0.99711484,-0.38893688,0.22740303,0.11097357,-0.65410310,-0.07035770,0.25557414,0.13931361,0.45095849,-0.48802742,-0.05648080,-0.12485217,0.43238428,-0.08060039,0.80308098,0.02125620,-0.34214857,0.22404802,0.50305539,0.37634569,
-0.30895603,-0.23764239,-0.05127500,0.05308184,-1.31213570,-0.12534845,-0.06974290,0.09489901,-0.03854807,-0.77457476,-0.79633749,0.56355155,0.30484024,0.10134200,-0.59796268,-0.38178331,0.32181549,-0.17674144,0.09551266,0.44701251,0.02072762,0.16293152,-0.73773259,0.10767135,0.40551692,0.66222751,0.25759792,-0.38394654,-0.03171124,0.13631018,0.15946187,1.40762591,-2.27166438,0.21949224,-0.33521852,0.33807412,0.15178375,0.34530380,-0.77573085,-0.06532191,0.06138964,-1.71559107,-0.08483174,0.06801796,-0.78639060,-0.42427129,-0.59988064,-0.17775153,0.11539722,0.24598531,0.25491610,-0.80910450,0.46134943,0.52793968,0.49068731,-0.12155578,-0.10662659,0.00493978,-0.36869323,1.69477713,0.24049909,0.05453854,-0.15819617,-0.46052051,
0.11875971,-0.17083505,-0.27857763,-0.80425590,-0.06131488,-1.46398330,0.06578200,0.29202303,0.33206698,-1.36366153,-0.23025753,-1.82154357,-0.03019658,-0.17857641,-0.93454432,-0.23732056,0.47456342,-0.64795142,-0.00857272,-0.16914797,-0.09148601,-0.00370902,0.45254230,-0.52191550,0.19235598,-1.64697385,0.06501505,-0.36394075,0.18690278,0.42410332,1.10972345,-0.62214184,-3.73561692,1.14286983,0.37389204,0.29247406,-0.12417971,0.38335010,0.14587629,-0.46574587,0.28124800,0.20714071,-0.70998263,0.12344895,-0.11088385,-1.76718736,0.25468823,-0.00224817,-0.11353734,-0.36457306,-0.66582817,-4.32370853,-0.10229579,0.22167973,0.02861219,0.07210339,0.02585861,0.13551247,0.28402042,-1.04321492,0.25255701,0.11029178,0.26668942,0.12613690,
0.07297364,0.81422406,0.48476121,0.18328819,-0.01105772,0.38225889,0.20783226,-0.00881661,0.38502011,0.18003155,0.23077136,-0.08474725,-0.09310668,0.01772636,-0.53264219,-0.45791379,0.21318610,-0.00792926,0.37314686,0.45489642,0.05347055,-0.25383130,0.09766023,0.08424824,-0.86304837,0.27614570,-0.33837610,-0.13376075,0.21109781,-0.10962428,0.90677106,0.06293655,0.49360579,0.10700498,0.33062151,0.81362903,0.10956487,-0.52100843,-0.29774672,0.37812257,0.16839518,0.21968743,0.15477483,-0.07658032,-0.03090062,0.15142019,0.14727946,0.09436231,-0.41350839,0.06226152,1.14488590,-0.32474279,0.38448539,-0.09984075,0.19307727,0.11144341,0.27400699,0.14536418,0.40344316,-0.98578519,-0.66072172,-0.30561480,0.42773020,-0.35013440,
-0.01374154,-0.52682358,-0.30321598,0.17457066,0.60904241,-0.08777861,0.02741330,0.45751634,0.29064012,0.56117725,-0.21544620,-0.36036867,0.59226370,-0.02368418,-0.15150268,-0.04993870,-0.34558329,0.30971056,0.18011071,0.31096372,-0.03082827,0.73678207,0.66251338,0.22070222,0.30361214,-0.15138045,0.52750885,0.64099014,0.08125685,0.78345782,0.27411357,0.65029281,-0.25260466,-0.63656622,-0.16242526,-0.81854975,0.05722320,0.27214906,-0.23557550,0.07436756,0.36989000,0.42307526,0.39128670,-0.01773034,-0.32510915,-0.14760743,-0.07053733,0.35019109,0.30605355,0.01704987,0.13392018,-0.81240362,-0.69770283,-1.00748539,0.22104657,0.07620565,-0.22216094,-0.29028711,-0.29244387,0.12551627,0.47335175,0.34341219,-0.76670289,-0.05446632,
0.08202136,-0.10553867,0.06010019,-0.11859270,-0.10642684,0.08365460,0.01094908,0.07052159,0.05109582,0.05350668,0.06552326,0.00229525,-0.09585274,-0.10824654,0.05584862,0.04728603,-0.09575386,0.03211245,-0.11403517,-0.07722922,-0.07831405,-0.08231669,0.01726325,-0.06461005,-0.06010096,-0.13974075,-0.15512285,-0.02478185,0.07683968,-0.00695708,-0.13206255,-0.10261827,0.03907317,-0.07886111,-0.09110775,-0.10218847,0.04331351,-0.08793859,-0.07784532,-0.05640829,0.09474884,-0.01002833,-0.01571636,-0.00076075,-0.11640881,0.05771172,0.06149255,-0.03898667,-0.12235527,0.10974604,-0.00567171,-0.10490286,-0.03317260,-0.03677493,-0.00148611,-0.10674443,-0.09895936,-0.05094836,0.05543246,-0.01322825,-0.05422125,-0.01743514,-0.06497411,-0.13805954,
-0.04913601,-0.10432462,-0.76325011,-0.06215332,0.09872622,-2.35979986,0.47418502,0.14774063,-0.39360586,-1.70977664,0.06421111,0.29147136,-0.80341738,-0.41177177,-3.87849927,-1.74040663,-0.61977732,0.36997706,0.37701395,-1.59572434,0.07358423,-0.24314520,0.71221197,-1.04182804,0.33207071,-3.52856231,0.34508863,-0.18857260,0.73988879,0.41128737,-1.39908934,0.18240899,-2.79285288,-0.13897413,-0.90633440,0.33687443,-0.01487212,0.43650419,-1.77954173,-0.25269699,0.09138220,0.47569355,-0.02359407,-0.10539524,-0.54499447,-2.62180901,0.29652715,0.20667498,0.30121428,-0.71373540,0.50659794,-4.41484690,0.15210678,-2.66258407,0.04239971,0.31876260,-1.85743117,-0.26805162,0.50290632,-1.10099065,0.55432689,0.52420557,0.11859860,0.07201367,
0.05426845,1.13397181,0.72422892,-0.50833315,-0.74699694,-0.60061872,0.12605150,-0.08497990,0.43364164,-0.42876932,-0.94814765,-2.45988798,-0.40718564,-0.16796760,-2.58373189,1.07459164,-1.95039022,-0.23606533,0.03527035,-0.28250182,0.04669593,0.44482455,-0.81229311,-0.01442448,-1.33519852,0.41957891,-0.59476882,0.63132048,-0.35817394,-0.17665723,1.79371822,-1.31828737,0.96958345,0.61106390,-0.75975245,-0.27342334,-0.14054024,-0.98467946,0.43156978,0.79433191,-0.67316240,1.20365167,0.05509030,-0.05850905,2.04856110,-1.44083238,-0.10870522,-0.36830559,-1.47099197,0.00668315,-0.94443369,-0.00144468,-0.16860604,-0.68340468,-0.36532390,0.56767768,-0.09180803,-0.23824607,0.82230163,-0.79509443,-0.85176265,-1.33809471,0.90791297,-0.81713194,
-0.32982564,0.09027801,-0.56770182,-0.74372518,-0.50407594,-1.68994749,-0.10921068,0.66151017,0.96046394,-2.95601535,-0.77782524,0.10760868,0.93055958,-0.08232124,-4.13862896,0.08235777,-0.65948850,-1.37770057,0.53100520,-2.34392500,0.09750581,0.82850844,0.55772161,-1.24107826,0.07319168,-2.93588281,0.26003245,0.45079637,0.21848722,0.15356313,-1.73880208,-0.39828822,-4.21017170,-1.18109083,0.58972216,0.05745031,-0.14486386,0.21430378,-1.31788027,-0.32822511,0.82016969,0.06715009,-0.44303295,0.03691198,-1.01127088,-1.30945230,-0.05160336,0.26518005,0.41268665,0.79812682,0.27012488,-3.05801940,-1.18870509,0.61037749,-0.03092054,0.18384854,-0.61337793,-1.42027462,0.35139242,-1.92750216,0.28258041,-0.23919721,0.26605740,0.32877836,
-0.04330374,-0.16487452,-0.08186589,0.13351798,-0.96871275,-2.10545969,0.33104300,0.09047839,-0.03372611,-1.12320590,0.42237347,0.09085577,-1.34714878,-0.36396226,-2.55463433,-1.88817477,-0.31854245,0.29988715,0.41707265,-2.10659266,-0.04297499,-0.92832309,0.41943389,-0.93533564,0.24385630,-2.46061349,0.10335311,-0.22749589,0.71777320,0.38359913,0.55163038,0.09231275,-2.54290986,0.76955903,-0.23148400,0.44323489,0.16083124,0.33661845,-0.73950166,0.89723009,-0.02531908,0.50811505,0.22530125,0.11472552,-0.10467657,-1.44382536,0.21970810,-0.01151772,0.02605650,-0.62293446,0.32013017,-3.41825008,0.11628219,-3.44300294,0.18153776,0.45487309,-0.87852687,-1.62464786,0.48216161,-0.34714437,0.37392592,0.11722046,0.21137691,0.07549503,
-0.21944453,-0.46517578,0.68084681,-0.45768854,-0.10840344,0.16070931,-0.20930836,0.59574610,1.47388887,-0.28820127,0.01079870,1.05493915,0.15243571,0.08781020,1.08595514,0.24470635,0.94211274,0.13311820,0.36252186,0.26213971,0.01390819,-0.58373177,-0.28763908,-0.17027000,0.39095125,-0.01924123,-0.32951882,-0.13476771,-0.26011932,0.09785210,0.93471873,0.21969528,-0.40299833,-0.27800351,0.51028019,0.95039964,-0.07699069,0.33996570,0.31837374,-0.05563615,0.22858062,-0.55689216,-0.23450346,-0.11114100,0.02891358,0.32625839,-0.24712257,0.16828042,0.58983380,-0.11978488,-0.11171820,0.14361097,-0.37839702,0.36811784,0.17180412,-0.26577371,0.68578005,0.34696838,-0.12821376,0.14615175,-0.09451142,-0.46599504,0.20537280,0.37619174,
0.30083847,0.71097231,0.78323221,0.25508142,0.03016581,0.16099849,0.71618479,0.21500249,-0.24892969,-0.06387380,-0.40114152,-0.85084581,-0.74123400,-0.00481091,-0.61458308,-0.39775378,-0.08565776,-0.35621062,0.03855451,0.30805293,-0.10887679,-0.11916370,-0.26525924,0.30715501,-0.43159059,-1.69464028,0.25447294,0.12180071,0.34784839,0.09429271,0.26241714,-2.10940123,-0.34795788,-0.63998538,-0.33915719,-0.24976213,0.54828519,-0.00311558,-0.94437844,0.43893474,0.00212113,0.55772889,-0.13144198,0.12317236,0.50664359,-0.30998302,-0.11928589,0.19444516,-0.61266983,-0.14292988,0.50460202,-1.13907444,0.46031877,0.16313979,0.24241917,-0.17126729,0.24947983,0.47709993,0.15281796,1.39194345,-0.04111668,-0.52515352,-0.09649704,-0.31241381,
0.63096005,-0.37484920,0.14341328,0.14960781,-0.37993699,0.31572774,0.00803302,-0.30122581,-1.03902578,0.58566356,-0.35654116,0.20626269,-0.26063144,0.48179987,0.11229661,-0.35130826,0.68023151,0.19693999,-0.51793945,0.51644593,-0.09234434,0.08249447,0.20473838,0.19364138,0.79237026,-0.43298706,0.56479746,-0.47983873,0.04535023,0.07346988,-1.06200635,-0.73275369,0.79222530,-0.28303453,-0.15528826,0.27783561,0.12921353,0.70063144,0.23205884,-0.47576356,0.08774853,-0.33753830,-0.43328753,0.10179719,-0.26747984,0.54588771,0.44044212,0.20463787,0.52509236,0.23059736,0.06032952,0.78929442,0.54419404,0.22043788,0.28685999,0.06502271,0.20930631,-0.54846382,-0.95446634,-0.01603202,0.73104876,-0.06318237,-0.48330137,0.15876007,
0.56609327,0.35348243,0.57363200,0.10967716,-0.17371160,0.91056418,0.34940577,0.07541955,-0.28602207,0.77453160,0.27740163,-0.20898348,-0.43670154,0.85406291,0.38623810,0.84443688,0.37878427,-0.65291518,0.21649459,0.40217236,0.08606632,0.98044348,0.09017442,0.22894235,-0.75031608,1.00627637,-0.60571599,0.49772987,-0.46117839,-0.15138693,0.85713059,-0.49501970,1.37679040,0.36106530,0.39823714,0.15827791,0.33014709,-0.49561572,1.34137046,0.60755187,0.38165718,0.57748687,0.22286122,-0.05250710,1.08943796,0.44318926,0.29256728,0.39551836,-0.43513438,0.14552246,-0.08622755,0.64616919,0.01355076,0.27978709,-0.06367153,0.51326501,0.53917575,0.13610715,0.05136117,0.76418471,-0.49182263,-0.37374821,0.11924157,-0.02567950,
0.44000536,-0.00299905,-0.86313474,0.42129520,0.28983906,-0.53868359,1.10020924,0.42256749,-0.46627221,0.16043325,-0.29222611,0.71015114,0.99186343,0.41995597,0.00927510,0.18521388,0.04660363,-0.23081090,0.43799207,0.47378829,0.00302286,1.52049625,0.34699544,0.45242411,0.46063158,-0.91824108,0.88430953,0.41540125,0.06236387,0.18679562,0.20760477,-0.82354510,0.81563890,1.30798244,0.09354531,-0.65962321,0.89325666,0.43858317,-0.18217818,0.31658086,-0.17462932,0.49250618,0.09621067,0.08722100,-0.34909159,-0.14276563,0.85100061,0.18816949,0.13874571,0.61074817,-0.10131462,0.57971060,0.47119793,-0.70219338,0.71081388,0.35431895,0.26625896,-0.68271673,-0.02437066,-0.59776938,0.24414206,0.11096567,-0.19444381,0.84672034,
0.36647210,-0.18562509,0.02000659,0.37642142,0.45638683,0.09650665,-0.73023188,-0.20997226,-0.27030975,0.25979358,0.28467691,-0.77792406,0.10085617,0.50213534,0.04426801,0.58554173,0.53345954,0.05019860,-0.28159133,0.20544371,0.10790339,0.04483526,0.43749931,0.05052825,0.51515180,-0.01031018,0.20018166,0.25399122,0.00337551,0.01019296,-1.21474969,0.04144162,-0.46116909,-0.64166617,-0.33975467,0.51697397,-0.14326867,0.33946267,1.22332442,-0.29239386,0.28884211,-0.20175648,0.23497404,-0.01217711,-0.12594621,-0.07998230,0.08360967,0.21172407,0.74588835,0.30111164,0.19724184,0.08348008,-0.39166686,-0.34903252,-0.02470480,0.54325110,-0.09772023,0.19736059,-0.12908678,1.13624680,0.74499017,0.44486505,-0.24255124,-0.23979124,
-0.11147885,0.05936675,-0.01479459,-0.06361818,0.00707375,0.10575607,-0.10920715,0.07431649,-0.10861335,0.00073528,-0.05347188,-0.07233772,0.01875423,0.10402286,-0.05945928,-0.03869303,-0.06708629,0.05116065,0.00711299,0.01594248,-0.00672399,-0.02518350,-0.11172862,-0.04397215,-0.11078072,0.04963792,-0.07848432,-0.11510875,0.05214651,-0.00601624,0.06833582,-0.03610075,-0.06761487,0.11218674,0.06161898,0.09053779,0.05267663,0.02710208,-0.09230539,0.07370718,0.01311659,-0.09719798,-0.09311406,-0.04131669,0.06302584,-0.09002693,0.04016991,-0.07579926,-0.11355761,-0.04724376,-0.04705563,-0.04280570,-0.05654460,-0.10499397,-0.02709715,-0.10474093,0.05221172,-0.04298521,-0.06591681,0.11770450,-0.10962531,-0.10412159,-0.10204490,0.08997497,
-0.26576599,0.01757195,0.17233737,0.10162161,-0.35031131,-0.05095857,-0.18737051,0.01761639,0.30723831,0.53208119,0.38534245,-0.81478089,0.11261797,-0.76865393,0.66912389,0.38677824,-0.51628667,0.55157274,0.09601518,-0.18738405,-0.09006451,-1.03473914,0.06897356,0.31760010,0.27316839,-0.97964275,-0.17492576,-0.02988182,-0.37929544,0.23877576,2.07589746,-0.07369423,-0.07955461,0.35437113,0.16670819,0.07618349,-0.17881650,-0.23216146,-0.27024597,0.53091806,-0.29107717,0.02659000,0.07208099,-0.08291933,0.74412453,0.35246047,0.15405536,-0.10303549,-0.34602115,-0.15381829,-0.70610368,0.68367976,-0.08245024,1.36970139,-0.26333511,-0.38978413,-0.34305915,-0.60038799,0.54636735,0.90696448,0.04203142,0.55086905,0.17377312,0.11792152,
0.06674481,0.20555447,0.53976357,0.00280724,0.08324194,0.22574684,-0.28753966,-0.06606561,-0.50430280,-0.14737093,0.48013443,-0.17564434,0.20825687,-0.33121043,0.49670833,-0.29534176,-0.19217612,0.24730814,-0.38230032,-0.20538096,-0.05139174,-0.02911682,0.54571611,1.10412526,-0.17906550,0.24509479,-0.19461529,0.32213247,0.10926068,0.88142616,0.12513657,0.85295379,0.26762965,-0.17318872,0.00511360,-0.45749661,-0.48682201,0.03384614,-0.19556582,-0.11421476,0.33766541,0.20512830,0.31374842,0.07244322,-0.06293435,-0.03469690,0.11915158,0.43408635,-0.09322148,-0.49036297,0.24656676,0.13277213,0.12658386,-0.14485648,-0.53135341,-0.31414765,-0.05119819,0.43415210,0.50535119,1.66907263,0.20705082,0.84799957,-0.14726961,0.22452772,
0.01452548,0.00525590,-0.67964864,0.06428085,0.05749111,-0.49532619,0.87815529,0.41321179,0.05947627,-0.31694052,0.02362115,0.30125335,0.63833255,0.21038827,0.40443748,0.79189384,-0.20753698,-0.16240415,0.56714731,-0.15953167,0.02529439,1.15741968,-0.28248844,0.57252181,0.39848876,-0.79998094,0.30382273,0.69985044,0.01799717,0.53889626,0.65862286,-0.90240926,0.13361634,0.70587850,-0.11779475,-0.58961958,0.61191756,0.01525705,0.39678890,0.61032140,-0.19069205,0.64465690,0.41509020,-0.00928023,0.65809906,-0.10391127,0.22328085,0.07720962,-0.21735148,0.35508233,-0.01161113,0.16445225,0.04012864,-0.82599682,0.18622595,0.40733564,0.06559613,-0.36323014,0.34475267,0.11295243,0.04238493,0.06272565,0.00818335,0.67055392,
0.30875221,-0.41889483,-0.67225939,0.34924838,0.54073709,0.34468716,0.47307247,0.55567610,-0.55851287,-0.50988251,-0.68672758,0.32723182,0.66593570,0.43778720,0.07281910,-0.43746457,0.20912355,0.44969523,0.30029744,0.40098232,0.06407635,0.77532291,0.63242751,0.31048444,0.79645550,-0.19517145,0.82903284,0.15351701,-0.14070691,0.51636994,-0.03851812,-0.08787381,-0.06808901,-0.18821664,-0.14011043,-0.33030280,0.46274585,0.86030895,0.49124330,-0.52211320,0.25126940,-0.42862123,0.09523521,-0.07143347,-0.91425228,-0.38940868,0.24508525,0.45640412,0.53158301,0.09755810,-0.41469058,-0.11685251,-0.13334265,-0.40045616,0.67930758,0.27000087,0.11886971,0.30999255,-0.51015979,0.44248435,0.69611347,0.35234272,-0.54833198,0.57313961,
0.36886919,0.54056865,-0.86477476,0.53247350,0.68534213,-0.11753789,0.31931588,0.03196781,-0.21241875,-0.17601150,-0.14689946,-0.10749591,0.03793995,0.74380302,-0.91323406,0.06929333,0.14955986,-0.16833599,0.24483985,-0.11573531,0.06786288,1.27316511,0.28752846,-0.22761086,0.02198803,-0.31668857,0.36911932,0.34560788,-0.13858996,-0.24948271,-1.03739870,-0.46947083,0.35956931,0.50983959,-0.02738144,0.39601690,0.29348397,-0.03483370,0.65682757,0.28444454,0.18138956,0.63651240,0.25586167,0.01079124,-0.40622258,-0.46765193,0.61387193,0.05583991,0.16092822,0.69337094,0.22121976,0.27112138,0.32836899,-0.99270153,0.33348131,0.65470129,0.07022370,-0.37462220,-0.09706393,-0.00500097,0.10310471,-0.20102003,-0.00222256,-0.14964311,
-0.01534509,0.06549937,1.10625958,-0.18836297,0.18408209,0.63415003,-0.37798753,0.04480394,-0.05907691,0.61646903,0.09594646,-0.14573543,0.09253965,0.09308720,0.78771669,-0.56608301,0.53755349,0.01051465,-0.44828004,0.12959281,-0.11392222,-1.01159525,0.00369214,0.37856036,-0.00936143,-0.03738188,0.05999771,-0.52712244,0.28210244,0.20317118,0.02519017,0.53209108,0.11917944,-1.50587177,0.43768361,0.37541234,0.00533497,0.20552899,-0.67848790,-0.39437139,0.23628516,-0.24793215,-0.02829713,-0.08626288,-0.31323078,0.54622340,-0.40959647,0.23271002,-0.05208442,0.33944628,0.79679453,0.49281231,0.10190809,0.58245897,0.15175124,-0.68773699,0.44204286,0.39164972,-0.04860180,1.69375467,0.04248295,0.18589038,0.03479841,-0.16683275,
0.02805935,0.26623029,-0.61362892,0.13226320,-0.47850478,-0.04330763,0.74035519,0.10351650,0.56953889,-1.11386681,-0.28393391,1.65449333,-0.59607989,-0.04722222,-0.44027075,-0.76426429,0.25237006,-0.57153296,0.19178890,0.20728168,-0.01503840,0.67310023,0.61842239,0.02590004,-0.21437690,1.30564165,0.24667783,-0.32343537,-0.59997874,-0.04261766,0.45235214,0.49245656,-2.17360997,-0.52954674,0.13211000,0.20086139,0.16235790,0.04930284,-0.46459514,-0.13237374,0.63632452,0.28872508,-0.18027322,-0.10326226,-0.05289105,-0.32802397,0.81351316,0.48251793,-0.12136037,0.40405795,1.04965162,-0.07345424,0.86006784,-0.68385959,0.51343298,-0.38096669,0.09510373,0.42909065,0.17815405,-1.13515329,0.00500994,-0.63752735,0.02526606,0.07784936,
0.23105259,
0.34474611,
0.25309768,
-0.46666792,
0.98464656,
0.14057058,
0.59500623,
0.75741994,
0.01156034,
0.10907792,
1.03083372,
-0.45447639,
0.66920149,
-0.01340340,
0.90451521,
0.44866014,
0.36635810,
-0.04029863,
-0.03276781,
-0.12196944,
-0.13956788,
0.45469984,
0.15344532,
0.30332866,
-0.16385782,
-0.65053123,
1.13593495,
-0.51731139,
-0.41895774,
0.59041399,
0.26503980,
0.46064037,
0.46002182,
0.88535166,
0.79265708,
0.31899267,
-0.06441660,
0.26374403,
0.31153944,
-0.37694702,
-0.50396574,
0.08089292,
0.04291068,
-0.55425805,
0.82932192,
0.09093592,
-0.04454565,
-0.39893699,
0.51013529,
0.00643036,
0.19773610,
-0.00191853,
0.51051289,
0.02856353,
0.94882107,
0.57479960,
0.04176119,
-0.47519770,
-0.26863348,
0.61320454,
1.29937232,
0.73139477,
-0.71029264,
0.66312551,
0.02974835,-0.23830526,0.82968915,0.71176535,1.30350995,-0.79827571,1.14306617,1.15973210,1.13628268,-0.05042630,0.69830936,-0.31697351,0.29836163,-0.07536227,0.04376163,0.42859721,0.68334252,0.03314963,-0.93982929,0.07906937,-1.05151618,0.69966125,1.17104971,0.75987428,-1.51024556,-0.72984552,0.46341172,-1.59196365,-0.35963681,1.38185406,0.40108311,0.84298313,0.33844385,1.15421152,0.56439954,0.19126412,0.00110351,1.00230610,0.50316256,-0.10824136,-0.83915544,0.89790803,1.51622379,-0.49359006,0.97317588,0.03720124,0.90099853,-1.65264952,0.20865878,0.82666576,0.60987943,-1.26814497,1.00469863,-0.33787572,0.33680114,0.71330768,0.07559200,0.04606407,0.09567260,-0.02963237,0.93548989,0.04890511,-0.38095218,0.77701592,
-0.08804452,-0.07110362,0.37441933,-2.80293036,-0.11137431,-0.14312686,0.00254458,0.28123081,1.04611397,-0.03998825,-0.30102396,0.16635521,0.11873494,0.07882042,0.49356648,0.14292860,0.61605811,0.10175503,0.75752079,-0.12199661,0.05365372,0.01572350,-0.91422230,-2.38419294,-0.33561867,-1.00311542,1.71286714,-0.09242512,0.13413396,0.86844438,0.59581661,0.49465042,1.05708408,-0.32068956,0.59329814,-1.27221763,-0.07912019,-0.44609556,0.73034233,-0.48868698,0.21392073,0.65986514,-0.09437033,0.25975737,0.37732393,-0.07524993,-0.39249191,0.83806026,-0.98777336,-0.02213324,-1.01826632,-0.79418933,0.48279190,0.28107104,0.86701196,0.09785687,-0.08081061,-0.42096472,-0.54031885,0.30114049,0.04776532,1.15045547,-0.34435225,0.82106602,
0.11799290,-0.03630856,1.50722253,-1.01735580,0.04353217,-0.22967727,-0.39848784,0.08195730,-0.52364212,0.11855770,0.77768010,0.28557071,0.75636858,0.10251521,0.44552988,-0.51721865,0.47836441,-0.11936247,0.51257372,0.10805801,0.20799504,0.71176726,-0.19694588,-0.53401268,0.05958982,-0.47798505,0.60695231,-0.02601496,0.50546086,0.89508468,0.98790556,0.33955812,0.32891858,0.37685299,-0.17768767,0.32406312,0.05134730,0.72669882,-0.02049006,-0.34458724,0.14921594,1.75252056,-0.97891611,-0.68552423,0.53669757,0.04817154,0.20192789,0.38663715,-1.18646431,0.59305698,-0.20742092,0.44970503,-0.31182951,0.28251573,0.23416455,1.05616939,0.01862937,0.14002487,-0.07136710,0.94654393,0.26778293,0.60523939,-0.90951174,-0.08452260,
0.40303230,-0.66717678,-0.80346984,-1.12137127,0.13188204,0.84113592,0.41775763,0.31765154,-0.65377814,-0.01038862,0.52922231,-0.05023700,-0.12616749,-0.03587091,0.55276948,-0.02855493,-0.16309509,0.02067129,0.34637561,-0.02890095,0.82895648,0.63275224,-1.16027474,0.43601993,-0.10146713,-0.58298111,0.28804952,-0.29844040,-0.53666133,0.95596963,1.55829215,1.08787417,1.06253994,0.26160026,0.06786341,0.56583256,-0.02890408,-1.28449965,0.21567045,0.47173730,0.52098882,-0.88104492,-0.40957007,-0.41091532,-0.41565719,0.08718637,-0.52204639,0.28342763,0.19884594,0.03914496,0.26874548,-1.32533538,0.02937004,0.12860215,0.98992068,-0.57355756,-0.06637226,-0.06571804,-0.59598541,0.99148202,0.41387782,0.32677746,-0.34947428,0.56632310,
-0.44367412,-1.19118571,1.17500985,-0.69682848,0.29686669,0.31159821,0.06683473,0.28818625,0.53868687,0.13047533,0.62552553,0.42094907,0.38647890,0.09199875,0.74039871,0.46371132,-0.01020765,0.07147535,0.64752293,-0.09326119,0.23379104,1.10730577,0.47143918,0.08732866,0.32521734,-1.06533682,0.03837643,-0.16356941,0.47007039,1.54685533,1.06751359,1.12082994,1.13182771,0.64460260,0.43326646,0.21112789,-0.06276494,1.60605001,-0.61595988,-0.88996553,0.30814180,0.33026558,0.08590039,0.47288507,0.84159184,-0.05400125,1.11921287,-0.38445398,0.48686674,0.87633973,0.22286254,-0.01818315,-0.63109601,0.46562824,0.29225284,-0.03565289,-0.00582189,-1.13155949,-1.35061669,0.15218058,0.48599523,0.66658086,-0.94284880,1.05561280,
0.20252374,1.36676061,1.68555820,-0.54636294,0.25831711,0.10392436,-0.75175852,-0.10435659,0.99712002,0.11973083,0.47504738,-0.94129604,-0.79964352,0.00562479,1.69189978,-0.15960824,-0.62949538,0.03799798,0.17072377,-0.08799136,0.22475120,0.75202811,0.03522704,0.21509521,0.28659010,-1.07283545,0.49634734,-0.05618027,-0.74899912,0.71463889,0.73854476,0.65501469,0.60432804,-0.48264602,-0.23961447,0.52258110,-0.10632452,-1.17533255,0.25050476,-0.73536003,-0.67854655,0.72781354,1.67448878,-0.25516629,0.27569580,0.06917295,-0.26806533,-0.77002275,1.90257573,0.76023853,-0.37383133,-1.08633816,0.60597336,1.46171927,0.39377180,0.38728863,0.03522465,-1.25827920,-0.08691327,0.14958835,0.74412334,0.74165249,-0.70825851,0.72771323,
-0.66970778,-0.58838379,0.93150032,-0.49891686,0.22955155,0.88484293,0.35214379,0.00582000,1.63203251,-0.07981174,0.21197660,-0.27992231,1.31800735,-0.07849031,0.88847566,0.47555569,0.33453152,0.07070913,-0.30447504,-0.10534579,0.62907523,1.10881865,0.00302541,0.12184148,0.16278674,-1.15046561,0.76715493,-0.39837149,-0.30303636,0.89217937,0.57009768,0.85271668,0.91408855,-0.03143367,0.40642121,0.62909335,0.06642637,1.30746448,-0.30163306,-0.43317088,0.18355651,-0.81414956,1.43443561,-0.40951538,0.79344493,-0.00456191,1.05075014,-0.04528975,1.64810276,1.44044876,-0.56436783,-0.74194503,-0.59282762,-0.57338959,0.62263203,-0.34013847,0.02946420,0.33778751,0.61696285,0.49029472,0.77927560,0.02589940,-0.52057552,0.77761638,
0.82562369,
0.20321944,
0.64351952,
0.56950730,
0.60498506,
0.64286613,
0.65559810,
