// Neural Network File Format by Kyle Julian, Stanford 2016
3,14,6,32,
14,32,32,6,
0,
0,0,0,0,0,0,0,0,0,0,0,0,0,0,
20,20,20,20,20,20,20,20,20,20,9,20,3,1,
0,0,0,0,0,0,0,0,0,0,0,0,0,0,0,
1,1,1,1,1,1,1,1,1,1,1,1,1,1,1,
0.13942294,-0.01305332,0.00123679,0.32579300,0.06778362,-0.01427596,-0.01469180,0.02855885,0.17109334,-0.40588459,0.06291045,0.14634244,1.44724691,-1.82659578,
0.41501662,0.36203980,0.56233835,0.49949995,0.44732082,0.51201904,0.66766018,0.45508090,0.46287867,0.41048908,-0.79828876,0.33198443,0.06447084,0.26751095,
0.56172419,0.44429737,0.46827266,0.45676878,0.37538779,0.56490797,0.43226436,0.33322421,0.03367275,-0.09983151,0.15303198,-0.05830423,3.62827349,0.63417846,
-0.01703757,-0.11238128,0.28837779,0.04166558,-0.11967239,0.41291702,0.37829143,0.14812040,0.02659223,0.15488721,0.65537715,-0.30905589,0.65025455,-0.09435170,
-7.53980827,-7.01095057,-6.77720547,-5.49987125,-5.15082788,-2.89467859,0.40667447,0.53560776,0.47847080,0.35037062,-0.89684683,0.43419886,-0.50714362,-0.00516442,
-5.50633383,-4.31418705,-1.87464070,0.01979672,0.29056478,0.31030604,0.30408114,0.25596628,0.21419036,0.23665397,-0.65827447,0.29000792,-0.17614411,-0.48111135,
0.74713731,0.65260023,0.55533290,0.71962368,0.74672073,0.81548148,0.66406882,0.63967514,0.50191164,0.18978421,-0.33603454,0.63944590,-1.16114998,0.33068547,
0.01770715,-0.10751501,-0.19813620,-0.16830900,-0.12494877,-0.10435531,-0.11552349,-0.14002368,-0.10964765,-0.20449218,0.36469397,-3.38365078,0.32813135,2.25899863,
0.43167910,0.28264537,0.56793737,0.55379212,0.33113915,0.36676130,0.63596702,0.58807427,0.83005667,-0.05363638,0.03852433,0.37192649,-1.16373742,0.27871919,
-4.75972700,-4.35522175,-3.97067261,-3.81206870,-2.39928460,0.16613512,-2.92135143,0.21995787,0.21282962,-1.88221526,-0.24262533,0.19635820,-0.62335408,-0.19556546,
0.46043342,0.44058034,0.50192583,0.17532256,0.45735046,0.38769788,0.18849659,0.55560076,-0.01094822,0.06375811,-0.36329997,0.94540721,-0.20033145,0.56578827,
0.21558826,0.79650700,0.47736353,0.34691232,0.60050040,0.54575765,0.73574430,0.09538484,0.57755250,-0.16954555,0.25456449,0.48100978,-1.68297422,0.36884168,
-0.32219714,-0.34031469,-0.24587314,-0.16056646,-0.37358993,-0.35765499,-0.37444121,-0.50965208,-0.41155788,-0.53910303,1.06777203,-0.91073626,-0.20177393,-0.36704224,
0.58068043,0.59430605,0.60240370,0.61667800,0.60552925,0.66351748,0.73863256,0.75061661,0.72520781,0.34063971,-0.61506164,0.25672415,-0.49872643,0.06236443,
0.19973457,0.07517431,-0.04531664,-0.06570968,0.07992771,-0.09246901,-0.02955400,-0.01818870,-0.07223984,0.41898111,0.16918899,0.34900573,-0.00742502,-0.19159602,
0.49336353,0.40748864,0.53502637,0.45874730,0.43297720,0.59728760,0.85690111,0.40757632,0.74994808,0.12107345,-0.24995062,0.08079059,-0.90159392,0.05188918,
0.28731534,0.13266820,0.08637380,0.00020385,0.36268657,0.34534112,0.34425360,0.28418505,0.10993179,-0.54156673,1.23452556,0.07889401,-0.65009904,0.09964582,
-4.98611593,-2.69262004,-2.26147223,-1.41355681,0.04296014,-3.01044965,-1.24720979,0.13013883,0.15711884,0.06055313,-0.33057711,0.19858146,-0.17389771,-1.05804896,
-0.27639252,0.12823263,-0.54506594,-0.72992396,-0.15521377,-0.03747296,-0.27781442,-0.23422208,-0.19861715,0.19461335,1.19810748,-0.16461855,0.90470010,-0.23677163,
0.84996957,0.33797875,0.27597621,0.64988452,0.34568450,0.36388770,0.37508568,0.33687320,0.86097437,-0.22538681,0.43029684,0.18407208,3.12977672,0.51612467,
-2.68085337,-3.42188787,-2.83435202,-2.06458831,-2.33628440,-2.41278124,-2.21358275,-0.74981546,0.16925135,0.26887655,-0.26394612,0.23800622,-0.52257633,-0.33133164,
0.41227320,0.48517743,0.33795142,0.38975447,0.38984221,0.25191987,0.22193211,0.32232627,0.38677916,-0.32970962,0.48198450,0.90804756,0.44394112,0.61317813,
0.44321740,0.33582824,0.47780925,0.54213011,0.37721401,0.62588567,0.79629385,0.72303480,0.82668412,0.00231795,0.10970675,0.03873578,-2.02704453,0.31662932,
0.42115062,0.60373104,0.34446192,0.34898230,0.15049604,0.02633356,0.05580705,0.14720187,0.01510660,0.46316165,0.77345783,0.02828661,-0.74861264,-0.35456425,
0.16440909,0.45036688,0.04547399,0.00244614,0.24640094,0.33048290,-1.56772244,0.06764221,0.33657929,-0.15492858,-0.19470021,0.09522044,0.95628113,-0.01505753,
0.27911320,0.46352890,0.42462835,0.21149494,0.23326331,0.66887468,0.71625644,0.61111236,0.89740753,-0.16181441,0.29270813,-0.02089617,3.82878971,0.64399707,
-2.70166516,-1.09891975,-1.83289337,-0.91735148,-0.24061768,-0.53204453,0.21163455,-0.25286084,-0.25193268,-0.28308707,0.73603559,-0.15345523,0.77207106,0.01118050,
0.22321069,0.12133106,0.00978833,0.01214750,0.01283932,-0.00157177,0.12027831,-0.00304269,-0.00164773,-0.35991672,0.87781334,-0.01439992,0.77290422,-0.39878866,
0.45893750,0.30827525,0.24121571,0.22838183,0.54207850,0.24904801,0.92185760,0.50272870,0.63779056,-0.04469957,0.08475982,-0.00447171,3.38289165,0.31429225,
0.03105394,-0.41456598,0.08023415,0.20986861,-0.03223037,-0.29529265,-0.01289604,-0.03373386,-0.01535892,-0.16982427,0.86444974,-0.03214660,0.34427825,0.15072884,
-0.37383685,-0.23619144,0.38677442,0.22302257,0.06999860,0.42900285,0.62615812,0.51177818,0.52241117,-0.11690646,0.78299350,-0.36232829,0.53087062,0.18452585,
-1.82459092,0.01797637,-0.05881277,0.01759784,-0.01047714,-0.01961176,-0.00312124,0.03597848,-0.00785938,0.12312438,0.92821348,0.10317764,0.12305266,-0.20280157,
0.20191497,
0.74177814,
-0.11567719,
-0.03128844,
-0.37942114,
0.13235827,
0.09802829,
-0.37489441,
0.25872400,
-0.23480804,
0.23670344,
0.18887009,
-0.05498267,
0.64114082,
0.61715204,
0.61371690,
0.38631412,
-0.43112823,
-0.19353028,
0.14716801,
-0.50711852,
0.29150739,
0.46460164,
0.17061394,
-0.24066931,
0.37111774,
-0.26339057,
0.04230946,
0.06127785,
0.08876910,
0.42061827,
0.35788444,
0.60587919,-0.92544335,-0.67983770,0.20883243,0.85573304,2.45524931,-1.30348396,1.80612409,-1.76737976,-0.07261448,-0.21226093,-1.74231112,0.45191956,-1.79026914,0.64095736,-2.33632374,1.28003669,1.14451075,0.43040112,-2.33780813,2.09377241,2.34548068,-1.62703812,0.33951396,-0.03855464,-3.27142334,0.08521309,0.30951303,-2.67425609,0.02917596,-1.13305831,0.31952795,
-0.16259298,0.03565856,0.19679239,0.08104403,-1.69445491,-1.69205880,-0.36679381,-2.00292015,-0.07302102,-1.57051218,-0.35402125,-0.13067338,-0.04366319,-0.86709243,0.30963856,-0.16916180,0.99182153,-2.17668319,-0.58823168,0.00370323,-4.43430281,0.71361655,0.72300744,0.21346126,0.20759670,0.06998953,0.09542456,-0.14388165,-0.06728766,-0.00801145,-0.16743189,0.04989597,
-0.20537093,-0.18389536,0.13732536,0.06839887,0.12456926,0.58334738,0.72879225,3.18391776,0.62265944,-0.04320758,0.51963228,0.68376249,0.35175961,-0.85783309,-0.19960554,-0.91720045,-0.37005857,-0.25979733,-0.04015928,0.52296704,-1.23327076,-0.63578367,-0.41388491,0.15243857,0.20293058,0.30573025,0.17294502,-0.11957194,0.51245654,0.15647663,0.54805398,0.16672306,
-0.28119123,-1.54557419,-0.10778952,0.92438906,-1.38848376,-6.73867559,-1.64854145,0.60211533,-0.58715284,0.49843481,-1.35494351,-0.54760045,1.50828791,-2.06547213,-0.22256145,-0.60216469,0.98273480,-3.95387030,1.53405285,0.00183813,0.67590702,0.44042620,0.32941350,0.51678902,-0.28147081,-0.14858304,0.71940881,0.65794200,-0.22210495,0.89216644,0.39044499,0.65140343,
-0.19164777,-1.39169836,0.08329195,0.20513895,-1.75899637,-2.72474957,0.82716477,4.23554993,0.63576359,-0.96997553,0.40997967,0.99649656,0.16380620,-1.13840795,-0.18363468,-0.94292021,-0.12778640,-1.33729744,-0.04359104,0.41175139,-2.00828290,-0.93283677,-0.08896919,0.29482603,-0.21633597,0.04390081,-0.01884321,0.28041404,0.31684789,0.11626833,0.48148268,0.26106873,
-0.17215833,0.18476380,-0.29552346,0.07358672,0.41035631,1.10295534,0.58519554,-1.25605929,0.26753426,0.16238518,0.07796395,0.33227631,-0.45710057,0.98457676,0.33287075,0.82786101,-0.00083223,1.77306533,0.07747703,-0.18594849,1.26321733,-0.02839636,0.96717656,0.27728438,-0.01951510,-0.53104705,-0.15528941,-0.17855248,-0.39448214,0.00885331,0.07317310,0.20293006,
0.33499438,-1.27322125,0.30277944,0.52435297,-1.69663334,-5.21127653,-1.15277457,-0.55565292,-0.56463444,0.23767263,-0.98814589,-0.59365934,1.40471721,-1.64854062,0.03554098,0.18006764,0.75262344,-2.61892676,0.47318357,-0.15192400,2.04648113,0.26911694,0.15372865,0.60209388,-0.04271954,-0.04835873,0.14719935,0.77485371,-0.16450934,0.57482415,0.42143872,0.45877150,
0.52272743,-0.17768840,0.45667464,0.19695850,-2.56891942,-2.92658448,-0.87113988,-0.59317082,-0.37608948,-0.70075142,-0.23443021,-0.03304303,0.12997681,-1.02546418,0.17620103,-0.13830219,1.03951371,-3.75789809,-0.32667387,-0.02068106,-2.94465995,0.78291935,0.35808381,-0.12862308,0.23732734,0.17251079,0.14121591,0.17819534,0.23177683,0.17972687,-0.07494181,0.15260297,
0.01628040,0.39108488,1.01813650,0.07542446,-0.47146308,0.75416207,-0.04657261,2.75418019,-0.21311702,0.04302735,-0.02347535,-0.25193915,0.53506690,0.06152610,0.18770927,-0.33842289,-0.38284200,-0.45421484,0.00494095,0.61918747,-2.13383770,0.21216455,-1.12151778,0.06818219,0.06768605,0.59400719,0.11366688,0.04407613,0.87376189,0.25585482,0.48613542,-0.04165214,
0.11318785,-0.17438793,-0.13465522,-0.13794549,-0.12823394,0.09988580,-0.12826326,0.11356373,-0.11759908,0.06983754,-0.05734340,-0.15592048,-0.17241380,-0.13260104,0.05484337,-0.04754141,0.10353818,-0.16341043,-0.12078992,0.04277431,-0.17430337,-0.16716678,-0.13094512,0.01886116,0.11501864,-0.04321864,0.10554298,-0.04688706,0.01137868,-0.08673692,0.09938633,-0.12896067,
0.51624131,0.31709182,-0.83245736,0.37873137,0.69690311,-0.65733784,-0.34835589,-0.13781680,-0.08445864,0.44277695,-0.03638301,-0.14864002,0.27647805,1.42396927,0.72803134,1.08719683,0.88999093,0.31381822,0.92901617,-0.60701579,1.23308706,0.97250557,1.36719823,0.30529675,0.03943012,-0.91759121,0.33323568,-0.45988190,-0.81542957,0.37003982,-0.69058907,0.52854818,
-0.31665459,-0.27351978,-0.37406111,0.34305316,0.34621772,-3.36929059,-0.56845731,-2.26948619,-0.40845314,0.22009997,-0.38397717,-0.25452968,-0.16351604,-0.26902512,0.31607178,0.79400814,0.75026637,-1.67941236,0.17557210,-0.30728361,1.87238145,0.75031561,0.46540958,0.44755852,0.32177088,-0.11427919,0.33864069,0.71039897,-0.06943832,0.09217453,-0.26042306,0.18471514,
0.04206189,-0.08157098,0.65389830,-0.09078868,1.07250834,-1.34059000,0.22986285,3.29964828,0.25033614,0.67159146,0.14891967,0.22154531,0.65914237,-1.36412179,0.16125613,-1.06072605,-0.32004407,-0.43675295,-0.35889611,0.57740498,-0.62130225,-0.74945015,-0.79667723,0.13833177,0.03190019,0.67388564,0.01134480,-0.06893828,0.61309189,0.17147678,0.72725958,-0.13422710,
-0.06724114,-0.16808860,0.04885175,-0.17269272,-0.18077034,-0.05428725,-0.10238759,0.05778590,0.12556230,-0.18693911,-0.11811023,0.04890341,0.03492687,-0.19649573,-0.17179060,0.14672475,-0.07230794,-0.13279457,0.06499841,-0.22313052,0.04575521,0.15935402,-0.04070673,0.05398317,-0.09633831,-0.03437330,0.12248957,-0.16999350,-0.03184312,0.11367323,-0.14844613,-0.16002420,
0.41446912,-0.63000369,0.36210960,0.29337290,-2.29969811,-1.71486855,-0.33862671,-1.06163132,-0.36323792,-1.49345326,-0.32984075,-0.09974534,0.08273011,-0.64989883,0.60196543,-0.25288239,0.74923313,-2.70758033,-0.45304373,0.12424904,-6.04644299,0.52044857,0.50895846,0.21519715,0.55657440,0.08869444,0.46584129,0.18587361,-0.03076304,-0.13705964,-0.09915394,0.02072231,
0.90664351,0.85618210,-0.19400094,0.20108479,2.68960142,1.76047051,0.05966041,-0.40034014,-0.13512802,1.38507485,-0.08900294,-0.22915404,2.79835963,1.00144255,-0.11514989,0.06898770,-0.85941994,3.12569284,0.47151530,-0.26568124,3.00057721,-0.20073684,0.26433238,-0.79503465,-0.44427547,-0.08370896,-0.72708035,-0.07336874,0.31674474,0.13415171,-0.60099536,-0.46864226,
0.11375488,0.06395455,-0.00650016,-0.07265668,-0.19315952,-0.17187952,-0.02108597,-0.05789230,-0.16759685,-0.02137344,0.01134037,0.05731432,-0.12965140,-0.15327875,-0.07562622,0.00997310,-0.10080437,0.00112380,-0.02488802,-0.12478083,0.10631286,0.08047113,-0.02824209,-0.21129911,-0.05548016,-0.18996593,-0.11972910,-0.17990035,0.13163964,-0.16926861,0.10080092,-0.11934829,
0.16268212,-0.71507108,0.84015369,-0.21627389,-1.19158590,-0.23265526,0.03116897,2.26718211,0.13915128,-0.27991712,0.32941836,0.49432930,0.77352220,-1.65477562,0.10324032,-1.31156433,-0.04052279,-2.47179580,0.25364953,0.64694637,-2.11278272,-0.29642001,-1.03842211,-0.22239286,-0.07527834,1.38926470,0.02727157,0.22484133,0.94509304,-0.12732570,0.46093944,0.16591890,
-0.23216318,-0.41907257,0.06422464,0.61313105,-2.80339503,-3.61321735,-0.57933813,-1.86582398,-0.41133109,-1.46478128,-0.29803047,-0.16013184,-0.51565319,-0.81121582,0.08583878,0.19304730,1.24769604,-3.79839158,-0.92431432,0.22390826,-0.46884519,0.62939441,0.39320609,0.46388617,0.43735537,0.11554787,0.28649527,0.41482270,-0.17994364,0.10321634,-0.53518361,0.49311405,
-1.05486906,0.28366563,0.83654290,0.27302831,-0.51809698,-0.72247821,0.12265356,-4.21888113,0.43639097,-0.70931768,0.14063255,0.20130564,-0.32437536,-0.47523120,-0.67497706,0.21963848,0.34606180,-0.90845758,0.11889865,0.70106947,-0.14985587,0.58392304,-0.30736992,0.01003919,-0.20313817,0.51301426,0.20386028,0.30833170,0.32524133,-0.07076578,0.13122477,0.24258359,
0.08744879,-0.56974298,0.78726196,0.05768078,-0.03483448,-1.59149551,0.22874418,3.49503756,0.13432910,0.02535476,-0.01842139,0.26353914,0.89437801,-1.40852964,0.12902586,-1.15572155,-0.08204506,-0.02786340,-0.17594565,0.45608351,-1.25693250,-0.38898671,-0.94673157,0.14909442,0.19775891,0.73555547,-0.01076140,0.41972688,0.82981515,0.23992878,0.71992463,0.15957762,
-2.45185447,0.23142415,0.11115605,-1.12995756,0.26410890,0.00268064,-0.01888322,0.02066467,-0.31382087,-1.14770114,-0.47791407,0.03138430,-0.00945391,0.44262251,0.36316249,0.26205271,-0.52722961,-0.50046700,-2.29422116,-0.09531948,-0.27440575,-0.67426634,0.07852043,-0.49515417,-1.08845985,0.09257874,-1.78868997,1.38210595,0.70429796,-0.08764545,0.36649320,-0.50093246,
0.21659902,-0.83795428,0.70422375,0.28468439,-2.37082052,-2.25168133,0.55525625,3.06025696,0.64836282,-0.96189207,0.58963794,0.67501467,0.57229650,-1.78861320,0.09926751,-1.39949226,-0.24152213,-1.36439693,-0.09338173,0.87058109,-1.28624940,-0.37535238,-1.21296954,0.10620350,0.13128886,0.71716815,0.46564615,-0.06047024,0.56200802,-0.06217094,0.61975646,0.22603044,
0.24037139,0.42197713,-0.72788870,0.09458011,0.47285295,0.53713089,-0.29625812,-2.16566539,-0.28565702,-0.08314667,0.45116302,-0.21981208,-0.14264955,0.70460272,0.73919380,0.73791349,0.75587785,0.68069243,0.44246581,-0.22008556,1.56978691,1.32266557,1.26296282,0.23886476,0.46626115,-0.85950482,0.15584655,-0.53687614,-0.76910400,0.25351012,-0.50294465,0.45563513,
-0.00404683,-0.01093646,0.75836319,0.02535441,0.01939785,-0.41631356,0.57009995,3.26891446,0.80285895,-0.14234203,0.63025272,0.50288022,0.36417648,-1.01647103,-0.10461141,-1.20191109,-0.59982508,-0.62727058,0.08951882,0.74653673,-1.41736877,-0.47245285,-1.13268256,0.11510840,0.26730278,0.77343959,0.37403449,-0.04295591,0.66809201,0.28801590,1.02312624,-0.08976649,
-0.03794336,-2.48638010,0.81157577,0.10472579,-0.59778625,-5.51115894,-0.34817725,3.35215926,0.53046060,0.54788768,-0.16427703,0.37888002,-0.27386746,-3.27578521,-0.25539374,-1.54572356,-0.03119661,-3.01499104,0.40692648,0.76373905,0.43855831,-1.37200689,-1.18228436,-0.14053145,-0.22642517,1.08014762,0.23406890,0.49174723,0.93505371,0.33726826,0.72509611,0.43794370,
-0.77416027,0.44395745,0.51189512,0.08378524,-0.91464162,0.41268486,0.88118309,-3.42529321,0.62879759,-1.16088545,0.41751224,0.69704658,-0.75487649,1.26544273,-0.08412839,0.96296227,0.33090049,0.58138025,-0.15253252,0.31548616,0.42567906,0.65780836,0.46577457,0.25377491,0.12031950,0.59473068,-0.18528104,-0.29743651,0.63608056,0.34316382,0.25091729,-0.04979043,
1.03830826,0.25202981,-0.05359331,-0.00593437,1.44333112,1.36807072,0.49476787,1.49374115,0.35023913,0.93525529,0.44391266,0.33865577,-1.18320572,0.93771058,0.56523424,0.21844473,-0.06538714,2.01551938,0.18527453,0.05563787,0.76346380,0.43590331,0.05434677,-0.22050130,-0.32932067,0.09100946,-0.50525272,-1.46288288,0.10925415,0.08223686,-0.11485198,0.16215461,
-0.41125986,-0.32322362,-0.21496359,-0.03342961,0.37350973,0.82063317,0.66505516,4.86581182,0.46908969,-0.22478409,-0.17315252,0.52053303,0.54344726,-0.43979955,0.20519553,-0.36236283,-0.44458878,-0.30139366,0.03510119,0.09655968,-2.03596330,-0.71071696,-0.06627487,0.22072630,0.05674829,0.16532871,0.34421736,0.24943779,0.37372875,0.18570398,1.02974319,-0.07109497,
0.36671883,-0.63157415,-0.77783138,0.36866355,-2.23016787,-2.09861732,-0.45215678,-0.97079480,-0.42916676,-1.21519482,-0.48549756,-0.26966667,-1.25611091,0.46740219,0.52324170,1.17076671,0.88727498,-1.22555387,0.42652500,-0.75876427,2.17224503,0.38228816,1.06919837,0.48038346,0.15224932,-0.82112753,-0.02879063,0.47558656,-0.66624039,0.14055640,-0.05851522,0.08498134,
0.21890584,-0.24398868,0.40768972,0.44424579,-3.53812146,-3.41934633,-0.61730671,-2.34671044,-0.56411505,-1.81389225,-0.43486366,-0.52763891,-0.24790938,-0.94511616,0.14698809,0.16888446,1.05794847,-4.17474556,-0.44522706,0.20813699,0.65706825,0.71407217,0.03215234,0.04795877,0.51795375,0.13651554,0.08669765,0.71667242,0.27519274,0.23353618,-0.20252262,0.28796181,
0.05749420,0.17116630,-0.44666642,-0.00953239,0.91985041,0.55677927,0.33473003,-2.08298087,0.22109792,0.77954680,0.30422476,0.13265213,-0.43569303,0.83120036,0.14969552,0.67354482,0.20419958,1.33960128,0.13394593,-0.27523634,1.39107490,0.20323987,0.90032011,0.23254952,-0.17077036,-0.61255872,-0.25858283,-0.22323915,-0.44096610,0.28415722,-0.15817104,0.09917784,
-0.06632673,
0.23149732,
0.00106791,
-0.34526369,
0.06159828,
0.42972663,
-0.38218942,
-0.00985090,
0.17184335,
-0.15035920,
0.40271601,
-0.01527268,
0.12973157,
0.05813612,
0.03341825,
0.09790772,
0.08548682,
0.04572784,
0.20285863,
0.19208664,
-0.01169552,
0.19538534,
-0.03373246,
0.59407830,
0.02117232,
-0.48798710,
0.49881491,
0.39049456,
0.22871643,
0.14549966,
-0.04513272,
0.50420207,
-1.09263289,-0.14102280,0.29328853,0.14573407,-1.25279927,0.19604249,-0.13057971,-0.91179323,0.26665276,-0.04186990,1.22142315,-0.64319432,-0.04293679,0.16509025,-2.62585592,-0.36696792,-0.12138494,1.46826458,-3.64085197,0.05116878,0.24742611,0.33107340,0.39552522,1.15236580,0.41086277,0.07461919,0.23776864,0.26796985,0.10045730,3.27016425,3.49691701,0.00785651,
2.70146132,0.35207075,-1.09059584,0.67356676,-2.24322176,0.94574034,0.62279868,0.30869061,-1.02454317,0.13882415,0.60637748,0.42191723,-0.43428171,-0.09559434,0.35810718,-0.38182503,-0.15028748,-0.58515656,0.53598005,1.03433812,-1.17011130,-0.27755234,-1.22886360,0.64987481,-1.42939198,-1.55809069,1.02353454,-0.10467521,-1.39037800,0.51937354,0.53975272,0.83730119,
0.23186345,-2.17299891,0.29782084,-1.37491047,1.32037163,0.79696840,-0.73519516,-0.72023755,-0.23128487,0.05834331,1.26055014,-0.13801481,-0.08780795,-0.04226670,0.43594334,-1.30496430,0.09793877,-0.97572833,0.71835184,-0.39123380,-0.43670529,0.31441563,-1.00233984,0.48359314,-0.03234346,-2.08027506,0.07709277,0.71010011,0.47710651,2.59747458,-0.14870189,0.61739552,
0.62573647,-1.39145124,0.15705137,-8.96143913,0.41649008,0.38148728,-4.32497072,-3.03531146,0.30860221,0.05605322,1.33724606,-0.12535924,-0.00068924,-0.06501565,-1.80865514,-1.24368072,0.03105337,-0.10656058,1.50023305,-0.02450872,-0.18132788,0.28002399,0.03883838,0.71891332,0.18808205,-3.69112802,0.21777636,1.08708370,0.13029625,2.01924706,3.22238564,0.53923774,
-0.02972406,-0.59904277,-0.35633239,-1.20473719,-0.78977072,0.46967280,-0.23036735,-1.31201828,0.18725212,0.15784945,-0.50388312,-0.04377427,-0.21037835,0.05493648,-1.47384083,-1.52137673,0.00345714,0.01304841,-0.24364996,-0.48847359,0.04396910,0.38052806,-0.38243693,-0.02781681,-0.19821474,-0.97807670,0.15313640,1.16515994,0.08638996,-0.09208900,-0.29099867,0.21328637,
-1.09431672,0.05344385,-0.11317372,0.16065390,-1.06280172,0.19261937,-0.08392772,0.02836794,-0.66811216,-0.15664472,-0.26357985,0.53143030,-0.55851191,0.01679143,0.45996684,-0.15327112,-0.01978554,-0.93222529,0.26491860,0.98998225,-0.62158674,1.12045956,-0.94698232,0.45896107,-0.48960122,-0.64739925,0.22670466,-0.80167902,-0.32809192,0.27342767,0.50566715,0.88091534,
0.44224468,
0.12253623,
0.45327309,
0.36370692,
0.04936915,
-0.39986533,
