// Neural Network File Format by Kyle Julian, Stanford 2016
3,14,6,128,
14,128,128,6,
0,
0,0,0,0,0,0,0,0,0,0,0,0,0,0,
17,17,17,17,17,17,17,17,17,17,9,17,3,1,
0,0,0,0,0,0,0,0,0,0,0,0,0,0,0,
1,1,1,1,1,1,1,1,1,1,1,1,1,1,1,
-0.93336117,-0.23169269,-0.23797731,-0.07608254,-0.68533123,0.19431989,0.23483855,-0.51737982,0.07310965,0.26741561,-0.20638959,-0.34118840,-2.81518626,0.26434448,
-3.93149185,-3.80864215,-3.42039061,-2.30817032,0.17376839,0.24944131,0.29407358,0.30474040,0.28808200,-0.03931345,-0.73944134,0.30812767,-0.28004816,0.20093296,
-0.15514109,-0.85518628,-1.54612887,-0.37775898,-0.11920186,0.08189522,-0.09055459,-0.40380910,-0.38449356,-0.24017860,0.51896280,-0.10438967,-0.17687951,-0.17438261,
0.57276899,0.16836581,0.10528454,0.08947156,0.14953785,0.22777557,0.17248338,0.09428552,0.09346147,-0.04254325,-0.19836630,0.09110749,1.30722368,0.15548098,
-0.01904735,-0.12926109,0.11081140,-0.19949232,-0.05680059,-0.24986102,-0.18876542,-0.24196911,0.12761885,-0.23471552,0.48398256,-0.06288745,0.31570667,0.00462337,
-0.58570409,-0.53652573,-0.28365284,-0.29412374,-0.43760452,-0.43362239,-0.57510173,-0.47941312,-0.34510937,0.18119282,-0.33577442,-0.61549008,0.39061376,-0.07910910,
-0.07265268,-0.31776115,-0.41432703,-0.40319920,-0.18713641,-0.05025765,0.16077912,-0.68547660,-0.35722101,-0.25738198,-0.23491406,0.03427076,1.28491855,0.08596303,
-0.15530069,-0.31128469,-0.00962804,-0.55587178,-0.51894689,0.18601729,0.30864653,0.13067323,-0.12101993,-0.46395630,-0.32523623,0.07080058,0.04212002,0.06565927,
0.06095541,0.06850950,0.03124293,0.03391882,0.05303402,-0.07912511,-0.13184164,-0.03430095,-0.07065116,-0.02934799,0.01558331,-0.02822300,1.15825057,-0.07334429,
-0.66580313,-2.33754277,0.07467794,-0.65429080,0.03859200,-0.55149174,-0.00444374,-0.96212685,-0.49414003,0.08996943,0.11459725,-0.26109031,0.92211252,0.15469526,
0.13504572,0.01091447,0.22127014,0.45647684,-0.03985286,0.13631767,0.14518824,0.06354183,0.13285057,-0.22304000,-0.18131916,0.07053120,0.46756640,-0.07634094,
0.79286301,-0.01686884,0.00186670,0.07461622,0.35557917,0.27347198,0.55425763,0.34959504,0.21151596,-0.11221977,-0.03028081,0.04573619,0.78292328,-0.01428326,
-0.13635331,-0.00476209,0.24951728,0.43904331,0.29191628,0.19702880,0.24805743,0.25045770,0.14823836,0.02668165,0.09332225,-0.05687506,-0.32162663,0.08236644,
0.14597759,-0.05733742,-0.78021914,0.02295080,-0.01312767,-0.05919252,-0.06102175,0.03397637,0.00612860,-0.04922080,0.49069101,-0.02091216,0.24454965,0.22695187,
0.04169668,-3.08211279,-2.22929645,-1.99984038,-2.10078430,-1.99240434,-1.98497546,-0.08306341,0.01200133,0.26632217,-0.08577683,0.11601064,0.23878655,-0.03497294,
-0.06503307,-4.93257952,-2.53375149,0.24341573,0.28991678,0.23994254,0.29043844,0.25972658,0.25326744,-0.04112024,-0.77966541,0.28551260,-0.56131458,0.15102731,
-1.23265302,0.04874094,0.01089308,0.04918688,0.06973785,0.10681404,0.09844686,-0.46639702,-0.20646703,-0.39934897,-0.07114029,0.09615052,-0.33661112,0.13612561,
0.16787162,0.29201138,0.41366133,0.22214679,0.43430108,0.30625564,0.30305988,0.48512787,0.54915041,0.25492159,-0.38371187,0.31732139,-0.82288289,-0.21613856,
-3.30134630,-1.09644210,-2.78274131,-0.04616936,-0.01554859,0.18569426,-0.00672893,-0.07454996,-0.04902756,-0.84696800,0.42990032,0.00815313,0.14883302,0.11271066,
-0.01759174,0.10606798,0.21157429,0.06776324,0.02163374,0.04834625,0.08037482,0.06431720,0.04796271,-0.05983949,-3.74986625,0.12003448,-0.24083970,0.23327042,
0.18138023,-0.14600126,-0.69756508,-1.31665313,-0.51468718,-1.79005206,0.11987305,0.27536836,0.13601685,-0.51027536,-0.36140105,0.13478753,0.02865805,-0.01919662,
0.00749531,0.38125107,0.26458234,-0.08642603,0.03249821,-0.09389468,-0.15386404,-0.16747941,-0.21968640,-0.05754828,0.37481096,0.00431091,0.70043695,-0.21645260,
0.28004801,0.35624936,0.15664139,0.37326044,0.03776391,0.19507872,-0.00157556,0.24454436,0.38467824,-0.26694554,-0.03925437,0.31589511,0.04626506,-0.21606320,
-1.06801713,-0.74518710,-0.98744380,-0.42551488,-0.81800479,-1.15513825,-1.06738210,-1.09104252,-1.33760297,0.22140667,-0.23247801,0.02653073,-1.12048078,0.22464524,
-0.79833484,-0.76425993,-0.72820097,0.17817146,0.14955184,-0.49417034,-0.36953104,-0.12054677,-0.13487440,0.15571934,0.09441330,-1.34025514,-0.90938371,-0.07787227,
-2.44893336,-2.25383687,0.01708077,-3.75392413,0.01757277,0.05441797,0.05438645,0.02677056,0.08089826,-0.33991772,0.22737375,0.05505256,-0.06077957,0.10441405,
-0.33300900,-0.28045309,-0.74702609,-1.04197538,-0.27286756,-1.34858739,-0.31453338,0.13148504,-0.04194038,-0.60255307,0.30069235,-1.18421054,-0.73832434,-0.13182877,
0.19239643,0.21414670,0.19940983,0.17605427,0.24203165,0.23598315,0.26496404,0.24513942,0.19646238,0.20726538,-0.26528978,0.21991745,-1.18627906,-0.12126476,
0.15727934,-4.22723722,0.26073897,0.25137860,0.35699859,0.19979361,0.24529763,0.15882711,0.22325364,0.06082495,-0.71696025,0.15786852,0.69715744,0.13882221,
0.44547009,0.06054074,0.42786551,0.42035431,0.06037188,0.19534360,0.20898832,0.27100271,0.17117192,0.11539866,-1.23788810,0.28003770,-1.17642081,0.26707798,
0.34160590,0.06688446,0.06490418,0.07739149,0.06890465,-0.06098599,0.00439968,-0.00621021,-0.03197608,-2.09456110,-0.14463776,0.22524737,-0.23068677,-0.14904507,
0.39103854,0.41501179,0.26102930,0.06223677,0.37755889,0.31122282,0.24993394,-0.23913145,-0.05729597,-0.52278048,-0.32795945,0.23197867,-0.58329254,0.00517190,
-0.18619639,0.01281207,-0.01570007,0.17029545,0.04684887,0.32675824,0.14969431,-0.17864721,-0.17933260,0.05917298,0.32093000,-0.11322945,0.42174223,-0.21421127,
-0.97244734,-0.38440239,-0.31747800,-0.89192349,-1.77661097,0.04539206,0.27594247,0.04544027,-0.54027301,-0.13476183,-0.93354094,-1.08453619,-0.22303528,-0.17669371,
0.50185806,0.46347508,0.46282658,0.11491699,0.21234256,0.19959135,0.29647580,0.24480931,0.27694601,0.34468138,-0.73582405,0.26410106,-0.85530627,0.24123444,
-0.24472483,-0.85981166,-0.05173355,-0.08620244,0.34920564,0.13760684,0.23951185,-1.17707586,-0.02206724,-0.29054350,-0.10945756,0.11204255,0.30930457,-0.08817621,
-0.69803160,-0.93115407,-1.03197193,-0.87556839,-0.71909177,-0.24698707,0.20116760,0.08092254,0.13145269,0.23188008,-0.30656415,-1.76505792,0.11282949,-0.21820110,
-1.96469474,-1.16203678,-1.81027806,0.04308774,0.04551487,-3.25274134,0.06622090,0.00676468,0.02682488,0.01549570,0.29081401,0.04561642,0.19388966,-0.21674931,
-0.18266545,-0.19705221,-0.15270513,-0.23800592,-0.07446556,0.06355271,0.02729574,0.02233401,0.10649304,0.03092732,0.11809725,-0.62515485,-1.77709103,0.16318610,
-0.18212804,0.01250724,0.29551658,0.23794210,0.22182257,0.18683454,0.51601231,0.36564746,0.11005130,0.26540393,-0.22495513,-0.44821456,-1.28278172,0.13856576,
0.19654550,0.07934809,-0.11923455,-3.53362870,0.08623134,0.36888123,0.34900865,0.01353536,0.16925092,0.31170532,-0.69428349,0.33469361,0.17244326,0.08838894,
-2.32264233,-1.49549866,-1.68384361,-1.67547619,-0.74903792,-1.24090064,-1.16082144,-0.50431204,-0.05091040,0.16737686,-0.64432597,0.00208376,-0.28820732,0.17560731,
-0.37177730,-0.30133495,-0.39810452,-0.33983025,-0.90887868,0.01431660,0.07125054,0.22582944,0.11653145,0.04704379,0.15783335,-0.46570215,0.20925632,0.23342825,
-0.06804883,-0.27159712,-2.25672317,-0.02038463,-0.04795691,-0.00625698,-0.03527125,-0.01808756,-0.04834905,-0.43558335,0.79557210,-0.02618746,-0.01194274,0.23336625,
0.04142325,0.35210687,0.16948672,0.35171130,0.25115907,0.39482087,0.35603786,0.36742449,0.40094772,0.33157679,-0.82001173,0.45427552,0.98441476,-0.02660471,
0.02523404,0.58936512,0.28953624,0.21289830,0.23724917,0.23949358,0.31177995,0.31501582,0.16559510,-0.06216361,-0.23024397,0.32853636,-1.07426083,0.02357801,
0.17944464,-0.00415459,0.13740031,0.06806058,0.02666733,0.09171936,0.08679295,0.00406517,0.05597283,-1.31429136,0.52694255,0.12757359,0.12239565,-0.07999153,
-0.26505107,0.11219691,0.33575851,0.27087095,-0.15717722,0.04036507,0.15349948,0.02584293,-0.06071539,-0.75197494,-0.10953449,0.03084392,0.58175302,-0.08838212,
-1.73115396,-1.21707141,-0.90640831,-1.06672537,-1.14019728,-1.54820251,0.34188208,-1.19961989,0.21892172,-0.38202044,-0.28543586,-0.74155664,-0.33535054,-0.01675171,
-0.16353817,0.00733156,0.19186744,-0.19511911,0.08208113,-0.06284977,-0.16185094,0.05440005,0.05783575,-0.04462358,0.44490659,-0.23416950,0.33910862,0.04144587,
0.08855186,0.11432642,0.17897743,0.20162314,0.22160345,0.33783916,0.05144777,0.34400439,0.27170068,-0.12016720,-0.03490876,0.45864674,-0.89418465,0.13429254,
-0.06194944,0.24304321,0.05545302,-0.13885254,-0.13843529,-0.14834385,-0.15818663,-0.09507402,-0.13643777,-0.02062921,0.91361886,-0.07103021,0.68265903,0.25121784,
-3.01176953,-3.35696602,0.11374515,0.17594488,0.16405202,0.16948976,0.18362127,0.15363923,0.13878852,-1.60476363,0.45796716,0.15058739,-0.25022975,0.02992663,
0.23952636,0.38796827,0.20879772,0.16131577,-0.29516256,-0.15622412,-0.23807883,-0.66796041,-0.15019035,-0.07849174,0.59129959,-0.23449074,0.31947896,-0.07702377,
-1.84460211,0.01835383,-2.06937551,-1.13542581,0.07785936,0.13035062,0.09449918,0.08276906,0.19058299,-1.02870667,0.00371878,0.06566943,-0.31656972,-0.25735405,
-0.55574650,-0.28046668,-0.35801896,0.03347623,0.09387320,-0.12893565,-0.11286769,-0.73895645,-0.24783689,-0.29476810,0.35662732,-0.80073231,0.23607463,0.14560753,
0.12016239,-0.49407986,-1.99928856,-1.76405799,-2.06148529,-1.88756216,-2.10703254,-2.25229335,-2.57393837,0.26321572,-0.00534928,0.12755460,-0.46778661,0.20300037,
-0.28942320,-0.07279926,0.00418234,-0.19976601,-0.26160687,0.05852344,0.34793574,0.30177817,-0.42442268,0.10211198,-0.48711431,-0.34449157,-0.59496361,0.09815965,
-0.08873309,-0.45055830,-1.31176639,-2.81641507,-3.13905978,-0.06705160,-0.08464651,-0.06170690,-0.09073035,-0.30070594,0.68807793,-0.06755015,0.00229052,-0.08593674,
0.27535966,0.18519835,0.38872400,0.31754231,0.07171796,-1.99555361,0.37275535,0.26729637,0.29114524,0.26420107,-0.54967642,0.23365198,0.15683635,0.14413145,
-0.04398854,-0.15749174,0.02520378,0.01700437,0.28903988,-0.34974271,0.29321927,0.09446226,0.23849359,-0.01516209,-0.66275203,0.30710447,-0.77246141,-0.04793114,
-1.47284174,-1.97850716,-2.34522390,-2.28302193,-0.16897838,-2.76746297,-0.00591305,0.11498986,-0.00082435,0.10037447,0.34061134,0.04780884,0.01262234,-0.21023667,
-0.22800177,-0.35267618,-0.16415846,-0.21513511,-0.59821373,-0.18690309,0.02623126,-2.18668008,-0.21006076,-0.38780019,0.18389510,-0.23395161,0.86206150,-0.19861072,
-0.02966540,-0.24548368,-0.10431102,-0.10376896,-0.22729154,-0.17450060,-0.15123591,-0.13484624,-0.14063008,-0.25801095,0.83790982,-0.12326907,0.31460014,0.04760458,
-1.42671013,-1.33631337,-1.81049287,-1.78705764,-1.00269234,-1.02627265,-1.11244977,-1.73320556,-0.05871925,0.31894431,0.19541083,-0.03125356,-1.10920513,0.24515219,
-0.12865633,-0.05161966,-0.10926183,0.04351205,-0.26819062,-0.22599497,-0.14609842,-0.16688599,-0.07699670,-0.10498658,0.41471151,-0.46865889,0.78420585,-0.06284867,
-0.07969844,-0.03627696,0.36062390,0.39744803,0.46327695,0.19874308,0.30759177,0.17170966,0.20296104,0.13282087,0.24836613,-0.04959730,0.28373641,0.10939715,
0.01688133,-0.70919126,-1.62563002,-2.50562000,-3.26140189,-0.11683905,-0.16549137,-0.15642320,-0.20001318,-0.39098647,0.79760540,-0.11405966,-0.47528192,0.22538547,
0.02239202,0.25974384,-0.01928046,0.03741583,0.22539586,0.17455062,0.32372344,-1.15448654,-1.08536077,0.25556839,-0.59421074,-0.14844361,-0.27183419,0.13468522,
-0.46734759,-0.15143283,-0.40229616,-0.00124747,-0.03004720,0.26261124,0.22909504,0.21396357,-0.00505659,-0.02394060,-0.31788522,-0.31653962,0.26456338,0.25119230,
0.09126206,0.31724843,0.30948728,0.24492756,0.29633135,0.28419060,0.30485722,0.30003497,0.32326573,0.35527253,-0.37705284,0.33210871,-1.23520947,-0.04090088,
-2.91107988,-0.62813658,-3.04801846,-2.99324036,-1.70516849,-1.63865137,0.11368106,-1.66172504,-0.00020984,0.34454685,0.01435193,0.12164018,0.16626161,0.07855158,
-3.44869804,-2.66591859,-3.53107667,-3.92268920,-3.57432175,0.11215021,0.14835170,0.21162018,0.20486791,0.15501851,0.08676404,0.16005881,-0.50014293,0.07403676,
-1.32779062,-3.65007210,-3.31247211,-3.08921003,-3.18779969,-2.39532018,-1.85040784,0.16859500,0.22474277,0.22211289,-0.29421809,0.19630328,-0.04435177,0.16254607,
0.26529470,0.50118369,0.46851796,0.15810814,-0.25487924,0.19426338,0.22927800,0.04553864,-0.02823073,0.04761717,-0.46747512,0.08747104,0.96423870,0.13938518,
-0.43012223,-0.21182509,0.03148654,0.00679957,0.11624141,-0.70918185,0.22786868,-1.48777950,-0.61875832,-0.04348380,0.35959610,-0.62836832,0.38944644,-0.18617381,
0.03420981,-1.22233236,-0.91583234,-0.44476098,-1.03318596,-1.06031454,-1.04908144,-1.41895092,-1.47469485,0.28411576,-0.28048199,0.08396830,-2.18668938,0.02814677,
-1.54598129,-2.12855387,-2.11881065,-1.53171170,0.04216103,-1.98258805,-3.37920046,-0.00448921,0.04913361,0.01106135,0.24408957,0.06762453,-0.03707464,0.04985995,
-0.12652150,0.19351518,0.31950563,-0.29106063,-0.18652317,0.20991914,0.03929329,-0.55861098,0.07656275,-0.09533760,-0.38294759,-0.41507435,-0.73801279,-0.17628175,
0.35720763,-0.12647218,-0.12521559,-0.01169015,0.03278362,0.07349546,0.21326804,0.49973828,0.18133688,0.21011586,-0.65029371,0.23153569,0.62323380,0.20047727,
0.10930762,-0.71090919,-0.19012696,-0.00217591,0.17716406,0.24398467,0.26054689,0.17531793,0.23478505,-0.42536563,-0.44175312,0.27466583,0.14528322,0.06292249,
-0.54099709,-0.84366047,-0.51922548,-0.26847577,-0.36578888,0.09970299,-0.47533107,-0.87213647,0.13383923,0.13713290,-0.97925186,-0.76306826,-0.53949046,0.19928393,
-0.49785393,-0.21863453,-0.28387022,-0.13274910,-0.65887004,0.11406794,0.20867489,-0.13549456,-0.59358287,-0.18558256,0.43635470,-0.25559375,0.63849640,-0.16167279,
0.11852044,0.17894030,0.36742386,0.21041878,0.12643945,0.12440237,0.11877073,0.04445641,0.13737074,0.24220854,-0.12083040,0.20227754,-0.69101793,0.16295172,
0.12404417,0.04368263,-0.37259576,-0.06845581,0.05032177,-0.04776921,0.17485966,-0.01849404,-0.07464021,-2.97721767,0.64941341,0.02846736,0.42181060,0.08197103,
-1.55712271,-1.65177011,0.05939445,-0.01709881,-0.03357698,-0.09058081,-0.12711893,-0.00828471,-0.01844920,-0.22769031,0.45196822,0.00891173,0.50968546,0.01924613,
0.00984924,-1.48037767,-0.12098078,0.13931592,-0.09088517,-0.86332077,0.21611588,-1.54883015,-1.29977298,-0.69604552,-0.58959097,0.22000915,-0.29210815,-0.06824943,
0.11749866,0.23401801,0.13055278,0.26263461,0.27793604,0.23040999,0.25159237,0.38523051,0.29747090,-0.00498028,-0.22944172,0.39366886,0.87385023,-0.04880251,
-0.13410904,-0.13266642,-0.14185368,-0.71080625,-0.04359173,-3.30167556,0.09029139,0.10505248,0.22341913,-0.01928807,-0.20870762,-0.23925278,0.81435776,-0.22626303,
-2.75381541,-2.79194975,-2.55964994,-0.06885042,-2.12977457,0.12150674,0.10051204,0.08850098,0.06305663,-0.19088906,0.02122776,0.11616439,-0.07006373,0.16093941,
-0.40691295,0.28346813,0.26162106,0.18040048,0.37989214,0.02154334,-0.53372997,0.29114777,0.31296390,-0.10329743,-0.44008133,0.15841892,0.16252494,-0.17298670,
-0.26359484,-0.88822991,0.00523423,-0.04235338,-0.48217654,-0.06797050,-0.02240256,-0.58698058,-0.00907074,0.34023324,0.01750294,0.00220049,-1.95406687,-0.20938981,
0.32078180,-0.03902629,0.01231423,-0.73570520,-0.00458907,0.10635725,0.25610283,0.02390072,-0.12860808,0.00225725,-0.10363612,-0.08997583,-0.12781344,-0.03892469,
-1.07710183,-1.00586283,-0.65461922,-0.85667622,-1.08558726,-0.98811114,-0.99937403,-1.12542439,-1.10663927,0.09787985,-0.01409896,-0.01114789,-0.78264481,-0.17855389,
0.04771090,0.14718078,0.07207826,0.26466012,-0.33980989,-0.09893207,0.02558366,-0.41113156,-0.02299960,-0.25672677,0.21759896,-0.14873603,-0.37681931,0.21963678,
-0.22076502,-0.39457360,-0.33638984,0.09457001,-0.17368262,-0.12239006,0.02296394,0.03407696,0.10117771,-0.13935465,0.42383432,-0.21004775,0.54175264,-0.08595295,
0.04394676,-0.47075871,-0.04559907,-0.00555368,0.17506249,-0.77758008,-0.07208312,0.17447555,-0.78591222,0.22092879,-0.91317189,-0.15455925,-0.63410127,-0.17797627,
0.32840303,0.19498539,0.15759677,0.26100427,0.28815946,0.24231261,0.13583939,0.21580498,0.16066627,-0.16695288,0.16531295,0.51072329,-0.00616436,-0.16070144,
-0.09671374,-0.33372971,-0.26153341,-0.25002041,-0.18634923,-0.28745556,-0.35027188,0.07797600,-0.17375694,-0.35051954,0.63305610,-0.17148094,0.12091669,0.09767547,
-0.30529279,-0.08533864,0.02594453,-0.06025425,0.22221172,-0.55470651,-0.03511067,-0.31121153,-0.30377465,-0.26424339,0.40478057,-0.26731023,1.16440153,0.15939330,
0.10050973,0.02218906,-0.53462428,0.04597777,-0.13426392,-0.04588997,-0.04096768,-0.20282443,-0.02356436,0.01596913,0.21072447,-0.00394689,0.02031994,-0.21704370,
0.22388375,0.07853485,0.03693967,0.26783654,-0.04913921,-2.39993119,0.37616146,0.37134033,0.24950093,0.22901216,-0.56867480,0.34333527,-0.32821983,-0.00171076,
-0.17005435,-0.66400337,-0.76649898,-0.57475072,-0.23438284,-0.21382709,-0.07752406,-0.38978824,-0.68818355,-0.17548726,0.42368793,-0.21160030,0.74792284,-0.07327232,
-0.04734106,-0.06141086,-0.31858769,-0.02784558,0.03541207,-0.09383378,-0.08675291,-0.07783800,-0.09568273,-0.20317394,0.70557290,-0.04685265,0.76760745,-0.10974401,
-0.49571577,-0.47335050,-0.71652639,-0.13809374,0.11573551,0.12050625,0.02373459,0.18186142,-0.26568907,-0.57884675,-0.35843414,-1.09887850,0.06093257,0.19505791,
-0.02750253,0.03889133,0.03765573,-0.61390251,-1.31305313,-0.83556211,-1.76991487,-0.54304230,-1.18816185,0.17245488,-0.04511139,-0.00474000,-0.33588186,-0.25288600,
-0.05514835,0.04350528,-0.56377876,-1.04170859,-1.82197189,0.07096487,-0.44068286,-0.89944357,-0.81050313,0.04262118,-0.60992455,-0.43676549,-0.19192915,-0.20057945,
-0.03848814,-0.04768236,0.00774672,-0.03953243,0.01636077,-0.02460870,0.52942574,0.22955188,0.28421316,-0.23542300,0.41025010,-0.00667829,0.40487757,0.17767528,
-0.04990987,0.27109504,0.38748276,0.25082725,0.29195258,0.35408229,0.32857737,0.23285925,0.18984568,0.14244382,-0.18448724,0.14719707,-1.53833854,0.20951657,
0.06829642,0.11091421,0.19556728,0.15290678,0.11662211,0.08542133,-4.14047766,0.07855865,-0.00805278,-0.09418957,0.30690467,0.10169227,0.43757120,-0.23793039,
0.05384387,-0.60350800,-0.86219788,-0.42092910,0.09987117,0.05992874,-1.09426343,-0.75603157,0.13852398,0.23162341,-0.05017572,0.02999425,0.12743306,0.04706541,
-0.44527313,-0.96020830,-0.37810630,-0.91156989,-1.47400749,-1.85667765,-2.35952401,-2.21202374,0.05685274,0.01087259,0.18262941,0.04070534,0.10900617,-0.00835105,
0.13702305,-0.00017774,0.12442912,0.20680596,0.06810370,-0.31437087,0.03848759,-0.54952663,-0.30609140,0.26113513,-0.95453590,0.27389359,-0.41461897,0.09632183,
0.00653786,-0.02011836,-0.70471168,-0.08886001,-0.07391112,-0.72533709,-0.34265113,-0.68799651,-0.94329470,0.36278114,-0.15899514,0.09968255,-1.86713386,0.20200194,
-1.09018207,-2.65292907,-2.30356121,-2.02799368,-1.55298984,-1.53705001,-1.44224060,-0.38686433,-0.66694069,0.18899071,-0.15671204,0.15436597,-0.15341990,0.17744032,
-0.22616847,-0.27975509,0.02477493,-0.43250516,-0.91025060,-0.11877383,-0.07796403,-0.32751977,-0.16120829,-0.24971513,0.46398583,-0.62976527,-0.26758149,-0.01110134,
-0.04847882,0.01984037,-0.03096636,-0.46594575,-1.26409602,-0.08727518,-0.07520110,-0.16346057,-0.11406317,-0.38763931,0.48279887,-0.05141461,0.07254471,-0.03193655,
-0.77803457,-0.01827835,0.13347679,-0.05925385,0.06557042,-0.12145353,-0.00357453,0.09652383,-0.12657796,-0.46517679,0.22082056,-0.21245106,0.45599994,-0.22496553,
0.15787750,0.01532313,0.03833355,-0.00002342,0.05643684,-0.02622845,-0.62686485,-0.06704414,-0.00026860,0.22878449,0.06258263,0.09890977,0.40970734,-0.15747848,
0.04218883,0.03536841,-0.02708589,0.07623567,-0.06119144,-0.02039164,0.10852785,0.00026057,0.15513808,-0.51556247,-0.17183368,0.05478391,0.58576411,-0.18216471,
-2.92612863,0.21714467,0.15664349,0.15810074,0.14676952,0.00488628,-0.04501598,-0.00434184,-0.00431380,-0.16903415,0.38150722,0.10380314,0.58739394,-0.03680725,
0.78533149,0.37190291,0.24461713,-0.04761996,-0.19364715,0.24421208,0.21772678,0.11775442,0.00145664,0.12305304,-0.14270848,0.00272563,0.16114190,0.02265085,
0.31852478,0.02189477,0.05571187,0.23117813,0.13627912,0.24987882,0.25325841,0.17108345,0.19335723,0.24039011,-0.14862046,0.04237619,-1.69157970,-0.16911392,
0.02453563,-0.44457179,-0.59684479,-1.03900814,0.01230695,0.06267065,-0.39581615,-0.08919119,-0.09896071,-0.10477775,0.32983255,-0.76897228,1.56974709,0.15133239,
-1.19886315,-1.46385372,-1.30961037,-1.30747509,-1.14747918,-1.48233104,-1.35233974,-1.63800037,-1.48081827,0.16026419,-0.06411616,0.08963705,-0.63338405,0.25420216,
-0.22502892,-0.31885871,-0.07520942,0.13375492,0.06397264,0.15279262,0.21795155,-0.10615470,0.17112003,-0.20549595,0.24379729,-0.11342463,0.70477527,0.14079855,
0.02808107,0.27470064,0.22834376,0.60707158,0.62041062,0.21970747,0.33437112,0.19648218,0.20437704,0.18426917,-0.20742039,0.15358740,-1.55275083,-0.11097317,
0.48736081,0.67253840,0.68995494,0.63606554,0.60191536,0.57047600,0.04329583,-0.00481867,0.07028864,0.21307100,-0.20749234,0.02725439,-0.34754318,0.24223092,
-0.05944791,
0.13799366,
-0.27152202,
-0.37730342,
0.08814634,
-0.36248800,
-0.34912947,
-0.21261828,
-0.13982828,
0.00791586,
-0.08736455,
-0.00168819,
0.26915067,
0.43338236,
0.14885749,
0.37552860,
-0.06242390,
0.15616341,
-0.21602291,
0.17524913,
-0.05895242,
-0.05663277,
0.22125149,
-0.23968668,
-0.07398082,
0.12301878,
-0.04103437,
0.28860238,
0.12484287,
0.01878422,
-0.11793332,
-0.29405212,
0.16037941,
-0.45587134,
0.42214236,
-0.12201943,
-0.36740896,
-0.29346371,
-0.31606391,
-0.31648874,
0.15155397,
-0.06778074,
0.12819242,
-0.38330561,
0.00186423,
0.13798733,
-0.02772630,
-0.24807222,
-0.12208702,
0.25159448,
0.30354255,
0.28935629,
-0.30621552,
0.05761483,
-0.15776409,
-0.21608716,
-0.24256921,
0.03869740,
0.13517377,
0.24824347,
-0.11949247,
-0.17317456,
-0.56968063,
-0.00006025,
0.16503838,
-0.25031182,
0.31207138,
-0.29711646,
-0.19436111,
-0.35824016,
0.26076338,
-0.23389275,
0.44370967,
0.14745413,
-0.05108543,
0.18850309,
0.07560684,
-0.11055016,
-0.38077208,
0.33019802,
0.40840241,
-0.72095174,
-0.34692830,
-0.07236882,
-0.02197038,
-0.21954158,
-0.14350821,
0.04100975,
-0.07289609,
-0.02092326,
0.13309556,
0.23572481,
-0.05654700,
-0.16347158,
-0.25814015,
0.40090162,
-0.27723157,
0.33007738,
0.18475689,
-0.02056780,
-0.13862513,
0.06039000,
-0.25118187,
0.34036902,
-0.74988514,
-0.07241815,
-0.60145354,
0.29750121,
0.41098854,
0.01957687,
-0.21984939,
-0.00386368,
-0.27385008,
-0.08571893,
-0.21180610,
-0.01966399,
0.05847082,
-0.32857177,
0.41832253,
-0.25561988,
-0.12186873,
0.26902002,
0.01073454,
-0.53077155,
-0.03065872,
-0.27507666,
-0.14143051,
0.18473703,
-0.05770773,-0.31721562,0.19692886,0.04661688,0.12041314,-1.26497304,-0.03032160,0.15373258,0.05781489,-0.02830678,0.14501432,0.12820663,0.22238882,0.13617072,-0.08813059,0.05809496,-0.04215865,0.22598910,-0.15464261,0.43048859,0.19923459,0.01443443,0.16236222,-0.26433504,0.44286606,-0.14367969,0.03351643,0.09800877,-0.27357030,0.12522656,0.13723746,0.20616482,0.59311843,0.05607313,0.14064839,-0.12169886,0.25846946,-0.19135141,0.43699500,0.19378909,0.43037573,-0.75099254,-0.10877834,0.26516148,0.21578488,0.38467160,0.20534711,0.18407209,0.30489326,0.10477310,0.27084038,-0.54000407,0.16760707,-0.19581859,-0.06907471,0.34043965,-0.24430124,0.05774069,-0.04214100,-0.11984196,0.05861798,-0.19987956,-0.00464531,-0.06220515,-0.68700874,-0.12663949,-0.39045051,0.05274102,-0.25990033,-0.19204281,0.18781205,-0.16325298,-0.44765362,-0.59096408,0.20202492,-0.30787686,-0.15387256,-0.32480481,0.13781565,-0.03409455,0.07254961,0.54370189,-0.11696317,0.13571295,0.10553474,0.06499629,0.14804539,0.12044281,0.05777324,-0.27747774,-0.00731182,-1.34828949,0.11224850,-0.77568823,0.12217040,0.19498482,-0.18279579,0.20958190,0.01058378,0.01279169,0.06038303,0.32053661,0.01669298,0.16461217,-0.16556351,0.19025069,-0.22775924,0.03985102,0.22108641,0.14607570,-0.09820466,-0.54627216,0.46394634,-0.74031347,-0.73927307,0.06279629,-0.04262772,0.15451153,-0.07999126,0.15934297,0.12737325,-0.36054978,-0.02862987,-0.05871362,-1.15901566,-0.13810642,0.20539542,-0.29919440,
-0.14505726,-1.71332276,-0.05503477,0.15261117,-0.00355938,-0.43610901,-0.24462402,0.16437183,-0.05618262,-0.07396725,0.04446289,0.14817436,0.10813000,0.14104761,-0.63065159,-1.78282702,0.07618007,-0.29880896,-0.21856649,0.70984977,0.01859792,-0.01481020,-0.07144611,-0.22452591,-0.06677787,-0.18302874,0.13505894,-0.30398113,-0.39047518,-0.63089508,-0.17101669,0.04272323,0.21521427,-0.31975609,-0.64883620,-0.11686639,0.32379022,-0.65877795,-0.07650448,-0.42330888,-0.36610287,-0.90051699,-0.00777559,-0.13295019,-0.17329730,0.09139965,-0.01895761,0.02042991,0.18138866,0.08386715,-0.21931709,-0.16517776,-0.06057633,-0.13598165,-0.19422793,-0.10307724,0.01283795,-0.06030038,-0.28772902,-0.16823794,-0.23998788,-0.81762904,0.16962047,0.35902596,-0.83123547,0.19625111,-0.30033049,-0.27309453,-0.50180459,0.05204412,-0.50262356,-1.41319919,-0.66684109,-0.82966435,-0.28618816,-0.28149661,0.14599423,-0.45629692,0.05019762,-0.43849036,-0.05428986,-0.70968854,0.32344338,-0.12679303,-0.00105778,0.03606271,-0.18380165,-0.07384717,-0.02093025,-0.38879818,-0.24776591,-0.22645371,0.21968456,-0.57511795,-0.01395350,0.25749016,-0.21770325,-0.08062480,0.18890300,-0.10195385,-0.16069928,-0.06593806,-0.16463602,0.10994618,0.09081940,-0.39198115,-0.18943030,-0.04165052,-0.11220171,-0.07025936,-0.55340612,-0.95098573,-0.42900553,0.01079999,-0.36969051,0.22684297,0.11551221,0.22132435,-0.30161691,0.28636107,0.10275283,-0.40239331,0.12644905,-0.09414805,-0.61760926,-0.05156810,-0.24677649,-0.53308493,
-0.01451579,-1.75399137,-0.07089137,-0.03026810,0.36337167,-0.42089060,0.14291665,0.03808774,0.05783040,0.01382511,0.04972399,0.18599501,0.16851494,0.29153943,-0.49570173,-1.26057541,-0.37009054,0.01079647,-0.32795787,-1.16328681,0.03373490,0.27595994,0.17180423,0.01556372,0.39239687,-0.46182686,-0.21017805,0.10884498,-0.52145237,-0.99813229,0.18563536,0.06776879,0.34290859,0.78967953,-0.14487171,-0.15999308,0.30524418,-0.32243264,0.15994096,-0.07489441,-0.14463523,-0.79349816,0.06211784,-0.08720848,0.11856893,0.25917917,0.42905691,0.04103008,0.31282386,0.13998811,0.01462168,0.19353527,-0.04606211,0.01118437,-0.23403724,-0.18270791,0.25333133,0.07709555,-0.41688770,-0.20614369,-0.02448033,-0.80971819,-0.02927381,0.41117510,-0.91017479,0.02523704,0.02258996,-0.13869505,0.01079742,-0.32996488,-0.16047485,-0.57004058,-0.68445897,-2.08792424,-0.26765460,-0.19908328,0.06544621,-0.55520159,0.07770847,-0.28083211,0.04393459,-0.05251536,0.18662617,0.24359496,0.38498139,0.11764353,0.11930306,0.10037217,-0.08812562,-0.55525047,-0.10309838,-0.13314514,0.07507644,-0.49848312,0.28908429,0.34285602,-0.68833834,0.07421755,0.27963606,0.11149231,0.31509647,0.20405854,0.08410513,0.39989883,-0.09731012,0.24427302,0.17171380,-0.06392238,0.11702024,-0.00003393,-0.18679683,-0.93954414,-0.64477348,0.32499632,-1.18669522,0.28956440,0.32016590,0.08379812,0.09782782,0.20312531,0.25044680,-0.27556536,0.36378202,0.07223894,-0.50983006,0.03624292,0.10858660,-0.42395666,
-0.47501007,-0.33693373,0.34486449,-0.33806196,0.10527926,1.12849712,-0.46078172,-0.10488290,-0.12404089,-0.00982629,-0.05230450,-0.24436739,-0.25047365,-0.05030594,-0.03872560,-0.57102418,-0.10998863,-0.77481776,0.12778407,-0.18902500,-0.19073500,0.08447186,-0.25165921,0.14181980,-0.32112214,0.13336793,-0.22311570,-0.77606392,-0.39146340,-1.29722869,-0.06914712,-0.49374148,-0.04870298,-0.29859120,-0.60534650,-0.23213886,-0.16399400,0.01002949,-0.19562423,-0.43382075,-4.16113567,-0.07519530,-0.14796130,0.03189763,-2.51369357,-0.52366298,0.09462812,0.20068426,-0.26383933,0.32793799,-0.28898886,0.51275790,-0.08080751,0.41422918,-0.16435526,0.21383746,-0.09701378,-0.58350295,0.25122043,-1.41617632,-0.66182166,0.26259935,0.17482571,0.48616379,0.15916231,0.15231919,-0.03666168,0.34498572,-0.05011287,-0.14612804,-1.21841979,-0.12982908,0.28120035,-0.22779784,-1.15037203,0.14007987,-0.01652246,0.31763634,-0.14489022,-0.87044299,-1.87346315,-0.01523767,0.31771982,-0.25159770,0.23122941,0.12219433,-1.89492667,-0.43185994,-0.11800634,-0.05801025,-1.09813976,0.65345770,0.09942560,0.39015394,0.17445871,0.12790021,-0.38170713,-0.11017773,0.20714167,0.34716812,-0.08538968,-1.13350475,0.20047091,0.25814006,-0.21374595,-0.12047189,-0.05684589,0.33637723,-0.59351820,0.17848481,0.09785967,0.22903885,-1.36143422,0.50489938,-0.43737325,0.20412852,0.34409982,0.08596743,0.07610977,-0.15516602,0.06300886,-0.15210281,0.11530008,0.40306568,0.94889712,0.18677644,-0.38270816,-0.28909838,
0.11500859,0.19881141,0.41598818,0.14267616,0.06731989,0.30917186,-0.00980096,0.02975873,0.19502671,-0.15348381,0.29247680,0.09824246,-0.05868534,0.38524443,0.10016791,0.00609382,0.08327740,0.31301621,0.27735829,-0.40904993,-0.44852111,0.47102112,0.45748907,0.45954084,0.03776038,0.33765572,0.10847905,0.34141478,-0.13611627,-0.49491781,0.08676827,0.20188151,0.00299847,-0.04651504,0.25751263,0.28718561,-0.08151817,0.46290410,0.12918027,-0.21143289,-0.58332121,0.71310753,-0.25163299,0.43895435,0.15764260,0.31599164,0.76395863,0.18014590,-0.32457349,-0.09254262,0.57413369,-0.00602303,0.45839146,0.07801016,0.16244015,-0.13366175,0.11467072,-0.01788529,0.36841556,-0.03749616,-0.16188377,0.19972026,0.21434452,-0.03610996,0.44440028,-0.18183215,0.25101167,0.51343739,0.02089715,0.04716256,0.38912407,0.19234161,0.22277822,0.50816911,-0.63363510,-0.30482429,0.18592316,0.19904952,0.09399013,-0.22449821,-0.55311811,-0.29431900,0.01024209,0.35326412,0.45315510,0.51336712,-0.08197339,0.32102931,0.22400162,0.39857858,-0.30063727,0.60144418,0.07274111,0.92509693,-0.35211641,-0.01781471,-0.25924999,0.42150101,0.18618986,0.10804228,0.35126874,0.08061007,0.10560517,0.35917866,-0.13039552,0.08690761,0.03923078,0.22212385,0.23140818,0.29135802,0.17005804,0.09730395,-0.67543960,0.61983305,0.58407849,-0.11505440,0.18078510,0.12087995,0.34877145,0.06632425,0.42883819,0.10386513,0.17666452,0.11048418,0.58083409,0.15240331,0.00930601,0.13097171,
-0.23676826,-0.09134336,-0.02403304,0.36225227,0.00669111,-0.47715732,0.56119746,0.32567909,0.09373057,0.35262966,0.22034037,0.23837404,0.22760382,-0.03898939,-0.80466819,-0.68415719,0.08462092,-0.20338315,-0.08379138,-0.53685790,0.32072398,0.12751299,0.06824203,-0.12168683,0.12688552,-0.10950435,0.50003165,-0.02299765,-0.27178490,-0.89289230,0.02756340,0.25808701,0.48740923,0.31553197,-0.69704199,0.10062847,0.44821477,-0.54156303,-0.32025933,-0.67986864,-0.18260610,-0.47493401,0.17638882,-0.03209478,0.33960500,0.25241655,-0.00087925,0.65998656,0.09910739,0.13014080,-0.14843667,-0.17313860,0.03353474,-0.35782361,-0.02640376,-0.11576300,-0.35963386,-0.36780706,-0.02080644,0.29859003,-0.25132662,-0.63500148,0.04778288,0.35771677,-1.83593643,-0.13224593,-0.48933628,-0.19683382,-0.94670194,-0.14677674,-0.14321952,-0.87983233,-0.42632338,-0.79366076,0.37156868,-0.52535385,-0.14086165,-0.68138731,-0.32834992,-0.19153045,-0.15040421,-0.34361577,0.35165405,-0.17830056,0.15981008,0.06000036,0.04392540,-0.00295261,-0.19304292,-0.36540481,-0.40852931,-0.97507840,0.18492004,-0.81617403,-0.17496079,0.18470296,-1.19750679,-0.03218395,0.09915683,0.00995386,-0.00140744,0.01671031,-0.17449573,0.18177746,0.15080976,0.14855234,-0.38760349,-0.00704560,0.08006649,-0.17337167,-0.46713063,-1.01221669,-0.89816481,-0.59691042,-0.89781797,0.15464924,0.38836509,0.32304707,-0.58154464,0.26137179,0.14813101,-0.60457104,-0.25716016,0.33485904,-0.72753906,0.20305692,-0.20727874,-0.60647750,
0.09774766,0.09208086,0.21670224,0.13064186,0.23992968,0.31879741,-0.05554993,-0.07626123,0.28801611,0.12331095,0.08352662,0.23300490,-0.07356144,0.34804246,0.14321202,-0.23650846,0.13458413,0.42571169,0.26296613,-0.46499601,-0.38906008,0.47368956,0.29230422,0.45841968,-0.09247886,0.23113720,-0.06599897,0.38828036,-0.06139639,0.01006372,0.26620856,0.16613257,0.15384239,-0.07487242,0.35425234,0.16079669,-0.17852959,0.24865255,0.05401209,-0.13641973,-0.36437431,0.43743002,-0.26659191,0.28317082,0.05727681,0.26238319,0.59660524,0.06496645,-0.05470189,0.23209646,0.45800123,0.65873551,0.20534049,0.12782143,0.00127161,0.17090127,0.22324865,-0.02811684,0.16249472,0.11748753,0.03316914,0.08423281,0.06601331,0.03464234,0.35442004,0.18555881,0.37989306,0.38436729,0.03698383,0.05272500,0.53207225,0.38765430,-0.00410921,-0.00106852,0.17932962,0.30302617,0.14593710,0.02471847,0.13236560,-0.20839357,0.22782268,-0.52007300,-0.07217652,0.42219511,0.50715339,0.41183934,0.08833461,0.31859079,0.12069049,0.16972831,-0.25576985,0.64606339,0.21881638,0.99167633,0.13965517,0.12767373,0.25760323,0.44063157,0.24211606,0.19346325,0.42111909,0.10399833,0.10486158,0.45844984,-0.08688593,-0.03576077,0.16028953,0.18823454,0.18517642,0.24921295,0.04832979,0.02251414,-0.91416389,0.68258214,0.45712936,0.16717763,0.27450475,0.11821274,0.30677065,0.12845266,0.40627211,0.21663848,0.17876449,0.09577701,0.86476570,0.07474789,0.17092964,0.24764843,
-0.02099021,-0.03287824,0.04282015,-0.02451599,-0.03048304,-0.03893212,-0.06916011,0.01129128,-0.14863808,-0.16633625,-0.17561646,-0.10465089,-0.06035838,0.02978990,0.04663238,-0.10987929,0.03572680,-0.10249002,-0.10067469,-0.03977168,-0.07946932,-0.01672773,-0.03036981,-0.05131314,-0.06278986,-0.11778481,-0.09962463,-0.07823689,-0.05809032,-0.06940497,0.00651774,-0.13373393,0.04406821,-0.00166918,-0.08420754,-0.01641180,-0.08718354,-0.03708521,-0.05381899,-0.02056115,-0.03867993,-0.04452170,0.00167155,0.00551930,-0.02844452,-0.11906828,-0.17988789,-0.11588812,0.03700705,-0.09815194,-0.00863758,0.03492006,-0.20919195,0.00399064,-0.11594842,-0.08712724,0.03903536,-0.02603716,-0.06009505,-0.06233900,-0.09471962,-0.14737815,-0.01622258,0.02466708,-0.02217085,-0.11214020,0.01744832,0.05705310,0.05940173,-0.09347865,-0.10386748,-0.11925472,0.04322826,0.01535983,0.04079097,-0.13436727,-0.07755610,-0.09731656,-0.03138999,0.07458465,-0.07894696,-0.09119575,0.04157827,-0.08166784,-0.12097667,-0.00862122,0.07955271,-0.02559067,0.01161302,-0.00487016,-0.01277989,0.05804757,0.00939842,-0.07418116,0.03320560,0.03786958,-0.08523235,-0.05399359,-0.03096569,-0.13934714,-0.08554509,-0.06257350,-0.00800625,-0.10935327,-0.02415124,-0.10392593,0.04277450,0.00192451,0.02783481,-0.00196602,0.01234561,-0.01120665,-0.04493785,-0.07775708,-0.12389440,-0.09503599,0.04972718,-0.02846667,-0.01356520,-0.09661742,-0.04313287,0.00120881,-0.03851901,-0.01340135,-0.09130511,-0.05227834,-0.08994544,0.02784291,
-0.06410199,-0.05798557,-0.10628065,0.04080512,0.00011497,-0.10123824,-0.10780103,-0.03592406,-0.10550691,-0.05662464,-0.08019440,-0.08706093,-0.01785640,-0.02593050,0.03743484,0.02096957,0.00359657,-0.02818571,-0.02486498,0.04414616,0.06927481,-0.04394744,-0.05582783,0.01411451,0.04604047,-0.11031284,-0.04737526,-0.01919921,-0.03730015,-0.08346070,-0.05685879,-0.00381190,0.05542783,0.05246736,0.05240533,-0.06534833,-0.03729587,-0.00292294,0.04514723,0.02378628,-0.03385184,-0.08587279,0.03970053,-0.10369240,0.06045873,0.06621556,-0.07277987,-0.01259446,-0.05851221,-0.11692885,0.06580707,0.04585561,0.06841455,0.03091648,-0.09017406,-0.01795036,-0.02837412,-0.06283914,-0.10501079,-0.01646638,-0.05401761,-0.04479138,-0.05461166,0.03335775,-0.07105625,0.02940866,-0.04025239,-0.00654199,0.00001198,0.00765562,-0.03762511,0.04524472,-0.02487827,0.05515955,-0.12925871,0.01500145,-0.00332944,0.01306916,-0.08246684,-0.05570216,-0.01470765,-0.09652249,-0.09410494,-0.10187519,0.02341446,0.00364732,-0.05549679,0.08040203,-0.09068596,-0.09783308,0.05083280,-0.05960188,-0.06850102,-0.04399317,-0.04559192,-0.09863635,-0.08512254,-0.05662287,0.00439462,-0.09388927,-0.02992813,-0.06770929,-0.00913861,0.01971281,0.04498656,-0.00952655,0.06222744,-0.00499906,0.02593189,-0.06671149,0.05575678,-0.00577961,0.02252922,-0.03530497,0.02743997,-0.11916296,-0.05568312,-0.00584288,0.04383911,0.05591633,-0.01820914,-0.03565107,-0.03295183,0.02164353,-0.00351325,-0.07957045,-0.03674902,-0.02298010,
0.10582526,0.49278733,-0.16766992,-0.26584119,-0.74714285,0.84141022,-0.28087610,-0.02463984,-0.02980908,-0.05323425,-0.10688525,0.03407486,-1.13945496,-0.66505593,0.12801626,-0.06121869,0.24904288,0.62611508,0.65242940,-0.10681706,0.17347489,-0.39949590,0.53316730,0.54085141,0.33004218,0.40657797,0.08265610,0.03617995,0.11525534,0.31626117,-0.73554981,-0.27362505,-1.64627874,-0.14632422,0.01769177,0.03492532,0.32062814,0.84612942,-0.08817959,0.34678587,-0.13446927,0.40723521,-0.31065914,0.56975043,-0.13310984,0.00072470,-0.58595961,-0.26298058,0.02301238,-0.14313881,0.83916938,-2.23652720,0.52095491,-0.03234236,0.34032494,-1.20681012,-0.68687224,0.36051413,0.49753228,-0.11823492,0.05952795,0.95656973,-0.17058732,-2.80519509,-0.00028539,0.50648367,-0.11256008,0.89723247,0.67388922,0.42503083,0.14123645,0.15445939,0.50011837,0.56840205,-0.35705042,0.37181431,0.36039072,0.52513963,-0.36187169,-0.44961262,-0.20739380,-0.24114092,-0.16615567,0.02974646,-0.67579442,0.12465124,-0.68789399,0.77061307,0.09014966,0.35143259,0.01336143,-0.02521184,-0.07157397,0.91119540,-0.26531276,-0.93348563,-0.46947053,0.87863863,-0.47539765,0.15495014,-0.52829397,-0.03494029,-0.63501805,-1.06298041,0.36864430,0.23959097,0.26615626,0.79400295,0.17336091,-0.09768363,-0.01102858,-0.13319367,0.01539538,-0.06546262,0.22606994,0.37676194,-0.91009253,-0.02907736,-0.23304278,-0.31654099,0.02921860,0.34983784,0.12845659,-0.08758634,0.02302583,0.53918678,0.02598045,0.85859698,
-0.96157742,0.09780966,-0.31282246,0.00984597,0.04865677,0.00225441,-0.32720998,0.07097575,0.00615521,0.69783741,-0.05935911,-0.01397138,-0.10853691,0.10864826,0.56771302,-0.51026344,-0.17098907,-0.27944517,0.00461679,-0.31116787,-0.20709433,0.13561787,-0.04275053,-0.73552138,0.39600360,0.18263206,-0.24451271,-0.82922041,-1.44829488,-0.94699275,-0.70942122,-0.60790098,-0.26865044,-0.42026174,-0.20125470,-0.39642414,0.35907724,0.44266522,-0.33494762,-0.54023021,-2.89419150,-0.66911447,0.00871626,0.04758513,-1.29392111,-0.29744262,0.40240192,-0.16165848,-0.05754567,0.32800817,-0.37341094,-0.01397283,0.15245990,0.21698700,0.17213316,-0.48464224,0.03593817,-0.34254846,0.23097293,-0.32342443,-1.22896647,0.51920331,-0.15052509,0.35042435,-0.12216373,0.26848048,-0.26954904,0.25606257,-0.37974918,-0.31330958,-1.48354065,0.40101209,0.16639309,-0.24390368,-0.62328380,0.27271131,-0.04557774,0.42138794,0.01698586,-0.85029101,-0.90297592,-0.25593913,0.15001218,-0.19140442,0.73126853,0.15244032,-0.93126053,-0.17445752,0.85561132,0.02553556,-0.68266523,-0.35406405,-0.06137712,-1.13511157,-0.12589914,0.33862215,-0.56899148,-0.20837101,0.10649858,0.11996724,0.10347862,-0.98683977,-0.08315925,0.12245769,0.20383015,0.73653799,-0.59953070,0.65461683,-0.93399256,0.00323787,0.47093007,-0.54938275,-0.96441734,-0.21647443,-1.30066311,-0.07436494,0.15837082,0.00833892,0.24248590,-0.10074837,0.02613625,-0.51376194,-0.71285450,0.53414589,-1.34816229,0.09844978,-1.02750349,-0.93408811,
-0.17524865,-1.31059265,-0.15874447,-0.35168463,-0.12872303,0.57473183,-0.41082817,-0.80015141,-0.16344352,-0.04391999,-0.28271052,-0.39721915,-0.64076853,-0.24294278,0.03422648,-0.61495674,-0.06726965,-0.45757341,-0.14964785,-0.14801592,-0.08011545,-0.23662896,-0.19573197,0.22725511,-0.17373690,-0.12600335,0.06749404,-0.20992616,0.12914020,-0.99794894,-0.35058898,-0.31219572,-0.78816527,-0.14111733,-0.21921237,-0.17889705,-0.02539278,-0.08422763,-0.08513299,-0.09121226,-1.30233955,0.45930809,-0.39763692,-0.11977076,-0.46391323,-0.36000788,0.08025131,-0.24408509,-0.10903849,-0.55318481,-0.14009669,0.60206401,-0.05357279,-0.30124152,-0.16096720,0.31376851,0.07829510,-0.20853463,-0.18072166,-1.48196864,-0.83792508,-0.07126253,-0.17132004,0.00314230,0.15104158,-0.15856440,0.33727908,-0.02676134,0.34012878,-0.14033949,-0.30124873,-0.01758668,0.07204764,0.10102771,-0.64801723,-0.04286407,0.20217958,-0.12807854,-0.44707948,0.17022642,-0.36499819,-0.27253681,-0.44628924,-0.20146540,0.06837044,-0.09573650,-0.75358891,-0.23365641,-0.09325665,-0.05230884,-0.31531397,0.64961141,-0.44292554,0.62519503,-0.32010984,-0.30963570,-0.22420044,-0.07045350,-0.20255418,-0.23142256,-0.24046646,-0.83515942,-0.08204279,-0.14500020,-0.42395645,-0.02514567,-0.32796738,0.16123733,-0.41987118,-0.22322500,-0.03328854,0.07700083,-2.41730762,0.27541950,0.44077682,-0.13719741,-0.04186215,-0.18454041,-0.10951205,-0.23309334,-0.25301674,0.36671773,-0.26612449,0.07153394,0.75284642,-0.71030939,-0.45599750,0.28723171,
-0.32373366,0.22781880,-0.04551956,0.06165931,0.20079988,0.81188112,0.02819092,0.10545781,-0.04848223,-0.34680498,0.04967974,0.09331144,0.09549423,-0.16066632,0.02312705,0.19340387,0.18592206,0.05973553,0.13980784,0.11863865,0.19455458,0.11171057,0.20834464,0.26734912,0.08345880,-0.01147111,0.39423290,0.10732275,-0.04608539,-0.08111834,-0.23554015,-0.00861243,-0.57704842,1.07562459,0.60677195,0.01102958,0.37514395,-0.23476605,0.02956542,0.14588659,-0.36897331,0.14669874,0.09430962,0.14551052,-0.00108002,-0.12578201,0.28092885,0.02903758,0.00136431,-0.63596231,0.22071375,0.02485988,0.29702890,-0.09081803,0.36346120,0.18458508,-0.25956807,0.05093754,0.16584241,-0.01649673,-0.00149580,0.00077163,0.08050280,0.42149830,-0.24185653,-0.47482312,0.36607045,0.07924864,0.00414203,0.22511353,0.35293704,-0.39921963,0.38568613,0.79465532,-0.28689939,-0.32044944,0.52158636,0.26236397,-0.12187603,0.28852263,-0.32230586,0.76235378,0.57531017,-0.06755247,0.39687213,-0.03117517,0.05866322,0.19260335,-0.03385649,0.00581144,0.29121196,-0.37806779,0.06421189,0.28089121,0.07489435,-0.06820311,-0.41146287,0.24052520,0.20046423,-0.35121363,-0.10547756,-0.30326074,0.10373110,0.11730867,0.83800846,-0.24059850,-0.11928630,0.63238436,-0.03110543,0.16212219,0.02054427,0.29959273,-0.44296762,0.15130343,0.41454434,-0.04927178,0.55213064,0.11963785,-0.07219170,0.04643448,0.01358455,-0.02649677,-0.53006011,0.33276704,0.03208710,0.47043097,0.16909827,0.03368185,
0.15716003,0.26887935,0.15331273,0.06795869,0.17404008,-0.94493657,0.00455319,0.02459589,0.09081984,-0.10680453,0.22450572,0.04673186,0.22475502,0.18838279,-0.03252254,0.34876350,0.03796325,0.07938526,0.23955828,-0.47098029,-0.18742934,0.17160675,0.17107204,-0.15996175,-0.05486444,0.28270555,0.37800053,0.10261592,0.28645119,-0.45440173,0.55479825,-0.11503042,0.08035990,0.25611347,-0.40963501,0.22195442,0.07257924,0.13073532,0.29033184,0.26831368,-0.35679007,0.22150937,0.23167743,0.33278269,0.02842113,0.10352221,0.18283693,0.31686419,-0.07918622,0.33189949,0.13511977,0.29755324,0.48141071,0.06653191,0.08000775,0.29906246,-0.27380621,-0.26013097,0.25920692,-0.16121632,-0.24384177,0.10884099,0.01530590,0.25861120,0.12805945,0.07249186,0.22394307,0.27017421,-0.54155761,-0.26794845,-0.00949801,-0.00150475,-0.03875418,-0.22718708,-0.10787687,0.13086104,-0.52436930,-0.12208412,0.02333783,-0.32145059,-0.13141035,0.22931828,-0.10092385,0.17342855,0.03882084,0.18048760,-0.12876883,-0.07954728,0.07582352,0.05778437,-0.17236187,-0.13800009,-0.00969208,-0.01943093,0.10323460,0.08332387,-0.02430606,0.20158567,0.15283048,-0.22154507,0.14364396,-0.09310526,-0.17648092,0.16240957,0.53274482,-0.19713780,0.11847689,0.11109398,0.07290608,0.26846522,-0.09342910,-0.23365399,-0.24838787,-0.09063021,-0.03449652,0.09345091,-0.08064523,0.13062543,0.05710566,0.12426405,0.24380280,-0.23219068,0.17734647,0.06190141,0.42155883,-0.00233219,0.23059429,-0.23777272,
0.00483364,-0.01511026,-0.00470692,-0.03534506,0.03467559,-0.04438494,-0.06362674,-0.07264947,-0.04835131,-0.08304324,0.01220018,0.00752895,-0.02121943,-0.01997287,-0.03563652,-0.04839535,0.03772257,-0.02145772,-0.00603788,-0.04066316,-0.04676292,-0.10236929,-0.04339874,0.07820696,-0.02303872,-0.00520315,0.05546266,0.05882033,0.04848177,-0.08438876,0.05771232,-0.09383055,-0.00847070,0.02510406,-0.09618564,0.00426289,0.00379619,0.05202750,-0.00214345,-0.03129124,-0.04864220,-0.07950117,-0.02208529,0.01060405,0.06167154,-0.07958619,0.00010269,0.03675639,0.03426878,0.06493019,-0.05520781,-0.02735061,0.02253430,-0.06250436,0.02771021,-0.02990702,-0.08793034,-0.05899604,-0.01856277,-0.02339697,-0.06142896,-0.04183455,-0.08545751,0.03734689,-0.01172803,-0.09332655,-0.02553908,-0.04013802,0.04500800,-0.03241619,-0.01920976,-0.05434952,-0.00748859,-0.08082581,-0.00166143,0.02390937,-0.07010966,0.06873878,0.03947622,-0.03067286,-0.04816863,-0.01281115,0.02405242,-0.00877901,0.05134043,-0.07221851,-0.05088681,-0.08563709,-0.03503827,-0.00273812,0.04035160,0.08416136,0.01998269,-0.02137091,0.01626422,-0.08167627,-0.09049176,-0.04605250,-0.09678569,-0.00753798,0.05415859,-0.03470100,-0.09329478,0.04621573,0.05292134,-0.04018471,-0.04303152,-0.06638206,-0.05150891,-0.03619577,-0.03588924,-0.08062924,-0.07485843,-0.01024858,0.03552407,-0.08996723,-0.03805347,0.06109791,-0.02432722,-0.03685150,-0.07902780,0.05683805,-0.06162997,-0.05200395,-0.05902072,-0.06447391,-0.04443261,0.01305060,
0.12549686,-2.25477457,0.02011839,0.08379344,0.24786454,1.00831103,0.16173230,-0.17161809,0.14286040,-0.12605341,0.14437646,0.07864347,-0.11477926,0.12574263,0.40103799,-2.14496589,0.06841783,0.03463621,-0.16752607,-1.44169688,0.07996165,0.28504375,0.23211816,-0.05414807,-0.14876564,-0.45446259,0.33112872,-0.06168443,-0.62911940,-0.94899619,0.72717118,0.06707559,-0.08344164,-1.13293707,-0.36464211,0.10676428,0.15592806,-0.32909194,0.02556773,-0.33574811,-0.47587851,1.00183821,0.24535885,0.00107260,-0.27745843,-0.10271505,0.33717382,-0.03931636,0.02616837,0.02804234,0.09987547,0.73976725,-0.14440759,-0.18293752,-0.00903101,0.26032707,0.36751878,-0.29695579,-0.26306945,-0.02314672,-0.60594028,-0.56517065,0.45933151,0.52592754,0.06925031,0.15653524,0.67753649,-0.15134123,0.17986047,-0.11165334,-0.22559339,-0.71349996,-0.81911904,0.40408373,-0.43307519,-0.05793012,0.04399740,-0.07981911,0.11054426,-0.10373528,-0.27975866,-0.28070459,0.42200220,0.22192940,0.48950511,0.10221517,-0.28489277,0.14346667,0.39121115,-0.69857681,-0.26219827,0.46583548,0.06300686,0.38630965,0.20084734,-0.00081252,-1.03404713,0.26630440,0.30677092,0.11048169,0.17344747,0.23349537,0.18901202,0.30634525,0.08162538,-0.18606545,0.21214810,0.22337490,-0.15430333,0.23562033,-0.08272836,0.15464744,-0.70806795,0.65114492,0.87178838,0.08247615,0.41491941,0.43542385,0.21353337,0.16308008,0.05994673,0.23881030,0.11522738,0.33611870,0.96076149,0.38386178,-0.15961389,-0.27458364,
0.12101979,-0.13263360,0.24199870,0.13123871,0.16749766,-1.35586405,-0.03127976,0.08628314,0.12956840,0.14244136,0.14520240,0.20779467,0.21354249,-0.01349176,-0.18392584,-0.12853590,-0.20755374,0.29543483,-0.00139121,0.25480193,0.06536431,-0.03393996,0.19060488,-0.86850053,-0.62457991,0.11020983,0.05709188,0.32881445,-0.18937945,-0.01165403,0.60270464,0.24781877,-0.04754238,0.16476937,0.18047591,0.13995613,-0.27703679,-0.00314221,-0.00143259,0.02663028,0.21988416,-0.13379499,0.09487338,0.18622960,0.23899809,0.26556778,0.16185366,0.14685342,-0.26200172,-0.00805114,0.26893497,0.50697726,0.23583890,-0.04321365,-0.09214732,0.35149917,-0.27370802,0.00005840,0.01457292,0.01729476,0.18525486,0.15242855,0.07728630,-0.03646687,0.06527336,-0.06256071,0.40981302,0.20929483,-0.06875692,0.05248151,0.34663072,0.16187051,-0.13769718,-0.34816718,0.07512297,0.09257541,-0.64032829,-0.18614167,0.21703850,0.12835842,0.11609364,0.03114306,-0.04953884,0.18718410,0.01965575,0.06031071,0.07114112,0.21567996,-0.03230545,-0.05191529,0.01052441,-0.12811528,0.22141546,-0.74948537,0.24963126,-0.01668914,0.07478203,0.34685865,0.16154817,-0.13690121,0.08702506,0.29562014,-0.11205073,0.02381510,-0.01430075,-0.29248968,0.00046479,0.10039787,0.25052890,0.18151991,-0.14858478,-0.20159663,0.34230354,-0.14563751,-0.10325073,-0.01063154,-0.12884507,0.12870838,0.00629230,0.00808424,0.16669117,0.07400561,0.20547995,-0.23551592,-0.10875827,-0.00596472,0.27186850,0.09220667,
-0.12560152,0.31035233,-0.03394888,-0.54612780,-0.09718987,1.02149534,-0.61115861,-0.78083843,0.08905634,-0.01774145,-0.34505340,-0.65052879,-1.56309688,-0.04690396,0.08403715,0.00386883,-0.13430677,0.09028239,-0.03976567,-0.14062236,0.06250680,0.08310891,0.27091771,0.35338017,-0.01362428,-0.01922810,-0.62580711,0.07446113,0.08575298,0.00468306,-0.82828170,-0.57852513,-1.18136585,-0.05663834,-0.05554109,-0.16751195,-0.02155163,0.02768444,-0.39518616,-0.16947661,-0.03534328,0.54225677,-0.87342489,-0.12575386,-0.61414337,-0.52861607,-0.08349521,-0.59844279,-0.20581464,-1.44606471,0.53913873,-0.89396304,-0.02507925,-0.50680774,-0.01863331,-0.56844169,-0.00959931,-0.32764959,0.03907625,-1.00752234,-0.53313285,-0.07143182,-0.21635461,-1.25559175,0.29314965,-0.11493144,-0.67845875,-0.15225735,-0.50087041,-0.20105590,0.09473640,0.10741008,0.26341864,0.40978214,-0.31243151,-0.03556756,0.29548517,0.14738618,-0.88880759,-0.72158504,-0.06223258,-0.95998687,-0.66629326,-0.04216341,-0.00148368,0.05453200,-0.52070695,0.78869003,0.14825247,0.05005523,-0.21775699,0.58121914,-0.95483619,1.03434730,-0.52944499,-0.48677850,-0.49260738,0.80599219,-0.11688379,-0.51666045,0.01091244,-0.71958083,-0.14175375,-0.17941126,-0.74371594,-0.02749223,-0.42534825,-0.53019404,-0.59613770,0.00745690,-0.20513111,0.17133349,-0.17136262,0.21734728,0.50627297,-0.19328701,-0.35184881,-0.14312297,-0.01798137,-0.87165952,-0.05804311,-0.42962217,-0.19147231,0.03566841,0.34684247,0.37305072,-0.50777841,-0.30067736,
-0.05355158,-0.37609315,0.03360052,0.22833811,-0.19208550,-1.15577769,0.26106834,0.11429571,0.07016636,0.26590490,0.09937600,0.17684163,0.05529421,0.04070359,-0.59427404,0.10819570,0.29344335,-0.16795465,-0.22330208,0.57676470,0.22828768,0.09425899,-0.31567478,-0.28880239,0.52437204,-0.36493751,-0.25107434,-0.02810331,-0.31590408,-0.03336055,0.03369709,0.10612020,0.80919683,-0.14313255,-0.13791415,0.07732454,-0.05362586,0.14213122,-0.21823782,0.01234695,0.07286457,-0.13430616,0.04843742,0.01356036,0.12173299,0.29806423,-0.01796012,0.50963885,0.12737457,0.28941622,-0.14031696,-0.38638163,0.04152091,-0.17694618,-0.50604886,0.41926849,0.72190702,0.18291508,-0.36072972,0.13573456,-0.01427996,-0.10907184,0.17273957,0.03861347,-0.58238298,-0.10915374,-0.28747165,-0.30326939,-0.06163058,0.10820080,0.02638700,-0.17086485,-0.92196065,-0.21400753,0.02267706,-0.00100571,0.34807515,-0.28977284,0.02763401,-0.13272311,0.07799051,0.17370650,0.17772163,0.00329109,0.12320332,0.00412328,0.23090096,-0.19360343,-0.14490782,-0.55435956,-0.20759659,-0.40140566,0.36077595,-0.43232411,0.21461399,0.30033571,0.15647945,-0.07776740,0.01550050,0.22649577,-0.14624205,0.39795786,0.01148625,0.12055119,-0.04042403,0.05874314,-0.11499171,-0.20956466,0.31635284,0.05044867,-0.05492503,-0.91329122,-0.03973734,0.13478570,-1.88962841,0.15173134,-0.23987155,0.27413395,-0.09430540,0.29274321,-0.01943352,-0.20956104,0.23437960,0.11441133,-1.70707476,-0.14033082,0.15061876,-0.37238410,
0.19414018,0.42493135,-0.24648501,-0.09962104,-0.30600783,1.05851722,0.19695681,-0.02148538,0.04480198,-0.36414996,-0.01350659,-0.15467449,-1.66974270,-0.09962973,-0.21758828,-0.30110979,0.37655425,0.18249367,0.15611964,0.08160699,0.26278204,-0.11411864,0.10326819,0.03150619,0.39667168,-0.07132574,-0.24286228,0.04738507,-0.20415169,-0.14830855,-0.73609227,-0.38658747,-1.54500926,-0.25911745,0.05216258,-0.07130253,0.06279340,0.07675942,0.24181916,-0.14514226,-1.01098096,0.85557187,-0.12382215,-0.03590273,-0.12511170,-0.14575796,0.07248333,-0.06450381,0.10347115,-0.92142814,0.27375132,-1.46042812,-0.08293580,-0.64873850,0.11186335,-1.48876989,-0.37051165,0.59362620,-0.23092638,-0.11402789,-0.19482000,0.24956723,-0.15369266,-0.92501092,-0.17998654,-0.22696966,-0.65228510,-0.04480048,0.50016224,0.18786050,-0.04553640,0.25434551,0.14701612,0.71675116,-0.66554600,-0.56109345,-0.69954932,0.49689284,-0.13500696,-0.44837531,-0.19762407,-0.32571140,-0.40033552,0.02238079,0.11770821,-0.05354868,-0.43813795,0.25335944,0.08553717,-0.08502132,0.78862023,0.26597840,-0.12805584,0.91347623,-0.82613242,-1.05721092,-1.02575290,0.32453313,-0.44526112,-1.13437605,0.07124120,-0.02889442,0.16603236,-0.37287295,0.09294932,-0.25718012,-0.48956242,0.35198230,-0.48788217,-0.22617947,-0.04961134,0.31675830,-0.49273491,0.06712264,0.91038209,0.03133117,-0.27814710,-0.75773227,-0.04442118,-0.33830804,-0.13591866,0.98070693,-0.47749642,0.43402016,0.08872971,0.14091022,-0.16682836,0.35914317,
-0.11720055,-0.24170859,0.13996157,-0.12503815,0.21681766,-1.23246169,0.16247819,0.12010132,-0.08419498,0.40133014,0.04039675,-0.06519891,0.16653632,0.09688482,-0.12122335,-0.07926823,-0.19092859,0.10167154,0.04424277,-0.41432902,-0.28501758,0.02729271,-0.01490747,0.30857673,0.09446515,0.17033070,0.25595319,-0.04699385,-0.00448135,-0.09854555,0.67817497,-0.17526072,0.25330704,0.31536135,0.06374648,-0.06819949,-0.10442233,-0.55301005,0.10306440,-0.19586602,0.05077977,-0.74772549,0.21463180,0.01597913,0.06003051,0.23586819,-0.00863161,-0.15153673,0.01679499,-0.15165038,-0.04893254,-0.08928968,0.15750091,0.04492173,0.09692773,0.11833755,-0.04393094,0.04556810,0.11867370,0.30912921,-0.18244378,-0.50310552,0.38947457,0.40719062,-0.42165601,0.13812235,-0.05237556,0.13914828,0.07534400,-0.12304543,0.15671514,-0.01622016,-0.33749321,-1.60477924,0.04140197,0.02384399,0.02219546,-0.55345082,0.24976988,0.08995482,0.08903376,0.33328959,0.10501703,0.13353233,0.26480576,0.25917011,0.24758461,-0.07889652,-0.56597728,0.01640732,0.11757389,-0.87509716,0.14292434,-0.02795704,0.56792581,0.31554151,-0.18941708,-0.15124694,0.21876667,0.06367199,0.07417237,-0.28343716,0.17463842,0.03518467,-0.04473414,-0.00979526,-0.19976346,0.14321183,0.13717446,0.48946679,-0.38773847,-0.57550812,-0.15485306,-0.43969789,-1.49015808,-0.08184540,0.39761475,0.04683819,0.16493048,0.24101791,-0.00366290,-0.51592207,-0.33096379,0.06356809,-0.61599576,-0.05528118,-0.14908978,-0.44843489,
0.08278415,-2.31400943,0.32123578,0.11212602,0.01967498,0.05890851,0.09570289,0.04387247,0.17527667,0.22714178,0.08333888,-0.14863659,-0.10923231,0.21762124,-0.07193463,-3.04093456,0.01753180,-0.29194254,0.33549830,-0.29255536,0.12737931,0.19148830,-0.06135846,0.43456015,-0.09616596,-0.07034630,0.08095923,0.09611183,-0.48289007,-2.92242742,-0.45160964,0.21100646,0.23940425,-0.76535076,-2.83039546,0.23408508,0.08828175,-0.17786238,0.16943410,0.10580248,-2.98602128,0.05411394,0.00992566,0.28370145,-0.71251124,-0.02085224,0.12584227,0.20657335,-0.08386603,-0.07655528,0.06601237,0.31880489,0.15217152,-0.01929864,-0.14700323,1.07714558,-0.09185389,-0.07396325,0.07229685,-0.54161799,-0.87693983,-0.20797583,0.14391795,0.49091023,0.14037985,-0.02804811,0.00697455,0.06549724,-0.04362448,-0.16153970,0.17855218,-0.92931342,-0.24051550,0.60080320,-0.33010373,0.25621343,0.10608344,-0.06962152,0.08020483,-0.46556407,-1.14995360,-0.65454471,0.24836616,0.07445612,0.90696019,0.21794389,-1.64765048,-0.08737534,-0.06404005,-0.17602223,-0.61090493,0.62600440,0.17439371,0.94113386,0.09091055,-0.08434408,-0.67950785,0.16685066,0.30525264,-0.10367808,0.16946088,-1.28749502,0.26425233,0.22479826,0.14452787,0.11370665,-0.07477178,0.09370712,0.01813180,0.29082915,-0.18761170,-0.13001157,-4.50651264,0.34422791,-0.26252776,0.12868504,0.47343376,0.27871376,-0.02161778,0.04891327,0.29776016,-0.47443870,0.18037416,0.26725224,0.70717072,0.09145596,-0.46113104,-0.41407460,
-0.02829939,-0.08150665,-0.09103020,-0.05672317,0.04922356,-0.04116172,0.01415285,-0.01026096,-0.03375015,0.04336426,0.00789946,-0.09500691,0.01002797,0.03126254,0.01298942,-0.02580845,0.03010519,0.04271043,0.06930375,-0.04431000,-0.06474191,-0.02300148,-0.03228783,-0.01436799,0.06658220,-0.06288068,0.02416826,-0.03945516,0.03331199,-0.03741474,0.08092622,0.06416446,0.07514167,0.01726429,0.01627446,-0.03840694,0.00207837,-0.07303277,-0.07907125,-0.06233244,-0.00472260,-0.03177019,-0.01945804,0.03033649,-0.06929620,-0.05180581,-0.06043332,0.04430361,-0.08391070,-0.00490530,0.00657162,-0.02383715,-0.00232530,-0.07679848,0.05341128,0.03314491,-0.05582786,0.00127204,0.06492469,-0.02259053,0.07131408,0.06394184,0.01500215,-0.02705785,-0.01979550,0.06718224,-0.06734005,-0.02900529,0.02074925,0.04709412,-0.02408393,-0.01067009,0.07604259,-0.07186774,-0.06451012,0.01499042,0.07075576,-0.06402881,0.04504483,0.07601369,0.01590717,-0.02012966,-0.05773215,-0.10176908,0.03369705,-0.00019538,-0.07823913,-0.04776381,0.00066164,-0.03341311,0.02909411,0.08755682,0.03961552,-0.08033722,-0.01220183,-0.02087830,-0.01575690,-0.01253405,0.00309309,-0.07465784,-0.08378050,0.07061426,-0.06060355,-0.06799956,-0.05540951,-0.07428353,-0.02165448,0.03066122,-0.02056144,-0.02749361,0.00798831,-0.01954918,0.00212328,0.03102046,0.03003745,0.05687862,-0.04524406,-0.09406126,0.05612281,-0.02829395,-0.01959665,0.00429880,0.06584141,-0.09376526,0.06109525,-0.08263642,-0.08181019,-0.08097948,
-0.58308464,-0.41637301,-0.18238731,-0.03927154,0.03130108,0.09321926,0.01586797,-0.48108920,0.08960295,0.12495387,-0.12121731,-0.11722606,-0.29186764,0.05575838,0.46658805,-0.03694856,-0.32348984,-0.14792372,-0.05663955,-1.17229640,-0.35172117,-0.02066528,-0.01773350,-0.61510533,0.45250779,0.09956599,-0.16036680,-0.23727426,-0.21062005,-0.24434140,-1.15237403,-0.75411153,0.15749031,-0.55629116,-0.31879258,-0.33487204,-0.29828325,0.17103337,-0.20609199,-0.29411885,0.22269653,-0.74394614,-0.17288095,-0.10938426,0.14433628,-0.23809423,-0.01727930,0.05242973,0.40901589,-0.29062161,0.00078156,0.13768852,-0.07853702,0.00588163,-0.20487431,-0.35307720,0.37734017,-0.68682730,0.06603745,-0.00373179,-0.62301725,0.04395935,0.05444734,0.28350917,0.29222494,0.42734423,-0.37627482,-0.06996885,-0.77178109,-0.35007873,-0.51543349,0.53572822,0.37042415,-0.08107515,-0.91479123,0.32367343,-0.05251249,-0.44660887,-0.34493425,-0.30375528,-0.46528986,0.50057471,-0.28870091,-0.24499425,-0.16435558,-0.08548002,-2.34406042,0.06813517,0.25951624,0.34662935,-0.06516153,-0.47017094,-0.63156855,-1.33910763,-0.48608252,0.09481538,-0.22822316,-0.10583589,-0.09458519,-0.42126256,0.14712037,-0.23836142,-0.16442999,0.00810984,-0.27576286,0.41469845,-0.20307052,-0.06270725,-0.76379138,0.24557896,0.42823157,0.22881898,-0.19606902,-0.31736296,-0.36222753,-0.43692923,0.08634005,-0.09139556,0.35151619,-0.05689323,0.06667814,-0.10018583,-0.42216572,0.31753963,-1.11509252,-0.15231326,-1.63387990,-0.02574877,
-0.26253197,0.19958939,-0.19831344,-0.50044459,-0.32749489,0.97829992,-0.79266268,-0.65721053,-0.01688721,-0.07620837,-0.41314459,-0.63233978,-1.71585166,-0.14711410,0.00418722,-0.09703714,-0.11470958,0.43151638,-0.07556694,-0.18181975,-0.03148934,-0.14313149,0.41377825,0.50213289,-0.13116346,-0.07055908,-0.23122738,0.00302465,0.10237373,-0.39727834,-0.81133342,-0.49922276,-0.96326149,0.15469068,-0.10917410,0.01422185,-0.03967965,-0.03872290,-0.19404992,-0.24718742,-0.46374527,0.38064900,-1.00293911,-0.17748441,-0.56335181,-0.48497316,-0.38797075,-0.51237661,-0.16493064,-0.84948450,0.70291930,-0.81794947,-0.14988048,-0.28074211,-0.01840584,-0.10827859,0.21151489,-0.16120955,-0.14579308,-0.79139239,-0.33658493,-0.03654948,-0.15926652,-1.38420939,0.13063572,-0.17988016,-0.72761869,-0.18188690,-0.09006204,0.43793434,-0.02649971,-0.27524614,0.11950938,0.29039973,-0.53732181,0.03043298,0.24244684,-0.04915652,-0.72863191,-0.81658006,-0.25706485,-0.84153932,-0.21948251,0.02115760,-0.09838068,-0.16580749,-0.79481387,0.89962751,-0.03819186,0.03113865,-0.36975262,1.03470635,-0.63508922,1.05667782,-0.37027320,-0.53909791,-0.81368798,0.94214904,-0.24220204,-0.18242456,-0.17794825,-0.74042541,-0.21208222,-0.21001801,-0.28286517,-0.01433276,-0.37263480,0.50700003,-0.02186803,-0.20255512,0.09328051,0.04520972,-0.74926925,0.78243184,0.33637190,-0.12860534,-0.09809787,-0.07545453,-0.20895895,-0.75887728,-0.10211980,-0.34093812,-0.12738770,-0.15599845,0.73418814,0.66003549,-0.67005157,-0.08186202,
0.16738245,-0.19914231,0.20171893,0.01692112,-0.02191084,0.13904591,-0.24155217,-0.07916277,0.15052319,0.05131301,-0.03397378,-0.02523046,-0.02289706,0.11032939,0.05453851,0.11270625,-0.19493671,0.29810399,0.06406371,-1.26931679,-0.23259558,0.15878724,0.26681960,0.36733684,-0.11152749,0.37240237,-0.00970067,0.27078843,-0.05698537,0.15999992,0.35637832,0.10408799,0.09703574,-0.35040405,0.31892431,-0.14793539,-0.00711816,0.36544624,0.00601935,-0.11207459,0.32159296,-0.16966109,-0.05970489,0.16355424,0.23496558,0.22962615,0.08882898,-0.14763178,0.11454020,-0.06685290,0.23029469,0.26997253,0.19052488,0.08825997,-0.02430907,0.14427020,-0.01546164,0.07330097,0.41382360,0.11101546,-0.01414487,0.18003772,-0.02512305,-0.10203216,0.43192613,0.18886143,0.10290626,0.45055953,-0.10528329,-0.18888129,0.26409376,0.42280611,0.17382824,-0.12017060,0.31015265,-0.09695540,0.04065069,-0.17737782,0.07015440,-0.08908815,0.27205738,-0.08377016,-0.05279485,0.27964884,0.09166186,0.26607737,0.09726588,0.13156600,-0.05807489,0.27271423,-0.23978268,0.61974615,0.01892838,0.94438875,0.30753312,0.13951685,0.21114214,0.28556761,-0.19204582,-0.02063965,0.08071987,0.15798536,-0.05285369,0.05364539,-0.01546369,-0.06034287,0.15843876,0.09816711,0.19291204,0.28847834,0.02618642,0.08506454,0.54662454,0.26499185,-0.05389807,-0.05793690,-0.00886152,-0.23949680,0.25217116,0.05022523,0.19998348,0.13588202,0.06439349,-0.22650747,0.57425725,-0.16512929,0.05259056,0.09297546,
-0.16876608,0.12317540,-0.01626274,-0.76248109,0.05021023,0.67371476,-1.01217759,-1.13465989,-0.07733338,0.07196666,-0.31072280,-0.68930769,-1.18422377,0.14282672,0.40156889,-0.13483216,0.12748548,-0.19557513,-0.02007908,-0.89820260,0.49330851,0.13637635,0.18093622,0.75209635,-0.33651388,0.16750221,0.06115906,0.11934845,-0.45304805,0.04451267,0.09835707,-0.66229796,-0.64837420,-0.08859094,-0.16350040,0.26120937,-0.14862101,0.11638771,-0.14585890,-0.27177399,0.31231394,0.39097086,-0.89566654,0.03063197,-0.81878853,-0.77532786,-0.22361553,-0.54155421,-0.19989806,-0.89340079,0.48602417,-0.59615058,0.00851167,0.02074235,0.39237326,-0.39619592,0.71196097,0.46634951,0.11946622,-0.74651361,-0.78174728,0.24715945,0.02991551,-0.98426193,0.49733219,-0.08848509,-0.43647084,0.01086019,-0.08144781,-0.83652037,0.10565647,0.32853517,0.34769160,0.40049475,-0.39261213,-0.04887842,0.54580557,0.28280833,-0.97266370,-0.76713437,-0.06074706,-0.91738033,-0.37082392,0.12375827,-0.00478927,0.06152879,-0.24590917,0.60263735,0.03519141,0.10549286,-0.56689918,1.01398468,-0.30800396,1.22325492,-0.09504815,0.01123425,-0.48081025,0.59626120,-0.09247841,-0.17734484,0.13518420,-0.17017667,0.00532742,-0.02103617,-0.68404436,0.20218568,0.70561314,-0.27471343,-0.31558833,0.01705285,0.40847909,0.45013905,-0.20724784,0.92506552,0.72780770,-0.18712232,-0.69916856,0.08117916,0.11600818,-0.88857961,0.10536766,-0.24748692,0.12258455,-0.37259725,1.21475935,-0.33607802,-0.55623281,-0.28485915,
0.37061644,0.30615756,0.51614565,-0.18255280,0.37595189,-0.23046412,-0.33891299,0.07007936,-0.14928110,-0.09856018,-0.09147698,-0.33580336,-0.20857576,-0.47110999,-0.71712273,-0.59405559,-0.38370502,-0.10635832,0.41620737,0.18447676,0.35037351,-0.19125317,-0.12959330,-0.41930529,-0.54925042,0.15681593,0.46721196,-0.09369656,-0.38548294,0.14243253,0.08763813,0.12282774,0.13075185,0.31999803,0.11727410,-0.11432070,0.39843082,-1.01466048,0.35596997,-0.21879531,0.28812337,-0.46433568,-0.32101917,0.08752148,0.02923525,0.09905560,-0.22131729,0.07195493,0.45616102,-0.30757308,0.04481442,1.21672249,-0.05161264,0.18718544,-0.07092381,-0.45537671,0.15576117,0.05863423,0.49272126,0.42285624,0.20966664,-0.52679431,-0.42042083,0.03126646,0.21466336,-0.56034774,-0.10712545,0.90800422,-0.12414056,0.08501825,0.14971505,-0.43576169,0.21292958,-0.96249092,0.06784233,-0.26788563,-0.33672485,-1.03459287,0.20844144,0.22585171,0.03192540,-0.12987444,-0.22186784,0.15596564,-0.13416061,0.16569597,0.52473772,-0.22043735,0.08770404,0.21402577,-0.18934236,-0.29937580,-0.07614285,-0.22888088,-0.12897800,-0.10912269,0.22133014,-0.10790936,-0.17813946,-0.29843789,0.02703751,0.00087997,-0.46185204,-0.19664069,-0.59985936,-0.10981368,0.15441872,-0.19436400,0.27059239,0.20394275,0.70647645,-0.26610753,0.03783537,0.21889518,0.21153413,-0.68867844,-0.24217218,-0.05340018,-0.09945863,-0.20657423,-0.21136630,0.01964576,0.27623960,-0.44146112,-0.27233809,-0.21786234,0.16224420,0.01411185,
0.43192720,-0.28827351,0.40770757,0.18967938,-0.09406931,-1.09796536,0.36571017,-0.31383207,0.10049637,0.38995561,0.05976395,0.10094712,0.08972711,-0.23045234,0.22035153,0.24539112,0.20411506,0.10547549,-0.42349026,0.11591528,-0.12068116,-0.00753945,0.05843853,-0.18197696,-0.08840330,-0.09031769,-0.68727887,-0.11408038,-0.28796640,-0.20591916,0.44110748,0.15836599,0.62821203,-0.31065658,0.12728967,-0.16026351,0.36597174,-0.32571247,-0.22179244,0.02602027,0.09029730,-0.26635906,0.07207118,-0.07280184,0.19998103,0.27187032,0.00960870,-0.12773889,0.42252731,0.42866731,0.08287846,-0.34824315,0.25947690,-0.05133668,-0.16344522,0.51949114,0.16375253,-0.24625270,-0.18244071,-0.13066730,0.01110059,-0.85477751,-0.19791971,0.21842694,-0.24122679,0.01423006,-0.55126739,0.30168018,-0.33171836,-0.46652323,0.01329553,-0.18916337,-0.22571446,-0.28957021,-0.06557335,0.05837292,-0.77658623,-0.49379382,0.24492936,-0.00023524,0.12796341,-0.01035316,-0.22010818,0.05634043,-0.19740522,0.08785591,0.12480742,0.03045340,-0.33224067,0.27122498,-0.17818354,-1.81735182,0.09039033,-0.53932422,0.21829930,0.17244841,-0.47286382,-0.06418756,-0.54073566,-0.35187751,-0.15908597,-0.07641789,-0.10660616,-0.10909928,-0.36873001,0.58475780,-0.04228317,-0.10305738,0.12402038,-0.25933093,-0.05665778,-0.26724690,0.35410231,-0.77427274,-0.96603721,-0.09766691,0.26663774,-0.30125138,-0.08814126,0.16237794,0.22370857,-0.17904852,-0.39304790,-0.30949435,-1.45264840,-0.28214183,-0.04445571,-0.09886253,
0.23242158,-0.35637990,0.40123457,0.05751295,0.12901109,-0.76453680,-0.10073016,0.13678983,0.04685298,0.20569335,0.11177607,0.03902749,-0.00755499,0.06156939,-1.10328877,-1.00662959,0.06138620,-0.11164779,0.44189233,0.01195134,-1.05221725,0.01016418,0.09174950,-0.13372156,0.09105711,0.23820950,0.31285262,0.09205753,-0.49234259,-1.01659203,0.27357426,0.24032009,0.34922966,-1.67593992,-0.99001354,0.04732253,-0.81814343,-0.24028043,-0.17618398,0.16420703,-0.88852340,-2.34799790,0.21813814,0.36552161,-0.25347197,0.19030797,0.17401017,0.12084745,0.38016173,0.16035599,0.16111340,-0.27173397,0.52012402,-1.42128527,0.27526101,0.15609278,-1.51744092,-0.03018585,0.54901147,-0.73373514,-0.50883776,0.01864691,0.04336726,0.36412191,-1.27726007,-0.22303535,-0.38064897,0.84018642,-0.93650025,-0.19119997,-0.26249194,-0.83826339,-0.02999815,-3.43601966,-0.85496110,0.01203373,0.44905090,-1.35461831,-0.00424502,-0.93913627,-0.26967841,-0.04686919,0.64916539,0.06865902,0.34329009,0.10739966,-0.54525071,-0.10495070,-0.64529252,0.29100838,-0.76672757,-1.46279645,0.09742547,-0.80847991,-0.10264672,0.04302434,-1.67408633,0.14417438,0.19649495,-0.61748511,0.12538183,-0.63714242,-0.12039331,0.08022491,0.24253014,0.45956501,-0.35752538,0.11971375,0.03392388,0.10979832,-0.70563400,-2.21346998,-1.38680029,0.93401247,-2.25142503,0.05624988,0.06134277,0.13807626,0.04044077,0.13443993,0.08841255,-0.97333884,-0.23714402,-0.01633823,-1.77170265,0.10762444,-0.21294256,-0.94967818,
-0.06150166,0.05553256,0.13813603,0.30107310,0.09337635,0.42795491,-0.12889332,0.04340278,0.29157889,0.21410738,0.18714555,0.22787574,0.01675543,0.35586303,0.22306731,-0.00213951,-0.01111832,0.41911307,0.24022186,-0.36083892,-0.46132174,0.45221850,0.39112154,0.53382170,-0.06606943,0.21415910,-0.09468783,0.31869394,0.08774094,0.17520940,0.57196832,0.06282499,-0.06021707,-0.33587271,0.42353991,0.09451996,-0.04965532,0.33040509,0.07163971,-0.21907331,-0.01621514,0.40323675,0.07713532,0.25948802,0.25094691,0.24005757,0.38575011,0.02044595,-0.13827765,0.00378974,0.44015428,0.34148678,0.27746892,-0.13132179,0.09161633,-0.35275307,0.06744374,-0.10935574,0.22417009,0.15422432,-0.11688070,0.05026127,-0.00760671,0.05855118,0.53621680,0.16304615,0.45630246,0.32135671,0.24311946,0.13924059,0.45794564,0.24167372,0.30142841,0.13382916,0.02414051,0.19137035,0.17650305,-0.05720217,0.09083286,0.01688649,0.39121771,-0.39034343,0.09508554,0.33093995,0.61191100,0.29675195,0.25260338,0.34868121,0.08977393,0.31003794,-0.09518787,0.64509338,0.03012595,0.87303835,0.02076013,0.20211397,0.14625190,0.49010774,0.18154356,-0.02464640,0.31178543,0.19591728,-0.04103874,0.36538672,-0.05113140,-0.08329992,0.17796093,0.39117497,-0.01200525,0.36100298,0.09478763,0.22933389,-0.49489444,0.43667969,0.09761323,-0.06320572,0.17830354,0.01613011,0.34252316,0.06139398,0.44505081,0.31778124,0.14366738,0.17868964,0.73690671,-0.13003281,-0.09334991,0.43758461,
-0.17614795,-2.71622658,0.27799663,0.19899194,0.17741776,-0.81556261,0.17404020,0.34947184,-0.04435561,0.06644419,0.06791434,0.18714988,-0.02305190,0.14098564,-0.87941760,-2.64726853,0.25918660,-0.29814127,0.53219581,0.50189012,-1.15379632,0.08182756,-0.18146372,0.11921704,-0.07035524,0.50849330,-0.11958382,-0.05175801,-1.15822113,-2.97020030,0.42354554,0.12899591,0.50627589,0.21431881,-3.26245570,0.17533544,0.01931304,-0.66438371,0.16421291,-0.14917304,-0.43642977,-1.72592568,0.28253484,0.40584248,-0.03668736,0.26873773,0.31214288,-0.00643943,0.15732992,0.14858216,-0.14396633,-0.51596570,0.56724876,-0.78557098,0.37054351,0.09757362,0.30519962,-0.09306215,0.47654313,-1.36377966,-1.04288375,-0.39800292,0.05204011,0.49830556,-0.80756307,-0.35186794,-0.51511151,0.48166278,-0.39005566,-0.52891749,-0.11350513,-1.81327736,0.12756877,-2.89144254,-0.64557087,-0.00345826,-0.09324398,-1.06592858,0.07072249,-0.58924252,-0.13810295,0.23920783,0.16993602,-0.04883671,0.52278662,0.19011819,-1.08922446,-0.09965535,-0.58211851,0.29186368,-0.18807861,-1.79435837,0.35501379,-0.12710725,-0.17675224,0.19596295,-1.01633358,-0.15844522,0.32477015,-0.03980147,0.08430971,-0.93766767,0.46733898,0.15422985,0.19926821,-0.63917631,-0.60217142,-0.04064151,0.01993481,-0.76704860,-0.70655197,-0.82427108,-1.56847107,-0.29818487,-1.97329688,0.00226886,0.25170740,0.28664163,-0.19819698,0.31777802,0.27944559,-0.59933954,-0.42999214,0.10333225,-1.34756052,-0.11750819,-0.27821189,-0.95980543,
0.08420397,-0.06957606,-0.00107138,-0.01177156,0.12093611,-0.57509387,-0.03497450,-0.02620485,-0.07606944,-0.23374619,-0.11395556,0.10840816,0.11541835,-0.14395797,0.15501243,0.05513352,-0.44129115,0.28463176,-0.03560996,0.36134574,0.00876052,-0.20838778,0.04784670,0.01362707,-0.50565982,-0.08040100,0.00679802,0.16091736,-0.21057633,-0.03290946,0.43612579,0.00905804,-0.08761305,0.30975178,0.00029198,-0.08440694,0.15007129,-0.11938787,0.10162184,-0.29984146,0.05617974,-0.14652474,-0.20078246,0.16779575,0.14807053,0.20031504,-0.04294475,-0.02481981,-0.08215930,-0.12380738,0.18869777,0.24558246,0.18645518,-0.23942785,-0.00592560,0.20143428,-0.07447653,-0.03566846,-0.12278670,-0.06372190,0.06149707,-0.05572259,-0.12316627,-0.01822536,0.05137099,-0.33347598,0.05779256,0.00820780,-0.12948525,-0.06179298,0.13811755,0.08958536,-0.28814447,-0.33560637,0.09979326,-0.49265167,-0.42772010,-0.12874083,0.07577596,0.05974187,0.17844684,-0.02579475,-0.47089076,0.19704004,-0.05464766,0.01301223,0.05012453,0.11977395,-0.17600860,-0.14516348,-0.12841977,-0.58046955,0.10994425,-0.49215248,0.03899837,-0.19816700,0.05608131,0.21000464,-0.03007694,-0.41122413,-0.06061739,0.06188908,-0.27015615,0.03189006,0.08060686,-0.48680353,-0.02585891,-0.19124547,0.20630808,0.29055500,-0.08791698,-0.14035951,0.30607119,-0.16670841,-0.05713835,-0.42733288,-0.23978946,-0.18205251,0.06173968,-0.09077374,0.08877894,0.03863147,-0.13677220,-0.06373491,-0.24824168,-0.23894778,0.17521584,0.10637864,
-0.17858568,-0.69699740,-0.05175827,-0.07032011,-0.05268976,0.95466262,-0.33309048,-0.31426531,-0.07811049,-0.09920806,0.07712479,0.01617552,-0.25841394,-0.12812422,0.13620465,0.44728723,0.45726255,0.04559248,0.15490215,-1.85984123,-0.65589964,0.00126567,0.09771223,0.34898821,-0.41078120,-0.11360832,0.06446622,0.20591302,-0.48865533,-0.81698936,-0.16362435,0.07585525,-0.08657371,-0.76043284,0.17892168,0.34473881,-0.02855380,-0.08079667,-0.15356052,-0.43769544,-0.61822820,0.57516921,0.05051228,-0.22797564,-0.16618657,-0.09380620,-0.12035897,-0.24468446,-0.34054238,0.12513000,0.19751610,0.34308681,0.01368561,-0.04652601,0.00507390,-0.35197523,0.20299505,-0.60951972,-0.22192052,-0.57794976,0.14507726,0.15545118,0.15259376,0.30057696,0.21110563,-0.06865385,0.17374924,-0.15782167,-0.52415305,0.44223303,0.18799403,0.54991233,0.27348471,0.09853218,-0.68563163,0.10760567,0.11505598,0.04499129,-0.13838361,-0.48100090,0.07939887,-0.32715848,-0.01339120,0.18446973,-0.22635023,-0.21952699,0.09736352,-0.08591416,-0.00726796,0.30033278,-1.17860365,0.53005588,-0.06640673,0.53417176,0.04006309,-0.05775746,-0.75156498,0.20622462,-0.19764471,0.07929604,-0.09710338,-0.40488157,-0.17685375,-0.13632923,0.56965375,-0.00273170,-0.01185284,0.04026524,-0.11145570,-0.15087566,0.09509666,0.15938611,-0.24100161,0.62402254,0.56922674,0.09727748,-0.01647818,0.05038617,0.04718437,-0.40471709,-0.14738651,-0.20617382,0.54369009,-0.21480824,0.83951509,0.17552580,0.07875990,-0.21444926,
-0.04008239,0.74807358,0.07076517,0.20279625,0.06479123,0.49922937,-0.04922261,0.07664169,0.24859615,-0.27304989,0.11001289,0.14592159,0.06231512,0.29580134,0.23738368,0.63540536,0.11755809,-0.15253659,0.38876066,0.72562760,0.18498290,0.30033913,0.15397836,0.51435059,-0.25284421,0.52500767,-0.06885895,0.14311334,-0.01817860,0.19806643,-0.58986354,-0.11144346,-0.03147737,-0.48796153,-0.62157524,0.27658010,-0.01383823,0.23343283,0.05430875,-0.19211085,-0.17905992,-0.13238139,0.16832410,0.22555901,-0.07643223,-0.06961360,0.26721019,0.04280814,0.28667203,0.02998316,0.22911976,0.29045013,0.04111671,0.23775375,0.18875830,0.10619040,0.39657688,-0.34928662,0.43834424,-0.38250756,-0.43263090,0.01288971,0.20535776,0.34952259,0.38414270,0.04847651,0.03808753,0.40247577,-0.48285073,0.19729485,-0.26679876,0.73301125,0.52590895,-0.50512683,-0.05585781,0.21064515,0.08576895,0.18788971,0.23347753,-0.26953116,0.03589890,0.51358575,0.41232184,-0.03476524,0.40687937,0.14055930,-0.46020687,0.25022003,-0.52397162,-0.05832004,-0.46878058,0.67076349,0.07539252,0.68179744,0.05058394,0.11667846,0.43927401,0.16606936,0.02435439,-0.17961986,0.38825980,-0.67895794,0.11540720,0.40406066,0.38169253,-0.09777473,-0.47706544,0.51347834,-0.32531965,0.18353985,0.19434875,0.00594040,-0.25541645,0.55142492,0.05063965,0.02973331,0.40548959,0.07488798,0.20573989,0.15830709,0.08824801,-0.22204709,0.03323374,0.06279390,0.94213271,0.13342151,-0.32548374,0.00933794,
0.04944463,-0.81846660,0.06062035,-0.43265724,-0.02832549,0.78244209,-0.15216665,-0.71966827,0.04167363,0.13454367,-0.46846130,-0.66806757,-1.49998808,-0.02230820,0.32665217,-0.43767974,-0.03934468,0.11350284,-0.18264283,0.73683804,0.10272952,0.13624291,0.13048109,0.85096687,0.18359099,0.09838372,-0.19608051,0.08032856,-0.35477862,0.37408948,-0.46166179,-0.47494078,-1.06381226,0.12206006,0.14843149,0.22134551,0.04499971,0.29020196,0.00023365,-0.02755195,-0.18051289,0.78455740,-0.55905598,-0.03806607,-0.72329324,-0.69062597,0.10463691,-0.26982751,-0.07559574,-1.15245867,0.48590493,-0.83913261,-0.10577425,-0.02131968,0.21530327,-0.18601361,0.75373840,0.13374035,0.04035005,-0.71312076,-0.39626417,0.25000942,-0.11178843,-0.95251083,0.46920550,-0.13879189,-0.53941870,0.11378564,0.63539189,0.13128376,0.15358877,0.42773619,0.38087523,0.62855661,0.11662805,0.03217466,0.62177265,0.34541780,-0.77054876,-0.79245472,-0.21501501,-0.63091308,-0.22840513,0.17161508,-0.00442731,0.10823818,-0.31776866,0.82750458,-0.07823705,0.12280842,-0.22497617,1.01258600,-0.15516086,1.20186710,-0.06565110,-0.11739209,0.18109801,0.76268703,0.01427790,0.08540735,0.08595724,-0.30016142,0.03267093,0.06769904,-0.37653860,0.33421782,0.55882907,-1.16618347,-0.59349185,0.06873177,0.35127932,0.58402061,-0.40399000,1.00230706,1.05743217,-0.13181794,-0.26372012,0.17864327,0.19417486,-0.45185080,-0.01983433,0.03811806,0.05666256,-0.06624486,1.19344890,0.45952687,-0.30009976,0.43402946,
0.03955734,-0.11861207,-0.04854939,-0.29256114,0.03909287,1.04145503,-0.77048147,-0.45044217,-0.03532907,-0.52029371,-0.12013863,-0.27569357,-1.16715765,-0.16783212,-0.79979992,0.22923858,0.23475012,0.22058015,0.15205319,-1.47206163,-0.45597622,0.01342636,0.27101186,0.22842245,-0.03729423,-0.11138155,0.86190844,-0.00891475,-0.72335786,-0.33257377,-0.51858985,-0.47500512,-1.45969319,-0.60241783,-0.02071589,0.55019099,-0.47474024,0.35374323,0.72679090,-0.17061274,0.30485287,0.99102062,-0.85056454,0.03200361,-0.58869100,-0.20257877,0.27335423,-0.21091877,0.01913378,-0.07467315,0.72827357,-0.69628018,-0.10065143,-0.17426461,0.21967426,-0.72448343,-0.09688766,0.18504831,0.12543225,-0.43347505,-0.40203732,0.45555657,0.22098371,-1.06355238,-0.60657018,-0.48358619,0.39071295,0.11613502,0.66262138,1.11972928,-0.05452862,1.19594216,0.03764807,0.11407209,0.16781591,-0.59825778,0.06668215,0.26072511,-0.51802933,-1.61676693,0.08081906,-0.89289433,0.45023221,-0.16479078,0.18414147,-0.29637626,-0.94889069,0.88102436,0.86180943,0.43379807,0.23586127,-0.39027014,-0.40192577,1.76899648,0.22410326,-0.27147192,-0.62307054,0.79646277,0.17925929,0.01652308,-0.13585605,-0.32279044,-0.61819464,-0.08266962,-0.50189292,-0.34065184,-0.11172836,0.13953416,-1.41601336,-0.51208925,-0.07419705,-0.73718148,0.03555807,0.78288662,0.87823397,0.06972358,0.20774688,0.76714021,-0.13842951,-0.33191290,-0.38796416,0.56596345,0.58583033,0.79923224,0.25647268,0.37080282,0.12360492,0.87079060,
-0.16193359,-0.96571451,-0.16255911,-0.27487135,-0.09365351,0.81294364,-0.23977843,-0.38387567,-0.08347350,-0.06498412,-0.06497678,-0.23072915,-0.25299421,-0.10466222,0.09374733,-0.33585492,-0.04790657,-0.22481222,-0.06093849,0.08035721,0.38838249,-0.14007062,-0.01097100,0.37157315,-0.05561961,-0.08957627,0.20970331,-0.24496335,-0.21349590,-1.06564677,0.78004378,-0.19338433,-0.34616360,-0.42753112,-0.29862291,-0.06039152,-0.13973019,0.04516406,-0.00812748,0.06892271,-1.79755855,0.13918954,0.18617575,-0.15851064,-0.53289580,-0.31063515,0.22717656,-0.07884051,-0.09121903,0.06075796,-0.18210755,0.15699193,-0.00767224,-0.05896016,-0.19714703,0.49871475,0.18496805,-0.27754873,-0.10327309,-0.58361840,-0.78160667,-0.17701003,-0.04678698,0.10652032,0.01886578,-0.09440323,-0.21068856,-0.08697810,-0.57144040,0.06960021,-0.27741489,-0.20573486,-0.07469608,0.04240029,-0.33243355,-0.02216896,0.18827644,-0.03854279,-0.23461355,-0.25105327,-0.58114874,-0.30469650,0.20863916,-0.17073464,0.32621822,-0.10092034,-0.32397932,-0.19155341,-0.17308131,-0.08755208,-0.04083821,0.54699343,-0.18903965,0.66360408,-0.14995204,-0.13479704,-0.33015528,-0.04525732,-0.11634913,-0.16624078,-0.23456429,-0.26162288,-0.07272042,-0.02500313,-0.12767312,0.03662070,0.06759408,0.04084637,-0.49952108,-0.18185018,-0.02429556,0.07549981,-1.05848408,0.36671135,0.28287226,-0.11818808,-0.02586059,-0.10123166,-0.10535549,-0.17925477,-0.14986758,-0.28821328,-0.10476345,-0.00502906,0.74546552,0.15470476,-0.15409692,-0.28700235,
-0.18278919,-1.31204307,-0.10686445,0.17491353,0.40897480,-0.29772544,0.34712744,-0.03550075,0.18885653,-0.08919916,0.09919345,0.14854205,0.11114947,0.21308210,-0.37291652,-1.19374645,-0.31226268,-0.09641599,-0.14358529,1.14669991,-0.27790996,0.21914837,-0.05912507,0.07689715,0.20333791,-0.24176903,0.29787216,0.00814969,-0.60036880,-0.37301204,0.37660763,-0.11138043,0.33488414,0.34454480,-0.59392869,-0.19300592,0.12306344,-0.63807988,0.01371346,-0.53702295,-0.04317146,-1.14510810,0.36694324,-0.11075730,-0.11381715,0.14395361,0.20750621,0.00448980,0.25668156,0.41444689,-0.13507624,0.10101502,-0.24004410,0.08727457,-0.25982398,0.15117584,0.40935019,-0.32968852,-0.20493329,-0.31227797,-0.37953004,-1.08796930,0.09000742,0.53537530,-0.56466335,0.26138419,-0.31089419,0.05195728,-0.27872509,0.12486913,-0.16749617,-0.56801486,-0.72296315,-1.52100253,0.04698636,0.00722579,0.05970002,-0.64973968,0.05193124,-0.63836205,-0.04080551,-0.01636099,0.27021217,0.15374754,0.24562053,0.13712670,-0.25978380,0.06424619,-0.18544790,-0.70467955,-0.50225699,-0.04362565,0.35227290,-0.52866483,0.30398324,0.55017406,-0.20562254,-0.07747716,0.30975440,0.09932955,0.20540726,-0.40760902,-0.01444228,0.31474543,-0.02882780,0.05705022,-0.02466381,-0.06894226,-0.06183206,0.05120223,-0.13897125,-0.67280006,-0.57360810,0.02430232,-0.42600954,0.34467408,0.31331638,0.16198470,0.24806516,0.25892517,0.02922144,-0.14040767,0.28545985,0.21583423,-0.30069053,0.07118023,-0.12462202,-0.46055451,
-0.04045788,0.09064738,0.06905466,-0.42467239,-0.08304758,0.73157150,-0.86024165,-1.44629443,-0.06871618,-0.03642314,-0.46927404,-0.66883248,-1.16329420,-0.02144962,0.36989331,-0.42551085,0.02532512,-0.15394215,-0.01106791,0.02380463,0.02966500,-0.01663854,-0.01204975,0.82434416,-0.02995231,-0.09566440,0.00685545,0.15524581,-0.17925097,-0.76545185,-0.94973677,-0.25946370,-0.37167230,0.03872656,0.14441307,-0.40614074,0.13746056,0.12492096,-0.28055322,-0.48060498,1.20242870,0.57260865,-0.97170991,-0.09508726,-0.77652478,-0.32912341,-0.79015225,-0.34273896,-0.11540522,-0.51080817,0.41948393,-0.55946362,-0.40172294,0.07685537,-0.02865808,-0.72161335,0.57394260,-0.20744801,-0.01106790,-0.49426699,-0.61628866,0.08964559,-0.11204369,-0.99040294,0.40701866,-0.10596654,-0.34870324,0.07628677,0.06651245,-0.50990224,0.11444032,0.18186507,0.40379056,0.40846780,0.23171374,-0.14202414,0.52022469,0.27636015,-0.63600945,-0.47334796,0.09026058,-0.39768082,-0.34259608,0.03786226,-1.29890609,0.01396703,-0.50881076,0.20231308,-0.03602257,0.04592214,-0.17982627,1.00381374,0.00952438,1.26441526,-0.15395346,-0.14877513,0.05119490,0.44241741,-0.14561169,-0.15852176,0.04475960,-0.22990760,0.08697722,0.03452142,-1.18757093,0.17278399,0.00619784,-0.35759282,-0.12780795,-0.04069550,0.23948920,0.45600060,0.19599977,0.91458815,0.67436844,-0.12479982,-0.38254118,-0.16067761,0.07284409,-0.51917821,0.04789430,-0.04813238,0.00132503,-0.24556434,1.09482610,-0.07734817,-0.40102652,-0.10614433,
-0.51388651,-1.15291774,-0.07790048,0.38238958,0.08936850,-0.65406162,0.20522822,0.04655122,-0.02131948,0.12139487,0.14818589,0.10490204,0.00483424,-0.04164084,-0.35363469,-0.99356693,0.22301097,-0.40851665,-0.13013789,-0.44097525,0.01474597,0.04350093,-0.13727422,-0.25711778,0.25546432,-0.38026503,0.04938440,-0.24581687,-0.67681456,-0.40683955,-0.16529569,0.04024962,0.37359536,-1.12670445,-0.32949373,-0.23511252,0.07415964,-0.38842732,-0.20496990,-0.15619639,-0.26944974,-1.09999037,-0.02144487,-0.05215098,0.08139352,0.09258583,-0.06537717,0.19356133,-0.47903669,0.26722389,-0.32781985,-0.26793978,-0.18682802,-0.01474113,-0.26564130,-0.67664731,0.14490192,-0.31454223,-0.16292696,0.13426907,-0.63480711,-0.44792613,-0.01214570,0.29189774,-0.81891477,-0.04658715,-0.29753274,-0.17739436,-0.33514577,-0.07533899,-0.25050762,-0.46162108,-0.62745059,-1.06116164,-0.06537130,0.02748591,0.02868671,-0.42569929,0.11352664,-0.33877939,-0.18387333,-0.10630831,0.25492239,-0.14611752,0.15184449,-0.03160486,-0.27262354,-0.12728724,-0.42995638,-0.25689158,-0.29386657,-0.36939359,0.29882345,-0.54155606,0.18503366,0.16059698,-0.39298257,-0.19415510,0.15053855,0.22085951,-0.05775308,-0.12110699,0.03096251,0.12183403,0.14528812,0.34807098,-0.35055894,-0.17707919,-0.19066179,0.12779093,-0.35580263,-0.48733339,-0.60581857,-0.07875325,-1.22653604,0.21811497,0.25758627,0.11731374,0.07334854,0.47664025,-0.04906087,-0.33414003,-0.16603179,-0.08920268,-0.75613499,-0.21143204,-0.15437447,-0.65663558,
-0.63422257,-0.63899076,0.03017950,-0.32064521,-0.04969460,0.73445857,-0.61697084,-0.60530156,0.03160084,-0.19982554,-0.22511773,-0.16837877,-0.31027824,-0.01532894,0.19631514,-0.73654026,-0.01556594,-0.30614439,-0.20063829,-0.15698102,0.03949889,0.06729408,-0.02096155,0.27022541,-0.48628765,-0.05658040,-0.60603851,-0.26921457,-0.07961164,-1.02802873,0.58261287,-0.48876342,-0.26372296,-0.19830248,-0.33556554,-0.60070187,-0.41429392,-0.03132143,-0.34477007,-0.59858245,-2.35267615,0.78693664,-0.13092424,-0.03220448,-1.15042603,-0.39198923,-0.22578256,0.04943360,-0.21215817,-0.02562204,-0.07053390,0.51887393,-0.17552555,0.03211151,-0.36248437,-0.11443146,0.19642855,-0.36826336,-0.02122486,-1.56479979,-3.13913250,0.00541596,-0.37535331,0.36082458,0.24411897,-0.11370500,0.22749445,-0.04129453,-0.70892203,-0.33893251,-0.54836494,0.07673757,0.16281618,0.24676703,-0.32106224,-0.31429690,-0.00501611,0.05690944,-0.12774988,0.01377924,-1.08382869,-0.15859933,0.18416725,-0.20410706,-0.03320305,-0.07234196,-0.55282944,-0.24111462,0.11319645,-0.34207284,-0.76302284,0.55177253,-0.59201819,0.62695467,-0.17083766,0.00629086,-0.37787154,0.09970037,-0.02437635,-0.00261975,0.09134512,-0.98706168,0.11906310,0.00428434,-0.09831079,-0.20336242,-0.01188853,0.13238262,-0.75081605,0.05911857,0.19523165,0.16763598,-1.56363058,0.66299677,0.71436483,-0.22084306,0.07337783,0.12842013,0.08634698,-0.26032227,-0.10693955,-0.24008697,-0.14613131,0.33170831,0.96337503,0.20639570,-0.38032198,-0.13808860,
-0.69320619,-1.63066900,0.01824628,0.36568508,0.06565271,-0.44790649,0.28371653,-0.03618353,0.49575296,-0.01034039,0.22159597,0.26918516,0.00644553,0.20742472,0.12952982,-1.30889535,0.11903538,-0.19680312,-0.03911422,-1.53439450,-0.95852095,0.32825908,0.09165410,-0.42964274,0.11830912,-0.18648908,-0.16981421,-0.48141947,-0.20336938,-0.40902704,-0.00279831,-0.15649191,0.28066996,-1.52409530,-0.77052677,0.21414115,-0.05236221,-0.19359468,-0.03375332,-0.56958854,-0.57658744,-0.64780116,-0.00540044,0.11614796,0.10501693,-0.13681471,0.08381572,0.27014661,-0.02074986,0.08749838,-0.14374134,-0.08993997,0.02833496,-0.23073998,-0.33219475,-0.11704096,0.21333723,-0.62277776,-0.11782563,-0.07754932,-0.74683893,-0.59886700,0.18631864,0.26498932,-0.36365280,0.07512963,-0.20513639,-0.19748916,-0.46852678,-0.10843381,-0.69290197,-0.35227296,-0.67835546,-1.85850883,0.23758899,-0.08548310,-0.22110936,-0.82303756,-0.35264498,-0.22284950,-0.18284592,0.14304079,0.28932646,-0.04059641,0.19091679,0.13861449,-0.10176825,0.24690764,-0.10436634,-0.26110795,-0.17189743,-0.38150832,-0.15612298,-1.00578070,-0.22264390,0.25070316,-0.52319098,0.07215336,0.08857054,0.27173594,0.16924603,-0.62690580,0.34138352,0.24231221,0.10722999,0.38582012,-0.29526868,-0.06043901,-0.56988358,-0.12329052,0.22734003,-0.55618984,-0.58750737,0.23795478,-0.70577574,-0.01767721,-0.06072943,0.29755491,0.17793295,0.10756154,0.18078652,-0.35227063,-0.74840403,0.46934941,-0.76426983,0.16601416,-0.26473162,-0.41331604,
-0.25158626,-1.97175610,-0.30957028,0.12720329,0.28340980,1.12343609,0.20646432,0.13470936,0.13632764,0.39089355,0.11092086,0.05699806,0.10682666,0.25816029,0.25556391,-1.98671699,-0.20694108,0.10889942,-0.33695740,-1.73745692,0.43143868,0.26859084,0.11286408,0.07294636,-0.18534964,-0.54489499,-0.04020483,0.00805007,-0.52022773,-1.05159080,0.20313276,0.06858055,0.08689232,-0.15917292,-0.32305315,-0.13011870,0.23651598,-0.35352916,-0.18098499,-0.17712121,-0.24292073,1.07127488,0.17840184,-0.14755616,0.00214755,-0.13011424,0.35406026,0.09085431,-0.07671805,-0.07424141,0.01310214,0.67658359,-0.05149936,-0.30465314,-0.11102798,0.48630559,-0.07804525,-0.00691750,-0.49414554,-0.02509899,-0.03520371,-0.87577927,0.16706701,0.78183526,0.13614137,0.36303589,0.29005760,-0.62937087,-0.17775358,0.10008790,-0.17435277,-0.64074737,-1.11365950,0.11311460,-0.17579733,0.07565051,0.07992733,-0.27090675,0.10608023,0.03460981,0.10269996,-0.59893030,0.16755283,0.16141517,0.33474201,0.13052556,-0.26765692,0.19973327,0.16779204,-0.80538607,-0.11286967,0.60521799,0.21476038,0.46521997,0.36356235,0.04655166,-0.70852840,0.12424691,0.25295487,-0.18879853,0.23581176,-0.10701290,0.16625281,0.29671031,-0.07915082,-0.00216488,0.51910418,0.06223886,-0.00558800,0.05692964,-0.19634232,0.25165334,-0.13167803,0.08507366,0.15543386,-0.01410475,0.29253429,0.16460539,0.10226686,0.25727311,-0.00131962,0.10597323,0.20443042,0.29573470,0.83565927,0.38955468,-0.06299175,-0.23454578,
-0.03211293,0.05019651,0.03022094,0.05440605,0.00183092,0.05657687,-0.03335005,0.03429846,-0.00177960,-0.06683783,-0.02369504,-0.04186095,-0.09935789,-0.01082426,-0.06204086,0.00524523,-0.06795433,-0.07479660,0.04354291,0.00577281,-0.05801081,-0.05753725,-0.01078607,-0.03861265,-0.06376204,-0.10726335,-0.05952965,0.02899682,0.04950446,0.02703578,-0.04369404,-0.04684035,0.05176813,-0.03472288,-0.01727976,-0.07978491,0.00932481,-0.05697717,-0.02617731,-0.06350022,0.05114432,-0.10169248,0.05769526,-0.05464526,-0.06843457,-0.03084360,-0.02455843,-0.00743922,0.01634669,-0.03733802,0.03494553,-0.02764457,-0.05099967,0.07771908,-0.02826577,0.03389702,-0.08195754,-0.04857247,-0.02796162,-0.02645960,-0.00990016,-0.06911289,-0.05694977,-0.06405783,-0.03399831,0.05490017,0.00222713,-0.08012776,0.02154469,-0.03258217,0.01379654,-0.03335780,0.01390192,-0.12248223,0.05331876,0.00511464,0.08622390,-0.09697598,0.00621480,-0.07822487,-0.05978581,0.08531611,0.04248722,-0.01356837,-0.03872287,-0.08177003,-0.04495658,-0.00853663,-0.05037342,-0.04807052,0.00101198,-0.00135305,-0.05583978,-0.03050892,-0.05880833,-0.06156981,-0.13600035,-0.00090249,-0.09208602,0.01753002,0.08968485,-0.11914068,-0.07694265,-0.03597175,0.01545501,0.09595782,-0.00280518,-0.09421106,0.01253410,-0.01047107,0.01182525,-0.03677243,-0.04145516,0.00146978,0.03220501,-0.04492923,-0.07518843,-0.03118821,0.03102235,-0.10936570,-0.10259275,0.00430153,-0.01975958,-0.04537393,-0.04778341,-0.00695202,0.04463283,0.02997534,
0.03728634,-0.33780497,0.08843411,-0.40829888,-0.05949087,0.82233584,-0.50667983,-1.96529233,0.01184525,0.01355327,-0.39128399,-0.81497759,-1.32549679,0.06909626,0.48310691,0.01829685,-0.06843016,0.00805086,-0.09797648,0.03660258,1.21406758,0.05986723,0.32702032,0.82300717,0.21775380,0.10758667,0.17258872,0.00415963,0.19286877,0.94078791,-0.56415707,-0.38464081,-0.56572998,0.03849135,0.50319201,-0.12044018,0.05320635,0.20920539,-0.15920706,-0.07908477,-0.30339223,0.58214045,-0.94268954,0.04690751,-0.44037402,-0.48634246,-0.19185953,-0.29008558,-0.07126959,-0.99013096,0.48041132,-0.62853360,-0.00262564,0.12283908,-0.08265587,0.23115577,0.68252492,0.49023497,0.12053670,-0.74362701,0.26730433,0.09571157,-0.01686982,-0.83032572,0.46521035,-0.10022144,-0.50786024,0.12729268,0.15374975,-0.45149302,0.09387071,0.32299840,0.30927148,0.42267641,0.64771891,-0.04485286,0.41291735,0.32447377,-0.46119249,-0.28100234,-0.11398170,-0.66268986,-0.26826328,0.07838290,-0.25209430,0.06141056,-0.34656844,0.72724360,0.78199399,0.01927405,0.13048159,0.86649275,-0.16153690,1.18863392,0.22116047,-0.14510565,0.55585164,0.56822532,-0.07461480,0.28320891,0.04827980,-0.24238929,0.18521510,0.03767196,-0.78239626,0.27022910,0.16020463,-0.85357863,-0.36943769,-0.00016843,0.26665902,0.56658834,-0.22645459,0.86792374,0.82192266,-0.11069191,-0.31085852,-0.28479809,0.22292398,-0.82166034,0.08611396,-0.02797244,-0.06638853,-0.14236233,1.15282524,-0.82371867,-0.32262921,-0.17875020,
0.02304440,0.06693089,-0.07255340,0.04250758,-0.11479166,-0.02396543,0.03995924,0.01980786,0.04333022,0.01362793,-0.07810017,-0.10822435,-0.09883083,-0.06196909,0.01780353,-0.05121147,0.05096951,-0.02237086,-0.05743578,-0.03186862,-0.07340719,-0.01201444,-0.08543492,0.05780304,0.05595819,-0.01446976,0.02016718,0.03328866,-0.01900471,0.05916849,0.02931771,-0.11599269,0.01995656,-0.05185483,-0.08637517,-0.05475079,0.05627111,0.04474770,-0.02321108,-0.10502186,-0.04851296,0.00870223,-0.07910368,0.04292590,-0.03648473,-0.06352872,0.01829839,-0.01923934,-0.04336635,0.03662364,-0.02261650,-0.05900706,0.01877160,-0.04297063,-0.06386785,-0.09934255,0.05430270,0.04695412,-0.08636811,0.01024246,-0.11210829,-0.03769954,0.03084049,-0.08209989,-0.08356896,-0.05385343,-0.03790765,-0.10356465,-0.04524482,-0.05419410,-0.08919320,0.03738259,0.01440078,0.02167236,-0.04803220,-0.02308865,0.01552219,0.00251209,-0.01654048,-0.07948817,-0.09212352,0.02664969,0.04280871,0.02367383,-0.11126318,-0.05998204,0.05150269,-0.00671385,-0.00865804,-0.02858203,0.01927089,0.06828031,-0.02902419,-0.06315770,-0.04986897,-0.07974441,-0.03166930,0.02669392,-0.07819312,-0.07273166,-0.09943508,-0.01191674,-0.05376283,0.04398611,-0.09331170,-0.08006290,-0.08993559,-0.09054585,-0.06078228,0.05621805,0.06200159,-0.08047261,-0.07122666,0.01028838,-0.00416576,-0.03618289,-0.06603618,-0.07316034,0.00541748,0.01951134,0.02601691,0.04436889,-0.02642521,-0.04461970,0.05726546,-0.04338262,-0.06913511,0.01769243,
-0.19012687,0.41278183,-0.00022306,-0.51548773,0.06714348,0.82093292,-0.76584119,-1.56217992,0.16532569,0.04852967,-0.58136308,-0.68421650,-1.21770275,0.09486298,0.29291508,-0.63987100,0.01688091,-0.08780200,0.03108724,-0.17287156,-0.26306650,0.17502305,0.03504464,0.71549147,-0.27027053,0.03820098,-0.19793370,0.14420679,-0.74616313,-0.88411903,-0.95409232,-0.29585442,-0.60779268,-0.09182498,0.21407631,-0.22039333,-0.29380187,0.21766582,-0.43326455,-0.55879885,0.64804065,0.63799661,-0.88759440,-0.08234815,-0.15590753,-0.38450268,-0.47514379,-0.25139356,-0.17570682,-0.47830886,0.33609453,-0.36956650,-0.15499958,-0.00602688,-0.13536029,-0.83193672,0.60080600,-0.48618257,-0.01433481,-0.74005836,-0.71013463,0.04147795,-0.06360934,-0.70128667,0.32528451,-0.02633790,-0.39269456,0.08350614,-0.06508370,-0.76358366,0.12794416,0.27452233,0.36894566,0.48497751,-0.63676006,-0.11230242,0.41847339,0.21401180,-0.63639814,-1.38830471,0.39073268,-0.35704812,-0.43577608,0.04852269,-0.77681881,0.02799728,-0.42192495,0.57944280,-0.05994444,0.00980596,-0.33723950,1.00243783,-0.48941368,1.11131775,-0.09799486,-0.06018512,-0.28955540,0.46166164,-0.14795704,0.49889758,0.09569225,-0.36381641,0.09224575,0.02742952,-1.21546698,0.22837210,-0.22021994,-0.23509181,-0.20411520,0.03266993,0.24685372,0.36532187,-0.48410577,0.91532075,0.82694292,-0.15001923,-0.03811077,-0.38608259,0.15655403,-1.10671866,-0.02915960,-0.07086094,0.07669268,-0.25965482,1.24076593,0.12983808,-0.57495505,-0.03774959,
-0.02828444,0.16245000,0.12960178,0.27203223,0.24249890,-0.45112324,0.13381810,0.26730433,-0.03642900,0.35849321,0.22926335,0.24228147,0.30340365,-0.11949408,0.11841468,-0.08912571,0.09729585,0.05739579,-0.31015122,-0.81305546,-0.50842136,0.08960792,-0.04399351,-0.16632202,0.30007827,-0.07089900,-0.85257298,0.03616847,0.01096183,0.09040216,-0.59433180,0.28854033,0.68962252,-0.52195454,0.02329486,-0.00921479,0.34533167,-0.65082318,0.06842933,-0.01386595,0.19017826,-0.97404814,0.04306186,-0.03979449,0.44025478,0.25529164,0.00685827,0.25634372,-0.31128198,0.07797187,-0.11588836,-0.33977139,-0.06899112,-0.20859946,0.07615189,-0.25122428,0.26795551,-0.05485831,-0.59388632,-0.24062943,-0.11884946,-1.03970015,0.07407437,0.08523361,-0.50248617,-0.05141658,-0.51620865,-0.85255146,-0.38900855,0.04057563,0.17315654,-1.55484486,-0.76790893,-0.55271405,-0.10160436,-0.15955633,-0.17722520,-0.12766826,0.05364782,0.06125265,0.02486839,0.52756321,0.07788461,0.02500320,0.00917763,0.03122497,-0.53360891,0.01697304,-0.37680024,-0.50106555,-0.29730114,-0.97579384,0.07071403,-0.60940301,-0.38246709,-0.00400442,-0.18242835,-0.08386268,-0.19245361,0.16571304,-0.03764364,-0.56155092,-0.17305464,0.05464684,-0.18938987,0.19386715,-0.52727979,-0.09946623,0.10285598,0.17751884,0.01037302,-0.14472142,0.27360895,-0.21339460,-0.18807448,0.36027807,-0.08680625,-0.22268830,0.22786169,0.11005436,-0.05656439,-0.23994215,-0.03256731,-0.06678060,-1.09860265,-0.02630824,0.03438354,-0.30294985,
0.46693698,-0.54695290,0.54753387,-0.07483336,-0.16846201,-0.32942939,-0.19187553,0.26503694,0.03689424,0.13112840,0.01363343,0.11737301,-0.04344079,-0.22984320,-0.93104237,-0.16952087,-0.06005054,-0.11258076,0.01886063,-0.08299249,-0.32168821,0.07791405,-0.09843624,-0.32553825,-0.74433875,0.18148226,0.05476819,0.15064414,-0.55060399,-0.36023283,0.63301384,0.41098216,-0.02354509,-0.60878587,0.12942012,-0.07355566,-0.39834377,-0.84978789,-0.81894052,-0.31074187,-0.05630503,0.40213981,-0.31715190,0.20031071,0.02368596,0.07377990,-0.07029598,0.00363411,-0.01922798,-0.63896412,0.06390869,0.50290418,0.03835128,-0.55090284,-0.42210561,-0.51377892,-1.29079521,0.13182744,-0.19683744,0.14476006,-0.03509318,-0.82656616,0.10782044,-0.03515881,-0.13702339,-0.93048793,0.40290341,0.19108441,0.02772420,-0.03013601,-0.02217289,-0.66736591,-0.23673093,-0.94011897,-0.38858062,0.03335164,-0.82762247,-0.33658248,0.12786044,-0.16502552,0.18324558,-0.31184188,0.19014269,0.14512211,0.12831300,0.04714322,-0.11549418,-0.12402544,-0.59030807,0.03319518,-0.34606788,-0.34231645,0.49524954,-0.47683030,0.05761097,0.04341380,0.08070862,0.00213991,-0.65489441,-0.43028411,0.13586137,-0.34465894,0.16618174,-0.01741547,0.16109522,0.24607332,-0.21841310,0.18851262,0.18293048,-0.61724055,-0.14407352,-0.61624038,-0.07898041,-0.86480498,-0.80752510,-0.59984565,-0.45532295,-0.21644448,-0.25927621,0.01188627,-0.12639637,-0.02905480,0.15970801,-0.13254918,-0.56051964,0.10095020,0.14491349,0.12009382,
-0.21352325,-0.14771220,-0.03512152,0.16456544,0.15371320,-0.16011544,-0.12670439,0.10364974,-0.03239598,-0.25207621,0.22490771,0.22150184,0.05965288,-0.03497969,0.00328327,-0.27923715,0.07503738,0.15583977,0.05557130,-0.29199296,-0.35174736,-0.08919348,0.11300485,-0.30146539,-0.26163808,-0.10160352,0.22055532,0.10139573,-0.22478896,0.01857256,0.22316067,0.21660791,-0.00301738,-1.12458432,-0.21517479,0.27290836,-0.36149523,-0.22355361,0.37067953,-0.19088824,-0.02146182,0.14894047,-0.30515563,0.18694985,0.06761763,0.06255267,0.20740689,0.44350994,-0.34441742,-0.65722281,0.24569744,0.39932919,0.09444822,-0.36087459,0.06006119,0.26729596,-0.27463347,-0.12567787,-0.09616289,-0.21322867,0.01821663,-0.20503624,0.20117778,-0.02608836,-0.45627090,-0.17969406,-0.00445108,0.05367337,-0.14379953,0.14047700,0.13267118,0.05202622,-0.19005303,-0.22269914,-0.14200631,-0.21592221,-0.18216553,-0.33278713,0.21875580,-0.06089779,0.28106228,0.01363560,0.02480457,-0.07771221,-0.00298226,0.03486175,0.07305752,0.19040589,0.35702965,-0.05215055,-0.23549041,-1.12881660,0.17153963,-0.92437673,-0.13010697,-0.11254694,-0.40240639,0.08786289,0.08350023,-0.14845619,0.02720266,0.27611601,-0.24261221,0.01001817,-0.26535100,-0.80890268,0.10021195,0.06285828,0.14092930,0.16550887,-0.07060971,-0.05551147,0.16112685,-0.42390588,0.15019675,-0.35430852,-0.01119047,0.28360367,-0.07769774,0.16964222,0.01139542,0.21205813,0.10826124,0.16027255,-0.29798913,0.11116967,-0.19615024,-0.11384246,
0.23877344,0.71427733,0.28946045,0.16008067,-0.07772706,-0.72454053,0.07303058,0.29753038,0.07331170,-0.03846378,0.18671006,0.13687253,-0.11944908,-0.07376301,-0.24841571,-0.12372997,0.03628860,-0.09986389,0.41988319,0.17417358,-0.29091704,0.03811437,-0.10098394,-0.29546246,0.20719467,0.40981528,0.24723157,0.15879121,0.11867099,-0.20356052,-0.76283205,0.30195385,0.44805700,0.02287217,-0.41320932,0.29264146,-0.23589006,0.24314348,0.36108437,-0.15078834,-0.35261521,-1.07122278,0.06144727,0.21766943,0.04195035,0.08290849,-0.14593238,0.21700448,-0.29897648,0.17379513,-0.02287806,-0.47794196,0.04853114,0.25853291,0.25512359,-0.31472665,0.13583657,0.15779479,0.44278842,-0.12637091,0.21956290,0.41468531,0.18521179,-0.05083163,-0.32114917,0.01416619,-0.11928289,0.52354300,-0.20562854,0.04763980,-0.07755996,0.26597905,0.25746840,-0.19365665,-0.34075746,0.04214178,0.03782218,-0.35569718,0.20298520,-0.13401282,-0.12465518,0.68365520,0.52917969,0.13950495,0.09843483,0.10190874,-0.52279437,-0.04428867,-0.08700410,0.51834315,0.11781482,-0.50025082,0.04030863,-0.89175326,-0.28143233,0.11277436,-0.00432102,-0.02317684,0.01668387,0.03133078,0.05034174,-0.11111490,0.25150001,-0.05417046,-0.14941065,0.22061175,-0.15342191,0.27167398,0.12143319,0.13396180,0.14640951,-0.05982029,0.23487006,-0.27597558,-0.11484236,0.29081091,-0.01901760,0.15277758,0.16654794,0.23878673,0.18775977,-0.18721935,0.19878635,0.36222708,-0.54811025,-0.05786464,0.04334904,-0.13504106,
