// Neural Network File Format by Kyle Julian, Stanford 2016
3,20,7,64,
20,64,64,7,
0,
0,0,0,0,0,0,0,0,0,0,0,0,0,0,0,0,0,0,0,0,
1,6,6,6,6,6,6,6,1,1,1,1,1,1,50,50,50,50,50,50,
0,0,0,0,0,0,0,0,0,0,0,0,0,0,0,0,0,0,0,0,0,
1,1,1,1,1,1,1,1,1,1,1,1,1,1,1,1,1,1,1,1,1,
-2.54822135,1.16040933,-1.05630994,-0.92862570,-0.39005804,-0.11303171,0.10738520,-0.52174425,0.67895687,-0.22912240,1.86325574,1.95991755,0.73766506,-0.46719390,0.06255855,-0.03676691,0.16164988,-0.01838296,-0.06072845,0.06286002,
0.05233187,1.88561261,-0.02071157,-0.24227102,-0.13322310,-0.18045542,-0.12853564,0.05043513,2.56294489,1.25470233,1.56240213,-0.94104052,0.43687424,3.32601595,0.11425973,0.08333790,0.00466214,0.01936539,-0.02537436,0.04767974,
-2.83425927,-0.47892427,0.84420854,0.90271330,-0.03044467,1.05898404,0.98584223,0.91513479,-1.18440843,1.70784652,0.89129710,-1.15221202,-0.40572622,-0.98705137,0.12627178,0.08895263,0.00811435,-0.03094143,0.05999493,0.02702093,
1.65398657,-0.27180612,1.59849131,0.11074445,-0.10845534,-0.05148977,-0.19467255,1.37150073,-1.48125255,3.50905919,-1.62125373,-0.34121442,-0.56029284,-0.94192231,-0.02509112,-0.00639848,0.02212376,-0.02869288,0.00563514,-0.02327357,
0.04286460,-0.13569300,-0.01634734,0.29506424,-0.05889836,0.07858101,0.37435186,-0.17357229,-2.06633878,-2.16151738,0.14529651,0.21829899,-0.44193178,0.42926642,-1.00914156,-0.45495349,-1.93318427,-0.92005539,-2.18081260,0.01591117,
-1.80252945,0.86070758,0.43419182,0.39166787,0.39770210,0.23021889,0.46882430,0.10082897,0.43118939,0.67998183,-0.34031668,0.95251143,0.80764890,1.06711888,-0.18691877,-0.03989446,0.06298192,-0.02730810,0.07271764,-0.00965702,
0.04941481,-0.46759599,-0.68259799,0.25733048,0.52536362,0.19696340,-0.23891112,-0.30224365,-1.11860740,0.33430451,-0.59274143,-0.09775800,-1.00913513,-0.12445746,0.05694957,-0.76728141,-1.19810486,-0.47126442,-0.04783817,-0.70232159,
-0.13761736,0.01605277,0.37048832,0.16399954,0.60374582,0.52818567,0.28651652,0.24778971,2.22652102,-1.58659327,-3.86723948,-0.39246741,2.21999884,1.48848093,0.01080762,-0.05891236,0.03675932,0.04952440,-0.03438932,-0.06392128,
-0.55049217,-0.36948332,0.72006392,1.08907473,0.47623241,0.39379627,1.48843408,0.80916446,3.19398332,0.20885329,0.45675921,0.02536017,0.60269344,-4.04660606,-0.01192508,0.00266472,-0.00025734,0.10855152,-0.06893532,0.03971677,
-3.05965233,0.53210181,-0.22215065,0.40897247,0.87271583,-0.25620022,0.08703017,0.46066454,-0.48671806,0.01046395,-1.03114724,1.83439374,1.03801930,0.92084104,0.02154173,-0.05647146,-0.02039468,-0.04001650,0.00746024,0.03212623,
1.94085658,0.97161067,-0.06208518,-0.33583218,-0.20418386,0.00810212,0.25412175,-0.01734008,-0.16924842,-0.70239091,0.35346669,-0.81707859,3.33955336,0.87078989,0.00613223,0.01244955,-0.01742476,-0.11448250,0.03496411,-0.03425300,
-0.43643254,0.32307309,0.97368807,1.32551992,-0.40426117,0.23932028,0.04630158,0.95882708,0.30095550,0.32245740,0.97398293,0.87984574,-0.34010294,0.36643121,-0.10480713,-0.02037373,0.14700578,-0.81618941,-0.02535427,-0.11456080,
1.46034658,-0.23066601,-0.67742020,1.03178477,0.38663223,0.44911975,0.07726611,0.08753107,1.51371801,-3.94387364,-2.35032749,0.35283697,-0.31907234,1.44194448,-0.00462178,-0.01743414,-0.00399643,-0.01108892,0.07567463,-0.03611287,
2.91954303,-0.15381569,1.27561986,0.32824159,-0.31857830,0.18957177,-0.14095217,1.26829422,-2.57239914,2.92715430,2.50631714,-0.20934804,-1.58405888,-0.86352760,-0.08355525,-0.02337186,0.01325801,-0.03194300,0.04718607,-0.04651609,
-0.64321977,-0.29359281,0.94073343,0.39296114,0.15403533,-0.22711548,-0.05129252,-0.38287288,-2.61765146,-0.67082971,0.54002184,0.52323079,0.70419931,1.56566107,-0.39727372,-0.46754357,-0.77274603,-0.04946202,-0.07852699,0.02556538,
-2.95693660,-0.05745436,1.99763346,0.98257798,1.10814011,0.53683197,-1.67234218,0.55512059,-0.12829842,-0.40885398,-0.68388313,0.21671592,-0.44294202,1.27824926,0.00702985,-0.06013266,0.02701698,-0.03337658,0.00870295,0.04521751,
0.40536198,1.02571595,-0.04885158,0.28744438,-0.50222796,-0.01803880,0.13356011,0.54717100,-3.72988200,3.41756892,0.11800489,1.77679300,1.73228157,-0.51218289,0.02910603,0.04825447,0.05144805,0.02714885,-0.07637373,0.01054247,
-3.50578547,-0.13430621,1.11811709,0.36212710,0.96792859,0.37837023,0.34457791,0.63216007,-0.98480719,-0.83806014,-0.01754260,-1.06632042,1.73336613,1.46560752,0.03453615,0.05320366,0.00284711,-0.09030154,0.01847938,-0.02935768,
-0.51584601,0.39203742,-0.13925473,-0.20920499,0.72204059,0.12336125,-0.45819509,0.03760710,1.28572750,0.76855773,-0.71821284,-0.35160294,2.07341981,0.80388618,-0.08051380,-0.20532279,-0.07089677,-0.16890779,-0.41229689,0.04325538,
-1.79833257,0.44349208,-0.35054547,0.88597697,-0.37245077,0.19051285,0.11400393,0.48361954,-0.87760186,3.29820752,1.50494862,0.63284767,-0.27993914,-1.62659895,0.04935778,-0.00613894,-0.03390399,0.05631964,0.03414081,0.08218092,
-6.19225740,-0.36414763,0.45207718,0.56054968,0.36931357,0.50594991,1.17158902,-0.02260211,-0.20886253,-0.61196935,0.48076478,-1.21148145,-0.55650663,1.80365276,0.00548936,-0.01328083,0.02344545,0.00030248,-0.00280738,0.03926047,
1.47990978,-0.04500735,0.79552782,1.66516352,0.27820083,0.13205813,0.18884817,1.26199412,0.11070704,-3.87076974,0.57239109,1.67305529,-0.23425525,0.66320723,-0.00501024,-0.02042461,-0.03255738,0.01502473,-0.01169094,0.02966479,
-2.14906383,0.55455405,0.73965311,0.68281281,0.47372416,0.79009426,0.56693655,0.35145342,1.36606765,0.95016426,0.38820216,-0.11393369,-0.07107907,0.43296543,-0.15303257,0.00008465,-0.15765758,0.06244412,0.05700939,0.03285927,
1.60599053,0.64598763,0.39565098,0.52479428,0.59705549,0.48439237,-0.00411291,-5.42417145,-0.00422805,0.00862715,0.09563849,-0.59119719,1.11300540,1.51463914,0.01903511,-0.01974001,-0.04591126,0.01331657,-0.00893441,0.02843036,
-0.69278157,0.23612572,1.58220804,1.54124844,-1.15757692,0.17846447,-0.22190043,-0.26389945,2.18847656,0.12666306,-0.57752168,-1.03359497,0.47113255,-0.21452212,-0.00188859,-0.09659984,0.06693052,0.01636806,-0.03092540,0.01227018,
1.56995857,0.28698468,-0.00212579,0.06495682,-0.27471960,0.27182794,-0.37244368,0.92282665,1.23966968,0.50857717,1.07328165,-0.43050984,-2.44733143,2.24323988,-0.04912854,-0.03994414,0.01105458,-0.07276570,0.03873420,-0.01079552,
-2.80416226,0.49342683,1.10318506,0.77808118,-0.16662145,0.16582558,0.37008342,0.50914031,-0.06058480,1.67382002,-0.40563348,2.39997768,-2.10263515,0.04842956,-0.05650520,-0.04810410,-0.06184101,0.02051064,-0.02396955,0.00325839,
-0.56490403,-0.34500831,0.76225764,-0.24662678,-0.26468965,-1.09845591,-0.11053845,0.19116481,-1.75272882,-1.63675439,0.13132928,-0.27443501,1.00789738,-1.02946603,-0.42683738,-0.03820078,0.21005270,-0.15811370,0.03045604,-0.17496753,
-0.91719526,0.50992614,-2.22210145,0.30714369,0.63966769,0.46268058,0.60157079,0.39894751,-2.64756870,-0.85151964,0.42828861,0.94776744,0.88101000,1.78951550,0.01899785,0.08953095,-0.00024263,0.02137934,-0.02138334,0.00019349,
0.21510477,1.48585963,0.36697784,0.11067675,0.14563410,-0.33698785,-0.44283393,-0.19604799,0.93079323,-1.14553511,2.33772278,1.80226779,0.25986189,0.53298998,0.03177135,0.10236690,0.03204392,0.10326690,0.00911905,0.02910899,
0.35000536,1.11468208,-0.14967659,-0.44267258,-0.46865356,-0.07230469,0.24105549,-0.28328565,2.83362269,2.63784075,3.44645715,-0.50247604,-0.85725981,-1.44738925,0.00342963,-0.08081805,0.02737237,-0.00479094,-0.08150796,-0.05150019,
0.83972710,-0.44263971,1.86797369,0.67760152,0.04612954,0.20438327,0.77484149,1.19077003,2.76935458,-0.26495391,0.77531391,0.47311214,-1.37019753,-1.96191823,-0.00096032,0.03889543,-0.01018313,-0.01666107,0.01035167,0.03135120,
1.02199101,-0.46767968,1.81657839,0.33053553,0.12120042,-0.34634310,-0.00830962,-0.02406358,-2.48319769,1.09544170,0.01452395,0.17681989,-0.53882468,-0.51934338,0.04888984,0.21461092,0.10819318,-0.03324432,-0.09420973,-0.09868053,
-0.24750099,0.16508113,-0.80486453,-0.76505488,0.73433882,0.91396958,0.88505054,-0.65287799,0.79601628,-0.94839782,1.97232842,1.42996025,-0.62997586,-0.84321988,-0.04696775,-0.00758928,-0.02109922,-0.02014356,-0.05625474,0.05877437,
3.94405413,0.74613988,-1.94490886,-0.41651872,0.49591291,-0.11001275,0.18483399,-0.35496351,1.74643481,0.85762131,-0.58626491,1.81430960,-0.98122287,1.07346678,0.02812803,-0.08745015,-0.04183677,-0.05358167,0.02672749,-0.01211933,
0.65495360,-0.09918370,1.53874397,0.89564198,1.32218778,0.90572989,0.72214693,-0.53212351,-2.44108653,0.80735517,-0.74446166,-0.13552405,-1.06028616,3.11220551,0.01615580,-0.06248965,0.00929694,0.12133397,0.00523834,0.02355272,
1.29140341,0.47354338,0.69844025,0.49017549,-0.30041277,-0.23191968,0.64907169,-0.73625207,2.03621960,-0.82388830,0.27385524,1.91218126,-1.40841174,0.46292979,0.02771583,0.03454481,-0.07480142,-0.02232216,0.03606186,0.01459491,
-1.06843460,0.83474517,0.24398398,-0.12287638,0.21517330,0.13266386,-0.24809118,-0.13381104,1.02190840,-0.07197815,-0.02765119,-0.92383248,2.48595047,1.82762635,0.03313494,0.06421718,-0.02457722,0.15063059,-0.00923957,0.06828029,
-2.80181694,1.52093506,0.77850193,0.29560086,-0.18747461,-0.33120099,-0.30632877,0.06344768,1.55602682,2.09614348,0.47567248,1.11260915,1.44719362,0.14971724,0.09693308,0.17905264,-0.00271917,0.04783750,0.01998442,-0.03790431,
-1.59259963,0.32182911,0.35417143,0.59874260,0.99256784,1.10881305,-0.18703981,0.13224238,-0.84496200,0.86083710,2.61058331,-0.28783730,-0.98336565,0.00905150,-0.08088116,-0.06106481,0.10758223,0.01588823,0.01787760,-0.07942290,
-0.75238913,1.10824013,-0.66148406,-0.08373259,-0.00751737,0.16512577,0.40456405,-0.52183658,2.42032242,1.45270312,-0.44349131,-0.48296505,-0.08595772,1.18362153,0.10341465,-0.10236700,0.05214101,-0.19576313,-0.23657317,0.05836071,
-0.02886419,0.88405544,0.20567071,0.08648131,-4.57624483,0.24503471,0.49674097,0.23422109,1.11646068,1.86371696,0.19490623,1.08818722,0.83258647,0.33442500,-0.02350163,0.00055012,0.02666047,-0.02736998,-0.00071737,-0.02601364,
-1.16360772,-0.69759971,0.64986372,0.37214193,1.12161422,0.10659052,-0.70255303,-0.43485668,1.73526275,-0.87752676,0.01982971,-2.39972806,-1.34108841,0.71992481,-0.12274495,0.07570063,-1.17310584,-0.22866145,-0.02736405,-0.23698106,
1.35769117,-1.18509018,-0.75048560,0.60316998,0.15750571,0.90733600,0.97720993,-2.16440392,0.08322160,-3.14334726,-1.82278621,-3.38768458,-0.05921590,1.44768965,-0.08101399,-0.04627061,-0.04155283,-0.08512630,0.03380243,0.01363346,
1.21036911,1.05360484,-0.48150033,-0.18748315,0.05905655,0.20854285,0.01571640,0.33589223,1.70728016,2.30061340,-2.19827509,1.99722564,-0.55244571,2.36404705,-0.08073989,-0.04087913,-0.03985887,-0.14606205,0.05124073,-0.01221682,
-1.85521531,0.73471451,0.03070146,0.13282785,0.08191583,0.15723981,0.36930388,-0.25415975,1.17242801,1.29621685,-0.69841796,1.81922781,0.70496446,-1.32611120,0.02357260,0.00695981,-0.08889911,-0.11774575,0.07526331,-0.03219129,
-1.14725709,-0.09552264,0.52772129,0.03453953,0.65880585,0.71404392,0.91526687,-0.14726605,-3.28246593,-1.97478259,0.48007977,0.65663403,-0.07068116,2.45061541,-0.08702044,-0.02241281,-0.03913694,0.03032273,-0.12544823,0.11264192,
2.42206383,0.79391134,-0.33124462,-0.33230188,0.96304303,-1.01196086,-0.37187603,0.26610374,-0.37998164,0.20859627,1.39374530,0.47878641,2.30910993,-1.57069707,0.03127554,-0.01348059,-0.03754196,-0.00021264,0.03231490,-0.00026062,
0.06447441,0.24952044,-0.17027257,0.63091767,0.18358760,-0.26559344,0.39866492,0.25146401,0.94917828,1.75167906,0.89013952,-3.87217045,-0.10196884,0.96626323,-0.03935948,-0.02665030,0.00894350,0.04128274,-0.03767898,-0.00083867,
0.68622428,-0.21543612,-0.08200455,0.06966101,0.14910229,0.07938696,0.68387324,0.57743841,-4.23299885,0.65180421,-3.35365844,1.06606412,1.02811372,1.16395104,0.03807395,0.13418636,-0.00065310,0.04867017,0.00620737,-0.01193448,
-1.14664698,0.32387060,-3.38141918,1.31290853,0.31432679,0.00498660,0.32934135,0.05651164,1.23607421,-0.20758614,-0.08027367,-0.05622562,0.64158350,0.34560797,0.00693098,0.07766531,-0.00342563,-0.00502435,0.02136917,-0.00494695,
-1.32214475,-0.24115145,0.64075506,1.43253696,0.84066081,0.43944019,1.00289035,0.77211630,2.70618176,2.70901346,-0.80734271,0.08669250,-1.81321394,-1.27429533,0.03971225,-0.01908698,0.12722710,0.15573995,-0.03111402,-0.05747756,
-0.91081232,1.04881036,-0.01987450,-0.08797427,0.07456284,-0.51307333,0.11248609,0.12537472,0.44579071,-0.00734325,2.84742355,0.74591506,0.30083755,0.60507226,-0.16096285,0.07288112,-0.03246849,0.01067979,0.01434471,-0.14364929,
-1.68215168,0.71797943,-0.21638100,0.13009010,0.33988005,0.45219710,0.22018321,0.24809992,-0.69755596,-0.93817449,1.10471261,1.26279974,0.41963232,1.23394299,0.14168462,-0.03651865,-0.02105135,-0.00109977,0.00007298,-0.19077055,
1.35720301,-0.06161737,0.36425284,0.97558671,1.21336627,0.01060188,-0.26089197,-0.39742777,3.81051230,2.20502687,-2.31752586,-2.07366085,-0.35355484,-0.27372971,0.04431264,-0.02106747,-0.04007964,-0.01718677,-0.04513327,0.03230048,
-0.85339737,-0.04003789,0.55221111,0.20033506,0.31902528,0.53581923,0.64510226,-0.10284910,-3.13766670,-0.37698454,-0.05265512,0.44684201,2.30567837,-0.05479500,-0.00768947,-0.02790899,0.01950587,0.01019363,-0.02825060,0.05923093,
-0.08999512,-0.02860518,0.30104545,0.18797386,0.24815327,1.10710704,-0.35800025,0.61656404,2.70295262,-0.40244329,-0.27082127,2.57099199,-0.74645144,-3.13708663,-0.01476438,0.01074048,0.05055512,-0.00297344,0.01197996,0.06719155,
-0.22445066,1.03363013,-4.55274773,0.74552143,0.01214122,0.22509354,-0.17120779,1.06235170,2.06678915,2.59608412,2.08466482,0.42119950,0.44872454,-0.81429523,0.03595804,-0.05800778,-0.07533883,-0.17270122,0.01434105,-0.03910260,
0.80043048,-0.57192403,-0.36563635,-0.47587863,0.17072436,-0.06900834,-0.44743997,-1.16797769,-2.27470994,-4.11891556,-3.69991350,1.02096045,-0.31042308,2.06850171,-0.21556285,-0.12772016,-0.12484945,-0.04198908,-0.06773093,0.01266651,
-4.44331646,-0.24719900,0.73566777,0.68873793,0.81248885,0.57763040,0.62474853,0.64810336,-0.95027792,-0.94558078,-0.36138925,0.03693115,1.51118279,-0.22144403,0.00638978,-0.03055368,0.04243564,0.08292513,0.01283793,-0.03532839,
-0.27778739,-0.05257787,0.12420554,-0.61994290,0.61753744,0.76142550,0.52984154,-2.96775770,-2.17168593,-4.03548527,-5.75369310,0.30005750,1.16627264,1.48893237,0.03441430,0.04902285,0.02921794,0.02488993,0.04616749,0.01444625,
-0.35096559,-0.96632040,-0.87707984,0.06768707,0.33755779,0.23827349,0.23010598,-0.03298070,-0.89242578,0.18399909,-1.78541148,-1.58777738,0.37060988,-0.24865967,0.19816658,0.18420538,0.13031122,0.03757923,0.06547929,0.08729634,
0.11484685,-0.36774004,0.58562684,0.28663805,-0.27537435,-0.28434289,0.25801319,-0.12715656,-2.60741854,-0.94768530,-1.64902937,-0.48485938,-1.59532630,0.45882341,-1.77132976,-0.72298247,0.01393977,-0.34236157,-2.03065085,-1.08767533,
-2.25862360,1.40391934,-0.06469832,-4.93816328,0.58480477,0.39773142,0.48308629,0.27545667,1.00090933,0.53271496,0.27569431,0.60177380,0.98218280,0.71189606,0.01997640,-0.01286286,-0.04364734,-0.01618481,0.00062485,0.01942886,
0.89961058,
0.04254758,
0.98620933,
-0.19376996,
0.54871190,
1.04048908,
-0.23823604,
0.64963734,
0.45668960,
0.88440740,
0.47061706,
0.74226052,
0.10325083,
-0.51288348,
0.66954380,
1.33918762,
0.00287510,
1.04891109,
0.52803558,
0.50351870,
1.18853092,
0.60791385,
0.92874849,
1.00946951,
0.26625177,
-0.67403084,
0.74475276,
0.12928389,
0.71618259,
0.67436337,
-0.03463214,
0.16897155,
-0.00623824,
0.33222094,
-0.62664086,
0.58277631,
0.11899795,
0.86366922,
0.94942492,
0.40794054,
0.22475663,
0.51571089,
0.03851071,
-0.21237691,
-0.28385854,
0.90394217,
0.89338773,
0.11190200,
-0.20243326,
0.37038723,
0.06302527,
-0.12678073,
0.91636789,
0.76251501,
-0.27072787,
1.01309061,
0.28561768,
-0.30634928,
-0.04657052,
0.97474605,
0.55096161,
-0.23023316,
0.13421641,
0.29431102,
0.28771323,0.82840681,-0.12740220,-0.12396290,0.50629181,0.46198320,-0.08799244,-0.26775697,-0.10907234,-0.10307539,0.42609608,-0.08027747,0.17553416,0.04750524,0.04229645,0.09025565,-0.26930439,0.13553877,0.18675245,-0.03904359,0.31606635,0.00669384,0.11828278,-0.62238598,0.10290219,0.15065789,-0.29851970,0.18864916,0.03760007,0.01689302,0.20671658,-0.08470269,-0.04866137,-0.40107551,-0.16080789,0.30991068,0.32995343,0.23749478,-0.02858546,0.11587463,0.37105379,-0.02047065,-0.36597323,0.46614727,-0.11119321,-0.02629363,0.29306287,-0.16205016,0.52544320,-0.15505381,0.01618250,-0.05499783,0.32101193,0.31119746,0.39039835,-0.15719774,-0.65911889,-0.14630000,0.13095270,0.07743713,0.05936805,0.18483774,-0.37442046,0.65552032,
-0.47125193,0.29661739,0.05661933,0.35760242,-0.05204866,-0.11151074,0.19902644,0.50752950,0.04179781,-0.10068740,0.43248680,-0.06683279,0.47692168,0.57474381,-0.20699982,-0.13066368,0.27320895,-0.20424181,0.20763445,-0.11250933,-0.68388683,0.29282233,-0.10555235,-1.25412560,-0.18533339,0.08906264,0.02524516,0.04872761,0.19155782,-0.17351505,-0.35503724,0.24901155,0.24739364,-0.04561672,0.10457303,-0.06176530,-0.56177580,0.06275839,-0.22852206,0.02359817,-0.22337167,-0.07930513,-0.50679743,0.31181386,0.36776298,-0.32970750,0.16559066,-0.06590859,0.08104134,0.24383183,0.40201545,-0.01535359,-0.18005306,-0.14000776,0.07067465,0.14052902,-0.08242988,0.45795682,-0.34857935,0.23496076,-0.76976329,0.15280186,0.06555077,1.07647884,
-0.55656451,-0.60959524,0.67036259,0.45627934,0.31107271,0.20903008,0.27076453,0.71323407,0.61333251,0.02687447,-0.66174394,0.71984643,0.50585490,0.45666283,0.21539667,0.32439554,-0.09067875,0.84546012,0.13214204,0.09619519,1.05839598,0.64328599,0.45185623,0.76664066,0.50017351,0.26091114,0.15096346,-0.16373999,0.02730460,-0.40339372,-0.87524581,0.58646971,0.31446043,0.55719697,-0.82901794,0.77183652,-0.07950160,-0.40960464,-0.43533954,0.57600474,-0.44054648,-0.19827284,0.49318922,0.12550288,-0.26277217,-0.15831232,0.58090413,-0.42067918,0.12448909,0.53770661,-0.21080337,0.60202336,-0.13819510,-0.05462791,0.42325857,0.34242132,0.39603066,-0.29221070,-0.17133471,0.61499113,-0.38021189,0.36503944,0.49521506,-0.99047810,
-0.75492036,-0.64599335,0.56980324,0.42497247,-0.22267611,0.25489396,0.20176196,0.80583352,0.59369612,-0.01832273,-0.28268629,0.60049063,0.56940192,0.58796108,-0.03657762,0.29290116,-0.03628791,0.57450473,0.02683970,-0.00129027,0.51346433,0.82763594,0.41720662,0.55711108,0.53351355,0.17571461,0.04544270,-0.08815596,0.08516611,-0.23304468,-0.60182333,0.51854593,0.20884839,0.59767240,-0.57504338,0.98055214,-0.04664745,-0.37282464,-0.61456019,0.51818103,-0.29471096,-0.52834541,0.42576537,-0.11233509,-0.45563293,-0.10010315,0.57672369,-0.46672219,0.06437712,0.60793495,-0.02979406,0.53264230,-0.15874620,0.14202897,0.39632279,0.56833714,0.25589016,-0.49159968,0.03832147,0.59406841,0.42006731,0.44750699,0.44148225,-1.04442704,
0.77998823,-0.27620327,0.04945882,-0.01337380,-0.10373829,-0.28018615,0.21168827,0.14302917,-0.07814406,-0.23537895,-0.47230023,-0.21289267,0.16377895,-0.79025882,0.00664975,-0.58549601,-0.45263514,-0.44475961,-0.67328227,-0.30535188,1.12008750,-0.54265487,0.04888519,0.28517041,-0.17022121,-0.08793326,-0.55111939,-0.80472451,-0.41459379,-0.38090116,-1.30508792,-0.19216844,-0.55800122,-0.17080246,0.02723684,0.27604571,-0.64891744,-0.26915807,-1.25805569,0.12824045,-0.22620845,-1.37238503,-0.09683833,0.34175894,-0.57981211,-0.71101695,0.36342159,-0.86119777,0.09737318,0.07890429,-0.07937734,-0.03758284,0.26576233,-0.44431818,0.00618922,-0.18900511,-0.86369318,-0.20087211,-0.12577820,-0.15740871,-0.11363003,0.28094196,0.42523214,-1.31985152,
-0.45454362,0.19545986,0.04104458,0.63122344,-0.59974915,-0.23450658,-0.57945013,-0.06345359,0.20193194,-0.43005505,-0.19700296,0.13680387,-0.00759108,0.36177069,0.80307770,0.16072614,0.03694763,-0.57094663,-0.27642041,0.19876781,-0.06682276,-0.33515427,-0.21471345,1.12362194,-0.23424324,0.11857996,0.24540967,0.30572662,-0.57635778,0.04807659,0.41352722,0.47852841,-0.12667024,0.00717207,0.29506776,0.30383912,0.18813977,-0.14392132,-0.13498843,0.01713167,0.11259197,-1.06492567,-0.20732005,0.17553799,0.25936553,0.19371791,-0.00423162,-0.12167511,0.08032857,-0.21876386,-0.13014904,0.28233933,-0.08328545,-0.66065788,0.02878215,-0.20032793,0.15274037,0.13432142,-0.47404119,-0.77318561,-1.43041313,0.26053423,0.60187608,0.14597647,
-0.18644331,-0.42488381,0.46623820,0.12941320,-0.22420752,0.14642382,0.32752600,-0.04642206,0.47479683,0.31878436,-0.53636193,0.19215776,0.02065607,0.89929646,0.05486733,0.66829568,0.17644116,0.32600549,-0.03606958,0.35508999,0.77492726,0.58449483,0.29054704,-0.05712907,0.08426002,0.25077057,0.62728494,0.23171833,0.04570450,0.17166552,-0.16952756,0.33033904,0.24815273,0.73776680,-0.39197227,0.33299100,0.09003381,-0.44495040,0.01460837,0.69292986,-0.23082776,-0.42285630,0.08017357,-0.38664913,-0.07235511,0.02108650,0.34969693,-0.09801994,-0.10302863,0.55499798,-0.04742047,0.22654751,0.33595514,0.30364442,-0.11717758,0.30210486,0.40772700,0.09918753,-0.07945222,0.46458682,-0.63401538,0.13552766,0.06354319,-0.49532968,
-0.11775833,-0.08973443,-0.01693274,-0.09729794,-0.13337767,-0.08057451,0.01896125,0.01612851,0.09047617,0.01613117,-0.07188594,0.05399391,-0.05568956,-0.10441864,-0.06486612,0.05189736,-0.06242869,0.12029409,0.10076074,-0.08284178,0.02342376,-0.09202395,-0.07752358,0.09645492,0.06398423,-0.10465184,0.06665841,0.03938256,0.08561511,-0.13810199,0.02443634,0.05378354,-0.00841171,-0.08016557,0.04192814,-0.11434150,-0.12953687,-0.10061787,0.00781998,-0.01944702,-0.11268611,0.05150235,-0.13261841,0.08251252,-0.11532834,-0.10128139,-0.00831269,-0.13097635,-0.07397176,-0.10030984,-0.09150924,-0.01590832,0.09173074,0.09448941,-0.06003045,-0.02420554,0.04526943,-0.08206896,-0.10536587,-0.08978260,-0.13575946,-0.11595611,0.02431186,0.05857725,
0.12643290,0.00608667,-0.13776229,0.04277289,-0.05649725,-0.06549645,0.11491923,0.04280395,-0.07588793,0.05111277,0.07314293,0.08003179,0.06423002,0.04763257,0.01364981,-0.07300866,-0.15331739,0.02036270,-0.07289313,-0.05384341,-0.18066779,-0.07198526,-0.33132917,-0.04067983,0.12454046,0.01559270,-0.06492706,-0.14388338,-0.09708777,-0.03912659,-0.10082248,-0.19455515,-0.17946522,-0.06784515,0.09735401,-0.32043883,-0.20756754,0.09430927,-0.05662315,-0.12716961,-0.04195047,-0.04308757,-0.03306101,-0.00462867,-0.07449041,-0.08497425,0.04825820,0.08325043,0.11367635,-0.13493943,-0.32998869,-0.12066140,0.01982822,0.04583254,-0.17386201,-0.17828815,-0.13580219,-0.08321491,-0.06826426,-0.20886590,0.03952724,-0.02057111,-0.19918537,-0.07173110,
0.32658264,0.35786971,0.31548685,-0.00539695,0.29609278,0.44573221,-0.23560162,0.25802001,0.35149443,-0.24785872,0.56230611,-0.03696621,-0.45756987,-0.05382442,0.27126968,-0.10664203,0.12673527,-0.05705927,0.03764836,0.22016206,-0.05425029,-0.25933626,0.10756045,0.35104528,0.01887175,-0.09210611,-0.16517793,0.42875579,0.01922668,0.10819040,0.46262956,-0.09794472,-0.32445377,0.37008229,-0.15332717,-0.26828086,-0.13792117,0.46626741,0.24768819,-0.06570193,0.32944113,-0.20982237,-0.23668164,0.18268616,-0.14368565,0.28801519,-0.11284854,0.39327377,0.44466752,-0.13407604,-0.31232473,-0.00304841,0.12068112,0.17743795,-0.15779087,0.07697818,0.10114626,0.01606939,-0.16245307,0.06615664,0.36965328,0.11566669,0.24634862,0.45301846,
-0.17965361,-0.00887142,0.22635694,0.39772052,-0.24257113,0.22444901,0.09406094,0.33893406,0.72497886,-0.00822474,-0.27444431,0.08777644,0.10632546,0.35335532,0.00616781,0.08796297,-0.26855966,0.08164656,0.42888811,0.19019718,0.51235360,0.21619591,0.34682733,-0.24969947,0.08065603,0.06989393,0.24828635,-0.11598033,0.07301783,0.11059724,0.08698373,0.41878784,0.11285582,0.77336985,-0.26472908,-0.02099442,-0.00672786,-0.40872294,-0.06164757,0.48479262,0.04073014,-0.31437096,-0.04072055,-0.57567036,-0.15312600,0.39324617,-0.02581803,-0.08046328,-0.09900866,0.00849684,-0.39963582,0.42962959,0.06140020,0.21837722,0.38772061,-0.16375476,0.67134565,-0.01263052,0.25822544,0.20922592,-0.41054133,0.25011268,-0.28693765,0.48920223,
-0.00349224,0.52368200,0.10418009,-0.02652784,0.14205852,-0.10186946,0.27930364,-0.17755060,-0.32050496,-0.19192141,0.09052497,0.14992228,0.19899637,0.29833776,0.19832708,-0.21792106,0.11678623,-0.01317993,0.01892910,0.00872825,-0.80807483,-0.03711902,0.06958517,-0.88797837,0.01581215,0.42152014,0.05597760,0.10230266,0.08538204,-0.25117880,-0.03689454,-0.11639822,-0.16801839,0.31866923,0.31901011,0.83499724,-0.19175047,-0.00982887,-0.39510694,0.05047032,-0.05224436,-0.32467732,-0.37805623,-0.09569544,0.46385679,-0.32757679,0.17036416,0.26512522,0.34019038,0.06014973,0.12234411,0.20699705,0.09589832,0.14470297,0.22880808,-0.02123171,-0.60201889,0.42210114,-0.16631617,-0.45837218,-0.72239935,0.31283683,-0.09741331,0.24618976,
-0.04124210,0.11588915,0.10543234,-0.44172379,0.27760077,0.28269309,0.42451033,0.10260827,0.38429388,0.25453883,-0.15429299,0.05818370,0.55914909,-0.41315877,0.31624332,0.26785529,-0.87578553,0.17753054,-0.16464834,-0.35509962,0.54428154,0.51186132,0.19824605,0.24267228,0.35366368,0.23460099,0.10850678,0.25870255,-0.45433342,0.44664332,-0.08831646,0.35949710,0.24098663,-0.14517048,-0.71341133,-0.51346940,0.05119691,0.21128534,0.22184516,-0.13589075,0.15101233,-0.18195270,0.19002014,0.09385881,-0.34243426,-0.01649862,-0.09953581,-0.69820380,-0.30211282,-0.61460143,-0.17107455,-0.15455678,0.13298146,0.32258782,0.01123801,0.06669564,0.18950954,-0.36319801,-0.96565056,0.41858882,-0.24888036,0.05995681,0.70516211,0.58580977,
-0.01020199,0.01058752,0.07791431,-0.19009237,0.13090821,0.41714516,0.23641427,0.05063035,0.21790236,0.26473245,0.27523392,0.02983323,-0.05261571,-0.27386761,0.07599440,0.09832698,0.38064083,-0.05781291,0.14023490,0.12173805,-0.05981086,-0.22236370,0.21970041,0.12971237,0.09641318,-0.14668620,0.14554535,0.03518144,-0.03877035,-0.17663531,-0.00040393,-0.09574849,0.08315489,0.07965446,-0.04214920,0.03210279,0.12727210,0.01185709,0.38682395,0.06057827,0.19559605,0.11848076,-0.21233131,-0.27637821,0.06382904,0.08558697,0.01058213,0.29982227,-0.05432660,0.11226047,-0.20692860,0.10029015,0.03614763,0.24250048,0.29284275,0.22125804,-0.09675403,-0.10207964,0.50621009,0.34334895,-0.30387035,-0.18443345,-0.79990083,-3.92370892,
-0.21594335,-0.35296500,0.21913050,-0.33030882,-0.05040251,-0.36205402,-0.40260392,0.03686887,0.06919461,-0.57117385,0.16662814,-0.15313973,0.13483649,-0.07767411,-0.05461804,-1.86224949,-0.00023137,0.08450385,-0.96662170,-0.65994453,-0.21265951,-0.04336337,-0.25102919,-0.00368019,-0.41511789,-0.56201220,0.09818445,-0.21108851,0.44143012,-0.25003627,-0.06377964,0.23613369,0.02385273,0.74050283,0.08177395,0.27466834,0.27441862,-0.33237898,-1.08513403,-0.48187977,-0.30163378,-0.99923992,-0.67388344,0.53643799,0.12813514,-0.02316221,0.52659464,-0.48994347,-0.26351157,0.46493509,0.15295824,-0.05003184,-0.37222889,0.01050596,-0.10871944,0.51221377,0.01670605,-0.43696854,-0.59143251,0.21046454,0.87053579,-0.00484380,0.25521636,-3.41371822,
-0.85873270,-0.93734193,0.76297212,0.58445364,-0.25505063,0.28018191,0.24334081,0.85554558,0.82800043,0.11194979,-0.47442117,0.88784283,0.41210401,0.64024043,0.01818482,0.54400724,-0.25223285,0.79985285,0.11950520,-0.05061797,0.97232229,0.68690735,0.61452150,0.65226495,0.57768506,-0.00049806,0.29195800,-0.25871846,0.03503066,-0.33745772,-0.87123412,0.59900898,0.32495925,0.49487373,-1.11492538,0.86141628,-0.13851413,-0.34125575,-0.55259401,0.64915222,-0.41105172,-0.39693621,0.59595698,-0.23618299,-0.32581374,-0.12035543,0.69246465,-0.59596598,-0.07445402,0.70487499,-0.22231419,0.67702031,-0.27948385,0.09572716,0.46426600,0.52238458,0.41045636,-0.29216060,-0.24609876,1.00410092,-0.09768783,0.53567868,-0.25421238,-1.11760461,
-0.35253882,-0.27470490,-0.03460836,-0.22026776,0.51404870,0.12346505,0.52058280,0.40317470,0.22793902,0.53950423,0.02983507,0.25604302,0.43359369,-0.51882565,-0.16542074,0.27273574,-0.25509778,0.15069935,0.36347198,-0.15094514,-0.15364817,0.08437222,-0.12710068,-0.13157004,-0.46892089,0.29629517,-0.03905424,-0.23388566,-0.25355020,-0.05357683,-0.56876773,0.17372207,-0.14114080,-0.17215315,-0.23179533,-0.27841738,0.13579358,-0.00359074,-0.02253678,-0.40832821,-0.26170734,-0.36641729,-0.12182527,0.06116785,0.29508358,0.00503480,-0.15140128,0.38127697,-0.06941607,0.50491869,-0.64505887,-0.04271885,-0.19906066,0.27995342,0.50924379,-0.27243018,0.00963713,-1.44659388,0.24174508,0.06055285,0.37399015,-0.46322587,0.21378249,-3.37200665,
0.36321789,0.22259094,0.01073663,0.15989023,0.32408068,0.05178107,0.05007766,-0.19693297,-0.27806699,0.09610856,-0.15942127,0.06621685,-0.39186773,-0.05394904,0.29593560,0.06003113,0.29678562,0.05883575,0.04033741,0.16865803,0.56754243,0.21861348,0.06127496,-0.66067630,-0.01937509,-0.37261987,0.51503634,-0.06328521,-0.12599006,-0.09761503,-0.29060706,-0.14211693,-0.01262346,0.27914405,-0.72722781,0.22750653,-0.06392667,-0.13390741,0.04210335,-0.04516226,-0.03167863,-0.11949217,-0.09987603,-0.36393091,0.15658492,0.19902880,0.20177817,-0.22301318,-0.23034938,0.25403234,-0.50336409,0.08097244,0.12638383,0.24490638,-0.24155489,0.12523726,-0.38418460,-0.20723607,-0.72440207,-0.05798354,-0.54432672,-0.21462606,0.11704241,0.03569731,
0.10430373,-0.03081331,0.13569231,-0.23090993,0.13702837,0.36275810,0.27573988,0.04393419,-0.03123682,0.57918787,0.22047718,-0.01321768,0.14390855,-0.27601886,-0.34020287,-0.09114738,0.06224472,0.19041128,0.01581764,0.14451118,0.10488784,0.26616865,0.10350221,0.13735823,-0.13423017,0.18424512,-0.10579393,-0.13205367,0.98000610,-0.08792519,0.05831344,-0.22274673,-0.43375805,0.43084076,0.03752138,-0.22922905,-0.38647550,0.07845324,-0.00540275,-0.02815100,0.01286300,-0.00858436,-0.14911138,0.09543529,0.14691074,0.02690511,0.07043585,0.03599654,-0.08188753,-0.18614140,0.38760757,0.04475275,0.03299454,0.56414431,-0.20271531,0.12561505,0.18503393,0.49557668,0.14279254,0.28654173,0.40564638,0.08984438,-0.80207217,-3.72567368,
-0.29801828,-0.06419259,-0.14844285,0.31388146,0.12169769,0.34970769,-0.19235995,0.89199853,0.42458192,-0.22754528,0.28746954,0.00201769,0.23103234,0.04886653,-0.46253115,-0.22098894,-0.32295114,0.27017778,0.33575401,-0.68276626,-0.48130611,0.42723641,0.04286820,0.08365338,-0.00768730,-0.19772519,-0.51156867,0.05937077,-0.17232238,-0.43591267,0.61670214,0.43891832,-0.62768400,0.39567900,0.15797262,-0.32687190,0.12270823,0.15124425,-0.10751396,-0.18849969,0.24652827,0.34571624,0.48239625,-0.40178710,0.32819006,-0.00854514,-0.06373031,0.12602974,0.39172933,0.16487749,-1.41840553,0.09426348,0.05958288,-0.06982517,0.41759843,-0.36884534,0.03827990,-0.79375136,0.87224078,0.10265283,0.50648332,0.20993331,0.29740632,-2.58757162,
0.42737544,-0.80603379,0.26342437,-0.87184888,-0.72475910,-0.45634782,0.57551968,0.42986265,0.15144801,-0.45935625,0.01115159,-0.39441779,-0.23456606,-0.36984491,-0.16490087,-0.59698945,-0.98311484,0.31735039,-0.32735732,-0.27668118,0.55709672,-1.23989844,-0.00980210,0.69754088,-0.14426070,-0.49200493,-0.33520740,-0.20230609,0.20789744,-0.75841296,0.22053683,-0.21282448,0.46332699,0.21803349,-0.34284946,0.03888156,-0.24947263,0.09042782,-0.33308867,-0.03974286,-0.35900491,-0.70269942,0.37712491,0.48606858,-0.70564204,0.02229046,0.19250272,-0.68899649,-0.36596012,-0.07380527,0.24109927,-0.08184037,-0.30461878,-0.07033687,0.00562949,0.31570780,-0.17371012,-0.85730892,0.51299566,0.42692822,0.75962240,0.16948408,0.95662975,-2.99642992,
0.52935761,0.35024440,-0.01098194,-0.15737373,0.13610427,0.31700203,-0.41119164,-0.12563697,-0.30755448,0.31187841,0.59803009,0.07636524,-0.01063432,-0.06820881,0.14170654,-0.03836467,0.22354001,0.04029279,0.08312941,-0.09499604,-0.38044050,0.11004344,-0.03538510,-0.43816301,0.01272678,0.13932027,-0.02194758,0.41256896,-0.01017921,0.46183068,0.09874746,-0.29038495,-0.01519451,-0.09545460,0.22385922,0.31066445,0.40286505,0.30683401,0.31492141,0.02777123,0.35761395,0.55745637,-0.00642137,0.05888867,0.08842172,0.23535371,0.24245399,0.14762196,-0.08636563,0.14028309,-0.14481118,-0.26077226,0.27959800,0.39944968,-0.07650943,0.11591782,-0.29422051,-0.16518806,0.02907890,0.08525282,0.10285322,-0.14442129,-0.39104360,-0.07387270,
-0.13121063,-0.14376087,0.32631516,-0.03500791,0.14935911,0.25569886,0.23796107,0.32581696,-0.10552949,0.07805454,0.45444795,0.26157477,-0.19385566,-0.15090862,0.12526228,0.03817105,0.15476058,0.50028718,0.08983394,-0.01385370,0.67657793,-0.10369609,0.27829590,0.31873903,0.36333108,-0.24283150,-0.14446637,0.10663718,-0.28589737,-0.15629852,-0.28078562,-0.21553606,-0.00429112,-0.07700505,-0.52148432,0.47743616,-0.11189775,0.30813479,0.06594297,0.25108802,-0.02073649,-0.34260231,0.06793708,0.12879921,-0.26393625,0.01056833,0.33568895,-0.04122366,0.24949624,0.34912178,-0.17203414,0.04240914,0.10547950,0.16639163,0.00649364,0.58678269,-0.58579147,-0.43301126,0.07453103,0.72655588,0.26657772,0.28585300,0.24304792,-0.84144682,
0.11889511,-0.13426359,0.26078343,0.00277852,0.60631412,0.06037350,0.47754389,-0.61777663,0.05585179,0.25885019,-0.39959562,0.20101407,-0.14550905,0.22790936,-0.24558634,0.40969250,0.32827944,0.16565864,0.19346528,0.42133951,0.34087923,-0.21909195,-0.02678482,-0.15035954,-0.24689721,-0.13583197,0.46342859,0.09606005,0.41613191,0.04214779,-0.04766719,-0.03856929,0.14015512,0.33387956,0.02965393,0.16427270,0.08130449,-0.25456354,0.06905154,0.32985008,-0.04246792,-0.16978034,-0.05384575,0.05941299,0.34009558,0.16328619,0.15690938,-0.08808986,-0.13895051,0.31197271,0.21766590,0.03759861,0.11824831,-0.00616040,-0.37492150,-0.00555674,-0.08032203,0.35721353,0.29941642,0.34127009,-0.37017146,0.24559334,-0.78130537,-0.71057296,
-0.40112263,0.08233725,0.06429994,0.32653674,0.34866327,0.56765455,0.45617500,0.36040106,0.16199961,0.47004357,-0.52058047,0.42498365,0.18823121,0.39873323,0.07629568,0.22822745,0.14033766,0.32236886,0.11851114,0.31070113,0.94262582,0.25759375,0.35657525,-0.20323865,0.27186841,0.50557923,0.65222389,-0.29174584,-0.15911825,-0.22079059,-0.41577846,0.13623211,0.19255169,0.22312580,-0.21696502,0.63880676,0.09098598,-0.15216452,0.02806641,0.53645676,-0.00190047,-0.05974049,0.52735996,0.15863194,0.01085615,-0.06080932,0.36693510,-0.46634308,0.25860277,0.43221951,-0.27228025,0.48363605,0.01452701,0.11751013,0.34727240,-0.06603780,0.02905550,-0.11532080,0.12668923,0.44042918,-0.47425392,0.17961489,0.20573556,-0.06918669,
-0.27355337,0.39052603,0.03630906,0.04213163,0.26175019,-0.07427479,-0.08367272,0.08143764,-0.49894267,-0.10533666,-0.25029013,0.27760407,-0.15028676,0.10928136,-0.41962501,0.25437969,-0.07078166,0.14312495,0.37922192,-0.04288733,-0.34504849,-0.03047873,0.32294670,0.61684012,0.15420631,0.36746177,-0.25614721,-0.30949205,-0.09380886,0.06404923,-0.29614106,-0.24997534,-0.27825066,-0.47803485,-0.59939826,0.03378787,-0.27547857,0.29410341,0.23366186,0.53771913,0.01306883,-0.05199001,0.43952173,-0.23731168,-0.17640299,-0.40946966,-0.15497470,0.13967383,-0.05084099,-0.19171195,-0.68135148,-0.27670395,-0.09461215,0.33687153,0.07431769,-0.15275487,0.36518651,0.16471465,-0.68939185,0.33205017,0.51406652,0.61834830,-0.17949267,-0.00379922,
0.02995635,-0.10608384,0.10544077,-0.05448180,0.18886267,-0.51092052,-0.08688496,-0.16998489,-0.14250933,-0.09292404,-0.00061793,0.15913223,-0.08120843,-0.09499909,0.00971762,-0.32575619,0.11515264,0.00440150,-0.05156013,-0.07795541,0.02835935,-0.42502260,0.16748267,-0.16758776,-0.18281120,-0.15806723,0.21028012,-0.08023091,0.00037155,-0.38169226,-0.10551347,-0.03104860,0.01223449,-0.19421704,-0.06051884,0.31724593,-0.24161372,-0.04979746,-0.01338262,-0.39526731,-0.24939992,-0.05052114,-0.02366743,0.26093453,-0.04173574,-0.00915782,0.01511367,-0.13575894,0.15796259,0.06854388,-0.22913483,-0.10242447,-0.10885888,-0.00075715,0.11976034,0.01842691,-0.30452991,-0.28422141,-0.12463690,-0.14855275,0.06048348,-0.14079203,0.16993657,0.14772823,
-0.28879279,-0.20384943,-0.10804819,0.44476742,0.27793780,0.22402215,0.36819458,0.36115137,-0.09393111,0.30847988,-0.48267242,0.47427088,-1.36921704,-0.24178977,-0.57628763,-0.36880782,0.15876263,0.17293383,0.08944368,-0.17512877,-0.31514981,-0.37715980,-0.17416689,0.13601519,-0.18459353,0.17094438,-0.16506352,-0.40270713,-0.36937505,-0.28999493,-0.10958954,-0.07011504,0.10253575,0.60959804,0.07318996,0.22813132,-0.28972462,-0.11439784,0.08048855,0.25468937,-0.02049865,-0.25521669,-0.21522315,0.10687500,0.31243673,-0.09898425,-0.90925133,0.18300964,-0.17828558,0.54140252,-0.12301283,0.21810772,-0.33512512,-0.15681234,0.88091260,0.26573557,0.21153548,0.07858844,-0.37291169,0.24850562,-0.71151161,-0.18431273,-0.22541247,1.49014783,
0.10160875,0.15392421,-0.04020159,0.11576510,-0.00276602,0.26382259,-0.33318466,-0.15012150,-0.44472179,0.35670394,-0.42669672,-0.03172385,-0.04624290,-0.20906851,0.11205831,0.35744870,0.26751554,-0.05950454,-0.01082682,0.01169624,-0.04516565,0.03854196,-0.14910527,-0.70502204,-0.14051871,-0.09085123,0.65635896,0.10217917,-0.17029239,0.22122639,-0.29103014,-0.17113142,0.14854266,-0.19021985,0.21170014,0.31607202,0.02635651,0.19291468,0.38936591,0.09649526,0.25741369,0.54634416,0.44984606,-0.04344996,0.48988825,0.27880806,0.25795192,0.03041036,-0.45013529,0.44714582,-0.16262996,-0.08878742,0.05858856,0.22636713,-0.35135391,0.18923257,0.03410458,-0.25620335,-0.21796599,0.17615184,-0.03831974,-0.14162093,-0.61307931,-0.08156117,
0.18177229,0.41125625,-0.18870498,-0.11097576,-0.24629427,0.50448209,-0.20486961,0.40850931,0.05931117,0.11229551,0.27818128,0.05852379,-0.08739659,-0.24885729,-0.08951703,0.06284107,-0.23378406,0.04829104,0.46889940,-0.30935124,-0.16895737,0.13406385,0.22951953,-0.22827102,0.14991537,-0.05121453,-0.06631774,0.18283685,-0.27924007,0.21158923,-0.01879425,-0.05940683,0.13537827,0.11232021,0.03057491,0.06903496,0.17729357,0.37823603,0.20720316,-0.24841841,0.12943999,0.63110620,0.18560176,-0.35276046,0.21972995,0.22367530,0.17221405,-0.18488270,0.00825844,0.06276493,-0.23842162,-0.01986186,0.20119283,0.12198544,0.06940647,-0.13862532,0.18704161,-0.34032369,-0.02649619,-0.02417869,0.34988263,0.02752255,-0.78292316,0.77425992,
-0.14397007,-0.02768036,-0.07625617,-0.02166164,-0.84445226,-0.42649072,0.31401184,-0.24222207,-0.11195516,-0.15133587,-0.20894349,-0.21548909,-0.46636042,0.05135057,-0.40133867,0.12415951,-0.10410987,-0.00298251,-0.20469423,-0.19196866,0.16521885,-0.09174651,-0.06340189,-0.28996351,-0.15468782,-0.01095026,-0.15052654,-0.04792510,-0.16912727,0.09245568,-0.02848009,-0.01437361,0.12796208,0.11274508,0.04924336,0.00855907,0.10457416,0.05171469,-0.12873980,0.01100230,-0.08917294,-0.11552311,0.02991426,0.03636188,-0.29698476,-0.33481115,0.24182776,-0.06056227,0.01097753,0.13819459,-0.12600560,0.15495795,-0.03948009,-0.38132712,-0.05267078,-0.18029918,-0.22455823,-0.02243163,0.00829636,-0.11522240,-0.02848776,0.10397694,-0.04179429,-0.99525607,
-0.39106387,-0.46282652,-0.03945249,-0.25186521,-0.97050261,-0.35764760,-0.16245998,0.48125395,0.12600663,-0.72647345,0.48039943,-0.09956800,-0.04502993,-0.22004010,-0.65084481,-1.22135270,-0.30005178,0.10847990,-0.75027472,-0.50234812,0.08134378,-0.06058116,-0.13133650,1.02155530,-0.19537710,-0.49137399,-0.71912003,-0.03046183,0.07426628,-0.38212061,-0.79309845,-0.25024050,0.18688455,0.34378597,0.06738336,0.22919324,-0.11883943,-0.02750199,-0.83542997,-0.52111095,-0.32775331,-0.12602457,-0.74424213,0.78570825,0.00358591,-0.16656409,0.35016206,-0.43441889,-0.16190892,0.43757069,0.07180548,-0.14050041,-0.34931865,-0.19602667,0.04008769,0.51348954,-0.25732604,-0.23469974,0.02486231,-0.00565374,1.01626182,0.15136147,0.24471863,-4.08631325,
0.28128427,0.46735105,-0.15947686,0.05344792,0.19737878,0.33077908,0.21205337,0.06234105,-0.09233028,0.31847638,0.67902702,0.03261140,-0.17370240,-0.09665951,0.60538185,0.05081315,0.80226588,-0.17171809,0.28953257,0.46785569,-0.89722896,0.20212050,0.10958099,-0.43944761,0.22810166,0.00717958,0.32244545,0.23996024,-0.12244006,0.19733122,0.46872902,-0.22719251,0.15767489,-0.23086315,0.39400336,-0.21603321,0.00072916,0.33698696,0.61278152,0.20697953,0.37914222,0.52704918,-0.27981815,0.12312396,0.38998842,0.33578521,-0.22979409,0.67464679,0.26348466,0.02327108,-0.21509132,-0.14068790,0.44487447,0.26394227,-0.17497993,0.23940954,-0.13475142,0.33240154,-0.08589134,-0.00125521,-0.38228875,-0.13336231,0.12597656,1.36729825,
0.01724411,-0.04836792,-0.14826708,-0.37150276,0.13599382,-0.07520496,0.24795158,0.09816143,0.02125745,0.31318358,0.16919722,0.01752900,0.25097042,-0.01552458,-0.05871999,-0.34496593,-0.06441624,-0.31817061,0.09696572,0.29505694,-0.38131863,0.05243911,-0.02034242,-0.18606651,0.02811355,0.27565905,-0.32809088,-0.49116650,1.68014526,-0.02868695,-0.13311872,-0.43912065,-0.06462178,0.51466721,0.53411120,-0.13949211,-0.18927135,-0.09346193,-0.37805378,0.09602099,0.10338388,-0.12908696,-0.46244261,-0.03717280,0.23796928,0.11933962,-0.03309948,-0.15242448,0.31202346,-0.16633517,0.33078408,0.22922635,0.10376985,0.05969612,0.12175602,-0.09949786,0.10937478,0.78548896,-0.12606464,0.03000307,-0.46547672,0.24455811,-0.29215121,-0.66000110,
-0.14881563,0.42151895,0.19836621,-0.22412677,0.03355654,0.26795271,-0.00196872,0.27672690,0.24280207,-0.17465898,0.00034773,0.22888304,0.10894433,0.00713727,-0.20233335,0.04350062,-0.45312819,0.09972630,0.30782169,-0.01711456,0.60852307,0.27060190,0.43814638,-0.38515359,0.09157012,0.17289431,0.04948080,0.12427421,-0.16856274,0.22559351,-0.18652852,0.17371714,0.08154173,0.17069325,-0.32841414,0.19459613,0.18087403,0.33102649,-0.08140128,0.14791891,0.26441896,-0.42949197,0.22887675,-0.23544152,-0.02790402,0.05626440,0.34316194,-0.29254150,0.32014823,-0.18288958,-0.45461807,0.05638919,0.19920176,0.04287588,0.20687997,0.14179330,-0.13042688,-0.36348516,0.14788723,0.15386868,0.26016378,0.11512428,-0.34649748,0.46122742,
-0.06372571,-0.23387612,0.28318101,0.03722964,0.05159181,0.44372258,0.27640978,0.43097869,0.24385288,0.35199827,0.31091902,0.34248716,-0.00634546,-0.13846162,0.18738542,0.17107999,0.39593598,0.36216795,0.36827868,0.26474109,0.47547761,-0.18513259,0.35196379,0.40299305,0.39822510,-0.14436749,0.19959778,0.14521411,-0.20414604,-0.12575428,-0.24026304,0.08002314,-0.07150990,0.07729076,-0.67834181,0.39281267,0.06423255,0.31001940,0.23666191,-0.16362467,-0.05987561,0.16627705,-0.08272443,0.03845742,-0.01749173,0.19621736,0.33276242,-0.14819410,0.30644482,0.31253019,-0.42423731,0.09181836,0.06737112,0.18746807,-0.09559857,0.48649058,-0.14384042,-0.31841829,0.09691291,0.43857518,0.37167302,0.19177288,-0.60277206,-1.29481041,
-0.46278435,-0.45174643,0.68526435,0.45783275,0.04522767,0.51394677,0.70961779,0.78438902,0.51573926,0.23208988,-0.46077549,0.78278291,0.53274000,0.60941613,0.40543097,0.68913537,0.03795278,0.57901978,0.25180587,0.07835767,1.17451549,0.46967065,0.60050583,0.37637383,0.54319906,0.34680417,0.69865048,0.25671670,-0.04903604,-0.20948337,-0.37942362,0.37778348,0.25185457,0.37570205,-0.72583938,0.83337176,0.21645062,-0.06326043,0.04571385,0.58704454,0.00300799,-0.21599580,0.62804300,0.07544349,-0.20503828,0.16934252,0.82662404,-0.29111183,0.21164638,0.59956038,-0.32299033,0.49942595,0.06526459,0.26268613,0.47097686,0.55003786,0.35696083,-0.25672951,0.36270881,1.10030365,0.21110208,0.27429450,0.22155368,-0.21133244,
0.03091893,-0.12335885,0.03494609,-0.09587248,-0.14046137,-0.04303860,0.08392104,-0.11795636,-0.01356679,-0.04347325,-0.10154783,0.08789988,-0.00948537,-0.12780929,-0.13911733,-0.11453815,-0.06569554,-0.03129938,0.11086993,0.04066242,-0.11320371,0.05579390,-0.04015002,-0.02066720,0.00746504,-0.05500204,0.00084240,-0.05139002,-0.13710195,-0.12843381,-0.08906334,-0.03624624,0.02418946,-0.00329580,0.07210533,-0.03988917,-0.12874013,0.08972673,-0.13978422,-0.02937105,-0.11567190,-0.11512892,0.10272005,0.05459739,-0.04127422,-0.00005826,-0.09351734,0.07934435,-0.04087806,0.07953952,0.10993958,-0.11032197,-0.15495063,-0.00019900,0.08083208,-0.14329343,-0.10311435,0.01764923,-0.13569868,0.01493118,0.09951182,-0.01446313,0.05857660,-0.01794034,
-1.50410295,0.03055068,-0.24045220,0.35532889,-0.45146143,-0.43513551,-0.91330647,0.43940938,-0.36226922,-0.06983482,0.34792727,0.16297218,0.64738053,0.54289502,-0.68248898,-0.19581535,0.00072137,-0.17832677,-0.15672657,-0.67082298,-0.32698277,0.71243662,-0.26138324,-1.12153542,-1.21154153,0.21737285,-0.69138807,0.70042539,0.47142196,-0.54253328,-0.79143721,0.08080042,-0.43708134,-1.39058769,0.32905680,0.17425428,-0.78407276,-0.29447415,-0.73903972,0.07813904,-0.41233823,-1.27363920,-0.50455815,-0.99539077,0.06460633,-1.49607563,0.27407876,0.32543746,0.36197180,0.32235268,-0.12489811,-0.15655600,-0.45744947,-0.02071608,-0.45600262,0.34346139,-0.23834105,0.39755520,-0.78227299,-0.17590056,-0.47137964,-0.01702248,-0.31500304,-3.16394711,
-0.00854964,0.07759776,-0.01285022,0.05101139,-0.28232107,-0.03919083,0.29657367,0.08948695,-0.59698451,0.33852914,0.09498695,0.02153408,0.01781572,-0.60338485,0.36403683,0.93416244,-0.43312478,0.26194620,-0.33880454,-0.74319285,0.55735946,-0.19881363,-0.33838862,0.53888941,-0.04998124,-0.48528689,-0.58725727,0.02472523,0.47719452,0.12551385,-0.23950340,-0.75869161,-0.25480232,-0.24627544,-0.20608620,0.21945900,-0.13101545,0.36274275,0.00734486,-0.30552387,-0.26576313,-1.10502577,-0.26256406,-0.06353226,-0.11872531,-0.12478949,0.22279641,0.06828937,-0.26890367,-0.10956211,0.14939085,-0.35173157,0.11630788,0.29719496,-0.43494534,-0.10972076,-0.31935319,-0.84354216,0.72865880,0.11528308,0.40399241,-0.26602906,0.07463656,-3.72378325,
0.06499644,-0.08367735,-0.09748135,0.03330398,0.19765086,0.28013730,0.29726610,0.32880548,-0.30246988,0.63777387,0.01856165,0.04500877,0.46589357,-0.30866063,0.09556872,-0.31935471,-0.19188876,0.12905070,0.22326207,-0.43608323,-0.38553137,0.38349867,0.11200619,-0.89237171,0.07299601,-0.11783672,0.36013502,0.12015305,-0.19169752,0.12735634,-0.63335735,0.04661926,0.12580943,-0.73490131,-0.28463808,0.23433526,0.15739323,-0.06099646,0.11613097,-0.60174024,0.18083808,1.02811193,0.14296453,-0.41494206,0.21313196,0.09365741,-0.11207951,-0.51398939,-0.20166777,0.28543192,0.39046618,0.17707708,-0.22412193,-0.22269826,-0.14653206,-0.10976749,0.35271642,-0.37063488,0.14050627,-0.15168232,0.17074919,-0.06174271,-0.40150180,-0.47791678,
0.11089106,-0.62082762,-0.02495516,0.14612594,0.15183625,-0.17097519,0.81746846,-0.36459222,0.45076704,-0.30897105,0.25825682,0.38305417,0.09182655,0.53553629,0.06470702,-0.98977268,0.34502771,-0.11791767,0.01254454,0.14624618,-0.70988137,0.20929064,-0.17398793,1.99894941,-0.32696223,-0.27550194,-0.10955044,0.00133895,-0.31989384,0.24654911,-0.14812085,0.17233936,0.15231209,0.32987368,0.33021334,-0.03683674,0.32951400,-0.32739893,-0.21741937,0.34846041,-0.21362042,0.05726529,0.41021791,0.04767461,-0.07143259,0.31403032,0.00670801,0.12142956,-0.48355582,0.38311175,-0.12233411,0.00211315,-0.15306328,0.10900769,-0.12075507,0.13751180,0.48628372,-0.22915408,0.06935026,-0.26750079,-0.68802804,-0.11050403,-0.51801872,0.71024001,
-0.11713908,-0.53076875,0.23581672,0.02347377,0.00251993,0.56026745,0.67458594,0.69151270,0.55504656,0.52594566,-0.41502854,0.50287575,0.33438936,-0.08134287,0.25547117,0.53131026,-0.03608485,0.47588581,0.43234494,0.01293667,0.66058284,0.18002163,0.45459536,0.53073066,0.15028380,-0.01374370,0.13694867,0.00273281,-0.18797629,-0.00333932,-0.34421498,0.36063087,0.20794497,0.45134315,-0.39474490,0.15132098,-0.13256060,0.03944847,0.03532131,0.23591577,-0.07239930,0.01992435,0.35808888,-0.20117754,-0.08091545,0.27235430,0.49478567,-0.27971566,-0.47982940,0.49312001,-0.04122371,0.44271773,-0.13359314,0.37897983,0.50194520,0.21356466,0.63923639,-0.11350929,0.30261427,0.92986149,0.74009150,0.55376303,-0.15144743,-0.26273695,
-0.20309836,-0.28485253,0.15854788,-0.69850641,-0.63648015,-0.14196832,-0.27129647,-0.18982093,0.30006090,0.39204314,-0.03440219,0.14377263,-0.80243766,-0.54520106,-0.23342817,-0.70513761,-0.29734153,0.47871387,-0.28940314,-0.12742743,0.70952183,-0.20701474,-0.08153366,-0.84529346,-0.22502147,-1.26979971,-0.41594854,-0.20438640,-0.17275353,-0.15472962,0.27277771,0.11655506,-0.47985119,0.28029859,-1.08995843,-0.26834324,0.02974407,-0.03106452,0.04088025,-0.09780661,-0.32476747,-1.22791588,-0.05952641,-2.51000500,-1.14464200,0.00401113,-0.05944565,0.55682248,0.16538072,0.08327192,0.28377146,0.03782289,0.11913222,-0.20190077,-1.05826473,0.12608944,-1.09865284,-0.28225690,-0.21441504,0.44767046,-1.23381448,-0.34651604,0.24499996,-4.23394489,
0.15248394,-0.18831143,0.24687955,0.28905222,0.07882358,0.00591122,0.45544454,-0.15067902,0.37861726,-0.33043239,0.18016131,0.02906839,0.23058824,0.07947470,-0.02846705,0.29274455,-0.31403252,0.07423825,0.24850120,0.03731906,0.01593131,-0.18635963,0.05064403,0.54390842,-0.30574787,-0.93262571,-0.29083267,0.09430479,-0.66367841,-0.04173376,-0.16163240,0.03229824,0.22024350,-0.05158146,0.14380889,-0.33764169,-0.40980032,0.36222133,0.06920637,0.01536079,0.24647667,-0.13914497,0.34580097,0.38653883,-0.22078896,-0.13580102,0.20610698,-0.25738758,0.31133717,-0.21331386,0.01078918,0.05318824,0.20243450,-0.01541461,0.27187440,-0.16716230,0.42742115,0.56168181,-0.01224143,0.41438168,-0.23459454,0.17208329,0.36689159,0.10054005,
-0.21093926,0.41857556,-0.14071211,0.07316845,0.13720310,0.08619731,0.02915978,0.01995931,0.27613470,-0.22322522,0.26839107,-0.03334425,0.12089156,0.20528053,0.44276857,0.09412392,-0.33383042,-0.01159460,0.25869125,-0.04978211,0.40197676,-0.15687115,0.07108857,-0.00372403,-0.34854913,0.20290634,-0.50340039,0.29832286,-0.03666927,0.03269067,0.61460990,0.08740457,0.25266671,0.25334159,0.91540998,-0.02507911,0.11847553,0.36273292,-0.33699873,0.33211020,0.18956518,-0.95274270,0.39995271,0.37460917,-0.09630525,-0.08058122,-0.22305749,0.48331419,0.28983149,-0.52322227,0.61954874,0.33135355,0.14127170,-0.38630509,0.62488031,-0.27876532,-0.00632837,0.28423467,-0.08910421,-0.01996756,0.24632280,0.24742384,0.36299983,1.07565832,
-0.12141475,-0.21727794,-0.00899875,0.53710806,0.29807311,0.07387359,0.34223118,-0.45318839,-0.22843635,-0.16419682,0.06875929,-0.07472651,-0.62340999,0.08083930,-0.10476643,-0.38370827,0.08193602,0.05535202,0.05455862,-0.18035932,-0.28034636,-0.33584952,-0.17813320,-0.22954778,0.18498944,-0.28725439,-0.10766069,-0.23386197,0.24335486,-0.33544907,-0.25107133,-0.06087436,0.10097463,0.53465307,-0.63700044,0.29436988,-0.49569926,-0.37519497,-0.38696069,-0.07495868,-0.33164147,-0.68998736,-0.44916075,-0.58176684,-0.14658220,-0.03118890,0.01648659,-0.23145156,-0.47081169,0.05273693,-0.52251369,-0.16045098,0.03186750,0.13287076,-0.53080171,0.38334545,-0.43897292,-0.42667767,-0.76512295,-0.03032160,-0.38278145,0.06420887,0.11816721,1.19152677,
-0.07510746,-0.10002898,0.24182105,-0.23160754,-0.90639102,0.44952461,-0.17271595,-0.28506964,-0.10499746,0.21097700,0.06660815,-0.19243999,-0.34359843,-0.18437357,-1.15193760,0.07569649,0.17694110,0.37462217,-0.47691002,-0.02905137,0.15647879,0.08183463,0.08457085,-0.46241832,-1.07855332,-0.10551470,0.02106377,-0.43882790,0.68647158,0.01246993,-0.17520592,0.03188044,-0.22645742,0.76537758,-0.23302484,0.03959154,-0.42362729,-0.07122543,-0.02423141,-0.01041660,-0.11374379,0.77265716,0.19485000,-1.33693278,-0.00139178,-0.05156108,0.35114378,0.73778468,-0.46872693,0.16403751,-1.40887177,-0.23080380,-0.10529652,0.37670210,-0.71343976,0.27500576,-0.23657678,-0.19967234,0.11485941,0.22404662,-0.57520044,-0.39857095,-0.14801604,-4.59002066,
0.05094741,0.28380519,-0.42813590,-0.18413135,-0.05428313,0.34216797,-0.07189435,-0.00868214,0.18822667,0.29677784,0.32995668,-0.01360242,-0.01203252,-0.14204660,0.06254321,0.10754913,0.13182686,-0.10262809,0.25815889,0.15992862,-0.50209260,0.34451410,0.17173883,-0.61734414,0.08418617,0.03164999,0.47419497,0.15644899,-0.23948175,0.72661591,0.14082728,0.05545539,-0.16094190,-0.02044559,-0.04500656,-0.11262185,0.23609114,0.12011641,0.32327467,0.13132393,0.13841027,0.10226250,-0.59975159,-0.65327150,-0.03190720,0.44389465,-0.14253274,0.27515191,-0.07115087,0.08909760,-0.19620593,0.05240873,0.38384992,0.19789465,-0.41666511,0.07522243,-0.02391819,-0.13281667,-0.01501802,0.22006121,-0.51469070,-0.04920989,-0.40534392,1.57405961,
0.59626067,0.59142548,-0.03329175,-0.14461301,0.20519242,0.16109294,-0.30262923,-0.23252590,-0.20643310,0.33010289,0.24176659,-0.26777086,-0.07049278,-0.11223348,0.49099821,0.28626958,0.16450888,-0.02582336,0.32907778,0.10964261,0.02065318,-0.16002271,0.04502460,-0.79297483,-0.07554578,0.30335110,0.53299463,0.37735975,0.06274061,0.43424287,0.44074738,-0.10746614,0.19770212,0.06903457,0.49808252,0.28771645,0.29800969,0.39811060,0.53823048,0.10988171,0.55692685,0.44466192,0.43486732,-0.05022085,0.49276742,0.52143204,0.18925481,-0.03177347,-0.06294070,0.04831306,-0.17299254,-0.11424493,0.28133616,0.21607050,-0.19050129,0.02921025,-0.28420931,-0.01723882,-0.07911091,-0.34463152,0.18480600,-0.13060053,-0.29337347,0.67640835,
-0.11335423,-0.08576868,0.03017121,-0.07533167,-0.04183323,0.04593420,0.05122623,-0.00083650,-0.03299057,0.01856064,-0.01640343,0.03003901,-0.06794841,-0.08443629,-0.08341760,0.06473959,-0.10183502,0.05792661,-0.01914683,-0.14060621,-0.00338266,-0.12771666,0.02898539,-0.01469181,-0.13349940,0.05494620,-0.13804100,-0.02950907,0.08309878,-0.07874054,0.04182861,-0.04072533,0.01158539,-0.04497839,-0.15635024,0.03532226,-0.02930651,0.02388586,-0.08792292,-0.07597610,-0.09770889,-0.11613043,0.03224374,-0.05549150,0.06481612,-0.09660359,0.02958091,-0.10891324,-0.12958658,0.01356334,0.05035980,0.04639414,-0.02521339,-0.04802194,-0.04701054,-0.11063348,-0.03154385,0.04855691,-0.13585520,-0.03991678,-0.03540687,-0.10993917,0.05964963,-0.10060671,
-0.04502274,0.01876775,-0.09318060,-0.39297873,-0.87575203,-0.05412821,0.43830797,0.38659143,-0.93282109,0.15878627,-0.09621453,-0.13854158,0.32482573,-0.61563063,0.13940166,0.76228374,-0.38552180,0.08025686,-0.49846745,-0.49673897,0.40296295,-0.10753911,-0.17510439,0.28472531,-0.31661826,-0.21189249,0.19164337,-0.12701821,0.31553066,-0.02237062,-0.45338455,-0.61348718,0.04929389,-0.04232347,0.19537301,0.39313433,-0.19938968,0.25334817,0.07339504,-0.17544995,-0.09779796,-2.20396209,-0.06716174,-1.90290320,0.22970390,-0.09311497,0.33259079,-0.95665628,-0.70520979,0.10586192,0.27661124,-0.32033467,-0.30260229,0.10021725,-0.14413378,-0.23066549,0.06088922,0.12738961,0.83586776,-0.12409741,0.60495138,-0.22079465,-0.04112505,-4.12253094,
-0.13774499,-0.94029415,0.24147420,0.43636221,-0.16179541,-0.09707056,-0.66877192,0.52119190,0.62853938,0.61861974,-0.19574450,0.29596385,-0.13293733,0.19823101,-0.64719075,0.24851404,0.10567749,0.31924686,0.10350727,0.04266310,-0.78424764,0.11357590,0.06931149,-0.72970116,0.29865077,-0.34031281,-0.13460782,-0.23311897,-0.62398517,-0.34778517,-0.44539812,0.51171076,-0.00476474,0.26826155,-0.03788460,-0.31516504,-0.70367861,-0.29327929,-0.32878155,0.24023488,-1.58234334,0.12700063,-0.35588393,-1.17544508,-1.10089254,0.09822664,-0.47752640,0.99459636,-0.01826685,-0.02557190,0.42854136,0.44099277,-0.35746759,-0.60849476,0.41367808,0.14631538,0.48831373,0.45253077,1.00356483,0.52553290,0.04839223,-0.37796584,0.60411936,0.41295412,
0.38260618,-0.01989644,-0.02137868,-0.24674828,-0.17759982,0.13210566,-0.02480443,-0.08793432,0.12761989,-0.39822179,0.46402553,-0.21403250,-0.09756278,0.12804289,-0.20609356,-0.07512369,0.07158296,-0.05627859,-0.44721743,-0.26158202,-0.14057328,0.18253963,0.05323418,0.03251407,-0.63568085,-0.01822550,-0.61315995,-0.33903050,0.12818018,0.12785269,0.15633713,0.22269404,-0.50704038,0.42315835,0.33315191,-0.09869615,0.32499889,0.02641895,0.05590558,-0.05069278,-0.17043374,-2.71882129,0.24698180,0.21187785,-0.23360966,-0.35195047,0.17048836,0.19565541,-0.04496619,-0.21549951,-0.12183473,-0.40138409,0.20800245,0.17928879,-1.92721951,-0.04409490,0.16796583,-0.27186579,-0.02259594,-0.07493281,0.20092334,-0.10789851,-0.94836736,-4.66833162,
0.02037084,0.11560758,0.06534664,-0.07920360,0.03185220,-0.03423889,-0.05694895,-0.03220943,0.08771109,-1.07012773,0.01950250,0.14218229,0.11644141,0.50126594,-0.18925497,0.08237044,-0.07152495,-0.19880001,-0.46619546,-0.15027717,-0.00390016,-0.08265548,-0.10334817,-0.20574366,0.02758356,0.44827408,0.08130935,-0.23840933,-0.14627646,0.12394028,0.49725643,0.35774964,0.21145426,0.30514199,0.59353167,0.22702526,0.01564432,-0.14793898,-0.29623002,0.54602271,-0.15275177,-0.53682816,-0.23870705,0.09307130,0.27512673,0.01632090,0.11543232,-0.61498123,0.14655443,-0.02161424,-0.51470953,0.02423519,-0.59643018,-0.00201745,-0.49912706,-0.24507409,0.48318291,-0.50244862,-0.22816893,-0.54285306,0.13806355,-0.10818113,-0.26758456,-1.95256245,
-0.14249665,-0.26164886,0.16973189,0.02885618,0.01680806,0.49280730,0.41006517,1.04094779,0.44134969,0.27765056,0.01440764,0.44670707,0.41896746,-0.24923487,0.01575201,0.50644171,-0.27274778,0.52510870,0.53297955,-0.14129053,0.98591655,0.50551456,0.51432145,0.58710563,0.47772852,0.13714181,0.07983124,0.04069528,-0.20345882,-0.32463491,-0.34510311,0.21376988,0.24573314,0.39305946,-0.27927819,0.29940221,0.17005053,0.10067447,-0.04012721,0.22701950,0.20744133,-0.12648180,0.53832990,-0.07613964,-0.13369009,0.06607351,0.47778940,-0.35015288,-0.06613468,0.32270584,0.05088585,0.46630976,-0.04074995,0.33140939,0.49281579,0.14208390,0.33712628,-0.22897559,0.41977203,0.57127172,0.85739213,0.47599834,-0.17101504,0.04135358,
-0.29687417,-0.06751283,0.53207517,0.15360753,0.03798825,0.33622795,0.33785111,0.11931646,0.16151243,0.17787515,-0.00651877,0.54012632,-0.14080721,0.30258363,-0.02682363,0.06170771,0.16008721,0.43233895,-0.01543973,0.32472241,0.90086687,0.11862153,0.36718407,0.49364156,0.39756358,0.22965825,0.11056696,-0.23045743,-0.12864424,-0.07859671,-0.13451111,0.14368036,0.13332503,0.49177566,-0.59123558,0.27279252,-0.05082817,-0.12267854,0.11353200,0.55699944,-0.09222105,-0.18767756,0.20945200,0.00722526,-0.12747139,0.09690403,0.44390029,-0.04926655,0.43948871,0.24007601,-0.19890343,0.32073766,0.01580032,0.26611376,0.15459503,0.33803880,-0.14129663,-0.11833522,0.21874185,0.67557085,-0.39091095,0.13611960,0.37732527,-0.67557746,
0.38794547,0.42820886,-0.12847099,-0.13062584,-0.11822618,0.48973691,-0.50987124,0.20687148,0.11151346,0.23796996,0.14948542,-0.21198791,-0.13807186,-0.07276779,-0.25437239,0.11756912,0.22628072,-0.02558079,0.25200230,0.22307801,-0.32384706,-0.26543227,0.22516619,-0.12193952,-0.18924631,-0.01435023,0.00799561,0.40254936,-0.20938541,0.44323185,0.28087658,0.09147166,-0.18433715,0.20007262,0.15827242,-0.01533815,0.19164246,0.50119299,0.43580171,-0.01335487,0.56565660,0.41677427,-0.31980166,-0.41277733,0.02156700,0.43286949,-0.21873920,0.23274119,-0.24236631,0.07802575,-0.20457582,0.08718304,-0.08427577,0.27184343,0.05430701,0.23122314,0.29525653,0.09136178,-0.06226491,0.13957420,0.26464576,0.12130563,-0.89354187,0.92423296,
0.39767027,0.62510318,0.06905918,0.12473065,0.68925738,0.23122604,-0.48692659,0.15962820,0.13418649,-0.35086712,0.38789722,-0.02622264,-0.19877835,-0.06478190,0.30290139,-0.12283240,-0.06166457,-0.13669954,0.12113891,-0.08611348,-0.20343617,-0.15463641,0.22389634,-0.15929332,0.00163476,0.29116675,-0.05756867,0.26583222,-0.03679349,0.18026769,0.39581698,-0.07040839,-0.17688653,0.07386433,0.32761472,-0.31861094,0.08291028,0.32426363,0.18011637,-0.07971304,0.33314472,0.30742583,-0.11683085,0.48928455,0.30180416,0.05440783,-0.01305057,0.06920175,0.20830657,-0.26351696,-0.58666015,0.08644298,0.16427051,0.00408942,0.15484817,-0.16195445,0.13925025,0.09037556,-0.45640072,-0.38116986,0.48907876,0.04368289,-0.24377258,0.50024432,
-0.39734253,0.23068008,0.12517205,0.03718822,-0.68721122,-0.04108142,0.30281860,-0.42186686,-0.43955937,-0.55109906,0.31218719,-0.17286542,-0.18272367,0.48840842,0.23528035,0.02818971,0.44611722,0.08506765,-0.27258617,0.07008184,-0.00285491,-0.28314444,0.10452731,0.43354172,-0.63818514,0.47118509,-0.40926716,-0.58061224,0.28897703,-0.20904759,0.37815416,-0.32124120,-0.19283696,-0.18976137,-0.27150652,-0.00227248,-0.14394030,0.11125571,-0.28453898,0.23591475,-0.18801463,-2.59258413,-0.09747827,0.54235309,0.08879523,-0.05592161,0.21072738,-0.01284014,0.39314389,-0.07867680,-0.02409149,-0.07606526,-0.26532236,0.37361810,0.05234011,0.40175313,-0.00513537,-0.05506744,-0.07457124,-0.17730309,-0.15741722,-0.38355711,-0.52031457,-1.73036242,
0.28829211,0.29943445,-0.18840769,-0.36382681,0.50520968,-0.08716101,-0.37606657,-0.27328551,0.08155278,0.48710248,-0.45885551,0.21819495,0.05197687,0.30075032,0.28085130,0.35758036,-0.29866216,-0.29867062,0.11069397,-0.14551260,-0.32656336,0.43743491,-0.13913164,-0.20527966,-0.18954301,0.08616388,0.12831154,-0.32070246,0.61733466,0.70530045,0.40618780,0.13567249,0.06651806,0.30022761,0.40652585,0.06549304,0.54196936,-0.22759908,-0.22128047,0.20067348,0.24511878,-0.71253306,-0.15098719,0.27206978,0.14630093,-0.01026075,0.17241001,-0.29511639,-0.17471914,-0.32928640,0.13777331,0.13691847,0.69301647,0.48419502,0.09831152,-0.08456902,0.11541435,0.25662565,0.18144034,-0.29135478,-0.56080997,-0.12257661,-0.34801427,0.75744319,
-0.06230218,0.21312915,-0.12267982,-0.16285591,-0.00601183,0.06453760,0.84193236,-0.01812263,-0.06462689,0.21861352,0.38734695,0.26076636,0.27798513,0.23915206,0.02724061,0.00644669,0.27594212,0.07520591,0.02973262,0.01785132,0.00739533,0.37361905,-0.20112114,-0.13490188,0.04743212,-0.30804080,-0.17725275,0.30520692,0.16742420,0.32630968,0.17418560,-0.10830948,-0.18702090,-0.03664978,0.17010595,0.24847072,0.13386706,0.02460588,0.04861378,0.34267020,0.08251704,-0.60241771,0.16428669,-0.91465378,-0.20583810,-0.05108424,0.38916081,0.26440278,-0.18950258,0.08254943,-0.54465449,-0.38763690,0.29599777,0.24789491,-0.76119584,0.40994045,0.09599354,-0.08721180,0.26544598,-0.05321560,-0.19817932,-0.05336251,-0.47465086,-2.42813015,
0.23822618,0.62798971,0.01344931,0.17181447,0.21386322,0.17453367,-0.38116807,0.23604815,0.22597274,-0.00062011,-0.44703314,0.04022957,0.11957669,-0.26928973,0.01287931,-0.22423978,-0.14223492,-0.44587275,-0.25688955,0.07298649,0.02880565,-0.13106585,0.20730981,-0.46837577,-0.11690236,0.28648299,0.19326976,-0.48137444,0.32251266,0.00623097,0.06708329,0.00693048,0.04994918,0.40411586,0.53147930,-0.02461274,0.14376098,0.12704408,0.21610874,-0.07426285,0.04441306,0.79277843,0.30429262,0.15452258,0.83466601,0.34123576,-0.18550241,-0.13425334,-0.03140907,-0.06835117,-0.46621060,0.27094746,0.20463941,0.00011975,0.35422164,-0.61924326,0.53611511,0.39413217,0.50780427,-0.67202413,-0.76266456,0.42143160,-0.67206681,0.25429893,
0.01824965,-0.11256627,0.11651209,0.06457621,0.00602863,-0.03851681,-0.12599307,0.07832123,-0.11873308,-0.08814747,0.10552213,-0.08506493,-0.04478352,-0.02503444,-0.03625263,-0.07299538,-0.02772649,-0.12877324,-0.06784675,-0.09622557,-0.06800471,-0.05393752,0.08699636,-0.05615218,0.04584453,0.01622561,-0.00210231,0.08235510,-0.06050684,-0.00109650,-0.04159080,-0.05032564,-0.05370134,-0.08761168,-0.03677431,-0.04980903,-0.01563720,-0.05041042,-0.05774793,-0.04180875,0.05388413,-0.08273439,0.09778964,-0.13645166,-0.00847724,-0.06974654,0.07601475,-0.10947041,0.03286367,-0.01099939,-0.10302378,-0.08767281,0.08901273,0.02183186,0.02740503,-0.03100815,0.09314582,-0.10619903,-0.07499058,-0.03877968,-0.05451689,-0.03138597,-0.08602760,0.07607592,
0.54826087,
-0.13015893,
-0.53567803,
-0.13724984,
-0.00701841,
-0.55790210,
0.76483774,
-0.02251556,
-0.01601892,
0.31277174,
0.39907673,
-0.15237324,
0.92890650,
0.95723492,
0.33018801,
-0.23842405,
0.44986969,
0.58065736,
0.58357322,
-0.04029766,
0.15906341,
0.72629422,
1.00427473,
0.52404058,
0.60301572,
0.68536162,
-0.07463832,
-0.20605680,
0.77180880,
0.65917450,
-0.18105139,
0.09630097,
0.36661768,
-0.00745605,
0.77219617,
0.89625376,
1.03671098,
-0.05227488,
-0.46970439,
0.16534346,
0.26147899,
0.10565100,
0.89402318,
0.14100438,
0.01380573,
0.18942565,
0.22771288,
0.57171893,
0.99054325,
0.38852614,
-0.00862454,
0.51242423,
-0.43197289,
0.30790180,
0.29325387,
0.89870417,
0.85542178,
0.61623955,
0.10105231,
0.77911657,
0.38180831,
0.86002702,
-0.45499992,
-0.11867228,
-0.06698793,0.61338049,-1.49762130,-1.34140825,0.36467135,0.30313718,0.81239021,0.07427038,-0.20990302,-0.13107616,0.56006777,0.34285557,0.44286343,0.45343250,0.80376905,-1.69390941,0.73741895,0.17346328,0.52828336,0.81587404,0.08554950,-0.18469706,0.63274395,0.40045816,0.67913759,0.43455109,-0.05906245,0.57392406,-0.05485777,-0.07606080,0.01847140,1.25509620,-0.34607914,0.35292393,0.46871540,0.67308104,1.58135378,-0.01316425,0.08915965,0.95930076,0.27762964,0.35105965,0.83582544,0.46991783,0.06167023,-0.03689960,0.26313373,0.99629259,0.03467245,-0.30053863,-0.02610564,0.77292460,-0.17086121,0.85440010,0.23675108,0.80449754,0.59894377,-0.18639915,-0.18469106,0.86007756,-0.11457808,0.41619125,-0.20670941,0.05609379,
0.20878804,0.28357404,-0.02880766,0.14656860,0.44862732,0.07376102,-0.12030372,0.09183576,-0.00978148,0.32094085,0.44553447,0.26156631,0.37967196,1.13916373,-0.00494138,0.04097641,0.05673109,0.34928292,0.52586216,0.47859675,0.41400039,0.03290072,-0.03313623,0.09711003,-0.05378435,0.50663036,-0.23709102,0.39078975,-0.10366993,0.40555412,0.05528017,-0.13718505,0.03753672,-1.93431652,0.45049626,0.06720161,-0.23188892,0.11589298,-0.47587177,0.14872226,0.25201440,0.24077320,0.10586188,0.21013458,-0.01756489,0.55761445,1.20421529,0.67746246,0.35783190,0.17619050,-0.14146167,0.55217701,-0.23268186,0.22727044,0.16671637,0.22080256,-0.15132137,0.47798130,0.34894165,0.20342949,0.34684971,0.52340078,0.56548625,-0.08278495,
0.02648072,-0.36054742,0.07976310,-0.15283048,-0.13122341,0.47657192,0.05973523,0.01804447,0.01852758,0.31849763,0.09141493,0.32814541,-0.54262286,0.62878752,-0.03336248,0.07216915,0.40804029,0.33797592,0.57918072,0.23534273,0.18873017,0.18296421,0.15975298,0.31494954,0.09494517,0.42278090,0.10979123,0.33091787,0.35503554,0.15348917,0.12726901,0.63981903,0.35082155,-0.13465214,0.08200627,0.36322528,0.13682735,-0.08669833,0.45544437,1.42356300,0.21812190,-0.01898365,-0.03683633,1.21382785,0.10922828,0.75125659,0.08407196,1.16535735,0.26180759,0.26078692,-0.08529454,0.33395970,-0.13774483,0.19076686,0.02442181,-0.07536820,0.13856302,0.42290208,0.20645244,0.23645340,-0.19121155,0.05760706,0.36012462,-0.09784606,
0.36757037,-0.08921393,-0.07872815,0.10744812,0.59811991,0.25201270,0.19431518,0.04247984,0.14999792,0.46244383,0.16328849,0.36938512,0.25883779,0.48662126,0.76763940,0.03148790,0.84739822,0.33884931,0.72480488,-0.26551425,-0.05119589,0.20196575,0.23685643,0.47938368,-0.05567646,0.53342253,-0.03229295,0.29811609,0.01807045,-0.01645860,0.22496952,0.31850570,0.23832847,-0.18896224,0.35458484,0.04401920,0.01507112,0.06393316,0.36920989,1.59774160,-0.30011690,0.26707670,-0.16129196,1.40309572,0.33891690,0.46971181,0.67215401,1.06980550,0.41453636,0.32644030,-0.02533183,-0.43283352,-0.14765836,-0.32643721,0.21589878,-0.11626737,0.12538871,0.37393519,0.21121141,0.87658179,0.31935850,0.56328821,-0.15485367,-0.08094975,
-0.10756797,-0.30599242,-0.12678719,0.07372377,0.99765623,-0.24187104,0.08869914,-0.06013497,0.06610955,-0.01346887,0.07054540,0.15517253,-0.07240035,0.42487735,0.93352747,0.11571100,0.62554288,0.21240854,0.83065921,0.26786405,-0.18782881,0.30073628,0.01743598,0.11669900,-0.02939075,0.61544418,-0.07797898,0.77504295,0.64774978,0.36620146,0.39780694,0.15134554,0.13412072,-0.11533523,0.14991878,-0.00269397,0.08523704,0.05421630,-0.23625568,0.91058499,0.21626849,0.65447575,0.20131743,-0.46179071,0.27611524,-0.00818712,0.90044117,0.67286623,0.46692708,0.43942046,0.11330619,1.23653054,-0.14269218,1.01176727,0.44547886,0.05287830,-0.13954131,0.65569353,-0.10687740,0.47136351,0.50086921,0.46679920,0.04782061,0.05056186,
0.10041299,0.28120118,-0.09458102,0.07068061,0.10125114,-0.33604610,-0.22945233,0.10780306,0.06448781,0.43418396,-0.13921927,0.03636152,0.02361590,0.54665405,0.78960526,0.02643889,0.53562737,0.17117259,0.80563819,0.34245628,1.04445207,0.23730159,0.38782087,0.04879712,-0.10610949,0.09871548,-0.47842953,0.63797176,0.05166512,0.28127983,-0.32898015,0.59430879,0.70834124,0.40889046,0.11736611,0.31992713,0.05346774,0.09670761,0.51971716,1.30519986,0.28018171,0.50918853,0.16355859,1.52317011,0.68910110,0.22436345,0.19520761,0.69754624,0.96236295,-0.02713973,-0.10497692,1.73420608,-0.23492631,0.45233393,0.37600011,0.23836495,0.05088828,0.37695268,0.05572170,0.89164358,-0.29281175,0.39755878,-0.36422193,-0.05302142,
0.60151660,0.22268078,-0.07448421,0.15917328,0.30257270,-0.31192955,-0.08854815,0.07151794,0.11929067,-0.05565066,-0.02330252,0.65811884,0.03309004,0.34350276,0.34617195,-0.04505976,0.80053371,0.31083161,0.82663685,0.03237682,0.57222563,0.41727772,0.22725523,0.01820632,0.14886145,0.40314987,-0.12935138,0.72119421,0.35378101,0.40749726,0.01159104,1.77576017,0.07152005,-0.05890181,0.38143417,0.12820072,0.14674877,0.08878902,0.90654671,1.11291373,0.25493094,-0.67067611,-0.05253692,1.21053886,0.11927103,0.17376089,0.64824170,1.13142943,0.27109894,0.51457429,-0.08764138,0.90386432,-0.53423756,0.32219392,0.53988028,0.09213877,0.04548414,0.18535067,0.19307587,0.43870431,0.15680254,0.44152230,0.19618359,-0.08794390,
0.81801975,
-0.00434399,
0.18611814,
0.36397085,
0.76160693,
0.61234367,
0.49121603,
