// Neural Network File Format by Kyle Julian, Stanford 2016
6,13,5,256,
13,256,128,64,32,16,5,
0,
0,0,0,0,0,0,0,0,0,0,0,0,0,
17,17,17,17,17,17,17,17,17,17,9,3,17,
0,0,0,0,0,0,0,0,0,0,0,0,0,0,
1,1,1,1,1,1,1,1,1,1,1,1,1,1,
0.41689619,0.31281602,-0.01734370,0.31106377,0.07663096,0.09236110,-0.03522940,0.14064476,0.09691659,0.03454371,-0.10921983,-0.16735311,0.03780063,
0.01849605,0.31272987,0.10545404,0.00781068,0.27382359,-0.11191277,0.19877264,0.15451610,0.19568644,-0.11284669,0.28541267,0.39820626,-0.01626142,
0.19936466,0.45669776,0.13969061,0.06005902,0.11920003,-0.60169703,-0.39599538,0.26447949,-0.79845113,0.27911249,-0.25286230,-0.40481320,-0.07614473,
0.29332185,0.14022179,-0.08188529,-0.65482813,0.17987764,0.17876107,0.16536985,0.18864031,-0.09623265,-0.46947935,-0.30357248,0.23961192,0.20446795,
-0.20934406,0.00756954,-0.14612074,0.03253496,-0.09182546,-0.08166788,-0.10438824,-0.07056671,-0.12963916,0.21525456,-1.02431154,-0.81338644,-0.20063706,
-0.00318963,-0.50936127,-0.12885287,-0.04698810,-0.01034407,-0.12770815,0.23229383,-0.04797912,0.01035495,-0.04665929,0.16103406,0.37647942,-0.19701800,
-0.81624466,-0.68653846,0.10994566,-0.42869860,-0.04066427,-0.03005504,-0.27400047,-0.34703070,0.03358947,0.09205428,0.10711230,0.55281502,-0.88284445,
0.13428043,-0.67515582,-1.31039202,-1.46511173,0.10800540,0.21482773,-0.87742424,-0.92565227,0.14790718,-0.22239318,-0.07705057,-0.43479767,0.12910466,
-0.03372467,0.12767211,0.08709031,0.04182102,-0.08401617,-0.05099824,0.00048917,-0.04686553,-0.02259564,-0.13925266,0.19902535,0.26353553,0.22861362,
0.07728805,0.18184222,0.24624790,0.07958183,0.20870541,0.16708139,0.19873899,0.16262171,0.31901690,-0.01949930,-0.15760012,-0.44151077,0.25537640,
0.37425339,0.14884889,0.26117912,0.12305898,0.08909010,0.08128003,0.21654901,0.33302435,0.12813741,0.15171435,-0.12694493,-0.48754463,0.09150926,
-0.23953119,0.08567753,-0.32312742,-0.09616123,0.12519901,-0.09150679,-1.19262195,-0.90224612,-1.01264012,0.17927065,-0.50623125,-0.46883804,-0.59622121,
-1.10593331,-0.06808935,-0.42597240,-0.40437272,-0.79813910,-0.60421741,-0.27109560,0.13418427,-0.32982695,-0.06646349,-0.31586748,-0.00906010,-0.01501657,
-0.02465366,0.00171419,0.16902821,0.45164251,0.45766258,0.35269940,0.06241845,0.03270652,-0.06849600,-0.23348503,-0.50443602,-0.28592208,0.02043045,
-0.29765844,-1.31400514,-0.71127975,-0.66696590,0.08932373,0.02427797,0.00995345,0.32695800,0.30363989,-0.55022985,-0.03547227,0.29406965,0.03001050,
-0.33472666,-0.12235430,-0.04793751,-0.00174239,-0.06152448,-0.55408448,0.01232469,-0.27033877,-0.20799488,0.17352223,-0.23398575,0.25355783,-0.54383755,
-0.16162927,-0.06916779,0.02547760,-0.07285424,-0.07839974,-0.09949803,-0.00928617,-0.35693595,-0.24168453,0.01182727,0.33886701,0.67231762,-0.19090290,
0.21580438,0.59108973,0.38263348,0.05620005,0.14684907,0.05365574,-0.04358108,0.05270354,0.12422644,-0.15902421,-0.74701369,-0.56925666,0.02660453,
0.14897831,0.27132007,0.56595784,0.75153446,-0.02565510,0.04586218,0.08504920,0.03218621,0.05796057,0.17516933,-0.44828087,-0.44811717,0.06371114,
-0.29410428,-1.21380806,-0.70400798,-0.60400671,-0.23112807,0.08424689,0.13783807,0.43637258,0.53290790,-0.04035738,-0.05414027,-0.01398508,0.07042233,
-0.28252396,-0.20130835,-0.09998190,-0.18479055,-0.12596628,-0.13310403,0.03980878,-0.01748280,0.20111655,0.03875580,-0.37752917,-0.43904999,-0.39722082,
0.01079893,-0.10068337,-0.01882564,-0.04329318,0.09512654,0.05545584,0.18060763,0.07466538,0.08355088,0.13720189,0.16080135,0.55713052,0.04273254,
-0.38971484,0.08607078,-0.02947109,0.10281500,-0.04749462,0.00872472,0.02613657,0.08541381,0.00141702,0.16713737,-0.92932421,-0.05842412,-0.52523756,
0.10201658,-0.15223481,0.00790179,-0.49018222,-0.15756057,-0.05717530,-0.05271767,-0.01588627,-0.00587042,0.09956191,0.37947044,0.51911789,0.04840209,
-1.29049599,-1.97810924,-1.33873713,-1.26295674,-0.49962309,-1.31783104,-1.78007638,-2.11394095,-1.57749510,0.23835753,-0.10814288,-0.60206199,0.19465832,
-0.29500404,0.05477025,-1.22827399,-1.03340185,-1.01450157,-0.78308350,0.16061565,0.07963640,-0.65004301,0.10865208,-0.13863131,-0.12425155,0.08588365,
-0.04417373,0.22380905,0.31346497,0.19022478,0.18267126,0.19345863,0.22139496,0.19684042,0.19032204,0.29690751,-0.30104637,-0.34306034,0.20254932,
-0.11960308,-0.04906454,-0.03250180,-0.07148691,-0.29245615,-0.02799500,0.12141954,0.14377424,0.02564074,0.04433592,0.17454819,0.55473560,-0.34944224,
-0.24070482,-1.46041226,0.02091538,0.30805898,0.20618787,0.25591922,-0.65849322,0.16885179,-0.62339097,0.10511421,-0.33175066,-0.51663804,0.21567658,
-1.22007942,-2.86220288,-2.36316204,-1.96692574,-1.45758951,-1.87227881,-1.22254980,-1.21261263,-0.35208809,0.22797637,-0.24174526,-0.22153245,0.17886394,
0.05342530,-0.12614018,0.15206225,-0.50810260,0.02352867,-0.27868694,0.03611164,0.10608695,0.14196663,0.10678032,0.00684349,0.45972794,-0.81761545,
0.09421125,0.14186057,0.14399901,0.20404170,0.25676745,0.12186582,0.17555712,0.20688193,0.16220570,0.19997081,-0.20107774,-0.41188291,0.26270831,
0.35690758,0.50476217,-0.11805124,0.02095907,-0.12524606,0.21704227,0.28870940,0.16266395,0.19477314,0.05437903,-0.13949867,-0.74022716,-0.11685973,
0.26420400,0.35774779,0.37796417,0.37850472,0.17383550,0.15374771,0.08514212,-0.00580091,0.05189333,-0.27771822,-0.37430641,0.28583381,0.24302177,
-0.64496160,-0.31670052,-0.09172701,-0.05345542,-0.22215724,-0.03853447,0.04684945,-0.50912327,0.07675235,-0.04085333,0.11717714,-0.56746477,-1.06664062,
-0.90654206,-0.17107852,0.12279404,-0.34843969,0.15118018,-0.90154529,-0.51724535,-0.02925754,0.07937629,0.08463892,0.09918566,0.47248113,-0.01099819,
-0.41579661,0.22583409,0.19686048,0.30217031,0.00807894,-0.09687445,-0.23699567,-0.35836920,-0.13849239,-0.58133048,0.50391066,0.39529726,-0.12441364,
0.05948061,0.02101570,0.07434159,0.09402757,0.31449100,0.46539098,0.38724321,0.04497839,0.12082981,0.04104338,-0.41041031,-0.21383771,0.10813271,
0.42864859,0.32092613,0.20861073,0.18596098,-0.12943621,0.22260407,0.15606648,0.32059923,-0.47736046,0.24759042,-0.26529109,-0.31291547,0.14440751,
-1.42665768,-2.13477945,-1.59899676,-1.60603929,-1.84931481,-1.66555727,-1.54667878,0.14371049,0.14210725,0.15150674,-0.13949278,-0.12146535,0.14689566,
0.26035318,0.12622271,0.14006010,0.20006007,0.24746145,0.24636678,0.14361475,0.26266140,0.14490980,0.30847245,-0.26937798,-0.26922548,0.14916587,
-0.17087036,-0.39283657,-0.76124614,-0.75078827,-0.31836665,0.01946392,0.06453342,0.07015929,0.05751432,-0.55704355,0.26694444,0.24271704,-0.04816182,
0.19456026,0.19256689,0.19773075,0.17288615,0.20095141,0.20285852,0.24948150,0.32053250,0.27109224,0.12223633,-0.25370702,-0.45365292,0.16845880,
0.15720579,0.12766984,0.17512292,0.15241309,0.19458495,0.16352181,0.26473838,0.01328095,0.15130617,0.30256221,-0.25006014,-0.44581756,0.22960511,
-1.29788888,-1.03906059,-1.32897842,0.08782977,0.14804760,-1.43756890,0.06042881,0.02933129,-0.00452217,-0.52805257,0.06681052,-0.02471809,0.08967092,
0.27769333,0.30578622,0.00892216,-0.01761982,0.04658495,-0.12361705,-0.18646950,0.21843933,-0.12597007,-0.43838629,0.37841618,0.36293504,-0.07974891,
0.11611595,0.20906989,0.45542571,0.40322310,0.16923559,0.05245328,0.06092143,0.08252350,0.03281368,-0.23291801,-0.60319597,-0.35535404,0.17320348,
0.00963848,0.02065601,0.02761239,-0.16374600,0.00358720,0.01754022,0.16064011,-0.12118983,0.07014202,-0.18505976,0.10685769,0.15992752,0.15087594,
0.19883114,0.28360114,0.33403313,0.13110209,0.18131819,0.15137391,0.20014372,0.12708414,0.15173799,0.08626559,-0.16634429,-0.57779616,0.33249334,
-0.12269966,0.22897814,0.23550846,0.16431810,0.09523448,0.11655765,0.16848980,0.20669669,0.11202246,0.24620681,-0.14812458,-1.38638425,0.10323078,
-0.22637308,0.20541413,0.46572465,0.09045254,0.43893537,0.08190162,-0.11179318,0.14453977,-0.22543178,-0.10001833,0.52040529,0.36753207,-0.17113097,
-0.08962681,-0.06105307,-0.21243867,-0.29371795,0.17642298,0.07890882,-0.07045557,-0.50101894,-0.69916224,-0.20409817,0.35858241,0.33979264,-0.26901656,
-0.14169571,0.35796127,0.05328355,0.22534543,0.07978678,-0.05508805,0.11111336,-0.25773880,-0.34179106,0.24915403,-0.57196712,-0.61206305,-0.32325459,
-0.00229721,0.00438905,0.08478621,-0.11656667,0.23900253,0.24279286,0.17885019,0.12779699,-1.23435092,0.23981373,-0.21162273,-0.16992325,-0.10747091,
-0.06634431,-0.31582257,-0.01851277,-0.30955714,-0.08607499,-0.12654221,-0.42155784,-0.10890801,-0.09767947,0.05739522,0.32431608,0.70859712,-0.75089562,
-0.14284585,0.09390033,-0.12457962,-0.24575792,0.08165934,-0.37549829,-0.28189534,-0.35622880,0.08629797,-0.51238716,-0.33599263,-0.23664001,-1.00155914,
-0.15889211,0.01201478,0.09057651,-0.38500109,-0.34639406,-0.97596687,-0.01363969,-0.01327568,0.01574050,-0.07121590,0.05790028,0.87646925,-0.01286847,
-0.28754732,-0.56812000,0.08785406,0.10724045,0.06851529,0.00945348,0.08671887,0.10084424,-0.07741940,-0.49102503,-0.07228381,0.41322896,-0.12924562,
0.07330743,0.09421865,-0.25314242,-0.20380276,0.17753395,-0.30054837,-0.48930785,0.10380021,-0.24209866,-0.05454164,0.18661776,0.58621025,-0.33515900,
-0.77303725,0.06121193,-0.05475142,-0.01207981,0.11838019,0.09779030,0.05438183,0.02631391,-0.68686336,-0.36666483,0.05065851,-0.12094511,-0.44145152,
-0.16396374,0.00199505,-0.17402293,0.05093566,0.07705469,0.06083634,-0.07946786,0.20754853,0.19121885,0.14615165,-0.42794621,-0.75992560,-0.13371885,
-0.38953039,-0.11655480,-0.16931008,0.42195442,-0.07988353,-0.15372486,-0.46511975,0.13742040,-0.10583185,-0.23234865,-0.45816180,-0.45110857,-0.48434618,
-1.35387707,0.16656046,-0.07089677,0.01255385,0.01394270,-1.36908531,-1.82261825,-1.83133256,0.11895349,0.10165071,0.04972082,-0.14551561,0.10467850,
-0.03076384,0.00981819,-0.01247611,0.02038668,0.01904824,0.05597517,-0.12649179,-0.13986526,-0.16796324,-0.01380270,0.32180467,0.69857651,-0.02590215,
0.47102404,0.52226716,0.34478959,0.20856138,0.16667336,0.05012831,0.15711433,0.06147211,0.16452748,0.03841967,-0.27894303,-0.51439422,-0.21352829,
-0.01711608,0.44220436,0.22720245,0.39938307,0.24006484,0.23590088,-0.09258139,0.21842398,-0.22311097,-0.67382896,0.41611445,0.05801547,-0.10780173,
-2.78669572,-1.98163891,-1.54324472,-1.58082855,0.14269879,0.16117330,0.11976020,0.14980169,-0.05488008,0.09617444,-0.03112011,-0.47835305,0.13856420,
0.30700374,0.11170647,-0.16974735,-0.03682880,-0.74027091,0.14784999,-0.03881408,0.04865602,0.31526765,-0.65581715,-0.01660220,-0.34232661,0.12965728,
-0.36813888,-1.31876028,-0.53223944,-0.68165171,-0.63040912,0.08483760,0.06711644,0.04885755,-1.74448478,0.30175591,-0.13688718,-0.10738204,0.07628594,
0.01716022,0.50439727,0.34995794,-0.01719795,-0.41463706,-0.63528633,-0.03619445,-0.00051424,0.23265031,-0.28331694,-0.44199410,-0.27964589,0.00429396,
0.14831010,0.02411402,0.36091498,0.25958723,0.40796328,0.24227035,0.16459900,0.24644692,0.15169394,0.05571585,-0.37949306,-0.22508979,-0.08813574,
-0.03601187,0.09704563,-0.08985071,-0.12386636,-0.13631405,-0.05617994,0.03789202,-0.05438225,-0.14093424,0.06771221,0.41218054,0.50697964,0.09576148,
0.05469752,0.06739777,-0.02098647,-0.06561825,0.02387053,-0.09726360,-0.15922599,-0.22547160,-0.08912665,0.07914309,0.33275858,0.59099317,-0.02121848,
-0.45444205,0.14633098,-0.12088822,-0.03810352,-0.05072251,-0.01600931,-0.07863577,-0.45007497,-0.04769728,0.00313581,0.07827852,0.31405103,-1.10858142,
0.04674283,-0.18989828,-0.21386398,-0.07866741,-0.21870312,0.00505515,0.15972471,0.12482619,-0.00666679,-0.11274575,0.36403710,0.57164919,-0.21011882,
-0.02479649,0.26961869,0.21907671,-0.01185106,-0.70493287,0.06127714,-0.01055844,0.19395220,-0.41397780,0.26803279,-0.64777738,-0.41811666,-0.29338473,
-0.65350020,-1.73929691,-0.47462854,0.09849863,0.14756642,0.11916679,0.09039707,0.15988608,0.03638699,-0.02692001,-0.23975535,0.76636672,0.11476608,
-0.21255304,-0.37615001,0.06194114,-0.39899224,0.28467780,-0.25746897,-0.00646147,0.14269882,0.20719627,0.30316398,0.02489902,-0.42000657,-0.50270265,
0.16642720,-0.01863481,0.18290706,0.05897866,0.29656178,0.24615933,0.18839671,0.04277870,0.22804786,-0.17673162,-0.38074842,0.28545403,0.17725086,
0.00669340,-0.04064098,-0.32502362,0.04832536,0.02421663,-0.01575593,-0.04919752,0.08385751,0.07887768,-0.35734010,0.03161054,0.25814492,0.02569682,
0.10302527,-0.18447670,0.15413244,-0.02131497,0.10654755,0.27897069,0.30966067,0.24543814,0.23566468,0.04541493,-0.38585874,-0.20703150,0.04848990,
-0.15030162,-0.90551102,-0.64385003,-0.28660753,0.06822611,-0.01791285,0.21350244,0.13139997,0.04414687,-0.52553207,0.04852717,-0.26376313,-0.15889889,
0.13959813,0.36499172,0.21074872,0.18223274,0.21548796,0.16700897,0.17557709,0.17294532,0.14250089,0.22194892,-0.25883248,-0.44029325,0.20401205,
-0.57897115,0.05202495,-0.72424084,-0.03555066,0.21898034,0.12506466,-0.29279584,-0.62052757,-0.03872131,-0.07654470,0.25935477,0.59873581,-0.71661544,
-0.15493873,-0.27700233,-0.30722523,-0.02060207,-0.30782089,-0.45674795,-0.20168237,-0.12100873,-0.18270798,-0.59544945,0.44723555,0.31230792,-0.20407663,
-0.13316771,-0.74844503,0.25778538,-0.10818010,0.12168812,0.14224726,-0.61735791,-0.10181750,-0.28305382,0.09490649,-0.48405954,-0.41714856,0.01365891,
0.30873507,0.27948847,0.12383837,0.40763336,0.22730333,0.24940163,0.04046636,0.03664501,0.12244919,0.07340546,-0.18108073,-0.24996389,0.08638185,
0.00801914,0.22561847,0.15292002,0.24219519,-0.04822045,-0.10172796,0.24596611,-0.17911476,0.10301957,-0.16644184,0.46675670,0.34811971,-0.06700497,
-0.21805832,0.02603893,0.01548047,-0.60937607,-0.28816324,-0.91412628,-0.22916518,0.15147361,0.06132719,-0.59137666,0.19704844,0.00589771,-0.15561384,
-0.27818483,-0.41387609,-0.03443907,0.16757138,0.15143006,-0.19613315,-0.45467615,-0.08999556,-0.05798825,-0.10769103,-0.02754263,0.16486923,-0.76539427,
0.19485544,0.38747728,0.06640185,0.11941123,0.10991535,0.08611032,-0.00180635,0.10293054,0.11870966,-0.42861858,-0.19644405,-0.17824028,0.08895200,
0.05814110,0.14294554,0.12498537,0.34520808,0.13237382,0.12966557,0.11401767,0.37063688,0.19459215,-0.56545943,-0.18620326,-0.41716322,0.20238668,
-0.22273879,-0.29803371,0.00388126,0.01355157,0.28318110,0.11338089,-0.03087478,-0.13880540,-0.38658267,0.20845641,-0.56735379,-0.52851564,-0.49233264,
-0.52468097,-0.97043306,-0.27118140,-0.77421892,-1.14092958,-0.00496133,-0.00652890,-0.03610978,-0.03286883,0.08967366,0.33084223,0.35783368,-0.01285176,
0.25878504,0.14825143,0.36540878,0.17179312,0.25016466,0.09723923,0.08520745,0.09157926,0.08275872,0.16448034,-0.10507084,-0.69732565,0.11814345,
0.40664363,0.59630471,0.51378238,0.44425109,0.25773564,0.18935752,0.04823002,0.19185302,0.08128362,-0.00727109,0.11284789,-0.63296169,0.00949914,
0.02208739,-0.24062200,0.00857763,-0.09573564,-0.02991729,0.18116367,0.19690903,-0.10976595,-0.11840563,0.06956321,0.20563658,0.63087386,0.07937543,
0.03248299,0.19146162,0.12202167,0.21127631,0.10834932,0.09929945,0.13400343,0.13530463,-0.38853359,0.15977189,-0.25828171,-0.29354036,-0.05858971,
-0.13566117,-0.04770045,-0.19788440,0.13507199,0.04173842,0.00122325,0.18363881,0.20008071,0.18508592,0.22799861,-0.17332153,-0.01650648,-0.73145199,
0.12314899,0.17504852,0.22907764,0.00997472,0.16524695,0.13180232,0.05098283,0.11713477,0.13042295,0.14633648,-0.08550300,-0.70692307,0.13770206,
-0.30111298,-0.09682162,0.22550434,0.07577692,0.10939424,0.21438818,-0.88489658,0.38839728,0.25874624,-0.13729794,-0.39100686,-0.29628873,0.11941846,
-0.00926849,0.11286968,0.29422733,-0.02311204,-0.09541940,-0.10392225,-0.04222905,0.05013948,-1.05712199,-0.69245148,0.30664152,0.29271615,0.02449054,
0.11218778,-0.40025052,-0.17826982,-0.05058997,0.02525638,-0.11984745,0.01673053,-0.03488121,0.10020563,-0.00727291,-0.05056766,0.03616526,0.11556352,
0.15649319,-1.38602340,-1.33864272,0.26324192,0.28456211,0.13036382,0.22296841,0.21620271,0.20848690,0.10585369,-0.35932419,-0.40461808,-0.14809579,
-1.46241307,0.09014784,0.01198354,0.10583588,0.04686531,0.09143443,0.14881438,0.04978193,0.05128163,-1.06258631,-0.01287093,0.53358537,0.01643193,
-0.02873779,0.04686963,0.10834953,-0.13416685,-0.17930293,-0.31751278,-0.46030700,-0.69502169,0.02023228,-0.31502560,0.21666121,-0.35301283,0.05623088,
-0.20293584,-0.14800934,-0.13546516,-0.03445260,0.13596812,0.05715707,-0.26804695,-0.38718751,-0.02278497,-0.65182686,0.26728046,0.29912284,-0.34105882,
-2.69153953,-2.47920108,-1.96738839,-2.07075429,-1.90001225,-1.63989782,-1.33923006,-1.28843880,0.15795802,0.14281410,-0.14590283,-0.11209457,0.14782931,
-0.23542704,-1.33455658,-0.28890780,-1.34798169,0.07713362,0.33067057,0.04695183,0.07874274,0.00192629,-0.09421030,0.25240389,0.07506131,-0.01451809,
-1.50747299,-0.22948904,0.07091276,-1.23419118,-0.02512020,-0.07679114,-0.11513492,-0.44332609,-1.43906927,-0.45470235,0.03243409,-0.74958628,0.05761983,
0.19772539,0.28167349,0.34499744,0.38558987,0.09868333,-0.29509851,0.01555322,-0.46148485,0.16844778,-0.41815192,-0.30671471,-0.09748013,0.17848179,
-0.17957960,-0.36455473,-0.40037262,-0.27225012,-0.32997811,-0.02394841,-0.20658980,-0.09902078,-1.33333564,0.20703989,-0.00816349,-1.13769567,0.06961837,
0.23289768,0.14226697,0.02005849,-0.00326328,-0.31803697,-0.05407864,-0.45598334,-0.08824809,-0.33156580,0.12593345,-0.05061242,-0.62686598,-0.61723042,
-0.26507756,-0.04364380,-0.15526035,-0.60719818,0.20648165,-0.03984973,0.17150824,-0.00793925,0.35395882,0.27218315,-0.38136756,-0.71577954,-0.80528277,
0.17440547,0.23041347,0.27597472,0.00171132,-0.25382233,0.05944313,0.17756054,0.16632749,-0.56017125,-0.18261701,-0.15701358,-0.45574325,0.11621535,
0.41026399,0.56682938,0.50320286,0.36455369,-0.09653571,0.21867181,-0.07020372,0.14439972,0.29614168,-0.24448662,0.03026141,-0.22794519,0.05713147,
0.34194762,-0.02010763,-0.02614401,-0.17073259,-0.35018036,0.12821363,-0.13101149,-0.10266363,-0.15743315,-0.46825859,0.30926576,0.43086863,-0.02421670,
-0.73962402,-0.10604685,-0.09230709,-0.41778573,0.03144949,-0.49101174,0.15003777,-0.81506270,-0.29121771,-0.06437358,-0.08263392,0.29549602,-0.61719102,
-0.00701733,-0.26458204,-0.10009779,-0.06787375,0.07284238,0.24745825,0.31230518,0.20937507,0.16699055,-0.05923027,-0.76942456,-1.16156340,0.15156655,
-0.05038376,0.02156700,-0.19338198,0.03285570,-0.00751197,0.01557972,0.37957796,0.18651117,0.16302823,-0.05909006,0.38093641,0.53533196,-0.07008229,
-0.00478628,-2.77949309,0.15267991,0.16709734,0.15003563,0.19206144,0.07884865,0.03617113,0.06397564,0.00863825,0.10990277,0.25062007,0.11033661,
0.19445845,0.21865457,0.39694765,0.50830978,0.34930205,0.39630735,0.28417087,-0.06468272,0.16150106,-0.67217606,-0.14201117,-0.17833316,0.18315509,
-0.21830016,0.00207731,-1.26026416,-0.04289125,-0.72022337,-1.00004232,0.06113156,-0.55447859,-0.77974361,-0.48480985,-0.34792876,-0.28263780,-0.38539872,
-0.28946897,-0.27706012,0.07396490,0.07677603,0.18787405,0.20191017,0.27615902,0.33737037,0.11563868,-0.08809098,-0.33980834,-0.33223322,0.12865183,
0.22410235,0.18383478,-0.24945819,0.01957074,-0.51406920,-0.12909731,-0.30448908,0.12220058,0.17738166,0.31656215,-0.29543483,0.04139373,0.09025465,
-0.25349408,-0.57433105,0.04353584,0.15466660,-0.13526422,0.02779470,-0.20411164,0.03481383,-0.55334055,-0.08015086,0.24934128,0.28282467,-0.78000259,
0.00081879,-0.57820117,-0.63733697,-0.73472679,-0.56440163,-0.11604006,0.16300277,0.26148638,0.26004106,0.07330526,-0.77829754,-0.01513442,-0.20458913,
-0.40688518,0.05719186,0.08680274,0.15176849,0.21557119,0.04754690,0.15026377,-0.37990579,0.03238660,-0.06904361,-0.62738955,-0.60541421,-0.34100139,
0.10538086,0.28978482,0.11475271,0.19985880,0.33477712,0.18499446,0.29427534,0.07408202,0.36761203,-0.00538460,-0.02216196,-0.49440411,0.15225072,
0.57855159,0.81659460,0.61689180,0.36563775,0.38204011,0.26925874,0.35678995,-0.63655752,0.08414086,-0.48069373,0.00656682,0.18262637,-0.04007104,
-0.06594489,-0.03522446,-0.08574187,-0.04140572,-0.32587764,-0.14887941,-0.06966129,-0.27475426,0.04404628,0.04638119,0.25944400,0.40911746,-0.46567315,
-0.31601191,0.05750266,-0.07708296,0.08254399,-0.08219121,-0.18031693,-0.09305145,-0.22997631,-0.80012667,0.09046145,0.23938924,0.64769214,-0.06527992,
-0.33774191,-0.21655288,-0.12617871,-0.35694674,-0.14171793,-0.38643759,0.02844673,-0.42864934,-0.05158988,0.07277346,-0.22107428,0.45097679,-0.74530351,
0.03243952,-2.32093191,0.17953928,-1.99602950,0.22067255,-1.34489703,0.19633029,0.19300054,0.19084245,0.15084299,-0.25716835,-0.36302787,0.19212259,
0.14474277,0.12663044,0.10927948,0.34322408,0.09385039,0.14525096,0.29584897,0.14037775,0.17844884,-0.51632875,-0.19104396,-0.35663661,0.15927094,
-0.04414257,0.26399186,0.12974392,0.13016394,0.16726485,0.19604321,-0.03723366,0.02690084,-0.11481541,0.17171694,-0.69420213,-0.79216701,0.09130801,
0.09332383,0.09344064,-0.37302747,0.03968957,-0.70986521,-0.13911374,-0.06931531,-0.07358427,0.08925714,-0.01965720,0.09272598,0.92875135,0.00024881,
0.27292466,0.35350376,0.40156439,0.26686725,0.29577196,0.29065582,-0.23310977,0.12979022,0.21142161,-0.26288065,-0.31789118,-0.27872035,-0.01157181,
-0.07970282,0.03016075,0.22915998,0.24204890,-0.22232054,-0.06061026,0.01772347,-0.73287439,-1.28916466,-0.00191743,0.19519818,-0.28863320,-0.00109883,
0.00393076,-0.26934436,-0.15480193,-0.15144745,0.14951140,0.17796209,0.14421217,-0.52918756,-0.08581114,0.03474808,0.26523614,0.45047119,-0.37883911,
0.03538056,-0.05621908,-0.03634937,-0.13373257,-0.20871507,0.16238806,-0.57612634,-0.41378993,0.04359754,-1.00092590,0.39750656,0.28700000,-0.04018469,
0.13661736,0.24449120,0.35833216,0.06238497,0.28415212,0.23865837,0.23278153,0.22489524,0.23208936,-0.22692685,-0.36015931,-0.02355866,0.19278550,
0.02230275,-0.16819945,-0.07332917,0.06106836,-0.18524392,-0.14692406,-0.22755188,-0.49156263,-0.06912027,0.04854245,0.24689512,0.54660219,-0.34923479,
-2.24330544,-1.64218652,0.22370631,0.20671855,0.17875421,-0.56040537,0.08210692,0.08693393,0.05682683,-0.32233095,0.01291530,0.20375939,0.01709746,
-0.10098723,-0.68548715,-0.29998124,-0.12773989,0.19618239,0.00280035,0.05974573,-0.24980657,0.08319127,-0.68692130,0.31071937,0.32020789,-0.13751446,
0.09917845,-0.45460242,0.14150697,0.00691204,-0.82627100,-1.28296101,-1.04936063,-0.90057778,-0.67930532,0.07213656,-0.28386441,-0.26874724,-0.03714445,
0.34581283,0.05424376,0.34880519,0.37501433,0.32662582,0.14111531,0.17149617,0.05485356,0.17759220,0.03845989,-0.53306305,-0.42852777,0.07116863,
0.15787117,0.05967880,0.09109630,-0.31316760,-0.30327982,-0.45672578,-0.55674922,0.01415943,-0.01069503,-0.12958461,0.33805951,0.23416147,-0.02040752,
0.26030907,-0.50236607,-1.06680310,-0.12880081,0.20952001,0.25120401,0.07744675,0.28360659,0.25501499,-0.22850075,-0.39383015,0.32293466,0.19567353,
0.00499697,-0.02782620,0.05812995,0.02827928,0.10127935,0.28626144,0.16805360,0.17427310,0.20958336,-0.06768383,-0.33373103,0.38053474,0.16628356,
0.36769328,0.77973050,0.45792764,0.15872197,0.15433440,-1.01566935,0.07507686,0.06840199,0.00187349,-0.22657248,-0.25014663,0.01559078,0.09229298,
-0.31627452,-0.03477695,0.01852052,-0.11680502,0.06513043,0.04864924,-0.38112026,-0.33275571,-0.23653267,-0.38546365,-0.32426921,-0.61687213,-0.48454872,
-0.24849391,-0.61197448,-1.27214825,0.06996659,0.16564295,0.13859262,0.14853208,0.25882018,-0.00105090,0.12724045,-0.23192842,-0.22742917,0.10111679,
0.09129812,0.10510809,0.05605480,-0.30753487,-0.67477161,0.03813900,-0.15457109,0.02225280,-0.43008193,-0.67561549,0.24459077,0.57864082,0.08601341,
0.06620444,0.06486993,0.00070537,0.15703940,0.31344324,0.30034345,0.12865821,0.26639912,0.13302703,0.18913290,-0.13664231,-0.62451023,0.16381702,
-0.00423007,-0.71700788,-0.17052627,-0.22647591,0.02160617,-0.79292178,0.02444690,-0.15854029,-0.17106363,0.05470987,0.19661734,0.48900375,-0.00534275,
-1.81612706,-1.09640443,0.18371575,0.04767504,0.07460800,0.06162290,0.08564830,-0.02604116,0.04751174,-0.63550305,0.07650103,0.01467868,0.02685550,
0.10622783,0.23683853,0.19979016,0.09853457,0.08885541,-0.93577564,-1.13364089,-0.40559578,0.17328760,0.01194140,-0.62257791,0.07243772,-0.04663457,
-0.00700736,-0.06335369,-0.10370836,-0.04792298,-0.08418945,0.01703939,0.01488495,0.11566851,0.01011238,0.14036867,0.33267274,0.50288302,0.09176554,
-0.20897700,-0.24547829,0.07340255,0.17489330,0.07972286,-0.02320000,0.03226217,-0.16382979,0.12584385,0.05965355,-0.56149471,-0.62734693,-0.12504254,
-0.08283298,0.68023151,-0.26528418,-0.11359761,0.27529603,0.00364071,0.04295545,0.09221177,0.10255263,0.04390286,-0.38342071,-0.39672634,0.02193964,
-0.16998853,0.15892424,0.12968019,0.16387312,0.09630743,-0.00377141,-0.00901388,0.08980486,0.08513947,-0.00651803,-0.12837672,-0.22458529,0.06798021,
-0.11752407,-0.28317979,-0.19270903,-0.84088725,0.16988437,0.28588599,0.29468027,0.28392121,0.19561474,-0.07168619,-0.28854015,0.10624889,0.08747193,
0.19630207,0.13477054,0.36800438,0.13198052,-0.16568467,-1.19960487,-0.77962834,-0.87117767,-0.67887521,-0.33113110,-0.21683447,-0.31542984,0.17771545,
-0.17553279,0.18876632,0.29607004,0.20440122,0.15634763,0.14246278,0.14240198,0.08439030,0.20156388,-0.21466643,-0.34138367,0.12754922,0.16713898,
0.15567259,0.15403379,0.33339930,0.21293569,0.17223510,0.18881057,0.15564972,0.21321793,0.16705365,-0.02231386,-0.32179862,-0.23767348,0.18426622,
-0.21036968,-0.05070069,-0.24199694,-0.14582664,-0.20109674,-0.47844446,-0.08298290,-0.01662077,0.08547582,0.15056996,0.09496702,-0.67380852,-1.14589882,
0.14317375,0.14142086,0.21572921,0.36599010,0.14085859,0.06245242,0.15233555,0.11572029,0.24526221,0.15081345,-0.23343773,-0.66819209,0.39151141,
-0.24881771,-0.54274970,-0.18577582,0.03427372,0.00203291,0.02285145,0.13273486,0.10106082,-0.15607791,0.13117406,0.02791669,0.09613431,-0.67881584,
-0.01209684,0.03143128,0.23127091,0.06041817,-0.88145995,0.04708277,0.11267865,0.00740079,0.06698269,-0.78920209,0.14719516,0.40034980,-0.00910404,
0.06547573,0.10884276,-0.00467433,0.26806307,0.18374924,-0.00768584,0.04976059,0.18511434,-0.16516297,-1.20612240,-0.23446587,-0.22925495,0.27560082,
-0.02998691,-0.08455511,-0.00152535,-0.03477952,0.02944443,-1.08351088,-0.03853150,0.04031758,0.09855718,-0.00105824,0.18166678,0.34111780,-0.00607617,
0.19281538,0.15768909,0.00663360,0.32836443,0.13290754,0.10820414,0.17809841,0.12062868,0.14778641,0.07676679,-0.12220539,-0.55518168,0.11800785,
-0.06054388,0.27508608,0.01713386,0.26566181,0.30475068,0.46518376,0.31802949,0.20260818,0.32835004,-0.07406402,0.40387279,0.31520575,-0.18126370,
0.33561853,0.07903702,0.38693666,0.43874368,0.39116031,0.08116379,0.21177194,0.40138882,0.27840173,-0.09974328,0.25149554,0.53555125,-0.14180401,
0.18126802,0.10866763,-0.43869084,0.15312909,-0.56522250,-0.34020177,0.19577907,-0.48347422,0.14250495,0.01825992,-0.27186650,0.00251675,0.04391135,
0.19208880,0.08492225,-0.06792133,0.11443413,0.17190045,0.17998941,0.10493739,0.26002860,0.23130690,0.12319110,-0.14719567,-0.66208285,0.15869470,
0.02674297,0.06406198,0.19582257,0.21865453,-0.25261244,0.08599159,0.00846497,-0.25367442,0.15655701,-0.21890922,0.44292250,0.81377232,-0.08086693,
-0.20707889,0.26366970,-0.56930882,-0.05953958,0.09676450,0.13258015,0.19148089,-0.32112643,-0.10972843,0.10810532,-0.44486716,-0.32501334,-0.24348341,
-0.25855651,-0.37278756,-0.43056697,-0.10272725,-1.02382231,-1.25781333,-0.70900935,-0.42432365,-1.43295753,0.30838600,0.01563738,-1.42547309,-0.06938532,
0.28557295,0.19677779,-0.02756630,0.14653549,0.33498934,0.14012018,0.29906678,0.14869446,0.14813648,0.10458512,-0.28258568,-0.24371797,0.21093325,
-0.03293205,-0.30136111,-0.20616728,0.07917834,0.08718623,0.05001467,0.31878316,0.16141200,0.06495601,-0.05667003,-0.17533295,-0.12129051,-0.53633922,
-0.23792331,-0.22741751,-0.54325038,-0.07732670,-0.02952722,-0.06508370,-0.00997960,0.24246465,0.23659198,0.10210411,0.39255401,0.13951483,-0.03523075,
0.29579011,0.28874406,0.22311057,-0.19538094,-0.25164780,-0.39277297,0.06930847,-0.17092617,-0.05203936,-0.27115354,-0.13748012,-0.78152311,0.15869495,
-0.03405761,-0.46684551,-0.05864318,-0.86871326,0.02270450,-0.80371302,-0.05496119,-0.52524513,-0.86619550,0.07720585,0.08269289,0.35469198,0.05265413,
-0.15860474,-0.24937963,-0.69102544,-1.05422223,0.04484016,0.02155867,-0.04477371,0.29637083,0.07974718,-0.59499973,0.30201867,0.14877898,-0.03290296,
-1.15353012,-2.22157955,-1.91265988,0.21660648,0.13092472,0.16599441,-0.03226377,0.09904792,0.12817150,-0.18747787,0.11601360,0.27937660,0.06219080,
-0.04750072,-0.06687422,-0.38855591,-0.46636304,-0.12929717,0.04730093,0.02136168,0.11033297,0.12087646,-0.07290927,0.21959114,0.65247667,-0.00613093,
0.13018812,0.17661652,0.12874466,-0.07089055,0.19124576,0.24289566,0.26778576,0.17772798,0.23642388,-0.42744252,-0.32790002,0.42938381,0.16726893,
-0.01374159,-0.12299089,0.11448358,0.19956081,0.21716820,0.19267216,0.24773012,0.28275186,0.35238406,0.06687805,0.05429062,-0.72315443,0.01368541,
-0.14325905,-0.36047533,-0.13340050,-0.20450836,-0.53622454,0.04917929,-0.30587608,0.03912705,0.03027505,0.05517801,-0.18303716,0.69845021,-0.20273951,
0.15193208,0.16588250,0.18918502,0.20110364,0.36799374,0.27998507,0.19951706,0.26471677,0.13814592,-0.13673513,-0.22674046,-0.22850326,0.14672120,
-0.22233932,0.01158318,-0.00339642,0.03130244,0.05068842,-0.01412458,-0.29662633,0.22624055,0.16195908,-0.25142971,-0.20454881,-0.21208170,0.04847494,
0.02968674,-0.20626943,-0.09426492,-0.09712072,0.02178960,-0.02471581,-0.04682278,0.23209181,0.26999268,-0.28045779,0.25645226,0.18931267,0.05876375,
0.34371743,0.22535174,0.16669029,0.16174699,0.12123694,0.23055892,0.37555087,0.17567798,0.23130812,0.23610407,-0.28699958,-0.64815068,0.36575979,
-0.69430006,-0.18307778,-0.39118794,0.01548615,0.04689083,-0.02929557,-0.34156695,0.09334893,0.07511838,-0.08157859,-0.00008277,0.19430889,-0.36311221,
0.08170832,0.24682625,0.29215172,0.11095478,0.19572830,0.30276996,0.12180564,0.33812094,0.27676639,0.03176711,-0.19874276,-0.51496279,0.37295508,
-0.01787732,0.19608311,0.20507199,0.41496077,0.14245166,0.23688659,0.14643845,0.01796641,0.18303439,-0.14953385,0.21450990,0.01784317,-0.09003703,
-0.20249677,-0.00021888,0.07554466,-0.22704999,-0.13233982,-0.00592192,-0.25337848,0.09887805,-0.05472754,-0.55312252,-0.50136256,-0.61051476,-0.55909324,
-0.44512811,-0.60587561,-0.31639549,-0.29431590,-0.09064662,-0.47860834,-0.20058978,-0.03962764,0.08958676,0.02808450,0.18023062,-0.01239812,-0.91624093,
0.01386571,-0.22464345,0.11278224,0.06238152,0.04544853,0.00615506,0.24966526,-0.00661098,0.03400636,0.02355644,0.04059516,0.32895413,-0.11395454,
-0.15736556,-0.06592456,-0.34014380,0.06750721,0.21362481,-0.04917499,-0.12968791,0.18183561,0.11066657,-0.46704167,-0.16160129,-0.14965305,-0.57893789,
0.11770632,-0.00010485,0.13228698,-0.13262495,0.11814155,-0.07894169,-0.30320325,-0.12813878,0.03185973,-0.11997917,-0.04737595,-0.14975430,0.29016653,
0.13908985,0.17519702,0.12644415,0.16560975,0.22166932,0.12049205,0.09641889,0.13486670,0.23093541,0.11910369,-0.15467475,-0.48722956,0.13387302,
0.05435972,-0.24932957,0.13879114,0.16281694,0.14014560,0.17277391,0.02292751,0.18088311,0.14405546,0.20378192,-0.14531194,-1.03564322,-0.49407467,
0.05156636,0.07985412,-0.05044736,-0.09278736,-0.10092531,-0.03051207,-0.00193296,0.10625841,0.08109918,-0.09744836,0.19228938,0.64834595,0.33815369,
0.22796609,0.19289610,0.22455770,-0.17024162,0.04489730,-0.16761698,0.14825156,0.27567875,-0.19830047,0.21563084,-0.25824738,-0.66596377,-0.35528380,
0.29781744,0.17615168,0.19076884,0.22124176,0.22480938,0.20672153,0.25911236,0.05517546,0.02486178,0.12674151,-0.38292384,-0.07314193,-0.28802222,
-0.43171120,-0.37827432,-0.27758941,-0.19207232,-0.25826567,-0.07054355,-0.05730955,0.03236097,-0.08662545,0.09579644,0.19880205,0.33648384,-1.08217931,
-0.02720993,0.25056478,0.38524979,0.14846532,0.12551346,0.00166019,0.21823737,0.07556605,0.10683958,0.02479493,-0.43052226,-0.64784276,0.08588910,
-0.56148607,-0.19409871,0.02822035,-0.04102091,-0.26070520,-0.26152688,-0.03211133,-0.00480360,-0.14300157,0.06354659,0.23768933,0.10320088,-1.19438720,
-1.38503885,0.30177104,0.20874761,-0.44363648,-0.26044744,0.05646044,-0.00371753,-0.65978485,-0.36786562,-0.27450430,-0.40944457,0.34102848,0.19781560,
-0.01404954,-0.22107039,-0.17608915,-0.16418548,0.08860125,-0.13795045,-0.00765962,-0.06797458,0.03819717,-0.08437669,0.16829090,0.55707735,0.10327075,
-0.25921038,-0.03436076,-0.46244261,-0.06636983,-0.39803466,-0.07149101,-0.25759664,-0.38640520,0.20659447,-0.29659319,-0.00032343,0.15459651,-0.40613511,
-0.22359985,-0.51641577,-0.33370125,-0.36434606,0.15396397,0.03895477,-0.10666642,-0.03606986,-0.42160717,0.00928287,0.09716542,0.61993432,-0.50718731,
0.03892423,0.33587703,0.40142900,0.04351599,-0.09271982,-0.69444960,-0.75232494,0.12438925,0.19646896,-0.20632413,-0.39429182,0.40723354,0.16826110,
-0.01626401,0.03953891,0.04277435,-0.34072426,-0.06633882,-0.25382683,-0.16113810,0.34386495,0.22238100,0.11591819,0.22389486,0.44096687,-0.20844539,
0.03515052,-0.40698639,-0.07530668,-0.05116598,-0.11032229,0.16556218,0.33341560,-1.47768140,-0.66745073,0.13955306,-0.53059489,-0.49413106,-0.16331846,
0.03490482,0.03519895,0.27795005,0.27951410,-1.30871046,0.14044006,0.10473621,-0.80906844,-1.19095039,0.08795691,-0.33259425,-0.45622164,0.02726091,
-0.20278548,-1.24057639,0.31480902,0.34348303,-0.05926875,-0.21560198,-0.96098441,0.12901630,0.13466379,0.08374542,-0.15817870,-0.78357291,0.11647218,
-1.06095159,-1.61364412,-1.62121820,0.11012471,0.15104353,0.12385283,0.18334600,-0.35265970,0.18969138,0.12288144,-0.19537333,-0.39013126,0.15060689,
0.23102427,0.38804820,0.26906276,0.31960344,-0.02463627,0.17096429,0.03390343,-0.08344859,0.11951275,-0.61213094,-0.20217873,-0.09250868,0.14400345,
-0.23402992,-0.08754217,0.08018896,-0.18742846,-0.13594903,-0.03168687,-0.19408174,0.23163246,-0.46217567,-0.10506725,-0.51277262,-0.35305625,-0.69457042,
0.42850178,0.65378177,0.45598170,-0.27910852,-0.40494695,0.17956525,-0.49365664,0.11382557,0.13772134,-0.60506034,-0.11125001,-0.42795944,0.10404350,
-0.20568170,-0.03129358,-0.41611335,-0.03959713,-0.16223690,-0.03738397,-0.24869514,0.14659534,-0.57868665,-0.04834202,0.26305881,0.43734175,-0.12385817,
-0.75018948,0.04981968,-0.28659642,-0.07120736,-0.03081726,-0.00227535,-0.24163851,-0.31537494,-0.04552577,0.07544743,-0.10809054,-0.69064921,-0.84232455,
0.17422256,0.07411984,0.18474288,0.13520743,0.17533389,0.38611722,0.05694140,0.22974895,0.06328346,-0.47198200,-0.03548975,-0.64760035,0.14726803,
0.26857167,0.75517291,0.16462566,0.04119753,0.02738637,0.02091321,-0.39420938,-0.02489502,0.07020734,0.05648267,-0.81346852,-0.71887732,-0.03635340,
-0.08745752,-1.46511829,0.17033644,0.13019449,0.03762729,0.32735398,0.38801086,0.00240351,0.13532436,-0.22161569,0.10481878,0.11537399,0.03009655,
-0.31553337,-0.13195603,-0.44922468,-0.22949168,-0.01170237,-0.02250994,-0.03018241,-0.10411551,0.09296781,-0.36997262,-0.52591234,-0.52032799,-0.46496263,
0.21453539,0.14537694,0.11217330,0.36268541,0.08418491,0.23756321,0.20666780,0.12561783,0.21897778,0.09408037,-0.22787803,-0.49494833,0.26994994,
-0.35155788,-1.02436185,-1.32320631,-1.19216084,-1.03532517,-1.32927144,0.05841339,0.06923851,0.11014690,0.06178325,0.00002272,0.12812710,0.06480410,
-0.07904150,-0.02081478,-0.05260057,-0.17511797,-0.06603014,0.18751846,-0.18472616,-0.12006170,0.00112346,-0.20070334,0.39119637,0.77776802,0.06611570,
-0.07181098,-0.13133970,0.07432595,0.03509786,-0.10540181,-0.08787879,0.21467741,-0.01998063,0.09346863,-0.01014755,0.36511263,0.24660644,-0.03912551,
0.31795236,0.24159616,0.24887496,0.01882425,0.04603817,0.19042377,0.18868330,0.11388697,0.12929672,0.20146056,-0.21370119,-0.16700931,0.24773677,
0.10426512,0.20612808,-2.07407951,0.04942975,-1.71468699,-0.11583472,0.20187031,0.18470439,0.36742681,0.04574291,-0.28832263,-0.47954497,0.19405848,
0.12936324,0.11557484,0.24273612,-0.26503000,0.18789829,0.02701644,0.18565881,0.26086161,0.13395630,0.00671739,-0.03297290,-0.71513373,0.01375576,
-0.04295573,0.33297026,0.18401763,-0.11718126,-0.04393955,-0.14817140,0.10538100,0.39497337,-0.24109343,0.20531000,-0.40527627,-0.37101516,-0.19199984,
-0.61207551,-2.15058351,-1.84607983,-1.38604844,-1.79037094,0.15194921,0.17262962,0.14738482,0.12769215,0.10106738,-0.17202826,-0.24118850,0.16710660,
0.12417383,0.12513570,0.14550617,0.22835544,0.32283026,0.16918145,0.20899235,0.14928828,0.15607885,0.26775414,-0.21960190,-0.48339307,0.21730477,
0.10515266,0.31975710,0.07143372,0.20878746,0.10709980,0.42238191,0.24947298,0.39279929,0.16187601,0.08563698,-0.06027729,-0.44400507,0.11982925,
0.30546081,-0.06838617,0.06283370,0.25282055,0.42381471,0.44819346,0.06968649,0.09062713,0.08629448,0.25239068,-0.33931047,-0.20370442,0.07606124,
-0.10094400,0.05878907,-0.11162803,-1.45556760,-1.56265557,0.11780868,-0.00377759,0.12214886,-1.27955770,-0.49475789,-0.07724505,-0.18358749,-0.35156894,
-0.00851079,0.16997291,0.11775523,0.11101955,0.05566943,-0.06358145,-0.08719939,0.10740262,-0.12888366,-0.12209346,0.32715106,0.75564623,-0.03699925,
0.17445229,0.14718598,0.25924033,0.19176519,0.21537519,0.16051099,0.12500744,0.26910570,0.22065993,-0.60026300,-0.26654619,-0.15049952,0.26008129,
-0.01849998,0.17809455,0.00758683,-0.04859436,0.00194764,-0.09727731,-0.08677808,0.11594496,-0.06625736,-0.02610140,0.32655361,0.64652026,0.09379727,
0.20347437,0.15617856,0.17752936,0.20790988,0.17935097,0.15628739,0.14702520,0.22564526,0.14367996,0.23774613,-0.22936757,-0.52428651,0.17819166,
0.08616067,0.36499268,-0.84643322,-1.02814507,-0.66527635,-0.40177873,-1.43299878,-0.71032637,-0.67155385,-0.27724785,-0.29941383,-0.71424681,0.16511694,
-0.20028275,-1.03976500,-0.31416073,-0.40318751,0.18347341,0.08649801,0.08331782,-0.10235573,0.22841926,-0.32940695,0.08994500,0.22764833,-0.19147554,
-0.93615192,-0.30162930,-0.11375282,-0.12244614,0.00002171,0.00576630,-0.00211646,-0.00479034,-0.00055716,-1.93642795,0.13352260,-0.15728676,0.31445396,
0.11990125,0.05505819,0.08096530,0.10305269,-0.05736117,-0.18656906,-0.10825954,-0.08524165,0.07145164,-0.88566393,0.20234524,0.64670295,-0.02099852,
-0.09965059,0.33773613,0.18080641,0.25372791,0.27692142,-0.10943630,-0.11540434,-0.16142340,-0.43951270,-0.31529310,0.46301499,0.50712115,-0.11797430,
-0.31574643,-0.36551586,-0.21747711,-0.36825994,-0.45924911,-0.42381912,-0.14005122,-0.45369369,-0.15626167,0.09500422,-0.12275635,-0.51396871,-0.21189174,
0.35475203,0.16486439,0.21864258,0.16030608,0.33114728,0.19246231,0.13477202,0.15104856,0.13975908,0.22769049,-0.24633332,-0.45825356,0.32188982,
0.33337903,0.31557873,0.23811562,-0.36772150,0.05742381,-0.40852812,-0.60020489,0.05140426,0.21045601,0.08877901,-0.31195053,-0.30228263,0.14629260,
0.23885179,0.17015158,0.23911421,0.24853186,0.34483492,0.21515013,0.19138481,0.16267422,0.16001424,0.24359915,-0.30756491,-0.34613907,0.25038031,
-0.08097595,
-0.07727079,
-0.13871947,
-0.10156215,
-0.41592404,
-0.13186748,
0.08279227,
-0.38034177,
0.04127690,
0.33834541,
0.16428766,
-0.30563942,
-0.18200554,
0.21404302,
-0.00585670,
-0.27926511,
-0.14322090,
-0.11887580,
-0.02504230,
-0.23664260,
-0.18986152,
0.00457555,
-0.09909178,
0.05658145,
-0.22020632,
0.08286078,
-0.02905364,
0.05995404,
0.04584635,
0.08455554,
-0.21052681,
-0.05933229,
0.11740086,
0.27709159,
0.04072464,
-0.26421422,
0.19583376,
-0.14048705,
0.17273857,
0.16058989,
0.42206573,
-0.33670446,
0.02963034,
0.21220283,
-0.14326902,
0.20175610,
0.10809565,
-0.40581685,
0.07260173,
0.37902787,
-0.14825095,
-0.28860977,
-0.24300179,
-0.18885948,
-0.01161279,
-0.61708277,
-0.07415205,
-0.55435795,
-0.43291226,
-0.14988585,
-0.34272620,
-0.10838893,
-0.17051698,
0.03014681,
-0.25596371,
0.26668251,
0.01359802,
-0.18616517,
-0.14363262,
0.01255986,
-0.05068224,
0.06656389,
-0.02805445,
-0.44046816,
-0.11414701,
-0.46301344,
-0.06766027,
-0.13716789,
0.34755573,
0.01954158,
0.38616270,
-0.57679743,
0.44498575,
-0.05525225,
-0.28314576,
0.08618857,
0.12171835,
-0.17245561,
-0.14600016,
-0.41131487,
0.39833191,
-0.01668642,
-0.04908666,
-0.28492987,
0.39332309,
0.14469475,
-0.03795550,
-0.01857404,
-0.22594516,
0.24203210,
0.00640220,
-0.21078075,
-0.19876818,
-0.19497474,
0.02401585,
-0.21497086,
-0.24144311,
0.06553399,
-0.06670630,
-0.15578273,
0.13520750,
0.21995524,
-0.25231060,
-0.18769579,
0.00324413,
-0.09459209,
-0.16771862,
-0.43004677,
-0.50969774,
0.18574634,
0.05451728,
0.16308050,
-0.76878583,
-0.14996678,
-0.03061344,
-0.00634761,
-0.27387261,
-0.70250195,
0.11225799,
0.08155644,
-0.50846016,
0.02711164,
-0.21360640,
-0.23661983,
0.27774367,
-0.17642495,
-0.30640012,
0.29664198,
-0.58846509,
0.21891148,
-0.23445290,
-0.07418020,
0.10088084,
0.05978868,
-0.23106113,
-0.44724229,
0.02546802,
0.01661031,
0.13495733,
0.07312425,
-0.11973565,
-0.42896956,
-0.21986935,
-0.00239201,
0.10795612,
-0.02146394,
-0.00641967,
-0.15167037,
-0.06366984,
-0.10409758,
-0.28052548,
0.25289187,
0.15491088,
0.34927434,
0.24340948,
0.33676264,
0.14107485,
0.26685566,
-0.39435425,
-0.32759637,
0.20920034,
0.20613629,
-0.12236345,
0.02664543,
-0.18141004,
0.13351402,
0.20701106,
0.15688644,
-0.38833779,
0.06190437,
0.20342158,
-0.48793966,
0.26187974,
-0.12900920,
-0.05080585,
-0.00003959,
-0.12664150,
-0.06952588,
-0.00708290,
0.33177793,
-0.16379958,
0.20856376,
0.05506609,
0.05564800,
0.42968267,
-0.39972982,
0.23119983,
0.07954592,
-0.40851530,
-0.19811115,
0.00838268,
-0.50257611,
0.02633290,
-0.23910354,
-0.17507268,
-0.13273600,
-0.25479800,
-0.29995129,
-0.25581387,
0.19276288,
-0.17045000,
-0.35796168,
0.10263652,
-0.42034540,
-0.26702693,
0.28555673,
0.35226935,
-0.32533598,
-0.29276875,
0.12398010,
-0.25433794,
0.11143892,
-0.30671409,
0.10084917,
-0.05743778,
-0.11597250,
-0.10132714,
-0.17595175,
-0.28431809,
-0.49748752,
0.43375087,
-0.19775526,
0.04595903,
-0.01395722,
0.41615584,
-0.03786772,
-0.00978568,
0.09666852,
-0.02695647,
0.25899985,
0.38395590,
-0.05492774,
-0.37432104,
-0.17642345,
0.02361394,
0.09622191,
0.29860285,
-0.21340665,
-0.34192836,
0.18205005,
0.06671938,
-0.07954576,
-0.26657540,
0.38940135,
-0.16653366,
0.47628328,
-0.07466394,0.01441015,-0.17668532,-0.35067585,0.01211573,0.02365928,0.12604637,0.09505165,0.00355335,-0.25840583,-0.23078860,-0.05421504,0.06204122,-0.23141396,-0.02184187,0.05965823,0.16375028,-0.24800162,-0.27944613,-0.02087915,-0.24274415,0.00145808,-0.08459816,0.11926159,-0.51565325,-0.05727454,-0.24018162,0.13303450,-0.20585027,-0.64977807,-0.03127287,-0.18622051,-0.10221842,-0.24237074,0.08690784,0.14452784,0.08673014,-0.25603402,-0.24824154,-0.31254029,-0.30039245,0.11201506,-0.39369732,-0.23359239,-0.13627374,-0.00346233,-0.15827863,0.06888715,-0.34388706,-0.31222668,0.15856968,0.14383535,-0.24251361,-0.27568129,0.18428685,-0.17824449,0.04479320,0.02325397,-0.05682314,0.04838779,-0.03310617,-0.07870548,0.08488014,0.09444144,-0.23240219,0.07176533,-0.37096646,-0.00072693,-0.27249068,-0.19233362,-0.48539203,0.16535673,0.11759555,0.01158446,0.15644293,-0.34002969,0.04703151,-0.04186495,-0.46725067,-0.05916292,-0.48499057,0.05847980,-0.46684942,0.07546073,0.20548548,0.06657886,-0.11376830,0.12049066,0.00244241,0.00450595,-0.31024265,-0.19335377,-0.06703924,0.15944673,-0.19558267,-0.05242839,0.02581625,-0.21590263,-0.01726939,-0.18871416,-0.29218793,0.01900720,0.05797479,-0.11255053,-0.06455511,0.20974323,0.09943542,-0.13619697,0.10178593,-0.09401260,-0.40414515,-0.06728907,0.02463228,-0.02250089,-0.14348717,-0.09357318,0.14664717,-0.01253821,-0.23343845,0.12194615,0.06847861,-0.16338766,-0.06178929,-0.10227986,-0.17085449,0.21463935,-0.14316782,-0.06418777,-0.13571317,-0.01708491,0.10464486,0.11106445,0.06464215,-0.39656809,-0.18631041,-0.08150627,0.15744299,-0.24120165,-0.16084692,0.10989051,0.21935120,-0.58366275,0.08942480,0.00641739,0.13160650,0.05555410,-0.53862369,0.10398404,-0.46691352,-0.58660048,-0.14802966,0.07133764,-0.08249408,0.04422910,-0.09598471,0.06383420,0.02372861,-0.03692523,0.04747193,-0.06867269,-0.25536889,-0.25783423,-0.28598562,-0.20031463,-0.21390145,-0.52567399,0.18369344,-0.21432132,-0.16471608,0.01884228,-0.30472836,0.07476139,-0.08788176,0.08937185,-0.00162197,-0.29339844,-0.15477048,0.17937574,-0.05086671,-0.03270461,-0.31470937,-0.16848411,0.10943180,-0.03616907,-0.02454942,0.10013894,0.10913771,0.10437697,-0.53929693,0.01078086,0.04665864,-0.38418350,-0.12556642,0.07588690,-0.32786137,0.02333315,-0.27812633,-0.02611681,-0.10034389,0.19867799,-0.03857845,-0.04184484,0.00224702,-0.04251862,-0.07464414,0.06620578,-0.05736774,-0.11648195,0.03308348,-0.39518094,0.00504603,-0.00161699,0.01786173,0.02519187,0.00732250,-0.28098333,0.07297758,-0.28530928,-0.29200533,-0.10671595,-0.24132110,-0.24425018,-0.10539908,0.01544178,0.14165358,-0.01003929,-0.22090605,-0.13460165,0.02633242,-0.23063669,-0.28466356,0.12925912,0.09934790,0.10321113,-0.01879333,-0.30951938,-0.12684013,-0.27958539,-0.44823307,-0.28701460,-0.23464973,-0.16040458,-0.00096249,0.10330734,-0.33174694,0.05069849,-0.42366108,-0.09038015,0.06688458,-0.07048681,0.07901933,0.07953241,-0.15110038,-0.29143989,-0.20831586,-0.34400210,
0.07607853,0.04425032,-0.09176103,0.01156412,0.03786926,-0.08059999,0.13420816,0.16025704,0.02482464,-0.03839919,-0.00348305,-0.42304730,-0.22766225,0.30135432,0.47411007,0.13970314,0.07634567,-1.46253109,0.01544641,0.39834571,-0.34762666,0.04644908,0.44848302,-0.08416596,0.31223589,0.15990922,-0.09643134,0.11139545,0.15603490,0.16081634,-0.06170611,0.00451657,-0.23452345,0.03593612,-0.07983383,0.07078982,-0.24262913,0.18482681,-0.12955594,0.49193203,-0.01869625,0.27963522,-0.16266319,-0.11442012,-0.05780719,-0.00148567,-0.02223799,0.10800193,-0.13779445,-0.33629438,-0.03767776,0.17290257,-0.31010097,0.16026008,0.22487959,-0.28576761,0.01310033,-0.04470751,-0.03116268,-0.04124015,-0.32386243,0.46150020,-0.22033027,-0.02307884,-0.35005566,-0.10409015,0.18222243,-0.02079805,0.22210990,-0.40054494,-0.20965146,-0.02272810,-0.08288734,-0.10351984,0.03468485,-0.85973048,0.30011663,0.06133994,-0.11609155,0.18397778,0.15233019,0.21922831,-0.18518254,0.15724684,0.01968351,-0.84465641,0.02837896,-0.15734899,0.15711744,-0.30492029,-0.02480904,0.05615858,-0.48037675,0.05459720,-0.12245910,-0.11730620,-0.04404091,0.02070909,0.05543258,-0.16593729,0.21543406,-0.24158655,0.16870499,0.51424348,0.14917201,-0.20281364,0.01600293,0.41687825,0.23050024,-0.40644148,0.18111148,-0.03435972,0.07503101,0.03318748,-0.09122690,-0.05777875,-0.18916877,-0.28539440,-1.41887677,-0.02005341,0.03355480,0.01375479,0.25484642,0.52347630,-0.10260411,0.14391629,-0.15718739,-0.04756898,0.01023207,-0.18221322,0.04277873,-0.01123606,-0.08322803,0.35984069,0.03584512,-0.36733234,-0.11340312,-0.08477922,-0.04690014,0.02878630,-0.12995370,-0.04331420,-0.00907630,0.04154241,0.09241188,-0.14556232,-0.13491528,-0.21355760,0.41355851,-0.07260807,-0.42364353,-0.36826667,0.24296725,-0.24635914,0.04127333,0.01468708,0.00386971,-0.12488986,-0.02634297,-0.17952593,-0.04270607,-0.10604294,0.30152360,-0.42961249,0.01433269,-0.04293087,0.33831421,-0.23605977,0.19797540,0.04275233,0.19343910,-0.01495268,0.08141543,-0.06461495,-0.07683796,-0.31652945,0.01237260,-0.04752175,0.29992938,0.23600446,0.11140092,0.04944839,-0.08382804,-0.41729319,-0.06854612,0.27449864,0.32937324,0.10303940,-0.09873371,0.08788514,0.05127056,0.01851722,0.00739870,0.03691178,-0.22884677,0.18140091,-0.04972680,-0.00773576,-0.13342430,0.05625463,-0.01731310,-0.02105174,-0.00328122,0.10864372,0.08915861,0.05174877,0.06690134,-0.06249223,0.31511045,-0.15852928,0.07205016,0.00725362,0.17427611,0.09873974,0.32033411,-0.12231123,0.01125929,-0.31365314,-0.24086332,-0.19121347,0.31474093,0.00013591,-0.93716472,-0.55126435,-0.01269130,-0.01084563,0.01185267,-1.56680286,0.01191377,-0.49438310,-0.14676647,0.05102442,0.07888626,-0.14806382,0.02281967,0.04904587,0.11822205,-0.43342826,0.60362476,-0.17776585,-0.01300416,0.16435246,0.24438550,-0.01258527,0.17236896,-0.06798526,-0.21379095,-0.93179905,0.14564225,0.45559004,-0.00037948,-0.21849670,-0.03218461,-0.08644631,-0.29675552,-0.08231339,
0.00564311,-0.04001993,-0.02361189,0.05937030,-0.04426488,0.03869703,-0.04882425,0.02542802,-0.05181220,0.00959401,0.03404799,-0.01747879,-0.00584094,-0.05475416,0.04783202,0.02369476,-0.05931623,0.01967155,-0.03840167,0.01788361,0.03889074,0.00862888,-0.01598897,-0.02426178,0.04181050,0.05485690,0.04026538,0.05032289,-0.01046792,-0.05054893,0.00847935,0.04017832,0.00581960,-0.03033563,-0.02374337,0.04284927,0.03191197,-0.05908649,0.02533531,0.02382055,-0.00465634,-0.04609626,0.03872130,-0.03291068,-0.04239152,-0.01460033,-0.04772262,-0.03835190,-0.03409123,0.04357804,0.04109887,0.02722332,-0.01823329,-0.02546611,-0.06634834,0.05838029,0.02376636,0.05651287,-0.03278334,0.05240910,-0.05288326,0.04223567,0.03950614,-0.04324195,-0.04082927,-0.02939094,-0.05278397,-0.03393877,0.05728877,-0.04672934,-0.01244184,0.03539055,-0.01582361,0.00930195,-0.00013356,-0.03588286,0.05444318,0.02452234,0.05190980,-0.06357654,-0.06196049,-0.03844481,-0.04703874,-0.05737736,0.05089851,-0.02868822,-0.01462230,-0.05493384,-0.03286304,-0.03111527,0.00817521,-0.00495629,-0.00912328,-0.03078723,0.00640844,-0.04984363,-0.02021994,0.03135636,0.01329220,0.04463796,-0.05882746,-0.02585654,-0.01350224,0.05022655,0.00138738,-0.01857129,-0.05796723,-0.01446022,-0.03668491,-0.02826940,0.00004289,-0.03133291,-0.02984571,0.01624621,-0.02229851,-0.00053160,-0.00815370,0.03214321,0.02261487,-0.02443540,0.02128609,-0.01845475,0.03541104,-0.04539037,0.00542827,-0.00898740,-0.01033169,-0.04075433,-0.03195067,0.03072091,-0.06051657,-0.00479966,0.02694052,-0.01800321,-0.05485356,0.02310102,-0.00669202,0.03374358,-0.04121461,-0.06203229,0.00968428,-0.01364580,-0.01751103,-0.05076692,0.04671734,0.02198291,-0.05793331,0.02929926,-0.04624872,0.05516452,-0.04537991,0.00378086,-0.00079609,0.05643728,0.04113483,-0.03085385,-0.04447317,-0.05045912,0.01595162,0.03877907,-0.01219056,0.03241751,0.03152031,0.01022981,-0.00635865,0.01284593,-0.03474301,0.05519384,0.00481926,0.02102851,0.00405208,0.00326740,-0.00824289,-0.02045927,-0.00436492,-0.05464938,0.04107655,0.02965034,-0.00732221,-0.04559534,-0.06229165,0.01007647,0.05589152,-0.05315585,0.04023496,0.01631829,-0.06342760,-0.00788739,0.00432995,0.02918178,-0.05606903,-0.01103442,0.05403890,-0.03691253,0.01764249,-0.04938721,0.05607969,0.00732470,-0.01058888,0.04181306,0.02167245,-0.01690049,0.03096630,-0.00275704,-0.04060167,-0.01957446,-0.04940763,-0.05053561,0.00130729,-0.06295777,0.04681359,0.02826701,0.01746787,-0.05250949,-0.02337105,-0.05143361,-0.00722341,-0.04353763,0.03899115,-0.03376897,-0.02368946,0.04954280,0.00181503,-0.06655417,0.03742282,-0.03079714,-0.01458659,0.02386683,0.02477009,-0.03350389,0.02499834,-0.03046114,0.00466404,-0.03886489,-0.06082612,-0.00172153,-0.05096222,-0.03986690,-0.04863330,0.01120749,-0.05675281,-0.01196035,0.00935647,-0.05490890,0.03358114,-0.02167435,-0.04764108,0.02566431,-0.03041703,-0.05101025,-0.01861368,-0.01053801,0.01125961,-0.04680068,-0.03344862,0.01503807,
-0.03817839,-0.00654874,0.02717486,-0.03728158,0.06179646,-0.01962772,-0.05764838,0.02059233,-0.05604010,-0.00243920,-0.04316759,0.04815035,-0.05516647,0.05336383,0.04877474,-0.05063269,-0.04212711,0.00706178,-0.01396396,0.04390095,-0.04022284,-0.03843840,-0.00173853,-0.01648515,-0.05580024,-0.05742926,-0.04722007,0.03414951,0.04688562,0.04217449,-0.00991462,0.00230167,-0.05525697,-0.00798875,-0.04317018,-0.03457050,-0.05561937,-0.00084768,-0.01188889,-0.01362728,0.00246949,0.04951217,0.05361106,0.00424056,0.02503368,0.03701396,0.03244503,-0.01524704,0.01687106,0.03074799,-0.01379745,0.04189284,-0.02987075,0.04795091,0.04271260,-0.03295900,-0.01631363,-0.04470651,-0.05514027,-0.02402297,-0.04640776,-0.01093224,0.01719104,-0.01188448,-0.03166633,-0.02079610,-0.01721910,-0.00612196,0.00746262,-0.01882711,0.04865420,0.01312120,0.00891349,-0.05024238,-0.04802098,-0.03874092,-0.06573732,0.00885665,-0.06876610,-0.03168949,-0.02476378,0.02937322,-0.04546446,-0.03072759,-0.00872651,0.04276014,0.06009249,0.04578464,0.06323078,0.04630243,0.02376803,0.01087606,0.01209896,0.03630179,-0.00227002,0.01006250,-0.06129887,0.03308070,-0.04855894,-0.05572818,-0.02437421,-0.04660126,0.04932525,0.02695347,0.00998016,-0.02346021,-0.00775631,-0.00374580,0.01500458,0.00701563,-0.00678794,-0.06163384,-0.01719934,0.01278994,0.00391883,-0.00782441,-0.01194327,-0.04292305,0.00385975,0.01768401,-0.03019665,-0.03989184,-0.06011534,-0.02932161,0.02715810,-0.03152563,-0.00028583,0.01230108,0.01590368,0.00101424,0.02492051,0.03660571,-0.05167741,0.00095014,0.01255629,-0.02690711,0.05390505,0.04073047,-0.00250592,-0.02309713,-0.04525930,-0.03220418,0.03001756,-0.03260434,-0.06737678,0.01373710,-0.05128935,-0.05467709,-0.06930152,-0.02434847,0.00635776,0.02373193,-0.06152387,0.02947661,-0.00356462,0.01518261,-0.02849765,-0.02680545,-0.01119908,0.05348483,0.00660904,-0.06178707,-0.04037196,-0.01395752,0.04218454,-0.06007335,-0.06976486,-0.06742100,-0.02747837,-0.05249797,0.00040685,0.01327445,-0.06703725,-0.02224711,-0.00217906,-0.04248390,0.05321291,-0.00551737,-0.03346097,-0.01240128,-0.04662568,-0.02733950,-0.06043514,0.05802308,0.00941829,-0.07019554,-0.01482733,-0.05787192,-0.02513205,0.03260013,-0.05395574,-0.01801311,0.03761526,0.01759196,0.03615839,-0.03217023,-0.00910046,-0.05087830,0.05880029,0.01763867,0.04304689,-0.06643943,-0.01331460,0.04196102,-0.03939851,0.04913606,0.02425998,0.01226410,-0.05005661,0.01544115,-0.03718137,-0.05872875,-0.02878289,0.00513191,-0.00689653,0.01638962,-0.04450016,0.04780643,0.05833691,-0.03297899,-0.03478078,0.00344832,-0.04942875,-0.00011224,-0.02874166,-0.04022389,0.04981518,-0.02843475,-0.06759982,0.02354153,0.03472775,-0.05373193,0.00862338,-0.06684185,-0.03602026,-0.07034119,-0.01242616,0.02167711,0.01870792,-0.00892390,-0.04688922,0.06011350,0.05686836,0.03802134,-0.06073915,-0.01153072,0.00872416,-0.05139713,-0.00598890,0.00013497,-0.06765216,0.04211625,0.00070981,-0.04199951,-0.04643640,0.00101030,
0.04423387,-0.01594921,0.01136858,-0.24713419,-0.05650291,0.00109908,0.23221491,-0.19563223,-0.11747163,-0.30809173,-0.11519818,-0.16424562,0.16277397,-0.17248784,-0.10590534,0.25894621,0.08756935,-0.28155875,-0.05801887,-0.00979932,-0.16085324,-0.04541198,-0.02156837,-0.01805972,-0.15132481,-0.09202722,-0.26090652,0.08256688,-0.35695502,-0.59868383,0.05579969,-0.23307666,0.07038866,-0.17417933,0.56461215,-0.00734963,0.11708158,-0.08292132,-0.12291606,-0.16998732,-0.13235335,0.06933995,-0.24973987,-0.32404345,-0.15842065,0.06117628,-0.30372861,-0.09575064,-0.38662279,-0.08238840,0.04609473,-0.02070549,0.09228212,-0.05388116,0.26223463,-0.22782816,-0.06760781,-0.06180036,0.05602884,0.13234162,-0.09554924,-0.15036775,-0.05850299,0.02126261,-0.02208026,0.06609178,0.08152747,-0.25255921,-0.12980655,-0.01317678,-0.18022333,-0.09972139,0.03797995,0.28264806,0.16366009,-0.33307931,0.00107901,0.07882234,-0.31998819,0.03093397,-0.32343787,-0.02164955,-0.27657369,0.09530262,0.21290094,-0.01940883,0.03290593,0.00146406,0.04099708,-0.03135557,-0.24321800,-0.14911146,0.06509034,-0.01236872,-0.09846260,0.03155464,-0.08767703,-0.13423917,0.11079246,-0.18176976,-0.24031058,0.01459976,-0.00074068,-0.01488260,-0.00699256,-0.10414463,0.13583684,-0.34777668,0.00059179,-0.02956823,-0.33934739,-0.00736939,-0.02581599,0.27480346,-0.09062317,-0.07101764,0.02286330,0.09378637,-0.10820755,0.11674910,-0.11260724,-0.07039317,-0.03216103,-0.17716074,-0.06811265,0.30661422,-0.00601286,-0.01853997,-0.12126477,-0.08449479,0.05879152,0.06669736,0.03074502,-0.31379992,-0.14687280,-0.06557176,-0.07244883,-0.21148729,-0.01303042,0.01697688,0.14422967,-0.24069822,-0.03590737,-0.01825616,0.06971206,-0.14025216,-0.26733202,0.00239614,-0.12499101,-0.39306912,0.01798286,-0.05368476,-0.12609117,-0.16111228,-0.14920531,-0.11370549,0.03102142,-0.04187263,-0.08131856,-0.13075094,-0.08408819,-0.04042843,-0.05008671,-0.16326867,-0.18547636,-0.36009729,0.67062527,-0.36739534,0.04035613,-0.07774014,-0.17202196,0.07301340,-0.18199141,0.08678445,-0.04301065,-0.14541936,-0.12914306,0.00345741,0.03494824,0.05970905,-0.22174081,-0.13320798,-0.01853571,-0.14114359,-0.13183539,0.13821423,0.00264293,-0.12131987,-0.52752227,-0.00749818,-0.06310671,-0.17970140,-0.19769716,-0.04395764,-0.35754061,0.00960174,-0.31127706,-0.05151876,-0.00476187,0.29449451,-0.07863558,-0.03438198,0.03524412,-0.02550345,0.03489180,-0.13682848,0.02421388,-0.04027545,0.43059790,-0.27721849,0.43552178,-0.02408790,-0.07518617,-0.08222093,0.17451313,-0.31882238,0.01747579,-0.15920636,-0.09024436,-0.15537296,-0.44406673,-0.06827241,-0.25819424,-0.41002753,0.14526232,0.54268861,-0.18032715,-0.14176221,-0.15651241,-0.17632434,-0.26101053,-0.04100497,-0.04848078,0.04125850,-0.17462805,-0.40648600,0.02642693,-0.22534168,-0.42522159,-0.27660045,-0.07507149,-0.03774014,-0.09616315,0.06662560,-0.22641025,-0.02970469,-0.32752126,-0.17160988,-0.03887508,-0.28486130,-0.04123935,0.11067869,-0.01412865,-0.28233975,-0.56593382,-0.29589865,
-0.04001919,-0.02981320,0.05969089,-0.07385375,-0.06513191,-0.05245155,0.04766863,0.02279484,-0.07709353,-0.18174854,-0.02560496,-0.14398879,-0.09501570,-0.21394840,-0.06049920,-0.14850137,-0.01987526,-0.23385862,-0.07030815,0.00537824,-0.04763036,-0.04645432,-0.04694921,-0.01467965,-0.25905055,-0.05196099,-0.07918116,0.08331691,-0.25077122,-0.52117163,0.01378989,-0.18993697,0.24310149,-0.16477942,0.15363136,-0.02454360,0.10790703,-0.16687679,-0.05083498,-0.15393193,-0.10866793,0.13618885,-0.22603260,-0.37436500,-0.14594379,0.01449269,-0.02498223,-0.03248159,-0.26444647,-0.23810871,0.04049802,0.02125798,0.05343151,-0.14516610,0.07438039,-0.07109379,-0.01128096,-0.12161892,0.01325286,-0.07046394,0.08317739,-0.03716135,-0.17585687,-0.01829543,-0.01371367,0.06845935,-0.13171032,0.03924231,-0.33392110,0.04806424,-0.17416497,-0.03506527,-0.09974461,0.15351428,0.02434881,-0.16050650,0.03777322,-0.02406206,-0.23293498,0.00266077,-0.16277984,-0.02485261,-0.22039287,-0.01136854,0.14081790,0.00190896,-0.02436965,-0.00786513,0.07189615,-0.03803976,-0.14487292,-0.17292820,0.01602409,0.01213383,-0.11652212,-0.05844611,-0.12400468,-0.07637456,0.01639345,-0.23674202,-0.26171824,0.03249484,0.02422701,-0.05133230,0.00302312,-0.06185034,0.01890605,-0.18626145,0.02131977,-0.03154818,-0.36626181,-0.04036919,0.11223416,0.17613646,-0.01765433,-0.03400838,0.04944872,-0.07659356,0.03437637,0.10313496,-0.07989933,-0.06121317,0.02902820,-0.09941188,-0.17094019,0.13725762,-0.01089356,0.14248115,-0.05516030,-0.05183180,0.09720045,-0.04849283,-0.07765879,-0.18241300,-0.08964732,-0.03018869,0.05491936,-0.09714713,-0.08246340,-0.03704260,0.07475796,-0.23048985,0.07239616,-0.06382846,0.07951467,-0.02312301,-0.20072836,0.03562985,-0.04805751,-0.27761781,-0.13845260,0.08867354,-0.04757939,-0.01199045,-0.12335596,-0.13233246,-0.06546240,-0.18194279,-0.02607893,-0.29039618,-0.17822580,-0.18438771,-0.01122290,-0.24306442,-0.15982513,-0.16667211,0.28223762,-0.30785507,-0.10754907,0.06692142,-0.05244278,0.07487154,-0.06067511,0.03195542,0.06415313,-0.11710851,-0.12905380,0.09592620,0.01165917,-0.00226015,-0.20668092,0.08772746,-0.03321211,-0.14639056,-0.13811439,0.08368584,-0.12058358,-0.00592425,-0.14345397,0.00234097,-0.04726514,-0.28724879,-0.12099095,0.04003481,-0.18811126,-0.04681022,-0.25031582,0.04249722,-0.05431940,0.27006581,-0.04163047,-0.01824909,-0.12858793,-0.08245211,-0.02531640,-0.02015372,0.05258850,0.01991554,0.03770287,-0.16473174,0.18661083,0.01555168,-0.01948770,0.10211831,0.00478692,-0.05586062,0.11926089,-0.21937689,-0.11557477,-0.08298964,-0.35135660,-0.05745237,-0.05600842,0.01124911,0.02424402,0.05977052,-0.20261361,-0.04762060,-0.13288596,-0.11539879,-0.17117643,-0.14664851,0.03520301,0.00698169,-0.04679617,-0.29907703,-0.01900415,0.02695479,-0.26103723,-0.23444094,-0.10626281,-0.10925437,0.00750282,-0.03130185,-0.12374306,-0.09384599,-0.25920215,-0.30889300,-0.04022280,0.03106954,0.02299099,0.04913160,-0.08245674,-0.25396842,-0.22439115,-0.24945068,
-0.08797098,0.01712135,-0.35058209,-0.72394717,0.00848204,0.09282181,0.18142261,-0.27075434,0.08559599,-0.21805297,-0.10444577,-0.06508385,-0.21089377,-0.27739415,0.02767897,0.25235608,0.13652997,-0.34067935,-0.29733494,-0.03548126,-0.25615472,0.03608475,-0.09318660,0.05919843,-0.03036605,0.11372095,-0.38877696,0.13067491,-0.18316819,-0.38832322,0.25123349,-0.13315086,-0.11421645,-0.43084469,0.11838729,0.14682367,0.11442008,-0.28962889,-0.24977055,-0.03506536,-0.34176740,0.17982061,-0.40591925,-0.21581286,0.15475522,0.13614416,-0.23791167,0.09569859,-0.23236312,-0.37793231,0.25927028,0.21894632,-0.05820869,-0.10734846,0.08035374,0.07879595,-0.02546118,0.00266689,0.03112782,0.18993832,-0.08121730,-0.11922208,0.06508461,0.03354661,-0.02331416,0.17039043,-0.09039659,-0.19394656,-0.07320353,-0.10465237,-0.23883091,0.05715225,0.11923383,0.25853989,0.24889557,-0.33251742,-0.24148430,-0.03291000,-0.83642077,0.05182272,-0.48886907,0.17236204,-0.49546602,0.06236166,0.50811881,0.11844862,-0.17582430,0.12163367,0.07242164,0.11156167,-0.53331155,-0.16296071,-0.12724932,0.06540223,-0.30242369,-0.02911132,0.04845901,-0.48713204,-0.07514457,-0.24282545,-0.08995476,0.13579872,0.16541362,-0.11412466,-0.02582284,0.09584137,0.12341905,-0.03909861,0.22818375,0.34937692,-0.72339320,0.01208289,0.01059869,-0.20387720,-0.23504885,-0.06273169,0.13336875,0.12901291,-0.19661197,0.09413207,0.06972751,-0.25124449,0.02708601,-0.12249119,-0.33698234,0.29021049,0.08202890,-0.02112258,-0.11565976,-0.06011425,0.12481625,0.18729433,0.07572696,-0.26675025,-0.17479782,-0.32539889,-0.01532938,-0.46416444,0.23413105,0.12707192,0.00355960,-0.80017161,0.04813481,0.09841231,0.11856179,0.08753888,-0.35371330,0.15907763,-0.31804165,-0.73202777,-0.75902969,-0.03096583,-0.00713215,-0.01310567,-0.08861368,0.01602518,-0.02314399,-0.14878455,0.04457914,-0.27401510,-0.11802790,-0.20034735,-0.01986336,-0.37709874,-0.49629197,-0.48675841,0.31932056,-0.21603334,-0.07677397,-0.00809550,-0.11095064,0.15738967,-0.08163312,0.02790730,-0.01213204,-0.20356543,-0.04932324,0.03917599,-0.03251972,0.13450664,-0.20379147,-0.10231122,0.02684352,-0.11549062,0.22795132,0.25610518,0.07916753,0.06724504,-0.68538779,0.08593856,0.07783023,-0.47862184,-0.29174167,0.02641730,-0.31083572,0.03722244,-0.22431897,0.01989276,-0.28805971,0.10811433,-0.05829202,-0.05201274,0.03807207,-0.12169227,-0.01479059,0.11345607,-0.26483557,-0.21216173,0.15609019,-0.14165987,0.31991878,0.00192596,0.20615581,0.25142843,0.34948063,-0.71952838,0.01330283,-0.22849722,-0.29917806,-0.07689649,-0.21424475,-0.39113528,-0.18264434,-0.66341913,0.10977726,0.11927253,0.01168891,-0.09306268,0.06342545,-0.34963331,-0.26778570,-0.00309676,0.22105095,0.01905352,-0.16390011,-0.28599802,0.00919988,-0.37792844,-0.18739399,-0.35166359,-0.09667592,-0.14965248,-0.02601910,0.09868557,-0.25555933,-0.00141081,-0.40711465,0.10039955,0.20460011,-0.01518283,0.08270383,0.31886375,0.00037953,-0.32115284,-0.30519217,-0.40203896,
0.06693549,0.03533644,0.08284417,0.07239335,-0.41447148,0.02273806,-0.12329922,0.01269220,-0.05296623,0.22978806,0.22009061,0.23486109,-0.11370662,0.05711599,0.31576839,-0.08477092,-0.11904433,0.09951536,0.15394357,0.16165820,-0.00432626,0.03179834,-0.04209092,-0.04078937,-0.01009891,-0.13808988,0.09779872,-0.03732322,0.16466372,0.04368405,-0.07101166,0.14374621,0.16821320,0.16475543,-0.19900873,-0.01701165,-0.24330395,0.11126621,0.08896037,0.26402199,0.18360105,-0.07680351,0.27076650,0.12012718,0.13080177,-0.06260757,0.09611156,-0.09545077,0.10747125,0.30834669,-0.08956088,-0.05485573,0.23138963,0.08605814,-0.00636152,0.44676328,0.04505556,0.20039979,-0.00867101,0.10718500,-0.02510335,-0.21264611,-0.03903781,-0.11188005,-0.01665297,-0.03565723,0.14511469,0.00936042,0.09718849,0.14723837,0.13036679,-0.08198434,-0.10478896,0.04673434,-0.12792112,-0.00595758,0.11661576,0.16080603,0.16677576,-0.02430858,0.20388792,-0.01566823,0.27556756,-0.08829059,-0.30243888,0.04698506,-0.02692468,-0.04609804,-0.04062805,0.34131968,0.16372089,0.19543721,-0.26119465,0.01681760,0.14506869,0.10489342,-0.05518057,0.12632447,-0.15418166,0.17898715,0.18854055,-0.04639910,0.05017637,0.15111350,0.15443526,-0.04903259,0.03462625,-0.02168462,0.13216913,-0.10079835,0.13310075,0.16221920,0.15778662,-0.06608634,-0.01925465,0.01765248,-0.10886689,-0.14045683,-0.22357614,0.01609512,0.14111121,0.04566859,0.04326088,0.05370634,-0.07586356,0.06556850,-0.09022699,-0.04071050,0.14987616,0.03469963,-0.06234824,-0.18865617,-0.36928374,0.34738967,0.15185313,-0.13848621,-0.08009935,0.22172731,-0.00599300,0.02712264,-0.11055923,0.18614507,-0.01524229,0.15435049,-0.03948348,0.06602880,0.10187386,-0.10099174,-0.02078357,0.07255228,-0.06055905,0.15370151,-0.01715631,-0.04177728,0.14464413,-0.04146413,0.06005339,0.11978701,0.02083923,-0.04413975,0.11120377,0.09274496,0.01902573,-0.15154015,0.17876743,0.16008557,-0.17548026,0.20142482,-0.02375131,-0.01187635,0.09609163,0.03200683,0.01075774,0.03783869,0.00985245,-0.04988646,0.06299756,-0.20383795,0.00890186,0.12033752,0.15833457,0.30448979,0.06339237,0.03843973,0.02807858,0.09479366,0.29052532,-0.08261241,0.19110195,0.12877350,0.14308438,0.12787791,0.12952396,0.04622735,0.29514757,0.11037029,0.15633287,-0.05108243,-0.02412458,-0.18719313,0.12802827,0.05427294,0.01233256,0.09404976,0.14347763,0.01974495,0.09794057,-0.05182804,-0.14313166,0.00218074,-0.10957984,0.19970377,-0.06988645,0.01661920,-0.06312868,0.17823710,0.04943212,-0.13193299,-0.03640066,0.08412088,0.20404020,-0.04677257,0.02707747,-0.08657194,-0.11432051,-0.01413179,0.06772682,0.09218206,0.09451195,0.04877048,0.25975299,0.06468528,-0.11720826,-0.02360398,0.08969506,0.33834559,0.14860241,-0.11248161,0.40890983,0.17165092,0.23053378,0.13002111,0.08017197,-0.04490716,0.17752764,-0.05810015,0.23061706,0.16073729,0.01493435,0.12746537,0.01494085,-0.16223699,0.13598159,0.18020287,-0.02855006,0.12004722,
-0.10727689,-0.05922838,0.00959945,-0.06870405,-0.00229946,0.06016517,0.11732897,-0.04516880,-0.01028187,-0.25332123,-0.14451222,-0.17950989,-0.20023046,-0.32735014,-0.11244577,0.30017281,-0.08485639,-0.38691577,-0.38196659,0.01912362,-0.09380520,0.01274065,-0.11244192,-0.01832778,-0.09526593,0.03013513,-0.28491083,0.09973178,-0.30877998,-0.39631233,-0.07192244,-0.17277773,-0.12263037,-0.25219795,0.18982400,0.02626529,0.07809269,-0.25663319,-0.23089589,-0.04128742,-0.14653154,-0.00207489,-0.34603339,-0.26291519,0.11774722,-0.10694600,-0.22125335,0.02230032,-0.37230223,-0.11581320,0.05032305,0.06286628,-0.21536270,-0.00764166,0.07769457,-0.28768596,0.00446396,0.01302823,0.14876869,-0.06464362,-0.02805397,-0.16377129,-0.02295399,0.04317443,-0.11079992,-0.02464840,0.02713804,-0.16922797,-0.00558050,-0.26254368,-0.10642106,0.01695394,0.03041505,0.19729677,0.06911821,-0.19208384,0.04998888,0.01967603,-0.36300120,0.01543430,-0.27563876,-0.00403028,-0.30544463,0.05500591,0.14268342,0.04774736,-0.17167927,-0.11495599,-0.08159234,-0.07977995,-0.27524129,-0.16920578,-0.13384813,0.01910410,-0.22836983,-0.17385834,-0.06962793,-0.24401529,0.18348907,-0.18530706,-0.33361930,0.05952705,0.02542872,-0.11499053,-0.02690993,-0.00162281,0.16489136,-0.01083152,-0.03779671,0.05189100,-0.29471472,0.15596218,0.04801100,0.13774110,-0.25764695,-0.11947091,0.01565504,0.10038215,-0.24896106,0.09990335,-0.05718806,-0.12604289,-0.13283759,-0.28401351,-0.21133053,0.22556098,0.03519923,-0.19877535,-0.20315595,-0.09628201,0.03025012,0.02004434,0.19227065,-0.27206314,-0.11409993,-0.09837630,-0.02601861,-0.21156816,-0.20588686,0.06334604,0.01235514,-0.45335913,0.14787914,0.06410775,0.10784252,0.03290628,-0.33235675,-0.03207112,-0.18202636,-0.40666509,-0.02818900,-0.07511318,-0.06647012,0.06731597,-0.09433541,0.02920754,-0.06005663,-0.08869535,0.02018175,-0.12141678,-0.30308020,-0.20197186,-0.13942209,-0.28704467,-0.21600978,-0.38251522,0.14606550,-0.38405010,0.09358633,0.02416209,0.03704876,0.13461049,-0.25324339,0.00024835,-0.00572014,-0.20244668,-0.16696736,0.06845041,-0.16756454,0.30056825,-0.24841216,0.05229072,0.07298353,-0.24007808,0.06925406,0.06607433,0.02661292,0.00869786,-0.35555953,0.00679382,-0.03742722,-0.21712600,-0.06479296,0.02724670,-0.31132653,0.13285017,-0.35676977,-0.02542156,-0.16120870,0.10112985,-0.00787288,-0.15627746,0.12488520,-0.07530200,-0.04870585,-0.04340937,-0.01950175,-0.29246411,0.18951045,-0.26114765,0.15139280,-0.03236287,0.09199923,0.03743841,0.22031799,-0.50655365,0.03970066,-0.34029371,-0.32037184,-0.09265971,-0.22250243,-0.09569384,-0.37848052,-0.22083113,-0.00652902,0.07415331,-0.19854325,-0.20059848,-0.09646206,-0.34513897,-0.31266624,0.04342961,0.02360226,-0.00599504,-0.17609392,-0.31723061,-0.10033006,-0.24310395,-0.25713763,-0.32335094,-0.24642871,-0.15950839,-0.11757120,0.08361197,-0.25360724,0.03841410,-0.25537357,-0.11055199,0.09437194,0.26880139,0.01782493,0.01019033,-0.04434999,-0.22997111,-0.37638173,-0.30105290,
0.08667615,0.15229824,-0.40953928,-0.12749717,-0.18080156,0.20223215,-0.16142070,-0.69985735,0.23550591,-0.08936536,0.15081137,-0.09781292,-0.17222819,-0.08271937,0.01506453,-0.06744743,0.10310812,-0.12272489,-0.22363807,-0.17506757,-0.32989302,0.07560957,-0.25988129,0.25907931,-1.17064404,-0.46708801,0.10524604,0.04055109,-0.36903271,-1.20841134,-0.08157741,0.12149636,0.02633951,-0.18171044,0.04641978,0.10411026,0.18015409,-0.52966243,-0.00936582,-0.88108718,-0.06900519,0.08559798,-0.06106924,0.02103305,-0.24957834,0.18638583,-0.24102454,0.06066496,0.03022069,0.01774823,0.28271213,-0.12784430,-0.15088964,-0.35516751,-0.01737714,-0.15601836,0.07805261,-0.04556793,-0.04201350,-0.06372137,-0.29988211,-0.17030653,0.24105281,0.11331414,0.00024434,0.16314183,-0.28308672,-0.06796961,-0.45012662,0.11804236,-0.26918355,0.17577024,0.14516570,-0.03179191,0.22260077,-0.41149777,-0.16568364,-0.09515955,-0.19619142,0.07949901,-0.27779302,-0.02110254,-0.05737465,-0.03534992,0.16281652,0.06721285,-0.00549583,0.20338303,0.07412218,-0.01233191,-0.05600080,0.02891624,-0.18051273,0.07861179,-0.01518119,0.17059071,0.17813075,-0.14815037,0.04949561,-0.02624329,-0.00245522,0.05432243,0.05122928,-0.07898575,0.05034745,-0.11864409,-0.12075438,-0.75095850,0.03880610,-0.26038730,0.02614483,-0.14117786,0.16396649,-0.07415589,-0.07002777,0.09458110,0.14028196,0.05088142,-0.35630307,0.19068718,0.02471137,0.02349227,-0.23925716,-0.26911548,-0.04142440,0.21077681,-0.02342099,-0.11829200,0.06725378,0.13566308,-0.05090151,0.27090210,-0.11349260,-0.31945461,0.01192642,0.00930952,0.14091000,0.15996744,-0.09803365,0.12416241,0.25363109,-0.32869676,0.01042259,-0.12350929,0.07369254,-0.17712735,-0.23784076,0.05946577,-0.32648918,-0.35255215,-0.11081237,0.15852214,0.00635438,-0.06496362,0.02679252,0.12559751,0.14849359,-0.33832431,0.16280024,-0.71695328,-0.31491357,-0.07932790,-0.34416485,-0.55570370,0.05851148,-0.03448704,0.09797642,-0.03972708,-0.31779048,0.00372318,-0.20094496,0.12237123,-0.02681735,0.17922166,0.16565868,-0.08775920,0.07254039,0.16452280,-0.13714619,-0.14555304,-0.04831376,-0.02507815,0.19673972,0.00522499,0.12740059,-0.00681057,-0.09323050,0.18683544,-0.42313686,0.07509787,0.10928301,-0.19720787,-0.10072397,-0.01086841,0.01085099,0.16014664,-0.06916435,0.14528604,-0.16573916,-0.18719302,0.13214791,-0.13463898,0.08959946,0.01878986,-0.27531865,0.27795306,0.05031004,-0.05209018,-0.19431296,0.01536501,-0.18498492,-0.05953873,0.12340958,-0.04853591,-0.20821616,-0.29885715,0.23839964,-0.32773510,-0.09403184,-0.11274911,-0.39429480,0.18032300,-0.10321032,0.26665074,0.17787868,-0.04540208,0.08132390,-0.21148710,-0.00377285,-0.21968925,0.02489945,-0.00459267,0.06753916,0.20034479,0.18244140,-0.32744187,0.14040896,-0.07373869,-0.71349603,-0.02807138,0.09372874,-0.18344182,0.02086391,0.17183366,-0.04663257,0.16538534,-0.05453224,0.05780716,-0.21178381,-0.19072601,0.04520750,0.26368630,-0.07197750,0.09274191,-0.58084083,0.05002868,
-0.04134049,-0.03958143,0.02135515,-0.05806454,-0.03743677,-0.02391619,-0.02227361,-0.00264299,0.02237211,-0.08438191,-0.05892751,0.01605562,0.05956239,-0.04753988,0.04357215,-0.02887035,-0.03163632,0.03775137,-0.01906155,0.04667083,-0.01533451,-0.03756268,-0.00684049,-0.08206640,0.04011353,0.01583548,0.00627029,-0.00768108,0.00246358,0.01093060,-0.00613675,-0.01045567,-0.03433381,-0.06138868,0.03197224,-0.04793233,-0.02659052,0.02423421,-0.06075210,0.07656136,0.02470502,-0.01546689,-0.04412922,0.00376954,-0.04854544,0.00389724,0.01995359,-0.04099502,-0.03521310,-0.04652575,-0.05978033,0.03914613,-0.07956017,-0.08114496,-0.06897687,-0.02894957,0.00505630,0.02766160,-0.06080073,-0.02028999,-0.00288641,-0.03223029,-0.08991865,0.01160187,-0.06636853,-0.03478936,0.03059689,-0.06148971,0.03316003,-0.02310887,-0.00135777,-0.06378134,-0.04984647,0.00339801,-0.01374129,0.03024485,-0.06290612,-0.03802218,0.02482162,-0.01528703,0.02937106,-0.02884963,-0.06633174,0.04032915,0.01400339,-0.03296011,-0.06447385,-0.06790867,-0.02145225,0.04944899,-0.08238015,0.00811479,0.04937498,-0.05660030,-0.10055114,0.00862312,-0.05549950,-0.04586679,-0.06606430,-0.05315609,-0.07622921,-0.03552104,-0.02334023,-0.01355224,-0.00040621,0.00499946,0.05327842,-0.06296499,0.02098992,0.03643724,0.03608958,-0.06190579,0.01029606,-0.03365951,-0.06768422,0.00133858,0.01126310,0.01819523,-0.08862959,0.03533268,-0.03456346,-0.04450550,0.03789942,-0.02715334,-0.02293220,-0.05238518,-0.00110505,0.01520657,-0.05271060,-0.01604145,-0.02629622,-0.00035300,0.05532794,-0.02443698,-0.08464996,-0.05025780,0.05200496,-0.02004162,-0.01315901,-0.00349853,0.04204931,-0.05475235,0.05777372,0.00564661,-0.04301515,-0.00554957,-0.05599112,-0.07404077,-0.08659461,-0.01611829,0.01699264,-0.00235636,-0.06564868,-0.01838248,0.03488325,-0.06826884,-0.00911271,-0.03733812,-0.00530563,-0.01520722,0.03946356,-0.05225512,-0.01271660,-0.06895751,-0.05717197,-0.05860195,-0.07922183,0.04609152,-0.01534089,-0.06065806,-0.03472495,0.03071935,-0.02507093,0.00799435,0.00928159,-0.00399735,-0.04429290,0.01966605,0.00752700,-0.00868434,-0.02644389,-0.06498639,0.02005401,-0.00942313,-0.02313551,-0.03024987,0.03471212,0.01991215,0.01255781,-0.04099304,0.04044131,-0.01986376,-0.07259751,0.01308994,-0.07019941,-0.07185946,0.01091594,-0.03891423,0.06053200,-0.02091570,0.00552631,-0.08159140,-0.01866819,-0.01634144,0.01431687,-0.01691006,-0.05433704,-0.03510612,0.03302965,-0.02415450,-0.02390069,-0.03243428,-0.04997649,-0.04679968,-0.02677530,0.02672788,0.04126559,0.01304063,0.05141677,0.02309128,0.04921881,-0.04314726,-0.01720784,-0.04342485,-0.05949378,-0.01987402,-0.07507671,-0.01635889,0.01569611,-0.00687726,-0.08073456,0.04306582,-0.06907402,-0.05358598,-0.08562820,-0.00679648,0.00576275,-0.04317033,-0.08645339,-0.08889885,-0.07863174,0.00995640,-0.05556893,0.00784599,-0.01106874,0.00855040,-0.04852373,0.01764658,0.03235602,-0.00823774,-0.06745323,0.03518881,0.04716833,-0.06874255,-0.01265008,-0.03582150,
0.01760487,0.03416832,-0.01631664,-0.22829689,0.01815961,0.04695667,0.12731178,0.00608277,0.09239122,-0.22572738,-0.14774668,-0.12184113,0.15809076,-0.20409270,0.05479918,0.04496067,0.11357147,-0.24493812,-0.15430373,0.08526555,-0.14668970,0.08320273,-0.17104217,0.13277037,-0.39868870,-0.27539012,-0.40360102,0.14634763,-0.20640312,-0.61873907,0.11398240,-0.15648979,-0.11094573,-0.31894901,-0.06209861,0.13136765,0.15669401,-0.22933838,-0.10625046,-0.17304823,-0.35238618,0.25346389,-0.38386723,-0.32621458,-0.05244628,0.13183704,-0.28619590,0.02370377,-0.26132050,-0.31038475,0.25179213,0.02842591,-0.34921122,-0.20873807,0.19310397,-0.16393521,0.17869566,0.05344860,0.10541905,0.03457022,-0.09094175,0.00502903,0.13617776,0.16458346,-0.02697078,0.12327245,-0.20936617,-0.09857228,-0.14542378,-0.11463934,-0.43386337,0.11620368,0.18910870,0.04297688,0.27956066,-0.16507484,-0.01388895,-0.10061625,-0.50553942,0.07789367,-0.36249074,0.12534291,-0.45952252,0.08322211,0.50434226,0.02313808,-0.18293561,0.09896976,0.12873606,0.00705985,-0.16485168,-0.03706097,-0.14070998,0.20611826,-0.25374860,-0.09420648,0.02623952,-0.29074866,-0.06558987,-0.13112944,-0.13010396,0.28534576,0.04787344,-0.02785274,-0.05922468,0.11814340,0.10235313,-0.08191188,0.26220021,-0.13216512,-0.38700971,-0.13826191,-0.11515634,-0.10498701,0.07047804,-0.01470097,0.19755496,0.05541714,-0.14348225,0.12599550,0.16242887,-0.14998576,-0.02466185,0.06513084,-0.25682613,0.05410995,-0.10753001,-0.09755490,-0.11979734,-0.03679138,0.07959358,0.14272328,0.14698486,-0.32143205,-0.18768021,-0.09463999,0.06819311,-0.38787240,0.09251847,0.03534567,0.10404914,-0.48610586,0.17752622,0.12363087,0.06596044,0.05161521,-0.50150889,0.21562088,-0.41846120,-0.56487572,-0.19275594,-0.01327368,0.04547539,0.31298107,-0.05607195,0.12126039,-0.04290528,0.01864401,0.14037804,0.02116956,0.04619955,-0.04684761,-0.12518193,-0.19703487,-0.36407661,-0.44279629,-0.05362387,-0.29675701,-0.08309305,-0.05396070,-0.00812095,0.10773419,-0.16055006,0.07939641,0.07916576,-0.24532087,-0.09871227,0.13528012,-0.02726308,-0.12133338,-0.25795627,-0.10750999,0.14023288,-0.08434061,0.12986748,0.21156865,0.17935620,0.14708731,-0.51713884,0.00497349,-0.08745880,-0.34398225,0.00697738,0.05992927,-0.42086574,0.09703611,-0.20081487,0.05243110,-0.06677428,0.11967638,0.01314849,-0.00543204,-0.05159902,-0.08310887,-0.17920384,0.05012235,-0.20587647,-0.03523641,-0.00987966,-0.45899746,-0.11835311,-0.12186385,0.12658985,0.06994565,0.08648290,-0.56469119,0.14152893,-0.21905109,-0.21083213,-0.15378845,-0.11709782,-0.13067672,-0.06346046,-0.03752264,0.29296952,-0.25675353,0.06763104,-0.08435870,0.04431073,-0.14123783,-0.33576348,0.22371441,0.21482220,0.06398758,-0.13450216,-0.26111308,0.08856520,-0.14515764,-0.28845096,-0.34323210,-0.14248410,-0.26222780,0.19767672,0.26683670,-0.26747400,0.09187556,-0.45803353,-0.11664806,0.13114126,-0.18049459,0.11291494,0.28726846,-0.09123395,-0.19522227,-0.30733088,-0.39820120,
0.00081693,-0.02956167,-0.06722707,-0.06942768,-0.06296454,0.02051755,-0.02651753,0.01361010,0.09095142,-0.15770786,-0.10771751,-0.02626718,-0.11571072,-0.22933906,0.06778961,-0.02826666,0.03046775,-0.20209049,-0.17199722,0.04402100,-0.10706308,0.03398693,0.02004249,-0.04214773,-0.07776109,0.03693349,-0.02256878,0.06295759,-0.08559452,-0.39953893,0.00991444,-0.05248801,-0.01580191,0.00908593,0.03813105,0.02801389,0.00451767,-0.21559805,-0.09753758,-0.08418331,-0.09100582,0.05132222,-0.26712742,-0.07632758,0.03008086,0.01487352,-0.03370182,0.05518284,-0.10606278,-0.09764397,0.07085469,-0.06193585,0.04560625,0.02844741,0.08428456,-0.19760557,-0.05880088,-0.07436989,-0.00630601,-0.03457586,-0.06968338,-0.07355364,0.01648700,0.01132309,-0.06073963,-0.02045915,-0.03685927,-0.03829249,-0.24135344,-0.07500359,-0.14722385,0.07523683,-0.01588047,0.08426204,-0.00126368,-0.13540865,0.02413119,-0.10464442,-0.16641010,0.01381860,-0.09479771,0.01364568,-0.18417692,-0.01689885,0.07118699,0.05401749,-0.05475290,-0.02922114,0.09065660,-0.06209806,-0.11255336,-0.08641361,-0.08065307,0.04373968,-0.09142976,-0.05962994,0.04956362,-0.07010399,-0.05252375,-0.16389343,-0.02278447,0.04495337,0.01533251,-0.07283182,0.01821800,0.02011877,0.01604029,-0.04241678,-0.04578203,-0.03804715,-0.17096873,0.08216087,-0.05628616,-0.00677146,-0.09266640,-0.03116550,0.05786316,0.05367692,-0.00651387,0.01299065,-0.04562258,-0.03738428,0.01137841,0.07367343,-0.06381299,0.09050936,-0.04848263,-0.10022674,-0.13314995,0.00404468,0.05912082,0.05372621,-0.07804816,-0.25316408,-0.05014829,0.02084979,-0.00979211,-0.16225658,-0.04243114,-0.06117037,0.05832845,-0.15054122,0.02461716,0.06302145,0.03668832,-0.02662816,-0.23871678,0.06677900,-0.05947483,-0.07382368,-0.13660343,-0.04705281,-0.03518750,-0.00338905,-0.07305250,-0.03351869,0.06505744,-0.19073664,-0.01532379,-0.13433287,-0.13197379,-0.14848691,0.01525159,-0.14921226,-0.06326915,-0.18406561,0.18167162,-0.19667044,0.02474251,-0.01033535,0.03150229,0.01394752,-0.09168062,0.06406197,-0.06824113,-0.15294319,-0.05668629,0.01138615,-0.02071875,0.11285216,-0.12639673,-0.05484659,0.06797174,-0.06417073,-0.05596837,0.02383129,-0.02976257,-0.03374922,-0.04151421,-0.01078323,0.03512036,-0.17461815,-0.16623746,-0.00466844,-0.10348206,0.02282898,-0.11995866,-0.01500254,-0.04680208,0.16256024,-0.04900210,-0.02822481,-0.01470536,-0.00580551,-0.00983964,0.15583047,-0.03275608,0.07215617,0.06957716,-0.22566636,0.00133433,0.06754246,0.07992719,-0.00692879,0.00603202,-0.03104173,0.04703714,-0.17277603,-0.20454556,-0.13608859,-0.18555939,-0.05157682,-0.14508331,-0.10326947,-0.02541145,0.01730676,-0.12938178,-0.03493761,-0.04079272,-0.20931447,-0.13442780,0.03519370,-0.00440559,0.02220249,-0.07081759,-0.21973960,0.00016294,-0.12210338,-0.21604055,-0.09657140,-0.08019527,-0.06385870,-0.00252235,-0.01823727,-0.07200192,0.00713367,-0.22315969,-0.18120536,0.05502585,-0.02568605,0.02866514,0.07408867,-0.03445154,-0.10219879,-0.10738360,-0.06077345,
-0.02031042,0.01828996,-0.03927164,0.02238965,0.03094170,-0.01821378,-0.02912170,0.01967323,-0.01884239,0.04075234,0.04228580,-0.05914711,0.02567604,-0.05949459,-0.01078750,0.02020188,0.04222299,-0.03909642,-0.03922892,-0.01503298,0.00287588,-0.03332763,0.01669091,0.02768578,0.04604757,0.02944431,0.00138305,-0.04458500,0.02707458,-0.05723226,-0.02505432,-0.02279741,-0.04930858,0.04504535,-0.03535393,0.03786889,-0.06031594,-0.03338436,0.03454384,-0.04976279,-0.04916926,0.00300646,-0.00489452,-0.03857320,-0.05276021,0.00546542,0.06175983,-0.00952770,0.01494245,0.02337657,-0.00884251,0.04999436,0.02111642,0.01927372,-0.06654771,0.05772021,0.00013914,-0.01064413,-0.06708001,-0.03549679,0.04080049,-0.04447992,-0.01064806,-0.02084473,0.03608885,0.01488180,0.03731807,0.02091046,0.02431577,0.01479807,0.03947278,-0.01108944,-0.02087835,-0.02194772,0.02050929,-0.00892671,-0.03122976,-0.00599150,0.00343327,-0.03608726,-0.05549003,0.05543505,-0.01887622,0.00945574,-0.05283717,-0.00016200,-0.03407749,-0.01951629,0.00431124,0.01149671,0.01083439,-0.05645396,0.03805821,-0.03080855,0.04356652,-0.04799609,0.04791076,-0.06287524,0.01810729,-0.00655277,0.00137493,0.00056286,-0.03357176,0.04115218,-0.06293727,0.01930484,0.04690624,-0.05479142,0.02154756,-0.06123991,-0.05477306,-0.03157892,0.04684893,-0.03718363,-0.06270193,-0.04502754,-0.03426465,-0.03334038,0.01434024,-0.06400736,-0.00503475,-0.03505905,-0.01326568,0.02330093,0.04374759,-0.01307170,-0.01975041,0.03442444,0.01935980,0.05649427,-0.02284733,0.01281827,0.03591251,-0.05527682,-0.02653006,0.01792768,-0.04608358,-0.05805276,0.02307156,0.02124120,0.05490981,0.01324630,-0.03797840,0.05562435,0.05088758,-0.06296261,-0.04160646,-0.05870000,-0.02051644,0.01711435,-0.06227843,0.04920886,0.02026372,0.01735702,0.01713789,-0.05134609,-0.00769664,-0.02005935,-0.03171675,-0.02135658,-0.05209756,-0.04449984,-0.01522106,-0.00814815,0.03765389,0.04051403,0.01247221,0.00115017,0.00727636,-0.02983117,-0.01624475,0.01721335,0.04261280,0.04877439,-0.06354523,-0.00939405,-0.04083199,0.02574340,0.05786229,0.05361704,0.01697934,-0.03045569,-0.04500856,-0.06448676,-0.02854912,-0.04106501,0.01858465,0.04533183,-0.02826196,-0.03495176,0.03182608,-0.01004823,-0.03177193,0.05831706,0.03092680,-0.02613693,-0.05609098,0.03154915,0.05342385,0.02986941,0.05507380,-0.04296578,-0.06014788,-0.03814120,-0.01338904,0.05573883,-0.02694987,0.01634335,-0.01786456,-0.01605200,-0.04986675,0.01291630,0.00459306,0.01589991,-0.05209386,0.01083366,-0.01819698,0.01882878,-0.03710569,-0.02700583,-0.03916375,-0.05917036,0.01252298,-0.01041399,-0.04876605,-0.06445593,0.04561098,-0.00206197,-0.05318168,-0.01272888,-0.04995507,-0.00559822,-0.03064886,0.03375736,0.04463519,-0.05537414,-0.04830560,0.00967968,0.03991047,-0.05294891,-0.04829310,-0.03937552,-0.05785578,0.04158596,-0.06461938,0.03075472,0.04949412,-0.00290185,0.04535812,-0.00413541,0.04643645,-0.06699600,-0.04683975,0.03133475,0.03011068,0.01856506,
-0.00556075,0.30253404,-0.47964087,0.25914103,-0.01936664,0.08375193,-0.11084264,-0.17593235,0.15073873,0.12177704,0.11596128,0.14895023,0.09316890,-0.53528976,-0.01343737,-0.23113757,0.11649861,-0.17310677,-0.35220370,-0.30173427,-0.00347488,0.15277959,-0.04259137,0.15042499,-0.59754032,-0.01963312,0.06802228,0.21982656,-0.34239894,-1.06871831,0.22064151,0.12250382,-0.21734250,0.46220523,0.37136081,0.07999583,-0.00598825,-0.01129504,0.09018537,-0.49192697,0.10846584,-0.01134313,0.06547803,-0.11589395,-0.17348894,0.03494915,0.09094062,0.10883754,0.08880106,-0.31636438,0.27115589,-0.09389284,-0.34210837,-0.12517497,-0.06270145,-0.04768981,0.05205712,-0.05099474,0.00431387,-0.07652958,0.08491819,-0.07568403,0.10655219,0.13577348,-0.19829544,0.13120666,-0.42846534,0.12286637,-0.73342913,-0.49191558,0.14993145,0.20468190,0.08760197,0.12372807,0.22093275,0.03067551,-0.16740081,0.21697861,0.13660747,0.11933348,-0.06289643,-0.26464647,0.00678441,-0.06439111,-0.32209218,0.01618691,0.06728057,0.08510632,-0.19493964,0.00307588,0.13387381,0.12146713,0.08245378,-0.04106529,0.02364144,0.06333528,0.18432805,0.05184365,0.21697226,-0.11415087,-0.04496584,0.21210805,0.17762415,-0.16947247,0.25640580,0.16168660,0.01232820,-0.48988262,-0.18549630,-0.00368585,0.03084386,-0.02973461,-0.11477101,-0.02773618,-0.04617517,0.09615816,-0.04161780,0.15069382,-0.14314602,0.26487842,-0.16968465,0.22950658,-0.06722067,-0.06683251,0.19201775,-0.16815920,0.17334780,-0.17176297,0.19115452,0.18290538,-0.12258933,0.17091864,0.10792623,-0.46868822,0.15730868,-0.22137336,-0.08617522,0.20924340,-0.15664867,0.01343363,-0.07376051,0.09911069,-0.16502769,-0.28688386,-0.21001314,0.05604240,-0.00086899,0.27175584,0.06625307,0.24320537,0.07667311,-0.17265850,-0.39922810,0.02940761,0.07815385,-0.06998287,-0.06340008,-0.33329394,0.11791757,0.00720697,-0.24606137,0.04660639,0.08240706,0.28033835,0.16199782,0.08055314,0.36090684,-0.07147648,-0.11745341,0.15721644,0.26486042,0.14352347,-0.04455592,0.27180451,0.19887672,0.06922150,0.09403879,0.32557672,-0.13243297,0.06308275,0.12983972,-0.01799323,0.08639374,-0.08037504,-0.15077770,0.00363549,-0.43107450,0.12156080,0.39710256,-0.01681940,-0.02250290,0.03390614,-0.07988264,0.14636990,0.04057126,-0.12077395,0.07840653,0.18076378,0.26859650,0.10844134,0.11094117,-0.04569202,0.10717528,0.02375852,-0.07574759,0.30356148,-0.11854430,-0.06047547,-0.25018770,-0.11149304,-0.04399539,-0.36045527,0.16187537,-0.18514812,-0.10280731,0.38961047,0.17260057,-0.15050884,-0.22898032,-0.26759666,-0.49574086,0.10851589,-0.22484089,-0.22888459,-0.09202576,0.00152980,0.02311416,-0.17146200,-0.12656666,0.02104659,0.17881513,-0.22043605,0.20374438,0.12225442,0.17049444,-0.08008394,0.12990084,-0.21373075,-0.86221731,0.04092508,0.26080427,-0.06700123,-0.33166271,0.20315757,0.28137916,0.23620318,0.01360590,-0.39939839,-0.11352371,-0.15305276,0.15884957,0.15978900,-0.23804560,0.04924906,-0.17103097,0.14049017,
0.05274216,-0.13651840,-0.00585833,0.08313623,0.20543031,0.04797485,-0.08202423,0.08357396,0.07899732,-0.13590652,0.09972913,0.00744880,-0.65747356,-0.00838259,0.32374847,0.20833142,0.09412418,0.30179942,0.77916497,0.19302450,-0.20804775,0.16541047,-0.00313497,0.18368202,0.63642126,0.17240310,0.18396460,-0.19815497,-0.17712602,1.08863592,-0.09555882,0.14841612,-0.14949796,-0.34508619,-0.21661174,0.12609898,0.00420004,0.15668574,-0.01633191,0.85276401,0.27914774,0.23423566,-0.14287801,0.20245123,-0.04267326,-0.03893120,0.12597901,0.00409203,-0.16521250,-0.04427028,-0.20880115,0.04787374,-0.53719062,0.37106112,0.00508612,-0.13993719,0.00489239,0.18784428,-0.19907221,-0.04129029,-0.25017983,-0.15930212,-0.10342667,0.12513696,0.29642645,-0.19357188,0.58129990,-0.15722837,0.63917363,-0.06712818,0.11387903,0.16391023,0.20164715,0.16851301,-0.19724512,-0.18318781,0.20436171,-0.32825869,0.12920552,0.05583594,0.10501684,-0.09265733,0.11586545,-0.03456800,0.27418035,0.25658247,0.03380053,-0.18998462,0.07951228,0.04278441,0.01694062,-0.20855942,-0.43519336,0.25523329,0.01330800,-0.26772010,0.14235793,0.01747665,-0.19835077,-0.05112286,0.22618048,-0.07826939,0.12422054,0.34948677,0.00091601,-0.29854840,0.16569036,0.90008676,0.10512771,0.08768929,-0.52974093,0.26957002,0.12133923,0.03192472,-0.20355263,-0.11748046,0.04463870,-0.09713667,0.14560129,0.14397365,0.20124212,-0.04317597,-0.38307035,0.19091776,0.10905315,-0.31126335,0.32940817,-0.03924323,-0.19815592,-0.18322694,0.02085111,0.27081576,0.06767126,0.32036659,-0.08397896,-0.52036339,0.08927503,-0.18278579,0.19224891,-0.16961716,0.05883439,-0.18863942,0.00744682,-0.07434332,0.04664618,-0.70339400,0.33134258,-0.09175697,0.20297682,0.00584464,-0.42228958,0.12633531,0.14605324,-0.29025191,0.06254391,0.12628289,0.09740521,0.11381454,0.11190609,-0.31969738,-0.06261902,0.03263404,0.27650949,-0.88410336,-0.01781600,-0.23427121,-0.34648463,-0.03073464,0.11371443,-0.16475314,-0.16975512,0.05588561,-0.01828074,-0.35076243,-0.17203863,-0.20715566,0.04645512,-0.04237835,-0.37332094,0.63411677,0.01581386,0.02660043,0.16060035,-0.24418050,0.19132441,0.38481319,0.15681806,0.04794305,-0.06812772,0.01352851,-0.14548199,-0.04320955,-0.16475929,0.13242911,0.04333851,-0.07381011,-0.10716840,-0.09716943,-0.26072419,-0.31795260,0.11686850,0.12746175,-0.08010177,-0.01940313,-0.12962155,0.15694669,0.20167200,0.27200791,-0.16616166,-0.36362723,-0.15786035,0.10258262,0.19749321,-0.12954086,0.24695371,-0.47177705,-0.28867963,-0.36218843,-0.38006490,-0.11582615,0.27473435,-0.02457747,-0.17090037,-0.46572882,0.16287068,0.04206845,-0.20390670,0.43171450,0.23335791,-0.48870555,0.02786472,0.08752298,-0.01427169,0.12564103,0.16786207,-0.06428625,-0.03908221,-0.24504203,0.70459443,0.21556298,-0.09267595,0.28432235,0.23981670,0.08746183,-0.20002665,0.11325009,0.12459676,-1.47579241,0.03278773,-0.42710513,-0.03586292,-0.19950573,0.18326651,0.12927523,-0.12544121,0.16140050,
-0.02204029,0.01058292,0.01235112,-0.07235339,-0.05844066,-0.07341989,-0.04305001,-0.04254012,-0.02153276,-0.04727858,0.02434529,0.01968432,-0.01208204,0.01035793,0.02560947,0.00998597,0.02303898,-0.02811028,-0.05205802,-0.03298028,-0.06150508,-0.03044640,-0.05098052,-0.07348336,0.02408212,-0.03119786,-0.01726065,0.04069598,0.00301358,0.05226393,-0.01785607,0.03951850,-0.06108823,0.04494845,0.05226485,0.01569898,0.01711963,-0.05807637,-0.00727016,0.04471931,0.02114302,0.02462849,-0.03056640,0.04084499,-0.05869225,0.02596994,-0.05007888,0.00068611,0.01803273,-0.05393172,-0.07824021,-0.01874210,0.02726097,0.01002306,-0.06437174,0.04752328,-0.06030842,0.00347504,-0.03500426,0.02556643,0.03231147,0.04615267,-0.00560988,-0.02760316,0.01472932,0.00140236,-0.05179579,-0.03934946,0.02802901,-0.02903934,0.00387615,-0.01538143,-0.05460802,-0.02771795,-0.04618852,0.01755532,0.00843287,-0.07751340,-0.02723018,-0.06977814,0.00981934,-0.01394380,0.00832608,-0.03965342,-0.04948306,0.05583418,-0.07579655,-0.02145020,-0.05736671,-0.05540758,-0.00409563,-0.03209337,0.05362648,0.01749366,0.02189537,-0.01684405,0.00091002,0.03409999,-0.04100034,-0.01336126,-0.00464828,-0.07320175,-0.02263854,-0.02159608,-0.04344066,0.00349509,-0.04405065,0.01100901,-0.00865275,-0.03783355,-0.02270414,0.05200670,-0.01764621,0.04531999,0.01073540,-0.05248220,-0.06759479,-0.00957026,-0.05402451,-0.06214250,-0.02979974,-0.00942075,-0.04802359,-0.03355167,-0.03762474,0.02226350,0.04218792,-0.03436460,0.03764472,-0.02584659,0.02735466,-0.00643533,0.06174090,-0.01450809,-0.02847829,0.02966470,-0.05661450,-0.05093661,-0.05323726,0.00461163,-0.01339301,-0.05029123,-0.00494124,-0.01383225,-0.03692245,0.01387606,0.05076317,0.02853636,-0.02708155,0.03083481,-0.06624626,-0.06162226,-0.06266100,0.02541467,0.04146408,0.04499193,0.00327433,0.05667869,-0.02648095,0.03352686,-0.03619020,-0.05902474,-0.00191390,0.00103983,-0.04433238,-0.07739508,0.02963992,-0.03575751,-0.00476367,-0.03669618,0.03169656,-0.03021517,-0.04435084,0.04611585,-0.07732858,0.03611204,-0.07831568,0.04132485,0.01456273,-0.05573073,-0.05215029,0.00858361,0.03713252,-0.03249380,-0.05550148,-0.00267751,0.03360268,-0.00666023,-0.05878966,0.03769574,0.04454201,-0.02130311,0.00298189,0.03969251,-0.00439824,-0.05203072,-0.07830857,-0.06130218,0.01757002,-0.03624243,0.01239015,-0.03578587,-0.00470153,0.00642636,-0.00670153,0.01750464,-0.05106972,-0.01567655,-0.05966868,0.01961796,-0.05999034,-0.00144217,0.02186386,-0.03895149,-0.03857630,0.02178973,0.00213189,0.00044462,0.00759596,0.00696598,-0.04415836,0.04112691,-0.04562587,-0.05845649,-0.05980519,-0.04916707,-0.07837402,0.01212668,-0.07416839,-0.01083560,-0.00765622,-0.05551602,-0.04741606,-0.02481055,-0.05062456,-0.04308471,0.02289805,-0.06603400,0.01620098,-0.01763620,-0.05896961,0.00839028,0.03771827,-0.04757173,-0.04665476,0.02345349,-0.06052729,-0.00807074,-0.00957886,0.04554485,0.03748530,-0.07625552,0.01935918,-0.07801195,0.03099957,-0.01805161,
-0.05264190,0.06466773,-0.03226776,-0.27380782,0.00654112,0.15810472,0.12217005,-0.16536149,0.13700852,-0.19074346,-0.22196712,-0.06529791,0.18011388,-0.14943190,0.09747671,-0.06325654,0.20245923,-0.32975796,-0.11470050,0.12575975,-0.12861228,0.04026540,-0.18534818,0.20470214,-0.35254431,-0.11637527,-0.37641028,0.18294138,-0.24716544,-0.46882635,0.17346866,-0.11690316,-0.03950798,-0.18981017,-0.08516214,0.09049298,0.22069408,-0.14731902,-0.21825050,-0.16902621,-0.26145551,0.07482907,-0.41771176,-0.24950004,0.04176652,0.01844950,-0.17066973,-0.01226261,-0.29010966,-0.23813123,0.15022442,0.15358688,-0.22839053,-0.21442357,0.15215866,-0.12363753,0.06410382,0.01255676,0.18033865,0.06137931,-0.00357906,-0.00946950,0.11792277,0.14393367,0.05903926,0.06760098,0.02546463,-0.10812917,-0.05779069,-0.00417739,-0.31000707,0.09988061,0.19593784,0.05497546,0.25609699,-0.14723079,0.05010644,-0.04429376,-0.40989885,0.01778057,-0.25396800,0.00251182,-0.43344882,0.20013994,0.41524211,0.03860362,-0.16152181,0.09011511,0.10986480,0.07692511,-0.29184288,-0.13261606,-0.14659910,0.24990088,-0.37633842,-0.09031273,0.15709703,-0.29592881,-0.18684238,-0.22631682,-0.17920867,0.11159134,0.01523847,-0.08100013,-0.01300852,0.05749799,0.10996761,-0.08280558,0.09845973,-0.24212725,-0.36907804,0.00916858,-0.26995507,-0.23103517,-0.06191412,-0.05637012,0.12290774,0.03238114,-0.05409617,0.09451985,0.04138572,-0.07364516,0.00496212,-0.00070124,-0.09467674,-0.01455318,0.05647226,-0.01237132,-0.16631904,-0.04885667,0.14410259,0.28840119,0.12858446,-0.32692629,-0.29355896,-0.10551060,0.13944438,-0.33987230,0.09231774,0.12203850,0.16388778,-0.55920583,0.10952078,0.08518098,0.13306847,0.03529070,-0.31154686,0.14224236,-0.26004115,-0.48159996,-0.21351425,0.06116752,0.08331335,0.15323576,-0.17892161,0.18458530,0.03081582,-0.01436384,0.09896882,-0.01573444,0.04251652,-0.16502663,-0.10618896,-0.05383401,-0.30343014,-0.61088943,-0.28023475,-0.23729892,0.01732001,0.02814666,-0.13912883,0.09837165,-0.25330445,0.01030048,0.02964313,-0.03947571,-0.13991824,0.10041543,0.01913232,-0.06613769,-0.25498688,-0.10893207,0.07413631,-0.09668636,0.18329521,0.02219066,0.17176868,0.17222427,-0.56033230,-0.04315725,0.09223665,-0.42733452,-0.08505282,0.08812029,-0.42168367,-0.00022958,-0.27172273,-0.07532629,-0.00095532,0.16706976,0.02829864,0.05710661,0.06396199,-0.14489821,-0.30679211,0.06621662,-0.34194812,-0.05782361,-0.02783714,-0.29242611,-0.23759183,-0.06824828,0.10437983,0.17863265,0.08761669,-0.57514733,0.14240785,-0.12811558,-0.31478089,-0.25518295,-0.16002749,-0.05177366,-0.11777944,-0.08765756,0.19319908,-0.14004336,-0.06498470,-0.18709989,0.06480597,-0.02839233,-0.32431293,0.14286210,0.21646613,0.13898565,-0.06485568,-0.18518753,-0.08126771,-0.24006304,-0.16901758,-0.29412398,-0.15445159,-0.10904629,0.06368265,0.13764811,-0.37878677,0.13344055,-0.51718569,-0.05727543,0.08036623,0.01260602,0.03728229,0.27872735,-0.01597957,-0.24285755,-0.28331047,-0.27202275,
0.12646435,0.12803900,-0.31836054,0.07175562,-0.00841023,-0.02458177,-0.05729257,-0.68427211,0.04524517,0.03503080,0.14798652,-0.17533873,0.11487557,-0.53254646,-0.23375288,-0.12082136,0.30302784,-0.63009638,-0.67673260,-0.36320004,-0.21370949,0.08977856,-0.24965796,0.17073120,-1.28662121,-0.62896740,0.02581502,0.09307163,-0.32118046,-1.50793076,0.14591220,0.10051319,-0.17437829,0.13347408,0.12956874,0.21662487,0.19002467,-0.11143223,0.15576306,-1.34541810,0.09054561,-0.05740925,-0.10085820,0.04051355,-0.38376263,0.18977799,-0.23881103,0.05083523,-0.03495453,-0.00974190,0.43043137,0.24133298,-0.33108437,-0.05063402,0.09097008,-0.43963489,-0.00508431,-0.17082991,0.06154051,0.24090347,0.13339555,0.20721643,-0.20709865,0.23981453,-0.09832323,0.29062811,-0.54592156,0.11309847,-0.51598316,-0.35904646,-0.30936307,0.14932333,0.24395233,-0.08893663,0.35568687,-0.31215292,-0.15488717,0.15623240,-0.20961781,0.03469938,-0.37665105,-0.05330077,0.01847136,0.19789362,0.29285303,-0.10166118,0.08781078,0.11052998,-0.09766588,0.16457222,0.10156567,0.01919590,0.01408663,-0.10375063,0.06545169,0.08370796,0.14436413,0.00417653,-0.23411642,0.07584362,-0.08840074,0.06399965,-0.00301698,-0.24904513,0.05219283,-0.00360270,0.20869128,-1.38232195,-0.09587457,-0.03516139,0.14485206,0.15623449,-0.37316114,-0.18871528,-0.10882260,0.12132026,0.19128026,0.26547465,-0.74850106,0.15298094,-0.36079022,0.14294930,0.06099791,-0.28551877,0.25425339,-0.29514784,0.08050748,-0.35498610,0.13868247,0.19876803,0.07365807,0.09278615,0.13855661,-0.67214465,0.02382950,-0.31183466,0.27068859,0.06923986,-0.26496372,0.26262125,0.13129248,-0.10869817,0.10309231,-0.35180274,-0.10891662,-0.88527638,-0.29793236,0.13261974,0.15388948,-0.09142917,0.24552442,-0.28664950,-0.16737068,0.09727417,0.05635776,0.14302999,-0.32884219,-0.16588017,0.14704025,-0.18998967,-0.59996819,0.01394689,-0.02416998,0.17020603,0.01034952,-0.00697833,-0.04670763,0.00666858,-0.13769634,0.06822278,0.10741748,0.15404418,0.08289030,0.34095910,0.18780474,0.08799713,0.05316472,0.21319759,-0.41617098,0.10581118,0.06045383,0.01827915,0.14839014,-0.00566834,-0.13514514,0.06349732,-0.51864719,0.11874831,-0.03751849,0.15378730,0.18672647,-0.06605434,0.05640128,0.05169417,0.01396655,0.12827687,0.02455235,0.14497729,0.09204640,0.01435098,0.06259865,-0.15825671,-0.09370743,0.08194283,0.10636716,0.14425871,-0.31853104,-0.10286256,-0.06501023,-0.20735505,-0.11688083,-0.47859365,0.16443940,-0.33107221,0.07017963,-0.02930164,0.36517721,-0.26649749,-0.26495004,-0.28698105,-0.74036747,0.12990031,-0.06760514,-0.18237248,0.20383450,-0.06045749,-0.00910018,-0.75126934,-0.20390417,0.00026119,0.01552224,-0.28420514,0.21908882,0.04962772,0.13950367,-0.40996221,-0.00515607,-0.15469985,-1.26758754,0.02263850,0.12387748,0.07783842,-0.05390191,0.19338329,0.07279196,0.13538860,-0.01115244,-0.76147634,-0.18981162,-0.18083926,0.22589815,0.22268763,-0.20460144,0.07571175,-0.11954321,0.06429543,
