// Neural Network File Format by Kyle Julian, Stanford 2016
3,13,5,128,
13,128,128,5,
0,
0,0,0,0,0,0,0,0,0,0,0,0,-3,
20,20,20,20,20,20,20,20,20,20,9,20,3,
0,0,0,0,0,0,0,0,0,0,0,0,0,0,
1,1,1,1,1,1,1,1,1,1,1,1,1,1,
-0.75931859,-0.39795735,0.05885310,-0.56786650,-0.57112342,0.04989725,0.05076043,0.01166925,-0.09255294,-1.30170047,-0.44799191,-0.82585579,-0.67109627,
0.22553912,0.29138446,0.21388774,0.41778049,0.24070515,0.11934846,0.05539842,0.03851145,0.03349582,0.23921145,0.51464981,0.16765085,-0.54140353,
-1.01571417,-0.52029419,-3.24769759,-0.14148077,-1.03625453,-0.42067340,-0.08431160,-0.02949709,0.02004571,-0.35781270,-0.16478899,-1.12391269,0.35878175,
-6.48067379,0.27502334,0.25721216,0.24163263,0.27625141,0.26469734,0.28123751,-6.26327229,0.27792713,0.17239106,-0.45269072,0.27875146,-0.59110540,
0.35288382,0.23386864,-5.23899651,0.01737154,0.20015423,-2.45724201,0.20401126,0.12447040,-3.36053896,0.37020651,-0.58265257,0.26243889,-1.34657323,
-0.10235325,-3.41662908,-2.28590441,0.16550587,-1.96851361,0.17007111,-3.14852285,0.18824445,0.15531278,-0.01488263,-1.93219852,0.20075433,0.63098758,
0.03204211,0.15901871,0.09249029,0.23656592,0.15589118,0.17718475,0.14233395,0.18744811,0.19720230,0.01707971,0.05285306,0.16772214,-1.36094940,
0.54275692,0.66720843,1.12519658,0.54176134,0.56435454,1.00962460,0.93240070,0.74559903,0.80444193,0.88097018,-1.55507791,0.85159552,-3.00789213,
0.44346383,0.16959965,0.27228740,0.20179443,0.32002881,0.37748885,0.35578054,0.48407418,0.45876789,0.60744274,1.36595607,0.31750357,2.71276927,
0.19910203,0.10235712,0.09205756,0.16476803,0.12962751,0.07940066,0.06673145,0.08906665,0.09856809,-0.01285747,-6.03918695,0.14454177,-6.82210588,
-0.81395352,-1.92149472,-0.07225043,-0.08532725,-0.13607821,-0.27141759,-0.06657130,-0.17593516,-0.14347912,-0.10997823,-0.43878940,-0.18589742,-5.13794327,
0.56005716,0.79608327,0.81596190,0.51740140,0.41113511,0.41624805,0.69490623,0.85131979,0.92385894,0.80917567,-1.69188762,0.78541100,-1.64685047,
-0.26723218,-0.11465312,-0.28740239,-0.24357127,-0.29856038,-0.30197647,-0.32643038,-0.30386937,-0.29064125,0.07574143,-5.42922354,-0.07516453,-6.79913282,
0.34915692,0.28955236,0.33422643,0.24011630,0.21401289,0.37446550,-4.78106785,-7.05549335,0.38968110,0.33964598,-0.69355214,0.42305508,-0.60055333,
0.32672650,0.31383514,-4.46884012,-6.04440403,0.35076955,0.39996397,0.39103386,0.41571051,0.38112718,0.44407585,-0.64619613,0.40332907,-0.13090575,
-0.77648646,-1.15785086,-0.12805884,-0.05202374,0.14536087,0.20187753,0.29554996,0.46515816,0.64221787,0.53849334,-1.31300914,0.71005595,-1.89521861,
0.24047764,0.34487978,-6.78955603,0.24315356,-6.85176229,0.28754237,0.28631851,0.27405918,0.30911344,0.13687366,-0.76404876,0.30718389,-0.67588371,
-4.92548466,-4.56963301,0.22999397,-6.48937035,0.20900026,-5.23706722,0.33856490,0.30552164,0.31700718,0.36934945,-0.66086644,0.32254335,-0.48709232,
-6.12890053,-6.71122122,-6.73038435,-6.57980108,-7.05907774,0.28055087,0.32424513,0.30583060,0.34118414,0.42149901,-0.72950405,0.31856847,0.17700450,
-0.07433736,0.01736103,0.08559360,0.10984448,-0.02433861,-0.01423889,0.11735662,0.08407269,0.04153365,-0.17317629,-0.84962589,0.12183437,1.67059886,
-1.43212390,-2.69200444,-3.63389158,-1.07424307,-1.65636790,-0.97906125,-0.65419632,-0.69971967,-0.72746748,-0.66398442,1.49285948,-0.67817748,4.63610458,
-2.52506423,-4.76692247,-2.03469586,-4.36822224,0.13048281,0.14560853,0.10592275,0.12363382,0.13545626,0.10801161,-0.58427864,0.13021684,1.11344886,
0.01173242,-0.58679116,-0.04722884,-0.84368116,-0.23533806,-0.71675766,-0.16768169,-0.01589355,-0.49102995,-0.31767616,0.03959828,-0.81561512,-0.21404380,
-0.19501825,-1.41536295,-0.18282759,0.07682648,0.05831755,-0.42542371,0.09960772,0.12418055,-0.50388944,0.04539356,-0.83348215,-0.01153615,-0.50928557,
0.42655760,0.35454521,0.38766521,-8.55546761,0.24007696,0.34087041,0.33499619,0.37039050,0.30577239,-0.12652612,-1.27982664,0.35523441,-4.20649242,
-0.16946144,-0.77487892,-0.44958127,-1.23261058,-1.23729753,-1.13551176,-0.51743197,-0.26780611,-1.13189507,-0.39596516,0.60595685,-2.22267461,-0.76167238,
-0.25842449,-0.16535704,-0.11720102,-0.75462812,-1.35651839,-0.39033636,-1.09778047,-0.16252823,-0.04504868,0.11391661,-0.53692526,-0.09422095,-1.19983637,
-0.62099171,-0.40643731,-0.22198868,-0.73832852,-0.29286385,-1.29133713,-0.35822281,-1.32376599,-0.76465571,-0.47542253,0.70793092,-0.77184844,0.58911318,
0.10725895,-0.27912986,-1.51895750,0.09575130,-0.04081805,0.02444021,-0.13502553,-0.78333974,0.02735056,0.06083113,-0.60294133,0.07994832,0.13735768,
-0.84793031,-0.99735403,-1.47013843,-1.97415411,-2.03816986,-2.46061563,-2.61956263,-0.16940741,-0.22681855,-0.23015609,-0.00390554,-0.34813634,1.33933139,
0.11239839,0.05263110,-0.06751363,0.16345504,-0.05245996,-0.00220203,-0.35599416,-0.01384990,-0.05604166,0.20748751,-0.68453264,0.27282202,-0.72661674,
0.28672186,0.17964186,0.16681708,0.31385437,0.22802500,0.21121499,0.07742069,0.01291948,-0.00774265,0.63805014,-0.04599741,0.43405047,0.59290206,
-0.41558805,0.11818761,0.14510819,0.12990752,-0.02839211,-0.05344114,-0.06367145,0.07150087,0.04590990,0.66684413,-1.11871386,0.58249348,-1.24805081,
0.00718093,0.09362218,-6.03166580,-6.48274231,-4.18376493,-4.47339678,0.24881630,0.35819510,0.31258652,-0.12390752,-0.79253453,0.32142124,-2.56384945,
0.46614760,0.54438311,0.34956869,0.78641188,0.92067605,0.74329877,0.86965019,1.00639021,1.14833200,0.74289018,-1.25575566,0.77177137,-2.87552619,
0.22068638,-4.45968914,-2.14057946,0.12388396,0.17468974,0.25044227,-4.23385096,0.23289964,0.19869401,0.23552211,-0.36175153,0.22698011,-0.33119389,
-1.20243514,-0.36778373,-0.48225102,-0.44621986,-1.16548598,-0.66615123,-0.32773280,-0.40082279,-0.33862492,-0.60140187,0.49851254,-0.63275349,1.02193069,
-1.51223266,-2.79021668,-1.93786144,-1.95509899,-0.17399430,-2.33159041,-2.28722310,-3.10521746,-2.43550158,0.16218355,-0.59535486,-0.07706515,0.69921947,
0.41409826,0.35175210,0.31686381,0.26793745,0.28118828,0.29900199,0.27036610,0.28136486,0.28924358,0.18167369,-1.66326165,0.27843741,-2.27894711,
-0.53938061,-0.00227104,0.35671049,0.32866442,0.32844841,0.45491830,0.56465185,0.61553746,0.71534324,0.93918872,-1.19958341,0.89557624,-5.76238775,
-0.05419676,-0.05610776,-0.08352378,-0.01928385,-0.04572855,-0.07593188,-0.00682403,-0.04417544,-0.02548416,0.05526318,-5.98994541,-0.11537150,-6.53256893,
-7.24656010,0.22080666,0.31333542,0.31443626,0.25760898,0.24598014,-6.68393993,0.31434941,0.40351951,0.30392027,-0.57451183,0.30376849,-0.58327210,
0.00981415,-8.42709732,-9.89817047,0.45620504,0.42631778,0.45287338,-10.96157169,-10.40029144,-9.87173653,0.65897083,-0.91770887,0.60111541,0.88369626,
-2.05865312,-2.04788041,-2.38897729,-3.60665345,-3.54989028,-0.00820541,0.00311429,-0.02714879,-0.03160906,-0.21114777,0.53720343,0.00280211,0.65676427,
0.07483726,0.13041431,-3.12876391,-1.10227633,-2.38153338,-0.00168651,0.10616484,0.08788633,0.18409994,0.10735311,-0.19557586,0.18237175,-1.33469653,
-0.13352840,-0.09982567,-0.21176313,-0.80212265,-0.04203862,-0.87767136,-0.04023398,-0.11909473,-0.26735446,-0.10788909,-0.01196566,-0.42629537,-0.58614326,
-4.61789560,-5.22751617,-5.32382917,-5.39939690,-6.44190693,-4.15524626,0.23272377,0.23508900,0.24044809,0.06055665,-0.45174459,0.25670376,0.87114954,
0.28843522,0.30566400,0.33542114,0.22691432,0.25763485,0.35359120,0.39306897,0.45621458,0.46875545,0.50363362,-1.25337625,0.43368128,2.86419034,
0.02674780,-2.98289156,-3.91381311,-4.34534740,-3.25942516,-3.61802292,-4.17182779,-4.63462400,-3.67984724,0.15496111,-0.55295026,0.30543149,-1.25006235,
-1.95837247,-0.62090003,-0.96716857,-0.84844458,-1.45433772,-1.23966622,-1.21637821,-0.97872001,-0.88852280,-0.83192146,2.08676934,-1.07643175,2.37066913,
0.44305125,0.27826008,0.27737537,0.31792855,0.16938329,0.26297545,0.23611721,0.25078061,0.32271636,0.72554433,-1.35959184,0.82128567,0.08149813,
-0.80228311,-0.37128353,-0.42481220,-0.75890970,-1.56961393,-1.60444748,-1.48715365,-1.64740074,-4.00962114,-0.68952835,1.32466590,-0.56220317,3.65550041,
-0.39367867,-0.50018942,-0.68582743,-0.93033272,-1.45364344,-3.92705917,-4.40081787,-4.41158009,-0.29195797,0.27484754,1.02843642,-0.27668738,2.37970877,
0.13487348,-1.01891637,0.04851392,-0.06024731,-0.06138173,0.13578559,0.14210674,0.26247999,0.21099955,-0.21305224,-0.52704394,-0.17775959,0.27608606,
0.40671918,0.23452455,0.12660471,-4.86289310,-7.61564684,-5.11637545,-6.79074144,-6.15480042,-5.59919167,0.58152825,-0.88239944,0.48132148,-1.04835260,
-0.10635570,0.02557231,-0.20861274,0.01973326,-0.27779964,-0.85825014,-0.45549139,-0.16797905,0.04750560,-0.35888731,-0.88228709,-0.21673216,-0.13246594,
0.01219565,-0.56618798,-2.00158286,-2.29354000,-2.77248597,-2.56923771,-2.12690496,0.16484329,0.13451587,-0.63302934,-0.17294475,0.13866745,0.54679435,
0.21910271,-4.26527309,0.21504730,0.24021013,0.23459719,0.24743181,0.24787876,0.24919754,0.24277295,-0.04277118,-0.79759574,0.25677508,0.68804324,
-0.06911533,-0.07585467,-0.16475107,-0.29593861,-0.25582495,-0.94230735,-0.04893698,-0.01555794,-1.36551845,0.03968944,-0.24199337,-0.06113202,-0.44839683,
-0.02953783,-0.00570659,0.04916770,-2.55583215,0.02333388,-1.78069091,0.03596678,0.07719252,-3.44720817,-0.00726413,-0.29099482,-0.35914862,-0.07596225,
-0.09538718,-4.51918983,-0.04325880,0.09587766,0.04850893,-0.04653246,-0.03572767,-0.03267061,0.04827134,0.15972257,-1.01238000,0.02206412,2.73066568,
0.23868273,0.09436924,0.12470632,0.19573630,0.34541649,-8.91225147,0.54155850,-8.49662685,0.45452157,0.48842922,-0.97105896,0.46710446,-0.89530611,
-0.48235157,-0.34941727,-0.16614184,-0.21254192,-0.24482380,-0.62203497,-0.46588531,-0.34817597,-0.13209972,-0.02418895,-1.87614286,-0.15844291,-2.45673585,
0.39962205,0.28744203,0.36594805,0.47943768,0.33395562,0.43976533,0.62664318,0.57709044,-10.01819611,0.56993002,-1.07678688,0.58195126,-1.52148783,
-2.94491076,-2.43226099,-3.39604139,-3.66538644,0.00723044,0.01034283,0.00474808,0.01262775,0.01979321,-0.10351429,0.39323577,0.04891529,0.49122176,
-1.06303477,-0.62283492,-0.89654243,-0.77847946,-0.97085756,-0.82285875,-1.18186903,-0.95943940,-0.88179398,-0.80551630,1.92431295,-0.80004197,1.80124164,
0.96259421,0.95895910,0.90049446,0.84041804,0.78687155,0.94449586,0.99960804,0.96608323,0.89893270,1.03585637,-1.05041981,0.84976196,-5.31493998,
0.22490688,0.29519913,0.21361810,0.23297250,0.21677524,0.21283765,0.23203947,0.21946590,0.22292864,0.30672488,-1.89398992,0.20985487,-2.42840600,
-0.13683927,-0.22311454,-0.32743901,-0.64339805,-1.01408947,-0.48815832,-0.65525508,-2.37389946,-0.55067116,-0.37664598,0.14443845,-0.46078467,2.48593473,
-0.07420784,0.25281423,0.05716980,0.01379303,0.10410038,0.09728346,0.13499837,0.20199162,0.17841968,0.20432457,-0.46374604,0.21694292,-0.50881886,
-2.44839168,-2.53749990,-1.23059082,-1.64668775,-4.22321272,0.04880154,0.21737391,0.10658157,-1.40587664,0.21697740,0.01083682,0.23585300,-3.28141284,
0.32189649,0.21999837,0.31670594,0.20916894,-5.94972992,-6.08642292,0.26495832,0.29556492,0.26902118,-0.21459098,-0.53950417,0.32510063,-0.63049811,
-0.50816792,-0.92617685,-0.67741084,-2.80829597,-3.65467119,-5.15260649,-5.45592403,-0.14067332,-0.15288484,-0.35905159,0.78041399,-0.13691932,1.84060669,
0.30550078,0.52454054,0.38043824,0.39875373,0.35690254,0.34899309,0.24200033,0.21548527,0.21021603,0.56862658,0.52197504,0.55088937,1.53472424,
0.22742572,0.22757991,0.34266463,0.27433664,0.24812318,0.28302440,0.31022969,0.26948544,0.29103243,0.50371712,-8.12900829,0.31523651,-1.26632798,
-0.01036813,-0.61289185,-1.13587117,-0.96191615,-1.37374675,-0.10684596,-0.20250095,-1.18671715,-0.35593981,-0.23336400,0.32100925,-0.46263319,0.13207014,
0.12771901,0.08877640,0.07003427,-0.17262167,-0.35683358,0.03304232,0.05477474,-0.20418152,0.09192935,0.27746764,-0.55562747,0.33830073,-1.23535788,
0.34054530,0.09075540,0.69806242,0.29665565,0.43042621,0.81479770,0.80072129,0.66544843,0.76494330,0.96814734,-1.37664139,0.78257763,-1.41023850,
0.07262778,-2.30951786,-0.24076869,-1.47086561,-2.14908361,-1.93912411,-0.13175258,-0.33446637,-0.20071812,-0.33372426,0.57815129,-0.47500870,0.77223879,
0.06133574,0.06392623,-0.00831870,0.09205432,0.38325506,0.04188037,0.04674641,0.07893568,0.05826947,-0.30307823,-0.09232938,0.10896991,-0.13761932,
0.17491521,-2.91908717,0.16759633,-4.64634418,0.24836075,-2.88180280,0.29632285,0.28676355,0.25727239,0.52059019,-1.35210252,0.28316358,0.12369671,
0.09875733,0.20808256,-0.04774279,-0.01224657,-0.05857440,-0.04570756,0.04524117,0.02372619,-0.00432313,-0.01217666,-7.21800852,0.15779097,-6.40909338,
0.35281447,0.29062057,0.33056626,0.21290417,0.21719441,0.19196048,-4.52578306,-4.88999891,-4.77560568,0.40081778,-0.57946295,0.33730406,-0.47345498,
0.16974430,0.31988323,0.07525129,0.08488600,0.05973923,0.07230960,0.07999387,0.09883400,0.12040951,0.13104357,-0.76699692,0.06916276,3.60254073,
-6.62500334,0.01737894,-6.12032938,0.26859903,0.34077951,0.26865274,0.18396020,0.22791518,0.25808361,0.50136006,-0.66901857,0.27109179,-0.46122900,
-0.08461335,-1.83653235,-3.10395741,-3.04179549,-3.85268664,-3.57387757,-3.35103440,0.19415341,-4.12213945,-0.13532454,-0.53215659,0.14151950,1.28444350,
-1.20287812,-1.11845148,-1.42661238,-2.16641808,-1.48652387,-1.84630716,-2.54310989,-2.78543782,-0.33263192,-0.05681019,0.19859031,-0.21218674,-0.12112091,
-1.07212853,-1.10701644,-1.17205822,-0.77057052,-1.34066427,-0.98264015,-1.08759630,-1.17372191,-1.05424118,-1.05774021,2.58043742,-1.06898189,2.49267817,
0.25828829,-0.00980716,0.21677762,0.38826609,0.16698816,0.26351371,0.28082886,0.22293700,0.25616801,0.12808806,-1.00237799,0.29772064,3.31548977,
0.25937259,0.37169459,0.12946817,0.35835576,0.28800014,-5.99879122,-5.83845472,0.25705242,0.25027406,0.41385654,-0.60390407,0.25898263,-0.49363229,
-1.20725596,-0.14096020,-0.27296534,-0.17458379,-0.02246639,-0.19302619,-0.26492766,0.02171112,-2.88470411,0.02265075,-0.30162200,0.01681525,-2.35569549,
-0.31118417,-0.39658326,-0.15810664,-1.36702335,-0.87890273,-0.98203731,-0.71848708,-1.13966429,-0.84754294,-0.75882035,1.05613744,-0.51320583,0.74138385,
-0.24958816,-0.21320523,-0.30356860,-0.52147716,-0.14395300,-0.33867708,-0.18505159,-0.22907664,-0.60789305,0.02455330,-2.42535257,-0.21371697,-2.85789633,
-1.05317819,-1.01342452,-1.38902092,-0.02859743,-1.25365198,-2.01777816,-0.28613976,-0.63733715,-2.15413308,-0.14038225,-0.15817316,-0.42802957,-0.97424740,
0.02008959,-0.05904698,-0.08040980,-0.15619622,-0.63351071,0.12035699,0.10579789,0.09668889,0.04184382,0.26321852,-0.79208314,0.25942615,0.90395015,
-0.36720598,-0.15778930,-3.33887553,-1.70600903,-2.37555218,-2.91352296,-3.63658667,-1.75418806,-0.12938839,-0.06849088,-0.44956392,-0.06639457,2.71190953,
-0.70881242,-0.76232874,-0.27332529,-0.33663374,-0.78691751,-0.62582171,-0.35336545,-0.35279402,-0.17422177,0.05002496,-0.45866644,-0.08504267,-1.59341478,
-0.34716409,-0.58747381,-0.57333696,-0.41759488,-0.63522953,-0.57280171,-0.58664721,-0.57813501,-0.59660399,-0.59429002,1.40253162,-0.61198193,1.48224652,
-0.04844278,0.09541600,0.28435093,-0.79985982,-1.27152002,-0.83949029,-1.00734556,0.01878265,-0.14132224,0.08147521,-0.13267696,0.10212349,-0.85374904,
0.12898293,0.14103197,0.21542667,-1.78350067,0.23182912,-2.64642501,-2.62463832,-0.53691244,0.25954938,0.08219107,-0.28847131,0.22929437,-0.96756983,
0.94816101,0.95848578,0.64190161,0.89302772,0.86649233,0.80059040,0.65242386,0.68625295,0.60087925,0.68089980,-1.19898105,0.78841352,-1.82293761,
-2.13457441,-1.34977233,-1.01891911,-1.20716274,-0.63056737,-0.97065467,-1.29139590,-1.28141272,-0.14204672,-0.00414929,-0.23660506,-0.63601106,-0.49862164,
0.24311194,0.42250988,0.44541776,0.18228905,0.19692095,0.13298805,0.38300240,0.35307136,0.40755138,1.10781491,0.40658250,0.48134783,2.61577892,
-0.06656659,-0.08369420,-0.35377613,-0.05270695,-0.16037132,-0.46790826,-0.49470526,-0.07008791,-0.07879604,0.28137711,-0.88705832,-0.64447612,-0.53810358,
-0.16752200,-5.79290056,-2.16560173,0.31906956,-4.27818966,0.34452370,0.35757792,0.33437753,0.32274741,0.51707202,-0.73816019,0.39533845,-2.03444839,
-0.13394499,-0.12781206,-0.04423525,-0.17444681,-1.07451010,-0.34557572,-0.07236740,-0.19788311,-0.53020382,-0.51705706,-0.20789377,-0.44703013,0.97466654,
-0.12762065,0.17903095,0.14465936,0.17508681,0.19689251,0.18776932,0.19969569,0.17602368,0.15277472,-0.04949097,-2.51474762,0.20706192,-3.65198469,
-4.22973204,0.13286078,0.13025248,0.25284269,-3.21322036,0.24179763,-3.00202227,-3.95695329,-3.79509521,0.20129623,-0.27013242,0.19212626,-0.53792149,
-0.18511318,-0.34849149,-0.08736272,-0.22181074,-0.33263531,-0.17473660,-0.09991401,-0.57648611,-0.06820998,0.33348274,-0.85607010,-0.04539596,-0.57539499,
-0.85563821,-1.23048699,-1.47556221,-1.84485412,-1.92563331,-2.10952401,-1.51935053,-2.25160098,-0.16673365,-0.56495482,0.06115437,-0.18995531,1.24690771,
-0.09942921,-1.19381332,-0.18171078,-0.26335010,-0.78131580,-0.28916159,-0.71011943,-0.54813373,-0.26168084,0.01074791,-0.99993730,-0.80986840,-3.46778417,
0.49542415,0.31163871,0.87393576,0.51689142,0.58795816,0.68937534,0.97511715,0.85222679,0.77982467,0.85509163,-1.59501612,0.85894746,-2.59149384,
-0.24275079,-0.05126876,-1.54597890,-2.12966061,-1.24714661,-1.93375063,0.03361624,0.02266473,0.00314293,-0.36434880,-0.52933538,-0.10263725,0.01048889,
0.16484697,-2.40010190,-2.74420643,-2.47108078,0.16475689,-1.22769320,0.21216075,-1.65666676,0.12167427,0.14383708,-1.07603097,0.15381141,-0.22122391,
-1.80111527,-0.89195871,-1.07008624,-1.00765753,-1.66949630,-1.14180124,-1.34327686,-0.85763562,-0.90306795,-0.74230528,1.77881467,-0.81846315,4.56523371,
-0.16494378,-0.44822609,-0.31735012,-0.39881957,-1.16774464,-0.83502823,-0.31358859,-0.13321710,-0.37867823,0.05833033,-2.44948840,-0.25269133,-3.23185539,
-0.30590770,-1.14580131,-0.34284523,0.00492957,-0.06234365,-1.16376984,-0.94435257,0.05339738,-0.21719582,-0.59036326,-1.11868465,-0.31289998,-0.41695935,
0.00184612,-1.54644120,-0.17638513,-0.90130490,-0.12041465,-0.08938632,-0.16267113,-0.10737106,-0.09665544,-0.25458482,0.90647036,-0.09750026,-1.65825438,
0.09630760,0.23052758,0.18338999,0.14131686,-5.00263882,-5.84126854,-4.21863985,-5.56559038,0.19851257,0.15545896,-0.27051142,0.23407634,-0.57443386,
0.17852443,0.20649084,0.20068271,0.01573860,-6.32668304,-2.10215497,-7.34536886,0.22619495,-2.16529536,0.47399822,-0.82527852,0.32236260,-0.26628336,
0.11491430,-3.16543460,-2.82653117,-2.72850227,-2.45318341,-2.14661026,0.02798119,-1.68126154,-1.23172200,0.05001899,-0.22658451,0.17531079,-0.74392253,
-0.72366524,0.34766474,0.28471681,-5.41634464,0.22700700,0.30933645,0.27012417,0.27626216,0.26445749,0.15959889,-0.73462993,0.27852947,0.04782777,
-2.59590650,-3.09173107,0.08755513,0.10747497,0.13261510,0.09508533,0.14463720,0.13829914,0.08927528,0.06131718,0.09241091,0.12055164,0.11835655,
-0.48525614,-0.83907008,-0.37373167,-0.21916060,-2.40463281,-0.61465508,-0.32606578,-0.10147136,-0.40763491,-0.21868506,0.59446645,-0.22301883,-0.20370486,
0.04320719,-0.10132993,-1.20006895,0.07066156,-0.85999060,-0.80734921,-4.17224169,-2.82997537,0.01278904,-0.13731776,-0.37633675,0.06001826,0.30133203,
0.05846167,-0.17835762,-2.12089324,-2.19138074,-0.31953368,-3.12565184,-0.47455335,0.05992860,-0.41247982,0.11504209,-0.53374332,-0.14892301,0.14025560,
-0.08733273,-1.33441079,0.01749040,-0.04482258,-0.75755644,-0.42717072,-4.08078766,-3.66355777,-0.04695934,-0.22332822,-1.04191935,-0.04216954,2.28101397,
-0.16105157,-0.10455325,-3.40863323,-2.17213178,-0.61471194,-1.01092100,-0.44257683,-2.08815503,-0.19016837,0.08570305,-1.10950828,-0.22046879,-2.94195676,
-1.87874806,
0.08999281,
-1.02843237,
-0.58394432,
-1.60931146,
-1.27302516,
-0.21756664,
-0.66478103,
0.66336983,
2.15570045,
0.00720675,
-0.58057547,
0.21368203,
-1.59492695,
-2.45764017,
-0.85511905,
-1.23509848,
-1.05665755,
-1.68920493,
-0.13692711,
1.00075006,
-1.25547755,
-0.56940097,
-3.05212188,
-0.57242805,
-0.98614144,
-0.60962993,
-0.71737003,
-2.36586380,
-0.76560032,
-0.76907068,
0.68187857,
-0.30589095,
-0.72691506,
-0.59373349,
-1.42782295,
-0.54920048,
-0.26014063,
0.79093945,
-0.98731899,
-0.14685529,
-1.01587045,
-0.84371805,
-0.60675269,
-2.22841001,
-0.88504183,
-1.19594014,
-0.48341548,
-1.31532812,
0.19587514,
-0.18255319,
-0.35392496,
-0.01247081,
-1.16031110,
-0.98875737,
-1.11598897,
-1.44367194,
-1.41695130,
-0.95326161,
-1.60565054,
-1.06487060,
-1.55385530,
-0.25829422,
-0.45134607,
-0.47083098,
-0.08007932,
-1.00985026,
0.83737916,
-0.83243257,
-0.65542561,
-3.23572183,
-1.20191228,
-0.53544909,
0.91955614,
0.65327364,
-0.67494452,
-1.35171485,
-0.90301472,
-0.74155909,
-1.72048438,
-1.77288997,
1.64684534,
-1.01502764,
-0.40776664,
-0.33612791,
-1.06081355,
-0.72000736,
0.35789964,
0.64956492,
-1.26802754,
-3.34850478,
-0.02819379,
-0.44533384,
-0.66746426,
-0.80861020,
-0.41863433,
-0.41110107,
-1.15388179,
-2.19185567,
-2.85458922,
0.02690199,
-0.15643275,
0.92219287,
-0.28759673,
-2.33064651,
-1.08405709,
0.98112410,
-1.94506562,
-0.60677719,
-1.04807866,
-0.81221855,
-0.24044083,
-1.00814831,
-1.38077855,
0.31918231,
-0.69591868,
-1.54747081,
-1.07956088,
-1.83368754,
-2.19371104,
-1.21719694,
-2.23819804,
-0.34194696,
-1.26260316,
-1.89234281,
-1.58994055,
-1.03745902,
-0.41256920,
-0.40463671,0.32084459,-0.49429840,-0.66815943,-3.64488745,-1.17861724,-0.18757878,-0.29956552,0.66628236,-4.15082884,-0.12460078,-0.72113431,0.97548485,-0.08407877,-2.13876009,0.08048783,-3.62904334,-2.27934766,-2.09548640,0.08521957,-2.06865406,-1.71123433,0.24704333,-0.98835754,-2.17818761,1.32616782,0.40552577,-1.19229686,-1.35004687,-0.47582874,-0.42201081,0.23916720,-1.47628856,-2.85969567,-0.64323908,0.93555617,-0.56661427,-1.82677352,-1.08984923,-0.68176645,1.11789858,0.94750714,-1.51883209,0.60913402,-1.23187470,1.20604646,-0.28840715,-2.85996604,-3.21876669,-5.42858219,-0.10088421,-4.77442503,-1.87907434,0.84998089,-4.32199860,0.41858006,0.46103582,-2.46900010,0.12872072,-0.00099344,-0.12897253,-5.13363028,0.51343256,-0.04781672,0.58211929,-4.70343351,-0.71029580,-0.86117560,0.25351506,0.07555905,-2.76489854,-0.01550068,-0.28299278,0.43356171,0.02094658,-0.23809971,-2.04440808,-0.56586170,0.03571947,0.24447319,0.76984489,-0.89724797,-0.77297157,-0.60014361,-1.35203552,-0.43125808,-1.16116917,-5.38576031,-0.29380298,-1.89083028,-2.84528852,-1.17141414,-0.10508433,0.22370748,-5.69993496,0.55294198,0.34237683,-2.05589771,-2.43276882,-4.53744793,-0.17599456,-0.43797216,0.67876363,0.07541104,-3.57156897,-0.67284399,1.56709528,-0.25442681,-0.56406939,2.39457178,-2.29254484,-0.15494540,0.06330439,0.72502452,-2.71258807,0.24628353,-0.01565357,1.14929557,-3.94252539,-0.87798315,-1.26600897,-0.71943420,1.26416886,-0.02448747,-0.35824999,-0.35556325,0.69905257,-1.59910965,
0.01990844,0.29378217,0.26322776,0.04824396,-0.34409705,-0.22301361,-0.13068154,0.18473271,0.38765216,-0.00452826,0.71285003,0.08417680,-1.87229621,-0.03598049,0.09714875,0.06569261,0.16322131,0.22539049,-0.30581772,-0.06709818,-0.52221274,-0.18583250,-0.13767014,-0.20866273,0.13613521,-0.32108018,-0.02019662,0.61743778,0.11114685,0.01620178,0.11357509,0.16788629,0.08186954,-0.04388137,0.27993348,0.14451377,0.00227185,0.07800547,0.48015258,0.21582940,-2.24179173,0.10991176,-0.05578443,-0.03963063,-0.08737823,-0.09368699,-0.34223899,-0.43143770,-0.28029305,-0.33602074,-0.01955725,-0.43601272,0.15775153,-0.28268340,-0.40018207,-0.11167938,-0.23263170,-0.05656247,-0.09037826,-0.34596452,-0.26954886,0.05819233,-0.32964805,0.04814060,-0.11085792,1.87242961,0.64126092,0.09524842,-0.16424327,-0.24761438,-0.15310016,0.12609084,-0.13048916,0.44257960,-0.07668655,-0.02893044,0.13379014,0.05307087,-0.48092151,0.40186200,-0.38394979,0.15702638,0.09222093,-0.37297881,-0.08815836,-0.25404227,-0.10715254,-0.10716375,-0.33413100,0.15466473,-0.04832689,-0.05410394,-0.87591815,0.03896182,-0.19264814,-0.04384151,-0.26188925,-0.22710037,0.10003354,0.01651108,0.28910011,0.16130789,0.27669838,0.20279078,0.00960717,0.14629711,0.14339854,0.06919749,-0.61577457,-0.23102769,0.34504631,0.27804744,-0.26259243,0.14027429,-0.21438318,-1.14468479,0.05993862,-0.06855515,0.12481308,-0.09768109,-0.69889987,0.07337632,-0.06541080,-0.36605832,-0.46278185,-0.07655123,-0.02843396,0.08711103,
0.09838383,0.89846247,-0.15645459,-0.25136626,-0.90149933,-1.09556580,-1.03241992,-7.25606823,1.38756096,0.00688632,-0.24957387,-1.33199048,0.15350536,-0.54123628,0.37423581,-1.00208282,-1.74858129,-0.56555116,0.66205758,1.24694693,1.51595855,0.97945350,-0.61657387,0.83464628,-1.26772022,0.50499779,-0.68561685,0.90365583,-0.41423056,0.78599054,-4.16141319,1.16455472,-2.37562037,-0.27198184,-7.26764345,-1.69444072,0.09438096,0.66367018,-1.23852539,-3.48741126,0.15655275,-0.13448350,0.95277798,0.86599255,-0.84574026,-0.56868684,0.71009642,0.45979607,-1.05786967,0.64256608,-0.47774595,1.22391129,1.39735365,0.92375618,-2.52715802,0.49275061,-0.27371213,1.02085888,0.25553718,-0.24010132,0.30820659,0.10311301,0.25653201,-2.55428767,0.76091623,2.28367949,-4.28324652,0.23600768,0.99113244,0.78201199,0.34745324,0.08115076,1.22869337,1.17579985,0.29760733,0.63520753,-1.06360745,-2.43155217,0.10268686,-2.15911579,0.16774842,0.13627127,-6.81064796,1.55839586,0.84149897,0.93187845,0.82514966,0.96413320,1.22450197,-2.13898849,-0.50870109,1.07571530,-0.03280552,-0.07709017,0.84448236,1.31231868,-0.27637133,1.64753425,-2.86269426,-0.75155592,-2.16449714,-0.45759034,1.34529614,-1.61330509,-0.80985594,0.84912205,-0.08569090,-1.01970625,-0.17021325,0.77740401,0.30023780,-5.57141542,0.71048659,0.36187050,1.75728822,0.06713917,0.25224298,-1.49439013,-3.56923151,-6.07061625,-0.66586345,-2.91897535,0.96124446,-0.09206653,0.50906080,0.30132258,1.05087650,-0.89659005,
-0.81504440,0.21585664,-0.32128745,-0.64753479,-0.85319376,0.59524786,0.67268759,-0.12382232,-0.25085491,-4.83206987,-5.16580772,0.62523931,-1.98076642,0.32016426,0.15918876,-0.30210727,-0.85338545,-1.05679274,-1.74480104,-0.67717415,-1.35349691,0.97825748,1.17151165,-0.87583965,1.04644942,0.79120165,0.97349620,-3.64131594,1.28580594,-0.34756613,0.02356360,0.18523717,-0.23269154,-1.21037555,0.19735199,-0.32776317,0.70056152,0.86180633,-0.05626669,-1.21040702,-1.92662072,-0.80908263,0.71690065,0.61608481,-4.81668615,0.23371460,-2.32237124,0.06180722,-0.15844907,-1.95576787,0.50504625,0.77869028,2.74450469,1.24618936,1.86634684,0.85063738,-0.08295326,2.34356213,1.73295176,0.37273902,0.82461196,0.65493274,-0.71637404,0.07361070,0.65006906,-1.95226932,-0.53599477,-0.76624811,-0.63989091,0.48150459,-3.24587560,-0.04352270,0.44765323,-0.15924275,-0.30249158,1.70713449,0.06783167,0.36116302,0.43009177,-0.02179424,2.74836612,-3.99366593,-0.85541493,-0.33535448,-1.87713993,-0.64976269,-1.27676380,-1.40462959,0.29051974,-0.02601976,-1.81127465,1.76705551,-0.98391640,0.95089173,-0.46521217,1.25436413,0.52407205,0.26440260,0.15956533,-0.41354957,0.36045444,0.09415074,-0.11927688,-0.39319742,-0.03594229,-0.72403777,0.27629358,-2.66520333,-0.31229332,1.08364284,0.59638512,0.04979285,0.05415225,0.10589625,-2.54243827,-1.18304741,0.01472490,1.46421897,0.40979564,-0.28339952,1.81546688,-0.55093336,0.27856070,0.30835125,0.00563763,-0.40824094,1.31187248,-1.62967563,
-0.25045213,-1.12489998,-0.19712816,0.02057080,0.09931161,0.09421638,-0.26131257,-0.06599429,-2.81436968,2.86638665,1.51415169,-0.14774239,1.26663256,-0.29228348,-0.78299028,0.09466600,0.01231252,0.09434202,-0.59051627,-0.47044075,-0.41632214,-0.36042476,-0.40859324,-0.54756391,0.51123750,-0.24700722,-0.31141454,0.08749817,-0.17902546,-0.46172822,-0.18729474,-0.94465315,-0.11487089,0.13245866,0.07554901,-0.07420065,-0.77093345,0.08493841,0.95949543,0.72700727,1.39257169,0.11895671,0.01303071,-0.21790250,0.87778538,-0.11784134,0.21901540,-2.03053284,0.48525825,-0.37323067,0.20263624,-0.47738004,-0.79809982,-1.13206947,0.13181128,-0.90138090,-0.37233612,-0.57677531,-0.50806040,-1.68737316,-1.28019881,0.22938597,1.44494951,-0.02745721,-0.59572852,-0.07359666,0.48728794,1.07929635,-0.42455038,-0.43298301,-0.10434800,-0.06538691,-0.37964264,-1.79604459,1.17252469,0.03235490,0.09391571,0.07193652,-1.01467013,-0.34801883,-0.68125236,2.25153184,-0.10878474,-1.31054676,-0.27338728,-0.30819631,0.35170925,-0.42102671,-1.69011319,-0.10107891,0.02502936,-0.24131277,0.70914549,0.26448309,-0.62946653,-0.14459373,0.33911940,-0.12745830,-0.11954805,0.44453040,-0.19788209,0.45176235,-1.77520692,0.01029394,0.45514885,-1.36586046,1.05165052,0.05628736,-0.32180744,-0.01118714,1.07690632,0.03513352,-0.86193472,-0.13506599,-0.32166734,1.73312283,0.26668522,-0.55436480,-0.09799620,0.04597152,0.04901950,-0.35328948,-0.02556514,-1.52062869,-0.42240703,-0.45014513,-0.79774761,0.63770843,
0.14023116,0.28547281,-0.05145183,-0.03595039,-0.28658044,0.11325744,0.13137025,-0.10636190,0.29843479,-0.94726419,-0.24621189,0.07473794,-1.30437827,0.10737074,-0.15527026,-0.00987279,0.09558312,-0.03587584,0.01402844,0.15289131,-0.27177998,0.02634130,0.13189253,0.04498261,-0.16011819,0.05967426,-0.17531995,-0.22049238,0.00674784,-0.00316307,-0.14592448,0.25057665,0.08278222,0.08592479,0.04783336,-0.09373730,-0.05765931,0.08409471,0.08696695,-0.26379636,-0.71279269,-0.02645714,-0.10259771,0.03352607,-0.35567605,-0.05563997,-0.20182890,0.07838222,-0.23826729,-0.27538681,0.03455801,-0.41230327,-0.26281524,0.16770539,0.07872487,0.05135511,0.18744591,-0.05891109,-0.03051675,-0.14749698,-0.19048120,-0.15237042,-0.45419899,0.08646478,-0.06816665,-2.95847011,0.17782266,-0.02723913,-0.46090510,0.01397673,-0.40126765,-0.10265382,-0.31828171,0.31092954,-0.21220419,-0.20954752,0.04123117,0.11924109,-0.06111443,0.24068849,0.04626002,0.01095677,-0.08806799,-0.37513232,-0.28305864,0.33245957,0.08965995,-0.68453783,-0.06444702,-0.08481982,0.09221376,-0.02181975,-1.90535629,-0.14718701,0.11476393,0.63160259,-0.91397172,-7.69212246,0.01205678,0.28011945,0.18500695,0.19908081,0.26728123,0.21016532,-0.16284852,-0.14426075,0.01456675,-0.44285756,-0.51695007,-0.08956425,0.20417090,0.13506466,0.04446549,0.29655454,-0.56647170,0.28063509,-0.22135778,0.12107655,0.04729604,-0.02101761,-0.30849922,0.29747733,-0.00749030,-0.11533549,0.14085393,0.05833605,0.00557952,0.15921003,
0.52908814,1.26943648,-0.23141922,-0.58269626,-2.65460944,-1.46565139,-0.25571960,-2.33430028,1.73107028,0.14425337,-3.28866625,-0.60218728,0.11934815,0.02581760,0.78528744,-1.92277396,-5.10628510,0.00021667,0.43215230,-3.51022601,0.88232964,0.87963402,0.26064366,1.76300645,-1.06510091,0.54791707,-0.01170912,0.87616748,2.40823174,0.81820607,-1.03153443,1.65271366,-1.01870012,-3.57950091,-2.66819215,-0.29996037,0.78667343,-0.72342420,2.15080762,-8.87469578,0.06259216,0.12401820,-0.03012210,0.89524645,-1.17571604,-0.05734372,0.53586721,0.68191105,-2.42987132,0.91694462,1.81711686,1.19519830,1.48205888,3.16807771,-0.50232619,1.91774035,1.73659527,-0.67424858,-0.57147509,0.52754605,0.94596744,-1.30525243,0.02355095,-1.43006909,1.37046909,-0.02417924,-4.77456999,-0.17157063,0.91204703,0.64020181,-1.53257847,0.09850524,1.43519735,1.59581077,-3.23367071,-0.09545798,-1.35110593,-1.22319877,-0.89674103,-5.50137234,0.83071917,0.03258979,-7.77176523,0.10283073,0.47273666,1.58824360,0.64644092,0.66403383,0.73781884,-4.06521702,-1.07017040,1.02823520,-0.04867813,-0.74002349,0.28108719,0.31030661,-0.61939132,1.26740873,-1.42049587,-0.55379468,-0.41928798,-1.14539087,1.91492975,-0.43230358,-1.92560506,0.25829577,-0.13095336,-4.00714731,-0.11410746,0.61908919,-2.48105216,-1.85292339,2.46157265,-0.15386391,1.22752774,0.07392105,-0.52380222,-0.31291002,-6.90467405,-1.53822708,-1.27648199,-0.16666092,1.39436400,0.57376146,-1.55600953,0.79927939,-2.77552986,-1.67881072,
0.05653033,-0.04323957,-0.05439529,-0.07812139,-0.01802633,-0.06219744,0.05288056,-0.02950829,0.05272721,-0.00818720,0.01926784,0.04047834,-0.03799348,-0.10771465,-0.05314006,-0.04103811,-0.00737587,0.01369823,-0.04301000,0.06011417,0.04049174,-0.05205083,0.01502420,-0.11242462,-0.04720122,-0.09594748,0.01960986,-0.07958745,-0.05137425,0.05720587,0.00585837,-0.06892195,0.00792575,-0.06511638,-0.03733568,0.04000154,0.02418744,-0.10330683,-0.11607454,-0.12583381,-0.07101464,-0.03680636,-0.09729795,-0.09173822,-0.09655327,0.03941691,0.01350073,-0.07128976,-0.03879868,-0.07496696,-0.09816706,0.00414817,-0.09691979,0.00444478,-0.00748377,-0.04979051,0.02767509,0.03878821,-0.14110388,-0.03408431,0.05281000,-0.05263183,0.05432888,-0.11299764,0.03531828,0.08398405,-0.06737113,-0.07887640,-0.02511209,-0.10223196,-0.06366862,-0.09481831,-0.03093859,0.00230384,0.04128036,-0.06141106,-0.11113109,-0.05262058,-0.02927944,-0.01156848,-0.08807056,-0.00783397,-0.06807635,0.07258989,-0.09454700,0.04818230,0.04004940,-0.04002875,-0.05620599,-0.04700895,0.01592293,-0.09293617,-0.04115009,-0.07206270,0.04399952,-0.11929650,-0.03125587,-0.00730331,-0.09503064,0.04880816,-0.01118530,0.00868632,-0.09521116,0.04164100,-0.02516944,-0.00638519,0.06231300,0.07076126,-0.14027335,0.02983885,-0.03881367,-0.11468691,0.04295065,-0.08672290,-0.01301018,0.04783683,0.01370152,-0.07384460,0.05836967,-0.03703856,-0.00287201,-0.08276997,-0.02283888,-0.01844710,-0.05618733,-0.00984448,0.02746304,-0.01267368,
0.19383276,-0.13329265,-0.48324391,-0.17344682,-0.79421932,-1.03003538,0.39701185,0.15156284,-0.52686363,-4.82953310,0.26731309,0.14678209,0.03093733,-0.62895453,-0.12132844,-0.21948954,0.41096783,0.22088514,-0.17579709,-0.24182744,-3.41915798,-1.05170596,-0.01047325,-0.59373176,-0.06783818,0.60746372,-0.78494656,-0.82122278,0.05202846,0.08749691,-0.43881881,0.54116064,0.57606769,1.31343758,0.04205774,0.22084695,-1.97528577,-1.80399728,-1.25058913,-1.12658143,0.25240403,1.11779797,-0.19232669,-3.71002650,-1.42133212,-0.48907703,0.27628744,0.77850878,0.14178288,-1.82510769,0.77018583,-2.73692012,0.44819105,0.05146568,1.29736495,-0.67572135,1.60751283,-0.28583655,1.07804382,-0.67539066,-0.94587070,-0.34014729,-0.48789495,0.01333593,-6.82345963,-0.61963111,0.25228754,-1.39494145,-0.24024914,0.46238258,0.08712219,-0.12210134,-4.00818205,-0.13527939,-0.32065484,-0.40103349,0.06626414,0.36516687,-3.09872055,1.25881541,-0.03153664,-1.57900214,0.47903532,-0.23105747,-0.94552404,1.32208061,-2.20069194,-1.52860880,0.60569543,0.35887182,-0.82864624,-0.68125415,-0.42298421,-0.39948913,0.31552243,-0.63237047,-0.06070841,-1.20980620,0.05883648,0.02212916,-0.04658986,-0.01355409,0.17761803,0.31468061,-1.40817583,0.00308191,-7.83633900,-1.28923368,-0.94094306,-7.00578594,0.26098067,0.14145079,-0.27198988,0.29234812,-4.45947981,-0.55728048,-2.24775553,-6.38100004,-2.30264020,0.03294339,-1.19634247,2.03912711,-1.88975954,-6.21452761,-1.38275707,0.49627733,-0.83320832,-1.71393311,
-0.54851133,0.17859343,-0.17673117,-0.50181597,0.71429598,-1.85446548,0.22251436,0.30308390,-0.31200951,-0.32655433,-2.07643318,0.14645997,-1.35109162,-0.14676914,1.19660962,-0.00420757,-0.20816019,-2.96360421,-0.78071731,1.02454507,-0.28705281,2.25897360,0.41695160,1.92546713,-0.74507070,0.26516896,0.45789933,-1.67279649,-0.00777869,2.21056843,-0.18303369,0.35379520,0.09714797,-5.96435261,0.34508941,-0.48029709,-0.48044297,-1.34269857,-1.85760021,-0.30569327,-1.54144549,-0.09955628,-4.26503754,-2.27811193,0.12856346,0.74813944,-1.43459082,-0.80796468,1.27384245,-1.11370540,0.07524326,-6.63140917,-0.21188058,1.51932919,-2.95386815,1.02133262,2.79320049,0.22087719,0.06834388,-0.87114888,-0.06206296,-0.02797847,-0.83948410,-0.13504234,0.33886370,-0.14295593,-0.00824941,0.69843888,-1.11503947,0.90494406,-1.11542583,0.49607539,0.25425160,-0.07289046,-0.07082697,-1.90298617,0.36449492,0.58881193,-0.57996070,0.33701700,-0.20056637,0.22322157,-1.21313322,-1.10148990,-0.33272642,0.42982399,-1.44841874,0.72362828,-1.40870810,-1.38326633,1.24113572,0.09304060,-0.24392290,-11.13465977,-1.06469095,-0.73803723,0.37690607,0.16071528,-1.25074971,-4.33691549,0.23061581,0.10991270,-0.33461529,-0.31855953,-0.21300919,-0.82554466,0.09405942,-3.47393060,-0.40288723,-1.16389322,-1.12625718,0.34118757,0.42424673,-2.27209711,1.86418974,-0.83846337,-0.70515603,1.57851648,2.53103185,-4.10043955,0.40746659,-0.75045443,0.47423866,-1.91214907,1.52287674,-0.00976742,-0.18721935,-3.39322543,
-0.57999754,-0.07544967,1.06099510,0.64179587,-2.56139278,0.63961744,-0.47564647,0.05030973,-0.12266680,0.12494497,-0.07491539,-0.25259972,-2.25424004,0.06281429,0.23389091,-0.12017812,-0.44332778,0.04943094,-0.78834045,-0.40599084,-0.01297948,-0.55784190,0.36517444,0.30816069,0.68551737,-0.00599595,0.74007964,-2.74341488,-1.64237809,0.16270851,-0.03394763,0.18765779,0.05168715,-0.67240506,-0.42361811,0.96661568,0.49683437,0.34608313,-0.13732108,0.48600447,-1.89092374,0.19459543,-0.59349608,0.81993711,1.38156712,0.76768601,0.71467543,0.14859886,0.84964985,0.92135358,0.91179472,0.42829794,-0.75173074,-0.80014980,-4.84409571,0.28589037,-0.95924997,-0.01683206,0.37912604,-0.86172074,-0.93848532,-0.16365471,-1.32643032,0.04765341,0.57566804,-1.34841180,0.10661784,0.66094750,-0.13645256,0.43756241,1.72715306,1.36049700,0.33923480,0.07685473,0.12868513,0.89983279,-0.12577617,0.00495729,0.69609135,1.08358026,-0.04396582,0.45464566,0.66736591,0.18971045,-1.18275309,0.82769454,-2.06136656,-0.83468527,-0.17587021,-0.29673931,-0.45457894,-3.13872576,-0.49689963,1.60889792,0.66860044,-0.43288374,0.09334035,-0.17210859,0.15918930,2.93176460,-0.36115864,0.22398034,-0.32042339,-0.72296876,-0.52562183,-0.16170676,-1.64682662,-0.02027444,0.56759316,-0.47484571,-0.23938763,0.02884781,-0.17494880,0.43559638,0.55910188,-1.37101161,0.24088687,0.52642220,-1.11898530,-0.24368621,3.35408854,0.92919385,-0.15405262,0.30138645,1.53062630,0.83939976,-0.14926307,-1.12046731,
-0.70892411,0.30416483,-0.20938824,0.15029234,-1.22184932,-0.78308111,0.34799269,0.15027614,0.72750872,-3.67808151,0.16421124,-0.18679640,-0.48104638,0.19280824,-1.58537817,0.09507608,1.15603375,-0.98620903,-3.77120328,-0.87661242,0.55627733,-4.37342167,0.43136895,0.42865664,0.22660425,-3.10683870,-0.44000930,-2.08938074,1.64060020,-2.96967649,0.27172345,0.65146989,0.14091107,1.17563558,0.13676405,-1.24434316,0.00331079,0.81134868,-3.12450886,-0.60003150,-0.60126156,0.70198023,-0.22149466,-0.38911182,-0.68426520,0.06285124,-4.69976521,0.56264836,-0.10521951,-1.43424153,0.03298707,-1.69915092,-1.51608980,-0.55054492,-0.95971274,-0.90922004,-0.36551264,-4.33544016,0.12260910,-0.49893326,-4.60196829,0.01893313,-1.07894099,-0.03235461,-2.07409763,-0.65018928,-0.57173622,-2.24584436,-1.36285174,1.35928714,-2.35069633,0.26298770,-4.74795628,0.28917032,0.79502356,-0.47303337,0.48630381,0.00505949,-1.63925254,0.56830883,1.72646630,-6.59885502,0.46637911,-0.13050227,-1.86929274,1.00426960,-0.38808486,-1.35738754,0.48350787,-0.26708224,-1.46591043,-1.53760564,-0.70143867,-4.22325706,0.28468931,-0.39050707,0.08512732,0.79902273,-1.33084047,-2.44490743,-0.52404583,-0.21704893,0.48419830,-0.59211808,-3.23354554,-0.40069497,-2.18657351,-0.40948761,0.39412561,-1.27850974,-0.51495856,-0.00867017,0.33933893,-3.28006124,-3.24924922,-2.17391634,-0.68455058,-1.32218456,0.28549957,0.18210223,-2.70572472,0.85234052,0.25292343,-4.40140343,0.22414108,-1.58794737,1.73416519,-1.03043246,
0.00312660,-0.08967742,-0.03083563,-0.05408015,0.02745182,0.00434793,-0.10808499,-0.07951220,0.06979176,-0.03559986,0.02776309,0.02301040,0.04658625,-0.02664318,0.00768230,-0.14363259,-0.05941854,-0.08076843,-0.06512266,0.09415878,0.02381414,-0.01636838,-0.07023057,0.06369287,-0.01172879,-0.02659233,-0.02577730,-0.06687063,0.03384130,-0.01599473,0.03755778,-0.00725099,-0.05732110,-0.09684196,-0.13281024,-0.02884978,-0.11368053,-0.02238503,-0.08288518,-0.03539804,0.01302828,-0.10640351,0.07197548,-0.07532541,-0.06582716,-0.07856943,-0.08611791,-0.08816484,0.01178618,-0.04180617,-0.06491394,0.05846109,-0.04279457,-0.02548875,0.03753682,-0.02976546,0.06907651,-0.00848968,-0.09874464,0.04100443,-0.02346567,-0.08047459,-0.06877904,-0.09216304,0.01046096,-0.10635176,0.02468417,0.02539146,-0.07999186,-0.03360965,-0.00205629,0.07109753,-0.00489538,-0.07406402,-0.00068604,-0.07886487,0.00641627,-0.08884870,-0.02698488,-0.09721702,-0.01065384,-0.05996856,0.02953750,-0.00907455,0.05272370,-0.04121114,-0.10127028,-0.03757819,0.01912990,-0.03291125,-0.13105121,0.06002136,0.04949079,0.01931834,-0.03867498,-0.05336412,0.04555432,0.03501658,-0.08194760,-0.14558685,0.06153577,0.00868341,-0.03157425,0.02100655,0.01915576,0.05257599,-0.06086089,-0.02291708,0.03334472,0.06969900,0.01167873,-0.05768096,-0.08887725,0.05417175,-0.05832754,0.05130065,-0.13594541,-0.04989741,-0.01202500,-0.01792946,0.02882637,-0.11924671,-0.11080051,-0.06590575,0.00569487,-0.07777649,0.02165440,-0.00992999,
-1.06767476,-0.13267887,0.08404693,-0.06459417,-0.48113096,0.13462389,0.54474449,-1.09361660,0.03838267,0.68268389,0.44659239,-1.85774505,0.93065745,-0.68210590,-0.37135220,-1.21386957,0.04321243,0.79918587,0.81744111,-0.10313898,0.38238582,0.92714179,-0.40106061,-0.80834317,0.60063046,0.61115634,-0.39964381,0.96412349,-0.11221215,0.70386064,-1.15296900,-0.03983164,-3.10434937,-0.21761334,-1.21766818,1.24697113,0.30126783,-0.80552965,0.28813264,2.02684116,0.86903691,-1.18596971,-0.68547672,-0.12847744,0.85575986,0.16844566,0.87502509,0.75074184,-1.02240300,0.52107435,-1.70269573,0.02688762,-0.25354627,0.77054507,-2.30285740,0.10932633,0.41849452,0.87155896,-0.61454451,0.04994459,0.04082187,-1.99497640,1.04077756,-0.72656810,-0.21027163,1.24529767,0.23624134,0.05148482,0.44826171,0.59292775,-0.47996530,0.94149482,0.72650421,0.06800357,0.60460371,-1.57628810,-1.03370380,-3.59990311,0.43872616,0.64236099,-0.14170896,0.57195455,-1.36218107,-0.74753714,-0.19235703,1.40504706,-0.41378635,0.85255158,0.64221650,-1.79393554,-0.89825720,-0.38875824,0.79167682,0.39868262,0.52058196,0.83052945,0.37922785,0.60181975,-0.58323884,0.29694241,-1.65900171,0.43126732,-0.08848868,0.03706855,0.10066995,0.29931346,0.18057536,-0.05008789,-0.49376306,0.34304252,0.64963061,-2.25307393,0.10148621,0.24891330,1.17190790,0.97356153,0.01536741,0.40671569,1.01077247,-1.25105810,-0.52424550,-1.77292776,-0.14074890,-0.15106192,1.26817369,-0.52887559,1.44768226,0.69912785,
0.25395995,-0.06915050,0.12076242,-0.61413234,-0.17786336,-0.28368226,0.35335398,-0.20781775,-0.14146174,1.30089450,-0.25317314,-0.03659728,-1.30785418,-0.30779859,-0.44584945,0.47889003,-0.52407813,-0.17360312,-0.80780810,0.16005683,1.24732351,-0.70280164,-0.07739068,-0.48275051,0.63167197,0.49739692,0.17152406,0.84448355,-0.14414179,-0.52042615,-0.34916699,-0.10259007,1.00146830,-0.34060267,0.37953016,-0.50131804,0.35592398,-0.25283915,-0.80571502,-0.44844425,-1.46515584,-0.27025360,-0.14030857,0.11465754,0.13622290,-0.60207444,-0.51323551,-1.44784439,-1.42250681,1.21288204,-0.45940441,0.62736654,0.62493080,-1.73656404,0.77817404,-0.50921547,-1.26040161,-0.72612882,-0.33536017,-1.12244332,0.24576120,0.47920546,-0.48655280,0.29775575,0.34218976,3.92315316,-0.49559772,-0.08761772,-0.04258778,0.22062230,1.53171241,-0.29366809,0.33029145,-0.21550801,0.39977074,0.05990519,0.22631629,0.12721619,-0.60144877,-1.00533462,-0.01502645,0.36200127,-0.04986280,-5.19246101,-0.18776329,-0.63519210,-0.36097497,1.59958732,-1.31980312,0.76723671,0.33948469,0.19251871,0.20369522,-0.73853940,0.25416589,-0.77112019,-0.07308662,1.57271254,-0.13677664,0.58204496,0.34550273,-0.04482332,-0.20427103,-0.34554055,-1.24945128,-0.11066360,-0.38515946,-2.51484156,0.73390442,0.54027140,0.65047354,-0.49835157,0.02548586,0.32259092,1.00905108,-0.61739558,-0.28682238,0.48190868,-0.30851430,-0.50227803,-0.43940121,0.66262913,0.25012743,0.72001135,-1.30811822,-0.98436201,-1.04272413,0.46200323,
0.17875521,0.46827629,-0.00324325,0.10462641,0.17351241,-3.56764150,0.12799515,0.05260943,0.39119333,-1.98401093,0.04176690,-0.07774482,-0.22129594,0.03551122,-0.13174896,0.08806057,0.75382131,0.04836541,-0.52763247,-0.10079852,-0.31233990,0.55039376,-0.18454491,-1.48227787,-1.44089460,0.11260279,-0.33324757,0.60108829,0.23870933,-0.02984769,0.08291445,0.26535469,-0.03121827,-0.49018183,0.50686568,0.74010462,0.19455831,-0.07615686,-1.56470215,-0.05183296,-0.40060046,-0.20040163,0.59613621,0.35138896,-0.15099248,0.04940652,-0.18667604,-0.50467151,0.61674136,-0.20740205,-0.14380264,0.14131227,0.12818889,0.44503254,-0.45095998,0.03006638,0.11566690,-0.07792115,1.15681553,0.24072738,-0.80403328,0.08548625,-0.80806613,0.17053631,0.09314632,2.64889288,-1.13908041,-4.63546467,-0.00193665,-0.00748549,-0.81941187,-0.28544551,0.14246446,0.27271068,-1.42020190,-0.37054804,-0.06130504,0.08497783,-0.25153798,-1.18918824,0.58916211,-2.67672086,-1.56941104,-0.83286893,0.82593298,-0.13604380,-0.00519742,0.25305814,-0.48179483,0.48779583,-0.36357224,-0.35151139,-1.00790656,0.41229305,-0.27786857,-0.04898160,-0.69456875,0.26379952,0.52274442,-0.07909933,0.27212787,0.23890492,0.22696082,-0.60252291,0.00321149,-0.05084616,-0.69268113,0.26459193,-1.76600349,-0.21826725,-5.84931183,0.41497269,0.73883581,-0.86574078,-0.08768124,0.15569469,0.53411782,0.24216536,0.35117024,0.56741720,-0.38910922,-1.04944301,0.35886562,-0.17607997,0.10591713,-0.86862338,-0.15235944,-5.00143719,
-0.03614171,0.31687546,0.04528146,0.14200643,-0.26701602,0.07666187,0.11963602,0.25025329,0.30452269,-0.80061543,-0.47513911,0.17368965,-4.35404778,0.16566238,-0.23633355,-0.04537936,-0.02611890,0.08454880,-0.11583996,0.05531207,-0.48660424,-0.02075616,0.07793167,0.07889549,-0.27857906,0.20917986,-0.05360582,-0.18467905,0.01800084,0.07664055,-0.03403698,0.33816430,-0.02595429,-0.02618690,0.25133109,0.07568772,-0.15667933,-0.05071292,0.03003740,-0.16145231,-3.98211932,0.03695438,-0.13139148,0.00715696,-0.42100394,-0.05340219,-0.09922339,0.07913712,-0.20094553,-0.53442734,0.17174780,-0.47679615,-0.09116519,0.09907267,-0.02648372,0.15422440,0.11882457,0.06280631,-0.08911575,-0.17669405,-0.06335488,0.03425934,-0.87180483,0.06117698,0.09883010,-3.42241406,0.14332719,-0.15046330,-0.33693752,0.12568897,-0.33285734,-0.00313722,-0.19706014,0.46080440,-0.11729188,-0.15406904,0.02556998,0.20998871,-0.25334889,0.18738499,0.06512563,-0.27894530,-0.04492211,-0.12173688,-0.05559780,0.14196713,0.16986923,-0.80909508,0.01022807,-0.01529870,-0.13762061,-0.38707921,-2.97540808,-0.20189644,-0.00457667,0.53502166,-0.71779031,-10.86345959,-0.14389904,0.02706997,0.40887800,0.26595095,0.18853565,0.24814321,-0.09793624,-0.21632339,-0.01561836,-0.42739826,-0.53478950,0.03588594,0.11661042,0.23581584,-0.15005857,0.18777344,-0.73943424,-0.86477548,-0.23116878,0.14472303,0.04761870,-0.13342835,-0.19554567,0.08085983,0.09749351,-0.26147348,0.03775216,0.14938380,0.03890723,0.11978938,
-0.00724664,0.62231684,0.36055812,0.16023663,-0.26820311,-0.04483821,0.13403042,0.42016876,0.52361929,0.78303295,0.29417232,0.29092896,-1.74271345,0.07741790,0.12095883,0.08400838,0.13518086,0.15836895,-0.20104311,-0.00989393,-0.72640610,-0.25444320,-0.03091880,-0.31585819,0.07973445,-0.28316063,0.04409366,0.59291190,0.12515195,-0.09542944,0.18016857,0.40966758,0.16743465,0.12516311,0.51550227,0.04489632,-0.07445678,-0.06518979,0.54720932,0.36167893,-2.33753991,0.31153825,-0.23721467,0.24618055,0.00227108,-0.14927842,-0.26013604,-0.42330214,-0.12549266,-0.27034864,0.21934776,-0.29075393,0.38591102,-0.32944170,-0.37820479,-0.03284226,-0.24577320,-0.03133528,-0.15709025,-0.40721831,-0.16641483,0.20868497,-1.23695648,0.31567913,0.19901910,1.76260757,0.65843517,0.29217127,0.01381159,-0.02978984,-0.11893335,0.22814527,0.06496410,0.48110631,0.11333887,0.02436747,0.35410684,0.27278757,-0.44782677,0.32509211,-0.25055099,0.58185691,0.24451965,-0.40294394,0.09205283,-0.27709752,0.00890093,0.16991772,-0.55003411,0.25138369,0.05030945,-0.06305321,-0.87289530,0.17320418,-0.12978169,-0.25526860,-0.14235291,-0.62907898,0.19616415,-0.08319450,0.51396137,0.17229748,0.26680973,0.30688301,0.06289703,-0.03359328,0.35467672,0.13940333,-0.50448930,0.02825080,0.50169724,0.54643357,0.01191411,0.27502897,-0.27881217,-1.05455935,0.17136733,0.27316374,0.10081189,-0.03926037,-0.65175962,0.01505345,0.22257032,-0.08898830,-0.56543350,-0.18197173,-0.11764520,0.15370935,
0.09763167,-0.04600861,-0.28237402,0.28844440,0.21542569,0.84041840,-0.19271924,-0.35417837,-0.19213909,0.17517945,2.29299331,-0.04789735,-0.85978156,-0.47814265,-1.10365403,-0.06422280,0.93054217,-1.50116301,1.48116577,1.48871338,-6.56230211,2.72234750,0.27927300,-0.91929942,1.99562657,1.25412512,-0.00432821,-0.14471138,-0.72102606,-5.58315992,-0.67749012,-0.06387624,-0.12802997,-0.26150513,-0.59477222,-0.75289702,-1.31586576,0.41144106,1.46916473,0.47482216,-1.04245079,1.07505906,-0.39716840,1.59613872,-0.16713770,0.92499739,-1.91038370,0.61930603,2.16209626,-0.49505877,-0.26578933,-1.16868353,0.21840963,0.33941594,0.47839037,-0.18730688,-0.45634758,0.68120611,0.00926390,-0.20925175,2.85947466,-0.35543424,-0.53282386,-0.29354972,-0.29186016,9.87523842,-0.01686358,2.85182166,-0.01998501,-0.45124295,1.47454250,-0.80113208,1.76691461,0.03037500,-1.08309686,0.47172457,0.16418220,-0.19197001,0.29367056,1.15682137,1.43426692,0.25974116,0.29158941,1.47710538,-2.18450165,3.03698444,-0.04053512,2.50681400,0.45849240,-0.56566173,1.48691452,-0.72288948,-0.22928332,0.85818624,0.32366055,1.60201991,0.93788433,-2.32445145,0.80173916,0.60558820,-0.37572375,-0.12231696,-0.08043759,0.13542041,0.61524135,0.09447157,2.32709980,0.90554637,0.05446615,-2.64916682,0.75092340,-0.25525188,-0.56411839,0.68850523,-0.29539776,-0.97087097,-1.77058280,2.01583862,-0.87315363,0.91678387,-0.18554722,1.37936556,0.70745909,1.19683492,0.11650652,0.56721240,0.45106390,0.49404523,
-0.63854188,-0.61752367,-0.51682776,0.35052553,-0.18915236,-0.43381292,-0.22698252,0.47056234,-2.49106407,1.90866637,1.36674476,0.32999876,-1.07533205,-0.29133114,-2.01634359,-0.22680880,-0.26145110,0.72070819,0.10058563,-0.06463457,-0.84179503,-1.50322175,-0.02736126,-0.64159346,1.26964319,0.47455251,0.35806319,-0.95211053,-0.28583476,-0.51231891,0.08868397,-0.25280547,0.19814119,0.63558602,0.42129222,-0.33847970,-1.99376404,0.68390256,1.08126009,0.54305965,-1.29002845,0.88651025,-0.78811342,-11.18551064,0.39158577,0.13809139,-1.88653326,-0.93162036,0.36328363,0.02714443,0.51105851,0.10386820,0.07215627,-0.82124817,0.45019215,-0.29512024,-0.57714576,-0.24511978,-0.43853632,-1.64988613,-3.97609162,-0.25925645,-0.19472617,0.03435968,5.10690737,0.42118129,0.77190208,0.80507350,-2.36112380,0.22101873,-0.72840130,0.26231080,-0.08757827,-0.76548308,1.17000854,1.08875608,0.21415141,0.32206002,0.07000451,0.82542473,-0.87711942,0.92957181,0.67844743,-1.99399960,-1.58673596,-1.04145968,-0.07381721,-0.69326401,-2.06417084,0.19590575,0.20083281,-0.93886739,-0.16101721,-0.71004754,-0.02024321,-1.38942444,0.94093251,0.68572485,-0.31272298,0.47690260,0.51300353,0.14766638,-1.07919884,0.53181136,0.20286037,-2.23763323,-0.09302334,-0.01075374,0.08257475,-0.45233890,1.04144442,0.29416084,-0.44040084,0.27071741,0.39030150,-0.46259320,0.31953835,-2.36721206,-0.68233413,-0.71147758,-0.04516741,0.53728145,1.97381508,-5.07769823,-0.83572346,-0.20426486,-0.23380363,1.37012947,
-0.19237849,0.01721123,-0.05984696,-0.10930046,0.15934268,-0.12039526,-0.12445910,-0.09838094,0.00209265,0.04016235,-0.09856184,0.00622283,1.52293205,0.14376478,0.16712235,-0.27676031,-0.08851972,0.12102555,-0.25031793,-0.25089058,-0.32578385,-0.03867652,-0.07791001,0.08421340,-0.18480869,0.06577803,0.18280749,-0.40706295,-0.00044013,-0.17848967,-0.31417298,0.06426945,-0.18829900,0.18460773,-0.25936455,0.13145316,0.01558167,0.05771272,0.08573793,0.23880117,1.37549019,-0.18154520,0.03602380,-0.06225717,0.13630773,-0.03162530,-0.37793705,0.02390997,0.07182688,-0.19784874,-0.04045306,-0.31159237,-0.20118281,0.09051574,-0.34960917,0.11716322,-0.17759398,-0.26319680,-0.01042586,-0.15875801,-0.06819694,-0.09519006,0.06685207,-0.33683762,-0.08715023,-0.22307107,-0.10853663,-0.21732175,0.05518590,0.02790082,0.17192009,-0.25428322,0.09857082,0.07211106,-0.13665517,-0.18415892,-0.16433781,-0.26618591,-0.13134630,0.02703841,-0.05262398,-1.88553011,-0.20419906,-0.31950977,0.19068968,-0.16721556,-0.27059156,-0.34007218,-0.05251452,-0.12784091,-0.05776500,0.03053219,-0.32110649,0.41120294,0.23305491,-0.02105110,0.55092996,0.46150279,-0.14257269,-0.02595037,-0.20620692,-0.00562249,0.00657809,0.02227306,-0.16741908,-0.06843682,0.03327918,-0.05905108,0.13678902,-0.13143925,0.33328632,-0.19398676,-0.20605239,0.00833872,-0.21860670,0.00145555,0.05378578,-0.17534508,0.01182102,-0.45800906,0.18741079,-0.17810760,-0.07606155,0.11539170,-0.00967184,0.08536412,-0.22612032,-0.21099372,
0.00996802,-0.71030390,0.26994592,0.17806450,0.37238649,0.90213835,-0.07170623,0.17868176,-1.48000813,2.82955003,1.75352120,0.38001072,-1.21895635,-0.16770260,0.05798863,-0.10310768,0.41426411,0.05101058,0.87474090,0.36291316,0.57021528,0.21088332,-0.32820001,-0.26089472,0.40371156,0.18710162,-0.07494549,-0.29622814,-0.50914609,-0.64231700,0.44914553,-0.58934611,0.13861254,0.00352459,0.49210095,-0.08771003,-1.95221078,1.78197682,1.05212319,0.56405377,-1.25591421,0.15202717,0.10352951,-1.33717191,0.68277037,-0.03916922,-0.19843099,-0.80297148,2.02048349,-0.11961925,0.42022455,0.47954521,-0.56455904,-0.79184484,0.14184253,-0.63609529,-2.24073052,-1.14279699,0.02145363,-0.55716389,0.52209175,0.00525884,-1.18404782,-0.02977999,-10.14742851,0.60480261,0.70253086,1.18230474,-2.44010401,-0.12399030,0.40366349,-0.23063771,-0.06243900,-0.89594221,2.31172943,0.18259393,0.33125997,-0.11001497,0.88055587,0.37398082,-0.31570596,1.37698448,-0.07036600,-0.65489388,1.08123541,-0.60065573,-0.33142349,0.17621581,-1.70583570,0.20832871,-0.12668778,-1.12024331,-0.05258006,4.40254784,-0.00943819,0.23680474,0.42671874,0.76187795,-0.17222804,-0.13014248,0.60193926,0.10629580,-1.09971023,-0.16134989,0.54135156,-0.39217958,0.79707646,0.59736019,-0.30026227,-0.09363141,1.65552044,-0.06652847,-0.84277374,0.32255128,0.50182474,-0.83863479,0.60637701,0.25382853,0.18046221,0.11210051,0.33909497,0.00866652,0.08456330,-1.96817708,-0.63595706,0.58399010,0.06018268,0.92466617,
0.01535068,-0.00068190,-0.06520800,-0.02936810,-0.01788036,-0.09742261,-0.05518559,-0.09908493,-0.08156527,-0.05107620,0.07010475,0.03832921,-0.05739745,-0.00457815,-0.08115212,-0.07671545,-0.10839122,-0.07680281,0.05028201,-0.07635812,-0.03069060,-0.04277291,-0.09915280,0.02688602,-0.01731452,-0.01644797,0.02930157,-0.03586861,0.04740956,-0.08060737,0.02785950,0.01209567,-0.10006963,0.08526147,-0.03465338,-0.03467257,-0.08005965,-0.03677934,-0.07539329,0.02845324,0.02655638,0.04610014,0.06783896,0.02602262,0.05546644,-0.05044159,0.05111047,-0.02166882,0.02795627,-0.00702443,0.00047679,-0.05429258,-0.00068188,-0.07924946,-0.08712399,-0.06095684,0.04965980,0.04944328,-0.10802989,0.04115195,-0.02308816,-0.00993984,-0.10310904,-0.07301070,-0.00703703,-0.02418822,-0.01868752,-0.01096278,0.05831472,-0.04241624,-0.00905305,0.02201995,-0.06780756,-0.04495907,0.03453639,-0.05708821,-0.01256338,0.04191352,-0.09260882,-0.04840103,0.05451221,0.04645246,0.06134896,-0.02134718,-0.04746371,-0.03329467,-0.07220608,-0.07638329,-0.00434260,0.01447064,-0.07087875,-0.03371015,0.04414891,-0.02373063,-0.06055641,0.05120763,-0.06899892,-0.08229072,0.04424338,-0.00886679,-0.07734645,-0.01798947,-0.04497270,0.03510265,-0.09221094,0.00236645,-0.00124974,0.04165255,-0.05592890,0.05041021,-0.05376349,0.02445405,0.00148204,-0.04470975,-0.02495007,-0.03756990,0.02576827,-0.10434304,0.05220166,-0.00028291,-0.01907551,-0.00138749,-0.04976930,-0.00930172,-0.07185762,-0.10408979,0.06994253,0.05838341,
-0.52948505,0.50833416,-0.24167694,-0.29768869,-0.86339790,-2.18446851,0.56464720,0.14623885,0.17818145,0.42090052,-3.48310256,-0.04397568,1.12317467,0.74872649,-0.08045974,0.01559996,-3.61062789,0.51871765,0.04167470,-0.30371505,-0.54352111,-0.10204308,-0.66865689,-1.29949057,-0.63185006,-0.13321270,0.64113873,-2.55224180,-0.75103360,0.18207709,-0.82831037,0.26880717,-0.19767934,-3.76221156,0.08897564,-0.07356685,0.14524704,-1.04990900,-15.23872089,-1.20793653,1.26260269,0.13370864,1.01401937,0.89102674,-0.83859837,0.02067624,-0.10481526,-0.42807135,0.84984654,-1.06221807,-0.09428547,0.60727930,-3.11652803,0.78951144,-2.54518962,0.15701221,1.53573215,0.58340532,-1.26405859,0.27124301,-0.51977575,0.42101297,0.18592086,-0.17278570,1.16322625,-6.66690493,-1.94617140,0.59412825,-2.56528139,0.24439988,-1.43357050,-2.18951058,-1.59657896,0.16566080,-0.08308060,-0.60395181,0.80424994,-0.10622427,-0.50269902,-1.65523255,-2.58663464,-0.11816883,-3.91032958,-0.19702251,1.33678079,0.01142596,-2.52563095,-2.82074618,0.03192807,-0.50965965,-1.77693403,-0.40069434,0.11756945,1.16872251,-0.47797555,0.50585562,0.61478937,-1.58687282,0.03144278,-2.91835093,-0.25142416,-0.25420693,0.13265286,-1.22103655,-3.77092314,-0.30562145,0.45116556,-0.58320808,-0.02846212,-2.94533181,0.28306606,0.36144978,0.56469113,-1.86737084,-1.42889512,-0.11261418,1.41443372,2.00004148,-0.05706722,-3.17362285,0.40276682,-0.99843198,0.78785378,-0.73171544,0.59859651,0.00568260,-1.28384590,-0.15744717,
-0.66740310,-0.39924982,0.09163257,0.87012297,0.34992033,0.66390878,-0.05894628,0.41669124,-3.05632305,3.43052363,0.60670966,0.04149689,0.79417980,-0.29162991,-1.00309467,0.18014497,0.18860629,0.23421790,-0.16103828,-1.57509375,-0.26318634,-0.09778314,-0.18808568,-0.44106513,0.52592903,0.74672532,-0.19975118,0.52810991,-0.21434021,0.38249049,0.23447718,-0.97781396,0.11669344,0.16225167,0.26180804,-0.88668144,-0.77778971,0.27826482,0.82025594,0.75705427,0.77516389,0.68574727,0.00856100,1.93781233,0.71409053,-0.44934765,-0.55220920,-1.52063847,0.73997194,0.35227740,0.05655188,-0.30441907,0.71855682,-0.93412715,-0.28497127,-0.69061756,-0.01013722,-1.23778367,-0.76817089,-1.42661500,-4.29916096,0.04314974,1.11548424,0.08161316,1.22810912,-0.32142672,0.67884088,1.52792704,-0.35486501,0.41364184,-0.16883028,0.23672999,-0.19725884,-1.26604283,0.59444612,0.53483200,0.36089501,-0.09745832,-0.49126843,-0.09170089,-1.41823554,2.54309845,-0.16676451,-12.23071575,-0.12861146,-0.02699065,-0.04614377,0.05325995,-1.90392518,0.14336976,0.24347155,-0.13818662,1.13461375,1.29039896,-0.80049700,-0.88687533,0.64318562,-0.03379571,0.52019793,0.04966180,0.02502456,0.84861779,-1.73177934,0.09127110,-0.03193753,-0.03703035,1.04878223,0.31448185,-0.38121921,0.34664223,0.84487468,-0.00520436,-0.69981110,-0.30347332,-0.53124279,1.21966565,-0.25246000,-0.01670251,-0.18973900,0.34105608,-0.92965764,0.05696818,3.14770436,-1.15764880,-0.20978582,-0.90873152,-1.92989016,0.87678832,
-0.18655847,0.58338326,-0.02012861,0.13913421,-2.74721861,-0.28986189,0.70187926,-6.61702538,0.89448583,0.23071459,-0.20415892,-2.96151853,0.07784960,-0.83364576,-0.13470949,-1.63995647,-0.05434527,0.47375658,0.73837727,-1.16934061,1.23575532,0.48916447,-0.22019604,0.84301519,-0.71897095,1.40436232,0.87349570,0.45482919,0.00096279,0.65688777,-2.79516530,0.27534217,-3.64912844,-0.00298459,-5.36960459,0.92885399,0.53751069,0.06651287,-0.25699681,-4.00362682,0.17864242,0.41637355,-0.23488742,1.14823210,0.36262670,0.25420287,1.17070508,0.62544334,-0.98879778,1.22251046,-1.68742955,0.40718663,1.00567913,-0.16692777,-2.25489354,0.05728888,0.76937342,0.33009887,-0.06639016,0.58900225,-0.56291431,-0.10565587,0.07839094,-3.23128128,1.02958131,1.74309635,-3.44207239,0.04962383,0.31981823,0.29484183,-0.23947214,0.54668885,1.50567758,0.61493886,-0.00325034,0.39210880,-1.14199769,-3.04371500,0.95877784,0.49852067,0.12731908,0.06488511,-1.40668035,0.41519713,0.13545226,-1.12021947,0.22895075,1.48912823,0.74572843,-0.62261039,-1.21036184,0.07988555,0.01582052,-0.31846729,-0.61277348,-1.11793077,-0.03993323,0.39261791,-1.02307308,-0.39477617,-4.24605513,0.04267072,0.71336794,-0.98628789,-0.24105421,0.46592352,-0.15598819,-0.29676926,0.23453738,0.95353955,0.01294934,-5.55201435,0.33204472,-0.97250754,1.42575550,0.04767842,0.13519377,0.28439105,-0.24596269,-1.89591193,0.10568161,1.30698049,0.53779483,0.84377056,0.58452016,0.39543620,-1.85765421,0.30151621,
-0.55584788,-0.36367446,0.57470471,-0.12784892,-0.35027248,-0.06382319,-0.52602601,0.31184733,-0.57848918,-0.41199696,0.58378613,0.05761629,-2.02381015,0.02351676,0.06592365,0.03837529,0.26048386,0.42210239,-0.79081017,-0.85267860,-2.11283994,0.29717013,-0.58197486,-0.02373680,-0.14663026,0.17033438,0.03888337,-0.77215737,-0.01271320,-0.02614648,-0.33869389,-0.49582228,-0.01722510,-0.04029037,-0.10263758,0.02613151,-1.84574747,-0.02071953,-0.26355869,-0.04587635,-2.05329704,-0.23273101,0.10847855,0.31300792,-0.02419751,-0.62329918,-1.09214294,0.22737949,0.00360337,-3.92199993,-0.25888923,-0.84701699,0.07377446,-0.02996892,1.75503647,-0.16939965,0.32161158,-1.12716031,-0.09691411,-0.49498603,-0.47368267,-0.65086436,-1.70267677,-0.85850930,0.43594021,-2.72268796,0.52805078,-2.10199380,-0.56833953,-0.96753395,-0.33657202,-0.00872300,-0.63269782,-0.36476195,0.54791307,-0.02695261,-0.81474519,0.11020383,-0.26173180,0.25810698,0.03877375,-2.03315806,-0.20596455,0.45458576,0.46596128,-0.12746070,0.42311785,-1.41175032,0.18704347,0.00489513,-0.22767986,-0.28474763,-0.32145989,-0.70749176,0.23304622,0.28771058,0.09890173,-0.99570918,-0.07705480,-0.74449748,-0.22092611,-0.99705434,-0.22465847,-0.39792284,-0.23669490,-0.69923037,-1.40638888,0.78931165,-0.16934559,0.23018745,0.66660613,0.01872345,0.04900188,-1.52920210,0.34273845,-1.02908719,1.64467585,-0.58346421,0.68674666,-0.15014887,0.01848148,-0.22239526,0.33083186,0.30171359,0.04764924,0.04241787,-0.18405885,-0.70299411,
-3.01037908,0.64394265,0.44186902,0.46724391,3.18811679,0.49998987,-0.38254803,-1.10747540,0.33545056,-0.16727427,2.95653343,-0.60478371,0.01321828,1.14810145,1.49184394,-0.92396235,-10.57930565,-1.16857040,1.40767848,-3.96720743,-0.44216603,-1.17036009,-1.98614430,-1.34981728,3.74606729,-1.07922649,0.91333455,0.79873180,-0.14183217,-0.21339387,-0.05900135,0.20527548,0.38832137,-7.59502459,-1.17293000,0.24235557,0.64741802,0.67083257,-3.46113443,-0.01591228,-0.00621873,-0.17677742,1.45550513,0.59190041,1.85810852,-0.66487384,-0.24385719,0.12376338,2.18063354,0.00078807,0.32038048,-0.39054203,0.36026061,0.49927050,1.97785044,0.44836679,2.51571202,0.38816598,-0.28998545,0.52274579,2.34493136,1.69519556,-0.33834663,0.35891154,0.39535907,-6.12823248,0.24110717,-0.30307892,-0.35730723,-0.74921447,-0.22028342,-0.77110702,-0.60676885,-0.09925862,-0.00371955,0.68747127,1.07347023,-0.06613896,-2.07819271,-3.90584064,-4.54888868,-0.79565167,-10.94152641,0.87188244,2.14104533,-1.04832697,0.19579619,-1.24201739,1.08251882,3.04704475,-0.73154956,1.60635865,-0.11674140,1.69951391,1.13151753,-2.00716949,0.51119763,-4.09981918,0.12135266,1.31591654,-1.08803427,-0.21725640,0.22835654,0.13594854,0.14588295,-0.44825959,-1.47675180,2.22254896,0.24247603,0.15962480,-0.35534522,-1.02763915,0.51385450,-1.06180716,-2.92151117,-0.62217724,-0.40043631,0.90173513,1.14707768,-5.41551399,1.98444271,-2.00830913,1.82290363,0.15163244,-0.05683080,-0.43480569,0.43822196,-0.84016764,
-0.24381763,-0.06508167,0.11415441,0.23965423,-0.47430086,0.12139225,0.37187421,-3.11556983,-0.17438544,0.07521438,-0.11561727,-3.41897631,0.01214353,-0.35507780,-0.07328241,-1.62698936,0.08179747,0.20390023,0.09417585,-0.30443755,-0.07828895,-0.02680980,0.14346859,-0.44461414,-0.67242116,0.69299287,0.00646939,0.32485279,-0.36115423,0.06223091,-1.75911367,-0.12661846,-2.94739056,0.19451746,-2.86579299,0.17013645,-0.03765845,0.29833224,-0.12260123,-0.13241437,0.16656245,0.20024414,-0.23103254,0.32947609,0.14475435,0.14356290,0.15631837,-0.75509566,0.38716170,0.07714203,-0.34683004,0.18036833,0.35494846,-0.70568150,0.07623298,-0.12874933,0.23650505,0.12917419,-0.12263473,-0.47102448,-0.05135908,0.10144996,0.09283721,-1.31870639,0.10707793,0.50244653,-0.13195641,0.10985509,0.03578237,0.08190458,0.18127282,0.17154960,0.11852413,-0.27126253,0.05780334,0.48099530,-1.14245868,-2.74817801,0.02188912,0.31027117,-0.38341546,0.02565212,-0.49529842,-1.95091844,-0.16899833,-0.06833516,0.47376311,0.18517105,-0.97373670,-0.37916514,-0.06574677,0.02589436,-0.01610044,0.23190549,-0.88344127,-0.30029106,0.01271916,0.79163718,-0.67150295,0.18088052,-3.50427032,0.03786331,-0.16185771,-0.02966194,-0.24584302,0.08396097,-0.06386525,0.27718034,-0.49443597,0.48634949,0.14644925,-3.38448119,0.19153273,-0.17094499,0.07572833,0.11435723,-0.39936900,0.43005803,-0.19558878,0.18276505,-0.29787669,-0.28035623,-0.01705578,0.26173392,0.03271699,-0.27994844,-0.88452190,0.12916185,
-0.09343836,0.00229031,-0.03915990,-0.03813534,-0.03483493,0.00385689,-0.00117904,-0.06426791,-0.00168430,-0.02152689,-0.05036249,-0.07486887,-0.08339551,0.02997217,-0.05648182,0.00496358,0.01339247,-0.03350858,0.02047104,-0.04677070,0.02751379,-0.10275503,-0.07360230,-0.01537844,-0.01849194,0.03008697,-0.02888601,0.02285027,0.04720561,-0.03786559,0.02825386,-0.11880225,-0.12084105,0.04573386,0.04172503,-0.06552605,0.01391106,-0.12094931,0.06746650,-0.01817124,-0.03762218,0.02161064,-0.05685778,-0.06503790,-0.04119299,-0.12023074,0.04239434,-0.08850772,-0.07870723,-0.02038890,0.04617308,0.01440645,-0.07418890,-0.03209214,-0.11631907,0.00654685,0.04320097,0.04019498,-0.03053129,-0.03045733,-0.01797437,-0.07866826,0.01900059,-0.10555571,-0.09192830,-0.04931788,-0.00731428,-0.07588868,-0.04811408,-0.09906022,-0.08294624,-0.09109654,0.01390514,0.02251283,-0.06402963,0.02877216,-0.04626268,-0.08851600,0.02278281,-0.09644606,0.01727823,-0.01960589,0.00011475,-0.06753352,-0.00266585,0.00518530,0.00192100,-0.08649834,-0.11625627,-0.07067586,-0.04540122,-0.05124323,-0.07363900,0.03784594,-0.01975359,0.02745775,-0.03556019,-0.02480602,-0.07414220,-0.09881166,-0.08953838,0.03735492,0.00668955,-0.03405270,-0.07848654,-0.08588782,0.07569020,-0.03137963,-0.10750153,-0.01574633,0.01743294,-0.02696581,-0.11940970,-0.10359950,-0.06450902,0.03244943,0.00044113,-0.06421337,-0.07496014,-0.08030735,-0.11852880,0.02280394,-0.00155533,0.01236516,-0.08042175,-0.06426515,0.01795649,-0.04828690,
-0.10926976,-0.04407453,0.00114657,0.07080283,-0.28411406,0.02754804,0.00778235,0.00277557,-0.15462151,-0.12979974,-0.04718389,-0.05459356,-0.01627902,-0.25734490,-0.13830730,0.03101996,-0.12365344,-0.05140867,-0.12221752,-0.15863489,-0.03660814,-0.11759918,0.05132961,-0.30500734,-0.01816760,0.01517987,-0.09914480,0.01316072,-0.10675798,-0.04175026,-0.13502298,-0.12260383,-0.08864229,-0.11982188,-0.06794237,0.02638170,0.02924268,0.03479182,-0.01948279,0.04690235,-0.04595666,-0.00690436,-0.01973120,0.00494170,-0.15400523,0.06312334,-0.09429313,-0.25631639,-0.24108502,0.04164309,-0.09232557,-0.12096004,-0.13087600,-0.20651494,-0.06330511,-0.10682277,-0.11448372,-0.02189054,-0.14577071,-0.21003659,-0.09586977,-0.13217311,0.02046775,-0.20343289,-0.08135516,-0.01707287,0.07960724,-0.05485961,-0.07075009,0.02314444,-0.25077900,-0.15889049,0.04541294,-0.00391362,-0.07355575,-0.18000285,0.00684823,0.04074333,-0.19910480,-0.05805011,-0.05027530,-0.05153406,-0.15775748,-0.14169194,-0.09787275,-0.03657513,-0.12681669,-0.05741322,-0.12290930,0.14808457,-0.30580166,-0.10091420,0.05980916,-0.10611665,-0.13615330,0.02834553,-0.01206040,0.02116596,-0.01579541,0.17036532,-0.04228970,-0.07953198,-0.11097430,-0.20988840,-0.28246978,0.01419560,0.13357951,-0.27585924,-0.08189777,-0.08891205,0.07398169,-0.00927227,-0.14254543,0.03360135,-0.10470839,-0.00340307,-0.17290093,0.04366158,0.14024223,-0.17011422,-0.17750594,-0.05011506,0.02861404,-0.02975263,-0.13863254,-0.15875214,-0.12314954,-0.05331400,
0.72491783,-0.50262463,0.45573103,-0.49217850,0.48989397,0.32732910,-2.01297617,-0.03116043,0.04366593,1.94134939,1.15423322,0.43615746,-7.33299780,0.15541753,0.99227965,-0.01305041,0.66179103,-0.88200539,0.60887170,1.55636621,-0.28615746,0.14882754,-0.36808100,0.51113868,0.28697720,0.00265782,-0.03588581,0.33812007,-0.56456500,-0.34575123,0.06175606,-0.12575996,-0.20496315,0.03210999,-0.43598953,0.67941511,0.92876047,-0.57057625,0.01634097,-0.23462102,-7.45562744,-0.31254616,-0.09491319,0.89244825,1.95070982,-0.58408350,-1.73186719,0.69756937,-0.76030219,-0.22915889,-0.23822747,1.25728154,0.37370780,0.85573816,0.30208471,0.04051901,-0.46122837,0.43890804,-0.18833265,0.26606283,2.76306772,0.15371965,-3.24987626,-0.02108611,0.46395987,0.96078789,-0.33617505,1.13954067,0.69092226,-0.32316595,0.79600441,-0.64018524,-0.90552306,0.14061962,0.31444305,-0.55971408,0.04291960,-0.14899349,0.36710396,-0.20242704,0.44851279,1.22650266,0.23676045,-0.00290997,1.43479800,-0.41674137,-0.73805118,-0.34005323,0.30203167,-0.05020396,-0.11767030,0.98889595,-2.06424952,-1.18766940,-0.20597424,-0.13426059,0.89795011,-2.32844281,0.43700716,-0.05103533,0.33740991,-0.59860247,0.20536517,-0.14074053,0.34166563,0.14591895,0.96840256,0.30962697,-0.17909004,-0.00914399,-0.46848470,-0.46854365,0.17049165,0.28801042,-0.83168542,-2.28538942,-0.17533000,1.84877992,-0.09315952,0.34121788,-0.04436085,0.54347426,-0.69040322,-0.79946458,0.32784691,0.05650990,1.19464016,-0.37384096,
-0.23700592,0.03724162,0.32100219,0.46777973,0.27390763,0.51477969,0.28614855,-1.90211558,-0.15118061,0.17183876,-0.83866739,-1.71559966,0.03166534,-0.96548581,1.31118953,-0.69343120,0.01917519,0.09005503,1.13642442,-0.49007666,-0.23686318,0.64570755,0.49797696,-0.33907512,0.69860250,0.03022711,0.42694792,0.42030630,-0.40865570,0.69730443,-0.47804546,-0.12644409,-1.63862801,-1.72367263,-1.21730602,0.06611561,0.04990176,1.30081475,-0.29120973,0.18629782,0.05289720,0.18138096,0.67858982,0.40807188,0.21187887,-0.12904502,0.68387461,-1.02284968,0.41655239,0.01927065,-2.20394754,0.41078436,0.62980437,-0.33020216,-0.45256963,-0.33344933,0.08235174,0.91279721,0.08797105,-0.12829411,-0.23609810,-0.75243819,0.15069787,0.22583261,0.20906787,-0.39605546,-0.91008008,-0.01432970,0.32095668,0.28562370,0.15130220,0.79553956,-0.03500453,-0.14619783,0.04717537,0.11972545,-0.41520777,-1.04527438,0.12913042,-0.08987778,-0.66537988,-0.00122412,0.64188737,-2.24445033,0.69131553,0.18402795,0.62599218,0.40925872,-0.54499680,-0.23100126,-0.27600425,0.02429374,0.00620131,1.07552767,0.71458513,-0.14376806,-0.03542496,2.91762543,-0.40072525,-0.03852334,-1.22009957,0.78258020,-0.39794037,0.71856564,-0.65013880,0.40452191,0.10589910,1.78709269,-0.65536803,1.45268786,-0.41293344,-1.67896175,0.53418404,-0.05762858,-0.16396864,0.08769304,-0.24072982,0.27376148,0.78757620,1.18398333,0.11937442,-1.10345721,0.03469170,0.51799119,-0.27871665,-0.74752331,-1.27015245,0.01675636,
-0.28450978,0.35093668,0.05211261,-0.00721553,0.02954243,0.03876334,0.07605294,0.16326669,0.39136180,-0.33609527,-0.81813276,0.05542525,-4.24404716,0.13756797,-0.01278103,0.12987438,-0.05451816,0.03341154,0.16309460,-0.09114380,-0.34393752,0.23790027,0.06645323,0.22892015,-0.19755659,0.05336783,-0.15037811,-0.56106418,0.02320053,0.35534963,-0.13870747,0.27653816,0.12636887,0.16558529,0.29248080,-0.23324716,-0.31251299,-0.02941891,-0.22745806,-0.28953761,-4.33759356,-0.04640214,0.22787076,0.36979264,-0.42373821,-0.14091600,0.19471087,0.28467605,-0.13023418,-0.23049085,0.23746543,-0.23499788,0.09672146,-0.04109363,0.41077375,0.12299757,0.16415527,0.05872843,-0.13219997,0.21536566,0.04417635,0.08685666,-1.72046947,0.09070131,0.23644695,-4.18347120,0.03242753,0.00840521,-0.20422386,0.16070057,-0.63166660,0.03926812,0.14584804,0.43612182,0.16563208,-0.14674193,0.06029006,0.18253267,0.26391184,0.02619959,0.06345496,0.17313498,-0.24870357,0.44908625,-0.23148765,-0.31260133,0.26881886,-0.82121521,0.23484230,0.06066735,-0.61062425,-0.08285698,-2.87592483,-0.18924075,0.16545093,0.36361253,-0.36063746,-22.14828110,-0.31358746,-0.17968459,0.35019949,0.51829582,0.15843485,0.27277070,-0.08594593,0.02093069,-0.23687322,-0.28089854,-0.28940558,0.37930486,0.32278699,0.22711672,-0.18859573,0.00524391,-0.59408301,-1.43259823,-0.02407568,0.12692738,-0.58572584,-0.02712687,0.01938132,-0.05685140,0.21627758,0.39615089,0.14430048,0.11546704,0.30976275,-0.10992278,
-0.02585718,-0.05224277,0.01461209,-0.02736244,-0.08088318,-0.05364082,0.05562645,0.03731132,0.04905557,-0.01959221,-0.03707620,-0.03054994,-0.04011196,-0.01084550,-0.06557208,-0.03460291,-0.09432717,0.00102255,0.04623453,-0.00712938,-0.07754175,0.02126432,-0.04644940,0.04538855,-0.04765787,-0.05745570,0.04725900,-0.06770805,0.00059581,-0.10935166,-0.07387411,-0.06538048,-0.07189640,0.03439510,0.01247921,-0.04501079,0.03449770,-0.02884517,0.04613275,-0.03324800,-0.02213046,-0.04130928,-0.06961682,-0.01258289,-0.07050455,0.03269063,-0.09149502,-0.03475415,0.06181693,-0.07741581,0.03538698,0.02853043,-0.01322055,-0.06530055,0.04899165,0.05898546,-0.07040863,-0.01878105,-0.03199763,-0.06055404,0.01716808,0.05172540,-0.02437934,-0.06530757,-0.02372310,-0.06612844,-0.07767543,-0.06421100,0.00554350,-0.11759161,-0.06864044,0.03603007,0.01986767,-0.12506886,-0.05555300,0.01277916,-0.03702500,-0.05642910,-0.09667968,-0.03501280,-0.06387183,0.02628539,0.01362529,-0.12234484,-0.05920515,0.01221640,0.02462331,-0.04697621,-0.11260156,-0.07297982,-0.05777341,0.01034496,-0.02187324,0.02282418,0.01551261,0.03860477,0.05857921,-0.06761691,-0.11118940,-0.02742728,0.02691353,-0.09844124,-0.00786457,0.02185563,0.01016807,-0.03323692,-0.07884169,-0.03520637,0.01537519,0.03510506,0.01101948,-0.07035525,-0.10336398,-0.08578888,0.04973967,0.04095721,-0.08093177,-0.10163636,-0.11987318,-0.02595222,0.04864803,0.02101149,-0.08778584,0.01244971,0.04798222,-0.04431285,-0.06676418,-0.11733564,
0.03630839,-0.09455349,-0.03799659,-0.05841846,0.03992084,-0.03852168,-0.05099729,-0.05004098,-0.00574272,0.04003586,-0.02841162,-0.08987240,-0.08631516,0.01193275,0.05034953,-0.07999561,0.04665092,0.03635790,0.02157164,-0.09439106,0.01890910,-0.07501237,0.03325221,-0.06118227,-0.06024812,-0.06438172,0.03813159,-0.06759378,-0.02618138,-0.03141825,-0.08923876,-0.04181693,-0.08147533,0.00180092,0.01519176,0.03579575,-0.07411198,-0.02624452,0.01585236,-0.08085551,-0.05277022,-0.07733447,-0.04768219,-0.00071851,-0.09836378,-0.02674969,-0.02731301,-0.05857731,-0.02741952,-0.02449101,0.05521730,-0.02928476,0.05047984,-0.03866569,-0.06623666,-0.01104558,-0.01563544,0.06507721,-0.07101730,-0.09762145,-0.08135755,-0.05038923,-0.03083029,0.04089361,-0.03945466,-0.05531052,-0.05025463,-0.01732674,-0.07087920,-0.08314632,-0.04807198,0.03551752,0.07266761,-0.09581083,-0.06576480,0.06423568,-0.02079434,-0.06401215,0.01236885,0.02297210,0.05078319,-0.00749465,0.03828866,-0.03711451,-0.01542489,0.04603066,0.03797843,0.02398349,-0.07757089,0.00060812,0.03261539,-0.01748517,-0.01965627,-0.08954341,0.05181001,0.02878308,-0.02091482,-0.06076468,-0.06333750,-0.06732414,-0.01098631,0.05319691,0.01142524,-0.02091076,-0.02484123,0.04743926,-0.00424612,-0.01150585,-0.02744127,0.03897933,-0.04936497,-0.03777583,-0.00635229,0.07405420,-0.06797791,0.00428066,0.01177560,-0.05497018,-0.05534969,0.04479731,-0.07681417,0.00474767,0.04427737,-0.09292436,-0.02890047,-0.01813250,0.02914895,-0.08198683,
-1.04217339,0.26990607,-0.29942435,1.10205150,1.79763865,-0.20182189,0.52349913,-0.09568754,-0.03634977,0.73337620,-0.40418637,-1.16001606,-0.16137208,0.66620147,0.57161289,-0.66542703,-0.80984783,-0.30880684,0.10050721,-0.21122932,0.22937049,-0.15017880,0.50713420,-0.92421830,0.89350128,0.54915309,0.90491593,1.27171040,-0.25182274,-0.23158872,0.37250876,0.18350486,0.01995739,0.97674710,0.30631229,-0.55197692,0.41728213,0.52374184,0.07993120,0.14483485,-0.07697064,-0.39222404,0.31298098,0.55336040,1.06324852,0.65716374,-0.09441485,-2.79725099,2.40741730,0.78243917,-1.45259869,1.13044357,1.44019866,-2.00045300,0.70022666,-0.41456613,1.21419954,-0.18665119,-0.17152272,0.05630852,-0.01904122,-1.42114127,0.72559673,0.54881948,0.35263765,3.60616136,-1.97813761,-0.22301507,0.51542634,1.04234922,1.73903275,0.45579311,0.61405259,-0.05932747,0.32269984,1.14942992,0.05710319,-0.52816629,-0.04827790,0.21807383,-0.54857594,0.02893122,0.61639237,-4.94511080,1.85283661,0.86681628,0.73876143,1.72305679,-1.46176684,-0.34480411,0.19856291,1.75350130,-0.19128573,-0.07435041,-0.94613934,-0.00935334,-0.10261072,4.57488823,0.97193128,0.90753400,-0.03548257,0.27464113,-0.12975712,0.37284940,0.10538904,0.53015846,-0.10595624,0.28016353,0.16184159,1.52800882,-1.44628906,-0.48055926,0.62366199,-0.41220471,0.51924515,0.10954434,-0.17519926,0.82932389,0.06992871,0.45240104,1.75047171,1.05506015,0.32760641,1.77047575,-0.98578686,-0.55316496,-2.74468851,0.37149116,
0.46108484,0.21952903,0.25344637,0.52567321,0.27134809,-0.98186368,0.54865873,0.05542822,-0.13514152,0.05830487,-2.10678840,0.12327681,0.19403304,-0.07904980,-0.03903291,-0.07859436,1.22167814,0.91512895,0.13219403,-0.88554293,-3.92514181,0.18777682,0.10690501,0.18010412,-0.60126948,-0.07556143,-0.62471086,-0.60323304,0.27712995,1.26877820,-0.28111881,0.02061810,0.19919175,0.44257504,-0.08151918,-0.16161227,-4.13497400,3.51916075,-0.73385727,-0.51423913,0.33125165,-2.08277822,0.93950903,-4.99998331,-2.15154839,-0.59363502,0.98695010,0.23854639,-1.52063751,-7.58968925,0.16740465,-7.10283089,-1.06414914,0.40700802,3.09419870,0.46444789,1.36099327,0.89841598,0.29232684,-0.18013404,0.07827407,2.07957482,-0.21378455,0.23547073,-0.66087019,-0.49773294,-0.00502659,-0.89422184,-1.29643488,0.27114588,0.28976321,0.66046840,-1.87986410,-0.03655723,0.51466638,0.54047716,0.55128032,0.20400482,0.64333791,-0.47647974,-1.32296920,-0.95212597,0.89735878,-1.06211710,-0.20492925,-0.08348378,-2.91415358,-1.24789250,-0.17346558,0.66067457,-1.18318307,1.23836458,0.32986930,-0.25983554,-0.18025421,2.78673530,0.43272734,0.47927952,0.76112723,0.68064916,-0.07317503,0.06296698,0.42960301,0.59967530,-0.36804983,-0.59973907,0.26169768,2.23917723,0.39189449,3.56210494,-0.06824269,-0.03341725,-0.95538014,0.43320101,0.46100742,-0.74218827,0.95319462,-6.86191177,-0.53511781,1.38960910,-2.61928082,0.02106913,-1.32831395,-6.58704948,0.45461553,1.31554770,0.45513788,-0.82128006,
-0.52572495,0.49211758,0.16702378,-0.07511165,-2.65130925,0.07387543,-0.03004018,-0.59632003,0.72737014,0.07871728,-1.37127244,-3.94950128,0.04291648,-1.02089870,-0.73872101,-0.28138822,-0.24038292,-1.46506917,-2.33925819,-0.78475845,0.86942190,-1.77700734,-0.70170820,0.51321977,-0.22754441,-0.02002762,-0.23286773,0.13805498,0.00155024,-0.39225814,0.15200147,0.28238583,-0.75522226,-1.58857667,0.18143544,-2.64640641,0.31381130,-2.33624601,-0.54748392,-0.72063845,0.02914432,-1.21144640,-3.85796309,0.42316127,-0.05758698,0.73197597,-1.42156112,-1.22779608,-5.63722944,1.02868319,-2.45926499,-0.92092568,0.24410401,-0.33923998,-8.30092049,-0.75200987,1.40759850,-1.24763441,-0.26543036,0.23486063,1.23218250,-3.26445222,0.00931512,-6.30085611,0.43576553,0.98303080,-0.25055626,0.10455712,0.10808834,-1.17743075,0.10050790,-0.98540074,0.43469334,0.26244342,0.04139558,0.68336612,-0.10825591,-0.02409223,-0.59023756,0.11854899,0.08111188,0.10057791,-0.14401335,-1.15408850,-0.35635790,-0.27014613,-0.80193967,1.12522101,-1.60020339,1.55070567,-2.02188969,0.45062074,0.10941261,-2.33664727,-2.05898380,-0.43260139,-0.05263587,0.18383430,1.35833800,-0.41161278,-1.51355731,-0.49515527,0.40880528,0.08726770,-1.52074718,0.04993084,-0.12677930,-2.02881002,0.49879029,-0.01754301,-0.98123223,-1.06575537,0.98641670,-0.25465998,0.61111426,0.05659082,0.12389543,0.59416109,0.66681153,-3.51037383,-0.10688756,2.14787960,0.46384645,0.92299372,-0.95878893,0.95019692,-2.75803256,-0.29437289,
-0.10242634,-0.08435044,0.10440999,-0.11408827,-0.17336620,-0.16466846,0.00195231,-0.76680601,-0.12768391,0.38168177,-0.06450866,-0.87512946,0.57279187,-1.07660055,0.55331486,0.12269256,-0.62552202,-0.09627087,0.26970094,-0.15711592,-0.10707475,-0.05545197,-0.19166933,-0.90585208,1.01451659,0.06466870,-0.13972387,0.45367453,-0.81046462,0.02653201,-0.84282929,-0.30602479,-0.54259157,-0.50357544,-0.36824921,-0.10373762,-0.33800319,0.43796822,0.01508574,-0.22276729,0.59467971,-0.09196506,0.18938309,0.29711929,-0.17330889,0.09213398,0.22818393,-1.08361661,0.06297684,0.12864104,-0.48988310,0.38191259,0.59909618,-1.22210157,0.15342093,-0.24174522,0.02359822,0.16707599,-0.33888635,-0.12470783,-0.05513518,-0.31269735,0.34638321,0.50011647,0.00288020,0.95413405,-0.21505858,-0.02944632,0.24295756,0.11882229,-0.04052953,-0.10138784,0.15457645,-0.23117785,0.11458234,-0.57858044,-0.20552227,-0.87885833,0.00522880,0.02470631,-0.97155207,0.36213335,-0.29535002,-4.27546549,-0.30064264,-0.04734164,0.33544117,0.31977949,-1.31190515,-0.53953373,-0.32517746,-0.32564157,0.33882418,0.62809449,-0.98846006,-0.59818774,0.16456082,1.47207546,-0.58585787,0.41803506,-0.76216894,0.60139382,-0.36251512,-0.05650083,-0.59466654,0.09080434,-0.31368244,0.26652285,-0.54190361,0.41736710,0.34288767,-1.22850132,-0.03665483,0.02059620,0.36096576,0.46866786,0.08089475,0.03210025,-0.07222915,0.24987333,-0.20702749,-0.18177468,-0.01742830,0.17081535,-0.39300400,-0.78756535,-1.26594353,0.58614296,
0.90775090,0.58910501,0.35393360,-0.66863704,-1.80475104,-0.14344926,-0.06751991,-9.57285118,1.25673008,0.03090897,0.00135124,-3.75294042,0.20414619,-1.69198561,-0.52553463,-6.60279465,-0.15168069,-2.02901340,0.08379382,2.20890141,1.79825771,1.16258371,-0.15981598,0.72084922,-2.13964057,1.12574828,-0.66533738,0.17222190,0.24265109,0.62452662,-3.94157600,0.50112402,-5.89810562,-0.09993351,-9.29446030,-1.62954473,0.85956514,0.15607178,-0.11155359,-5.98687601,0.04055642,-2.53841305,-0.26472118,0.36701256,-0.09220506,0.11048628,0.21740179,1.17684150,-0.85958892,1.63408363,-2.36050010,1.23450613,0.75270551,1.08617938,-3.75295973,-0.04336500,-0.43828541,1.73022878,-0.32913515,1.36626589,2.29692054,-2.50370979,0.05265592,-3.78990865,0.50856119,2.45593214,-3.80611110,0.02675234,0.28478533,-0.67266560,-0.36593875,-1.85407019,0.68099892,0.97714889,0.02250901,0.11699118,-2.79115105,-4.07198048,1.58918273,-0.37336984,0.18394563,0.11424130,-1.76079369,1.59717274,0.64821917,0.95906126,-0.28023452,1.75805032,1.30812788,-2.30935740,-0.40948853,0.54792798,0.04156067,-0.32714912,0.21825287,1.00043607,-0.02457771,1.32434070,-3.19457078,-0.42610487,-5.50033379,-0.06004367,1.10991347,-0.82854676,-0.37852204,0.61204189,-0.09333764,0.08535980,0.01180029,0.51868230,0.08192645,-8.42885399,0.82546085,0.23300476,1.73951221,0.01341921,0.84338546,-0.11215199,-1.04439533,-1.49794555,-0.56881130,-0.32475233,0.79876995,0.49425203,-0.06307061,0.39482972,0.37184921,0.01803716,
0.20079039,-0.65946335,0.15615869,-0.16191642,0.09974858,-0.01250728,-0.21032520,0.13639396,-1.29785967,3.14686131,0.73633325,0.22229473,-1.15744376,0.33264339,0.17783071,-0.14447129,0.13508302,-0.19647057,-0.24616809,0.35686454,0.18373622,0.09491326,-0.25174582,-0.49031311,0.60452807,0.05390393,0.04950736,-0.83822930,-0.86002904,0.09331736,0.17755660,-0.52114516,-0.15029648,0.39110455,0.30439869,0.28788352,-0.97765899,0.06382596,1.29186523,0.19412334,-1.39929521,-0.20050322,0.00276617,-1.12310946,1.09003818,0.03344889,1.89248323,-0.44142926,0.26813447,-0.55843848,0.32297400,-0.65560615,0.44141626,-0.46608129,-0.01709928,-1.00484264,-1.26486993,-0.16112681,-0.16645166,-0.19524956,-0.19096337,-0.08154522,-0.05543868,0.01397827,-1.66450703,-0.17939936,0.29554355,1.18310952,-2.94668794,-0.48554134,0.08711606,-0.19599037,0.72859699,-0.79065049,2.02363706,-0.17544635,0.20085689,-0.00838572,-0.52592295,0.55464637,0.37608987,1.99570286,0.17118473,-1.10150778,-0.02912598,-1.47118676,-0.86215109,-0.28506759,-0.39698112,0.10282463,-0.56471753,-0.09196553,0.02985676,-1.01009226,-0.10665518,0.07110041,0.50705582,0.01473314,0.05000262,-0.32595274,0.45425731,-0.23265024,-0.79917616,0.28200078,-0.09801713,-0.55817097,1.30438685,-0.79838276,0.18526612,0.06277204,1.41674709,-0.20459436,-0.57944560,0.35950774,-0.49356818,-0.10382005,0.35690793,-0.87380546,0.14564557,0.17994754,0.65228021,-0.85106915,-3.43908358,0.07662480,0.32159767,0.48988575,0.70045578,1.15076029,
-0.13806474,0.19044708,-0.33636206,-0.57868183,0.33180684,-0.58904707,0.37053692,0.05750052,-0.03387563,-5.41812754,-4.86505032,-0.01553069,-1.90193021,-0.06723022,0.58547014,-0.38568169,1.39270139,-1.50407088,-0.45647570,-0.31218836,0.63202977,0.47444475,-0.02316834,0.48848191,-0.72582453,-0.08081292,-0.54367149,-1.21816981,0.75786692,-0.31392038,0.50996584,-0.08584126,-0.09978661,0.12083828,0.45603183,0.67742825,0.09122673,0.18592513,1.50512707,0.18766038,-1.29569972,-0.50740898,0.29483315,-0.99673241,0.34932020,-0.13179094,-0.90719193,-0.16476421,1.41633797,0.44928357,0.00164416,-1.38118720,0.11264294,0.42904270,0.30277762,-0.18032110,-0.28910148,0.01151788,0.48275095,-0.46119776,-1.41289997,0.26210979,-0.44994202,-0.11592411,0.35519457,-0.92158818,-0.34535322,1.17954338,-0.84273690,0.55333000,-1.56499171,-0.34814936,-0.05854680,-0.05030416,3.36938477,-0.14033239,-0.00309648,-0.41270030,-0.07419555,-0.34806755,0.48977166,-3.97230077,-0.31214872,-0.57745868,0.35743555,0.04211394,-0.94646472,-0.12521410,-0.38400394,0.19718556,-3.55953312,-1.20062423,-1.69240415,1.40401769,0.04799348,0.44581434,-1.58405864,0.55974746,-0.39704639,-1.26505041,0.12751444,0.05563897,-0.13614897,0.20888826,-0.26288158,-0.54698348,-2.85931277,-0.30355889,-0.47680023,-0.36177763,-3.81379771,0.15792799,-0.68372053,1.48667383,0.53253824,-1.60582995,-0.42943299,-3.03590345,0.20725417,0.03110112,2.12301230,-0.97296715,-1.13845837,-0.58482462,0.15707943,-0.00327162,1.59254706,-1.39544857,
-1.64777768,-0.29294345,0.25610894,0.57044393,-1.61783361,-0.78562611,0.05653442,0.07041483,-0.00204856,-1.19685662,-0.11721407,-0.40917909,1.01984990,0.55767125,-2.94375539,0.18546939,2.82248902,3.07230949,-1.67572880,1.57048368,0.20999579,-0.01472991,-0.11503188,-0.74424750,2.23342347,-0.87223434,-2.61337376,-1.93806446,3.07156038,-0.25871816,-0.60346031,-0.22589247,-0.04437247,0.13425684,0.25503957,-0.57408446,-0.13667043,0.41118231,0.27435601,0.07425289,1.08428788,-0.67119205,-0.27140510,-0.36286223,-0.76287520,-0.31273258,-0.54797298,0.25414526,-6.60968399,1.23477507,0.55156523,-1.05179298,-2.21947098,1.44996250,-0.57651615,-0.88111055,-1.99457860,-0.17164119,-1.66127777,0.98106295,-1.17943263,0.55264753,0.56613898,0.02966014,0.05132138,0.44598958,0.43344611,-23.78127098,-0.45358345,0.23499526,-0.19311287,0.83856690,1.19461775,0.21491933,-3.68120360,0.91574472,0.23579599,-0.61762315,0.33325273,-0.00751640,-15.40215778,-1.85207856,0.35846809,1.28336370,0.81425124,-3.86439919,-1.23716915,-0.00209257,0.00838768,0.98569018,-1.74091470,-1.18194425,-0.06780574,1.40030599,0.12525684,0.04183047,0.01514646,0.63405746,0.40305096,0.36023489,-0.52496892,0.17727113,-0.15657917,-0.83694625,-0.13488635,-0.87428993,-0.08505069,-0.27866125,-0.47980961,0.07159287,1.64927232,-0.02413181,0.44434106,-0.67889857,0.92872417,0.61851019,0.39336917,0.37344554,-0.87362784,-0.85902560,-2.48226237,-0.75220692,-0.45072329,-0.27594897,-0.79216814,0.70362067,-0.37531218,1.37472296,
-1.74941480,0.59845471,0.08265824,1.58436573,0.63018334,-0.29413089,1.40782416,-1.45400071,0.37710634,0.07717409,-3.43393517,-0.12176085,0.03168573,0.80400884,-0.39162579,-0.33842653,0.02442022,1.44952214,-0.45848176,-3.35245514,1.12908423,-0.25261533,0.00132191,0.08707617,1.03098035,0.65687591,1.21289814,1.20128977,0.09299382,0.61695033,1.17965603,0.29336202,-0.29335868,-1.38394415,-0.85073757,0.54239631,0.44083315,0.24729116,-0.18082315,-5.06546164,0.03042134,1.20339298,-0.98232394,1.14679229,1.63886869,0.62041068,0.76805568,-1.43860912,1.45600629,0.93488622,-1.34130907,0.96584433,1.02469027,-0.54252207,-0.45100793,0.74535251,0.19226873,-1.78303051,0.59877348,-0.89204198,-0.98676687,-1.04027843,0.01910033,-0.61163962,0.83097380,3.83328342,-2.47924209,0.03178208,0.25787652,0.95717365,0.18383925,1.91043508,1.48399270,0.32348213,0.11561773,0.23032165,0.71817338,0.19441545,-1.74192750,-0.15190260,-0.11154860,-0.06589250,0.36287028,-3.38251901,1.30985451,-2.65586472,1.15273166,1.55805910,-1.52137566,1.20640612,0.39105180,0.96671742,-0.07707403,0.00914817,-3.10044122,-2.65716934,-0.15828364,0.63726777,1.05036557,-0.43788537,-0.09789798,-0.41712442,0.23890124,0.17850004,1.66014946,0.35945320,-0.03639801,1.26778102,-0.22672604,0.78636307,-1.13081241,-1.40006435,1.00505722,-0.69153821,1.15336561,0.09062808,-0.18822975,1.84516776,0.42926446,-0.27060995,1.56808114,0.63986212,0.67984563,1.22381878,-0.02562886,-0.00308505,-2.56373549,-0.11300948,
-0.16330507,-0.97597796,0.22708304,0.01255027,0.04466154,0.37357140,-0.35877752,0.00485815,-1.92241347,3.90564132,0.01183326,0.00600411,0.43395087,-0.04089183,-0.70306844,0.15414357,-0.05730490,-0.09272073,0.32697436,0.15485829,-0.55398560,-0.15956259,-0.30756155,-0.43100664,0.73546749,0.19208741,-0.16040635,-0.18330313,-0.67987096,-0.56578904,0.06120606,-0.88087445,0.01930224,0.33567366,0.20311956,-0.23129790,0.29592526,-0.60984862,0.69402909,0.36485374,0.30691180,0.10717538,-0.40846169,-0.29058462,0.47575554,-0.41448289,-0.98076755,-0.60574901,0.99501890,0.02162665,0.30937764,-0.48403436,-0.18697126,-0.85762471,-0.59041560,-0.48997995,-0.67966491,-0.40246844,-0.13622500,-1.00138688,-1.24117398,-0.13244094,0.94070911,-0.01234385,1.56910765,-0.20340635,0.46289691,1.10598755,-0.84476805,-0.39876479,0.57174206,-0.46037611,-0.96357852,-1.28065681,2.18491364,0.15248297,0.36408117,-0.03792565,-1.18614936,-0.23473489,0.11270628,2.73312831,0.18056311,-3.10168028,0.36218885,-1.03846383,-0.41565758,-0.29177898,-1.29375863,0.25923297,-0.23271509,-0.17865087,0.89375395,0.40223080,-0.76363975,-1.37530816,0.85873777,-0.22997434,-0.20738909,-0.21414666,0.03319067,0.35256293,-1.30609047,-0.00963773,0.15292560,-2.05046058,0.99791282,-0.66931057,-0.41603351,-0.20501845,0.17940454,-0.06825742,0.07119473,0.75521302,-0.47852811,0.60243678,0.23834857,-0.00778689,0.13529736,0.08215174,-1.33786392,-0.70884705,0.22041744,-1.50431800,-0.14834516,-0.25262240,0.21081507,1.37659466,
-0.05155177,0.00765939,-0.09710499,0.37098396,0.01048644,0.37700874,0.91489929,0.87917429,-0.79102498,-0.70289558,-0.53794432,0.57582337,0.74811423,1.09375846,0.17278501,0.10276465,0.26379466,0.28656361,-1.13557017,-0.51451045,-7.00258923,-0.32062867,0.29609004,-0.34723216,-1.18778181,-0.63539863,0.65170693,-0.05076314,0.06175534,0.46287417,0.30476743,-0.25744173,0.71552312,-0.15823859,1.04022002,0.07731148,0.16483031,-0.11053435,-0.06601112,0.50410181,0.97046208,0.58597630,0.15712549,-0.48185843,-0.23581892,-0.04260522,-1.35156715,-1.21130061,1.21827900,-5.06671286,0.25455216,-8.92113686,0.03133963,-0.13206340,1.63985693,-0.16996616,2.14820457,-0.29549089,0.17066224,0.04507907,-0.41143751,0.60250556,-0.03980786,0.59613729,-0.28314120,-41.31260300,0.40650058,0.23261690,-2.61079693,0.27922907,-0.70676172,-0.11132486,-1.83707893,-0.54259896,-0.46169451,-0.44327843,0.78929454,0.83533812,0.92833757,0.12249721,-0.05366612,-1.72978675,-0.66974884,-1.93357992,0.20085530,-1.85531676,1.34742391,-21.81656647,-1.86751997,0.63774455,-0.53623015,-1.02862239,-0.35562795,2.12348628,-1.03655255,-0.37186095,0.45583951,-2.85058188,-0.05671073,-1.03350270,0.69281155,0.25684363,-0.53829283,0.15132432,0.61593187,-0.38354093,-1.16187370,-2.41772532,0.88393563,-0.16840257,0.13126133,0.83147544,0.61550200,0.37264612,-25.21334076,0.03723947,-0.42921326,1.07725906,-1.19890857,-0.79491520,1.24363732,0.80489051,1.12903595,-0.05800145,0.36467758,0.04976493,-0.48502192,0.07066302,
-0.55717552,-0.25235042,0.13873784,0.39835569,-0.10310748,-7.28541708,0.13394287,0.16562727,-0.41282564,-2.29274869,1.94285464,0.19415165,-1.39206529,-0.45580846,2.19778013,0.01808727,-1.14841771,0.80667865,-0.55622721,-1.01889372,-2.76635647,3.02562094,0.36540544,-0.96786350,0.13377066,-1.51537216,1.52044737,-1.36104262,2.08829236,0.41248813,0.34091213,0.06213730,0.22165921,-0.56695157,0.33059618,0.82096171,-1.13831544,-2.83706522,-1.65595150,-0.09177313,-1.97264838,-0.15969966,0.19421047,-0.69426936,-1.35176814,-0.20834476,1.42055726,-0.46605748,-2.33486104,-3.03789473,0.15299605,-7.54129648,-10.91688919,-0.58013195,-1.52414954,-0.83066380,-0.94689906,-1.57046604,-0.38977355,-0.19741292,-0.76538396,-0.55404842,-1.23222435,0.02172494,-0.58184975,-0.43361706,0.14887065,1.43337369,-0.92829949,0.55273575,6.50201273,0.91353166,3.84320641,-0.22538367,-3.12437344,-0.73710269,-0.07288952,0.35930467,0.53330159,0.17617056,-1.76023448,-1.77071059,-0.47833735,0.76145393,0.24774413,0.19036686,-1.67694283,-0.36867476,0.08886762,0.24365181,0.37826416,-1.96381664,-0.74556565,-1.41257274,0.46495563,0.89812958,-0.25723198,0.54058295,-0.46076694,-0.43805030,-0.18889029,0.18367372,-0.25760242,0.23559204,-1.75046372,0.35213512,1.81835949,-1.89833152,-0.16685036,-18.34010124,-0.15213259,-0.00060064,0.10148464,3.11681151,-7.63913822,-1.42847037,0.44566724,-3.53438210,-0.34182361,-1.84698749,-1.34806859,0.19593093,0.22046582,-0.90433061,-1.02899718,0.61569703,-1.75043404,-1.65985847,
0.62817645,0.57326645,0.03462234,-1.39512777,-0.24038868,-0.03246403,0.91128945,-5.16666031,0.72838229,0.06840446,-0.00719948,-5.67418957,0.02675684,-0.60489416,0.11868566,-2.66464496,-0.00632747,0.60925621,-0.56326354,0.04161915,0.42214382,-0.11895593,0.20797549,-0.34815750,-1.14339471,1.46304226,0.13186780,0.83537871,-0.28071469,0.33737922,-1.11673379,0.10936244,-4.34602642,-0.16862385,-3.81666827,-0.16449857,0.57907659,0.48714200,-0.20691819,0.89984107,0.11755038,-0.88026601,0.08669207,0.46147028,0.46622530,0.23400393,0.17610644,-1.23549294,-0.06939153,0.95438260,-1.59866047,1.06993079,0.88173026,-0.55996031,-0.24922439,-0.16210888,-0.14024217,0.27927303,-0.24583153,0.44280022,0.52780730,-0.95683879,0.09430579,-2.14736271,0.46016723,2.55726480,-0.16987921,0.02528024,0.26019752,-0.19273879,-0.11108596,0.26325971,0.58317411,0.31187478,0.02745187,0.48344636,-1.43984222,-4.27113485,1.40412867,0.39836231,-0.17378308,-0.03643170,-0.81496549,-1.04723871,-0.12010729,0.11502855,-0.18122435,1.55816889,-1.02104616,-1.14165688,-0.30205348,1.24585772,0.05978382,0.18150739,-1.09414947,-0.43279338,0.10302161,1.67749524,-1.22455823,0.00520859,-4.60585928,0.08429677,0.15559217,-0.28425977,-0.15549973,0.23343737,0.01416241,0.48997748,-0.36277053,0.51371533,-0.03275905,-4.55373621,0.09736472,0.02473836,0.72072762,-0.04465689,0.07403306,2.32715511,-0.15269215,-0.53043181,-0.23991534,-0.15299958,0.36977968,1.43739176,0.10658134,0.03125113,-0.62757581,0.00805524,
-0.23176852,0.33265081,0.38577753,0.03576701,-0.41776469,-0.01755218,-0.07751214,0.31096801,0.18231413,0.44012028,0.18990186,0.15983269,-2.22912216,0.08231393,-0.00061909,0.10393710,-0.09788982,0.20575422,-0.01337359,0.07365636,-0.76263881,0.09749790,-0.04254906,-0.34405422,-0.27945215,-0.11253273,-0.04130631,0.68616647,-0.05476879,0.09321833,0.00962824,0.10865634,0.17651103,0.05664537,0.42807052,-0.02730253,-0.27766952,-0.08582133,0.26427820,0.10151324,-2.87328267,0.21132253,0.06919809,0.40276319,-0.32822284,-0.22668549,0.24987188,-0.28603980,-0.50241691,-0.65789944,0.24718618,-0.19057511,0.30082744,-0.16102628,-0.38333178,0.02194240,0.04937396,0.08989844,-0.26211226,-0.31827724,0.51259178,0.10789131,-1.23849952,0.08520640,0.18322910,1.81426764,0.50585467,-0.00845656,0.03164320,-0.04441642,-0.49381027,0.11191634,0.24098663,0.10443759,0.15924525,-0.22659151,0.21484232,0.20225522,-0.06335487,0.20587349,-0.27698499,0.61662698,-0.12416023,-0.04559805,-0.20326231,-0.26569727,0.12776658,0.03867887,-0.30977878,0.11105166,-0.29139253,-0.20615132,-1.07201624,-0.02497496,-0.27886108,0.02638012,-0.02264784,0.23136434,-0.12175837,-0.34498048,0.31977573,0.19392979,0.00449970,0.23130713,-0.31784356,-0.13528368,0.20182267,-0.12812124,-0.62323564,0.06196709,0.33090439,0.29051149,0.19710881,-0.00648813,-0.32616621,-1.44765961,0.01222403,0.05282072,0.17599864,-0.25252587,-0.67699093,-0.13025354,0.07175882,0.14674026,-0.35528830,-0.17548735,-0.24237427,0.09634967,
0.22314928,0.38497353,0.38593960,0.11449313,-0.40310350,1.61170459,-0.03702315,0.14086384,0.22106208,1.04939151,0.81972903,0.16915226,-0.84504777,-0.18800667,0.34579891,-0.00104531,0.78243327,0.13913342,0.41839311,-0.11138004,-0.35723096,0.11472467,-0.20178258,-1.04723024,0.19901429,0.17505020,-0.77306807,0.63782710,-0.37965491,0.08524439,-0.13441405,0.23370273,0.16480307,-0.13078623,0.38761362,-0.29505759,-0.28437784,-0.07741910,-0.96837968,-0.11664227,-1.08432007,0.08816853,-0.12076551,0.17319994,-0.38384888,-0.30065021,0.09069321,-0.50123376,-0.74770224,-0.50982189,-0.13279328,-0.06409361,0.18154329,0.06652579,0.06567638,-0.10425457,0.45800984,0.27041060,-0.62281841,-0.11667550,0.30437934,-0.12151819,-1.12956905,0.07677131,0.16039437,1.91985404,-0.70879787,-0.31651127,-0.08921632,-0.05243181,0.33199668,-0.23692319,0.10296175,0.22306795,-2.74775028,-0.16414125,-0.13612887,0.20877102,-0.25887617,-0.60918933,-0.63580000,0.69231778,0.24921224,-0.37594634,0.32817891,-0.06062004,0.23713176,0.07624704,-0.38749960,0.15325435,-0.39613503,-0.27072960,-0.33127278,0.19127753,-0.18986969,-0.34730506,-0.76381743,-0.28151554,0.18068899,-0.35812166,0.14125061,0.27431241,-0.06195700,-0.36651519,-0.57721478,-0.13320719,-2.44686413,-0.17271900,-0.77321738,-0.02022861,-3.33597517,0.35518268,0.13856229,-2.01788568,-0.00985877,0.14706449,0.45731029,0.13091433,-0.38335380,-0.24382387,-0.25587347,-0.21874611,0.35534230,0.03938672,0.32109371,-0.27622813,0.06229701,-0.58897680,
0.21970636,0.66812474,0.31951764,-3.00643253,-1.23574960,-0.16432613,1.38363612,-6.76027012,0.86986589,0.31730092,0.07662389,-8.09983730,0.31268385,-1.55393684,-1.61880696,-5.71146584,0.02441482,-2.12182355,-1.11824918,-1.75859761,0.90773576,-0.65610164,0.02328321,-0.37955219,-1.54634452,1.43033898,-0.56512082,0.67746943,-0.04568946,0.57090271,-2.45882463,0.12194484,-5.85896444,0.07973605,-4.99562216,-1.92662513,0.58931720,0.44821134,0.01263168,-2.08461833,0.44411746,-3.41058183,0.11932678,0.55939633,0.28473115,0.25654495,-0.15124877,-1.01209831,0.20197280,1.36966395,-3.23045421,1.17753839,0.86039901,-0.49380550,-1.70350945,-0.91575205,-0.59137219,-0.38809881,-0.34334213,1.04308629,-1.60135412,-3.70495701,0.40783167,-3.80939245,0.46492654,2.31583261,-1.36190546,0.01579566,0.28402817,-0.06010956,-0.33068246,-3.55818033,0.78028989,0.57574815,0.22039090,0.35599688,-2.97662425,-4.99105787,1.47958958,0.59171212,0.47223768,0.37182459,-1.36647558,-1.00466228,-0.64760941,-0.23339117,-0.15049012,1.84468877,-0.71943527,-1.73938656,-0.60756159,1.04546905,0.13092718,-0.03091799,-1.06864750,-0.77353346,0.08946581,1.07557034,-2.13759208,-0.38072208,-5.36850691,-0.15942265,0.34022617,-0.60257250,-0.09270989,0.29994476,-0.11131947,0.05335746,-0.46814260,0.57041013,0.37460452,-8.11410618,-0.08709467,-0.18858552,1.13951552,0.39060667,0.23329082,1.11542428,-0.64694315,-1.18055654,-0.40106893,-1.38757670,0.30055481,1.07929862,-1.33934295,-0.05483079,-0.11526302,0.34133607,
-0.76294941,-0.00187311,-0.29761273,-0.09147348,0.07485314,-0.86391336,0.01153940,0.07927775,-0.10637999,-0.26601291,-0.01034708,0.08674404,1.03121805,0.17516170,-1.10660279,-0.30605802,-0.22145297,-0.21683551,-1.13020599,-0.32046515,-0.51880825,-0.25112906,-0.02152249,0.00292946,0.04835989,0.14080574,0.03371878,-0.26720512,-0.03711646,-0.19670355,-0.32240537,-0.05502085,-0.21755932,-0.53758407,-0.21652098,-0.21000452,-0.20439780,-0.73403859,0.76730883,0.29886672,1.19759905,-0.06008700,-1.14180100,0.04352798,0.01195557,-0.38680059,-0.36107585,-0.32705334,-0.63071799,-0.35044774,0.15270379,-0.32939288,-0.12437630,0.06295713,-0.54283679,-0.03934949,-0.04129009,-0.46369493,0.07744222,-1.07901442,-0.21281727,-0.01244825,-0.14195961,-0.57856899,-0.09164626,-0.37448719,0.16239634,0.06619781,0.03970655,-0.20331132,0.22279513,-0.15140238,0.26514837,0.06864696,-1.13254046,0.32161644,-0.12798630,-0.16806096,-0.93651605,-0.34772187,-0.11609877,-2.27354932,-0.18044671,-0.74091315,0.05172657,-0.29715446,-0.48382849,-0.57080048,-0.26284882,0.10866871,-0.02046216,-0.21667469,-0.24300575,0.46578619,0.08038216,-0.28701022,0.83218306,-0.38331884,0.02591083,0.02281919,-0.13086443,-0.15795963,-0.02958966,0.16616429,-0.83492041,-0.24959347,-0.13662072,0.25242591,0.02303321,-0.03711461,0.22644076,-0.16707455,-0.09811463,0.37929687,-0.64141995,-0.56427050,0.08998025,-0.12335998,1.08628488,-0.89151984,0.00377329,-0.75288266,0.08114012,0.22697286,-0.17259687,0.00746849,-0.64156598,-0.43342397,
